0.0,0.0,0.0,0.0,0.0,0.0,0.0,0.0,0.0,0.0,0.0,0.0,0.0,0.0,0.0,0.0,0.0,0.0,0.0,0.0,0.0,0.0,0.0,0.0,0.0,0.0,0.0,0.0,0.0,0.0,0.0,0.0,0.0,0.0,0.0,0.0,0.0,0.0
0.0,0.0,0.0,0.0,0.0,0.0,0.0,0.0,0.0,0.0,0.0,0.0,0.0,0.0,0.0,0.0,0.0,0.0,0.0,0.0,0.0,0.0,0.0,0.0,0.0,0.0,0.0,0.0,0.0,0.0,0.0,0.0,0.0,0.0,0.0,0.0,0.0,0.0,0.0,0.0,0.0,0.0,0.0,0.0,0.0,0.0,0.0,0.0,0.0,0.0,0.0,0.0,0.0,0.0
0.0,0.0,0.0,0.0,0.0,0.0,0.0,0.0,0.0,0.0,0.0,0.0,0.0,0.0,0.0,0.0,0.0,0.0,0.0,0.0,0.0
0.0,0.0,0.0,0.0,0.0,0.0,0.0,0.0,0.0,0.0,0.0,0.0,0.0,0.0,0.0,0.0,0.0,0.0,0.0,0.0,0.0
0.0,0.0,0.0,0.0,0.0,0.0,0.0,0.0,0.0,0.0,0.0,0.0,0.0,0.0,0.0,0.0,0.0,0.0,0.0,-0.0420067454207242,-0.0016378507992060541,0.0,-0.09878160684039139,-0.006011193414316165,0.0,-0.006773516251146924,-0.024165682285072265,-0.006228581183527476,0.0,0.0,0.0,-0.025428803158526594,-0.011548844597219592,0.0,-0.0001215306936704627,-0.0018843672592139232,-0.22458872190301507,-0.5507771037145369
0.0,0.0,0.0,0.0,0.0,0.0,0.0,0.0,0.0,0.0,0.0,0.0,0.0,0.0,0.0,0.0,0.0,0.0,0.0,-0.08778925290725711,-0.0007142114362963395,0.0,-0.20516771696707814,-0.007142114362963394,0.0,-0.01836106897356998,-0.06401445700288032,-0.017560286454086207,0.0,0.0,0.0,-0.06865305446311844,-0.02468930906255778,0.0,0.0,-0.005856533777629984,0.0,-0.12165401464914317,0.0,0.0,-0.20831166891976569,0.0,0.0,-0.004999480054074377,-0.07499220081111564,-0.004999480054074377,0.0,0.0,0.0,-0.024997400270371884,-0.02999688032444626,0.0,0.0,-0.02999688032444626
0.0,-0.02628869671355578,-0.001984052582155153,0.0,-0.07539399812189583,-0.003968105164310306,0.0,-0.013227017214367687,-0.03257152989038044,-0.006944184037543036,0.0,0.0,0.0,-0.014715056650984052,-0.003472092018771518,0.0,0.0,-0.001984052582155153,-0.18054878497611893,-0.18054878497611893,-0.4583161464778404
0.0,-0.029024072313193323,-0.00208868886211886,0.0,-0.07684634438545633,-0.002610861077648575,0.0,-0.00761501147647501,-0.03263576347060718,-0.006918781855768723,0.0,0.0,0.0,-0.02684835474848618,-0.011226702633888875,0.0,0.0,-0.002610861077648575,-0.20886888621188596,-0.1984254419012917,-0.3942400227249348
0.0,0.0,0.0,0.0,0.0,0.0,0.0,0.0,0.0,0.0,0.0,0.0,0.0,0.0,0.0,0.0,0.0,0.0,0.0,-0.020248233471793914,-0.004212206199800548,0.0,0.040420457311415484,-0.014535732505547159,0.0,0.020337584135733312,-0.05748125250561001,0.032918767650030385,0.0,0.0,0.0,-0.0018067696651911274,0.0332730804496243,0.0,0.007203912705736907,0.03128150714854822,0.06715111505314594,0.6688700591692113
0.0,0.0,0.0,0.0,0.0,0.0,0.0,0.0,0.0,0.0,0.0,0.0,0.0,0.0,0.0,0.0,0.0,0.0,0.0,-0.09075600634663217,-0.0007575560935921901,0.0,-0.20272427916678618,-0.007268491804548455,0.0,-0.017261892412883836,-0.06714849416030083,-0.01648508471268073,0.0,0.0,0.0,-0.06939638470131594,-0.02223376426902031,0.0,0.0009894963096318658,-0.003380258193563128,0.0,-0.12436077369054066,0.0,0.0,-0.2102229081438326,0.0025333203338309637,0.0,-0.005302892655145336,-0.07954338982718005,-0.001426003305206076,0.0,0.0,0.0,-0.022776165385502423,-0.02834605256926944,0.0,0.0,-0.026977850308846394
0.0,0.008982168344825646,-0.0011450495265503343,0.0,0.07293648594049268,-0.0022900990531006687,0.0,0.0034042504178234474,-0.01879789639420132,0.018513667059682302,0.0,0.0,0.0,0.02240761439520957,0.004159243107353325,0.0,0.0029139124930859022,0.015452975640055147,0.1516468756800417,0.1265372724246757,0.5507534943590587
0.0,0.002337765538598598,-0.003702279586333321,0.0,0.08978652835277898,-0.002375131391181207,0.0,0.011381716772225665,-0.053818196924003595,0.019863286867931942,0.0,0.0,0.0,0.00028806190899220745,0.03037676229944474,0.0,0.00544799915466473,0.020184283530281642,0.1848446461117573,0.11977079652339997,0.4556438955774082
0.0,0.0,0.0,0.0,0.0,0.0,0.0,0.0,0.0,0.0,0.0,0.0,0.0,0.0,0.0,0.0,0.0,0.0,0.0,-0.0239960586634647,-0.004168254062454011,0.0,0.0465818492016972,-0.02817618775507599,0.0,0.025170674374804445,-0.06189119057508044,0.04753949935491389,0.0,-0.004416294869519216,0.0,0.007779310812114373,0.02070751753457248,0.0,0.009427151842514062,0.03583874699769638,0.05406113767656837,0.630146514385069
0.0,0.0,0.0,0.0,0.0,0.0,0.0,0.0,0.0,0.0,0.0,0.0,0.0,0.0,0.0,0.0,0.0,0.0,0.0,-0.09331613181033496,-0.0008111781490410742,0.0,-0.19934632897581303,-0.006530794356242467,0.0,-0.016101151638398335,-0.07074338165158345,-0.015701515958455238,0.0,0.0003154466022738982,0.0,-0.0705329011702391,-0.017943505399176708,0.0,0.0019609937791539283,-0.0005657980469738075,0.0,-0.12744648713801146,0.0,0.0,-0.21035956846530618,0.006347456440999092,0.0,-0.005678247043287523,-0.08438110064632318,0.002005011422352906,0.0,0.0,0.0,-0.01965574208535077,-0.026461673118098404,0.0,0.0,-0.02368589614180489
0.0,-0.054773269378266445,-0.002745243675475905,0.0,0.11211208535849805,-0.10543487798770322,0.0,-0.006897029251959048,-0.05403122190884924,0.10052096369881473,0.0,-0.04610947619201933,0.0,0.10002011657159388,-0.11430921560587272,0.0,0.014249027173831674,0.0512371702207064,0.01578471410730388,-0.006160970976701571,0.21537167233765023
0.0,0.002526878486843233,-0.002937497064435957,0.0,0.09779046279256708,-0.01101005388833598,0.0,0.012860440070048548,-0.047133000702759095,0.026828999404630967,0.0,-0.002709087435802607,0.0,0.00879743853138899,0.01943246758117938,0.0,0.00619962502170361,0.021451049458296973,0.1974907219063848,0.12768128409363258,0.4150711697667302
0.0,0.0,0.0,0.0,0.0,0.0,0.0,0.0,0.0,0.0,0.0,0.0,0.0,0.0,0.0,0.0,0.0,0.0,0.0,-0.10621204340210155,-0.00744715868936134,0.0,-0.02961557913365949,-0.08277149511987109,0.0,0.038584168008340275,-0.16207280277154978,0.08086755982145136,0.0,-0.01429457875119962,0.0,0.02545369232429943,0.015559483047988527,0.0,0.020175923771882577,0.05135681692293538,-0.22329085738244828,0.14211822677172978
0.0,0.0,0.0,0.0,0.0,0.0,0.0,0.0,0.0,0.0,0.0,0.0,0.0,0.0,0.0,0.0,0.0,0.0,0.0,-0.09487278270100218,-0.0008652719544057875,0.0,-0.19438510770234108,-0.005444111893476942,0.0,-0.014423446213797207,-0.07330639682893472,-0.014398311220111893,0.0,0.0006292964006468698,0.0,-0.07155181969326234,-0.013516851092823228,0.0,0.002928544215682162,0.002950798832310005,0.0,-0.12901925798393488,0.0,0.0,-0.2090824479436593,0.010144770500684797,0.0,-0.006056903680840511,-0.089272357406321,0.007036583782497504,0.0,0.0,0.0,-0.016573458652661216,-0.02461464086799214,0.0,0.0,-0.01881774759928986
0.0,-0.05643776728330539,-0.0017154497072487218,0.0,0.03126954107067462,-0.0904477113770383,0.0,-0.009100697341483865,-0.03778733706113387,0.06748999263815651,0.0,-0.03686065953367672,0.0,0.07058129936970861,-0.0941829418732083,0.0,0.01017158473697738,0.032696793222510956,-0.11506174141904303,-0.11432335313906719,-0.23181008423059665
0.0,-0.039421625950800704,-0.006525287683374931,0.0,0.14362783315141195,-0.06708624749328568,0.0,0.013908169733534542,-0.16044592926071097,0.05504877402909253,0.0,-0.011785053558528057,0.0,0.035576225285837856,0.023209224867550966,0.0,0.017767540024488587,0.03587360347537356,0.15742497759979404,0.02053486765955392,0.21154147887569763
0.0,0.0,0.0,0.0,0.0,0.0,0.0,0.0,0.0,0.0,0.0,0.0,0.0,0.0,0.0,0.0,0.0,0.0,0.0,-0.09175388876618792,-0.004943024004592419,0.0,-0.058213795003357535,-0.06523505611205421,0.0,0.023075671666348257,-0.1242440903700128,0.05180703698792269,0.0,-0.011521125872911766,0.0,0.02051045750807464,0.00324654776959632,0.0,0.014449824556918489,0.029755008975377622,-0.25568242975429695,-0.2454953663197677
0.0,0.0,0.0,0.0,0.0,0.0,0.0,0.0,0.0,0.0,0.0,0.0,0.0,0.0,0.0,0.0,0.0,0.0,0.0,-0.0964167976108171,-0.0009218597067191849,0.0,-0.18886495391480915,-0.004279794804747485,0.0,-0.01261862275942421,-0.07594860522694272,-0.012992510668331009,0.0,0.0009629125201677197,0.0,-0.07255106579645793,-0.008784394352107941,0.0,0.003955838775805833,0.006693817583545136,0.0,-0.1305392583224791,0.0,0.0,-0.20746960221663566,0.014178187363620759,0.0,-0.006453017947034288,-0.09437581286829368,0.012388727175282891,0.0,0.0,0.0,-0.013269606040926009,-0.022617123816792456,0.0,0.0,-0.01360852928758089
0.0,-0.048360289740181084,-0.0011451078519302564,0.0,0.010856361341957539,-0.08121923575013996,0.0,-0.007058822151286436,-0.028177906145873052,0.05677038456832136,0.0,-0.031434256478958096,0.0,0.0551825883002013,-0.07888100756099707,0.0,0.00786544132871298,0.026711758344982756,-0.12686153671295675,-0.11889009179519015,-0.3205179858721149
0.0,-0.07021850171476277,-0.007314125763773506,0.0,0.10419848854188382,-0.09294417766457015,0.0,0.005055605003474787,-0.20510231311076615,0.051362995247183296,0.0,-0.015610816682497308,0.0,0.046020446691357304,0.013638082040463646,0.0,0.0215790601785792,0.030577207090592813,-0.007208084860685488,-0.14420728652428857,-0.18485029375193254
0.0,0.0,0.0,0.0,0.0,0.0,0.0,0.0,0.0,0.0,0.0,0.0,0.0,0.0,0.0,0.0,0.0,0.0,0.0,-0.05512552916528053,-0.0017246261269980227,0.0,-0.08413167393987074,-0.025510341584990902,0.0,-0.0007711981482536655,-0.05117917897507746,0.006658573200499731,0.0,-0.004390174183863781,0.0,-0.0021082237452395244,-0.011418250701439236,0.0,0.004125898159104595,0.001197027427135955,-0.24020860341204342,-0.5114226956007931
0.0,0.0,0.0,0.0,0.0,0.0,0.0,0.0,0.0,0.0,0.0,0.0,0.0,0.0,0.0,0.0,0.0,0.0,0.0,-0.09026131757216073,-0.0007037653302571821,0.0,-0.20164090850418243,-0.007183385827238275,0.0,-0.019543294694342024,-0.06469731062121199,-0.01748977436178372,0.0,2.2901757025967222e-05,0.0,-0.06738729808362509,-0.02407619657044936,0.0,0.0005382663174987052,-0.006051933697171567,0.0,-0.12441772815592368,0.0,0.0,-0.2076297004974378,0.000936900067416017,0.0,-0.0059751732073910005,-0.07362847310476471,-0.003062264362123235,0.0,0.0,0.0,-0.02542583504999019,-0.029672624454616027,0.0,0.0,-0.029599118423067408
0.0,-0.03539362157876701,-0.000557423057131506,0.0,-0.04511652691502524,-0.03539976538059119,0.0,-0.010303226857369079,-0.014435465307225202,0.00947287715732748,0.0,-0.013178180987310965,0.0,0.012308448180985547,-0.036648838802617816,0.0,0.0024474666215360593,0.0018844783880514876,-0.18068444735344938,-0.16491977853813755,-0.4372217114195578
0.0,-0.04366138503282947,-0.0023348964192743023,0.0,-0.031128135981160873,-0.03170403120655714,0.0,-0.009085453324419691,-0.07212712280671653,0.002505296075134787,0.0,-0.005283058539883804,0.0,0.003990989736650924,-0.011047841755586459,0.0,0.005888115412160187,-0.001368089033045705,-0.183598550991396,-0.20350426778855626,-0.3927457722253517
0.0,0.0,0.0,0.0,0.0,0.0,0.0,0.0,0.0,0.0,0.0,0.0,0.0,0.0,0.0,0.0,0.0,0.0,0.0,-0.04407184486438356,-0.0008885578417710947,0.0,-0.08773740193716541,-0.01522243942659464,0.0,-0.006843276401667489,-0.03238471822369004,-0.005551823373929463,0.0,-0.0020296426261352746,0.0001672810617567663,-0.008454487540107488,-0.014742374547574788,0.0,0.0013974751938505055,-0.005699884054808953,-0.2262266736081842,-0.5485504377303749
0.0,0.0,0.0,0.0,0.0,0.0,0.0,0.0,0.0,0.0,0.0,0.0,0.0,0.0,0.0,0.0,0.0,0.0,0.0,-0.08377926245666066,-0.0005634938349950804,0.0,-0.2011537465992457,-0.008457635253118684,0.0,-0.02249576619812718,-0.056443320084605265,-0.019235339761038722,0.0,-0.000473792321193703,0.0,-0.06224818412801462,-0.03128002895075578,0.0,-0.0012838584035949788,-0.012558657787414487,0.0,-0.11672943220460484,0.0,0.0,-0.20027280246870316,-0.006081705139870571,0.0,-0.005508953697495503,-0.060045052076133205,-0.011103201746207927,0.0,0.0,0.0,-0.030927223391936546,-0.03233108003543175,0.0,0.0,-0.03697363501838162
0.0,-0.03212025542897498,-0.00046866563782882334,0.0,-0.05553331989796143,-0.02663508822486662,0.0,-0.011716741000930824,-0.012162574137654286,-0.0034163769494158468,0.0,-0.00947242108069229,0.0004439124358668223,0.0012288666446697869,-0.029210682702465685,0.0,0.0011921866609923705,-0.0031926564824876352,-0.20176531058369493,-0.17508877855266658,-0.4363158589913324
0.0,-0.033562075111143196,-0.0009734676834071845,0.0,-0.05835441837462464,-0.014679287687358775,0.0,-0.011715590367751948,-0.035113803957014356,-0.009513311827041182,0.0,-0.0022839777825741443,2.483380478314409e-05,-0.006455138251522225,-0.015572637002897457,0.0,0.0016956515022565888,-0.008910742414206018,-0.2074072402409995,-0.19659666364900094,-0.3971135482377989
0.0,0.0,0.0,0.0,0.0,0.0,0.0,0.0,0.0,0.0,0.0,0.0,0.0,0.0,0.0,0.0,0.0,0.0,0.0,-0.04050957159345177,-0.0006673345118984064,0.0,-0.08924631980196447,-0.012735263905870833,0.0,-0.008954843810115614,-0.027230697077668634,-0.009676542819334914,0.0,-0.0013787950813087051,0.00023045158089896305,-0.01096026090539622,-0.01617070125658282,0.0004746975272060471,0.0005932192646329828,-0.007731097182448409,-0.22034855592971478,-0.5530560324598918
0.0,0.0,0.0,0.0,0.0,0.0,0.0,0.0,0.0,0.0,0.0,0.0,0.0,0.0,0.0,0.0,0.0,0.0,0.0,-0.07980578813639568,-0.00047603872739181266,0.0,-0.19968179068813247,-0.008796902545119074,0.0,-0.024186543526520242,-0.052019319875939246,-0.019944571171566835,0.0,-0.0007006831896820201,0.0,-0.05815017267739247,-0.03525523088141287,-0.0005009443748683637,-0.002131438699858197,-0.018323642517787998,0.0,-0.11306540016328451,0.0,0.0,-0.19396973337812656,-0.00930838032308427,0.0,-0.005096370452786984,-0.05540007628688716,-0.014661217043093902,0.0,0.0,0.0,-0.03257929380503393,-0.03655405769565223,0.0,0.0,-0.03933853786411786
0.0,-0.030929879681575907,-0.0004472082698196064,0.0,-0.056401055275614266,-0.024071675864237533,0.0,-0.012418800822470811,-0.011358400035426177,-0.008149733082550079,0.0,-0.008348111740275622,0.0006143139889036462,-0.002745660120341801,-0.027283011150692687,0.00011098685205187014,0.0007657122071211901,-0.0046717866291264495,-0.20828759070272693,-0.1770656767366593,-0.4262918401434334
0.0,-0.031089135412713628,-0.0006160923074205804,0.0,-0.06462261770011439,-0.010244710500567506,0.0,-0.01264463063680995,-0.025391084863566716,-0.012893227352275043,0.0,-0.00149863495197698,3.193770306652311e-05,-0.009402339367093287,-0.01711248584353563,8.364120696182141e-05,0.0005772432994328514,-0.010971816627255934,-0.2138765362034719,-0.19509591536506032,-0.3938181833509379
0.0,0.0,0.0,0.0,0.0,0.0,0.0,0.0,0.0,0.0,0.0,0.0,0.0,0.0,0.0,0.0,0.0,0.0,0.0,-0.0404096029395236,-0.00067126944069372,0.0,-0.09267258695336311,-0.01272403194752687,1.4431682910256383e-05,-0.010515924777104682,-0.028879342393803194,-0.01110675578114084,0.00029692129658596977,-0.0011084609619147294,0.0002854338188224743,-0.013276978090636679,-0.01709091389287484,0.0013752830934951638,0.000592643340753279,-0.009152114086935748,-0.22089714649050368,-0.5388865151099688
0.0,0.0,0.0,0.0,0.0,0.0,0.0,0.0,0.0,0.0,0.0,0.0,0.0,0.0,0.0,0.0,0.0,0.0,0.0,-0.07767446014777304,-0.0004180078721558985,0.0,-0.198593254644967,-0.009076448876258095,-0.00031069893262942105,-0.024647743791369102,-0.048205389563900296,-0.020444871386316316,-0.00031069893262942105,-0.0011794386131063952,0.0,-0.05469307068352024,-0.03812792003111657,-0.0011209276478172639,-0.0033382698999400535,-0.021831855512464464,0.0,-0.10770640237512148,0.0,0.0,-0.1880587859655793,-0.010604588445147846,-0.0041426524350589465,-0.004732978502374854,-0.051371043380815405,-0.015952288966378327,-0.0041426524350589465,0.0,0.0,-0.032368505934780786,-0.04162690915926112,0.0,0.0,-0.03926624893638663
0.0,-0.03348390602439509,-0.0005832824189323803,0.0,-0.05512390845255641,-0.028012560597144118,0.0005194809579579568,-0.015722924859794093,-0.014689254798234063,-0.011189479369916232,0.0007557045595360144,-0.010406787553789081,0.0008977976903717986,-0.0050403158816150475,-0.03212626190267911,0.0013530993706414255,0.0021875370427239423,-0.005095479139767151,-0.23731785865527447,-0.18090844608031437,-0.36453053314102096
0.0,-0.03115944768291289,-0.0005348745541623364,0.0,-0.06597302494427529,-0.009008586810055692,0.00022791371167825747,-0.013227837340875084,-0.023541656908003944,-0.014306231858726459,0.000318252483664254,-0.0013693403453623016,3.539624383301117e-05,-0.010474673727799958,-0.017564020993885474,0.00030747306809184293,0.0002883483686525214,-0.012034301082454145,-0.217916834038826,-0.1957679749807857,-0.38591042762848377
0.0,0.0,0.0,0.0,0.0,0.0,0.0,0.0,0.0,0.0,0.0,0.0,0.0,0.0,0.0,0.0,0.0,0.0,0.0,0.01594062170955447,-0.0018893927200888485,0.0,0.048883827614507894,-0.049448766213137485,0.0005116929539907818,-0.00787955432952687,-0.09208032242246426,0.016594449263454335,0.005041263039111826,0.004075980234208001,0.0038841011253118282,-0.02190925286000913,0.014313502684681085,0.020880805584004982,0.008823707546009163,0.025300966051555494,0.17982759470372592,0.48243199262162934
0.0,0.0,0.0,0.0,0.0,0.0,0.0,0.0,0.0,0.0,0.0,0.0,0.0,0.0,0.0,0.0,0.0,0.0,0.0,-0.07929494852000965,-0.00047057357260725134,0.0,-0.19944352866064483,-0.008829046545429656,-0.0002696124810800937,-0.023630217763702638,-0.051163588579474346,-0.019940348406177786,-0.0002696124810800937,-0.000940507796170999,0.0,-0.05729276210453094,-0.0355600827167482,-0.0008706384518331412,-0.0027104195468579313,-0.01925683722631494,0.0,-0.11100733745418435,0.0,0.0,-0.18820547002972554,-0.009189406790329657,-0.0035948330810679128,-0.004714540627452864,-0.05529132296917369,-0.01396816442678427,-0.0035948330810679128,0.0,0.0,-0.031538805675033275,-0.039886661185605,0.0,0.0,-0.03895134953223792
0.0,0.01694015011465583,-0.00038235869802983745,0.0,0.0811614652403819,-0.0237559473298575,0.0012744410072110131,-0.00422647564558348,-0.006255981902676247,0.009553033979413357,0.0020542143588614145,-0.008904395020444322,0.0023612725833233672,0.0034138255392780637,-0.01710022638008658,0.004316065235245602,0.005025970808859878,0.02164839393744923,0.06638624058796437,0.14740103217676054,0.5777726994566597
0.0,-0.03220603006723495,-0.0018151264741896487,0.0,-0.005577336225847194,-0.0550301336691606,0.005627471778883463,-0.038544206729331495,-0.09350554838638585,-0.020525918816172335,0.009107539228949534,0.00047325543281297476,0.00383938872861365,-0.014818103764889646,0.0021082984056577992,0.013937623568887128,0.010404656146229586,-0.0005838518645810495,-0.2601361807152118,-0.12854314422367624,-0.3028760554409665
0.0,0.0,0.0,0.0,0.0,0.0,0.0,0.0,0.0,0.0,0.0,0.0,0.0,0.0,0.0,0.0,0.0,0.0,0.0,0.024642679400094073,-0.0011098496346278104,0.0,0.07074070643309083,-0.03185542044917978,-0.0006379960963188737,-0.001509810950874872,-0.05686203341480834,0.015215722664644098,0.00375349971349416,0.0013744307378327069,0.0022992485046048547,-0.010316222385051942,0.017006480706942512,0.015469803304231249,0.0065310646204515726,0.02155792526031378,0.20505788107355827,0.5140003440452707
0.0,0.0,0.0,0.0,0.0,0.0,0.0,0.0,0.0,0.0,0.0,0.0,0.0,0.0,0.0,0.0,0.0,0.0,0.0,-0.08059028133043357,-0.000533845147818053,0.0,-0.20118808504655838,-0.008482387726574224,-0.00014060242431016904,-0.023034886937625596,-0.0550165084586877,-0.01883383955944981,-0.0002361012262178781,0.000245349001849373,0.0003250954497229315,-0.06094773350199452,-0.03309246001550048,-0.0006471919806222283,-0.002163070990682154,-0.015035423402607393,0.0,-0.1170179551863786,0.0,0.0,-0.188268662655178,-0.00803271591789408,-0.0021930283304946122,-0.003593188312165494,-0.06051518650799307,-0.010983082273387759,-0.003148016349571709,0.0,0.0,-0.031514744982604585,-0.0358788130259302,0.0,0.0,-0.038226579755911524
0.0,0.020870637115283103,-0.00014826159581202077,0.0,0.07972190485770315,-0.012137551108196538,0.00023254690450269107,0.0010925526560726267,-0.0005955411688027995,0.011869348461367737,0.0016423158320863424,-0.006072681875874684,0.0007544275972567415,0.004747576929507251,-0.006672612768839288,0.0035341093002105558,0.003897768570885352,0.02017446509694525,0.1089056996759557,0.16155219956986358,0.555338883908671
0.0,-0.001602399220089514,-0.0027676585262499946,0.0,0.11053625733124978,-0.09299642571240123,0.014100921915127717,-0.05367406792473673,-0.146033784936555,-0.013068189748430627,0.017104493452634893,0.008158448285342308,0.009509464613250529,-0.013179003043430098,0.03860459726741447,0.026419911993076764,0.019642882473404864,0.020960892128707963,-0.10773557926146894,0.1310200698925292,0.17273216428117494
0.0,0.0,0.0,0.0,0.0,0.0,0.0,0.0,0.0,0.0,0.0,0.0,0.0,0.0,0.0,0.0,0.0,0.0,0.0,-0.048701576590221625,-0.001650823151869723,0.0,-0.08658306173473486,-0.04193907345157681,-0.0030311463878421,-0.014671941982848848,-0.08197361588701181,-0.0069870222430220355,0.003949951233449171,-0.007491869439810693,0.0008887047278067759,-0.024920492310014534,-0.016652741100976223,0.01618876389364685,0.006572723622167129,-0.0040799213215256995,-0.19686184515592972,-0.4367623218019267
0.0,0.0,0.0,0.0,0.0,0.0,0.0,0.0,0.0,0.0,0.0,0.0,0.0,0.0,0.0,0.0,0.0,0.0,0.0,-0.07880440681400307,-0.0004226815707322541,0.0,-0.19701578785489537,-0.00891689724464239,-0.0005802978776317286,-0.022534271281837628,-0.04723964326897493,-0.02127303038871599,-0.0003843483948492433,-0.002966376301196335,-0.0005454398177587762,-0.053366754895345085,-0.037373608661884855,-0.001056857208174816,-0.0029913842822440347,-0.024501164968907734,0.0,-0.10218596788990189,0.0,0.0,-0.18570454970465838,-0.009004135457395488,-0.007084140092481425,-0.0056350905739207076,-0.05059702910304908,-0.015906743036390565,-0.005124645264656582,0.0,0.0,-0.02937856537131317,-0.04811393726093983,0.0,0.0,-0.04123814707708705
0.0,-0.03928295206535098,-0.0005822203264709256,0.0,-0.05161379693382553,-0.030752811248784217,-0.0012541027744022739,-0.013503587844647844,-0.012545686715460838,-0.01027440607995154,0.0025278488112899186,-0.01986352784068863,-0.0022826247113378437,-0.0012344561696836624,-0.04479201359195488,0.004998813383066602,0.005962164347420014,-0.006203063142787463,-0.2765693444749194,-0.18483473566881956,-0.2908282960874773
0.0,-0.03325285623276964,-0.002054352622142798,0.0,-0.0002640300434418596,-0.06161651106834041,0.00895177586486537,-0.04341509845551263,-0.10531527453002952,-0.022792674303552436,0.01037316640847419,0.002884336367255614,0.005576729129174393,-0.017863634027932774,0.0030279810746263276,0.015736214656942853,0.011548673752868381,-0.0038669340378915842,-0.27923937366131957,-0.11731477058063275,-0.2548473697777292
0.0,0.0,0.0,0.0,0.0,0.0,0.0,0.0,0.0,0.0,0.0,0.0,0.0,0.0,0.0,0.0,0.0,0.0,0.0,-0.05019299080167298,-0.0010048726866617598,0.000781895971574842,-0.0972895000718531,-0.023529210184663446,-0.0007190110956318526,-0.011994958588516907,-0.04918389120270133,-0.010163428513553464,0.001956525510073469,-0.006449005385235048,-0.0001531860686637482,-0.017605770096061575,-0.021640289703694575,0.007983607782086698,0.0038062491223994945,-0.01004200685902219,-0.23470382663238512,-0.4507556300741098
0.0,0.0,0.0,0.0,0.0,0.0,0.0,0.0,0.0,0.0,0.0,0.0,0.0,0.0,0.0,0.0,0.0,0.0,0.0,-0.07705041504579803,-0.00035584436047157703,-0.001160877391125442,-0.19335850103271218,-0.009778595830991376,-0.0022381829031054017,-0.021996048135541627,-0.042112059665868076,-0.02311949100476491,-0.0004492446682614725,-0.00479959597049221,-0.0009702798929576402,-0.04847147938761303,-0.038575984748939356,-0.0012363253179739923,-0.004203067714379726,-0.030096978683903347,0.0,-0.09521741691873578,0.0,-0.003119857988649625,-0.1827842618332645,-0.009263569924397324,-0.009368343869524226,-0.0065202245485419755,-0.04430431298727042,-0.02110165179875976,-0.005989928910152972,0.0,0.0,-0.027550751329242736,-0.05305084950563631,0.0,0.0,-0.04170180214072376
0.0,-0.03434430016508378,-0.0003557723256522089,0.00020968551505835906,-0.06222133915522643,-0.017349600333444584,-0.0007414858451542989,-0.009559386620021907,-0.008536682268379529,-0.011129702201334371,0.0012102286171883352,-0.011798080152219913,-0.0018421612594436865,-0.0024496193264773075,-0.028956001096003093,0.002297293578888696,0.002846325745066441,-0.011076106838504657,-0.22801305568524083,-0.18176589580405694,-0.3832634515555577
0.0,-0.03438635413806734,-0.0011159789203914227,9.969785926418103e-05,-0.04077801801466109,-0.029603538027032108,0.004885763147292122,-0.025438314726779723,-0.0556378120014969,-0.018919347533254045,0.004449685894622732,-5.773881631764197e-05,0.0022733147775457177,-0.013851606426159548,-0.01143113943318353,0.00657138716789333,0.004909321816999868,-0.01168507145364409,-0.250320194741094,-0.16984140776109444,-0.313704039237796
0.0,0.0,0.0,0.0,0.0,0.0,0.0,0.0,0.0,0.0,0.0,0.0,0.0,0.0,0.0,0.0,0.0,0.0,0.0,-0.02919293311975775,-0.0016255319944538406,0.006050207742619041,-0.0034891764064147795,-0.0412507964824518,0.009206809193762601,-0.004646712913177306,-0.08309372828623421,0.013450440714505924,0.004894666185022512,-0.009668883352971214,-0.0002091867913529992,-0.017014362350696356,-0.01798626977595437,0.01991066525555079,0.0167165825890221,0.01839784835786883,0.011147452972424622,0.6918856759041955
0.0,0.0,0.0,0.0,0.0,0.0,0.0,0.0,0.0,0.0,0.0,0.0,0.0,0.0,0.0,0.0,0.0,0.0,0.0,-0.07824663549161126,-0.0004107282203422882,-0.0009533345999322585,-0.19377346300633488,-0.009725323908769703,-0.001864075648375499,-0.02196629871524449,-0.045999261942566885,-0.022045174217910003,-0.0004606997170068384,-0.004221485117199233,-0.0008504205698637678,-0.05114138872342194,-0.03686754017153876,-0.0011447212692755281,-0.003706430135265758,-0.026564594275449292,0.0,-0.09935509416699584,0.0,-0.0025620867373179475,-0.1812222937752485,-0.008709104211349865,-0.009250444370986858,-0.006070734166581697,-0.04930514386252806,-0.01928562581081398,-0.006142662893424534,0.0,0.0,-0.025960941326496068,-0.05111342059136117,0.0,0.0,-0.04096402381700364
0.0,-0.01306858842658769,-0.0006399422732530463,0.0025503882254325097,0.0582694467926454,-0.042962733872651884,-0.00021158578694348065,-0.000353825002212919,-0.007028309846497547,0.009359853174018759,0.005574782169555751,-0.03276486907751942,-0.003961056784115185,0.015759790089824314,-0.0621947633604276,0.011606835556413184,0.015626024982934004,0.01997440928171154,-0.10997196504535181,0.058515604529560304,0.5294247912656409
0.0,-0.0016102433001695677,-0.0018738044736334133,0.002685553548300832,0.088213592088191,-0.057208271856529984,0.020712946376779215,-0.03385967057050124,-0.09497083346514926,-0.005854441853449763,0.010342084846967596,0.008185249657072602,0.007078345346728416,-0.010633321606643152,0.01560060671610587,0.01564495422202869,0.01752722686925999,0.01383387208559121,-0.036955338717712144,0.13024062535819414,0.4268008331688837
0.0,0.0,0.0,0.0,0.0,0.0,0.0,0.0,0.0,0.0,0.0,0.0,0.0,0.0,0.0,0.0,0.0,0.0,0.0,-0.09683088382956612,-0.002192708208549324,0.007659895519165586,-0.143890060162416,-0.05167304077088315,0.011004765079246803,-0.014559896919304802,-0.10936764779937788,-0.006258683635239871,0.005367324983948208,-0.01630285428606856,-0.0012968860171755166,-0.029580452614524654,-0.059558105073046944,0.021776491816385718,0.019325142256026346,0.001412960215858414,-0.3323353658881976,0.06950581418672709
0.0,0.0,0.0,0.0,0.0,0.0,0.0,0.0,0.0,0.0,0.0,0.0,0.0,0.0,0.0,0.0,0.0,0.0,0.0,-0.07652965108772147,-0.0003382001251695718,-0.0015620502406063252,-0.1931450539997277,-0.00976010569313657,-0.003000067936722298,-0.02131619870888401,-0.04022478073682786,-0.023888387169721016,-0.0004680657023592302,-0.005175785791021745,-0.001070919983809761,-0.04752817959059925,-0.038052246718557434,-0.001222568313495551,-0.0046022379720889375,-0.032088378666696414,0.0,-0.09409325452064246,0.0,-0.0041980100216294945,-0.1803098396163709,-0.00870708750476743,-0.01001918321258813,-0.0064360551461225745,-0.04210537058132905,-0.021760948852258828,-0.0062408760314564245,0.0,0.0,-0.029390966906031317,-0.05411095631741059,0.0,0.0,-0.04260032972653777
0.0,-0.048662001577669756,-0.0006106374211282088,0.0017895547624625103,-0.049697129562073575,-0.035361981268729616,-0.0006040560845559901,-0.007566770162511174,-0.010639115027042035,-0.010090172453686565,0.0037599463565644075,-0.026630889761035434,-0.003908885203058068,0.006427990386266899,-0.06285308106912671,0.007626652647245757,0.010308795116420123,-0.0027896063744949485,-0.3021257500266805,-0.18168320132635615,-0.22680587947040298
0.0,-0.049378135104381264,-0.0022889206330290114,0.002651494043511295,-0.008802565132187003,-0.06187810397935336,0.021828448899122888,-0.04713583849498477,-0.11328500889199496,-0.02987718912890683,0.010004461904976806,0.005056263623447796,0.00652901018182234,-0.02316274126808144,-0.019403483605250404,0.014780889593330543,0.016336589777442866,-0.00954286030180993,-0.33812748029709505,-0.15570811538958507,-0.06413090747299253
0.0,0.0,0.0,0.0,0.0,0.0,0.0,0.0,0.0,0.0,0.0,0.0,0.0,0.0,0.0,0.0,0.0,0.0,0.0,-0.0725926122044609,-0.0012064890762913379,0.003974090236015291,-0.1267858226817062,-0.02723675016826872,0.005025577103883764,-0.011021560458036376,-0.05932668417413524,-0.012183691784957906,0.002566906412754479,-0.010378565049879116,-0.0010867871797050372,-0.018349597040118473,-0.04458700259435434,0.010392658051096836,0.009418847930115923,-0.0069313757503334525,-0.3020496587371816,-0.27484078713675697
0.0,0.0,0.0,0.0,0.0,0.0,0.0,0.0,0.0,0.0,0.0,0.0,0.0,0.0,0.0,0.0,0.0,0.0,0.0,-0.07560712671636627,-0.0002993283528227113,-0.0018881466296227416,-0.19280187470907456,-0.00977841432123223,-0.003608630003855389,-0.020967161223328642,-0.03712947441088184,-0.024875176168609583,-0.0004719966838199942,-0.00568692482370495,-0.0011890272651852607,-0.04559063411461646,-0.03868573401531976,-0.001264237615314309,-0.0050820558830080844,-0.03504693641014464,0.0,-0.09127081369731914,0.0,-0.005074394067111108,-0.17981489996777364,-0.00870571488743997,-0.010430736070577878,-0.00663157760416342,-0.03824633214709971,-0.023086492705140654,-0.006293289117599926,0.0,0.0,-0.031227782785321137,-0.05571521567792381,0.0,0.0,-0.04347563061943705
0.0,-0.03901438773765476,-0.00033989062655715124,0.0007753094388788639,-0.06269278043531323,-0.017751867206308735,-0.0004740922346792483,-0.00669002130974095,-0.0072700613257552175,-0.012109471395908285,0.0015582150112199067,-0.01323473808167902,-0.0022200455353444054,0.0006262773887889088,-0.0361223232236857,0.003062873423453356,0.00416053670144667,-0.009015301573704138,-0.23325228520511418,-0.18026355042431805,-0.36933259087453973
0.0,-0.04173755671575621,-0.0012009867973378095,0.001186100724261273,-0.04325821030017272,-0.029857012375523028,0.010254625526279836,-0.026699703997288604,-0.05855139281331214,-0.023414941650479817,0.004392024580056462,0.0009188957349267365,0.0027352191996022545,-0.015471169525406059,-0.022983341666103475,0.006343407550791406,0.0068848175078342075,-0.013851588692262136,-0.27508126728330046,-0.18644878585769967,-0.22868741661230693
0.0,0.0,0.0,0.0,0.0,0.0,0.0,0.0,0.0,0.0,0.0,0.0,0.0,0.0,0.0,0.0,0.0,0.0,0.0,-0.053984125860529156,-0.001384024258415728,0.007499442954367678,-0.05362870447131714,-0.03232397389847608,0.012677724636329766,-0.003475092092364927,-0.07020142833850984,0.004343884025264345,0.003995155671519649,-0.007395041077485311,-0.0012074308284465186,-0.014086115094579944,-0.04532054614819757,0.016170947939841904,0.017298565810961994,0.012220179799504561,-0.09306998903409806,0.549602728009483
0.0,0.0,0.0,0.0,0.0,0.0,0.0,0.0,0.0,0.0,0.0,0.0,0.0,0.0,0.0,0.0,0.0,0.0,0.0,-0.07658075709178694,-0.0003454955074072265,-0.0017927750107057639,-0.19313102630004492,-0.009725116478321687,-0.00344589518204264,-0.020778725270125083,-0.04024819336706268,-0.024071653629105877,-0.0004869610066671796,-0.005245672766119567,-0.0011029068042985144,-0.0478162248208586,-0.03699422457087654,-0.0011769388869370247,-0.004720990557385542,-0.03227801846789949,0.0,-0.0947998045476527,0.0,-0.0048180828412717385,-0.177794988599794,-0.008065209801974697,-0.010476697479910986,-0.006199263147300126,-0.04231281588485803,-0.021576604400221768,-0.0064928134222290695,0.0,0.0,-0.03020510829022155,-0.054188738374265244,0.0,0.0,-0.043011448927945284
0.0,-0.023175656311764613,-0.0005327763068663555,0.002889999417820776,0.047767111848042276,-0.03475480255195521,0.0022495013110457617,0.0024913317153360238,-0.00497891364843321,0.0029881732990481376,0.005060948152480513,-0.022955208282858987,-0.003978866662939605,0.016521853220034532,-0.06358155206086781,0.01056104604961996,0.014617829326073643,0.015761399698231482,-0.09841717980867268,0.06300385791228162,0.5635548112613235
0.0,-0.0133969418101541,-0.0016467045214605125,0.003440168811424326,0.06782377202740249,-0.04545272085383703,0.024784370624919987,-0.029501548936331213,-0.08139868546069705,-0.010281698218281633,0.008089883827157616,0.011980489670907962,0.006099504782853022,-0.012119279208957076,-0.00541997823100423,0.012019111810093172,0.01662357422885609,0.00574979913991645,-0.06798456408597241,0.08629756172226803,0.48975232982099937
0.0,0.0,0.0,0.0,0.0,0.0,0.0,0.0,0.0,0.0,0.0,0.0,0.0,0.0,0.0,0.0,0.0,0.0,0.0,-0.03391095130595799,-0.002740233055747111,0.007119729033352595,-0.007075136867968889,-0.029716406172046555,0.0076793722747629046,0.003521106111194683,-0.06335603227382267,0.014206222447038074,0.00427501357722742,-0.008969707760526954,-0.0012052080430497276,-0.007381470961426191,-0.039801438163221715,0.017301439239068184,0.01991271761405796,0.019844017587898905,0.014588067349647973,0.6973075506611167
0.0,0.0,0.0,0.0,0.0,0.0,0.0,0.0,0.0,0.0,0.0,0.0,0.0,0.0,0.0,0.0,0.0,0.0,0.0,-0.07771017176075715,-0.0003988121106096129,-0.0016828152779272479,-0.19352492965384854,-0.009664296575079143,-0.0032582962772234082,-0.020562711677108603,-0.04385109934113721,-0.023145871732761298,-0.0005042698044727698,-0.004736706125820845,-0.0010035760052799813,-0.05038872260690102,-0.03504435620588295,-0.0010762533412944735,-0.004304547086235627,-0.02908413591305471,0.0,-0.09888023763913642,0.0,-0.004522566059429471,-0.175476215073921,-0.007326445322952458,-0.010530508756845037,-0.005700682266247612,-0.04700989418648222,-0.019835270598149293,-0.006723597392970277,0.0,0.0,-0.02902679833281589,-0.052430612410397794,0.0,0.0,-0.04247874345604724
0.0,-0.00508101200268973,-0.0012256163288405604,0.00120341289338313,0.08814268188733325,-0.029963619550893127,-0.012982215016047528,0.008078686273345624,-0.000771714344427636,0.011502435586249945,0.005128054220714301,-0.021595275532350175,-0.00329051573504331,0.020063380149101088,-0.052923905081389534,0.01084168165905662,0.01506500950029597,0.023170686890506432,0.0013229238681332729,0.15775371532153815,0.5298165120010075
0.0,0.007747692768883173,-0.0017235244711362146,0.0023899397168167264,0.08298701055622627,-0.029079451246949516,0.015174408965797732,-0.014626260436725397,-0.04896147582771551,0.002133192696497779,0.0056785435740424,0.009334245129322512,0.004609469045811832,-0.003445056273170906,0.005541996910140671,0.00854009274882733,0.012886980629976123,0.011234354471652334,0.06228254237153293,0.16136638629377395,0.5101977127210108
0.0,0.0,0.0,0.0,0.0,0.0,0.0,0.0,0.0,0.0,0.0,0.0,0.0,0.0,0.0,0.0,0.0,0.0,0.0,-0.06704039842123624,-0.0033303632531616087,0.0034954683019492233,-0.11428115679295195,-0.02341765527547329,-0.0030774864712449636,-0.0035203371381899435,-0.05099201599417299,-0.005426789617116264,0.0028048037751117164,-0.014708442453966361,-0.0014825948502781101,-0.010581119371909102,-0.05296476817872735,0.011327792824239,0.013047825614063919,-0.005060451961844419,-0.27406610220280914,-0.33931368957612423
0.0,0.0,0.0,0.0,0.0,0.0,0.0,0.0,0.0,0.0,0.0,0.0,0.0,0.0,0.0,0.0,0.0,0.0,0.0,-0.0762422054536024,-0.00033181528154192395,-0.0019529178447936471,-0.1930118866687436,-0.009727406300696942,-0.0037471140112701404,-0.02056413407043849,-0.03907376050234442,-0.024478158886534124,-0.0004914112651087345,-0.00545184960028156,-0.001152983158852959,-0.047124889074595125,-0.03707535530628006,-0.0011858820910247696,-0.00492271877123429,-0.0334383901496788,0.0,-0.09383881910635221,0.0,-0.005248466707882929,-0.1772309981260129,-0.007966236451691913,-0.010705062549618536,-0.006237775355934241,-0.04087553871148886,-0.02205545755660455,-0.006552150201449799,0.0,0.0,-0.031033703025785096,-0.0548167293363345,0.0,0.0,-0.04341194130786656
0.0,-0.03503721491787098,-0.0012670165626058208,-0.00039604093202463565,-0.0367812002411866,-0.01929774886498798,-0.015731552607423486,-0.002068053190592671,-0.004568040151662052,-0.005668459242828905,0.002539609373308932,-0.016341160157327568,-0.002450425900339914,0.006852124649632145,-0.043836053802094384,0.005228142791677389,0.007265489581459802,-0.006434260333546814,-0.2050922140114628,-0.13043256392581393,-0.4526697944683023
0.0,-0.04282902266464597,-0.0036280318848131024,0.0012715699255957647,-0.03373720967328652,-0.03221913455371408,0.007381155723678895,-0.025453305224501174,-0.062147270039953,-0.020682047506056237,0.005233272827783734,0.00037674502193545535,0.003943059357765531,-0.013448842741880969,-0.03412022376431958,0.007597429743937478,0.011082794490863548,-0.019353400822852074,-0.27655150988598565,-0.18445672734352864,-0.21440266355543494
0.0,0.0,0.0,0.0,0.0,0.0,0.0,0.0,0.0,0.0,0.0,0.0,0.0,0.0,0.0,0.0,0.0,0.0,0.0,-0.04621789418053842,-0.0019804841737551277,0.0007301731099833699,-0.09454050961069062,-0.010605766207238985,-0.005054428022535166,-0.004132780345658406,-0.023523562220289146,-0.008803949647510492,0.0010428299971604685,-0.009674794731182684,-0.0008841490695726974,-0.0067132776529343595,-0.03244645089881388,0.004209050304765737,0.004843084253494204,-0.010494716055787907,-0.23597874155743856,-0.4980900923575965
0.0,0.0,0.0,0.0,0.0,0.0,0.0,0.0,0.0,0.0,0.0,0.0,0.0,0.0,0.0,0.0,0.0,0.0,0.0,-0.07545311384335168,-0.00029590736466295325,-0.0020975728151262085,-0.19273052388374917,-0.009760894043386118,-0.004008895997025078,-0.020564206292315885,-0.0365127597623395,-0.025191174833241677,-0.00048450519591642326,-0.005834839334679253,-0.0012329965722742279,-0.04537455175447916,-0.03816231728819685,-0.0012445812008399326,-0.0052537689402512005,-0.0357702702250721,0.0,-0.091134487642931,0.0,-0.005637226940651688,-0.1781652620285384,-0.00830876817604957,-0.010798229031702009,-0.0065253396359196405,-0.03758739036080228,-0.023244289958965363,-0.006460069278885642,0.0,0.0,-0.032107957953752646,-0.056093367639364754,0.0,0.0,-0.04391049069934453
0.0,-0.028484393825607468,-0.0007774454218775679,-0.0006488627441435073,-0.05278449959113376,-0.008951385727938773,-0.009983319284786936,-0.003847346142405848,-0.0037359305303135276,-0.0074146528766774215,0.0008749263928198719,-0.00849186622774334,-0.001268200643333522,0.0007675984665371106,-0.02417315303524434,0.0017282876705797864,0.002402177934715162,-0.01120728059488801,-0.17411694174695955,-0.14898223655610449,-0.5093331972637628
0.0,-0.035443979243887064,-0.002177565334245631,0.000151732463042594,-0.05386580538540425,-0.014622145371373001,0.0005853303488131894,-0.014409430852316494,-0.030645715324449756,-0.01674906408487303,0.002047969427789485,-0.0029340476498323055,0.0014161164278170774,-0.009080051701749806,-0.027999240035783877,0.002847826146486461,0.004042225937740693,-0.01871214806608345,-0.23245742127733224,-0.19559382905687314,-0.33418255806569347
0.0,0.0,0.0,0.0,0.0,0.0,0.0,0.0,0.0,0.0,0.0,0.0,0.0,0.0,0.0,0.0,0.0,0.0,0.0,-0.04265052404541325,-0.0016797932889143752,0.0007368759981196072,-0.09257479022626033,-0.006632222390208169,-0.005023474969239513,-0.004179667448339631,-0.015858566478698495,-0.0101069438704377,0.0005081971253558542,-0.008768504717025154,-0.0007514083896215259,-0.005295231795779585,-0.026584198281159023,0.002048634511253316,0.002352342056762886,-0.013407333762114624,-0.23418308856674763,-0.5266209001713708
0.0,0.0,0.0,0.0,0.0,0.0,0.0,0.0,0.0,0.0,0.0,0.0,0.0,0.0,0.0,0.0,0.0,0.0,0.0,-0.07376424138945575,-0.0002649819314759654,-0.002622362583060152,-0.19445407173158427,-0.009738010487094982,-0.004914738324349919,-0.019887373906727766,-0.033592897874353544,-0.025896701328589917,-0.000458737123288974,-0.006097866039995536,-0.001214190741669144,-0.04396393074666396,-0.04148896639221826,-0.001215023287761621,-0.005168900221344577,-0.03522978863693222,0.0,-0.09282355149194164,0.0,-0.005562241938749741,-0.17919156591041155,-0.009262262466006938,-0.010342349759197365,-0.006360688743484816,-0.03426922311908146,-0.022736607681774077,-0.006116494977186333,-0.002449560433442968,0.0,-0.03113450566728398,-0.05760968772990776,0.0,0.0,-0.0421140428280981
0.0,-0.03817896673435794,-0.0009430345669982711,0.008610833960439377,-0.06929360049621373,-0.008020122389628027,-0.0023776875947018146,-0.004833368289765259,-0.005094940247674696,-0.009552989331364302,0.0006486762263655589,-0.009180473134324607,-0.0013961979595842953,0.0015461563714399085,-0.024181336929810046,0.001203002124467367,0.0016725185638608337,-0.01797715560667617,-0.18873603874609104,-0.17852218498355166,-0.4279901755052071
0.0,-0.035059702594796696,-0.0017778466439547676,0.0008624915255028899,-0.062339507011786595,-0.008644104139932714,-6.34449706543919e-05,-0.011178881983892061,-0.02088875110422017,-0.015560216441784012,0.0009934812889848576,-0.004371285166190305,0.000566099134987794,-0.00792132354972386,-0.026439968815521964,0.001262173829359212,0.0016801529988515044,-0.019682451465641716,-0.22062945306376658,-0.20457869468045112,-0.35546041701060693
0.0,0.0,0.0,0.0,0.0,0.0,0.0,0.0,0.0,0.0,0.0,0.0,0.0,0.0,0.0,0.0,0.0,0.0,0.0,-0.04181671185282142,-0.0016200214897561798,0.0007630806444632294,-0.09236538183020258,-0.005306289624994249,-0.005173128462021956,-0.004319432125308628,-0.013468866842398241,-0.009874073095597884,0.00032230923129058386,-0.008707378681301869,-0.0007253387017211444,-0.0049289804046843575,-0.024381611194401607,0.0012973147240527192,0.0015020417268480056,-0.01466599227007033,-0.2355043906647612,-0.5332181030915087
0.0,0.0,0.0,0.0,0.0,0.0,0.0,0.0,0.0,0.0,0.0,0.0,0.0,0.0,0.0,0.0,0.0,0.0,0.0,-0.07285491228706259,-0.00024833082968125746,-0.0029049245344377177,-0.19538209894977893,-0.009725690345080154,-0.005402470007558621,-0.019522950244138117,-0.03202076500734625,-0.026276579475467157,-0.00044486291068520956,-0.006239487704132123,-0.0012040652759995395,-0.04320441700586092,-0.04328013283117474,-0.0011991085963636756,-0.005123205036409466,-0.03493878170255886,0.0,-0.09373300097613549,0.0,-0.0055218684679773904,-0.17974417563641754,-0.00977565176814861,-0.010096892519475036,-0.0062720367000325605,-0.03248263143580706,-0.022463259526035055,-0.005931505475802802,-0.003768473422778144,0.0,-0.030610374616664045,-0.058426123417521535,0.0,0.0,-0.04114678878094011
0.0,-0.04232999186273593,-0.0010231561949294574,0.012468719810376613,-0.07565275559587209,-0.0077574936968738085,0.0006577362378339031,-0.005249009930611243,-0.005715197154268957,-0.010218150673780652,0.000566532950390228,-0.00958785271244251,-0.0014675440350616202,0.0018821274535748926,-0.024510128033751688,0.0010080147284484272,0.0014016876870925406,-0.020613311713229096,-0.19497042624709868,-0.1906332271117633,-0.3922448424690207
0.0,-0.03519749183895236,-0.0016273115206105076,0.0011425555297094666,-0.06510913063643131,-0.0063129285846348845,-0.00031685633862193005,-0.009952426511333604,-0.01714494508503673,-0.015695854516558496,0.0005849753924723678,-0.004945697097911404,0.00023608186999255794,-0.007493465608999316,-0.0259711938163927,0.0006471827512802674,0.0007371834943812316,-0.020200688489621654,-0.2168332952921906,-0.20885632921244762,-0.36095381914879304
0.0,0.0,0.0,0.0,0.0,0.0,0.0,0.0,0.0,0.0,0.0,0.0,0.0,0.0,0.0,0.0,0.0,0.0,0.0,-0.047976616430617305,-0.001950283485570155,0.0012454099072608832,-0.10421235590564758,-0.0051418633290236,-0.0042590619734846165,-0.004377433600846118,-0.015273599615626863,-0.010057994821995387,0.0003059136828957029,-0.007947318194654824,-0.00019812756442933,-0.00584680732870172,-0.027113303997997565,0.0012298543900711393,0.0014331765386757591,-0.01706672058579064,-0.25055448584601003,-0.4937597501350772
0.0,0.0,0.0,0.0,0.0,0.0,0.0,0.0,0.0,0.0,0.0,0.0,0.0,0.0,0.0,0.0,0.0,0.0,0.0,-0.07236530373685009,-0.0002393654047424749,-0.0030570638941765575,-0.1958817750960829,-0.009719056831613816,-0.0056650785634745696,-0.01932673421997167,-0.031174284132609597,-0.026481116631946258,-0.00043739264155795974,-0.006315740820328289,-0.0011986134384276545,-0.04279547329057534,-0.0442445475865989,-0.001190539675648249,-0.0050986014542907096,-0.034782095324840306,0.0,-0.0942226743438278,0.0,-0.00550013024753164,-0.18004171636913152,-0.010052075113003387,-0.009964731387724319,-0.006224303928304351,-0.031520679858677986,-0.022316081134976386,-0.005831901887439455,-0.004478613541651185,0.0,-0.030328167610233145,-0.05886571552190445,0.0,0.0,-0.04062599179932962
0.0,-0.047621572374957656,-0.001172125588438327,0.015614668646325148,-0.08164308252467585,-0.0076022144581768675,0.0035042122361174937,-0.005477579674280284,-0.00662706678998421,-0.011370677675715164,0.0005906038814936529,-0.010207464201361673,-0.001661094615448305,0.0022432406705906027,-0.027344309274528945,0.001028294957060837,0.0014300301822993031,-0.023962145854318027,-0.20889479236231348,-0.20580198007414258,-0.3361555597622369
0.0,-0.037914421883980934,-0.001734243650446161,0.0013868081144131738,-0.06862653948917212,-0.005013678647774726,0.0013159647849586827,-0.01008250685098798,-0.017325245645727877,-0.01684811658637836,0.00046799521269710897,-0.004770455481227351,0.00027195314597174426,-0.008102228230548288,-0.02788875292175919,0.000446259493108866,0.00040198994670605497,-0.021885516416835928,-0.2246188214183492,-0.2153889150079943,-0.3354632302636632
0.0,0.0,0.0,0.0,0.0,0.0,0.0,0.0,0.0,0.0,0.0,0.0,0.0,0.0,0.0,0.0,0.0,0.0,0.0,-0.024533982714228752,-0.0046722951190404215,0.008586706536922752,-0.006238866703356888,-0.00366326384180125,0.005231621703821403,0.009028614681896429,-0.023330685532751003,0.03069651707408329,0.0013862356134114184,-0.002297590367658089,0.002418048098043283,0.0018962066866210815,-0.011858078388340767,0.005762640490019378,0.008103314189708078,-0.0030544636825202494,0.05823070180792628,0.7888686956666887
0.0,0.0,0.0,0.0,0.0,0.0,0.0,0.0,0.0,0.0,0.0,0.0,0.0,0.0,0.0,0.0,0.0,0.0,0.0,-0.0734950590439853,-0.0002792223261245505,-0.0029076470103164324,-0.1955285340745312,-0.009647256891785253,-0.005365156095042866,-0.01931086286195277,-0.0340190661095235,-0.025800886759215574,-0.0004581967318877619,-0.006023911461848251,-0.0011557498359717707,-0.044682472922398256,-0.041994340329702555,-0.0011348365653857106,-0.004917648724747834,-0.033220185776352176,0.0,-0.09627996748241653,0.0,-0.00548133371400719,-0.17729685747833043,-0.009281580121961007,-0.010218080779760944,-0.005951707559652825,-0.03512076638625935,-0.02147051228763788,-0.006109289758503455,-0.004121950729859532,0.0,-0.030125405153596338,-0.05754259738260529,0.0,0.0,-0.04094098468618099
0.0,-0.0176876970708659,-0.0014179540043250149,0.03139023009569099,0.020333302731035764,-0.003671038402272182,0.016192204770413898,0.005094219081262525,-0.002454282581606008,0.011016301330301568,0.0013186144309459012,-0.008862406529238868,-0.001341703401071885,0.013052688322642137,-0.015352614269270782,0.0027098955522477405,0.003798206598374993,-0.008639326167469364,0.05293807280662507,0.06038281961802685,0.7222758569523781
0.0,-0.009823965337091607,-0.003952917013808558,0.010192532271231692,0.04274044284670189,-0.003585214949576463,0.023442668913551856,-0.005398163900720369,-0.026251229562166696,0.01455462375205007,0.0023200229180314943,0.0054010519272981285,0.003635705221022777,-0.002523615953674248,-0.007038343805866084,0.003354808842820116,0.0063377953497164635,-0.009521445923303675,0.06851940091259381,0.09832870587133752,0.6529307653183117
0.0,0.0,0.0,0.0,0.0,0.0,0.0,0.0,0.0,0.0,0.0,0.0,0.0,0.0,0.0,0.0,0.0,0.0,0.0,-0.10027971416087564,-0.008266198900507166,0.012376346343209034,-0.16667336534618643,-0.010129556398406566,0.0017365683303028937,0.004875076414761437,-0.047780612701502495,0.01407810097377777,0.002010736177630183,-0.011004632181228125,0.0033027704008851224,-0.005429398263560589,-0.0604526403596852,0.00831167772807092,0.010604609468523079,-0.0314366242329564,-0.29962514671314755,0.20150491789133576
0.0,0.0,0.0,0.0,0.0,0.0,0.0,0.0,0.0,0.0,0.0,0.0,0.0,0.0,0.0,0.0,0.0,0.0,0.0,-0.07271246287915714,-0.00025600701431420156,-0.0030586343250754993,-0.1959673199135081,-0.009677156894126899,-0.005645180700983817,-0.01921319725183168,-0.03225132871115848,-0.026225886843270905,-0.0004445871487976913,-0.006199880434067817,-0.0011726391285022929,-0.043592790879751764,-0.043553729550957244,-0.00115597331530431,-0.00498809465236339,-0.03385791216999156,0.0,-0.09559730167830162,0.0,-0.005478492493790419,-0.178730121608052,-0.009786387531770248,-0.010030325510812793,-0.006052036559324132,-0.032942252730173004,-0.021782302619878045,-0.0059278286506358495,-0.004669095371349242,0.0,-0.030068074320196893,-0.05839199645913011,0.0,0.0,-0.04051656627974854
0.0,-0.07821150520011784,-0.0026117353965832727,0.0476672755727011,-0.09406864385133883,-0.010721741121732352,0.01241508036352065,-0.001437027382552402,-0.009545356180311066,-0.02380346250224413,0.0018454162270438613,-0.018847737534304645,-0.00305204038699793,0.014880431246185719,-0.0553925594833864,0.0035874339056770972,0.0027034301899702177,-0.04895849553134966,-0.2694837211155939,-0.2556485912456043,0.045023186899869005
0.0,-0.05885889789322362,-0.006076069647919447,0.01221396633995811,-0.045952558408393046,-0.007992616908723405,0.022439916878672302,-0.01726042512878409,-0.046288693171717195,-0.018211142832682686,0.0027840253790819,0.00040742978071544277,0.004060578879867816,-0.01215787491911874,-0.04896966803545332,0.0037396406822678718,0.005949499566024777,-0.040419028011340126,-0.2348895319653416,-0.19162069569770915,0.21960519210423302
0.0,0.0,0.0,0.0,0.0,0.0,0.0,0.0,0.0,0.0,0.0,0.0,0.0,0.0,0.0,0.0,0.0,0.0,0.0,-0.052236586604797346,-0.00636567315705197,0.011258338321278595,-0.06189775155699877,-0.005202989561975565,0.005768534693585891,0.009488942252938736,-0.03272282584653784,0.024243527118843942,0.0017613639414075927,-0.003459010266078463,0.0033868778360073835,0.0008024571399533764,-0.033720612371764096,0.0073164103374146515,0.009408394037848074,-0.014055300869870925,-0.04928968878475431,0.6675477538891798
0.0,0.0,0.0,0.0,0.0,0.0,0.0,0.0,0.0,0.0,0.0,0.0,0.0,0.0,0.0,0.0,0.0,0.0,0.0,-0.07390002408794621,-0.00029863494381366864,-0.0029094789412133387,-0.19562832345135392,-0.009598380183665557,-0.005341945035451829,-0.01917842080578859,-0.035275450302625716,-0.025503158513508668,-0.0004665892031867489,-0.00588875908453663,-0.0011254505257611925,-0.04561255258805837,-0.04118849373025926,-0.0010945145356317115,-0.0047887413589096225,-0.032142116228932684,0.0,-0.09788348530558111,0.0,-0.0054560930527560265,-0.1757668684259269,-0.008971652712560271,-0.01029459705410893,-0.005750755828364616,-0.03677904655199402,-0.020847853938377493,-0.006221189375823267,-0.004344149847929711,0.0,-0.029822003590476775,-0.056989999110672394,0.0,0.0,-0.040813338726072075
0.0,-0.041407938711581264,-0.0022823292458505353,0.04943915253414853,-0.008919250271718148,-0.006025901523380321,0.014824351020676547,0.006827294780665974,-0.0047840416090639696,-0.00697021285007069,0.0020059558476523535,-0.014088839244979702,-0.0022441914992805097,0.019582745897038782,-0.03670146761580797,0.00408715565611164,0.003547709574597646,-0.0311893971816941,-0.048927494747734265,-0.031500612237219235,0.6645748858850138
0.0,-0.025980700379154627,-0.005837482620747285,0.014478698962451209,0.029763277867745384,-0.004782246632666552,0.027126939730735756,-0.009259025512202175,-0.03937179011765885,0.0013758941227370253,0.0031838544501121935,0.006837774750032534,0.005083806395831732,-0.005403807407216971,-0.025241823086064413,0.004537444774183012,0.007905638414142038,-0.022912072412573505,-0.005314266350092096,0.03925321842775142,0.7162660834965936
0.0,0.0,0.0,0.0,0.0,0.0,0.0,0.0,0.0,0.0,0.0,0.0,0.0,0.0,0.0,0.0,0.0,0.0,0.0,-0.07802944861100829,-0.005509337588593285,0.005906201265392921,-0.14994113348531757,-0.006284499834422398,-0.003501980210099684,0.001802291813177423,-0.03138223538484754,-0.001352768576113504,0.0013295077344747778,-0.011827290627147696,0.0024245724561025965,-0.0033344389064164713,-0.05078328034437512,0.005499557198563105,0.006355033991164572,-0.02702628694884674,-0.30625378471319437,-0.3013901999433212
0.0,0.0,0.0,0.0,0.0,0.0,0.0,0.0,0.0,0.0,0.0,0.0,0.0,0.0,0.0,0.0,0.0,0.0,0.0,-0.07293051498674172,-0.00026645967501613097,-0.003059620722294546,-0.19602105117813243,-0.009650839389998578,-0.005632682781625041,-0.019141884258506176,-0.032927824683629425,-0.02606557604008545,-0.00044910604760591547,-0.006127108077155446,-0.0011563245637073016,-0.044093589243304865,-0.04311982407687161,-0.0011342620498491951,-0.004918684901517482,-0.033277429137121305,0.0,-0.0964607106220955,0.0,-0.005464901742035049,-0.17790630399117938,-0.009619508128665712,-0.010071525449263515,-0.005943834754794956,-0.03383514827876817,-0.02144703426183427,-0.005988080634745516,-0.004788737762017758,0.0,-0.029904708737748396,-0.058094451721304834,0.0,0.0,-0.040447835728709865
0.0,-0.051045253070321296,-0.0016260013690261262,0.028334558869726943,-0.07005713562600198,-0.005988064305698151,-0.005315873028407729,-0.002186263907892362,-0.0053937610474512595,-0.021407025519524715,0.0012033583041095575,-0.012193934030733475,-0.0018311409852558966,0.010308917503532092,-0.03780719462904399,0.0023671494024179703,0.0011869654551526217,-0.034037700451221474,-0.20873841420736564,-0.2050551014046879,-0.2938689916810399
0.0,-0.06308873606301534,-0.006084242546350726,0.01102489470314011,-0.06458725966691486,-0.006859716913008762,0.009553347894316949,-0.01868888201975434,-0.045074696984992564,-0.03155797114213587,0.0028262655039446322,-0.0026448164138779796,0.004291180523557022,-0.01105922904443301,-0.057036207490860344,0.0038320742970152856,0.0056916673366628695,-0.0433228820428745,-0.2986236411957655,-0.2704175981540493,-0.04365486825304137
0.0,0.0,0.0,0.0,0.0,0.0,0.0,0.0,0.0,0.0,0.0,0.0,0.0,0.0,0.0,0.0,0.0,0.0,0.0,-0.10352174562263743,-0.011218152075748328,0.01222587939146679,-0.1659452486263133,-0.006906679258815065,-0.004145387960126591,0.016163368374715614,-0.054251184839445014,0.025766923649225407,0.003207247284207388,-0.01852503521620842,0.006824007916848528,0.004726466771592837,-0.06983097825796919,0.01334695946932395,0.01608745316060659,-0.030649788910355937,-0.2657938021593088,0.17069529476644457
0.0,0.0,0.0,0.0,0.0,0.0,0.0,0.0,0.0,0.0,0.0,0.0,0.0,0.0,0.0,0.0,0.0,0.0,0.0,-0.07415438422362997,-0.0003108280852781166,-0.0029106295842098867,-0.19569100155115154,-0.009567680531205918,-0.005327366077701424,-0.01909523342980208,-0.03606459015205609,-0.025316154232277295,-0.00047186054739311315,-0.005803869345183462,-0.0011064194099382606,-0.04619673928138903,-0.04068233831408396,-0.0010691881102730908,-0.004707774135806324,-0.03146497650926382,0.0,-0.09889066115234015,0.0,-0.005440239294226328,-0.174805876289104,-0.008776986088666054,-0.010342657226746441,-0.005624537256179516,-0.037820618841333475,-0.020456759782089978,-0.006291473965241483,-0.004483713987259021,0.0,-0.029631435876282357,-0.056642909964304565,0.0,0.0,-0.04073316379687053
0.0,-0.0758023415120553,-0.005123494897599479,0.10350124627114533,-0.017288289342290854,-0.009355109055774188,-0.035654054952408865,0.011015667763177245,-0.006281810375384679,-0.019549798158879028,0.00493441515731538,-0.03045545839309304,-0.004550543744569806,0.05147773976718567,-0.07475899280218926,0.010223599804321306,0.007775988553106724,-0.06380410393432244,-0.13235392806881238,-0.1217377312130039,0.21412993660855711
0.0,-0.049831249001604634,-0.008652633001509466,0.017722319581468735,-0.002908270757018207,-0.005920253692435674,0.010271325500969387,-0.017906561768552487,-0.057048884260235466,-0.02296553006090988,0.004720561784170517,0.002253534749148963,0.007708874706715305,-0.007189917970309505,-0.05022124383840851,0.006748087296001645,0.0111820219856793,-0.03800567758452631,-0.15969669599036254,-0.1291778608141527,0.38974282526284937
0.0,0.0,0.0,0.0,0.0,0.0,0.0,0.0,0.0,0.0,0.0,0.0,0.0,0.0,0.0,0.0,0.0,0.0,0.0,-0.07331452798286955,-0.010320273138920439,0.011326892316224071,-0.09747109481102048,-0.004006902760897503,-0.0026239962618319645,0.019848076913235552,-0.04606389781900613,0.034997441844747616,0.0031498219036949888,-0.014825398416971398,0.007029785558658575,0.008948990351980768,-0.050879507066125734,0.013134912903558348,0.016053969064841512,-0.01846149178020729,-0.1026099019499921,0.4648494226550735
0.0,0.0,0.0,0.0,0.0,0.0,0.0,0.0,0.0,0.0,0.0,0.0,0.0,0.0,0.0,0.0,0.0,0.0,0.0,-0.07574545060449521,-0.000363221853449782,-0.00276269337844437,-0.195641458277817,-0.009541362386080283,-0.0050196987969317285,-0.019177688207336174,-0.03986851409572322,-0.024116632317112023,-0.0005009436098831336,-0.005373099903023467,-0.0010577988208115851,-0.048796919985994905,-0.037681985565753896,-0.0010031439029031023,-0.004502517361927213,-0.0287878212625584,0.0,-0.10233991244466203,0.0,-0.005450866361874341,-0.17078407618604322,-0.007886025594798453,-0.010722624772376127,-0.005303158476694533,-0.04259709106360991,-0.018605198917295167,-0.0066792481317750774,-0.00417040348081006,0.0,-0.029532136217661185,-0.05540196403190806,0.0,0.0,-0.04046824465073789
0.0,-0.050284564309225226,-0.004866726571530033,0.10202363748224634,0.035424168737749784,-0.006404600970596748,-0.0387986165876794,0.015134314207907264,-0.0031721099694902587,-0.006578421580109141,0.004985205033185487,-0.026850733865617808,-0.00400440316107361,0.053852947285227014,-0.05953946553270137,0.010432471411429998,0.008439118458972664,-0.04943713138460554,0.008865700978768912,0.01869164089077607,0.4921292834333373
0.0,-0.02545649197241518,-0.008803726746472932,0.019333591083611122,0.05207233030730039,-0.0035803092828154918,0.008338867508798056,-0.012694766079004773,-0.05355142116815963,-0.00978327525604773,0.005249725475667636,0.006034482948060169,0.00886677650968127,-0.0019210634885290234,-0.031543785986807314,0.007693071591142683,0.013344377701763721,-0.023834627311875325,0.0036885747610766574,0.02819163009649476,0.6759237284000822
0.0,0.0,0.0,0.0,0.0,0.0,0.0,0.0,0.0,0.0,0.0,0.0,0.0,0.0,0.0,0.0,0.0,0.0,0.0,-0.059235074983269916,-0.010919708559741373,0.01113695237200954,-0.0601739557332531,-0.0018871798325590546,-0.0047716918886078425,0.025990930511978226,-0.044885338058124835,0.04445786706924455,0.003532515430298432,-0.015088256310879471,0.008191811509316103,0.013189480062387852,-0.041752586426268674,0.014756048139306047,0.017180974198381195,-0.011902525662220456,-0.0018745818352744088,0.6089766730000878
0.0,0.0,0.0,0.0,0.0,0.0,0.0,0.0,0.0,0.0,0.0,0.0,0.0,0.0,0.0,0.0,0.0,0.0,0.0,-0.07783069519320916,-0.0004247708337982707,-0.0024674060730864515,-0.19596070405002688,-0.00961627821602309,-0.00392245853112701,-0.019477057114237074,-0.044484037132874354,-0.022537879088051223,-0.000538366411485345,-0.004504267964185424,-0.001015863852755981,-0.05186089704134984,-0.03457839549326317,-0.0009414605434780011,-0.004110415115114433,-0.025669989976717027,0.0,-0.10632254224145474,0.0,-0.005521875090235526,-0.1663513990158404,-0.006992435990836181,-0.010082807607092119,-0.005007590296079634,-0.04831141998995214,-0.016221541573705357,-0.007178218819804558,-0.0038713758741043135,0.0,-0.029744401586771493,-0.053717860425783075,0.0,0.0,-0.040617474119124
0.0,-0.025271354287450202,-0.0035629442984039033,0.07717840486111631,0.05512598670825215,-0.003025249942705944,-0.03476009984737935,0.014210863018280643,-0.00044877286576522124,0.0007809665224096748,0.0038495009755704353,-0.018264235751606663,-0.002718407106005462,0.04204669970318829,-0.03600026897401655,0.008121119493718871,0.0061414056774033166,-0.028849657709807564,0.08094946430630001,0.08796996790567732,0.470659546652763
0.0,-0.004277231732118206,-0.006635889389228673,0.015105228213940218,0.06717859677529539,-0.0010845820679313328,0.0017600516976723467,-0.005919213018352911,-0.03739627157659273,-0.0020810397886724223,0.0042521487772183945,0.0063254455393461344,0.0073594180938685964,0.0013476152690213236,-0.011630984791234337,0.006345153286695559,0.010202403921492156,-0.0095977479537873,0.09040389846003505,0.10189069481436043,0.6091369346321474
0.0,0.0,0.0,0.0,0.0,0.0,0.0,0.0,0.0,0.0,0.0,0.0,0.0,0.0,0.0,0.0,0.0,0.0,0.0,-0.06051638543825784,-0.013492623822697619,0.011572734762929228,-0.056116415673529534,6.194080032438399e-05,-0.01231356200729025,0.037192612301714466,-0.05156516365159908,0.05600526853899444,0.004568101259366713,-0.02405140837284799,0.009279872804108814,0.018908352423226252,-0.04242386768544457,0.019106178191216534,0.020262568512578818,-0.00844024739307066,0.015317738922207386,0.5386919735936845
0.0,0.0,0.0,0.0,0.0,0.0,0.0,0.0,0.0,0.0,0.0,0.0,0.0,0.0,0.0,0.0,0.0,0.0,0.0,-0.08080062193701146,-0.000498359920390682,-0.0019121775185830599,-0.19620483684266687,-0.009836547315337806,-0.0019120855000590606,-0.020085073312914647,-0.0501838637715852,-0.020429120660316966,-0.0005871330310952697,-0.0030247901908798196,-0.0005500731174626528,-0.05580317076168061,-0.03124286472755174,-0.0008873481514676799,-0.003524946041817062,-0.022457776743832772,0.0,-0.11173303931291025,0.0,-0.005679049606837534,-0.16000941791534815,-0.006113060755552211,-0.009526080240902313,-0.004755429933647809,-0.05527105130871369,-0.012781225412518794,-0.00782844041460355,-0.002446969528285693,0.0,-0.0304043859560075,-0.052028122126320145,0.0,0.0,-0.041364517033006296
0.0,-0.01096529970569422,-0.0028800792987879113,0.06411311471986829,0.06728207178338382,-0.0008958048641280549,-0.034944291801895566,0.014403782517705563,0.0013824514474470063,0.0044216761879379675,0.003297847350711802,-0.01358614124238142,-0.0019987808181304184,0.03642943216345477,-0.022031580720829554,0.007015008846059337,0.004366158402678382,-0.016600187171283556,0.12529052336819047,0.13080425575156301,0.43722236584792185
0.0,0.008501198975063264,-0.006273535306651086,0.012763504165094242,0.07966780665665867,0.0007272936968357162,-0.007346471685400939,-0.0016331570971350987,-0.03213083684960339,-0.0007630488810835709,0.004340410569479241,0.0043318320330814125,0.007208645368181109,0.003803393311539451,0.0011856595668546868,0.006592006824488738,0.009063861551013857,-0.0005291820959661039,0.1452107228544124,0.1307754062679059,0.537066781943157
0.0,0.0,0.0,0.0,0.0,0.0,0.0,0.0,0.0,0.0,0.0,0.0,0.0,0.0,0.0,0.0,0.0,0.0,0.0,-0.06999462464904864,-0.017446944486235128,0.01289974422911631,-0.06535134225873636,0.0023385862229860213,-0.02197719215484342,0.05205620056535934,-0.06300159030545963,0.07035585206257935,0.006098650540524986,-0.03620261643753829,0.011205040085160352,0.02691345336899978,-0.05120770620610771,0.02552961512814077,0.02528899679739295,-0.007418722869128338,0.01143021592641389,0.42316241979767266
0.0,0.0,0.0,0.0,0.0,0.0,0.0,0.0,0.0,0.0,0.0,0.0,0.0,0.0,0.0,0.0,0.0,0.0,0.0,-0.08420988980754811,-0.0005841763450539804,-0.001259634248167486,-0.19631599589516088,-0.010085972137338363,0.000446174675266069,-0.020779872799833225,-0.05682042383570851,-0.01793901633212834,-0.0006437734326544523,-0.0012878516857966506,-3.583635816099109e-06,-0.060374518995143206,-0.027305094948076144,-0.0008231262247328349,-0.002835516331142762,-0.01867239570551339,0.0,-0.11797554665088622,0.0,-0.005858223553313989,-0.1524326354764103,-0.0050768063485216435,-0.0088649885383353,-0.004455606342402841,-0.06337981377980324,-0.008737094041102976,-0.008583645768725974,-0.0007751010335371027,0.0,-0.031150897683764906,-0.05000100621479242,0.0,0.0,-0.04220330225295215
0.0,-0.0030500560526707473,-0.002595168686821652,0.059318556080560074,0.07500158862176298,0.0005820311644274196,-0.03762496361625144,0.015049269635719722,0.002810246323894875,0.004340253195977212,0.003138473374154908,-0.011186425365686545,-0.0016229901005691588,0.03501424671629008,-0.016123986394932815,0.006724794436492374,0.003397961554716368,-0.00965794340976215,0.1519893817282543,0.15681312253276192,0.4038836368158369
0.0,0.017468057107747008,-0.006073353918899238,0.011006108689472048,0.08594529376788179,0.0022640456496421865,-0.015131831968305703,0.0016022205378842776,-0.028236567208505623,-0.002309024875702773,0.004487132669255706,0.0027266072081012175,0.007202109751919784,0.005933308707219147,0.009222427380066768,0.006909762239045413,0.008257131375235979,0.005538911638355444,0.17895548133023254,0.14246691484836635,0.45817661719776404
0.0,0.0,0.0,0.0,0.0,0.0,0.0,0.0,0.0,0.0,0.0,0.0,0.0,0.0,0.0,0.0,0.0,0.0,0.0,-0.09010856065573632,-0.0237054584579999,0.015390300607350237,-0.09078297898344612,0.005370954955741276,-0.0368786725350536,0.0742727399632022,-0.082031223764689,0.09123175992006471,0.008472582606518711,-0.054918877439929965,0.014452837783136403,0.03896042419719968,-0.06824837079108852,0.035487737860028394,0.033474861309908906,-0.00902810304632254,-0.019221819545913617,0.20783295588963718
0.0,0.0,0.0,0.0,0.0,0.0,0.0,0.0,0.0,0.0,0.0,0.0,0.0,0.0,0.0,0.0,0.0,0.0,0.0,-0.08736554946763608,-0.0006782437492416129,-0.0004900094145452199,-0.19457400513958545,-0.010279433342358063,0.003179922939922446,-0.02138850396557816,-0.06398409630100149,-0.01487696796639986,-0.0007033987160704464,0.0007410528178027636,0.0006309388514325897,-0.0651065540673237,-0.022473003530917066,-0.0007407178626800913,-0.0020080459692370487,-0.014099508097219498,0.0,-0.12409885628739806,0.0,-0.00601041552945655,-0.14218299078387395,-0.00382530230538052,-0.008012953614472691,-0.004065037937262399,-0.0721902348137356,-0.003958482059011718,-0.009378649547605871,0.0011733685898924716,0.0,-0.031720723884976106,-0.047170922758739485,0.0,0.0,-0.042774922048615875
0.0,0.0012088265237877205,-0.0025536409977775293,0.05973019804371063,0.08143661711947077,0.001794140200310827,-0.04310918260637305,0.01662875807376034,0.0041408563170257885,0.002708161513264918,0.003234961304289425,-0.010079222222034027,-0.0014404641283103784,0.036378185138202936,-0.013073087549498794,0.0069721612730024255,0.002872085085885497,-0.006309662621892239,0.1726124819705703,0.17574923381155969,0.3578875585039277
0.0,0.0249021561669292,-0.0064745830490282735,0.010427881091109184,0.09446527366617163,0.003921821624822281,-0.025563751163895296,0.004785723846404703,-0.02732815736600918,-0.006148142600788303,0.005059326877527544,0.0007917569505306516,0.007893978390908354,0.00850187278561449,0.01591045314488306,0.007876825886107636,0.008302286084824865,0.009910434076826307,0.21143019444345956,0.14698561160527773,0.3732239609355742
0.0,0.0,0.0,0.0,0.0,0.0,0.0,0.0,0.0,0.0,0.0,0.0,0.0,0.0,0.0,0.0,0.0,0.0,0.0,-0.0509354043494664,-0.00764734898161377,0.003171643923686809,-0.0929004456304772,0.000583877366032474,-0.01721517277619008,0.020365110634630014,-0.02838940274046852,0.013853262584607147,0.0026235149464996256,-0.02354969613814358,0.0038762801121662092,0.009530190052254882,-0.03668914254446666,0.010978182930454055,0.009316865857704823,-0.013877831941945539,-0.1817329347183318,-0.4727334163071842
0.0,0.0,0.0,0.0,0.0,0.0,0.0,0.0,0.0,0.0,0.0,0.0,0.0,0.0,0.0,0.0,0.0,0.0,0.0,-0.07851149739995714,-0.0004590898590525228,-0.0024285194100689285,-0.19537324917141968,-0.009430046829860775,-0.004290027861895512,-0.019182134900855376,-0.04671246473375015,-0.02236108763409005,-0.0005518723409687853,-0.004616524372250492,-0.0009611398979367117,-0.05341484823111302,-0.03244323829602662,-0.0008699151937651395,-0.00401838553801876,-0.024348543682150402,0.0,-0.10788406935481516,0.0,-0.005433196006096859,-0.16173045849743226,-0.006186716678477492,-0.011536008154440974,-0.004651229701483827,-0.05125401301977709,-0.01719423863948911,-0.007358297879583753,-0.00473855179963571,0.0,-0.02911206939761681,-0.05226271457919807,0.0,0.0,-0.040631021645132874
0.0,-0.03238017014545234,-0.001469441657205806,0.028119256804781504,-0.03756997247905992,-0.0015727066856490869,-0.030608979281537618,0.0023013543262966557,-0.0005613414013007865,-0.022909406573396778,0.0015377922161252334,-0.008787815469590529,-0.0011701278160375773,0.015359461577335335,-0.025367332448410874,0.003229520357216697,-0.0002377345603902194,-0.022274076907748266,-0.1252609998993414,-0.12818615319584692,-0.5110546420612493
0.0,-0.023162939665607316,-0.004162623763577391,0.0032284360251915102,-0.03386981821007181,0.0004419565238001465,-0.026972326328798202,-0.004054569135229724,-0.021660436079102133,-0.03747323820085936,0.0028118008724421443,-0.009296302395426089,0.003841393408568201,-0.0005069615488451727,-0.020692424180883247,0.004253486911834696,0.002306105595333366,-0.01741679195512176,-0.14993467911400069,-0.2065632794274131,-0.4272978325640055
0.0,0.0,0.0,0.0,0.0,0.0,0.0,0.0,0.0,0.0,0.0,0.0,0.0,0.0,0.0,0.0,0.0,0.0,0.0,-0.039962621746137086,-0.007029648557563465,0.0018686770167028208,-0.073967739909629,0.001908688782888764,-0.019282263853563623,0.021669113612238368,-0.02385766119708318,0.01355765113287789,0.0025293089026254627,-0.02438926368785663,0.0031989569900080493,0.010434575202794949,-0.0289445271823253,0.01074773866240266,0.008844322097092011,-0.01040784056475585,-0.15443947931674992,-0.5428778808293765
0.0,0.0,0.0,0.0,0.0,0.0,0.0,0.0,0.0,0.0,0.0,0.0,0.0,0.0,0.0,0.0,0.0,0.0,0.0,-0.08159331093801135,-0.0005385845284728388,-0.0018664153864360856,-0.19550109299330928,-0.009617338339752668,-0.002343160110388617,-0.01973759203228908,-0.0527944335980214,-0.020220199775664773,-0.0006029340172149,-0.0031562600213901884,-0.0004858324817310265,-0.057622056597950624,-0.028735670310304016,-0.0008033483362861708,-0.0034167191845997833,-0.020905845288838164,0.0,-0.11355666045350998,0.0,-0.0055745934754595355,-0.1545764490273141,-0.00516737156559904,-0.011230205531140028,-0.004337009910284876,-0.05871907168794462,-0.013921402956713432,-0.008039120229531955,-0.003464121451518791,0.0,-0.029660303621450373,-0.0503171446784875,0.0,0.0,-0.04137733935170692
0.0,-0.036840306929428863,-0.002856096723921123,0.059782447180639374,-0.0005733448979997437,-3.5212263807640285e-05,-0.06411716704041322,0.011167894474352326,0.0023172696031148014,-0.028608741132145298,0.0033575593762071943,-0.014302962613331823,-0.0018831832026580033,0.03538686614828663,-0.03137711156201674,0.007528471041092509,0.00036176707951183227,-0.030354273089236394,-0.05818962032026506,-0.06832807924035367,-0.5424896701462821
0.0,-0.014832226740403846,-0.005028939615392599,0.003262722358588366,-0.019277170366229644,0.0022635881438360737,-0.03935764369434386,-0.0004541869810731061,-0.02294388235031814,-0.04103598726272351,0.00372312498417723,-0.012002548214773916,0.005041103751265227,0.0023678355988148913,-0.01184781543715187,0.005870409784669589,0.0033827386131373392,-0.013908389320637345,-0.1026517615820525,-0.1952577188856605,-0.49538560875684506
0.0,0.0,0.0,0.0,0.0,0.0,0.0,0.0,0.0,0.0,0.0,0.0,0.0,0.0,0.0,0.0,0.0,0.0,0.0,-0.03802761368439558,-0.00924650603109214,0.0048356471645608756,-0.06300059891724012,0.00419874395722734,-0.023993472895633517,0.03365224567401014,-0.028626851863479057,0.025052641491111825,0.0034717747079149345,-0.033797347366824,0.003759617804825984,0.015785173121114052,-0.02780686959581236,0.014944663745405996,0.012047165981252135,-0.010296112397785974,-0.12711850125632432,-0.5202217575344209
0.0,0.0,0.0,0.0,0.0,0.0,0.0,0.0,0.0,0.0,0.0,0.0,0.0,0.0,0.0,0.0,0.0,0.0,0.0,-0.08520288653517812,-0.0006318006936213326,-0.0012068958281295234,-0.19563758213892365,-0.009836382358871722,-5.9174300774762064e-05,-0.02038782450650368,-0.059925405931650896,-0.017707380827616838,-0.0006627916772688606,-0.0014430410114529622,7.177283942282415e-05,-0.06255345910173994,-0.02438442897596098,-0.0007252049424342386,-0.002710683092560206,-0.01686585610071549,0.0,-0.12020321141976081,0.0,-0.005740079068104715,-0.1461735914517582,-0.003971245738563668,-0.010870701336417012,-0.003968107078428131,-0.06747210520478991,-0.010081157306518167,-0.00883722236358472,-0.0019688786583324145,0.0,-0.030301378822512614,-0.048031373148100465,0.0,0.0,-0.04224997358710941
0.0,-0.044414303331039386,-0.005961815972231217,0.14460848086766545,0.09441834940613193,0.002569258256291626,-0.11422865188016673,0.029468137170061696,0.007818072250870573,-0.03617205450789715,0.0073309661602226385,-0.02305300645636068,-0.0035888483354584934,0.07870607576352684,-0.04749980297433272,0.01680941424139418,0.0014757048218119531,-0.04928119553472724,0.15260778212616516,0.1298857424204743,-0.009925819850578829
0.0,-0.004867346504696578,-0.00768374345844086,0.010343540809948744,0.0048661025453379525,0.005345264707827103,-0.05903133416231417,0.005075660510630929,-0.03153880115104625,-0.0529509799913415,0.006044336345400021,-0.01732111875254365,0.008138922489928967,0.006868764561499272,-0.00015559731026925047,0.009767569827308831,0.0058193792599735865,-0.012950232244564286,-0.018514902205349827,-0.18933445378463185,-0.5432460638176247
0.0,0.0,0.0,0.0,0.0,0.0,0.0,0.0,0.0,0.0,0.0,0.0,0.0,0.0,0.0,0.0,0.0,0.0,0.0,-0.036195490282824185,-0.013154973802477335,0.00916563531519197,-0.04703960499306928,0.00759657310618421,-0.032818640991695486,0.05282795113710839,-0.038079033589671026,0.047175374661154214,0.005078524860926545,-0.0496641851917029,0.004917921896573063,0.024438042943616997,-0.025973533140577362,0.022038119831492353,0.01775855542456447,-0.008668787945362152,-0.08145243249654457,-0.4758265617929921
0.0,0.0,0.0,0.0,0.0,0.0,0.0,0.0,0.0,0.0,0.0,0.0,0.0,0.0,0.0,0.0,0.0,0.0,0.0,-0.08877022157798542,-0.000735623276952131,-0.00042999835019174687,-0.19433754543623444,-0.01001806726027629,0.0026005757583552145,-0.020992867516277183,-0.06778130721729853,-0.01464958354453024,-0.0007275429037309554,0.0005624693442702187,0.0007204731207744879,-0.0678287409713258,-0.01913631125680146,-0.0006288122263351951,-0.0018684107110384354,-0.012036207269406506,0.0,-0.1270455694071598,0.0,-0.0058899523122873925,-0.13529982830285656,-0.002548947559978712,-0.010371052949337062,-0.0035089912527290048,-0.07716033881318222,-0.005534671941953421,-0.009700572049745965,-0.00021324272768533887,0.0,-0.030821830060425007,-0.04501179429768492,0.0,0.0,-0.042950929619958604
0.0,-0.017976795485089396,-0.003498746261926618,0.08990553399086605,0.07932757019948945,0.0021799602496605374,-0.06204858722944438,0.018859451416188326,0.005346304664460256,-0.015613472943245615,0.004384244018824433,-0.011798573537276648,-0.0020191357048864366,0.047420282679731,-0.023400961637006428,0.010143133062324786,0.0010492982865698147,-0.025490425014119383,0.158064098003329,0.14433293483845852,0.27708641734898115
0.0,0.007779334982608581,-0.008869829314797224,0.015605798238686462,0.03307060365233651,0.007461046532933367,-0.06738875978774503,0.009806050475965165,-0.03400111560868575,-0.051656296279606724,0.007220723612046627,-0.019242663314073965,0.00969393726842242,0.010152957873410409,0.013609536255097655,0.011821315179009117,0.007383924359420433,-0.008165299842321333,0.08414974317136346,-0.13235257513144108,-0.46046154381883125
0.0,0.0,0.0,0.0,0.0,0.0,0.0,0.0,0.0,0.0,0.0,0.0,0.0,0.0,0.0,0.0,0.0,0.0,0.0,-0.01271691069236515,-0.02565161760318214,0.023917336976670242,0.04901885149874524,0.019104732590617103,-0.059112746641112185,0.11610401527214737,-0.06724960872471547,0.1348805398303648,0.010271094430253784,-0.0969919880624067,0.008450380203602798,0.052890170466761435,-0.006495794394180305,0.045026365041305305,0.03785942214431287,0.0041715667502845374,0.19062087166400501,0.03936552803603092
0.0,0.0,0.0,0.0,0.0,0.0,0.0,0.0,0.0,0.0,0.0,0.0,0.0,0.0,0.0,0.0,0.0,0.0,0.0,-0.09500062143861591,-0.0010714715487464988,0.0025793778802558386,-0.17311163153892814,-0.009875730723921013,0.012562781863788015,-0.021553149562901816,-0.09218040859582503,-0.0017214924964260381,-0.0009145290155286166,0.008191127493515022,0.003142999026824908,-0.08234706949372107,0.002549969753669017,-0.00020730775974334763,0.0015114533245124636,0.00745476492641297,0.0,-0.14260992622138707,0.0,-0.005971051232180292,-0.08236905061778155,0.003107755325534815,-0.007591532782155906,-0.0014583991098139643,-0.10778806311697253,0.012328897596646005,-0.012193720207048087,0.0065239350125032335,0.0,-0.030236467391782526,-0.02969112346638485,0.0,0.0,-0.04204219169455625
0.0,0.006914081609788225,-0.0010745745043039894,0.03604628298625329,0.06171184069637916,0.0017941167705141335,-0.011326299702305349,0.008412028651098089,0.002910534211118279,0.0033046096547174244,0.001483729315473476,-0.001358314802546333,-0.00047456138258406846,0.016623637162166,-0.00025904516142300345,0.0035810134466227944,0.00016488881448029047,-0.0024568324787863256,0.1554688922627727,0.15058820642160123,0.5339924232528342
0.0,0.04172181228829379,-0.010024426602724202,0.026162032772494567,0.10962345557663726,0.011433877566632797,-0.07180722183490025,0.02026151919418992,-0.03283137346955384,-0.03108396102565385,0.008726631140145892,-0.018456373519965676,0.011650395373219536,0.016646564236187957,0.05011329711441282,0.01462988840545637,0.010369644984585655,0.008339891884630052,0.3650292908004845,0.08163993319351931,-0.05935884878213278
0.0,0.0,0.0,0.0,0.0,0.0,0.0,0.0,0.0,0.0,0.0,0.0,0.0,0.0,0.0,0.0,0.0,0.0,0.0,-0.030708926595117914,-0.010754426666579102,0.008605961863073993,-0.05115477338472568,0.006415142322740494,-0.02921245122972688,0.04383473049745042,-0.030851573318070823,0.039290791368416955,0.004157386375349835,-0.04616617967205935,0.002797168456325723,0.01847521419441149,-0.020421019170819715,0.018220720990387743,0.014242552530738556,-0.01096734119457381,-0.1117214570224563,-0.501962351112219
0.0,0.0,0.0,0.0,0.0,0.0,0.0,0.0,0.0,0.0,0.0,0.0,0.0,0.0,0.0,0.0,0.0,0.0,0.0,-0.0876080868446291,-0.0007129744039670272,-0.0008067532012052347,-0.19471420024359315,-0.009762230156705713,0.0008552042408035918,-0.020425432351310457,-0.06574306859837377,-0.01612578766766663,-0.0007064712090315026,-0.0006036229367111982,0.00042760788595666674,-0.06653905246774168,-0.01997899453679149,-0.0006148943974775909,-0.0022326627091576274,-0.013396712214015092,0.0,-0.12500105400545386,0.0,-0.00573583762983267,-0.13697654374478604,-0.002565496019702539,-0.011984081966828099,-0.003428968282054781,-0.07481788831107736,-0.00884641657592045,-0.009419616120419968,-0.0019417284808710762,0.0,-0.030000568528972173,-0.04532804570341078,0.0,0.0,-0.042641886442287225
0.0,-0.04011720152625421,-0.0010587979116372104,0.02685225788559271,-0.055742806934065615,-0.001606012037946388,-0.01574910502595198,-0.003113813244141825,-0.0009423396796494023,-0.035620804643270484,0.0010455632859584867,-0.005862682654350454,-0.0009075995834251679,0.009547043470651584,-0.028754024417474693,0.0024010795269897955,-0.0031676125331797805,-0.02610242445673676,-0.17501802784816992,-0.17163821020305262,-0.39469649195797196
0.0,-0.011715743306739993,-0.005834684586857367,0.012619499393092832,-0.013044765642870377,0.004560439550020394,-0.04631345863295552,0.0036206164697447463,-0.023161719217275653,-0.049782111929883126,0.00465071332910828,-0.017706077023591796,0.0057779467074407665,0.004433607147899723,-0.002295255706753674,0.007658447810811125,0.003170666183780191,-0.016302478271418525,-0.0430063361836147,-0.2064875467177547,-0.5178060339053854
0.0,0.0,0.0,0.0,0.0,0.0,0.0,0.0,0.0,0.0,0.0,0.0,0.0,0.0,0.0,0.0,0.0,0.0,0.0,-0.031007719824773117,-0.022171004317392756,0.0214519064757522,-0.017871051186408995,0.015208979139885496,-0.05515350058325369,0.09609921362107379,-0.060357893783361066,0.10513071610457722,0.008742649612949197,-0.09002808116875134,0.005407972169239878,0.040760634100562375,-0.018593616107808644,0.03849695894905668,0.030858480954516092,-0.010181858395057683,0.014686558576935254,-0.3175992875685681
0.0,0.0,0.0,0.0,0.0,0.0,0.0,0.0,0.0,0.0,0.0,0.0,0.0,0.0,0.0,0.0,0.0,0.0,0.0,-0.09136650442572225,-0.0008282852940157477,3.5818901305216924e-05,-0.1928315419778939,-0.009909586700032079,0.0036570406594145415,-0.020989753571384048,-0.07438875270267499,-0.012779534249404244,-0.0007766647431582005,0.0015363942757964843,0.0011322518227681324,-0.07230770687666595,-0.013975711448744012,-0.0004992589642057979,-0.0013089133845755256,-0.007979156188051072,0.0,-0.13233612577063086,0.0,-0.0058718930829602615,-0.1243136674421294,-0.0009101599531512577,-0.011641380479698224,-0.002874832979989018,-0.08552214014251967,-0.004087894220005887,-0.010355529908775944,-0.00018122606274161894,0.0,-0.030403650932830706,-0.04177089680800552,0.0,0.0,-0.043310467083805246
0.0,-0.08007142289640676,-0.003236811495310515,0.09995329273272656,-0.04407645094319628,-0.0006004806427250231,-0.03068158412482454,-0.0014884030867477478,0.0019841853129334494,-0.07757883234539105,0.003726532777584681,-0.0073387913035907896,-0.0022137074198978635,0.03768849600674782,-0.06525232959310644,0.008872701882181498,-0.008805924036193544,-0.05516870379015422,-0.200926356471017,-0.16981418423591083,0.10030829636981736
0.0,-0.0002877262869455669,-0.009167100924969519,0.02491042190868972,0.03321303423375928,0.008673918069282882,-0.06546675077272632,0.009275122493691867,-0.033557128899040514,-0.06275763954388519,0.007596057486223055,-0.021295998329968438,0.009498595075689458,0.009792648052683078,0.013815500037547576,0.012666735882315146,0.005837354337744988,-0.013435620434607828,0.0963571366788672,-0.15112051188295997,-0.41113158427021707
0.0,0.0,0.0,0.0,0.0,0.0,0.0,0.0,0.0,0.0,0.0,0.0,0.0,0.0,0.0,0.0,0.0,0.0,0.0,-0.033071873595364225,-0.008633930630003067,0.00740926611980199,-0.06538412436342303,0.004556811554129483,-0.02447909987044771,0.03332306813506277,-0.025779832868496683,0.02662210137330061,0.003277444743987823,-0.03922601611811553,0.0014948398282431513,0.012745868485319984,-0.021755221432231454,0.014426707030244642,0.01063211767457887,-0.014384944190167493,-0.14687295074626594,-0.5058869596176098
0.0,0.0,0.0,0.0,0.0,0.0,0.0,0.0,0.0,0.0,0.0,0.0,0.0,0.0,0.0,0.0,0.0,0.0,0.0,-0.0807406928626132,-0.0005409687947557502,-0.0021443632708355058,-0.19456120574042587,-0.009235524229477888,-0.004033638069061791,-0.018978646262072466,-0.05240066415649847,-0.021236407461217674,-0.0005920809068610651,-0.004187376577318103,-0.0006892950718860722,-0.0573662852584423,-0.02784662102092851,-0.0007392618363178831,-0.0036411223578740794,-0.021038412513072594,0.0,-0.11243640899086382,0.0,-0.005361654627111234,-0.15212871264981415,-0.004606348417968918,-0.013516371436765939,-0.00400746131004167,-0.05853658279680229,-0.017276479805597485,-0.007894412091480833,-0.005478176288425887,0.0,-0.028416256875712306,-0.049363455828840906,0.0,0.0,-0.040950245270234054
0.0,-0.04600804250122809,-0.0011844495556115678,0.03224098641850428,-0.05868843263450386,-0.0014871674872483063,-0.014445655446110333,-0.004365815250892832,-0.0007051732810556598,-0.041669613903351325,0.0012073477223266706,-0.004739410730619372,-0.000975282029358904,0.01124048269035327,-0.033791868482953194,0.002816732739976371,-0.004234464621926371,-0.028939590738872503,-0.19317113347279363,-0.18223633605969583,-0.3358224649367941
0.0,-0.023085678220570362,-0.003872708961165932,0.009037813264164744,-0.032590954323681844,0.002308091920726006,-0.029032125838051814,-0.001262821322645834,-0.016796221311779134,-0.0461592991846832,0.0029324360753981635,-0.01295753303053413,0.003377737544467643,0.000780134275432943,-0.013656643217386091,0.004795535359882446,0.000669033204424311,-0.018538165046355304,-0.11615740604497671,-0.2156841971994936,-0.4462680030347592
0.0,0.0,0.0,0.0,0.0,0.0,0.0,0.0,0.0,0.0,0.0,0.0,0.0,0.0,0.0,0.0,0.0,0.0,0.0,0.001895564613462361,-0.010619272128502335,0.015262977536598003,0.03934665350476856,0.007640301626379021,-0.018173585296453066,0.04727760050032792,-0.02837094394466298,0.06420974041801047,0.004209022287462569,-0.03839224929540528,0.0016202464659422911,0.018643873105597255,0.005304092816395227,0.018688600404682613,0.016021168689239886,-0.0007491457626233703,0.16322343626512226,0.500294737724005
0.0,0.0,0.0,0.0,0.0,0.0,0.0,0.0,0.0,0.0,0.0,0.0,0.0,0.0,0.0,0.0,0.0,0.0,0.0,-0.092060648293061,-0.0008643098060708063,2.654486127115989e-05,-0.19243235163512873,-0.009676331400633483,0.003006229068289046,-0.020603253333147862,-0.07667028361305243,-0.01280226864278092,-0.0007896169881617726,0.0012494780250197827,0.001153561557693512,-0.0739387304689515,-0.011724475500560728,-0.000417956877503307,-0.0012585246579830919,-0.006702580357502484,0.0,-0.13393346997896555,0.0,-0.0057575228957342595,-0.11952044602009049,-1.3831119603094878e-05,-0.013501991550633028,-0.002468788063328141,-0.08857025786275403,-0.005641768147494054,-0.010528226508823546,-0.0013915595204216297,0.0,-0.029614857345595207,-0.04023463927060979,0.0,0.0,-0.04332815977821223
0.0,-0.041005947644190015,-0.002294944890855362,0.07812164100630499,0.024104959517030466,0.0014001997229024087,-0.014968726716092654,0.0008087022372126557,0.003467898423184598,-0.041550088384915404,0.0028664309366618515,0.0015220679062385957,-0.0013321495644573475,0.030271659637036666,-0.03749411336239563,0.006962014757274933,-0.005284852316374253,-0.030619748926272016,-0.00845057673172806,0.03503320903706657,0.632368548597271
0.0,-0.0037870409702468015,-0.011821282866030512,0.045677649469260645,0.09833263353830783,0.01161366637334677,-0.05332303324807354,0.00812479518760329,-0.04264996441460213,-0.07616358098498198,0.00983611312980842,-0.012931890680058076,0.01173101611215183,0.011407122824874057,0.02994495872321282,0.01655019811564287,0.008562692382900486,-0.01141893595054073,0.2618161979816381,0.021365357076575515,0.2528716957463735
0.0,0.0,0.0,0.0,0.0,0.0,0.0,0.0,0.0,0.0,0.0,0.0,0.0,0.0,0.0,0.0,0.0,0.0,0.0,0.010732319723293313,-0.007135986755026628,0.01138714911259355,0.051118489364520535,0.005679596229844628,-0.010491502234022216,0.033456290605420685,-0.018170763527023206,0.05080925463355633,0.0028760749464821125,-0.024339120501335857,0.0010302827507472768,0.013323401971205262,0.01024083533337365,0.012811523925935396,0.011556672114703381,0.003542234806858148,0.17539438122983192,0.545841307637074
0.0,0.0,0.0,0.0,0.0,0.0,0.0,0.0,0.0,0.0,0.0,0.0,0.0,0.0,0.0,0.0,0.0,0.0,0.0,-0.09575092986519594,-0.000995897884079193,0.0009956911474625807,-0.18862778874618802,-0.009729696756346221,0.006105690986943628,-0.02102326236371312,-0.08637220070829567,-0.008845674330810233,-0.0008661275742408169,0.003659078321438894,0.0019594843228981397,-0.08024355505194958,-0.004350357411701694,-0.0002682618791300209,-0.00017577880414705293,-0.00020071556264231012,0.0,-0.14154792385833206,0.0,-0.005848934878009238,-0.10318489965661963,0.0020374184116801015,-0.013295332580199054,-0.0017449952704451388,-0.10066995641938686,-0.0003619711949513666,-0.01154836765654415,0.00045418389572421657,0.0,-0.029710965778530135,-0.0355609711963148,0.0,0.0,-0.04374758597776911
0.0,-0.031331395500702235,-0.0019819598087301273,0.07004522494535835,0.03166007611030351,0.001914385603712901,-0.012775357677125938,0.002224706150174603,0.003791087721160194,-0.03069836110265747,0.0025623172225935553,0.0009456531265299899,-0.001058653285701896,0.027541829123501522,-0.028784653211663503,0.006260294966966343,-0.0040832627397871,-0.023272758099551344,0.029824650205064463,0.06209287465518224,0.6270778445994393
0.0,0.004603963239291791,-0.007911493486872177,0.03264401061142789,0.08746291000124273,0.008337955257794556,-0.03222009728854005,0.006920267299715864,-0.02747699351002579,-0.04351015864495114,0.006692433341584978,-0.006157540206543213,0.008026908126732672,0.008751418103618836,0.028044193922664565,0.011313007653775796,0.006537683111647606,-0.0024063491516564265,0.24393579611510213,0.08722641570747659,0.3397562980264472
0.0,0.0,0.0,0.0,0.0,0.0,0.0,0.0,0.0,0.0,0.0,0.0,0.0,0.0,0.0,0.0,0.0,0.0,0.0,0.015523012615318684,-0.005247382422121321,0.00947485465377145,0.05715877923500558,0.004707762795042131,-0.006038474682855521,0.026229371703596627,-0.01249075755123582,0.04326068314476218,0.0021613391687792353,-0.016686282891805054,0.0007006242102693604,0.010571685629241599,0.01273627765905361,0.00966736406245058,0.008830857742833674,0.005687199048486739,0.18199627364708568,0.5707643103444651
0.0,0.0,0.0,0.0,0.0,0.0,0.0,0.0,0.0,0.0,0.0,0.0,0.0,0.0,0.0,0.0,0.0,0.0,0.0,-0.0961843519546373,-0.0011037008682142117,0.0020317234192983344,-0.17720849883213888,-0.009417302942735179,0.009307510024194686,-0.020685946990180875,-0.093826133835348,-0.004123011704367945,-0.0009178464689216769,0.0061897860177750974,0.0027778214435751846,-0.08416669746292951,0.0039881087090459745,-9.211906015661484e-05,0.00103088331450039,0.007012621234781517,0.0,-0.14458150547349657,0.0,-0.005726895944964336,-0.08114088574916309,0.004232909245270814,-0.012558611086732792,-0.0008762200995412405,-0.11023525313244811,0.005503170218638906,-0.012237952918955606,0.002482380192718783,0.0,-0.028682942022377714,-0.029023469941508593,0.0,0.0,-0.04254187924389968
0.0,-0.026633771563927162,-0.0018165925811268054,0.06641563708222055,0.03421976012933692,0.0023604761279326265,-0.011578900094704088,0.0033503882015898157,0.004158772278800024,-0.02553539744277337,0.0024231098839641143,0.0002792171320233651,-0.0008914391051131234,0.026445459724239184,-0.02383915738273284,0.0059508216214835714,-0.003876096296478596,-0.019526708858417646,0.04955594503376427,0.07459106836378802,0.6164758649346306
0.0,0.00924019230501038,-0.005484851398995936,0.024609435077135276,0.07969138538663645,0.006319814929075277,-0.019030688949423932,0.006211886624668452,-0.01803154760016088,-0.0238332159865127,0.004744180586415599,-0.002073586996681844,0.0057325747287004375,0.007132682879390669,0.02635479249822628,0.008068763157103455,0.005083826955520871,0.0028151520286028705,0.22987311267384186,0.12525001724414359,0.3903531791771254
0.0,0.0,0.0,0.0,0.0,0.0,0.0,0.0,0.0,0.0,0.0,0.0,0.0,0.0,0.0,0.0,0.0,0.0,0.0,-0.03469792872903188,-0.004383472476938704,0.004860723505753951,-0.08777850414973637,0.0014483326053250241,-0.014443829359286725,0.014413532374397088,-0.01456424171879453,0.00460124642754102,0.0015759233643399106,-0.025961894844203217,-0.00036112828438313564,0.003390967505088551,-0.02412638226212858,0.007033232384159523,0.0041850514373903734,-0.017658859087515157,-0.2202837836025891,-0.5141627489709361
0.0,0.0,0.0,0.0,0.0,0.0,0.0,0.0,0.0,0.0,0.0,0.0,0.0,0.0,0.0,0.0,0.0,0.0,0.0,-0.08693365650252892,-0.0007202952872073211,-0.0011048274440250538,-0.1940462862384537,-0.009352419903354406,-0.0010033379198316217,-0.019620122908210164,-0.06566634523781514,-0.017239544854037905,-0.0006975018818555651,-0.001728909489693832,0.00021402214796241277,-0.06654868954030316,-0.018856878645869473,-0.0005401505754888725,-0.002470807773617175,-0.013441615979116263,0.0,-0.12419897250182409,0.0,-0.005509335421422024,-0.1341766132888059,-0.0018882473323182658,-0.014615858455416735,-0.0030462699164904832,-0.07505614284263243,-0.012580046254169884,-0.009300025091407463,-0.004203057796419838,0.0,-0.02865912893496022,-0.044253405900373556,0.0,0.0,-0.04227026429720521
0.0,-0.042111579565246,-0.0009215273628113461,0.02726710867685174,-0.057253971951286106,-0.0006349692020589818,-0.013807702335947759,-0.003257559358770817,4.0575291164708246e-05,-0.03394086000724257,0.0010033661594477667,-0.006409479815595129,-0.000690980025805772,0.009746835822431767,-0.027856550127757198,0.002388951448178072,-0.003650099403904501,-0.024239541814241337,-0.1751346102721344,-0.18019273203135924,-0.389414606578113
0.0,-0.03819977095909258,-0.004401503592061655,0.015716395168277518,-0.03513902285617921,0.0026919211551817215,-0.024215807195720484,-0.0036227842128740387,-0.019048476634253828,-0.05814628318979614,0.003325979650259309,-0.015005022998112419,0.0035495201500592897,3.54161502276118e-05,-0.019031314247739274,0.005496616459345153,0.00041223159023107413,-0.02390236415132872,-0.14182720932857176,-0.23853223352720976,-0.3476330526994144
0.0,0.0,0.0,0.0,0.0,0.0,0.0,0.0,0.0,0.0,0.0,0.0,0.0,0.0,0.0,0.0,0.0,0.0,0.0,-0.036596850589860466,-0.007851586620193094,0.011668802936285345,-0.08836680551650167,0.004273226803407425,-0.021613911495851505,0.03180554200971077,-0.02332072098453837,0.03183963516959403,0.002972596462373121,-0.043723140492020925,-0.0005270599332385899,0.00897084728972946,-0.02557055528863137,0.01334957816290926,0.009869515490484449,-0.020854144597046074,-0.2207236244902245,-0.3959473661809693
0.0,0.0,0.0,0.0,0.0,0.0,0.0,0.0,0.0,0.0,0.0,0.0,0.0,0.0,0.0,0.0,0.0,0.0,0.0,-0.09103968703590493,-0.000841009023709275,-0.00031202878872678934,-0.19302388673227874,-0.009481057574776419,0.0015054644493000203,-0.020155306449423434,-0.07467421524470842,-0.01414437540899544,-0.0007701079444872863,0.00023026781025662385,0.0008885798598994403,-0.07268351097414644,-0.012736002008026655,-0.00041450598365246646,-0.0015935681141588766,-0.008071813652784261,0.0,-0.13206681977283935,0.0,-0.005637035718941846,-0.12167124788617512,-0.00012400040666625235,-0.014772906434443945,-0.0024424924613750793,-0.0862314984014929,-0.00846784987552853,-0.010268105926497092,-0.002822443512351592,0.0,-0.028990685828469094,-0.04072675422652597,0.0,0.0,-0.043094922365016865
0.0,-0.04846259754723674,-0.0012452448955914768,0.04166900422066184,-0.052382301085176254,0.0004925577087703506,-0.019739437440271485,-0.0008373970311720058,0.001579796106922782,-0.03451622742452444,0.0015222067790988548,-0.009437535956539114,-0.0007577794616429443,0.015863694091553037,-0.03024639406570067,0.0036968637660975304,-0.0032123878428730267,-0.02714397629935771,-0.15805985450394122,-0.18450991772590167,-0.3645311462921818
0.0,-0.05341382017023599,-0.008838797761533674,0.03728499591650941,-0.006584048408303557,0.007225161564417515,-0.04318247190365742,-0.0013046407093381758,-0.034800952403034754,-0.09038316040003172,0.007035540118763612,-0.025843279128476213,0.007756501887057352,0.0038652963303640255,-0.014750022659944484,0.011795890207232897,0.00357415606620919,-0.0334828386289977,-0.07788878899410336,-0.27768913808263807,-0.253119796117082
0.0,0.0,0.0,0.0,0.0,0.0,0.0,0.0,0.0,0.0,0.0,0.0,0.0,0.0,0.0,0.0,0.0,0.0,0.0,-0.03278515255063176,-0.0029819668266471066,0.0031248002659385694,-0.08710978481593071,0.0005949242755768469,-0.011997725002555353,0.008990342315536014,-0.010564762144227458,-0.0004928426365575427,0.0010342236689037684,-0.0212454349039347,-0.0005668483608293901,0.0011933277224745744,-0.023513017071286575,0.004636399780766506,0.0024744444153551757,-0.01682729157184218,-0.23027976450560347,-0.5395537457761483
0.0,0.0,0.0,0.0,0.0,0.0,0.0,0.0,0.0,0.0,0.0,0.0,0.0,0.0,0.0,0.0,0.0,0.0,0.0,-0.08023705887786331,-0.000545668426887483,-0.00232400872200188,-0.1938780952289768,-0.008966152521578199,-0.005182163936227757,-0.01845009046855083,-0.05234318489023444,-0.021889394140478916,-0.000586135394832924,-0.004877560315802376,-0.000818428155299239,-0.057337624047852274,-0.02706277719098567,-0.0006903859742296555,-0.00378049934990228,-0.02100344975137313,0.0,-0.11183566224629311,0.0,-0.0052128100073235975,-0.15008257503636344,-0.004162089150943108,-0.015157065075198636,-0.003757180225134869,-0.058683769949288464,-0.01957784942944147,-0.007815138597772282,-0.006885945227804554,0.0,-0.027536308854183452,-0.04859842778169384,0.0,0.0,-0.04066785581163645
0.0,-0.03209763187556248,-0.0004637236922593852,0.011950097169119605,-0.05627264837090431,-0.0008306850644275641,-0.010818792212995058,-0.003086038436503242,-0.0005567906442479305,-0.023926057078389254,0.0004418877961089961,-0.006421114896752991,-0.0004143284995384495,0.0038787516644659885,-0.019435419649797,0.001027541042643146,-0.002290540422138844,-0.01737866088438876,-0.16006356371660618,-0.1753850410261788,-0.4732367425113852
0.0,-0.037278370259798146,-0.00313861476468603,0.011494036505561644,-0.04202404634898484,0.0015935446901441002,-0.018935573962006017,-0.003983737267935647,-0.014226091627135116,-0.04822499730858051,0.002302161204396072,-0.014485635416566138,0.002331574343142018,-0.0009304740162415293,-0.021560281711337434,0.0037886067679061912,-0.00031700554740790116,-0.022545647460558805,-0.15990918467519136,-0.23531728439186234,-0.35558133439587336
0.0,0.0,0.0,0.0,0.0,0.0,0.0,0.0,0.0,0.0,0.0,0.0,0.0,0.0,0.0,0.0,0.0,0.0,0.0,-0.030842025020982725,-0.0013625723961166666,0.00030523631762707196,-0.08477427294325544,-0.0006111899194414688,-0.00873680586120481,0.0014610966616304807,-0.006294343264918701,-0.01070560364844965,0.0003911934778268195,-0.013586706698428803,-0.0005739781902759065,-0.0013562516802474065,-0.022271075577427784,0.0017460445615202565,4.263530939980937e-05,-0.015225328528498758,-0.2282504265730594,-0.5714299201294382
0.0,0.0,0.0,0.0,0.0,0.0,0.0,0.0,0.0,0.0,0.0,0.0,0.0,0.0,0.0,0.0,0.0,0.0,0.0,-0.07417528603714726,-0.0003846670540836434,-0.003403491653101288,-0.1937832783791263,-0.008662475433377918,-0.008777552749309815,-0.0174766404607087,-0.04013790690476787,-0.02600769587846097,-0.00048513890065080283,-0.00762098332427502,-0.0017375923751738946,-0.048888883684130836,-0.03471933902373742,-0.0008373373023106992,-0.004950251438991565,-0.027924235142323145,0.0,-0.1005933825588906,0.0,-0.004968848099243164,-0.16498977658241776,-0.006330075763154413,-0.015320985797809944,-0.004456127324833844,-0.04364412814458393,-0.025519330631748747,-0.006468518675344027,-0.009059840017248069,0.0,-0.02667221668703671,-0.05270851369579755,0.0,0.0,-0.03924101176356844
0.0,-0.02832266164201621,-0.00027925648921112557,0.004903371546545998,-0.05698412575717703,-0.0011521126790172485,-0.008744298386990985,-0.003627839583815974,-0.001071371491531066,-0.021392096262830593,0.00018577275455824012,-0.005779740995926568,-0.0003344466677749753,0.0010316783217522527,-0.017010617008495137,0.00039435333739562696,-0.002061264811448972,-0.015103281629811508,-0.16076303668719005,-0.1729990110012375,-0.49783521554520715
0.0,-0.032079850516456024,-0.0013322951820337536,0.0033337709608127616,-0.05277980619872105,-0.0001840420285431949,-0.01122606812101964,-0.004836291437719079,-0.007692700603261962,-0.03485900997545981,0.0008036235740632761,-0.010985382526315939,0.0006155261803321978,-0.002433599781067155,-0.023682714339268413,0.0012540776822877256,-0.0015990117933718927,-0.019105423538994134,-0.18536149312428163,-0.22091993035207466,-0.38488330422516315
0.0,0.0,0.0,0.0,0.0,0.0,0.0,0.0,0.0,0.0,0.0,0.0,0.0,0.0,0.0,0.0,0.0,0.0,0.0,-0.03172615584550161,-0.0008945276573326116,-0.0002371062058039407,-0.08747539649564157,-0.001090079071060156,-0.007124114788166759,-0.0011055973397766225,-0.005276531269598958,-0.01486991382736967,0.00019333395112781812,-0.01106698395286138,-0.000622512173738449,-0.0023737153120203746,-0.02293674049696637,0.000855698120960788,-0.000820757439619995,-0.015330164650442091,-0.2320186241251655,-0.5639454946490075
0.0,0.0,0.0,0.0,0.0,0.0,0.0,0.0,0.0,0.0,0.0,0.0,0.0,0.0,0.0,0.0,0.0,0.0,0.0,-0.07090289299254013,-0.00029775205851897014,-0.00398623930956888,-0.19373207606914566,-0.00849853769539481,-0.010718486300146058,-0.016951131839352564,-0.03354900761157716,-0.028230917226466486,-0.000430616923527842,-0.009101991848603328,-0.002233793737487339,-0.0443279124988073,-0.038852653567272355,-0.0009166674199380036,-0.005581729856734878,-0.03166034878889979,0.0,-0.09452434304483583,0.0,-0.004837147309843199,-0.1730372646352798,-0.007500440877106221,-0.015409475446283969,-0.004833446471742063,-0.035525125908721915,-0.028726777018470626,-0.005741558980371224,-0.010233394370019301,0.0,-0.026205743012261633,-0.05492729755570312,0.0,0.0,-0.0384707411133428
0.0,-0.028347380972846035,-0.0002492524478025166,0.0038285669053995087,-0.05855468786928278,-0.001307987641276692,-0.007451708981485764,-0.0039971565937780285,-0.0012720440818831057,-0.021860731448347628,0.0001313484847429219,-0.005345100685189467,-0.0003349515857846112,0.0003613461423521576,-0.01737209095220236,0.0002556967995114921,-0.002132337376611902,-0.014919116140552902,-0.1648535246935704,-0.17544727194494208,-0.49195129790355957
0.0,-0.031136759903835753,-0.000779826537498397,0.0008294863918922653,-0.056812408509441255,-0.0007726479671247511,-0.008157081569195652,-0.005261260781257255,-0.0057807935888448386,-0.031406791070939556,0.00033622691892629906,-0.009848743318623914,7.113085277893492e-05,-0.0029997718317859856,-0.024852738669421143,0.00046039481807744946,-0.0020675759526330877,-0.01822094944360828,-0.19604517166245108,-0.2174976931640474,-0.3866290335562224
0.0,0.0,0.0,0.0,0.0,0.0,0.0,0.0,0.0,0.0,0.0,0.0,0.0,0.0,0.0,0.0,0.0,0.0,0.0,-0.06291853590246531,-0.008492500360361553,0.022213369787877486,-0.1478634154474004,0.0006835073799713956,-0.011821723457273899,0.025836102506252543,-0.031831494047763004,0.0376004439960222,0.0028383683988201886,-0.03988923434565485,-0.003331759168691906,-0.0008132228546922837,-0.03911164291705305,0.012901107727104216,0.009347227251120614,-0.02914424225826295,-0.294725768278413,0.21808471039888985
