0.0,0.0,0.0,0.0,0.0,0.0,0.0,0.0,0.0,0.0,0.0,0.0,0.0,0.0,0.0,0.0,0.0,0.0,0.0,0.0,0.0,0.0,0.0,0.0,0.0,0.0,0.0,0.0,0.0,0.0,0.0,0.0,0.0,0.0,0.0,0.0,0.0,0.0
0,0,0,0,0,0,0,0,0,0,0,0,0,0,0,0,0,0,0,0,0,0,0,0,0,0,0,0,0,0,0,0,0,0,0,0,0,0,0,0,0,0,0,0,0,0,0,0,0,0,0,0,0,0
0.0,0.0,0.0,0.0,0.0,0.0,0.0,0.0,0.0,0.0,0.0,0.0,0.0,0.0,0.0,0.0,0.0,0.0,0.0,0.0,0.0
0.0,0.0,0.0,0.0,0.0,0.0,0.0,0.0,0.0,0.0,0.0,0.0,0.0,0.0,0.0,0.0,0.0,0.0,0.0,0.0,0.0
0.0,0.0,0.0,0.0,0.0,0.0,0.0,0.0,0.0,0.0,0.0,0.0,0.0,0.0,0.0,0.0,0.0,0.0,0.0,0.0,0.0,0.0,0.0,0.0,0.0,0.0,0.0,0.0,0.0,0.0,0.0,0.0,0.0,0.0,0.0,0.0,0.0,0.0
0,0,0,0,0,0,0,0,0,0,0,0,0,0,0,0,0,0,0,0,0,0,0,0,0,0,0,0,0,0,0,0,0,0,0,0,0,0,0,0,0,0,0,0,0,0,0,0,0,0,0,0,0,0
0.0,0.0,0.0,0.0,0.0,0.0,0.0,0.0,0.0,0.0,0.0,0.0,0.0,0.0,0.0,0.0,0.0,0.0,0.0,0.0,0.0
0.0,0.0,0.0,0.0,0.0,0.0,0.0,0.0,0.0,0.0,0.0,0.0,0.0,0.0,0.0,0.0,0.0,0.0,0.0,0.0,0.0
0.0,0.0,0.0,0.0,0.0,0.0,0.0,0.0,0.0,0.0,0.0,0.0,0.0,0.0,0.0,0.0,0.0,0.0,0.0,-0.0365017574759872,0.0,0.0,-0.10157631188949112,-0.0004451748367187612,0.0,-0.0029273301744135037,0.0,-0.015968475775438494,0.0,-0.013264168399160966,0.0,-0.0014774007954258862,-0.03528098401264189,0.0,0.0,-0.0147706093038154,-0.2792666996982118,-0.49847604462261463
0,0,0,0,0,0,0,0,0,0,0,0,0,0,0,0,0,0,0,0,0,0,0,0,0,0,0,0,0,0,0,0,0,0,0,0,0,0,0,0,0,0,0,0,0,0,0,0,0,0,0,0,0,0
0.0,-0.02923595758210883,0.0,0.0,-0.06819114247286157,0.0,0.0,-0.0019568914044249537,0.0,-0.012445829332142708,0.0,-0.0077753818469151505,0.0,-0.0007827565617699816,-0.01345036691974752,0.0,0.0,-0.005883720155971028,-0.15615993407311135,-0.19725465356603536,-0.5068348737460631
0.0,-0.040441142444166064,0.0,0.0,-0.06250604437473095,0.0,0.0,-0.003621594845746215,0.0,-0.02022057122208304,0.0,-0.013178581244243176,0.0,0.0,-0.03024702361910265,0.0,0.0,-0.014888778810290004,-0.2011997136525675,-0.2514996420657094,-0.36215948457462155
0.0,0.0,0.0,0.0,0.0,0.0,0.0,0.0,0.0,0.0,0.0,0.0,0.0,0.0,0.0,0.0,0.0,0.0,0.0,-0.037346536807428485,0.0,0.0,-0.10374049052918348,-0.0005175745975050999,0.0,-0.0034034083057209604,5.8876300558727554e-05,-0.017795532980634885,0.0,-0.015488396664385336,0.0,-0.001034834039714816,-0.03734559865971496,0.0,0.0,-0.01583970892222054,-0.29878658869347396,-0.46859977300627764
0.0,0.0,0.0,0.0,0.0,0.0,0.0,0.0,0.0,0.0,0.0,0.0,0.0,0.0,0.0,0.0,0.0,0.0,0.0,-0.09153313367101831,0.0,0.0,-0.1948295616290751,0.0,0.0,0.0,-0.030511044557006102,-0.04227433884404459,0.0,0.0,0.0,-0.030511044557006102,-0.09153313367101831,0.0,0.0,-0.018747750269967604,0.0,-0.09998800143982721,0.0,0.0,-0.13331733525310294,0.0,0.0,0.0,-0.09998800143982721,-0.16664666906637868,0.0,0.0,0.0,0.0,0.0,0.0,0.0,0.0
0.0,-0.027676853680937755,0.0,0.0,-0.05947172177146923,0.0,0.0,-0.003001343091693617,0.0003682219164197622,-0.014780859802619502,0.0,-0.011925336550995968,0.0,0.0019983314132763124,-0.013742543274619606,0.0,0.0,-0.0046319574424066035,-0.15807534425527273,-0.22110354918083844,-0.48317347575338365
0.0,-0.04312651271597538,0.0,0.0,-0.05963103198780585,0.0,0.0,-0.00374224262586148,-0.00012703819698464653,-0.0210960032316341,0.0,-0.01361760511077371,0.0,-4.4603542238762944e-05,-0.031495402271860505,0.0,0.0,-0.015499012934852285,-0.20501164206626035,-0.2569872340921139,-0.34958774238489404
0.0,0.0,0.0,0.0,0.0,0.0,0.0,0.0,0.0,0.0,0.0,0.0,0.0,0.0,0.0,0.0,0.0,0.0,0.0,-0.04035395072527318,0.0,0.0010351368060825717,-0.11347294067620585,-0.0007126494969355434,0.001648519371309403,-0.004686159692979128,0.00010681983906279188,-0.021363681715076466,0.0,-0.02103514093652272,0.0,-0.0011261857637812817,-0.04535215162442736,7.290459933936892e-05,0.0,-0.018134119830507073,-0.35470816804204924,-0.37612991026725623
0.0,0.0,0.0,0.0,0.0,0.0,0.0,0.0,0.0,0.0,0.0,0.0,0.0,0.0,0.0,0.0,0.0,0.0,0.0,-0.09153862500003955,0.0,0.0,-0.1948412500000842,0.0,0.0,0.0,-0.030512875000013182,-0.04227687500001826,0.0,0.0,0.0,-0.030512875000013182,-0.09153862500003955,0.0,0.0,-0.018748875000008103,0.0,-0.0999940000000432,0.0,0.0,-0.13332533333339092,0.0,0.0,0.0,-0.0999940000000432,-0.16665666666673865,0.0,0.0,0.0,0.0,0.0,0.0,0.0,0.0
0.0,-0.03492793408704237,0.0,0.007660374336588562,-0.06089975386030381,0.0,0.023154252794396132,-0.00861467457537315,0.001318287642130102,-0.017459539331245173,0.0,-0.03422897364614923,0.0,0.008006541941083184,-0.0030379197358186235,0.0,0.0,0.003116599396819711,-0.1882760055580493,-0.3691841716408847,-0.2399739287310776
0.0,-0.0467839660071378,0.0,-0.00036223021046911816,-0.05766690925784626,0.0,0.0018927808658752315,-0.0040335136370376725,-0.0001778564772869102,-0.022721719746591366,0.0,-0.014677507956998232,0.0,-6.244601297405791e-05,-0.03425592509674254,0.0,0.0,-0.016141005531829702,-0.21291702634476123,-0.2689380490813953,-0.31932772575723933
0.0,0.0,0.0,0.0,0.0,0.0,0.0,0.0,0.0,0.0,0.0,0.0,0.0,0.0,0.0,0.0,0.0,0.0,0.0,0.022447141972704997,0.0,0.004712113928038053,0.057519156275275506,0.00323158794148904,0.005176203507267044,-0.0032251343722391836,0.0007312276318169221,0.004740329069812628,0.0,-0.010471415343056616,0.0,0.002731575323880715,0.001252819491014597,0.00023655023063285673,0.0,0.007394989684774174,0.06489933882791622,0.8111516884419837
0.0,0.0,0.0,0.0,0.0,0.0,0.0,0.0,0.0,0.0,0.0,0.0,0.0,0.0,0.0,0.0,0.0,0.0,0.0,-0.09153313301201929,0.0,0.0,-0.19482956022638645,0.0,0.0,0.0,-0.03051104433733976,-0.04227433853968762,0.0,0.0,0.0,-0.03051104433733976,-0.09153313301201929,0.0,0.0,-0.018747750134991904,0.0,-0.09998800071995681,0.0,0.0,-0.13331733429327572,0.0,0.0,0.0,-0.09998800071995681,-0.16664666786659468,0.0,0.0,0.0,0.0,0.0,0.0,0.0,0.0
0.0,0.019130899511455208,0.0,0.005853319045105035,0.06305729979185482,0.0014357134815539726,0.015746234455574576,-0.002790048044855337,0.0008012530365070114,0.008904529678672498,0.0,-0.011085790898225187,0.0,0.00741560500889366,0.025208197855435183,0.0,0.0,0.01334950156962678,0.12359031091481325,0.07191991177594727,0.6296787233086273
0.0,-0.010917422307779789,0.0,0.003993113681630391,0.0676940525193543,0.017095431178799605,0.013976578756385671,-0.005102625769504963,0.0011043806973072565,0.01167413327884692,0.0,-0.012448818096357547,0.0,0.004057170552589472,0.014670099217717244,0.0,0.0,0.012681872923426743,0.09579962987905957,0.08733015260728685,0.6413272730068987
0.0,0.0,0.0,0.0,0.0,0.0,0.0,0.0,0.0,0.0,0.0,0.0,0.0,0.0,0.0,0.0,0.0,0.0,0.0,0.026993537018031574,0.0,0.004530148862215906,0.06795857076303263,0.0037127742158202743,0.004758456376639757,-0.0052047476316590775,-0.0010426852779352085,0.009227610554789543,0.0,-0.0037612717640299565,0.0,0.002922546425820074,0.009443892449710618,-0.0016907336152445342,0.0,0.010910379224970804,0.11527847322699548,0.732512868388076
0.0,0.0,0.0,0.0,0.0,0.0,0.0,0.0,0.0,0.0,0.0,0.0,0.0,0.0,0.0,0.0,0.0,0.0,0.0,-0.09420850334109103,0.0,0.0,-0.1929103451794958,0.0,0.0,0.0009999107706138166,-0.03140283444703034,-0.04289554833864079,0.0,0.001999821541227633,0.0,-0.03140283444703034,-0.0922086817998634,0.0009999107706138166,0.0,-0.014910566702350823,0.0,-0.09743809038603526,0.0,0.0,-0.1153354217765955,0.0,0.0,0.0,-0.10618730962890617,-0.17697884938151026,0.0,0.0,0.0,0.0,0.0,0.0,0.0,0.0
0.0,0.021434165002291894,0.0,0.00438329231642469,0.05957146108341951,0.0015593285833159843,0.011135378799464272,-0.001626192510850679,-0.0010888204275738454,0.012716274936871571,0.0,-0.003878483848411101,0.0,0.005990887523486212,0.025380442373178033,-0.0002889780104135963,0.0,0.012494512685394284,0.13605475898582617,0.11106472621831816,0.5913030336474282
0.0,0.0025270445576260864,0.0,0.004012625452619075,0.060330543102299475,0.01642764583716852,0.012513616948239409,-0.005271824442490163,-0.001123975485663692,0.018621635564817933,0.0,-0.006560236798870141,0.0,0.0033208387575917445,0.020190249373360603,-0.0017888484232813284,0.0,0.015036238782301854,0.12114738144115561,0.12043359981128467,0.5906356148388473
0.0,0.0,0.0,0.0,0.0,0.0,0.0,0.0,0.0,0.0,0.0,0.0,0.0,0.0,0.0,0.0,0.0,0.0,0.0,0.026727613145452973,0.0,0.00670131940227525,0.06363625275423845,0.005943248184437171,0.006876888164010698,-0.013878622210783082,-0.0028417718082273074,0.012189613966637518,0.0,-0.0008703688564086979,0.0,0.004543899177986348,0.007424620759567917,-0.003928788303319602,0.0,0.0008863233386613453,0.1060327153492236,0.7374354876655543
0.0,0.0,0.0,0.0,0.0,0.0,0.0,0.0,0.0,0.0,0.0,0.0,0.0,0.0,0.0,0.0,0.0,0.0,0.0,-0.09704989014239296,0.0,0.0,-0.19087241725427853,0.0,0.0,0.0020618195565152565,-0.03234996338079766,-0.043555337245897024,0.0,0.004123639113030513,0.0,-0.03234996338079766,-0.09292625102936246,0.0020618195565152565,0.0,-0.010835491733122015,0.0,-0.09473022296421574,0.0,0.0,-0.09623876208644015,0.0,0.0,0.0,-0.11277114408372427,-0.18795190680620708,0.0,0.0,0.0,0.0,0.0,0.0,0.0,0.0
0.0,0.024602499103538948,0.0,0.005317291105050829,0.05143318374266759,0.0021340153905542647,0.013179535393535839,-0.0035566960391728445,-0.002166399273890226,0.013792617316559374,0.0,-0.00249031865634005,0.0,0.007486567222374398,0.029607924167228843,-0.000495239602324491,0.0,0.008160236426722308,0.13091649432316466,0.1122387339666767,0.5923796801598114
0.0,0.006037506624974219,0.0,0.005531902743783745,0.040699206127930196,0.02210131733954007,0.01613830322551578,-0.010027512730691841,-0.003173549702647578,0.02590439798613458,0.0,-0.004718688961546205,0.0,0.004028438727142221,0.022120238321689127,-0.0037667000497526174,0.0,0.009923652786738131,0.10572656369142121,0.11606983073977999,0.603947671624997
0.0,0.0,0.0,0.0,0.0,0.0,0.0,0.0,0.0,0.0,0.0,0.0,0.0,0.0,0.0,0.0,0.0,0.0,0.0,-0.03705352734604928,0.0,0.004136654712111994,-0.11027296137861334,0.003601468158728212,0.0044195265965844745,-0.017140260897342656,-0.0037211041026183867,-0.017579304532347195,0.0,-0.010405994001024705,0.0,0.00153597525561348,-0.038784379324281644,-0.004476867295593843,-0.003990508789364917,-0.02920389403069419,-0.30288354948409096,-0.4107408885571799
0.0,0.0,0.0,0.0,0.0,0.0,0.0,0.0,0.0,0.0,0.0,0.0,0.0,0.0,0.0,0.0,0.0,0.0,0.0,-0.08962226416488017,0.0,0.0,-0.19504392472398943,0.0,0.0,-0.0005623086755732481,-0.029874088054960054,-0.04173732372017642,0.0,-0.0011246173511464963,0.0,-0.029874088054960054,-0.09074688151602665,-0.0005623086755732481,0.0,-0.020822395767609945,0.0,-0.1009780803232323,0.0,0.0,-0.1428377752830863,0.0,0.0,0.0,-0.09605787941196642,-0.16009646568661068,0.0,0.0,0.0,0.0,0.0,0.0,0.0,0.0
0.0,-0.024521674059806615,0.0,0.007339062397104235,-0.10151463400211767,0.0032555313346992994,0.019922491503990985,-0.012970322153062507,-0.006640832613235918,-0.00672719324513614,0.0,-0.011527665451651353,0.0,0.00801722888603014,0.008992671318006568,-0.0013887650198776418,0.0,-0.016061152589473812,-0.18983415273461188,-0.27063944343178914,-0.3105685128471058
0.0,-0.044851516094643655,0.0,0.002638839655629307,-0.08872578295096656,0.014040065043614436,0.009797813453431285,-0.01386677181785922,-0.004377356111423803,-0.013553036800443395,0.0,-0.012483755566583927,0.0,0.00141244234353043,-0.02934238226078952,-0.00472227726302963,-0.003285487059394339,-0.023803453559520977,-0.2437261366527882,-0.2710213477165711,-0.21829933942463892
0.0,0.0,0.0,0.0,0.0,0.0,0.0,0.0,0.0,0.0,0.0,0.0,0.0,0.0,0.0,0.0,0.0,0.0,0.0,-0.03997743446367474,0.00034108846731377364,0.008852162713382912,-0.1328312572082852,0.008075467543412844,0.012500406085525906,-0.028839743790277823,-0.0008341518435046204,-0.009620104076065126,0.0,-0.01000169172328115,0.0,0.004568026988483191,-0.05632444083649404,-0.008730046987604167,-0.010901944756034216,-0.05307334211354099,-0.3538343925168731,-0.26056882796255104
0.0,0.0,0.0,0.0,0.0,0.0,0.0,0.0,0.0,0.0,0.0,0.0,0.0,0.0,0.0,0.0,0.0,0.0,0.0,-0.092615679373346,0.0,0.0,-0.19405261659518602,0.0,0.0,0.00040464585214770936,-0.03087189312444866,-0.04252567193797667,0.0,0.0008092917042954187,0.0,-0.03087189312444866,-0.09180638766905055,0.00040464585214770936,0.0,-0.01719488505018212,0.0,-0.09895595845195103,0.0,0.0,-0.126040192592114,0.0,0.0,0.0,-0.10249660965824355,-0.1708276827637392,0.0,0.0,0.0,0.0,0.0,0.0,0.0,0.0
0.0,0.015165221210207127,0.0,0.01629816950856554,-0.033490727038404666,0.00708042164053292,0.04482364815321369,-0.02009540208386439,-0.011300742806166867,0.015455964831374711,0.0,-0.010488012089070846,0.0,0.020626395919240145,0.05596644291621727,-0.0024025555751504587,0.0,-0.011428003202828977,0.009877208662219228,-0.09815666058134342,0.6272355695952203
0.0,-0.0418795005107578,0.0,0.006114934502841336,-0.12889913732132155,0.028480627010333815,0.025954359875186222,-0.023250350570038714,-0.006014245608795844,-0.0001237132666306815,0.0,-0.01313572971336184,0.0,0.0033749934712775363,-0.03010544633531609,-0.008915337566215051,-0.008721302078063499,-0.036226402378131,-0.27207406913590637,-0.29900034943599774,-0.06760112146824954
0.0,0.0,0.0,0.0,0.0,0.0,0.0,0.0,0.0,0.0,0.0,0.0,0.0,0.0,0.0,0.0,0.0,0.0,0.0,-0.033878547182334656,0.0008085864168360715,0.015857494516090084,-0.14282873811121627,0.014679634564025284,0.024155415226638444,-0.04712185103086403,0.0026349649661884587,0.007838950600745773,0.0,-0.00847426595791553,0.0,0.008925109454259362,-0.07379097629216218,-0.015146303410737045,-0.020897872297760856,-0.08366082864642949,-0.3688857646120402,0.13027631844057821
0.0,0.0,0.0,0.0,0.0,0.0,0.0,0.0,0.0,0.0,0.0,0.0,0.0,0.0,0.0,0.0,0.0,0.0,0.0,-0.09535836597632091,0.0,0.0,-0.19208562912655533,0.0,0.0,0.0014296478454313285,-0.03178612199210697,-0.043162554084039816,0.0,0.002859295690862657,0.0,-0.03178612199210697,-0.09249907028545824,0.0014296478454313285,0.0,-0.013261450673017493,0.0,-0.0963422608200712,0.0,0.0,-0.1076073166808881,0.0,0.0,0.0,-0.1088516794675954,-0.1814194657793256,0.0,0.0,0.0,0.0,0.0,0.0,0.0,0.0
0.0,0.013079774490456704,0.0,0.015063931392552785,-0.014625872678090741,0.006506725715893356,0.041575169404916026,-0.016385650792983205,-0.009578942129874327,0.010978465446863211,0.0,-0.00677795631940681,0.0,0.019773457264611036,0.05562738930782288,-0.0020493792619272156,0.0,-0.015908101528089427,0.03879793310115509,-0.07230857134019558,0.6608963566365212
0.0,-0.023555292793485016,0.0,0.008572365991538383,-0.13390764225385232,0.038267142705577316,0.037714773945000106,-0.028958883218249656,-0.006741353278838881,0.020531488444193807,0.0,-0.010710051435498219,0.0,0.0047730429903100995,-0.018085702664782356,-0.011668451533290266,-0.012679556248211548,-0.03717262358263414,-0.21284276798011492,-0.2211997711691142,0.17251177200962212
0.0,0.0,0.0,0.0,0.0,0.0,0.0,0.0,0.0,0.0,0.0,0.0,0.0,0.0,0.0,0.0,0.0,0.0,0.0,-0.015609080158213492,0.0008329441604076536,0.01474866679892844,-0.09281885054286536,0.013740583378378444,0.02318806404630368,-0.041967598985568566,0.004276310794365403,0.018270764855643478,0.0,-0.004015379768432682,0.0,0.008617508787930021,-0.057086750411964995,-0.01388557133541574,-0.01977498764650205,-0.07292606385657152,-0.23133624778880896,0.36682360079635584
0.0,0.0,0.0,0.0,0.0,0.0,0.0,0.0,0.0,0.0,0.0,0.0,0.0,0.0,0.0,0.0,0.0,0.0,0.0,-0.09827104668320348,0.0,0.0,-0.18999656713843727,0.0,0.0,0.0025182012260690726,-0.032757015561067825,-0.043838897915581675,0.0,0.005036402452138145,0.0,-0.032757015561067825,-0.09323464423106533,0.0025182012260690726,0.0,-0.009084127076208637,0.0,-0.09356644970685021,0.0,0.0,-0.08803149839562634,0.0,0.0,0.0,-0.11560071043495468,-0.19266785072492437,0.0,0.0,0.0,0.0,0.0,0.0,0.0,0.0
0.0,0.004533532074792846,0.0,0.01692020539775566,-0.03133250209317107,0.007278201150612184,0.046816339833610325,-0.016635722076560125,-0.011904416018725763,0.0004401372116247064,0.0,-0.005255594531801567,0.0,0.022783388902370437,0.06453442596746961,-0.00216346532930608,-0.000733111133290938,-0.02348110537823723,0.015873573325693002,-0.11802353717929495,0.6112104451392121
0.0,-0.0031730381183211836,0.0,0.009842284261654793,-0.12299906680154354,0.042891063255440606,0.044139621047091085,-0.030959209993658126,-0.005977305688356599,0.038832156244188946,0.0,-0.007443798504606958,0.0,0.005506409248131413,-0.004418371704920609,-0.012874411171929003,-0.014116865182741044,-0.0334627897322241,-0.1297539876959816,-0.12083710982304031,0.3726769701523759
0.0,0.0,0.0,0.0,0.0,0.0,0.0,0.0,0.0,0.0,0.0,0.0,0.0,0.0,0.0,0.0,0.0,0.0,0.0,-0.03884625630616775,0.00037984418855775004,0.006683091582012895,-0.12973719547044008,0.006175462061993942,0.010806239468901394,-0.022882510488197002,0.0010427525404456252,-0.008626599250060197,0.0,-0.006566489719507377,0.0,0.0032330405598299545,-0.05151381376483327,-0.008669326040384399,-0.01164323480471062,-0.05278007222191567,-0.3242841264596702,-0.31608667315466893
0.0,0.0,0.0,0.0,0.0,0.0,0.0,0.0,0.0,0.0,0.0,0.0,0.0,0.0,0.0,0.0,0.0,0.0,0.0,-0.09043126148590716,0.0,0.0,-0.19495837640331617,0.0,0.0,-0.00032492992452264253,-0.030143753828635718,-0.04196509778847908,0.0,-0.0006498598490452851,0.0,-0.030143753828635718,-0.09108112133495243,-0.00032492992452264253,0.0,-0.019947059491405586,0.0,-0.10056265613979909,0.0,0.0,-0.13882210291902067,0.0,0.0,0.0,-0.09771951930022599,-0.16286586550037663,0.0,0.0,0.0,0.0,0.0,0.0,0.0,0.0
0.0,-0.03233195838500838,0.0,0.006424961627519829,-0.092985212171386,0.0028301696533968323,0.01843379844061321,-0.008380602222853072,-0.006406779977357741,-0.01952928466280978,0.0,-0.004970862153539615,0.0,0.008005849299950457,0.010446745685888286,-0.0016774995699211771,-0.000748669200275695,-0.02576778358497432,-0.1769221187106669,-0.25899538080137086,-0.3251099229646623
0.0,-0.03244341719728819,0.0,0.0040087386802627484,-0.12190387288757006,0.019471610140919034,0.020001358190181905,-0.017947657821518456,-0.004838279208410212,-0.003623659170509757,0.0,-0.008849313476908795,0.0,0.0019358535870836737,-0.02858596927319729,-0.008387971111665424,-0.008425984985697197,-0.03462973482216633,-0.24936928317639465,-0.26226426733565583,-0.17327083732300153
0.0,0.0,0.0,0.0,0.0,0.0,0.0,0.0,0.0,0.0,0.0,0.0,0.0,0.0,0.0,0.0,0.0,0.0,0.0,-0.02635804969963669,0.0009122987240051545,0.014140172327614739,-0.1325979272899693,0.013207791662040542,0.023706830378005243,-0.044135858366537474,0.010017400718154407,0.019372896147414838,0.0,-0.005877768633371544,0.0,0.007621644097401432,-0.06425845993420626,-0.01840289521392936,-0.022205229157071113,-0.0761298297558562,-0.3162092780659073,0.20467911293149382
0.0,0.0,0.0,0.0,0.0,0.0,0.0,0.0,0.0,0.0,0.0,0.0,0.0,0.0,0.0,0.0,0.0,0.0,0.0,-0.09328987957408043,0.0,0.0,-0.19356912421853936,0.0,0.0,0.0006566056138430024,-0.03109662652469347,-0.04268223089197298,0.0,0.0013132112276860047,0.0,-0.03109662652469347,-0.09197666834639441,0.0006566056138430024,0.0,-0.01622799408819897,0.0,-0.09831348571841493,0.0,0.0,-0.12150914908934281,0.0,0.0,0.0,-0.10405878483954122,-0.173431308065902,0.0,0.0,0.0,0.0,0.0,0.0,0.0,0.0
0.0,-0.03678462114369045,0.0,0.020056637833466798,-0.11023410041065793,0.008710200816302981,0.056826462693896615,-0.021273744572528713,-0.01469476355938927,-0.026370135450011885,0.0,-0.006745931719850332,0.0,0.02654505144106852,0.07176083126000343,-0.005922996033152711,0.0007873551703322398,-0.03093947928129532,-0.1388873624756828,-0.3652403162374374,0.05803857964085309
0.0,-0.008962011807175683,0.0,0.008840054845139365,-0.16161837126454984,0.04066397835848448,0.043905532558262905,-0.034063214822724924,-0.0035420105014784277,0.03463051652604339,0.0,-0.010120376325408301,0.0,0.004469315616989423,-0.014171771633770897,-0.017232308653565023,-0.014789380996089846,-0.03754781163497185,-0.20853073489880367,-0.20724115921616196,0.14950636639254314
0.0,0.0,0.0,0.0,0.0,0.0,0.0,0.0,0.0,0.0,0.0,0.0,0.0,0.0,0.0,0.0,0.0,0.0,0.0,-0.005037721856486021,0.0008956071846463958,0.013251062164600489,-0.07480681269717956,0.012430355418431266,0.022125779842261134,-0.03975831396752872,0.012312381186995174,0.030844016447580617,0.0,-0.002660625116315865,0.0,0.007434901838934805,-0.04425975726797298,-0.01726830224650392,-0.019899214922063504,-0.05840238468343409,-0.16585802188143914,0.47267106668837916
0.0,0.0,0.0,0.0,0.0,0.0,0.0,0.0,0.0,0.0,0.0,0.0,0.0,0.0,0.0,0.0,0.0,0.0,0.0,-0.0960743432716889,0.0,0.0,-0.19157210873337627,0.0,0.0,0.001697229356215417,-0.03202478109056296,-0.04332880877406935,0.0,0.003394458712430834,0.0,-0.03202478109056296,-0.09267988455925805,0.001697229356215417,0.0,-0.012234606625979515,0.0,-0.09565992797075025,0.0,0.0,-0.10279530918285887,0.0,0.0,0.0,-0.11051068483763517,-0.18418447472939192,0.0,0.0,0.0,0.0,0.0,0.0,0.0,0.0
0.0,-0.019767264373318126,0.0,0.020488112503383067,-0.06385286804294381,0.008865192988710371,0.057862460312336904,-0.020461552802804858,-0.013632610988152728,-0.017225018783606345,0.0,-0.004612210284510965,0.0,0.027519685290596965,0.0836438214792716,-0.0062287412508650695,0.00161603242017019,-0.018660986419720135,-0.03037176836690706,-0.25383834047042514,0.35126976463387777
0.0,0.0183835189016325,0.0,0.01015213223247001,-0.13851798735145962,0.04571500549265458,0.0500318201437765,-0.036732220092328946,-0.00098307642984896,0.05948420294573601,0.0,-0.007478744226846268,0.0,0.005219392137998025,0.005579108583561516,-0.01924259888822899,-0.015343523434056707,-0.02605177565386695,-0.0874370384574034,-0.073091095617194,0.400456365324943
0.0,0.0,0.0,0.0,0.0,0.0,0.0,0.0,0.0,0.0,0.0,0.0,0.0,0.0,0.0,0.0,0.0,0.0,0.0,-0.0316789794542322,-0.00016150952659971853,0.005621777025413743,-0.11365303207763208,0.005237848294290169,0.006343236962978083,-0.02143002852050226,0.003157578969223257,-0.009401997735520317,-0.0010196180444879605,-0.007004139544062333,0.0,0.0027078037423622636,-0.04189207570348948,-0.008853947030585485,-0.0108624456503719,-0.039413240528113375,-0.29056664347191735,-0.4009532183428738
0.0,0.0,0.0,0.0,0.0,0.0,0.0,0.0,0.0,0.0,0.0,0.0,0.0,0.0,0.0,0.0,0.0,0.0,0.0,-0.08897818962622947,0.0,0.0,-0.1951120331017772,0.0,0.0,-0.0007512952217515269,-0.02965939654207649,-0.04155598383913404,0.0,-0.0015025904435030538,0.0,-0.02965939654207649,-0.09048078006973251,-0.0007512952217515269,0.0,-0.02151928535377659,0.0,-0.10130881583042692,0.0,0.0,-0.14603480975777902,0.0,0.0,0.0,-0.09473498264010109,-0.15789163773350176,0.0,0.0,0.0,0.0,0.0,0.0,0.0,0.0
0.0,-0.030979218311686138,-0.0003477982235057834,0.006665762127068423,-0.07694001823738635,0.0029254341396265397,0.014764326882842361,-0.008432487130568466,-0.006240210858082714,-0.02148508898184235,-0.00029982387725691154,-0.004013976196655722,0.0,0.008540438410780216,0.014845891550370239,-0.0024671852189860335,0.00017899338046200076,-0.017050767676817277,-0.16637125312151732,-0.2532575519933505,-0.3641641801873776
0.0,-0.020203814730740784,-0.0007087162983159244,0.003897962554526785,-0.11758215782367483,0.018878699209283454,0.013407019842841515,-0.01955934096127653,-0.0029209386057323923,0.0005727774171525215,-0.0005438602481551967,-0.00861718154915338,0.0,0.0017987257833273402,-0.02050431451504289,-0.009502211002541151,-0.008006982889377354,-0.026208131366581545,-0.23111797058496297,-0.2378335565781316,-0.25809631042074155
0.0,0.0,0.0,0.0,0.0,0.0,0.0,0.0,0.0,0.0,0.0,0.0,0.0,0.0,0.0,0.0,0.0,0.0,0.0,-0.022617587116128112,-0.0011908228796429629,0.01149855806870204,-0.11074537215907403,0.010799176501706295,0.008278941610002949,-0.03771232024866086,0.009051252749992982,0.00925726871371198,-0.0038297130873096957,-0.012908862548785325,0.0,0.008419603394762188,-0.03761703216201644,-0.017540868177008617,-0.021465982394451622,-0.04060859566069139,-0.30858813365405696,-0.3277042686833507
0.0,0.0,0.0,0.0,0.0,0.0,0.0,0.0,0.0,0.0,0.0,0.0,0.0,0.0,0.0,0.0,0.0,0.0,0.0,-0.09225733619329042,0.0,0.0,-0.19049166243577334,0.0,0.0,0.002934229173491586,-0.03123045199949889,-0.039931367286172005,0.0,-0.00033281283793650917,0.0,-0.030119374807996497,-0.09078128389358248,-0.00016640641896825459,0.0,-0.014705547257695243,0.0,-0.09629282304851249,0.0,0.0,-0.12878315642187527,0.0,0.0,0.0,-0.09922878642891265,-0.17270134329214168,0.0,0.0,0.0,0.0,0.009924095234020117,0.0,0.0,0.0
0.0,-0.028754107291744296,-0.001473588748431581,0.024177855721879332,-0.03486467292161759,0.010502041039167444,0.0374144549473414,-0.02250134679350937,-0.01922729720398668,-0.012214946170317336,-0.0012786286199038444,-0.009344151954149754,0.0,0.032211620540645254,0.11556309904510167,-0.008718743754444544,0.0025290529184515864,-0.00109535763721451,-0.13422654966010256,-0.39420660317518913,-0.1094569181868915
0.0,0.007050548484085184,-0.0024360215216320783,0.007710926689929935,-0.13570571460826586,0.035796441389267165,0.01231121847835717,-0.032916759103218576,-0.0012531738031560445,0.034229521140127776,-0.0019364970323658497,-0.013127607604810892,0.0,0.005135529708906366,0.0036150257980105977,-0.01739014427917411,-0.013539691795664,-0.011295408506703932,-0.19864837445844874,-0.20815726768885187,-0.25758568996719544
0.0,0.0,0.0,0.0,0.0,0.0,0.0,0.0,0.0,0.0,0.0,0.0,0.0,0.0,0.0,0.0,0.0,0.0,0.0,-0.02833365579714463,-0.0008284182546272744,0.004433358684251838,-0.09648909151635118,0.004116896400024858,0.0013492634509243919,-0.017326620724325927,0.002148843857971575,-0.01119983813779492,-0.0021672538712403516,-0.008699116427310328,0.0,0.0029870097035189563,-0.02978549303032695,-0.007820060240471575,-0.00991092699280925,-0.025309406081698578,-0.2603295529965454,-0.48672814880032306
0.0,0.0,0.0,0.0,0.0,0.0,0.0,0.0,0.0,0.0,0.0,0.0,0.0,0.0,0.0,0.0,0.0,0.0,0.0,-0.08158461164754813,0.0,0.0,-0.19405198471636315,0.0,0.0,-0.006087497094869423,-0.02646088894779628,-0.04286078040082817,0.0,-0.0023213919813905794,0.0,-0.02827745981447285,-0.08729130898318195,-0.0011606959906952897,0.0,-0.029874132885797808,0.0,-0.1005731868791193,0.0,0.0,-0.1586857872482074,0.0,0.0,0.0,-0.08517601141077051,-0.13322487643500916,0.0,0.0,0.0,0.0,-0.022310890489837268,0.0,0.0,0.0
0.0,-0.028548185026166156,-0.0007277524000565411,0.007716841489577392,-0.05357691498734527,0.0033852742149102387,0.00924711044081461,-0.008770448402099026,-0.007569215631794855,-0.016432907295775956,-0.0006298403470343779,-0.004976788659970901,0.0,0.009943442436614503,0.026536495529036492,-0.003119618045775006,0.0005057325132564335,-0.01004000983787101,-0.16380971933428368,-0.2586513536431584,-0.38578249100059653
0.0,-0.017155168260412277,-0.0013476134988935568,0.002602232801112068,-0.08962293932799653,0.013035686486551994,4.567729545152221e-05,-0.015183492792873699,-0.0022234315236973968,-0.0054002542040643,-0.0010573349906365574,-0.008447916566771721,0.0,0.001578540892347888,-0.015862425464479527,-0.007400051484046203,-0.006094785046627076,-0.015865164914965868,-0.2082664964460829,-0.21982971150579156,-0.36894647021202753
0.0,0.0,0.0,0.0,0.0,0.0,0.0,0.0,0.0,0.0,0.0,0.0,0.0,0.0,0.0,0.0,0.0,0.0,0.0,0.007233182512303012,-0.0013508827898156244,0.01241073083787634,0.014740537150967709,0.008603394895412186,0.015976670254171994,-0.01700812153923442,0.00843033851168085,0.018300937550218735,-0.0033937040640277965,0.0038557073813665073,0.0010703337023300575,0.00518593659856391,0.010598495432570139,-0.0087924448202009,-0.012019763116492855,0.004043058953825203,0.10565111801204312,0.7412288104573024
0.0,0.0,0.0,0.0,0.0,0.0,0.0,0.0,0.0,0.0,0.0,0.0,0.0,0.0,0.0,0.0,0.0,0.0,0.0,-0.08639187931842074,0.0,0.0,-0.19432947254984018,0.0,0.0,-0.0029790996804379376,-0.02846389970472622,-0.04245017868683974,0.0,-0.0012608383513263816,0.0,-0.02936289990508134,-0.08959667815897403,-0.0006304191756631908,0.0,-0.024473398107479005,0.0,-0.0980085371055111,0.0,0.0,-0.1463851258047277,0.0,0.0,0.0,-0.09111632126559562,-0.14956712202122183,0.0,0.0,0.0,0.0,-0.014861657441732571,0.0,0.0,0.0
0.0,0.005074007773467031,-0.0004999649727237938,0.010977103957160615,0.037981315238203035,0.010132900776718282,0.023730950570081105,-0.0050878358266047575,-0.002505864873866068,0.007558652473967475,-0.0004337678673997946,0.003987137114086346,0.0,0.007364294008072265,0.042184885857074576,-0.00038159960420148105,0.0006366112698930632,0.013659882056399706,0.09962526068906997,0.06005335083793782,0.668071283442298
0.0,0.030996948370549247,-0.0034393875359177025,0.013419419598849826,-0.02806292685737961,0.03561436317538823,0.02679580939124259,-0.025698002367878725,0.0041731151135032665,0.045272350248555124,-0.002737057525903568,0.0031745339416272603,0.0009355315408184215,0.00467807717092197,0.03664154008415987,-0.014248662827548737,-0.011163115253965052,0.0230545176723109,0.06967700161435303,0.11131431355413703,0.5087323628041688
0.0,0.0,0.0,0.0,0.0,0.0,0.0,0.0,0.0,0.0,0.0,0.0,0.0,0.0,0.0,0.0,0.0,0.0,0.0,-0.06064263704308622,-0.0032713229392039773,0.023899317143840474,-0.159541692386158,0.011715063474584064,0.023209292266250642,-0.03483020352630164,0.003564931142959898,-0.01954858371778733,-0.007487255451742624,-0.008212182928456878,0.0024398009593357166,0.007279892481180527,-0.028046162826939176,-0.016606140518086628,-0.024274788615779797,-0.01887793061134199,-0.27557124025059504,0.27083300821255996
0.0,0.0,0.0,0.0,0.0,0.0,0.0,0.0,0.0,0.0,0.0,0.0,0.0,0.0,0.0,0.0,0.0,0.0,0.0,-0.07737273298688195,0.0,0.0,-0.1934427065191059,0.0,0.0,-0.009132338709031018,-0.024637752191543825,-0.04361009622698216,0.0,-0.0027806647788924613,0.0,-0.027492772129766706,-0.08547757818924885,-0.0013903323894462307,0.0,-0.03463417611403584,0.0,-0.10011283503821976,0.0,0.0,-0.165837529927656,0.0,0.0,0.0,-0.07972681858379005,-0.11917701756169143,0.0,0.0,0.0,0.0,-0.035116949123577705,0.0,0.0,0.0
0.0,-0.060800641007172425,-0.0015139338560656366,0.023016025424285026,-0.08701233098563918,0.007913689891471603,0.03632541424886007,-0.012692894311942716,-0.006417758814879785,-0.022862351114043236,-0.0013084971702825607,0.0027417288499637974,0.0,0.010125482897110677,0.030876160335301106,0.0007047881773372662,9.213487479098566e-06,3.463350708114646e-05,-0.20086417849347668,-0.3468443020057516,0.14781314107848642
0.0,-0.019438455405234527,-0.004963313549551857,0.01607721724034509,-0.14404023531281906,0.039829409668737215,0.02418478867279936,-0.03675447368206044,-0.004711669269846001,0.004081537010652623,-0.003913971681078913,-0.007433137781664992,0.0011696237983022401,0.00454753485314925,-0.0024812795174293197,-0.01868092325718151,-0.015547211714414462,-0.0029069858469155043,-0.2759778115282512,-0.2622921206800832,-0.11086051821586243
0.0,0.0,0.0,0.0,0.0,0.0,0.0,0.0,0.0,0.0,0.0,0.0,0.0,0.0,0.0,0.0,0.0,0.0,0.0,-0.025723891447035987,-0.0025620089498941084,0.021322362002395144,-0.055514349754279206,0.009545195309390634,0.023168279935983055,-0.02337960761261022,0.003816764547313313,0.0015246417019036753,-0.005873178334899481,-0.0006674859357276698,0.002349247253797059,0.006280216751120597,0.0031532272704753892,-0.011850863612221334,-0.017797462444752204,0.004175700541594012,-0.009079125679413422,0.7721468778379005
0.0,0.0,0.0,0.0,0.0,0.0,0.0,0.0,0.0,0.0,0.0,0.0,0.0,0.0,0.0,0.0,0.0,0.0,0.0,-0.08166327079333313,0.0,0.0,-0.19364528330359834,0.0,0.0,-0.006397436016817353,-0.026417101326839488,-0.04329137188950196,0.0,-0.0017764470049700138,0.0,-0.028481931794517953,-0.08756038493209077,-0.0008882235024850069,0.0,-0.029817313129326742,0.0,-0.09749162838649773,0.0,0.0,-0.15441401068966734,0.0,0.0,0.0,-0.08499861844590194,-0.1337959402534166,0.0,0.0,0.0,0.0,-0.02923856591799717,0.0,0.0,0.0
0.0,-0.019857497041239302,-0.0009621273513198232,0.019695183198147455,0.0002442181401215425,0.007353823952647494,0.03351576950698164,-0.007551468833512309,-0.00234989452448567,0.00278426419271169,-0.0008327473282691084,0.007357884358761057,0.0,0.007731393824922733,0.04048324933664772,0.0016526834906836927,0.00036632699236408255,0.018791429938411833,0.03249697630817878,-0.06510534876283212,0.7308113615104487
0.0,0.012606928894601722,-0.00643770879445054,0.024180956414377716,-0.10017229639285691,0.05244109989893641,0.04039209937134275,-0.04222531140442303,-0.004508058687651194,0.0386631020525004,-0.005098037057971627,3.922323706407383e-05,0.0019369360871561796,0.00648976842787231,0.03492725974143419,-0.022549411033093804,-0.018397886471654544,0.028752978813380865,-0.08103406205950428,-0.047266525872629805,0.43176493688274076
0.0,0.0,0.0,0.0,0.0,0.0,0.0,0.0,0.0,0.0,0.0,0.0,0.0,0.0,0.0,0.0,0.0,0.0,0.0,-0.08882210325260827,-0.0036385948320908365,0.026815077968666615,-0.21559671119813456,0.009602359612067847,0.024712602379311485,-0.03185720702072686,-0.003122023225969744,-0.04042088056337287,-0.008031097732858967,-0.010269871517792423,0.003123878342201388,0.006430210262339911,-0.03559723223073918,-0.015255106450740871,-0.023659053914342643,-0.019001231964519912,-0.3761756373649961,0.05776085488364061
0.0,0.0,0.0,0.0,0.0,0.0,0.0,0.0,0.0,0.0,0.0,0.0,0.0,0.0,0.0,0.0,0.0,0.0,0.0,-0.07487171349027094,0.0,0.0,-0.19308083035934315,0.0,0.0,-0.010940339045726348,-0.02355517523065877,-0.04405501370607078,0.0,-0.0030533765683065438,0.0,-0.02702681720617775,-0.08440055752904803,-0.0015266882841532719,0.0,-0.037460638815181094,0.0,-0.09983943562221065,0.0,0.0,-0.17008410636667284,0.0,0.0,0.0,-0.076491089946121,-0.1108354445939541,0.0,0.0,0.0,0.0,-0.04272107370597813,0.0,0.0,0.0
0.0,-0.07326628519475054,-0.0014648022566073453,0.02393362320733085,-0.11469336957356947,0.0034355932688659293,0.03457640330592834,-0.011077273630914371,-0.00497332132159112,-0.0241833164795045,-0.0012656998582762445,0.005047315338673492,0.0,0.00758733208674956,0.020022535958422804,0.0022605069798484183,-0.0002011480650442624,-0.0012825530741144224,-0.2387283053091515,-0.39145360843375837,0.040458372173382606
0.0,-0.024943131695653785,-0.004944321051623297,0.016788089249099875,-0.1370454806671557,0.03523237692223232,0.023800185031908117,-0.032901695308774646,-0.00867575492805949,-0.003012657625298893,-0.0038976621557791006,-0.006207562081339476,0.0013630555522305705,0.0039735852979101245,-0.003636100159499184,-0.016701555576412706,-0.014088082756099324,0.0007947780354374222,-0.27131958639287146,-0.2670712945529923,-0.12353741710124612
0.0,0.0,0.0,0.0,0.0,0.0,0.0,0.0,0.0,0.0,0.0,0.0,0.0,0.0,0.0,0.0,0.0,0.0,0.0,-0.05279488122185557,-0.0029677821883192066,0.02486041636082462,-0.1136963292190136,0.008450297167715014,0.02594668821969016,-0.022969465309711546,-0.001217165298810893,-0.01736746465033582,-0.006592134360341306,-0.0023896922336229406,0.0029299314964449214,0.005917741488845143,-0.007399262917128464,-0.011650741073951452,-0.018411875965964088,0.0016287008440355308,-0.1156062931712032,0.5571286330670276
0.0,0.0,0.0,0.0,0.0,0.0,0.0,0.0,0.0,0.0,0.0,0.0,0.0,0.0,0.0,0.0,0.0,0.0,0.0,-0.07885546219073895,0.0,0.0,-0.19323901738050814,0.0,0.0,-0.00842721583490536,-0.02520172939236953,-0.04379086544679801,0.0,-0.0020826111549829157,0.0,-0.02795882022155856,-0.08635125086537047,-0.0010413055774914578,0.0,-0.03299048562875741,0.0,-0.09718469226174714,0.0,0.0,-0.1591814960584137,0.0,0.0,0.0,-0.08136597715029496,-0.12443114306982177,0.0,0.0,0.0,0.0,-0.03777545515320321,0.0,0.0,0.0
0.0,-0.03291527427334128,-0.0010056835082897257,0.022602595763597393,-0.0279580807128076,0.005019841891735808,0.03614349330112775,-0.007368228928933452,-0.0016449316277998294,0.000794701151696133,-0.0008908274437915181,0.009831990349135986,0.0,0.006775155842740608,0.035784959514174826,0.002658392173429428,0.00046199933449903366,0.01710228290233839,-0.007763839847747854,-0.11821544926295283,0.6649993200197566
0.0,0.006463962725798267,-0.006157511689379998,0.026946380758872568,-0.08442118046700801,0.04508401701436824,0.045035106783358286,-0.03681457447332073,-0.007863115059664897,0.03232752640180974,-0.004872319260092779,0.0033569330676171683,0.0020289942449680264,0.005518009464221023,0.031232405914449635,-0.019609562333071696,-0.0154869841551072,0.03241553966726834,-0.054837093760971255,-0.025994253808056846,0.5134221507842426
0.0,0.0,0.0,0.0,0.0,0.0,0.0,0.0,0.0,0.0,0.0,0.0,0.0,0.0,0.0,0.0,0.0,0.0,0.0,-0.02642130544024506,-0.002284699309108456,0.020822501040766078,-0.04285531044995087,0.006764330567414889,0.023836802998034333,-0.014686880470875786,0.0001433683593247841,-0.0015167744128561657,-0.0049296660788335726,0.0020860435822991205,0.002477451040272763,0.004754994537744689,0.009279104574481212,-0.008030467231638546,-0.013231184783586309,0.01419310589661413,0.04543085177573442,0.7561883697341184
0.0,0.0,0.0,0.0,0.0,0.0,0.0,0.0,0.0,0.0,0.0,0.0,0.0,0.0,0.0,0.0,0.0,0.0,0.0,-0.08333393981376795,0.0,0.0,-0.19343067450169202,0.0,0.0,-0.005606226484954437,-0.027052226338078956,-0.043497478349612394,0.0,-0.000992838398557815,0.0,-0.029007257328841924,-0.08854766626292888,-0.0004964191992789075,0.0,-0.027974032562430442,0.0,-0.09421115405736148,0.0,0.0,-0.14695219644755447,0.0,0.0,0.0,-0.08684516066442492,-0.13970472544196477,0.0,0.0,0.0,0.0,-0.0322255226288381,0.0,0.0,0.0
0.0,-0.010796868016309224,-0.0007367161331609469,0.01735610618263582,0.007638612913383333,0.004771546815140311,0.02955640227794337,-0.004060465719821015,0.00031307037127524886,0.01166487694678179,-0.0005267918367212538,0.009459082565593212,0.0,0.00479953187170696,0.03429804887616595,0.0023117551744715214,0.0002200480757668828,0.021961755947597892,0.08459949422548595,0.011609660434914897,0.7432682620200336
0.0,0.01837503353872377,-0.003693109595084379,0.018211270563543682,-0.01779337295430265,0.02676569623705172,0.032643359279707566,-0.019714333436198245,-0.0033561957779317214,0.03306331172781587,-0.0028459502848772605,0.006327791377820153,0.0013199637459129167,0.0033114990695046025,0.03160102826638128,-0.010928042635530825,-0.008370851882605416,0.0314905134191823,0.07691601383498614,0.10057428420142661,0.5526446216204695
0.0,0.0,0.0,0.0,0.0,0.0,0.0,0.0,0.0,0.0,0.0,0.0,0.0,0.0,0.0,0.0,0.0,0.0,0.0,-0.07818987403020776,-0.002751343578029313,0.01843816052055658,-0.18179038122666014,0.005255965997156618,0.016988955403403762,-0.016725247040224194,-0.005456194050186223,-0.04271908441374445,-0.005315763196554097,-0.007964697119949004,0.00247782517700655,0.0034113537582828443,-0.02786587787444672,-0.008390595206828552,-0.014904165335020994,-0.009632925158217509,-0.3129818039014728,-0.2386550639106159
0.0,0.0,0.0,0.0,0.0,0.0,0.0,0.0,0.0,0.0,0.0,0.0,0.0,0.0,0.0,0.0,0.0,0.0,0.0,-0.07575535134067726,0.0,0.0,-0.19296732202059846,0.0,0.0,-0.01052185859494029,-0.02389110081147544,-0.044164026168245156,0.0,-0.002638916303799618,0.0,-0.02730466850266847,-0.08492274322728577,-0.001319458151899809,0.0,-0.03648570511321043,0.0,-0.09810435266667761,0.0,0.0,-0.16613746137240837,0.0,0.0,0.0,-0.077467749312767,-0.11396067464663286,0.0,0.0,0.0,0.0,-0.04430091223631492,0.0,0.0,0.0
0.0,-0.06341652265647471,-0.0016318844954270643,0.017120340821129572,-0.11546732022442205,0.0013710278552223664,0.023219630509266353,-0.00646892536151683,-0.002351726064353384,-0.017599928362639763,-0.0008079127549098573,0.0037261671152002103,0.0,0.003879406418669669,0.008879231033850044,0.0023932142243557205,-0.001291588912600671,-0.0005466624389244339,-0.21000905312196533,-0.32899774147654554,-0.19074418928352702
0.0,-0.03351543404591521,-0.0052897040591455245,0.019777711097104144,-0.14036803279770044,0.02920319180898878,0.032088861197644605,-0.027732802146514145,-0.011548965082517338,-0.014263350382912347,-0.003735020198716221,-0.0037168444167890472,0.001509458141433704,0.0025855196073696824,-0.011102032462962298,-0.014051669484881114,-0.012156110995992652,0.0037158712535420714,-0.2742339814341068,-0.2809587061765075,-0.07834186095069048
0.0,0.0,0.0,0.0,0.0,0.0,0.0,0.0,0.0,0.0,0.0,0.0,0.0,0.0,0.0,0.0,0.0,0.0,0.0,-0.08528683703480432,-0.003396809874785865,0.03092917807450596,-0.1714767269457566,0.008673444170518341,0.03322593314442623,-0.02012812801446061,-0.004118117318390451,-0.04282587672900655,-0.007205345744774391,0.002036809419088939,0.00407387456160985,0.0057634307026555205,-0.011926464746156587,-0.01111929667406396,-0.020617806018061072,0.010727102813805843,-0.14978696183074758,0.37655464615660944
0.0,0.0,0.0,0.0,0.0,0.0,0.0,0.0,0.0,0.0,0.0,0.0,0.0,0.0,0.0,0.0,0.0,0.0,0.0,-0.07984749202552086,0.0,0.0,-0.1931115854711296,0.0,0.0,-0.007957402220369142,-0.025578861492677414,-0.04391324999019378,0.0,-0.0016173108653644097,0.0,-0.028270754319476316,-0.08693749079581346,-0.0008086554326822049,0.0,-0.03189596108025354,0.0,-0.0952367742805845,0.0,0.0,-0.15475073341095036,0.0,0.0,0.0,-0.08246243904323558,-0.12793973140309328,0.0,0.0,0.0,0.0,-0.03954908555561707,0.0,0.0,0.0
0.0,-0.04195276315801755,-0.0011269690323516992,0.02534909678940365,-0.05651971632263719,0.004986301987862606,0.03983129512727178,-0.006366323787718147,0.00023810653668833925,0.0017740150904113831,-0.00028770292320782543,0.013970878237749366,0.0,0.00578873387149406,0.03572374824381719,0.0037803489009918174,-0.0011893048610961843,0.02263610282571097,-0.012606093980286821,-0.12788446709747003,0.5978977248791304
0.0,-0.005874355900898774,-0.006271416910917743,0.02887815971139007,-0.09756053289825334,0.03693409981170244,0.051448053798301266,-0.030303292308951978,-0.009415184607178832,0.013024412115359742,-0.004325298342172008,0.008348026768647758,0.0020980373100670706,0.0035045898949594466,0.016475460644099105,-0.016172266177108454,-0.013433744942412661,0.031517208498147084,-0.08108972699797824,-0.05818317598606974,0.48503319585564686
0.0,0.0,0.0,0.0,0.0,0.0,0.0,0.0,0.0,0.0,0.0,0.0,0.0,0.0,0.0,0.0,0.0,0.0,0.0,-0.07337636456097148,-0.002080488698140764,0.015562176833255193,-0.16729907520189757,0.0031328632066591642,0.014464965131137165,-0.012156990517791053,-0.004920958837760692,-0.04459063145756674,-0.004129843988463959,-0.0052495002822017635,0.002199274915334011,0.0024950602648840556,-0.02641854985350818,-0.00629922566713801,-0.01208156576945076,-0.006219568715402468,-0.27357188181167785,-0.32370198390690874
0.0,0.0,0.0,0.0,0.0,0.0,0.0,0.0,0.0,0.0,0.0,0.0,0.0,0.0,0.0,0.0,0.0,0.0,0.0,-0.07391132565786547,0.0,0.0,-0.19279855097951443,0.0,0.0,-0.011765424451180173,-0.023111819822148973,-0.04438393271962627,0.0,-0.002969207497226736,0.0,-0.026915122829581164,-0.08407110112171366,-0.001484603748613368,0.0,-0.038560061407466276,0.0,-0.09864681541673388,0.0,0.0,-0.17026220317568233,0.0,0.0,0.0,-0.07514967331415279,-0.10773802335323106,0.0,0.0,0.0,0.0,-0.04817443497513645,0.0,0.0,0.0
0.0,-0.061407202683053365,-0.001435776709114857,0.016592546109595405,-0.11732761064913706,-0.0010187438077942992,0.022380919369761904,-0.005792784398171382,-0.0014463078131901085,-0.01719933005488817,-0.0005422052591462869,0.0026293622375102134,0.0,0.003330375016822546,0.006533043678505214,0.0025111058044627477,-0.001651405803623351,0.000814763774351192,-0.2017362385534312,-0.30489575845034905,-0.23069882650178855
0.0,-0.03511504634925466,-0.0048176527642055655,0.018532534490086756,-0.134987927504456,0.022286595079273823,0.030603242881425543,-0.023019617329412975,-0.010222191486079021,-0.020845277949027238,-0.003199473845229497,-0.002902861110041901,0.0013891078986901643,0.0017037890039562104,-0.01650207965841724,-0.011623594261443496,-0.010344531944451691,0.0032560047576850855,-0.26426364562080334,-0.27100290895152385,-0.11331904435506869
0.0,0.0,0.0,0.0,0.0,0.0,0.0,0.0,0.0,0.0,0.0,0.0,0.0,0.0,0.0,0.0,0.0,0.0,0.0,-0.04919799984215837,-0.0010528588054494043,0.00592452212521461,-0.1202343915177906,0.0003279714230957549,0.003924609648644311,-0.006053461292012759,-0.0038742436654090277,-0.033114126859191885,-0.0019265062679517328,-0.006405051835228725,0.0009422490557570727,0.000662300522807056,-0.024338487670562934,-0.0028928933384567614,-0.005798735463324541,-0.010525736591913892,-0.24276151580629435,-0.48000614934429175
0.0,0.0,0.0,0.0,0.0,0.0,0.0,0.0,0.0,0.0,0.0,0.0,0.0,0.0,0.0,0.0,0.0,0.0,0.0,-0.07022891598506287,0.0,0.0,-0.1930419393242358,0.0,0.0,-0.011656318311742552,-0.0192048526446265,-0.047952500449727826,0.0,-0.003086771700062234,0.0,-0.025624129145360885,-0.0835022373911862,-0.001543385850031117,0.0,-0.044130264452756,0.0,-0.09701233670718541,0.0,0.0,-0.18633227139568884,0.0,0.0,0.0,-0.0627090878587288,-0.09890945561981068,0.0,0.0,0.0,0.0,-0.045141481818000165,0.0,0.0,-0.009866681855378052
0.0,-0.04226242166657799,-0.0009456445298410842,0.006948544186221787,-0.08796711058265973,-0.0025392324908254773,0.0075517346004175395,-0.0032278015555176373,-0.0013960278913488099,-0.01626858811635538,-0.00040163467487498684,-0.0021129674376421095,0.0,0.0011691844455794134,-0.005638740142626588,0.001069660292169818,-0.0011221868471170393,-0.0065765184346557905,-0.1790152563379966,-0.23588169507494436,-0.3978718626354056
0.0,-0.03179843977662456,-0.0023287072504077516,0.007209146736390053,-0.09421072548893601,0.007857725375690674,0.010520896124665472,-0.011002869462017293,-0.006372979169843273,-0.02513168814629173,-0.0014875265855403806,-0.005865090650078572,0.0005648404729177555,0.0003379086296289397,-0.02219594573199674,-0.0052354092837253,-0.005012128451911406,-0.008539617411072689,-0.2254666646835166,-0.24038030842810568,-0.28844369002795783
0.0,0.0,0.0,0.0,0.0,0.0,0.0,0.0,0.0,0.0,0.0,0.0,0.0,0.0,0.0,0.0,0.0,0.0,0.0,-0.04062721103672313,-0.0006913194678850817,0.00249366975656321,-0.10343798011737167,-0.0006536604558830032,0.000151442950770065,-0.0039040940674106616,-0.0034338006512838366,-0.029273374124994703,-0.001147967436538814,-0.006888732139472892,0.0004964908195508099,5.147399383180537e-06,-0.02360491696624638,-0.0016884134813729295,-0.003581830505739876,-0.012069037620598914,-0.23227777366054692,-0.5335360608826107
0.0,0.0,0.0,0.0,0.0,0.0,0.0,0.0,0.0,0.0,0.0,0.0,0.0,0.0,0.0,0.0,0.0,0.0,0.0,-0.0682405935519941,0.0,0.0,-0.19317332198518286,0.0,0.0,-0.011597404587427326,-0.017095289917732254,-0.04987933308751911,0.0,-0.003150249711924373,0.0,-0.024927055058131194,-0.08319506564935673,-0.0015751248559621866,0.0,-0.04713787685467363,0.0,-0.09612978582902791,0.0,0.0,-0.19500924017109642,0.0,0.0,0.0,-0.05599180684022856,-0.09414247007173326,0.0,0.0,0.0,0.0,-0.04350383663408071,0.0,0.0,-0.015194175713736902
0.0,-0.036893285226999264,-0.0008276077407640037,0.004015667360995258,-0.07691196925059318,-0.0031919248914819755,0.0028779612535489215,-0.0025199867517304553,-0.0011372992875208275,-0.016802138766514502,-0.00037460958054266324,-0.00384468058386096,0.0,0.0004916249232471126,-0.009456645802167088,0.0006329242068667392,-0.0010000313738355237,-0.008949037650817745,-0.17250798528601585,-0.21652697544806349,-0.44100133490052074
0.0,-0.03064736877920027,-0.0013989179193949492,0.00297963015688877,-0.07858272102670966,0.002468457391554634,0.0030200866451333356,-0.006513840032842108,-0.004932308986922628,-0.026728356007935685,-0.0008480166165951461,-0.006970321471497615,0.0002569534374498651,-0.00017219173220775832,-0.024314202452034393,-0.0028491074778872034,-0.00302011179805951,-0.013008664532670225,-0.21070877928925602,-0.22867254827437,-0.3518692175019179
0.0,0.0,0.0,0.0,0.0,0.0,0.0,0.0,0.0,0.0,0.0,0.0,0.0,0.0,0.0,0.0,0.0,0.0,0.0,-0.03836536651237291,-0.0005878441998719112,0.0013212468962893282,-0.09911360836311105,-0.0010349969123354683,-0.0012593260328298249,-0.003206240624247804,-0.0030656409959436003,-0.028525599638898086,-0.0009091840355368628,-0.007183147253306794,0.00035224215162292467,-2.3160752947285936e-05,-0.023662715177946478,-0.0013148871484876955,-0.002916549894232547,-0.012357092996067048,-0.23135023726067347,-0.5434100697252198
0.0,0.0,0.0,0.0,0.0,0.0,0.0,0.0,0.0,0.0,0.0,0.0,0.0,0.0,0.0,0.0,0.0,0.0,0.0,-0.06331879904267868,0.0,0.0,-0.19003476137951975,-0.00029298086662038936,0.0,-0.010421571852827292,-0.018733252973325794,-0.05303780966086366,0.0,-0.007527093029242932,0.0,-0.026917376677556424,-0.07654841656507215,-0.0011899644993747889,0.0,-0.05194980345509149,0.0,-0.09637357726947053,0.0,0.0,-0.18659995095003645,0.0,0.0,0.0,-0.043149943827255614,-0.07799923184826042,0.0,0.0,0.0,-0.010800088885695037,-0.05309591261481562,0.0,0.0,-0.03195312460663959
0.0,-0.03599611074961791,-0.0008115214455975881,0.003098641650110596,-0.07223930641714826,-0.00352372723973029,0.0013065232554162116,-0.0023596405401100197,-0.000724658075789285,-0.01735294301725543,-0.0003767139506572505,-0.004785934110104964,0.0,0.00015967986326367506,-0.010890089233403575,0.0004974620618485561,-0.0009878713292153169,-0.010092130408439452,-0.17190323166296245,-0.212731405497108,-0.450121730328521
0.0,-0.0307672383921499,-0.001062026896452274,0.00143345282547668,-0.0716638629028363,0.0004929365003320411,0.0002688654182939467,-0.004943577611146487,-0.00457518103049456,-0.028064981204907878,-0.000615840654299292,-0.007597627925521477,0.00014456177427284904,-0.0004538201348770151,-0.025870005207819593,-0.001981477925149388,-0.0022984365742208615,-0.015308909297549519,-0.20752285937197337,-0.22613869074044257,-0.3687549032091175
0.0,0.0,0.0,0.0,0.0,0.0,0.0,0.0,0.0,0.0,0.0,0.0,0.0,0.0,0.0,0.0,0.0,0.0,0.0,-0.041307142727206085,-0.00057269553896728,0.000982543755808113,-0.10448349423622487,-0.0012303152033310638,-0.0015998297270719472,-0.0028459279178712545,-0.0031631500774921897,-0.030809592517954242,-0.0009320797792976453,-0.0069306730542912885,0.0003377969325214372,-3.924235463237363e-05,-0.02435846301600583,-0.001335295212948241,-0.0030353803859900553,-0.013032817118078384,-0.23352827980160287,-0.5294262608624952
0.0,0.0,0.0,0.0,0.0,0.0,0.0,0.0,0.0,0.0,0.0,0.0,0.0,0.0,0.0,0.0,0.0,0.0,0.0,-0.06061879806972149,0.0,0.0,-0.18831292340841757,-0.00045370219139885114,0.0,-0.009776535486075126,-0.019631785245000196,-0.05477043572602754,0.0,-0.009928108300924202,0.0,-0.028009198838714677,-0.07290219889916717,-0.000978675127145258,0.0,-0.05458946872549011,0.0,-0.09650726032552537,0.0,0.0,-0.18198673375967792,0.0,0.0,0.0,-0.03610521587523082,-0.06914343781549537,0.0,0.0,0.0,-0.0167247235331961,-0.05835783971137059,0.0,0.0,-0.04114661899758592
0.0,-0.04314745827552355,-0.0010423551422909464,0.003550985493114259,-0.07497502838991088,-0.004093142858416405,0.003031463705308898,-0.0021488828599954325,-0.00010939132989488876,-0.019665027834582783,-0.0004886684216590632,-0.004599163483765748,0.0,4.023004417545559e-05,-0.011618393839581251,0.0005759788985017183,-0.0012725887748511315,-0.01228173026231959,-0.18289439421267775,-0.22158964715400642,-0.412819252672613
0.0,-0.03319125544911653,-0.0009815585732913332,0.0009037523188914502,-0.06998038383031638,-1.6898914580859498e-05,0.00052890347595623,-0.003952953337158686,-0.0048363406012872845,-0.03063783248561493,-0.0005723355712712348,-0.0080204952306042,0.00010968880301031089,-0.0006146130821576195,-0.027959421832138523,-0.0017901261051754787,-0.002197771209382896,-0.01730426161387019,-0.21291962467758535,-0.22567357022213747,-0.3577612194182792
0.0,0.0,0.0,0.0,0.0,0.0,0.0,0.0,0.0,0.0,0.0,0.0,0.0,0.0,0.0,0.0,0.0,0.0,0.0,-0.017238372954979864,-0.0004308748516101728,0.0071569757498332375,0.006594289221194269,0.0025461507757492973,0.008893172644398222,0.002575265790540892,0.004475544122910385,-0.007244914982018756,-0.0015453732325025572,0.012222848390168971,0.001130167089807538,0.003963947885954658,0.02408245757097463,-0.002073138261500326,-0.005190902074886844,0.025188810635648363,0.20175757879131723,0.665559492573561
0.0,0.0,0.0,0.0,0.0,0.0,0.0,0.0,0.0,0.0,0.0,0.0,0.0,0.0,0.0,0.0,0.0,0.0,0.0,-0.06285114524671088,0.0,0.0,-0.18860496324935244,-0.0003152883126975637,0.0,-0.009771687642846706,-0.019879382501990648,-0.05329506963010319,0.0,-0.008767082426978606,0.0,-0.02785158695913936,-0.07483265727944147,-0.0009728239218868916,0.0,-0.0527959107070485,0.0,-0.09680443362599286,0.0,0.0,-0.17501806262168518,0.0,0.0,0.0,-0.04021843705681291,-0.07535002356853893,0.0,0.0,0.0,-0.015510386541265787,-0.059034345662341725,0.0,0.0,-0.03800190880155887
0.0,0.0003328843643555536,-0.0004421006972161205,0.005961388533484306,0.04297934406864804,0.0012959737602701773,0.011843791483225384,0.0015571372326251517,0.00504599622025753,0.012026638562457777,-9.808452085633563e-05,0.008103251444844332,0.0,0.0016455533687965852,0.02143098988815475,0.0009530210391709257,-0.0007137827885615091,0.0172673199705191,0.13164903227068298,0.1315701777763457,0.6050281478648334
0.0,0.0012705025164996095,-0.0015356462309988798,0.007982074640737398,0.032248504656559054,0.006900548244161342,0.020291166438388637,0.002613657960130017,0.0019322947926822048,0.00875804897250238,-0.0009584191301128192,0.010820523966954107,0.0005231878388050007,0.0021096520113501453,0.017751449028949134,-0.0030364975978964684,-0.0030181028942012104,0.020847608286653798,0.13198383719473633,0.19249237742821407,0.532792510389537
0.0,0.0,0.0,0.0,0.0,0.0,0.0,0.0,0.0,0.0,0.0,0.0,0.0,0.0,0.0,0.0,0.0,0.0,0.0,0.0026142855508321026,-7.787609593101691e-05,0.0046349004834974426,0.041833625942861094,0.0019023550045566679,0.006776482219095409,0.0029210300382671757,0.003668553305723915,0.005793563326736206,-0.0007187901497359251,0.010789344138043179,0.0006603598176964231,0.002795613893243836,0.02608300969521435,-0.0009310107067962095,-0.002451810427918617,0.022576370664322748,0.22317991813495283,0.6395511509496903
0.0,0.0,0.0,0.0,0.0,0.0,0.0,0.0,0.0,0.0,0.0,0.0,0.0,0.0,0.0,0.0,0.0,0.0,0.0,-0.0655693470031393,0.0,0.0,-0.18897557217485975,-0.00014710011448011552,0.0,-0.009766609107360727,-0.020181941585999667,-0.05150649113347299,0.0,-0.007356816767964502,0.0,-0.02766235857263895,-0.07718497040096815,-0.0009657938937238235,0.0,-0.0506205919314409,0.0,-0.09717364301455025,0.0,0.0,-0.16656359664631037,0.0,0.0,0.0,-0.04522058245418829,-0.08289915872027213,0.0,0.0,0.0,-0.014035892937611127,-0.05986141549669733,0.0,0.0,-0.03418330341641936
0.0,0.011193690348212304,-5.4305232263139436e-05,0.00354170433260702,0.05110191841278076,0.0019795773922973545,0.008112574047104191,0.0017479066729664803,0.0037706798578929688,0.014040971988567078,5.6797613714801145e-05,0.00733521965163492,0.0,0.0012290334959513807,0.019253930806784603,0.0005639772896460538,-0.00019741903806743725,0.016234016904054804,0.14568200224949207,0.15597180387548099,0.5579054423389918
0.0,0.01262522824808024,-0.0006453148441939872,0.00492133988549379,0.04558370126737263,0.004313136259646009,0.013095153814903664,0.003197429049344587,0.00271991683958292,0.016238771855003702,-0.00041778174942571847,0.009897628511716083,0.0003037386645258396,0.0016192802682778137,0.022016986235097916,-0.001332278870311896,-0.0011679983520126577,0.020094437209834528,0.16196532651493084,0.2060557976263371,0.4717508499248378
0.0,0.0,0.0,0.0,0.0,0.0,0.0,0.0,0.0,0.0,0.0,0.0,0.0,0.0,0.0,0.0,0.0,0.0,0.0,-0.17167616481750766,-0.002208267277500978,0.0196255823839313,-0.291938660741932,-0.0008397724896660638,0.017051615116855687,0.00467520612671503,-0.005502723364908105,-0.11259128248037707,-0.005929949837646627,0.006704969706594161,0.0035454562258505416,0.010255823061136591,0.0005413322445283478,-0.008090955287081397,-0.019866150351252086,0.04262512938441265,-0.12180371397052182,0.15415894186005136
0.0,0.0,0.0,0.0,0.0,0.0,0.0,0.0,0.0,0.0,0.0,0.0,0.0,0.0,0.0,0.0,0.0,0.0,0.0,-0.061855712171615486,0.0,0.0,-0.18773893256168966,-0.0003736899381589883,0.0,-0.009417594146856442,-0.020427264501039162,-0.05393242110177237,0.0,-0.00983506872309922,0.0,-0.028418943550169346,-0.07325414702966491,-0.0008557332552619762,0.0,-0.053862321980555794,0.0,-0.09694979681703586,0.0,0.0,-0.17100174751619077,0.0,0.0,0.0,-0.03724251196012765,-0.07183410535679875,0.0,0.0,0.0,-0.018500494284600783,-0.06207154578615194,0.0,0.0,-0.04237162723897764
0.0,-0.07155883551223373,-0.002255192334533052,0.01495193580339291,-0.016571114255282144,0.0011923029018002839,0.02718132864595385,0.003362579438721935,0.010108065083316376,-0.007430093961226624,-0.0008738241665899324,0.008621156971812063,0.0,0.002675203485019768,0.024178339965146352,0.00238645430766805,-0.0030637602615026962,0.020043444870405214,0.015690456589140738,0.010357161984920461,0.75726624727357
0.0,-0.0849288551995647,-0.0046069774753783425,0.016053269105438073,-0.09817539661842788,0.009501426089376437,0.04034411248186988,0.001662810102691215,-0.010346706653661495,-0.07118393328682046,-0.0028184255567071533,-0.004353923680842436,0.0011346664391944069,0.0025688689735736143,-0.03403329563766495,-0.008746532192716433,-0.009701435569659486,0.0009308823862760389,-0.2520760602164982,-0.13440845840650797,0.21212692054691423
0.0,0.0,0.0,0.0,0.0,0.0,0.0,0.0,0.0,0.0,0.0,0.0,0.0,0.0,0.0,0.0,0.0,0.0,0.0,-0.08192705009290328,-0.0010641633768429656,0.012843403746566924,-0.11160047229213996,0.0005901777261448572,0.013336847593076823,0.004924228186150426,-0.0005215364847115612,-0.0507632134259316,-0.003316932900606979,0.010582254618359425,0.002175202535021506,0.007079628769517737,0.019767435303070777,-0.0044796060834534175,-0.011161782851559745,0.039065262345539614,0.10542206865175419,0.5193249816388231
0.0,0.0,0.0,0.0,0.0,0.0,0.0,0.0,0.0,0.0,0.0,0.0,0.0,0.0,0.0,0.0,0.0,0.0,0.0,-0.06435424245671542,0.0,0.0,-0.18790745050679344,-0.00021805748600521238,0.0,-0.0093355024335399,-0.020846048322352078,-0.05227671505177557,0.0,-0.00865402082738495,0.0,-0.028349508483379506,-0.07526034456457413,-0.0008234250579155852,0.0,-0.051912282687600085,0.0,-0.0973422038730233,0.0,0.0,-0.16166911638780257,0.0,0.0,0.0,-0.04160047847233592,-0.07861972085225588,0.0,0.0,0.0,-0.01766830180818382,-0.06354723852914178,0.0,0.0,-0.03949053795529257
0.0,-0.011850667161401443,-0.0006170098766260806,0.0066491373178232446,0.03342281457104276,0.0021274733290819604,0.013605484104030643,0.002390019048219969,0.005534706571910186,0.008155216878243148,-0.00017621548723766343,0.007906794184511373,0.0,0.001664900453510695,0.020893246388460185,0.001059393593709446,-0.000938991866303772,0.017835315751300887,0.1127102155774821,0.12305919747538988,0.629372687316809
0.0,-0.04087684085726458,-0.003490252579347881,0.015265469561733106,-0.014336499437304336,0.0098140735861017,0.03954855770602405,0.005382731999708515,-0.003859166987277996,-0.029401269515744722,-0.0021645294742980176,0.006986484776701897,0.0010260656264038427,0.0033991179246608333,0.0027547919621195307,-0.00673986099625755,-0.007147594236962934,0.023691038120798973,0.015953835051141858,0.13830416069048437,0.629784409652591
0.0,0.0,0.0,0.0,0.0,0.0,0.0,0.0,0.0,0.0,0.0,0.0,0.0,0.0,0.0,0.0,0.0,0.0,0.0,-0.03056865874424336,-0.000401507118049168,0.00817879684509558,-0.014666354067351919,0.001202011021799294,0.010071751931834272,0.004487463274262918,0.0019002050167459727,-0.015863821529032592,-0.001703597413661366,0.011229076751634901,0.0012800660232660905,0.0045563655654032266,0.02666036761562211,-0.002261664601333896,-0.005774826201420936,0.03297439411745174,0.19932461400785337,0.626846575160821
0.0,0.0,0.0,0.0,0.0,0.0,0.0,0.0,0.0,0.0,0.0,0.0,0.0,0.0,0.0,0.0,0.0,0.0,0.0,-0.06537901237741751,0.0,0.0,-0.1844078609161827,-8.856154316684705e-05,0.0,-0.009956823279294312,-0.02279752367564022,-0.04821434158113111,0.0,-0.008194808809506932,0.0,-0.023306179960901122,-0.08276879753759027,-0.000854743265335196,0.0,-0.05396804602108469,0.0,-0.09846536624869194,0.0,0.0,-0.1406288133153858,0.0,0.0,0.0,-0.04879468107920085,-0.08441010463971307,0.0,0.0,0.0,-0.01821012066439875,-0.06968262861621266,0.0,0.0,-0.0397449844036476
0.0,0.006180077967510571,-0.00011450726232253577,0.004008154655048082,0.04736132567144827,0.002348043580422093,0.009214159766341195,0.0020375938728721906,0.004029948542765116,0.012560990559819006,3.545854217433135e-05,0.0074834947115202015,0.0,0.0013206619324068357,0.019360118386291876,0.0006373673188576269,-0.000283523852198416,0.01670344176050565,0.13848061705250347,0.15320549593657298,0.5746053212605478
0.0,-0.005340966709123838,-0.0015753526773697709,0.008647003216621396,0.02639651375211692,0.005910391458577646,0.02293607328130417,0.004763464986570113,0.0005108455486358907,0.00036768287890033514,-0.0009935555506878076,0.008975519906465383,0.0005573409934324619,0.0019912314741493088,0.017398366152903338,-0.003106324880881737,-0.003111646295135249,0.0237048682714715,0.1224309119598748,0.19645137735548623,0.5447873772429991
0.0,0.0,0.0,0.0,0.0,0.0,0.0,0.0,0.0,0.0,0.0,0.0,0.0,0.0,0.0,0.0,0.0,0.0,0.0,-0.16889041958443055,-0.00176683582766888,0.017347649874013098,-0.2930196780933168,-0.0016393214024886147,0.015730581032137973,0.0022008746287506347,-0.006214179917164715,-0.10398289197405122,-0.005014954620288025,0.005199069755706492,0.003078630083089081,0.004751235992724693,-0.006316693987266423,-0.006812710287625857,-0.0180222613173101,0.03880443522290188,-0.17226948805120754,-0.1287418419181279
0.0,0.0,0.0,0.0,0.0,0.0,0.0,0.0,0.0,0.0,0.0,0.0,0.0,0.0,0.0,0.0,0.0,0.0,0.0,-0.06559017621834129,0.0,0.0,-0.18858579868951153,-0.000255788109546042,0.0,-0.009092699913449334,-0.01923807483229466,-0.05418271729644941,0.0,-0.008633962882904096,0.0,-0.032001118388684,-0.07086302198366014,-0.0007037503415969013,-0.0007090605068588235,-0.05011558964623375,0.0,-0.09854320584841209,0.0,0.0,-0.17343586292629917,0.0,0.0,0.0,-0.035822206658381754,-0.07449099224611498,0.0,0.0,0.0,-0.017714307132735477,-0.061269913744917415,0.0,0.0,-0.038695270252669056
0.0,-0.10273207171904872,-0.002200843340596251,0.015068691141670509,-0.06950953397016604,0.0021135143482618537,0.02813027297015238,-0.0007356543606292324,0.00793623621845298,-0.016471244930877156,-0.0008403349451206248,0.00896434051100981,0.0,0.002005752259812614,0.009404891680461989,0.002402596986684181,-0.005707727633128117,0.002237585740378194,-0.15835409081275945,-0.1111651212515128,0.4537967002904201
0.0,-0.08916759816683849,-0.004376207389988278,0.01634776139473031,-0.1176908411387036,0.00870472554962847,0.042003767465317546,-7.436300548055342e-05,-0.00985658494030784,-0.07297912155319172,-0.002691417529387961,-0.003314864771438168,0.001134246038957151,-0.0015724931555577818,-0.0346336393606877,-0.008332515654763941,-0.010297045451999194,0.0026657816266757893,-0.2788273231987689,-0.14562699301283683,0.14952315680744097
0.0,0.0,0.0,0.0,0.0,0.0,0.0,0.0,0.0,0.0,0.0,0.0,0.0,0.0,0.0,0.0,0.0,0.0,0.0,-0.10086296426889232,-0.001017123785542669,0.008108668540924095,-0.19213693716220687,-0.0016416581710674916,0.006175789761469212,-0.000500457331079654,-0.005062877271033181,-0.06353023357201644,-0.0026369979605062412,-0.0014607915788620478,0.0015149936083846572,0.0011626173103989983,-0.0161852835130024,-0.003605638274675877,-0.009630579520551238,0.011495607639697272,-0.2059970338759645,-0.36722867691887195
0.0,0.0,0.0,0.0,0.0,0.0,0.0,0.0,0.0,0.0,0.0,0.0,0.0,0.0,0.0,0.0,0.0,0.0,0.0,-0.06577878063783,0.0,0.0,-0.18979448048463068,-0.000333808595171122,0.0,-0.008358438253858196,-0.01751437108412037,-0.0584217142730516,0.0,-0.008585714347605912,0.0,-0.036184922019386785,-0.06391983241422206,-0.0006035871903648446,-0.00105181503004596,-0.04942434631002907,0.0,-0.09941970448731384,0.0,0.0,-0.18879294034327002,0.0,0.0,0.0,-0.031969429850901586,-0.06701257134256651,0.0,0.0,0.0,-0.016895691874847837,-0.05498789531583502,0.0,0.0,-0.04089357742558152
0.0,-0.1292381040028007,-0.0025576946198529868,0.014837871999696226,-0.1254373021473917,0.0005999474248184175,0.026263089629472696,-0.002576656656912315,0.006223080024127192,-0.031407781322188855,-0.0010422612036252606,0.004597886203771139,0.0,0.0013221702646202171,-0.004721564133179233,0.0023672084482101448,-0.006644344673821459,-0.011421577240325668,-0.30978697575425634,-0.26512310186778615,0.05374803484344268
0.0,-0.06727805536560223,-0.0026338078607765518,0.008463924747963633,-0.1059448882492823,0.0038566492772481127,0.021389437618046906,-0.0024292427498839517,-0.007973672221658281,-0.057746234788467375,-0.0016075288869011083,-0.007056881784498818,0.0006084565962306112,-0.0022653293386679673,-0.035853931875538377,-0.00496174990035234,-0.0064934753187519114,-0.009986218450994186,-0.28093840672211146,-0.2137497398335933,-0.1587119742482475
0.0,0.0,0.0,0.0,0.0,0.0,0.0,0.0,0.0,0.0,0.0,0.0,0.0,0.0,0.0,0.0,0.0,0.0,0.0,-0.09957254804090464,-0.0009578263121895668,0.014487697689997935,-0.13616121529567704,0.00022122379719952164,0.016108318826272543,0.0035524768277077415,-3.030294955976378e-06,-0.05444961013630676,-0.0034207189196221715,0.012866546346999342,0.002373574745581129,0.0039883035688234895,0.021157257527846515,-0.004579989545210519,-0.012945555468504146,0.047379734973835415,0.10886985412340298,0.4567851838144219
0.0,0.0,0.0,0.0,0.0,0.0,0.0,0.0,0.0,0.0,0.0,0.0,0.0,0.0,0.0,0.0,0.0,0.0,0.0,-0.06650102601000907,0.0,0.0,-0.18796040669999853,-0.0002580866734766523,0.0,-0.008564293008244562,-0.018758512445717204,-0.056384071374095346,0.0,-0.008479064885634211,0.0,-0.033958479973752266,-0.06766920819528059,-0.0006062844372146106,-0.0008854796178784217,-0.04991187238718651,0.0,-0.09996937071545454,0.0,0.0,-0.17487598484703154,0.0,0.0,0.0,-0.03529687832360151,-0.07195591831010416,0.0,0.0,0.0,-0.01779798362242163,-0.059192764470207465,0.0,0.0,-0.04084788541966662
0.0,-0.061813342910949705,-0.0014328855511551394,0.013064224275020693,-0.008192634477158534,0.003720350824878859,0.02619925647577053,0.00048698868930594825,0.008698679967794498,0.00018452801399811543,-0.0004671084161203254,0.012849871566974263,0.0,0.002302787332216769,0.022199370385084356,0.0020809787188917975,-0.004451672386647965,0.014413344901800136,0.0019813419608681986,0.05675834523783702,0.7586409735577722
0.0,-0.052771105956950476,-0.0036936504352275768,0.017241536082084057,-0.049116968593158776,0.010010758385370636,0.045516364515326965,0.00280894492066691,-0.00344477684006415,-0.03750490024978657,-0.0023048605762293712,0.008074244372308392,0.001141535964295684,-0.0016995909158366844,-0.0007299219352109883,-0.0071557281281808376,-0.008982659505948868,0.026016503611083302,-0.041502225422527114,0.1123017929128952,0.5678492748582956
0.0,0.0,0.0,0.0,0.0,0.0,0.0,0.0,0.0,0.0,0.0,0.0,0.0,0.0,0.0,0.0,0.0,0.0,0.0,-0.042245542313062275,-0.0003762516721891381,0.009298995620047544,-0.03220966850828104,0.0010174504744501981,0.011747451674241112,0.003514287499429304,0.0025077731471677598,-0.01887075104509869,-0.0018373614988432822,0.012303238833473005,0.0014309993521893782,0.002992593892400796,0.026899080477151126,-0.0024228614741361836,-0.007126481596254081,0.03757501550469578,0.19770298203622697,0.5878708218579579
0.0,0.0,0.0,0.0,0.0,0.0,0.0,0.0,0.0,0.0,0.0,0.0,0.0,0.0,0.0,0.0,0.0,0.0,0.0,-0.06733484856333824,0.0,0.0,-0.18575586461461568,-0.0001692609288334151,0.0,-0.008879017247108593,-0.020399758913570865,-0.054012253395495834,0.0,-0.008231928659853933,0.0,-0.031369015965579304,-0.07195862143634878,-0.0006143137215910348,-0.0006928776484612968,-0.0505190813012399,0.0,-0.09946428674754089,0.0,0.0,-0.15955808804523988,0.0,0.0,0.0,-0.039568815540133556,-0.07845670994402915,0.0,0.0,0.0,-0.019021419581198743,-0.06275156981987061,0.0,0.0,-0.04111595271802339
0.0,-0.012361103612612886,-0.00041387433614449543,0.006613211021987255,0.03146151776542605,0.003097113225544318,0.014431774404668016,0.0012943856821017996,0.00562758530499699,0.010102833503083277,-6.51205479482128e-05,0.009346128796994271,0.0,0.0015283706905106912,0.020941748197352842,0.0010521658954575695,-0.0017216967877571035,0.01601442876217544,0.0993099425151539,0.13291431324288128,0.631668663889771
0.0,-0.013088287465595917,-0.0019064559253193526,0.010773037357652964,0.007699634308579989,0.006772462161681536,0.028907070013842823,0.00361816133361911,0.0009212108931118496,-0.0044947159755404096,-0.0012072441849964152,0.010221328587103064,0.0006897479902908335,-0.0004745622974131609,0.01647421157062357,-0.0037622402757553773,-0.004593164259852871,0.027054734167484912,0.09813976066811245,0.19830871794789726,0.5608436253893461
0.0,0.0,0.0,0.0,0.0,0.0,0.0,0.0,0.0,0.0,0.0,0.0,0.0,0.0,0.0,0.0,0.0,0.0,0.0,-0.01454464564058635,-8.480839792868954e-05,0.006641774661917904,0.016221023933794994,0.0014017561430720795,0.009476448785113728,0.003461665639133609,0.00372635695857004,-0.001419718427986121,-0.0010360957937132873,0.011906391433469301,0.0009507687700007747,0.0024710818731991375,0.028254022261305915,-0.0013320070128442817,-0.004178123240235872,0.03216564431492302,0.23360469896133987,0.6270726855946736
0.0,0.0,0.0,0.0,0.0,0.0,0.0,0.0,0.0,0.0,0.0,0.0,0.0,0.0,0.0,0.0,0.0,0.0,0.0,-0.06837052954896179,0.0,0.0,-0.18301757812117064,-5.893050356345176e-05,0.0,-0.009269934775458476,-0.02243834724404899,-0.051066212173069704,0.0,-0.007924959750337284,0.0,-0.02815263993569496,-0.07728648878600479,-0.0006242868041445134,-0.00045364676607294844,-0.05127328799640368,0.0,-0.09883690826247912,0.0,0.0,-0.14053171561320144,0.0,0.0,0.0,-0.04487498049196245,-0.0865313280865299,0.0,0.0,0.0,-0.02054104593580279,-0.06717195086468358,0.0,0.0,-0.04144891315027089
0.0,0.0027204800792608283,-7.5660333387193e-05,0.004701860747780158,0.041417722026974635,0.003053903584763483,0.011081505690112134,0.0016557134263363183,0.0048603201569921714,0.012579205755330577,7.394840147817345e-05,0.008639123278506316,0.0,0.001341184072179379,0.0197764047228405,0.0007471975255823206,-0.0008508740649910041,0.017152530741612514,0.12797977005680433,0.15599567091436453,0.5852601328833625
0.0,0.005230261314726079,-0.0009312676648837812,0.006878035857003059,0.030162552264277987,0.0046923832281948194,0.018788325322082255,0.0036368509175080613,0.0027771352911387455,0.010114362275001041,-0.0006048933152917475,0.010212291274093907,0.0004236194014764844,0.00011535086632455488,0.021577311915636683,-0.0018971455176164161,-0.0022064437870084413,0.024685756626298183,0.14656985534614975,0.21341947082959078,0.4950313178836019
0.0,0.0,0.0,0.0,0.0,0.0,0.0,0.0,0.0,0.0,0.0,0.0,0.0,0.0,0.0,0.0,0.0,0.0,0.0,-0.0021156705355503676,6.0137567301316814e-05,0.00531176845563182,0.03641723651244764,0.0014323906495692395,0.00825032299182183,0.0034305219201713707,0.004312213757996401,0.006808490312994256,-0.0006364369244900835,0.011419548972328903,0.0007107613552738256,0.0020245557518299134,0.027165817984043533,-0.0007880191166964276,-0.0027070003098331984,0.028925585349978137,0.24117555044859051,0.6162572846727291
0.0,0.0,0.0,0.0,0.0,0.0,0.0,0.0,0.0,0.0,0.0,0.0,0.0,0.0,0.0,0.0,0.0,0.0,0.0,-0.06985816479281123,0.0,0.0,-0.1797808224493586,0.00028694731732484757,0.00021855237252066455,-0.009851452652531475,-0.02489602998293916,-0.047910059738477145,0.0,-0.007240357515402885,0.0,-0.024585890360030928,-0.082788884774051,-0.0006444567438482415,-0.00018204780781787153,-0.05219884282763644,0.0,-0.09946782801332568,0.0,0.0,-0.11747841361557379,0.0,0.0,0.0,-0.051654755301152204,-0.09709934437526922,0.0,0.0,0.0,-0.022588468303709176,-0.07018166483535326,0.0,0.0,-0.04096103551067476
0.0,0.005914574219312481,5.101418555681118e-05,0.004336311438307637,0.04294797394117591,0.0025782962256841574,0.01067352752608663,0.0019333749277259862,0.0049572406598402795,0.01417531339294764,0.00013464601812901035,0.008782005543996026,0.0,0.0007927886312056672,0.0181646029986215,0.0006886246457245899,-0.0005784887605653267,0.018772449027363688,0.13600595435411417,0.16175982282417092,0.566712352135965
0.0,0.012694747676109943,-0.0005024674744300109,0.005222929492095361,0.03887120137458147,0.0035880187060508316,0.01442944285280756,0.0037116786885135907,0.0036761218415010013,0.01663250393226272,-0.00034057429568089026,0.01025997455492505,0.00030968880314483256,0.0001463130143884391,0.02245354697012771,-0.0010791595162031819,-0.0011556520001312842,0.023763682794512103,0.16509247803114954,0.21667009798717463,0.45935297260456487
0.0,0.0,0.0,0.0,0.0,0.0,0.0,0.0,0.0,0.0,0.0,0.0,0.0,0.0,0.0,0.0,0.0,0.0,0.0,0.002598870427950068,0.00014318458843692107,0.0047044235226899956,0.04459066496128456,0.0015600110467929849,0.007698496727600372,0.002914521082403981,0.004963363437114337,0.011031018393130903,-0.0004696507612803857,0.01152728551948708,0.00048537929496594303,0.0019400458246390724,0.02718246973343757,-0.0005549342673949905,-0.0021213144385261204,0.029115373559728253,0.24820096019064106,0.5981429298439624
0.0,0.0,0.0,0.0,0.0,0.0,0.0,0.0,0.0,0.0,0.0,0.0,0.0,0.0,0.0,0.0,0.0,0.0,0.0,-0.07167032511432925,0.0,0.0,-0.17568671549050346,0.0007155518526438267,0.0004893609084320837,-0.01056778601568965,-0.027931118175709785,-0.04397598569291761,0.0,-0.006388452942566707,0.0,-0.020153491270383607,-0.08957167564795036,-0.0006691647273036063,0.00015469764312851943,-0.05332232328519154,0.0,-0.1002045412409975,0.0,0.0,-0.0888489672402606,0.0,0.0,0.0,-0.060035124554135545,-0.11015473733961105,0.0,0.0,0.0,-0.025116067314141108,-0.0738803813731917,0.0,0.0,-0.04033760889600184
0.0,0.006680716740961637,0.0001082785183141837,0.004156782601144813,0.04301524373953079,0.002532386840575943,0.01043974344713162,0.001188772292072372,0.005301301958561939,0.014983426899756356,0.00016881253578390735,0.009214719426218466,0.0,0.0006067623380334895,0.017353051083694584,0.0007056255432658534,-0.0004973669019422706,0.02005423115091595,0.13671142838409445,0.16442405082681996,0.561813690475864
0.0,0.016022076449917183,-0.00031808228235345916,0.004451861085030492,0.042111130369562766,0.003220021332248748,0.012290874842936077,0.0033256999144189807,0.004283055216976995,0.01982971816917184,-0.0002283536414605082,0.01043067703757043,0.00017101482391472826,0.0001681345466831836,0.023191967827786444,-0.0007330446842018864,-0.0007002833368457778,0.02430252880283452,0.17374398312580924,0.22025455582109485,0.44017351235758684
0.0,0.0,0.0,0.0,0.0,0.0,0.0,0.0,0.0,0.0,0.0,0.0,0.0,0.0,0.0,0.0,0.0,0.0,0.0,-0.07622972812094402,-0.0003508728180811476,0.005291706911811618,-0.15032725701856478,-0.0023374188141695217,0.004648591512177053,-0.0035481403324681784,-0.00013610537177782722,-0.03602993835673535,-0.001432207215382712,0.00029627319306343964,0.0004214565066507126,-0.0010888091816183242,-0.019304633923196205,-0.0019033750042215638,-0.006012176871720778,0.012360171788340639,-0.161598856816512,-0.5165656752018206
0.0,0.0,0.0,0.0,0.0,0.0,0.0,0.0,0.0,0.0,0.0,0.0,0.0,0.0,0.0,0.0,0.0,0.0,0.0,-0.06871400817713205,0.0,0.0,-0.18242516109574847,-0.00020115986310637412,-0.00015263988624209437,-0.008869321911566846,-0.022126137009677107,-0.05164811608781666,0.0,-0.008176756703080088,0.0,-0.02865937525742461,-0.076775368855374,-0.0005647010799984248,-0.0005110444229541527,-0.051148035373390986,0.0,-0.09976278219429252,0.0,0.0,-0.13855632013770988,0.0,0.0,0.0,-0.04427961226632272,-0.08441477071357896,0.0,0.0,0.0,-0.020344933811557348,-0.06996283230726479,0.0,0.0,-0.04265057429278458
0.0,-0.06571088207606798,-0.0006259738779239646,0.005260665948912224,-0.09771557143586881,-0.0017593010777499061,0.010304131652504942,-0.003900037112872549,0.003765567878942176,-0.018659381176039918,-0.00018178026881545206,0.0018953139834295108,0.0,-0.001877807085186042,-0.020794489504372207,0.0010527227192740059,-0.0023880951104190908,-0.0037918015683830624,-0.22888936376910682,-0.19540229921283808,-0.33592791136474326
0.0,-0.054117451418454095,-0.0014958000817634125,0.005595390061495792,-0.10402124605373302,0.0008655201831378864,0.01429697293678377,-0.005030544167046751,-0.002136411646851226,-0.039121651627899184,-0.0009349188480446551,-0.0034993759008401346,-9.28244795713952e-05,-0.005426531510238419,-0.03866838710910748,-0.002893378666552246,-0.004181216608287526,-0.004410125755738666,-0.2542632851858468,-0.18999719415571828,-0.268813588862112
0.0,0.0,0.0,0.0,0.0,0.0,0.0,0.0,0.0,0.0,0.0,0.0,0.0,0.0,0.0,0.0,0.0,0.0,0.0,-0.05224829885739828,-0.00028990966668775256,0.0018854199969092237,-0.1172384915515913,-0.002150916494615826,0.0003643395082496845,-0.003463026103305277,-0.0018906240890248242,-0.028220955142416643,-0.0008014486117011218,-0.0039015731352993526,0.00011005687122114848,-0.0014030552412699565,-0.022901832937393854,-0.0010901894431116289,-0.003292734926180533,-0.0019672140880582414,-0.1974785474801979,-0.5592645941740373
0.0,0.0,0.0,0.0,0.0,0.0,0.0,0.0,0.0,0.0,0.0,0.0,0.0,0.0,0.0,0.0,0.0,0.0,0.0,-0.06757520950702382,0.0,0.0,-0.18602869966099914,-0.0006723856840235444,-0.0004823144520204953,-0.0077298225950122226,-0.018467592574506336,-0.05653195201831251,0.0,-0.009466714142286255,0.0,-0.03285446916904108,-0.06909359698184897,-0.0004940630824593541,-0.0008427413041350687,-0.0497323556371794,0.0,-0.09665702113532734,0.0,0.0,-0.16384991700434703,0.0,0.0,0.0,-0.03480453615530284,-0.07200897334801651,0.0,-0.003421825072565277,0.0,-0.017275714690834065,-0.0659074418720469,0.0,0.0,-0.04604648753040786
0.0,-0.04722853934117502,-0.0004649199480673109,0.0022031232465866014,-0.08099775217805935,-0.0020560031428268647,0.0035424880463200328,-0.0030695365700712258,0.0007947450856358131,-0.017812306194054658,-0.0001812107740633005,-0.0018016778913937572,0.0,-0.0014176422787719105,-0.020070823822013646,0.0004833140522140669,-0.0014674704721961461,-0.009268420126524618,-0.20215955731779686,-0.1885566561832688,-0.41639006712492854
0.0,-0.04082733843470367,-0.000844610445152445,0.0019469591444573244,-0.08255372570981154,-0.0006397665437738389,0.004634344428919349,-0.0044743323179958225,-0.0029672395580948316,-0.032554888582581876,-0.0005169249951571982,-0.006133226098616256,-0.0001233181008770482,-0.003554192530187604,-0.033508697985017065,-0.0015899850284177665,-0.002441628229945251,-0.011877015000552524,-0.22824585495286062,-0.2041661471575141,-0.3363623285121157
0.0,0.0,0.0,0.0,0.0,0.0,0.0,0.0,0.0,0.0,0.0,0.0,0.0,0.0,0.0,0.0,0.0,0.0,0.0,-0.1849477037407909,-0.00042024801568455594,0.023789983083848817,-0.29631095704531313,-0.003780963359755172,0.031192819620225645,-0.006551393103025787,0.012046607440141159,-0.0640629532100086,-0.00433053472605197,0.022521363701360167,0.0011755781082486247,0.001337625829903927,-0.008493002044844886,-0.005582960920556352,-0.018393627623151974,0.08933739712784222,0.05917324814347167,-0.1661216999743253
0.0,0.0,0.0,0.0,0.0,0.0,0.0,0.0,0.0,0.0,0.0,0.0,0.0,0.0,0.0,0.0,0.0,0.0,0.0,-0.06860613421770755,0.0,0.0,-0.18370572975189967,-0.0004949221869976587,-0.0003923199041919292,-0.008033459028568907,-0.020131114561769574,-0.05446266724564172,0.0,-0.009023850607017493,0.0,-0.030733449497811333,-0.07279971979358148,-0.0004903279591706662,-0.0006867575874005409,-0.05037666489922877,0.0,-0.09806756610287687,0.0,0.0,-0.14808508779882482,0.0,0.0,0.0,-0.039374141142108014,-0.07805210349980714,0.0,-0.0026547389719377016,0.0,-0.018696772428204417,-0.06934293614692169,0.0,0.0,-0.04566377115030648
0.0,-0.0755271103226308,-0.0005405121406256182,0.017441072077428524,-0.051426315922803535,0.003064486445894078,0.03501486295577436,-0.0037581169822144497,0.01533442064164402,0.0008913210871564094,0.0001304257273972171,0.020003346980225756,0.0,-0.0008761776490630405,-4.3741639637076066e-05,0.0027661413933206765,-0.004007756451575204,0.03166480619809111,-0.06608907980739166,0.03860089792791365,0.6326205685855777
0.0,-0.07530194428722042,-0.0034262286339173356,0.020900588083238466,-0.12954968350043286,0.006435199909938407,0.053768268928652045,-0.0057290760028768815,0.007293693280959472,-0.034406115506966976,-0.0022153859907371237,0.014489429536784922,-0.0003074910470951704,-0.011367959039584865,-0.03570069690005918,-0.006916933673438596,-0.009317985750222793,0.04054961602543122,-0.17306595680387174,0.05700902729153918,0.3118993444198646
0.0,0.0,0.0,0.0,0.0,0.0,0.0,0.0,0.0,0.0,0.0,0.0,0.0,0.0,0.0,0.0,0.0,0.0,0.0,-0.11967490869010333,-0.00016358158334431683,0.019007425055873335,-0.1664544817041418,-0.0017674494645284991,0.02669528765172495,-0.002888482926451848,0.011537320902205958,-0.03362162227358635,-0.0030989163430311653,0.022745108950417654,0.0009107434408491341,0.002024330156494356,0.00844281366609223,-0.0039583263977275825,-0.012951914406211339,0.07628391972013282,0.19598173247111775,0.2917231352704775
0.0,0.0,0.0,0.0,0.0,0.0,0.0,0.0,0.0,0.0,0.0,0.0,0.0,0.0,0.0,0.0,0.0,0.0,0.0,-0.06988964273717042,0.0,0.0,-0.1808427944691819,-0.00027504019615501356,-0.00028082645743632707,-0.00841043858175206,-0.022194399029735273,-0.05190296815169595,0.0,-0.008475802708653344,0.0,-0.028107590353930748,-0.07739887509363651,-0.00048574143537695485,-0.0004935113284278203,-0.05117948127407613,0.0,-0.09982406663407177,0.0,0.0,-0.1285610257605336,0.0,0.0,0.0,-0.045040498499633395,-0.0855478882096937,0.0,-0.0017043433570521022,0.0,-0.020459455206049162,-0.07360641224228343,0.0,0.0,-0.045193421907911105
0.0,-0.036921592397911714,-0.00019247054369547512,0.011917450861436703,-0.0036519589677611822,0.0036259808845261303,0.025033652932426393,-0.0014262820462419008,0.011932034008891129,0.009418251899417451,0.0002049469724664102,0.016483041264162845,0.0,4.672109904262517e-05,0.009873008872598985,0.002009270963896904,-0.002835640971331821,0.030621078450556456,0.041768368340644686,0.11558989837632566,0.6763934198850258
0.0,-0.0455161163141179,-0.002771210469165244,0.018854901463707645,-0.07441265672998437,0.006854443103800258,0.047994581951013734,-0.002864063854130838,0.009184606503420885,-0.011994121820113337,-0.0018134879711731,0.017253161900804836,-0.00021349627214049683,-0.008637563140127558,-0.011396722474960121,-0.005679879668446679,-0.007950790961108994,0.04859609964912676,-0.020966021216501683,0.1794721924071091,0.47749591396974084
0.0,0.0,0.0,0.0,0.0,0.0,0.0,0.0,0.0,0.0,0.0,0.0,0.0,0.0,0.0,0.0,0.0,0.0,0.0,-0.06476564666235138,6.330768339578447e-06,0.013202811805641217,-0.06996602527615231,-0.00035446081868061057,0.019778285417023655,-0.0005599306043221315,0.009254544441414849,-0.012174362783555926,-0.0019010184424651624,0.019078555862641105,0.0006127554257302628,0.0018658332321296834,0.015216142438997216,-0.00239957832297645,-0.007958431100537539,0.0555243580050819,0.23132026452721696,0.4740028111039108
0.0,0.0,0.0,0.0,0.0,0.0,0.0,0.0,0.0,0.0,0.0,0.0,0.0,0.0,0.0,0.0,0.0,0.0,0.0,-0.0714162497162129,0.0,0.0,-0.17793793034212835,-3.458143470525137e-05,-0.00016223428065901781,-0.008726033830593418,-0.024729044315419356,-0.04884075195552033,0.0,-0.00790003768637622,0.0,-0.02551540408697274,-0.08259608892148063,-0.0004920495035050714,1.8076847138828986e-05,-0.05158673441627327,0.0,-0.10297017250306525,0.0,0.0,-0.10317068934394871,0.0,0.0,0.0,-0.05158084395957482,-0.09509906394841217,0.0,-0.0006771708631728478,0.0,-0.02292176632975884,-0.07776801934989172,0.0,0.0,-0.04573133734488309
0.0,-0.01804747496517736,-6.568160298864763e-06,0.008832959456347015,0.014239828781578659,0.0038663292587872012,0.01940701858792106,-0.0003502962061175482,0.009894869654491528,0.01086561763577654,0.00024102674656259384,0.014382746531432154,0.0,0.0002697729765729617,0.012344780873758544,0.0015809265727694327,-0.0031536345151344297,0.02722801670761285,0.0788589454412406,0.13571027873090016,0.6406635959563304
0.0,-0.02100624664458792,-0.0019736820799984055,0.014999714900514752,-0.0338122151837902,0.006210750713243448,0.03781219729035821,-0.0008728749904578297,0.009104858324378047,0.0025637194503770997,-0.0013090130213544047,0.016694207594580106,-0.00012368708197218502,-0.005930343750898164,0.003974939191746613,-0.004113993855311287,-0.006365635218184515,0.04612610764615658,0.06828820455795244,0.22315044856150887,0.4954989596282775
0.0,0.0,0.0,0.0,0.0,0.0,0.0,0.0,0.0,0.0,0.0,0.0,0.0,0.0,0.0,0.0,0.0,0.0,0.0,-0.10199509168916619,-0.00028777044181346745,0.010156886719556675,-0.18977164901929225,-0.0024663430497906358,0.013206555776866335,-0.0053579301741579315,0.0018828337710863037,-0.04627444539341211,-0.0019724241106381904,0.004787683292942775,0.0003930382160699577,-0.001021813830811624,-0.026233092781579967,-0.0025686881844566743,-0.008958743602274936,0.02665594528793114,-0.13962150085304076,-0.4163100787295406
0.0,0.0,0.0,0.0,0.0,0.0,0.0,0.0,0.0,0.0,0.0,0.0,0.0,0.0,0.0,0.0,0.0,0.0,0.0,-0.06912286401510528,0.0,0.0,-0.18255141308970785,-0.0005273866199539144,-0.0004502118863383328,-0.007918243633555188,-0.019859894824682627,-0.05483809263826445,0.0,-0.00915941420917634,0.0,-0.030052531489179815,-0.07300968856800018,-0.00043689835600823257,-0.001028181512045496,-0.051017121219862654,0.0,-0.0968362049562468,0.0,0.0,-0.147217777923048,0.0,0.0,0.0,-0.039364433717792205,-0.07704158904841926,0.0,-0.003474598627931801,0.0,-0.018141524037851797,-0.0722449772449069,0.0,0.0,-0.0456508365056833
0.0,-0.05768577821055351,-0.00038652378883616625,0.00480720368438873,-0.09709737126407891,-0.0003084329532250333,0.009820098461129169,-0.004454788201790524,0.001649882248500381,-0.024186467621791392,-4.01115393894684e-05,0.0018190469791987617,0.0,-0.0018694471500752107,-0.0248956335507829,0.001116158406496748,-0.004953696618144104,-0.003814016931717522,-0.23359844907313124,-0.2040681885992472,-0.32337030010570933
0.0,-0.055790697568945696,-0.0018289500212749674,0.009336402501955544,-0.12369712506160474,0.002449007792771443,0.022970356613402697,-0.006894010072871435,0.0007879477987434091,-0.04169016646594091,-0.0011781308321224056,-0.0011475449954554716,-0.00022759018855798808,-0.007066742361723556,-0.0384529187188265,-0.0036742260161519943,-0.007879089628914086,0.009232117272430408,-0.2560207121505109,-0.16591493212946037,-0.24369164350237968
0.0,0.0,0.0,0.0,0.0,0.0,0.0,0.0,0.0,0.0,0.0,0.0,0.0,0.0,0.0,0.0,0.0,0.0,0.0,-0.06139465963662584,-0.00024186965362703967,0.0036828621627480827,-0.13245146797005697,-0.0019251865098714068,0.0038446291258299238,-0.004258270722210721,-0.0017828398560430021,-0.0340963395339806,-0.0009548563456271395,-0.002911462840152875,0.000105693225175818,-0.0015252513956083191,-0.027297235869495715,-0.0012710283342436245,-0.004581342120959701,0.0021261294416733446,-0.19944190802699105,-0.5160703767144663
0.0,0.0,0.0,0.0,0.0,0.0,0.0,0.0,0.0,0.0,0.0,0.0,0.0,0.0,0.0,0.0,0.0,0.0,0.0,-0.06784909700305025,0.0,0.0,-0.18509495248987198,-0.0008001944863771609,-0.0006096226645372648,-0.007470551628106108,-0.017162955489476807,-0.05815527482234729,0.0,-0.009856124451552215,0.0,-0.03256272625631112,-0.06769795851710418,-0.00040633866046578,-0.0016073762106900038,-0.0506987710248292,0.0,-0.09343449931527444,0.0,0.0,-0.1715955743797884,0.0,0.0,0.0,-0.03259858386123778,-0.06703966140494234,0.0,-0.005023174916461922,0.0,-0.015493908273472815,-0.06918294680513438,0.0,0.0,-0.04560359474840694
0.0,-0.03864758923789254,-0.00029117650191726023,0.0011878068952022138,-0.07736705915263498,-0.0013089585678340988,0.0020473707399350366,-0.00327952566810673,-0.0015097273617294816,-0.021311495543179078,-9.743132835398491e-05,-0.0026206440723889166,0.0,-0.0014921464479640896,-0.022316640580949385,0.0004064745241054703,-0.002878166760141452,-0.010435893873344851,-0.19869750090092692,-0.1921214583250236,-0.4219547563010825
0.0,-0.037053160543179094,-0.0007992930993833574,0.0025077835833767887,-0.085821143343713,-6.900798058060601e-05,0.005879843332725312,-0.005109649893032175,-0.0023085323612394336,-0.033473910760519865,-0.0005028475135404005,-0.006227552936356039,-0.00013839026164626846,-0.003629756500449308,-0.03137997796093305,-0.0015581400465869589,-0.004125695250816168,-0.007592003280133327,-0.22222423195128713,-0.2012465191769464,-0.34832022633903714
0.0,0.0,0.0,0.0,0.0,0.0,0.0,0.0,0.0,0.0,0.0,0.0,0.0,0.0,0.0,0.0,0.0,0.0,0.0,-0.17335636597653117,-0.0002481121724356653,0.02298496754512761,-0.290978041740205,-0.0031751930860108176,0.03440993063630131,-0.009284472561560739,0.003950587627525817,-0.07979552279807225,-0.0035799447070507108,0.020218228121890305,0.0007757537722010796,-0.0013249161910428781,-0.03954210633417949,-0.0045885061984808975,-0.017161487862081007,0.06566073298518563,-0.06522093696990296,-0.16342771995622937
0.0,0.0,0.0,0.0,0.0,0.0,0.0,0.0,0.0,0.0,0.0,0.0,0.0,0.0,0.0,0.0,0.0,0.0,0.0,-0.06888163839713529,0.0,0.0,-0.18320321715218116,-0.0006859628698251347,-0.0005700535423381206,-0.0075597921004617085,-0.01848697340286782,-0.05659344179259614,0.0,-0.009611743887308507,0.0,-0.031040117869804394,-0.070559257354014,-0.00039353632585342936,-0.001363523440582601,-0.050987885513987176,0.0,-0.09503959980816373,0.0,0.0,-0.15654406631306794,0.0,0.0,0.0,-0.03614573215644147,-0.07213732178952419,0.0,-0.004793700424225929,0.0,-0.01676152211230595,-0.0722773978347832,0.0,0.0,-0.04623780321044252
0.0,-0.07627642859425095,-0.00025140218241070407,0.009992333742887154,-0.1299080010038478,0.0019483060861219567,0.02296579675857229,-0.007627419239664124,0.0022705739214497027,-0.03274902903430104,0.00023473756616271063,0.010479719136037867,0.0,-0.002509976885017706,-0.03338653048551343,0.002411472358013313,-0.011179755274224663,0.009669311189160886,-0.2845334934554714,-0.22059033676857623,-0.14081305688804677
0.0,-0.04695018878057315,-0.0017563305732453632,0.010457872174981996,-0.12835996064072103,0.0032818737290952883,0.024683074032102525,-0.007636745071322176,0.001252641151759616,-0.04170863642421153,-0.0011563971592619925,0.000371794175360649,-0.00020810915248097774,-0.00707663897758878,-0.033049560103382884,-0.003626825773939432,-0.010472475190616198,0.018624156913788655,-0.23455602591073527,-0.15341428791572131,-0.2711644269655015
0.0,0.0,0.0,0.0,0.0,0.0,0.0,0.0,0.0,0.0,0.0,0.0,0.0,0.0,0.0,0.0,0.0,0.0,0.0,-0.14311696068160007,-7.496106880884949e-05,0.0228615743424784,-0.214911180773553,-0.0019540327602865994,0.03564389945750851,-0.0068793013276766185,0.005983099613464737,-0.06063005102790912,-0.0032366273732301965,0.02533870335583864,0.0007874055530590074,-0.00018336893381269085,-0.020909322020084144,-0.0041083726524924,-0.015512327118267744,0.072760119599627,0.09961925874622468,0.26540317842623984
0.0,0.0,0.0,0.0,0.0,0.0,0.0,0.0,0.0,0.0,0.0,0.0,0.0,0.0,0.0,0.0,0.0,0.0,0.0,-0.07015755899412493,0.0,0.0,-0.18130882861609204,-0.0005560975167716026,-0.0005281094234966481,-0.007735287525403889,-0.020233990545428373,-0.05437274166611464,0.0,-0.009408402951134386,0.0,-0.02936323435240437,-0.0737376888767702,-0.00038187795582408517,-0.0010853749359332403,-0.05106799657793906,0.0,-0.09782174082877293,0.0,0.0,-0.13852742232282128,0.0,0.0,0.0,-0.04070373661900322,-0.07736210006839164,0.0,-0.00456405938957518,0.0,-0.01842553733461148,-0.07662633947131903,0.0,0.0,-0.0459062539029421
0.0,-0.0790484542418664,-9.012356781848473e-05,0.014460987486930576,-0.12182067308460127,0.004433364864987102,0.03395134105880314,-0.008552872489360812,0.005150191178638839,-0.028728746632355872,0.00047100471834887975,0.01921644305381139,0.0,-0.00231971315976347,-0.02867353076130544,0.0033643907510205284,-0.014556610640593224,0.026477446550333624,-0.236146852971969,-0.14253408943555027,0.22989772747274595
0.0,-0.06301467149062288,-0.003472701352867845,0.02481833030424493,-0.20050524017576904,0.009362622618524373,0.05864913168652727,-0.012094415775521556,0.007770505411331623,-0.0542857311217063,-0.002329553895829423,0.012498709248827617,-0.0003311538288910969,-0.013166253302366052,-0.03419781532470695,-0.00734106038013259,-0.0218840986640469,0.06698565561613389,-0.24422525117360297,-0.0544572741308563,-0.10842415944605889
0.0,0.0,0.0,0.0,0.0,0.0,0.0,0.0,0.0,0.0,0.0,0.0,0.0,0.0,0.0,0.0,0.0,0.0,0.0,-0.10644089102844995,-0.00022121837469183907,0.011635925609190457,-0.19653311411190588,-0.002368104396340808,0.01682591048121609,-0.006591866303281957,-0.000252476613732432,-0.054766675666471386,-0.0019660006165140957,0.006678019845794648,0.0003512915912624733,-0.0016531812950005104,-0.035222945968802946,-0.0025426677998735075,-0.009671326264884102,0.026272205373902142,-0.15413141943407488,-0.36582364966683245
0.0,0.0,0.0,0.0,0.0,0.0,0.0,0.0,0.0,0.0,0.0,0.0,0.0,0.0,0.0,0.0,0.0,0.0,0.0,-0.06839350945418948,0.0,0.0,-0.18365938736922105,-0.0007962125248152474,-0.0006386480535376932,-0.0072482967257250005,-0.017128113126967978,-0.05850502692037285,0.0,-0.009806593622990765,0.0,-0.03184024678246074,-0.06872759005655538,-0.0003694338783129154,-0.0015984394404879088,-0.05126046304231009,0.0,-0.09241968043576519,0.0,0.0,-0.1661789534527613,0.0,0.0,0.0,-0.03291592776703857,-0.06918112691764196,0.0,-0.005505055738163414,0.0,-0.015437317831735962,-0.07046475549710618,0.0,0.0,-0.04786914335773408
0.0,-0.05323713017417464,-0.00024408307954358895,0.00466651011728673,-0.09989460850474137,5.7338597469810455e-05,0.01057081130057627,-0.005249366307552191,-0.0005835886443104339,-0.026685857474898603,5.732927159592442e-05,0.002795324397141922,0.0,-0.0019095429078042462,-0.027703646291085748,0.0012389888025950962,-0.006632154758794796,-0.002477527920869961,-0.2364479360018802,-0.2070200087045282,-0.3124946092536546
0.0,-0.04089158103947104,-0.0013882010724628158,0.007892996518662132,-0.1145376437184677,0.0022991612153564875,0.01830747652733656,-0.007024119429652096,3.094342632184913e-05,-0.038924779718107004,-0.0009133897102325963,-0.001752886166542602,-0.00017804654535762715,-0.005833882804829422,-0.031013630078220698,-0.00286406181652999,-0.00901943708433497,0.011624491541530389,-0.22543753385943008,-0.16942390294098333,-0.3106079316919682
0.0,0.0,0.0,0.0,0.0,0.0,0.0,0.0,0.0,0.0,0.0,0.0,0.0,0.0,0.0,0.0,0.0,0.0,0.0,-0.17270917090040297,-0.00011409398173781575,0.026436022085443812,-0.2713529297758362,-0.002610723137173934,0.041259866605261,-0.009350413592285743,0.004695193629401346,-0.08019231744719466,-0.0037475818598761254,0.028818776738333923,0.0008507320433466173,-0.0006912175502026116,-0.03618351790510402,-0.004764251279730653,-0.01839152241459754,0.07787337495339708,0.04753816674236302,0.17224451625929563
0.0,0.0,0.0,0.0,0.0,0.0,0.0,0.0,0.0,0.0,0.0,0.0,0.0,0.0,0.0,0.0,0.0,0.0,0.0,-0.06936532135089207,0.0,0.0,-0.18182062619780984,-0.0007118157693597791,-0.0006249868389136913,-0.0074598452017979,-0.018575250418595306,-0.0568411382221271,0.0,-0.008887175147200497,0.0,-0.03064715344219194,-0.0716256818706285,-0.0003589838183709518,-0.0014156779622704033,-0.05160349123552705,0.0,-0.09419374348226532,0.0,0.0,-0.15003926477375013,0.0,0.0,0.0,-0.03700362185408251,-0.07338690153069886,0.0,-0.004383127177824491,0.0,-0.016952016705835425,-0.0752811196029617,0.0,0.0,-0.04869735234826593
0.0,-0.08619276345316311,-0.00013511236319022096,0.013994979434123409,-0.14141342494882986,0.0038309480545354766,0.03302810529569919,-0.009612477329803443,0.0033481582489988428,-0.03481484975322268,0.00044705219077068877,0.017911010045893638,0.0,-0.0022424319275497337,-0.03614606296323021,0.003369688400239881,-0.01547821692177547,0.022120338119972435,-0.29060579256060076,-0.19892631808302128,0.08621447389694056
0.0,-0.05317014692293116,-0.0030430061952594787,0.02177077691088756,-0.18355087259871472,0.008147234474939131,0.05080789894700618,-0.01203618485620814,0.005955740747476256,-0.05201275360859091,-0.0020481496185066027,0.010677297306173473,-0.00030255164407827875,-0.011333344553575729,-0.032084452996806456,-0.006459488812459141,-0.020903151773170064,0.06071763169853246,-0.23195424150365096,-0.0707667211331297,-0.16205541570139373
0.0,0.0,0.0,0.0,0.0,0.0,0.0,0.0,0.0,0.0,0.0,0.0,0.0,0.0,0.0,0.0,0.0,0.0,0.0,-0.1097303232065671,-1.9706327370984966e-05,0.019159770097400327,-0.15524345361712982,-0.0011650827651840823,0.030960583063293013,-0.005449590873200931,0.004956767209428193,-0.04771709896144933,-0.002708398274564173,0.02501082913098221,0.0006462936317985706,0.0003424294997807488,-0.015514884385620813,-0.0034405982034458864,-0.012721944210023392,0.06228476779513509,0.1364304476056043,0.366430974535786
0.0,0.0,0.0,0.0,0.0,0.0,0.0,0.0,0.0,0.0,0.0,0.0,0.0,0.0,0.0,0.0,0.0,0.0,0.0,-0.07057832261710346,0.0,0.0,-0.17955258490124454,-0.0006070554836865507,-0.000608073484304605,-0.007723236205126637,-0.020374219653253867,-0.05477948282221952,0.0,-0.007746014268821496,0.0,-0.029167966659629188,-0.07523134272253254,-0.0003460357553260425,-0.0011888083103738507,-0.052033999156722716,0.0,-0.09640529796673011,0.0,0.0,-0.13000654155847102,0.0,0.0,0.0,-0.042083789797967494,-0.07861687332851225,0.0,-0.002990056703616066,0.0,-0.018834757910265856,-0.08126961511093828,0.0,0.0,-0.049730209663843145
0.0,-0.0691034802276247,1.9179180463643863e-05,0.014790704606589164,-0.10327549927184708,0.004925584425040668,0.03434275433683361,-0.00826122299553592,0.004809840129342298,-0.02356433267296329,0.0005744011049987017,0.021144654729948465,0.0,-0.0013882079884674162,-0.02454092577027995,0.0035010439629557877,-0.014761430539513697,0.030957207918245005,-0.18621373798701965,-0.09042092659274775,0.36332256851032013
0.0,-0.04722667956796892,-0.003937566226688008,0.03166007943348727,-0.19472472942070415,0.01225253355886092,0.07412448974579591,-0.01358137041384457,0.010947169679123164,-0.047732610267443125,-0.0024031577092359837,0.022158266698604146,-0.00034320550068228607,-0.013864328743374489,-0.019779341670704092,-0.0077074075716970685,-0.027321840165402875,0.09987202741714026,-0.13774956651797265,0.09335087438912033,0.13913774278121
0.0,0.0,0.0,0.0,0.0,0.0,0.0,0.0,0.0,0.0,0.0,0.0,0.0,0.0,0.0,0.0,0.0,0.0,0.0,-0.08521191495639287,-0.0002817538414487595,0.016508725516368537,-0.10790489078465909,-0.0012528099141775012,0.025987177309851683,-0.003961055367411238,0.00548958510979751,-0.034786198849502986,-0.0024634620017982916,0.026241267305687918,0.0006214325437820004,0.0005882545091227232,-0.007661849690338377,-0.003126719923730667,-0.011072089170324576,0.060835866756917566,0.19776731998587008,0.4081567320153806
0.0,0.0,0.0,0.0,0.0,0.0,0.0,0.0,0.0,0.0,0.0,0.0,0.0,0.0,0.0,0.0,0.0,0.0,0.0,-0.07288081889955225,0.0001910881270081169,0.0003876658989071622,-0.1767318768641711,-7.869387784275618e-05,0.000889210862631805,-0.007922067619850965,-0.022536409880422513,-0.05254889147961839,0.0,-0.006086498538230897,0.0,-0.027700403158800024,-0.0788012768101112,-0.00033821311605733493,-0.0009192374947612018,-0.05259967171940878,0.0,-0.09725804667903007,0.0,0.0007936422876828615,-0.10561449328306942,0.0,0.0,0.0,-0.04844341855012726,-0.08581697439842435,0.0,-0.0006251215727206477,0.0,-0.021251585957915216,-0.0885136206901429,0.0,0.0,-0.05094647572653213
0.0,-0.0743171328958401,-0.0007484550740094304,0.017143551788185232,-0.11444317609072699,0.0033775599865248037,0.03304629304634927,-0.00954166422149303,0.0061078759144189265,-0.0231193900687746,0.0008445740919420919,0.028164633171254814,0.0,-0.002296300345288416,-0.026740587716650152,0.004528069838077214,-0.017870590276064576,0.04461131175170659,-0.19657052007163478,-0.08088012417196802,0.3155431469073413
0.0,-0.02736627880103967,-0.0034558871069933746,0.028871299719614416,-0.14215312404098804,0.011174752545341221,0.06628840157396981,-0.010494072157733554,0.011234087905761482,-0.029541566190044753,-0.0019040265960107714,0.023719685912423363,-0.0002639826479724364,-0.011446494696983283,-0.004893506648180143,-0.006193003877120782,-0.023535590152345683,0.09794448468289264,-0.02655235905071258,0.1831140757263923,0.2897699454228496
0.0,0.0,0.0,0.0,0.0,0.0,0.0,0.0,0.0,0.0,0.0,0.0,0.0,0.0,0.0,0.0,0.0,0.0,0.0,-0.07727022210105967,-0.0007175173998952293,0.0063054350251777495,-0.15166913524780162,-0.0028132623697247703,0.007428520934497933,-0.005292510604583446,-0.0008769617518622042,-0.042317791388973715,-0.0017838802687186732,0.005447973426167683,0.0002707915213637298,-0.0016885657151454218,-0.03294738473455858,-0.0023644325660464294,-0.007420931423215471,0.01737015218947248,-0.14559608418229475,-0.49036757134359166
0.0,0.0,0.0,0.0,0.0,0.0,0.0,0.0,0.0,0.0,0.0,0.0,0.0,0.0,0.0,0.0,0.0,0.0,0.0,-0.06769692441427418,-0.00030620446226215046,-0.0006431161248354303,-0.18026416523448013,-0.0013790013644818708,-0.00301303765602474,-0.007394232130900298,-0.018137403718796134,-0.05653171626667185,0.0,-0.009779358685754249,0.0,-0.02970514055472874,-0.07211239868649444,-0.00032007449458101384,-0.0014477703605684832,-0.051241424764032685,0.0,-0.09587564870582595,0.0,-0.0014633231393564963,-0.1494333695490026,0.0,0.0,0.0,-0.03557203261382012,-0.07149152616737331,0.0,-0.006504932636545234,0.0,-0.016177167710752116,-0.07448745247144546,0.0,0.0,-0.04896651592476485
0.0,-0.044596240750452966,-0.0008075320469474164,0.0035556894551484297,-0.08966121242541886,-0.0017312484098922292,0.004142898618596687,-0.004901458498637507,-0.0006306627021287249,-0.022034995717793496,0.00010395265554146239,0.004299135141883694,0.0,-0.0021072964114339453,-0.025623693457719456,0.001289893753424236,-0.006592423016054205,0.002346784815113564,-0.21064301230508936,-0.18187094890158842,-0.3930317382196251
0.0,-0.04013455009109145,-0.0022147908153911317,0.012572230796396947,-0.13544094750257413,0.0037084013640659554,0.027616829856323938,-0.009108602169320355,0.0017884701790867805,-0.043001911820807294,-0.0011440195642091894,0.002404813183038879,-0.00021450352245096444,-0.007593300821899803,-0.0312624424972814,-0.0035765157473813427,-0.013648358940791179,0.03177621657682368,-0.21929254143324728,-0.1297922624882036,-0.28365934451916197
0.0,0.0,0.0,0.0,0.0,0.0,0.0,0.0,0.0,0.0,0.0,0.0,0.0,0.0,0.0,0.0,0.0,0.0,0.0,-0.09524669673420301,-0.0013575080457919437,0.00963440398660006,-0.1716222018493306,-0.0038372455135213613,0.010829341228017389,-0.006212866403493067,0.0016438227102785832,-0.04767565140423637,-0.002763280240021622,0.015110718952023273,0.0005100401865674863,-0.0016155244770680146,-0.034662978389109936,-0.0036344556734568836,-0.010539168290164096,0.03893304734888885,-0.05914167587786405,-0.48489863314438264
