0.0,0.0,0.0,0.0,0.0,0.0,0.0,0.0,0.0,0.0,0.0,0.0,0.0,0.0,0.0,0.0,0.0,0.0,0.0,0.0,0.0,0.0,0.0,0.0,0.0,0.0,0.0,0.0,0.0,0.0,0.0,0.0,0.0,0.0,0.0,0.0,0.0,0.0
0.0,0.0,0.0,0.0,0.0,0.0,0.0,0.0,0.0,0.0,0.0,0.0,0.0,0.0,0.0,0.0,0.0,0.0,0.0,0.0,0.0,0.0,0.0,0.0,0.0,0.0,0.0,0.0,0.0,0.0,0.0,0.0,0.0,0.0,0.0,0.0,0.0,0.0,0.0,0.0,0.0,0.0,0.0,0.0,0.0,0.0,0.0,0.0,0.0,0.0,0.0,0.0,0.0,0.0
0.0,0.0,0.0,0.0,0.0,0.0,0.0,0.0,0.0,0.0,0.0,0.0,0.0,0.0,0.0,0.0,0.0,0.0,0.0,0.0,0.0
0.0,0.0,0.0,0.0,0.0,0.0,0.0,0.0,0.0,0.0,0.0,0.0,0.0,0.0,0.0,0.0,0.0,0.0,0.0,0.0,0.0
0.0,0.0,0.0,0.0,0.0,0.0,0.0,0.0,0.0,0.0,0.0,0.0,0.0,0.0,0.0,0.0,0.0,0.0,0.0,-0.04988297610408851,0.0,0.0,-0.10483880331783971,-0.0008738625510313597,0.0,-0.006634107363998644,-0.030437858718753884,-0.005047183787740241,0.0,0.0,0.0,-0.01847085284465073,-0.004556153859971085,0.0,0.0,-0.01294280440819901,-0.23368460295627327,-0.5325835137142972
0.0,0.0,0.0,0.0,0.0,0.0,0.0,0.0,0.0,0.0,0.0,0.0,0.0,0.0,0.0,0.0,0.0,0.0,0.0,-0.1130306254311227,0.0,0.0,-0.20812117099995958,-0.0019839175706056426,0.0,-0.012048670123922073,-0.061076210824265925,-0.005338835088377785,0.0,0.0,0.0,-0.06675995897165211,-0.005387223321807192,0.0,0.0,-0.026200615460908988,0.0,-0.10415567245679623,0.0,0.0,-0.18748021042223323,0.0,0.0,0.0,-0.020831134491359246,-0.027774845988478992,0.0,0.0,0.0,-0.11109938395391597,0.0,0.0,0.0,-0.04860598047983824
0.0,-0.03905640875814243,0.0,0.0,-0.09560694176787794,0.0,0.0,-0.004347652180869286,-0.016800570213216313,0.0,0.0,0.0,0.0,-0.022100565252752204,-0.0028259739175650364,0.0,0.0,-0.014906236048694697,-0.1956443481391179,-0.1956443481391179,-0.4130269571825822
0.0,-0.031324471360068884,0.0,0.0,-0.08280358988479328,0.0,0.0,-0.007283337420570921,-0.02945773361782172,-0.005483924646076929,0.0,0.0,0.0,-0.025301946971966544,-0.006897748968893638,0.0,0.0,-0.011953242001995809,-0.20821776390573338,-0.20050599487218773,-0.3907296310329812
0.0,0.0,0.0,0.0,0.0,0.0,0.0,0.0,0.0,0.0,0.0,0.0,0.0,0.0,0.0,0.0,0.0,0.0,0.0,-0.05151446819769,0.0,0.0,-0.10530741418627076,-0.0009371576116752866,0.0,-0.007114624840605258,-0.03122129440771369,-0.005412758217665201,0.0,0.0,0.0,-0.02320404789105016,-0.004950105356203183,0.0,0.00022472182117323316,-0.014076854772822292,-0.24351400366052287,-0.5124816094477832
0.0,0.0,0.0,0.0,0.0,0.0,0.0,0.0,0.0,0.0,0.0,0.0,0.0,0.0,0.0,0.0,0.0,0.0,0.0,-0.09318320093503325,0.0,0.0,-0.2083180448604465,-0.0015163879331348293,0.0,-0.009209282813428595,-0.05593202748670842,-0.0040806862265660845,0.0,0.0,0.0,-0.08337264703507685,-0.008251387279264614,0.0,-0.0023447140997289177,-0.033764055821696635,0.0,-0.0922999642086443,0.0,0.0,-0.2025301678669267,0.0,0.0,0.0,-0.026529033054707708,-0.021229431063887604,0.0,0.0,0.0,-0.0969438521212924,-0.006475228343155631,0.0,-0.0035874387152431434,-0.050377319117227246
0.0,-0.041569652447231834,0.0,0.0,-0.09352887462087708,0.0,0.0,-0.00454945221506269,-0.01770179859684031,0.0,0.0,0.0,0.0,-0.023126382093235313,-0.0029571439397907497,0.0,0.0,-0.014607276361077701,-0.19804058027411583,-0.19804058027411583,-0.40584548079383054
0.0,-0.03240722948251022,0.0,0.0,-0.08035220586669235,0.0,0.0,-0.007548067241238046,-0.030006638174950386,-0.005683250628696881,0.0,0.0,0.0,-0.028707643262162623,-0.0069759814235649835,0.0,0.0003022274987457761,-0.012951621960990522,-0.21232248173866558,-0.20433041054206022,-0.37837601452942005
0.0,0.0,0.0,0.0,0.0,0.0,0.0,0.0,0.0,0.0,0.0,0.0,0.0,0.0,0.0,0.0,0.0,0.0,0.0,0.00994501486622749,0.0,0.0,0.05551070622175108,0.004810396622257888,0.001035710935549968,0.0022604584418238352,-0.030171324477322684,-0.009290934301742744,0.0,0.0,0.0,0.05946858681230642,-0.011301022309880405,0.0,0.004948928483264266,0.017192544722355315,0.1044090660165898,0.6893666315917959
0.0,0.0,0.0,0.0,0.0,0.0,0.0,0.0,0.0,0.0,0.0,0.0,0.0,0.0,0.0,0.0,0.0,0.0,0.0,-0.0930276561271517,0.0,0.0,-0.2075618220679173,-0.0010450514830254577,0.0003928121806964928,-0.007607685797544121,-0.06174932139440389,-0.0029743154357171815,0.0,0.0,0.0,-0.07547539869698751,-0.008345658460400059,0.0,-0.0018365680224124335,-0.03415413564850227,0.0,-0.08670117946624134,0.0,0.0,-0.1894680882245957,0.0016429067290253114,0.0016694517679600944,0.0028489994288551507,-0.026436907779456096,-0.02390758768266486,0.0,0.0,0.0,-0.11005679039356432,-0.005467808767064482,0.0,-0.002769778046979907,-0.05473801851863948
0.0,-0.027328948688485396,0.0,0.0,-0.05162905850282954,0.0,0.0,-0.018430200565801528,-0.06432598727667471,0.0,0.0,0.0,0.0,-0.06058052704191287,-0.011979630367770987,0.0,0.0,0.011102446964522433,-0.2231719054789529,-0.2231719054789529,-0.3078672968862611
0.0,0.026882017042897118,0.0,0.0,0.07510206998779602,0.005753376880867312,0.0034316236293627893,0.003968925496055302,-0.023188711579098506,-0.0038805230080145863,0.0,0.0,0.0,0.0428963369210818,-0.011254890398780644,0.0,0.004817059819399213,0.012495839909112244,0.16971558740856557,0.13702312470067832,0.47937843542562136
0.0,0.0,0.0,0.0,0.0,0.0,0.0,0.0,0.0,0.0,0.0,0.0,0.0,0.0,0.0,0.0,0.0,0.0,0.0,0.0043303083374185754,0.0,0.0,0.07865067132797178,-0.00721219246927686,-0.002357905298684003,0.0038696027238559775,-0.04434302728291047,-0.011061855325180331,0.0,0.0,0.0,0.10188655602981009,-0.027462193889216068,-0.002040373123512887,0.0077671336406307575,0.022154611505936502,0.12418133617684224,0.5625543545791277
0.0,0.0,0.0,0.0,0.0,0.0,0.0,0.0,0.0,0.0,0.0,0.0,0.0,0.0,0.0,0.0,0.0,0.0,0.0,-0.09275926008855882,0.0,0.0,-0.2061205206762189,0.000630871141228521,0.0012057125587533433,-0.0054884449058324805,-0.06720207118265102,-0.0018328967811302391,0.0,0.0,0.0,-0.0686773413478327,-0.007506811455288126,0.00030494146326735984,-0.0013891116445364652,-0.03385271348937778,0.0,-0.08242078346997875,0.0,0.0,-0.17418497386812695,0.003670694222737585,0.004519233609982122,0.005787291641052061,-0.025769963012894994,-0.027363375783371887,0.0,0.0,0.0,-0.1256204441955401,-0.0012767550827888947,0.0011328206024287118,-0.0020437136212528087,-0.05911767745042371
0.0,0.04195225872566287,0.0,0.0,0.07171533306346596,0.010726101105412314,0.006477385315268247,-0.005059399482118791,-0.025240335928061235,0.0032319264702604673,0.0,0.0,0.0,-0.034854290847614995,-0.0012131980015357515,0.0,0.0,0.03029622781374669,0.11412006761027045,0.09803200823448573,0.5570110172595517
0.0,0.03236220178002643,0.0,0.0,0.09164636193154908,-0.005009269207031295,-0.002392313564551055,0.0035215065589567153,-0.03248575951393838,-0.0016295241815884526,0.0,0.0,0.0,0.06257577304197667,-0.021573815141371678,-0.0015880667502016928,0.006374744570366513,0.013036298463305738,0.1805612329106126,0.14483813798749862,0.40030285175373387
0.0,0.0,0.0,0.0,0.0,0.0,0.0,0.0,0.0,0.0,0.0,0.0,0.0,0.0,0.0,0.0,0.0,0.0,0.0,-0.06051542836779868,0.0,0.0,0.06857675421636457,-0.051534473707542626,-0.010459875497528082,0.00935760740055373,-0.12705424894608736,-0.03010590978888224,0.0,-0.012157382952729447,0.0,0.2598454833852575,-0.11306853568470646,-0.007416319739975513,0.019203792968936942,0.014752359965756143,-0.06633087139093669,-0.1493999412507591
0.0,0.0,0.0,0.0,0.0,0.0,0.0,0.0,0.0,0.0,0.0,0.0,0.0,0.0,0.0,0.0,0.0,0.0,0.0,-0.09151915063798909,0.0,0.0,-0.2023599768883861,0.0026178959714650753,0.0021605798925186997,-0.002913400872015659,-0.0730202313821142,-0.000457134016914467,0.0,0.0,0.0,-0.059910143327083686,-0.0064345885510680035,0.0006646015630697389,-0.0008431308494792217,-0.033158131517187724,0.0,-0.0765115690598654,0.0,0.0,-0.15427847441898954,0.0060460371905392725,0.007863805899505215,0.009224546365906392,-0.02472088360196457,-0.031201921999722198,0.0,0.0,0.0,-0.1428842240438802,0.003720623326926234,0.002468914312225356,-0.0011598667573281317,-0.06373979782853749
0.0,0.15504457317238043,0.0,0.0,0.07967028797554049,-0.04459040837450936,0.03738566291613355,0.007917183592349532,-0.07602370397224252,8.487097539452031e-05,0.0,-0.028162623226681067,0.0,-0.09550955160575517,-0.05311112429573167,0.0,0.0,0.08386343920156153,0.15942440164054078,-0.08764889397136685,-0.09127279271799103
0.0,0.043972807246624133,0.0,0.0,0.14860559719976,-0.05798004283360177,-0.017003690764558595,0.007594831780311851,-0.11990966809235559,-0.006570584296253644,0.0,-0.006334957144748145,0.0,0.18568089031204524,-0.11449678824597485,-0.006884437851789956,0.018324618716139707,-0.004177882823933092,0.1624950076133197,0.031253813397646456,0.06847007935594289
0.0,0.0,0.0,0.0,0.0,0.0,0.0,0.0,0.0,0.0,0.0,0.0,0.0,0.0,0.0,0.0,0.0,0.0,0.0,-0.054978313940510476,5.9835822118097786e-05,0.0,0.03189710909576627,-0.04371812861479398,-0.008240661111137616,0.006734683227456958,-0.09452685536908678,-0.01822969067653181,0.0,-0.009771566416655036,0.0,0.19044684437498874,-0.08877861456809107,-0.0058532642855591765,0.015950389460702968,0.0036956484861170773,-0.09605655827406667,-0.33099252492720177
0.0,0.0,0.0,0.0,0.0,0.0,0.0,0.0,0.0,0.0,0.0,0.0,0.0,0.0,0.0,0.0,0.0,0.0,0.0,-0.08874402919556475,0.0,0.0,-0.1952872409447121,0.004988265915711523,0.0033245905476755036,-2.76595163768133e-06,-0.07991609056620425,0.0023019782110240807,0.0,0.00047941412971828126,0.0,-0.05102279703516143,-0.003821823551583531,0.0010281181069377312,5.527776835507963e-05,-0.03192721710177079,0.0,-0.06843997789598927,0.0,0.0,-0.12998760840352913,0.009327419876288361,0.01127686031149893,0.013285451773882481,-0.024177116244613314,-0.03554876633583791,0.0,0.0008241189379871486,0.0,-0.1616350868230287,0.010685533220804814,0.003819334244644619,-0.00032066261775484623,-0.06765381971156596
0.0,0.10823886856242702,0.0,0.0,0.031831385982702236,-0.043194940895463295,0.028638839338536677,0.00935299569096257,-0.0501462221850992,-0.0009544344086242458,0.0,-0.023063513233305098,0.0,-0.06156487865597351,-0.0431974944638644,0.0,0.0002666046638777665,0.05485202227243114,0.0805046168917001,-0.11853601549795716,-0.34559126892302133
0.0,0.021797795269249423,0.0,0.0,0.08900969337659541,-0.059728396588148686,-0.01729089454739375,0.005806089383042503,-0.1079085016762654,-0.010520116045091581,0.0,-0.008197443274913178,0.0,0.15608859213118187,-0.11163632559139416,-0.006339899084370563,0.01367519596303069,-0.014491685249249864,0.02555971159400364,-0.09461760202116677,-0.2572510060363013
0.0,0.0,0.0,0.0,0.0,0.0,0.0,0.0,0.0,0.0,0.0,0.0,0.0,0.0,0.0,0.0,0.0,0.0,0.0,-0.06779826834574512,0.0001429607831543466,0.0005232852586123139,0.04863944092960452,-0.05464846072201106,-0.010246430477548881,0.010901822278454756,-0.10944794591969102,-0.008032529623428396,0.004070227262438162,-0.009153480840134738,0.0015128748071055653,0.22769786856460675,-0.10639859905206601,-0.007289887928501413,0.022082577578220863,0.0049446455269656344,-0.044990736100288,-0.2613694035125065
0.0,0.0,0.0,0.0,0.0,0.0,0.0,0.0,0.0,0.0,0.0,0.0,0.0,0.0,0.0,0.0,0.0,0.0,0.0,-0.08531710034390455,0.0,0.00014703740026252105,-0.18380752298888559,0.007730518890578711,0.004392663964984316,0.003254132257861215,-0.08610686751136608,0.006377022009662909,0.0009196926836264408,0.001949478016635524,0.0003589220055259565,-0.04164956764093548,-0.0007109644837155661,0.0013616257862912584,0.0011294760198599346,-0.028627025183681994,0.0,-0.05876870022781907,0.0,0.0005811881093622556,-0.10438969606620385,0.012666008195094811,0.014415847481306959,0.018274286410341796,-0.023799947423536034,-0.039646837062092946,0.0007047194749146352,0.0027002515365412354,0.0,-0.17661562350329735,0.01888645535894168,0.005058274879977725,0.00043651244920885865,-0.06910121872994196
0.0,0.08611332081731911,0.0,0.0,0.010954175846769524,-0.04339464940012254,0.02462290459257502,0.010899186736843607,-0.03608259648401774,0.0004717850930895908,0.001356032067460597,-0.020857356866550675,0.0,-0.04178356740094462,-0.03835788055304299,0.0,0.0010163968833640114,0.04335682034064541,0.05655680911483445,-0.12306682408879187,-0.46103802365379654
0.0,0.009865171516186105,0.0,7.118467665026245e-05,0.07848563154726965,-0.06015717671675612,-0.018721484884415954,0.006608470141195505,-0.10632138862454305,-0.008201891170936029,0.0021914620715048887,-0.006279012299615075,0.0002807971088785824,0.149969663827162,-0.11612316251165929,-0.0063877763818435416,0.011479299124170634,-0.018959419513566163,-0.0008340985253480881,-0.10986547724691015,-0.2891075777759268
0.0,0.0,0.0,0.0,0.0,0.0,0.0,0.0,0.0,0.0,0.0,0.0,0.0,0.0,0.0,0.0,0.0,0.0,0.0,-0.05744493731063167,2.1705180530376563e-05,0.00022257289235095296,-0.04500854470302665,-0.026851381748372052,-0.00477529355950111,0.001335340429405942,-0.05445423000297244,-0.008105418290777154,0.001501939569185818,-0.006243931527786321,0.0005488625196783828,0.07498104361483415,-0.05099107168122117,-0.003147116743237845,0.0073203009472795535,-0.011653621773309425,-0.17908771084752217,-0.46626769288781367
0.0,0.0,0.0,0.0,0.0,0.0,0.0,0.0,0.0,0.0,0.0,0.0,0.0,0.0,0.0,0.0,0.0,0.0,0.0,-0.08868224810309326,0.0,-0.0003170966011102364,-0.20427010256156536,-0.00023847099132059404,0.0014054636914617145,-0.005990233805965698,-0.0655335969313526,-0.008443004582166496,-0.001874992575060681,-0.002626913879261832,-0.0007095161817966726,-0.05967154709494271,-0.011756983630523353,0.0004413860808190385,-0.0016340071881430485,-0.038964814651653204,0.0,-0.08393777487638358,0.0,-0.0015108716294844414,-0.1496512603820989,0.001208510665344657,0.005685801032953056,0.000583100854817476,-0.022458955691812946,-0.030369696238356766,-0.001378126195355288,-0.0026668010845180674,0.0,-0.132344805685038,-0.005643905732758348,0.0017787358480623688,-0.0009599299818164377,-0.06720069990923039
0.0,0.0012162278688910815,0.0,0.0,-0.05219517620251531,-0.0214515787608033,0.006849182562442115,0.0026034110901317813,-0.019177319907023788,-0.004975672619542219,0.0004396529634996431,-0.010280025784503976,0.0,-0.017515866136518336,-0.019692884558399872,0.0,-0.0007026618517593213,0.0032302940850670054,-0.11349197683815622,-0.18035708123985256,-0.5457917405441269
0.0,-0.021274148325311066,0.0,-9.545039541787523e-05,-0.02530064153341221,-0.024506630203449304,-0.007613160760384776,-0.0016369303329301236,-0.04629665221633041,-0.011961856398980663,0.00022377927688727115,-0.004663006891382334,-3.72409382657585e-05,0.03337691554900894,-0.04928943299206748,-0.002307180963930302,0.001438737449569252,-0.019890377699064606,-0.15800088234530194,-0.19282446076038473,-0.39923184369602965
0.0,0.0,0.0,0.0,0.0,0.0,0.0,0.0,0.0,0.0,0.0,0.0,0.0,0.0,0.0,0.0,0.0,0.0,0.0,-0.05458218750644871,-2.978198535449532e-06,0.00012176517145533365,-0.0762761968982924,-0.017522142536391217,-0.0029720653574747775,-0.001708369323016363,-0.0362764446136174,-0.007171769202967537,0.0006240097367730997,-0.005088265615534939,0.0002186964448457571,0.022351639882291403,-0.031076827402878603,-0.001761773614439562,0.002223108628063157,-0.017032327399080848,-0.220425363812362,-0.502521644984062
0.0,0.0,0.0,0.0,0.0,0.0,0.0,0.0,0.0,0.0,0.0,0.0,0.0,0.0,0.0,0.0,0.0,0.0,0.0,-0.08317474987964922,-2.6281585782542625e-05,-0.0005433619823222404,-0.1990799322916124,-0.00462386257599327,-0.0003457827324426013,-0.010825547049111792,-0.0488564485773868,-0.01625100583210731,-0.003240341107617795,-0.005010490958275141,-0.0012321295936260966,-0.06451341881959578,-0.01716589263942515,-9.882502963075823e-05,-0.003002947091360494,-0.041548390434437185,0.0,-0.09209800554269441,0.0,-0.00252376861053166,-0.1619611385514806,-0.005150476156620705,0.0004327120767118116,-0.009125812737172534,-0.020211805782090485,-0.023112465612011492,-0.0023973547681989662,-0.005368831954178292,0.0,-0.09684591818336176,-0.01855386350413019,-0.00016407122114404124,-0.0016401925594798858,-0.06081841507399369
0.0,-0.020666665916240112,0.0,0.0,-0.06269570104175506,-0.016924577201495334,0.0026362551760525732,0.0006123419208379673,-0.0173803995072136,-0.0029121252967071426,0.00024568595079585935,-0.009213611913826388,0.0,-0.013559671871301492,-0.014280467238578296,0.0,-0.0014768574342959055,-0.0057754548415172415,-0.1449727292499067,-0.18412829919800502,-0.5024750569224498
0.0,-0.029997879493332297,0.0,-0.00014363293345319325,-0.05025211079271802,-0.013728713406867321,-0.00443157646858505,-0.004112404114031183,-0.02912778811613755,-0.012769255370664994,-0.00034223906626065553,-0.004174637847636852,-0.00012888652341632267,-0.00017626452371482645,-0.02937223411081512,-0.001137375292943217,-0.001448858091117835,-0.020339592226174586,-0.19590682463774747,-0.20594613666448366,-0.3964285978349026
0.0,0.0,0.0,0.0,0.0,0.0,0.0,0.0,0.0,0.0,0.0,0.0,0.0,0.0,0.0,0.0,0.0,0.0,0.0,-0.055613984701600165,0.0006633752781618889,0.006591780234004026,0.02589264055292876,-0.02476076584008894,0.010035562285745784,0.010413017434977915,-0.048795748162708416,0.02518489694700544,0.004655410445754999,0.0009543522846326243,0.0015085942638127165,0.0606702148994892,-0.0038848913061517564,-0.0030296048466078402,0.00918771513658292,-0.0018301856496209996,0.07848667035462457,0.6277123038513047
0.0,0.0,0.0,0.0,0.0,0.0,0.0,0.0,0.0,0.0,0.0,0.0,0.0,0.0,0.0,0.0,0.0,0.0,0.0,-0.08626434073647385,-2.24156873355925e-05,-0.0003596587329820002,-0.19819846879528927,-0.003723414201360876,0.0014205967446930807,-0.009659448310392834,-0.054884991453570606,-0.015110080826138827,-0.003122130156894297,-0.004449874242957904,-0.0011974829568680936,-0.062333774326310244,-0.01283382556795347,3.3884098834828596e-05,-0.0027178636512633415,-0.042138679541556284,0.0,-0.09093284416799625,0.0,-0.0024160038496078315,-0.15017730001237847,-0.003576278377875769,0.0025521406944225746,-0.007846238884024968,-0.021224995847191827,-0.025353816690307753,-0.002324828133182366,-0.004301091770640332,0.0,-0.10973158888353957,-0.015763051485940954,0.0003707486366536475,-0.0013337173087537304,-0.06350310226345676
0.0,0.0038293449565475505,0.0,0.0009836224785108611,0.04057509119368004,-0.002602582452041999,0.023785712407662564,0.006787623505396976,-0.0030711400196571648,0.006646346071674288,0.0002993002959055112,-0.001321866382569249,0.0,0.004636680272904673,0.014967856338864926,0.0,-0.00011471770919184328,0.007359745434906493,0.12636412041686437,0.10203117311826056,0.6545994392751614
0.0,-0.03821815033521376,0.0,0.006944837195323328,0.05259451838420021,-0.02123707137794229,0.029939631693784927,0.006760793399724237,-0.052371552680159916,0.013512653696827618,0.003184457648200049,0.0047442990529505385,0.00010561930432676882,0.025043678365810118,0.003417698486071397,-0.002575792433275192,-0.0016012515257917876,-0.012477070805959396,0.07359971286915085,0.07372452890029255,0.5777883212500826
0.0,0.0,0.0,0.0,0.0,0.0,0.0,0.0,0.0,0.0,0.0,0.0,0.0,0.0,0.0,0.0,0.0,0.0,0.0,-0.12255043186006237,0.0007519637985801369,0.008613615271762062,-0.11817576096317685,-0.03450738883612308,0.010840292694547676,0.007098727743310874,-0.0690590176382337,0.007918802187234996,0.004544047816920695,-0.018014575170033822,0.0010997087219814642,0.04078480180058715,-0.03386352062333385,-0.0035957312177332277,0.006187991371944671,-0.028413188487605035,-0.33196398919892117,-0.1519226518133279
0.0,0.0,0.0,0.0,0.0,0.0,0.0,0.0,0.0,0.0,0.0,0.0,0.0,0.0,0.0,0.0,0.0,0.0,0.0,-0.07776643736562855,-3.4249367333764436e-05,-0.0008327923371931422,-0.19583894174902947,-0.006034620401835182,-0.003024364726683323,-0.012406359242566074,-0.04073444105443169,-0.01922333517579068,-0.0036390632166733417,-0.0070954081437798085,-0.001359314926308455,-0.06314385726809642,-0.02361914296748232,-0.0002671677093842618,-0.0034879652051313737,-0.04146480517774404,0.0,-0.091999605268462,0.0,-0.003069285294118012,-0.1667988883958029,-0.007789705881808133,-0.002931783895835198,-0.01219601064842878,-0.018180527773706805,-0.020522373294821657,-0.002643096141307597,-0.008873950574236521,0.0,-0.08110723884982576,-0.02249991240075756,-0.000752470628745797,-0.0016588094569219725,-0.05894860753031351
0.0,-0.025703018253108303,0.0,0.0018363581525606184,0.0019014881727958041,-0.006231851409080969,0.04708676493581632,0.010400966444281338,-0.009763920529626692,-0.0034879285764937364,0.0002179672573626798,-0.0174489823674622,-0.0013596561731910495,0.002350502811819233,0.011018603743213605,0.0,-0.002199559708474578,-0.0003487975790877505,0.05119435830412173,-0.01330138456389888,0.794090613596959
0.0,-0.09177194161197967,0.0,0.006957515029823712,-0.06142439886840938,-0.02987312241930307,0.033973928633468334,0.0004536867074937453,-0.07347923208958462,-0.012565338363513097,0.0024611995502664226,-0.013943713375296022,-0.0008743412524258103,-0.002413020886726233,-0.026106358501877786,-0.0030003813052358165,-0.007649531426129824,-0.04189744582975533,-0.27055111780575036,-0.30434409798664125,-0.016168842273708375
0.0,0.0,0.0,0.0,0.0,0.0,0.0,0.0,0.0,0.0,0.0,0.0,0.0,0.0,0.0,0.0,0.0,0.0,0.0,-0.0783474518548646,0.0003567275741642224,0.00446631350033176,-0.10651660758033395,-0.01851421132790165,0.0049643111743907144,0.0018011950870695367,-0.037527749758768936,-0.0033954558892064844,0.001911613619358952,-0.014907312222626277,0.0002519593440702954,0.009881350172740487,-0.02645470206741255,-0.001759579644380516,0.0015283534730511975,-0.0228312679087031,-0.30121734128827826,-0.363326004741434
0.0,0.0,0.0,0.0,0.0,0.0,0.0,0.0,0.0,0.0,0.0,0.0,0.0,0.0,0.0,0.0,0.0,0.0,0.0,-0.07246036103532967,-3.97105590157164e-05,-0.0010632971108204855,-0.19328304126034931,-0.007116060296686792,-0.0052986252397631255,-0.013573093560387101,-0.03291296593491454,-0.021610619133622506,-0.003829077961073293,-0.008329028142730578,-0.0015965306742964085,-0.06251536240950924,-0.03026465134672272,-0.0004197885026490095,-0.0038148388694152673,-0.041845361896243785,0.0,-0.09178961881371017,0.0,-0.0033440724071692944,-0.1736315409230367,-0.009833976122179965,-0.005755741222900596,-0.014212319611179351,-0.016164026385540754,-0.01751096891115188,-0.00275096510721202,-0.011083100697647123,0.0,-0.06418293470140152,-0.029475517632940006,-0.0013274314178080412,-0.0017925738595982637,-0.05711762612005402
0.0,-0.05136304071607829,0.0,0.001961617197980319,-0.0541810696434529,-0.006988154547226277,0.05094520669069023,0.010562544232432377,-0.015974519637164803,-0.013929799709792433,0.00015061825339657742,-0.02225326044263514,-0.0030341034877642294,-0.0023078020019403614,-0.006721821830074639,0.0,-0.002828551109858154,-0.014573790436058522,-0.08495755667869447,-0.1584525198589737,0.49876179251462804
0.0,-0.056697636057557184,0.0,0.0028502416257688915,-0.06547017224588905,-0.0151668991750799,0.015273690471666738,-0.001967081518373013,-0.037524161433290876,-0.014501593193028005,0.0007598806364392976,-0.012081907441613818,-0.0008284537790045057,-0.010641461969828478,-0.02198003470402182,-0.001372196488942235,-0.005193297251177021,-0.028322180413299227,-0.23395057153815357,-0.2593496878055425,-0.21603141701210912
0.0,0.0,0.0,0.0,0.0,0.0,0.0,0.0,0.0,0.0,0.0,0.0,0.0,0.0,0.0,0.0,0.0,0.0,0.0,-0.07682757652806792,0.000522037102920344,0.004509683930030303,-0.12099742834211187,-0.015712160581586115,0.005889488040410347,0.00046506300176539067,-0.032205425576862914,-0.008877292655353116,0.001142843772397665,-0.014291909162365822,-9.40909934986381e-05,-0.0011084340308120033,-0.028933630013373512,-0.0009353318204464539,0.00018949476613574088,-0.025568174409573357,-0.3068362607468251,-0.3548385223194479
0.0,0.0,0.0,0.0,0.0,0.0,0.0,0.0,0.0,0.0,0.0,0.0,0.0,0.0,0.0,0.0,0.0,0.0,0.0,-0.06672215546304419,-0.0005954070671406154,-0.002099824151814739,-0.19228255445500755,-0.007086073870740957,-0.009789309899621578,-0.014502377417925576,-0.02705954695832043,-0.02324162658484097,-0.0036332130686335326,-0.013050535594616936,-0.0015873211301747174,-0.06002773367510935,-0.03306630442827267,-0.0008558181934724723,-0.004318809949491942,-0.040053819699432364,0.0,-0.08855589309484586,0.0,-0.003995915273487697,-0.17848828610921658,-0.010044675500952595,-0.011303425969262126,-0.01640523264700627,-0.014044541457857287,-0.017128306823949613,-0.0025971106481998594,-0.014466851406176774,0.0,-0.052176062385370765,-0.03161038015761386,-0.0014930058181312309,-0.0029071950848237414,-0.05475554923076687
0.0,-0.0663492305537586,0.0,0.0016472510775182038,-0.09459992331601043,-0.007411490390798334,0.049594992921184536,0.009006129182115456,-0.019251081571806498,-0.021415407375122108,0.00011664892042992604,-0.02652943538185541,-0.003911360898950457,-0.0088831453465961,-0.016163471543041617,0.0,-0.0036724606382398943,-0.023118628853169176,-0.1888547221367197,-0.28292483369650173,0.17649651947643968
0.0,-0.049984483998810725,-9.78900388016065e-06,0.0019393889061012015,-0.07176962609510815,-0.01141020596476151,0.013048734886456132,-0.0027462409957625857,-0.02843406716544141,-0.016984565134027695,0.00017296484424061183,-0.011712866924787265,-0.0009363397009636763,-0.014998170860081355,-0.023295617363955457,-0.0007335704082263986,-0.004823107645428982,-0.026781338422060114,-0.23843067580491747,-0.24947249209391492,-0.23226961803375848
0.0,0.0,0.0,0.0,0.0,0.0,0.0,0.0,0.0,0.0,0.0,0.0,0.0,0.0,0.0,0.0,0.0,0.0,0.0,-0.06865290057198462,0.0022548995566349407,0.011816974031879698,-0.029406463796422457,-0.01784609953401751,0.02168720187435,0.010919756775708766,-0.03230694584479606,0.014189506578008826,0.0033497703899703665,-0.0060516629407206,0.000744528561756441,0.02340992731649666,-0.009960652247767115,0.00010581348243614722,0.00469481210922603,-0.007657397122286663,0.02057321852162149,0.7142686846241622
0.0,0.0,0.0,0.0,0.0,0.0,0.0,0.0,0.0,0.0,0.0,0.0,0.0,0.0,0.0,0.0,0.0,0.0,0.0,-0.06827810500321657,-0.0005253295801224965,-0.001953528913936881,-0.19144507439164124,-0.007174572396052198,-0.008717531208163827,-0.014319157681243049,-0.02947386864960513,-0.02276321207634797,-0.0038178642731842806,-0.012018458488666115,-0.001645608922227536,-0.05972443616314107,-0.031988551664978195,-0.0007736482175157749,-0.004276819431371851,-0.04104310489035247,0.0,-0.08966788011153476,0.0,-0.003962098414053338,-0.17005385232756487,-0.010199350584996117,-0.010468937207737616,-0.016978570000369883,-0.01467158253092553,-0.017596334518780215,-0.0027254724276315097,-0.013721874436800516,0.0,-0.05775596233642647,-0.031073691013690865,-0.0013800213424958571,-0.0028208626868313482,-0.05686238201192902
0.0,-0.03128377503435143,0.0,0.0018871214235199147,-0.012668017066426854,-0.0017073478937152675,0.05160350390174686,0.012513879903411193,-0.009462613103788623,-0.007447676277729928,0.0003934411799251298,-0.018223364439289045,-0.0031055654863999934,0.0017951415868808847,0.005212966862445819,0.0,-0.002164986243263575,-0.0058528800000732985,0.02539428738070452,-0.05846345930605858,0.7507736151172456
0.0,-0.04606535245172752,0.0003559745656889198,0.00890218602854505,0.008404331863940538,-0.013521115843353549,0.04711210840141659,0.007624674360518916,-0.0342536427123509,0.0034883247426956455,0.002121801547287164,-0.005401359238165456,-0.0007504521849702478,0.002356798277076456,0.00526202210910132,0.00020933394931297753,-0.005376555756823613,-0.011672630843568555,0.01707226767529452,0.04621468866368871,0.7337182071356103
0.0,0.0,0.0,0.0,0.0,0.0,0.0,0.0,0.0,0.0,0.0,0.0,0.0,0.0,0.0,0.0,0.0,0.0,0.0,-0.032810553729340275,0.001885423323907325,0.009057213751554914,0.016575128214240703,-0.010252139529061661,0.01740970777319952,0.009729785111871518,-0.016175050956875627,0.011354762464494501,0.0026303845750789293,0.0003586208485735022,0.0007462202650766916,0.022004989250809404,0.0011957023160793642,0.0005340145565729344,0.0038895940264697133,0.0027536239814701124,0.13178751953889745,0.7088003644424539
0.0,0.0,0.0,0.0,0.0,0.0,0.0,0.0,0.0,0.0,0.0,0.0,0.0,0.0,0.0,0.0,0.0,0.0,0.0,-0.07031594172424632,-0.00044789916260983264,-0.0017624832909000029,-0.19067059224695448,-0.00723711300378297,-0.0074309001088313145,-0.014138042926263479,-0.03244093304824378,-0.02168317587565015,-0.004061011605202736,-0.010816100853398118,-0.0017256741542984084,-0.05972717653597384,-0.03058308620262999,-0.0006840422183421692,-0.004148348538396793,-0.0420664835510769,0.0,-0.09096687074828498,0.0,-0.003952623191271295,-0.16087110225193174,-0.010455677576585665,-0.00957857433106604,-0.01777207208285642,-0.015255612715512795,-0.01719685396683204,-0.0028950356159506696,-0.012157017824423622,0.0,-0.0646702520180243,-0.030429629278012068,-0.0012591905590172172,-0.00274181861693816,-0.05973667427009618
0.0,-0.013669125045165008,0.0,0.0016240955326750693,0.012764788002758563,-0.0004608722052629396,0.04272574843598581,0.011369163786891349,-0.004689604900910381,-0.0034945860766683098,0.00042258807149649,-0.011860097928801428,-0.0022281160799834483,0.005262796254683945,0.011619070063539724,0.0,-0.0012030561650962022,0.0012143300354241664,0.08578898344625974,0.021348623843630076,0.7682159359374022
0.0,-0.01724514853365304,0.0002865882797575816,0.0062646281572141735,0.029418727725614036,-0.007044863047769294,0.03182979676415254,0.007144405046291995,-0.016204101831007234,0.0066589158237127495,0.00161265992050368,0.000267303903300518,-0.00020882084698862656,0.00796161046180643,0.012110736810213098,0.0004692110305453836,-0.0025236179359718037,0.0011058762560725531,0.09546522194764864,0.12335793757506547,0.6327760114978767
0.0,0.0,0.0,0.0,0.0,0.0,0.0,0.0,0.0,0.0,0.0,0.0,0.0,0.0,0.0,0.0,0.0,0.0,0.0,-0.040996486676725355,0.000431709852250468,-0.0006296271616276844,-0.09509613761279649,-0.007794847949498283,0.0017723216963075996,-0.0002331733972757229,-0.01168683669842973,-0.015782564378789464,0.00030830908775284253,-0.014054969557647422,-0.00012108299422376276,-0.004175162022589258,-0.02188602497134297,7.514351598859664e-05,-0.0008322782773900091,-0.01272825455662915,-0.26251972244709854,-0.508842153142248
0.0,0.0,0.0,0.0,0.0,0.0,0.0,0.0,0.0,0.0,0.0,0.0,0.0,0.0,0.0,0.0,0.0,0.0,0.0,-0.06067235759935198,-0.001064168955736293,-0.0030719227457305385,-0.18974686245258265,-0.007182318978198107,-0.013596304100823992,-0.015009359475186728,-0.02152050436361661,-0.028455512198427842,-0.003314464839278237,-0.01692051321796489,-0.0015124021858655052,-0.05505490826030921,-0.03662481081694963,-0.0011925971998285813,-0.00505345599350298,-0.039979995084308294,0.0,-0.08490815630592986,0.0,-0.004382262449948717,-0.17722054774597723,-0.00974879852112558,-0.015641063276598165,-0.01778834277584554,-0.012718825358675231,-0.02196135770037404,-0.002354844777171809,-0.02062869759282322,0.0,-0.03993537819788337,-0.035721934684853,-0.0015275803314723946,-0.0037729088850355866,-0.05166175986394934
0.0,-0.039550236115346554,0.0,-0.0015617532771901802,-0.08491442162664666,-0.00578582573165457,0.018143899686099564,0.003108354990866563,-0.009725909563291588,-0.019112893431098586,5.7012980763020326e-05,-0.018751354005525703,-0.001952528985516527,-0.006180397461956839,-0.014345579914445808,0.0,-0.0017821526160763956,-0.014521889087842358,-0.18042770179274703,-0.24557668481061165,-0.3344704712453362
0.0,-0.03249351313741095,1.9156629742893314e-05,-0.0012072153686519098,-0.07433388434051229,-0.00805050960793916,0.006571260440200189,-0.0013721013418928113,-0.014557442593488106,-0.020137221012929443,-1.7079047062285764e-05,-0.014850742072109225,-0.0005883720625683066,-0.00998417442862113,-0.02097835574259872,-5.578213273786745e-05,-0.003263951486365848,-0.016422849794188236,-0.20674014824150025,-0.23474542465483744,-0.3335769903755191
0.0,0.0,0.0,0.0,0.0,0.0,0.0,0.0,0.0,0.0,0.0,0.0,0.0,0.0,0.0,0.0,0.0,0.0,0.0,-0.07500581029427635,0.003278004360904867,0.00256825089278401,-0.11261389638904688,-0.021720223289834896,0.020731770047259814,0.014614336603560023,-0.0200869104677322,-0.010229851256750754,0.003725410026439968,-0.03106024173300427,0.0010110466038466416,0.026429171513247595,-0.024648384323462003,0.001689149874882238,0.0036205120020881285,0.002788889180619202,-0.2923765964641066,-0.33162294476493576
0.0,0.0,0.0,0.0,0.0,0.0,0.0,0.0,0.0,0.0,0.0,0.0,0.0,0.0,0.0,0.0,0.0,0.0,0.0,-0.061073231185379794,-0.0011022684471857825,-0.003120598518386847,-0.18859260497883318,-0.0072459306155090485,-0.013355431405731439,-0.014975120927812871,-0.02277914105991317,-0.028594551255409592,-0.0034493153335737907,-0.016768631146080838,-0.0015637574014595026,-0.05405128886631614,-0.036211202380002215,-0.0011927886036667713,-0.0050912141818692715,-0.04077193371562866,0.0,-0.08517889406932558,0.0,-0.004462578575983791,-0.16956173584958942,-0.009907641328443273,-0.015859199906407547,-0.0187540693387359,-0.012882797481248213,-0.022496653452684905,-0.002444682198548084,-0.020544175668878145,0.0,-0.043022359567019414,-0.036072312848260984,-0.001438294229095007,-0.003897829255908416,-0.053415786252632186
0.0,-0.04348492517597041,0.0,-0.0025381388787944466,-0.05294827216448704,-0.006688035471978405,0.06395502786402266,0.018579932690186568,-0.00939066824679234,-0.015175289397495104,0.0006533941113567652,-0.035842398583530014,-0.004140076584465713,0.004226366690472702,0.010326635905237977,0.0,-0.002513068674812201,-0.0033086806687132693,-0.019550979778417066,-0.1734031064232497,0.53317997726352
0.0,-0.06096298933200887,0.0006671743041541976,0.0018853795656268064,-0.09122479587259753,-0.02743202406890883,0.06081866918860278,0.01678115785850704,-0.03837115602829141,-0.017392870944302304,0.0032163713016217592,-0.041549713941940354,-0.0007992752563713033,0.009763005540329236,-7.899124784815927e-06,0.0016678200948833217,-0.008404698382589462,-0.0031968972732455796,-0.12227088611063928,-0.21445429784298398,0.27890003449185174
0.0,0.0,0.0,0.0,0.0,0.0,0.0,0.0,0.0,0.0,0.0,0.0,0.0,0.0,0.0,0.0,0.0,0.0,0.0,-0.05075195409634151,0.0013725938887231514,2.598596761445233e-05,-0.1002015727509513,-0.012335727223508322,0.007762637304885654,0.004739966824280855,-0.013742458898581248,-0.013640161076669134,0.0014173482988050587,-0.020250044457108665,0.0002536547963850225,0.0058492161537804805,-0.02235234891436364,0.0006390929514660724,0.0005879890676986429,-0.006934536505239421,-0.2754053079081472,-0.4617005493938905
0.0,0.0,0.0,0.0,0.0,0.0,0.0,0.0,0.0,0.0,0.0,0.0,0.0,0.0,0.0,0.0,0.0,0.0,0.0,-0.059957055096108276,-0.001135758267822742,-0.0032034113952458315,-0.18898423710272047,-0.007186544580385441,-0.013960649402940766,-0.01501368154877526,-0.021167626227483555,-0.02934583828599042,-0.0033104894724539933,-0.01736166002390546,-0.0015162724700175285,-0.05398370838987486,-0.03702728909984241,-0.001233399706834795,-0.005136063767030814,-0.04044876535953462,0.0,-0.08466872375887849,0.0,-0.0044485724443579745,-0.1751876972694862,-0.009738358587865112,-0.016240770057655462,-0.018255628526625087,-0.01253865019326008,-0.02259751843072801,-0.0023478790768777067,-0.021257540627530744,0.0,-0.03929733807519544,-0.03625385697103152,-0.0014968454959145515,-0.003919083415015786,-0.05172398726654643
0.0,-0.059676791239736425,0.0,-0.0027339422916967913,-0.10831406889052603,-0.00841708357026848,0.04484846418320372,0.0112305987791026,-0.012787658565508488,-0.029798172678370934,0.00034394636745523955,-0.034234186066194945,-0.0036330843452589364,-0.004763698847592398,-0.011244967871436477,0.0,-0.002749521257849434,-0.017493909492679115,-0.19825687111792326,-0.3271292064044038,-0.12229504963337053
0.0,-0.050317680814477066,0.00028728189415958797,-0.0004891362304185106,-0.09778490889048885,-0.0173591296219981,0.029228020521868403,0.005841338289068138,-0.026200417196176225,-0.025075816759412308,0.0012897379025035534,-0.029391415551337004,-0.0007589224784524858,-0.0037708735716824025,-0.01761736534922953,0.0006619255357863512,-0.005863024723055232,-0.014797277100512188,-0.21902746758948485,-0.28196417855349754,-0.17222990739715235
0.0,0.0,0.0,0.0,0.0,0.0,0.0,0.0,0.0,0.0,0.0,0.0,0.0,0.0,0.0,0.0,0.0,0.0,0.0,-0.005751867655835374,0.0016906635671281823,0.005670716852875968,0.03896138569836499,-0.008021664779840874,0.020235231878510833,0.009015557124339508,-0.003059383131562886,0.01620645628603716,0.0026197368232225597,0.001803580504645361,0.001229181162130568,0.019185456992443353,0.00675362212391501,0.0010472222314913656,0.0026878746570205953,0.013559821475575818,0.16573393611666296,0.6767227649445026
0.0,0.0,0.0,0.0,0.0,0.0,0.0,0.0,0.0,0.0,0.0,0.0,0.0,0.0,0.0,0.0,0.0,0.0,0.0,-0.0610844287525617,-0.0013423950132462313,-0.0035155710877895234,-0.18432164174447366,-0.007491428393400766,-0.013497726793763829,-0.015034872215043764,-0.02570276535860326,-0.030015516333755883,-0.0038329092355378663,-0.01720049131125619,-0.0017218934855636149,-0.04974676889791529,-0.03559660018208982,-0.0012779215187811526,-0.005388264885314861,-0.04316777141723437,0.0,-0.0851099610953413,0.0,-0.004837303805235593,-0.14369699761079385,-0.010404899064333064,-0.01766587952420365,-0.022334386854663504,-0.013117342695652387,-0.025273674195313945,-0.0026938820357197044,-0.02164473949597158,0.0,-0.050478709328101216,-0.03830102239650373,-0.0011599176630929457,-0.0045288955258709716,-0.05869135533553758
0.0,-0.011437026781637761,0.0,-0.00013308140832352254,0.007930328849063459,-0.0022807306972750588,0.04869396008782669,0.014264069213672797,-0.0021391569336495562,-0.003993597257181546,0.0006865014508815467,-0.01844737510351318,-0.002280628835361056,0.0070589797621016396,0.01581562366519049,0.0,-0.0010894357212231107,0.003847927177304967,0.09859390922715414,0.016858913842500614,0.7444027149431977
0.0,-0.005005937201099647,0.00038163752975049254,0.0044969233391203185,0.015724748413856227,-0.010252039114359178,0.037273518679324685,0.01100774077987168,-0.010492649677119758,0.0088638877564523,0.0024510778642923624,-0.008509985325211912,0.00026580610352704143,0.013297753930934957,0.017434728702832487,0.0010401320620856986,-0.0025200209713953196,0.010838826246607808,0.1263171028123031,0.11762416701111462,0.5961527115967957
0.0,0.0,0.0,0.0,0.0,0.0,0.0,0.0,0.0,0.0,0.0,0.0,0.0,0.0,0.0,0.0,0.0,0.0,0.0,-0.06092806033794352,0.0009070035959056686,0.003559653045430211,-0.13235618165193105,-0.017099036850261103,0.016364602106275092,0.007089487982374561,-0.017372767845145604,-0.01083382233501104,0.0028505725919730123,-0.02714663279774539,0.0010806720797552443,0.009551513121623915,-0.02929650865735528,0.0010615953280221494,0.0008184055799714378,-0.008077750229705253,-0.3055272343717815,-0.34798416543501365
0.0,0.0,0.0,0.0,0.0,0.0,0.0,0.0,0.0,0.0,0.0,0.0,0.0,0.0,0.0,0.0,0.0,0.0,0.0,-0.0599632010575343,-0.0012674943547962717,-0.003420097773915353,-0.18664114944872656,-0.007321227660410332,-0.014038714857540628,-0.015046462466488225,-0.022771559166372888,-0.03012539650358385,-0.0035209333961204463,-0.017598584010981404,-0.0016030277093719034,-0.051622204720303044,-0.03669011344565095,-0.0012801046041405395,-0.005299029242307914,-0.041763149777410725,0.0,-0.08463091041487196,0.0,-0.00465415097238429,-0.16099803029399998,-0.010011160027008355,-0.01723193482195539,-0.0202198303328514,-0.012667324833265567,-0.02412102314024046,-0.0024845929162934165,-0.021861322866038247,0.0,-0.04338797412111445,-0.03747655287549693,-0.0013441251703678095,-0.004265293386997188,-0.05461822402277167
0.0,-0.045934309103579936,-0.0007232404367024669,-0.0020882631346152416,-0.10053203085626454,-0.006120142744236053,0.03213204084317255,0.009346742836024192,-0.009438080210926807,-0.0259199702479219,0.00040892054365449095,-0.029359610151179393,-0.0026976331849713556,-0.002971800791316519,-0.009792296585209853,0.0,-0.0020204791496833082,-0.014026638698447082,-0.17598075387873427,-0.2837712973888576,-0.24668485582739516
0.0,-0.04305124774699682,-0.0005662860391685039,0.0011857268515999269,-0.1027409033176471,-0.016669794441396664,0.02912692644199864,0.006240113862633874,-0.023950048687631287,-0.02654665882712212,0.0018321674848624618,-0.03312560990113126,-0.0004616675671647213,-0.002477589524683002,-0.020908360234498713,0.000708924358629086,-0.0054935421091378564,-0.014442591576865046,-0.2172097595048463,-0.2739354649368648,-0.1792468580810694
0.0,0.0,0.0,0.0,0.0,0.0,0.0,0.0,0.0,0.0,0.0,0.0,0.0,0.0,0.0,0.0,0.0,0.0,0.0,-0.09599583172725784,0.002194671533636553,0.013412560053270364,-0.17201505086600247,-0.036727266019956586,0.047756023574219125,0.024663563621409892,-0.029953750050683924,0.01120572624124949,0.008560792655273295,-0.05098593078358639,0.0036599519613330104,0.04591666422319501,-0.03734466761808117,0.003244939528422195,0.00538179269328429,0.012489051565101309,-0.29969147738748786,0.09862144902754998
0.0,0.0,0.0,0.0,0.0,0.0,0.0,0.0,0.0,0.0,0.0,0.0,0.0,0.0,0.0,0.0,0.0,0.0,0.0,-0.06029653965706088,-0.0013541040373895848,-0.0035591642885978575,-0.18487523210837456,-0.007452647413246822,-0.013973953619106689,-0.015103902983403913,-0.02438507672249749,-0.03026493527544601,-0.0037149097574824745,-0.0175605326527241,-0.0016808536714243408,-0.050100733953842784,-0.036249869815905174,-0.0013056436746153746,-0.005416387063276446,-0.04264452893593177,0.0,-0.08461378593761938,0.0,-0.004814916270062858,-0.15010023684632026,-0.01027601681505623,-0.01787204999490079,-0.021780542656458752,-0.012886249877451947,-0.024848186230176955,-0.0026129566201918307,-0.022157220192350505,0.0,-0.04735685576132765,-0.03801260547551876,-0.0012262074834693624,-0.004513452585803308,-0.0568677328836195
0.0,-0.05443300071097237,-0.0016397375075881645,-0.0027016578089069532,-0.11471024185058908,-0.007407862487462654,0.07030570652159394,0.024061650279861208,-0.010670971329266019,-0.029352541240318983,0.001151569298640394,-0.05127447993568532,-0.004752413200919074,0.006146733218845309,0.006818058723736088,0.0,-0.0028396037262432092,-0.0069936818962226905,-0.10238213288711609,-0.31444009550908214,0.18781477622849804
0.0,-0.04476579537402544,-0.0013923607693429577,0.006366794772957549,-0.1065747755460432,-0.02765738698698356,0.06290916371070558,0.01866969452389236,-0.03547935625693736,-0.019993486566771298,0.004781327588729891,-0.05227667109723175,-3.412136116815794e-05,0.01329095571820197,-0.008352719783640758,0.0018856128621694693,-0.008092354939066753,2.2698893712100536e-05,-0.11769913068640263,-0.20335288178189245,0.26626262796255223
0.0,0.0,0.0,0.0,0.0,0.0,0.0,0.0,0.0,0.0,0.0,0.0,0.0,0.0,0.0,0.0,0.0,0.0,0.0,0.009576684938050159,0.0005148429768845906,0.006642903926714217,0.05388135103333451,-0.005223560023939429,0.016078624021719074,0.009778102334567707,0.00037211661754953763,0.0247902689234168,0.0028513967551947405,-0.00035565102352892643,0.0015268596187881405,0.023281097284784332,0.011249892979673055,0.0011071284879551428,0.003211054160012415,0.021650381934816363,0.2224464935768484,0.5854019402182113
0.0,0.0,0.0,0.0,0.0,0.0,0.0,0.0,0.0,0.0,0.0,0.0,0.0,0.0,0.0,0.0,0.0,0.0,0.0,-0.05273133652867301,-0.002888756597155665,-0.005684609694535045,-0.10161894646628153,-0.00846116162984182,-0.00916131531816747,-0.012647489914458618,-0.05318109749250949,-0.025869334207054423,-0.006985177600630144,-0.012446158570507964,-0.0029463697043772227,-0.00507125036383939,-0.017900443714818748,-0.0015365157814812012,-0.00661996005185136,-0.05120266764578748,0.0,-0.06355154908260233,0.0,-0.00710070485398447,0.12137758844408933,-0.01346864924780986,-0.027291096956979972,-0.050075961226079956,-0.014451019753059676,-0.0344363903830938,-0.004739240069145291,-0.02311286035662405,0.0,-0.1212759882565667,-0.04026423604081593,0.0016139536515200825,-0.008755677160213398,-0.09142075999061512
0.0,-0.011846489734530292,-0.0013717738312481,-0.0013217783385611746,-0.021206563239430824,-0.0018519796125651554,0.056396504462270264,0.022093763066207417,-0.0015870639297570152,-0.004429544225035717,0.001116969365260599,-0.032593710920692215,-0.0030426741248957404,0.013958449659216143,0.025560363917187988,0.0,-0.0011841071983517478,0.011123919349275724,0.11289408548571458,-0.04453674700500727,0.6318221918794305
0.0,0.014506213404343753,-0.0006766081846424721,0.004256821413320786,0.02990851762668425,-0.0058483999796910555,0.023347545046223234,0.011111485668201661,-0.0028826588581331997,0.017708487309403685,0.0024929103641874043,-0.010138139068118935,0.000669033101232139,0.018338944769547626,0.021865228164784218,0.0010036672083459808,-0.0006328665767612353,0.021351363692171686,0.181748997962615,0.15726914623777735,0.4741818719028684
0.0,0.0,0.0,0.0,0.0,0.0,0.0,0.0,0.0,0.0,0.0,0.0,0.0,0.0,0.0,0.0,0.0,0.0,0.0,-0.03210495447545573,-0.00011090956169833038,-0.0001333943134842112,-0.095504104926592,-0.009763032561749823,0.0043659259394387695,0.0055940184848236475,-0.009659668541963042,-0.005399530342457751,0.0006395701949822173,-0.023526270517907958,0.0008329982457667407,0.009087544027266161,-0.018355867808884277,0.0007730718244477222,0.0010203613058009195,-0.0023016140669163613,-0.2332516698384164,-0.5475096383522917
0.0,0.0,0.0,0.0,0.0,0.0,0.0,0.0,0.0,0.0,0.0,0.0,0.0,0.0,0.0,0.0,0.0,0.0,0.0,-0.0631770743618267,-0.0024017956603592148,-0.0057886834499349974,-0.16361357654560732,-0.008971438877769293,-0.01392511579564472,-0.015386960915296448,-0.04327509098010913,-0.03327911664723414,-0.006298954764951095,-0.017902492607376003,-0.0025768374151960917,-0.030104079122740192,-0.031125928683068124,-0.0016004746144629566,-0.006730306090604836,-0.05356241071960483,0.0,-0.0841203779832607,0.0,-0.006660644316967461,-0.018634517250116577,-0.01415886782629809,-0.025438588526030648,-0.04028576631573485,-0.015080069403195024,-0.03595295423491359,-0.00408788731137233,-0.02674938181762134,0.0,-0.09364530077774771,-0.04445538072270454,0.000247971383728136,-0.007466091353863252,-0.08323248079569522
0.0,-0.036041457526449085,-0.0010167381997362465,-0.003161112978331305,-0.0948533971136122,-0.004503811141797744,0.024645438904628485,0.009738096753694959,-0.006680532614801689,-0.022119760103821443,0.0004603401495533903,-0.02725373352138367,-0.0022096230727669734,0.00026305252431801224,-0.003532195712893287,0.0,-0.0014631842166532177,-0.008437354127530947,-0.14834442099405884,-0.2629333171716413,-0.3423049043920688
0.0,-0.021504903373319662,-0.000974387669869314,-0.001554548742991681,-0.08163288304048731,-0.010346978481840154,0.00808701972627391,0.00493689783698342,-0.0130041257802482,-0.01812926873899127,0.00036201121323863674,-0.029828141975303014,-8.397804058735963e-05,0.0013701977858264697,-0.013309993654955816,0.0005174427880011256,-0.002717312533816862,-0.005691572389719856,-0.16391430696990406,-0.23823855096523464,-0.38373601875570956
0.0,0.0,0.0,0.0,0.0,0.0,0.0,0.0,0.0,0.0,0.0,0.0,0.0,0.0,0.0,0.0,0.0,0.0,0.0,-0.0266091601989572,-0.0002355103057177763,-0.002063136039469669,-0.08664453603691431,-0.005796613267623948,-0.001468512906769001,0.0013164752215129125,-0.007372313936759662,-0.011097944790801574,-0.00036168794720068764,-0.017561377909846614,0.00017511031408606144,-4.688074803742541e-05,-0.016720958928856246,0.00025407852638806815,-0.0001816721101204172,-0.008041498773914376,-0.2386633799145816,-0.5753588498652435
0.0,0.0,0.0,0.0,0.0,0.0,0.0,0.0,0.0,0.0,0.0,0.0,0.0,0.0,0.0,0.0,0.0,0.0,0.0,-0.060434072199913744,-0.0018141390847569176,-0.005070949916281969,-0.17561506674960367,-0.008049887084442325,-0.014666319244647124,-0.014825721082211482,-0.03206785601282566,-0.03287709830917197,-0.005080835365153531,-0.01849009576965956,-0.0020299620691919536,-0.039762501066058255,-0.034191835936748655,-0.0014212705030932178,-0.005889994826986276,-0.04768494432676607,0.0,-0.08410965165288864,0.0,-0.005528715377961407,-0.09269374233834612,-0.01264152315634643,-0.021021542118810802,-0.029541881322171268,-0.013406005642698917,-0.03197095480159565,-0.0031847166457970246,-0.02515810270795923,0.0,-0.06600643722864553,-0.0407979448329919,-0.0005320750562826453,-0.005761892565845986,-0.06761736409917495
0.0,-0.028654351029339425,-0.0005680098248063623,-0.0024601986008752157,-0.07679959130293697,-0.0035125464137985367,0.00830907765844906,0.0033279774074333295,-0.00548379388050831,-0.018290809172504214,0.00014020755883454252,-0.016197336642590536,-0.0012199261786473919,-0.003061757616213571,-0.008888277048600622,0.0,-0.0010037626474603864,-0.009848463872352,-0.1546937723944269,-0.21785386245362193,-0.43966149378905006
0.0,-0.02047814686011584,-0.0005497455784058366,-0.0023663940412809352,-0.06958627612364698,-0.006210723973885285,-0.0003862154645545381,0.0006410079543249272,-0.009052551814287019,-0.018835141722952073,-0.00042135190749184934,-0.01976636530578384,-0.000250377887416395,-0.004079675752140554,-0.016294361929740035,0.00011210284512970163,-0.001883084720294811,-0.010288581716535579,-0.17471739270194825,-0.2240924493652996,-0.41995920468336767
0.0,0.0,0.0,0.0,0.0,0.0,0.0,0.0,0.0,0.0,0.0,0.0,0.0,0.0,0.0,0.0,0.0,0.0,0.0,-0.004342309112362598,0.0009419509492104376,0.012481283278493871,-0.011806099421286957,-0.023766476098002053,0.04760860236406999,0.03287695447044708,-0.021423196700914235,0.06318413208473546,-0.00025932722709035017,-0.03821079750421623,0.005066785955509264,0.06473100708842003,0.0004854367826238691,0.003951211352651052,0.009461464839536748,0.04576889734753594,0.14707610665622864,0.4664912289243518
0.0,0.0,0.0,0.0,0.0,0.0,0.0,0.0,0.0,0.0,0.0,0.0,0.0,0.0,0.0,0.0,0.0,0.0,0.0,-0.05325165238794872,-0.0027824322792203227,-0.0072684729320330625,-0.12110224791038603,-0.008524403711862414,-0.012622956831240578,-0.012504294206850166,-0.04915524107128307,-0.03190012235933695,-0.007483254701465246,-0.01631020407803999,-0.0027505643992207277,-0.008190095978626017,-0.02253403243303147,-0.0015377368009903444,-0.006451734854986149,-0.05319321630810399,0.0,-0.06923605790635637,0.0,-0.006792795513002766,0.08102288450285985,-0.015694407629579965,-0.026621692117011125,-0.04679624826704122,-0.01358282665515439,-0.04160112297459619,-0.004394167621176048,-0.027127195243061078,0.0,-0.10990866618141358,-0.041954402865045946,0.0013588119813338715,-0.008353258020327362,-0.08788151873506084
0.0,-0.024140377084777346,-0.0019790384088640197,-0.00557461251414964,-0.07113324737340361,-0.005034455008078188,0.07074162153140456,0.029493630434575896,-0.004944009612973777,-0.01790267158580847,0.0014805580712831143,-0.048091162931391644,-0.0043531797538175826,0.015173198372393266,0.03723232998789451,0.0,-0.0018966956435448662,0.010932133160711515,0.04362096121337408,-0.19584999044489007,0.41035904286349245
0.0,0.017600751587452806,-0.0033261718024216406,0.008351242370122542,-0.06338819320034911,-0.03154522634074334,0.05835793951938053,0.03593990633735755,-0.032989673555165196,0.02085103042959684,0.00044257358744705794,-0.07218106155609352,0.0015928068833614077,0.04444625367360587,0.042838752114474805,0.003354767364426809,-0.005723485229789278,0.04223240166609477,0.1662761398518969,-0.04055133360131256,0.3079340086461894
0.0,0.0,0.0,0.0,0.0,0.0,0.0,0.0,0.0,0.0,0.0,0.0,0.0,0.0,0.0,0.0,0.0,0.0,0.0,-0.02451091904650002,-0.00023337707745542708,-0.0033469027027455828,-0.08715217389235343,-0.004774160920992853,-0.0015752155407092175,0.0011599587184188043,-0.007303136819278694,-0.00989705828127892,-0.0008779637008986465,-0.017673128742612253,-4.976531972300801e-05,-0.0005837260719333901,-0.01705822218871614,0.00023056886606441905,-0.00019912645885306168,-0.008097208886702607,-0.2437095340059523,-0.5715371024608199
0.0,0.0,0.0,0.0,0.0,0.0,0.0,0.0,0.0,0.0,0.0,0.0,0.0,0.0,0.0,0.0,0.0,0.0,0.0,-0.058090283260594025,-0.0014383670919085314,-0.00487713763308661,-0.18323599837431595,-0.007424533869938543,-0.015485524361184744,-0.014264793058566736,-0.024580465688146428,-0.033245317748641756,-0.0044112433489459126,-0.019238513619920208,-0.0016578054417533475,-0.045150630819802064,-0.036235588136571774,-0.0012998183421652628,-0.0053007804155266,-0.0440357559053071,0.0,-0.08387392440154978,0.0,-0.004756175468426701,-0.14011299171876712,-0.012001753440913237,-0.018110631493348014,-0.022485924137376,-0.012111659619706798,-0.030547448651902752,-0.002568695135612981,-0.02461184569406704,0.0,-0.04747741980454926,-0.03844283607720347,-0.0010076381668719266,-0.004647828603914045,-0.05721578470216771
0.0,-0.02615798146933237,-0.0004402516203407559,-0.0032645807816669456,-0.07233152886537923,-0.003140189615935763,0.004045984983343562,0.0017458739085674552,-0.004955038474059575,-0.01763832402976156,6.253290560675738e-05,-0.013023587233138194,-0.0010484396576588555,-0.0036659490164172876,-0.010272232810747002,0.0,-0.0008511022737204985,-0.010006220204795706,-0.15634819163060287,-0.20477946046784348,-0.46619796107267575
0.0,-0.019384151908752697,-0.0004893768411232699,-0.002922688220327107,-0.06852070087338918,-0.005369060383017222,-0.0015215599532765846,0.00031562224870536457,-0.008410062291719837,-0.01808560506445926,-0.0008832782012211968,-0.018605173155004876,-0.0003774094314004438,-0.0043393647167509625,-0.01606230515838403,7.793774714477405e-05,-0.0017012525999225859,-0.010462644935734521,-0.17385212585606669,-0.2219512173601349,-0.4266395088891094
0.0,0.0,0.0,0.0,0.0,0.0,0.0,0.0,0.0,0.0,0.0,0.0,0.0,0.0,0.0,0.0,0.0,0.0,0.0,-0.023801231198471506,-0.0002649313367973101,-0.0037698363281454114,-0.08482497148886992,-0.003922721800834668,-0.0032242652491911105,7.156992140869905e-05,-0.006523275048414261,-0.01167962115620451,-0.0008653887120312484,-0.016183666872856425,-0.00022620396143106255,-0.0028283737717449825,-0.016313870528969696,9.224134492364562e-05,-0.000526655970655376,-0.009244807799082112,-0.24382867700661076,-0.5717758510341093
0.0,0.0,0.0,0.0,0.0,0.0,0.0,0.0,0.0,0.0,0.0,0.0,0.0,0.0,0.0,0.0,0.0,0.0,0.0,-0.05763692665399277,-0.0012870208626173944,-0.004571293230975746,-0.18629242198579277,-0.007202116435842573,-0.015515207488888443,-0.014208246959352553,-0.0218403774185843,-0.03284955831966142,-0.004047595780103622,-0.019215277591862975,-0.0015270518832746329,-0.047976106670770985,-0.036975390224100214,-0.0012565374147384559,-0.005106980239626762,-0.042464447956266756,0.0,-0.08395174645922526,0.0,-0.004486192547599543,-0.15906932066650206,-0.01145894096911397,-0.017010224028770737,-0.019804195052919183,-0.011779751902764155,-0.02900744545072307,-0.002353435537876045,-0.023982770952255535,0.0,-0.04075249239154306,-0.03750018904582637,-0.0012182548912186059,-0.004219818152125028,-0.05337777906799115
0.0,-0.026260133961895037,-0.00042311326211853404,-0.0032746016122434376,-0.07086963570904617,-0.003154766396100437,0.003096711832859166,0.0013804743862883332,-0.005023238359762943,-0.017535149945215343,4.202776405581497e-05,-0.01252221952773187,-0.001013046290715253,-0.004000110737018335,-0.010592126579515372,0.0,-0.0008470353520178156,-0.010249864874485452,-0.15680924337462837,-0.203116600899713,-0.4697633105489956
0.0,-0.019696214420632636,-0.0003966371780770578,-0.003113804395549329,-0.06567851953065329,-0.00448220611859171,-0.0030470777162655348,-0.0006728393963904107,-0.007454501220110473,-0.01871194981796879,-0.0008860843218155399,-0.01656595839372244,-0.0004156701262479514,-0.0054692493133219056,-0.017173693114791114,-1.1420970296057872e-05,-0.0015330348920487501,-0.01153746202315193,-0.17665033336247304,-0.21853676693832413,-0.4279368067623603
0.0,0.0,0.0,0.0,0.0,0.0,0.0,0.0,0.0,0.0,0.0,0.0,0.0,0.0,0.0,0.0,0.0,0.0,0.0,0.0032115202077097464,0.0012040735765937091,-0.01639291456038389,-0.07484129510111374,-0.043587103163060824,0.06317161486703579,0.06312635248835463,-0.04080194919708877,0.14382345208768293,-0.005772734274169727,-0.11365388971166644,0.004314759225037425,0.1065996853148996,0.0685270350315399,0.007015698096783387,0.015666095473373776,0.111419129526763,-0.08281628152905741,-0.03387947447701772
0.0,0.0,0.0,0.0,0.0,0.0,0.0,0.0,0.0,0.0,0.0,0.0,0.0,0.0,0.0,0.0,0.0,0.0,0.0,-0.057100703894830844,-0.001607509564047952,-0.0059118223811994745,-0.17984564490960864,-0.0075831537546205,-0.016364815091187583,-0.013811779497738572,-0.026804551823454772,-0.0353409121948615,-0.005103456612329712,-0.02025099191893926,-0.0017456856274506549,-0.03999432939979522,-0.0356594870375341,-0.0013309851222118383,-0.005384758737075778,-0.046098879629978884,0.0,-0.08325573624129609,0.0,-0.004932517279652707,-0.11933934425806793,-0.013475440472141751,-0.019120894109080824,-0.024995997659123574,-0.011905762037740481,-0.035208465434866124,-0.0027092902280411086,-0.02655818675624915,0.0,-0.052749418558279984,-0.039476428194701915,-0.0007140123186334858,-0.00506317932336946,-0.06043479432562278
0.0,-0.013809263554244515,-0.0018545720495665098,-0.009788736607074881,-0.02813169646139623,-0.006347674875878749,0.05904262801024229,0.024721092266081456,-0.004632387157251387,-0.0018486964094931717,0.0011760256636283968,-0.04035797971320659,-0.00429880224566559,0.008607736008003757,0.05831454433783232,0.0,-0.002116982517606568,0.014777321430029144,0.126738979883284,-0.11143013685863283,0.481943313990301
0.0,0.010113003296529272,-0.004089336835110349,-0.003423807914225483,-0.10477523049950015,-0.039156078653745686,0.05802524043319826,0.039066794754825315,-0.042949267235971256,0.028005754918218488,-0.003895586385485132,-0.09774685555826595,0.00014354286992914145,0.03987644279114378,0.08629772217673302,0.0035756617098542517,-0.008111079303302838,0.056470041208526604,0.14701500253660707,-0.17783016735696608,-0.04931543682589633
0.0,0.0,0.0,0.0,0.0,0.0,0.0,0.0,0.0,0.0,0.0,0.0,0.0,0.0,0.0,0.0,0.0,0.0,0.0,-0.023361523034825478,-0.00023086206603086418,-0.005039069573042556,-0.0879511266872337,-0.005471372195394465,-0.001797805170535287,0.0023191155715393294,-0.007867029412340371,-0.006164625229969501,-0.001122417776910196,-0.020922738812617612,-0.00012455994219271986,0.0005736377884675406,-0.012684213818394855,0.00033380734412846936,-5.694910978715613e-06,-0.004901363705422495,-0.25037666446669443,-0.5687181610259138
0.0,0.0,0.0,0.0,0.0,0.0,0.0,0.0,0.0,0.0,0.0,0.0,0.0,0.0,0.0,0.0,0.0,0.0,0.0,-0.056334538961130734,-0.0011532740439119304,-0.00494629457127839,-0.18859626038971708,-0.006830393122813205,-0.016849186151210806,-0.013659181897412257,-0.019326251632734805,-0.03317014534481734,-0.0037440206072913164,-0.019856525807087397,-0.0013894498721115846,-0.04842272447743059,-0.03837389186913192,-0.0011886318032620568,-0.004809543207739032,-0.041322252697665623,0.0,-0.08417538390937393,0.0,-0.004160948148620673,-0.17041070200846647,-0.010913984040692146,-0.017029713129201193,-0.017445504064096548,-0.011121601166637404,-0.02764555876897108,-0.0021310867803861653,-0.024749280060141376,0.0,-0.0349400084588678,-0.038714521104195494,-0.001303933295829281,-0.0038137677038410007,-0.05141657381742551
0.0,-0.026785941622319055,-0.000421457146375539,-0.004863716586684483,-0.06840032623055979,-0.0029736855827389745,0.002437905225379391,0.001810869974361165,-0.004635624580611947,-0.01580952424436632,6.425930957548417e-05,-0.012690068707366064,-0.0010068297629444876,-0.0036450226755226915,-0.008820674920259106,0.0,-0.0008076845271840971,-0.010958659277890144,-0.1515376140780809,-0.2041934098492015,-0.4781102473790351
0.0,-0.02000606590197096,-0.0005005177103013076,-0.0037064710676614175,-0.06703891375211699,-0.0054601249076312135,-0.0016202746399364162,0.0003895742624851613,-0.00847604230244818,-0.018036032724387283,-0.001009881728899251,-0.019574362536792362,-0.00041566187486425613,-0.004476576708426538,-0.015239832315336089,8.501485863181735e-05,-0.0017267857912455396,-0.010346042545717898,-0.17325812910878527,-0.22410562258853195,-0.4244969580207193
0.0,0.0,0.0,0.0,0.0,0.0,0.0,0.0,0.0,0.0,0.0,0.0,0.0,0.0,0.0,0.0,0.0,0.0,0.0,-0.02359651436467173,-0.00027621361959983485,-0.004730488010120778,-0.08726123740949539,-0.004399782077947666,-0.003700864625186796,0.0006427757411096429,-0.006977094525512735,-0.01003085221663849,-0.0009968947221399363,-0.018079375797572027,-0.00025810372414907635,-0.002564271448403127,-0.015014295642636793,0.0001387804717123571,-0.0004721569991327404,-0.007642304634389212,-0.2503849499196894,-0.5627971862938624
0.0,0.0,0.0,0.0,0.0,0.0,0.0,0.0,0.0,0.0,0.0,0.0,0.0,0.0,0.0,0.0,0.0,0.0,0.0,-0.056266433107585334,-0.0011130850289228235,-0.004860853766511802,-0.1893692466603905,-0.006763762943644397,-0.01689193556668683,-0.013645602923864708,-0.018664598354133942,-0.03297792224912261,-0.0036237412155184856,-0.019821514538808985,-0.0013579286598207952,-0.04916802761714485,-0.03861378689777826,-0.0011760320837125447,-0.004758630732504167,-0.040899464110595,0.0,-0.08425624417173713,0.0,-0.0040926697784527104,-0.17492754232444938,-0.010687330379187033,-0.016844624826079367,-0.016777475477942668,-0.01105216815100613,-0.026976372371663792,-0.0020799256759552564,-0.024589116896579114,0.0,-0.033364360409428334,-0.038646895093563026,-0.0013561108314598732,-0.003703220802913239,-0.050618509266328895
0.0,-0.026466947703458768,-0.0003833477258596232,-0.004667552679993829,-0.06717175296273914,-0.002846139284467465,0.0012039097950233225,0.001295689334124907,-0.004547200098587382,-0.015669814384179595,3.970993250076004e-05,-0.011863318919692452,-0.0009185505837393256,-0.0038324794943281285,-0.009992568028686694,0.0,-0.0007647996030198292,-0.011129858787989872,-0.15327258906346047,-0.20040686490526222,-0.48349994365839216
0.0,-0.020493238729945597,-0.00040338080061674234,-0.0036828012804377263,-0.06441759412395746,-0.004541731739787063,-0.003063770269287898,-0.0006098579821338327,-0.007512300519078751,-0.01898275818925194,-0.0009266968410670536,-0.017352025588489733,-0.0004266700447978327,-0.00558790874122322,-0.017721635439644872,-6.105207389006107e-06,-0.001546991726699758,-0.011697219551142219,-0.17817829381066036,-0.2203435498135227,-0.42247330896856433
0.0,0.0,0.0,0.0,0.0,0.0,0.0,0.0,0.0,0.0,0.0,0.0,0.0,0.0,0.0,0.0,0.0,0.0,0.0,-0.012591025417939683,-0.00014561336104433774,-0.01334438949691914,-0.1069136871954031,-0.02134500968192446,0.013994157528596847,0.02326072214002199,-0.024941704379487756,0.04834844637843135,-0.003673700466283177,-0.05987494514966202,0.0007617305881118095,0.027945073458803427,0.01173932767893703,0.0023921316713741226,0.0038934844122755314,0.04776243387929386,-0.25141672873983456,-0.3252929758309119
0.0,0.0,0.0,0.0,0.0,0.0,0.0,0.0,0.0,0.0,0.0,0.0,0.0,0.0,0.0,0.0,0.0,0.0,0.0,-0.05601909249284573,-0.001170661577262667,-0.005169255130745152,-0.18820542688936268,-0.006823669646746886,-0.017130323396861366,-0.013523337738114493,-0.01947073253580655,-0.03358987963837811,-0.0038427020157590706,-0.020104872039068335,-0.0013913131196909372,-0.04753620805384621,-0.0383975028994623,-0.0011877569569813027,-0.004795414785337276,-0.04158135786063598,0.0,-0.08407109976430326,0.0,-0.004160320018793736,-0.16784999984701104,-0.011138872197599105,-0.01719468788836263,-0.017660153456359958,-0.011017016347783083,-0.02839223673602605,-0.0021337176464123974,-0.02517617855616161,0.0,-0.03528877264634422,-0.038991088663932166,-0.0012599369766959632,-0.003848375000913656,-0.05175705103020548
0.0,-0.03692333218133559,-0.0018462919877260593,-0.019730046191502284,-0.09121348829917174,-0.0076801403595519,0.03973701456567598,0.021241935977842092,-0.007820328702342023,-0.00886652967280538,0.0009903871789896388,-0.04617670642428598,-0.004307141746843117,0.0025004035171188915,0.03972997480784925,0.0,-0.0023977482386832046,0.0015444057217259453,-0.05741884473058247,-0.3091628419980648,-0.3005231919202594
0.0,-0.01179549637291959,-0.002053709378909174,-0.006649161172710433,-0.08962294236841474,-0.020619929491399094,0.01954873078953384,0.014140872915057555,-0.02619334046292178,-0.004607328826628607,-0.0027767028262406027,-0.0567441192827781,-0.0005696854294025271,0.006409204042533873,0.014164706885542779,0.0012862369083599993,-0.005133082487266301,0.02034791721613712,-0.09818663928596488,-0.2508073330753168,-0.3480506099433316
0.0,0.0,0.0,0.0,0.0,0.0,0.0,0.0,0.0,0.0,0.0,0.0,0.0,0.0,0.0,0.0,0.0,0.0,0.0,-0.020480426557995573,-0.0002597079944401527,-0.008293942658048468,-0.09937012161661801,-0.010921611939666264,0.0022846388216958176,0.008901550860796015,-0.01413156851215709,0.010895630576662608,-0.0020628674070871807,-0.03455517713158705,7.504233361283361e-05,0.00804038244103621,-0.006082049622568272,0.0009577803100320098,0.001033911226385637,0.012733505688400697,-0.2649383886357966,-0.4939424732575797
0.0,0.0,0.0,0.0,0.0,0.0,0.0,0.0,0.0,0.0,0.0,0.0,0.0,0.0,0.0,0.0,0.0,0.0,0.0,-0.05501976838220746,-0.001093775665594128,-0.004853943651580155,-0.18945481012177767,-0.0065792169039689185,-0.01658704366438987,-0.014661281921809223,-0.01826003236598473,-0.03367323364024543,-0.003583527722417961,-0.019526080805569668,-0.0013232262037953361,-0.04792718895878832,-0.040047630090403886,-0.0011441384854995892,-0.004623789253055045,-0.041613884760268456,0.0,-0.08412558178687883,0.0,-0.003983795622050981,-0.17179075454409182,-0.010528401033569728,-0.0164849632043978,-0.018641975652365247,-0.010698175722641796,-0.029535311654629873,-0.002026744352609689,-0.02416219893966721,0.0,-0.0327034433146526,-0.04091129177483404,-0.0012936640401206327,-0.0036255217648151366,-0.04946074919003019
0.0,-0.03033921267032562,-0.0008352591638414842,-0.009400951143154576,-0.07468332963308301,-0.004399319364634889,0.012704933091967787,0.007191971962716051,-0.00569845263692822,-0.014490729839968942,0.00032543378431123784,-0.02259079520180234,-0.0019664728530507042,-0.002147522966262579,0.004226215432002634,0.0,-0.0012820096117974068,-0.00781414623065129,-0.12822692648522166,-0.23888089138691704,-0.432764806633864
0.0,-0.01860618734918763,-0.0009617526766405356,-0.004839296347448455,-0.07371150203979185,-0.010012184523872366,0.004248869856437009,0.00415283873305243,-0.01398037769538599,-0.015794290256647102,-0.0015776351923625649,-0.030982278811869397,-0.0004951189262672898,-0.002002067043234238,-0.00886149593482005,0.0004149526431961668,-0.0027940057004933144,-0.0017053957205704913,-0.15978438060357789,-0.23895154379260547,-0.4060889185990565
0.0,0.0,0.0,0.0,0.0,0.0,0.0,0.0,0.0,0.0,0.0,0.0,0.0,0.0,0.0,0.0,0.0,0.0,0.0,0.007157922980860268,-8.522258105544908e-05,-0.011555599979937343,-0.048042085396577845,-0.026581498021084213,0.02580703088135932,0.032906783625272835,-0.030319119946665488,0.08628089317159925,-0.0044875981239570015,-0.06417315628994029,0.0011053856655851087,0.03887531995703801,0.04254187483207219,0.003117989944964616,0.006529205791272791,0.07379043893084822,-0.04045266902396882,0.45597416062288193
0.0,0.0,0.0,0.0,0.0,0.0,0.0,0.0,0.0,0.0,0.0,0.0,0.0,0.0,0.0,0.0,0.0,0.0,0.0,-0.055027993491583674,-0.0011575218462639525,-0.00520175552042309,-0.18818533599337717,-0.006680160070350744,-0.01695459436726674,-0.014271611066616301,-0.019162579860810026,-0.03421362709245886,-0.0038253348031965654,-0.01991020888180037,-0.0013640546154942417,-0.04645942630352259,-0.03952821127739495,-0.0011629600181949967,-0.0046887388585986,-0.04214541018488083,0.0,-0.08382777186584867,0.0,-0.004074972737287988,-0.16475248561623942,-0.011050659432135018,-0.016945710866901106,-0.019243798938535516,-0.010727276919409539,-0.030717627387020417,-0.0020917736463233797,-0.024926402016163755,0.0,-0.034784086020457766,-0.040887830843705376,-0.0012069651438383487,-0.0037912159143683516,-0.05091094690399841
0.0,-0.02777752785315682,-0.0022794484843990095,-0.020295294410051862,-0.04232767799994918,-0.00916963688218477,0.05954764372926757,0.029472415454333344,-0.008925735448122642,0.012818993805801161,0.0012641503971052928,-0.05224375241926177,-0.005311593551757364,0.006086081830272637,0.06892052763924808,0.0,-0.001582589075626911,0.013242268583857849,0.1332144425082463,-0.19220480008366622,0.3131479258318085
0.0,0.0015713268635210447,-0.0037947387311503184,-0.004994599424226063,-0.06526835578554187,-0.03782011588655839,0.059701208025298796,0.03202137303593147,-0.04704998806755367,0.021946061060803036,-0.00491725500446008,-0.09035204191193649,-0.0008746838099041038,0.01723417426372037,0.06463434319520862,0.002523830718698713,-0.008389926949177298,0.05595067564021612,0.12830110070615777,-0.12964188181339317,0.2227047215878167
0.0,0.0,0.0,0.0,0.0,0.0,0.0,0.0,0.0,0.0,0.0,0.0,0.0,0.0,0.0,0.0,0.0,0.0,0.0,0.015311376547716965,6.876479984447376e-05,-0.004616708683515343,0.011445817093439638,-0.014843965303757485,0.0187193098519338,0.020557040162485062,-0.016064161496881984,0.06023202415557304,-0.002392592810478742,-0.03175446499728161,0.0008136138336668003,0.025816999245610713,0.034987633082712626,0.0019086140255162806,0.004499921863039865,0.049564691257997506,0.09856786063281774,0.5877812743508207
0.0,0.0,0.0,0.0,0.0,0.0,0.0,0.0,0.0,0.0,0.0,0.0,0.0,0.0,0.0,0.0,0.0,0.0,0.0,-0.05504228889555103,-0.0012344355007476004,-0.005621323023352072,-0.18667046391559214,-0.006802340256164395,-0.01739888558895652,-0.01380314982124518,-0.020251779403495356,-0.0348675883876871,-0.004117044750626702,-0.020374713164953703,-0.0014133661831279482,-0.04469430477875346,-0.03890540066491669,-0.0011857347565936425,-0.004767384053835319,-0.042789316289494214,0.0,-0.08347555400603052,0.0,-0.004185176198447111,-0.1562836881681806,-0.011680920884375516,-0.01750231439787905,-0.019970597815667904,-0.0107632016680102,-0.032144900124689346,-0.00217030801604579,-0.025849339792223508,0.0,-0.03729426962108584,-0.04086281461584563,-0.0011025791776690264,-0.0039911983392791235,-0.052662656609663794
0.0,-0.010098801739274597,-0.0016529035776309854,-0.013596503720049433,-0.0016312566822780745,-0.006056429610117846,0.048378968552476136,0.02310265170625347,-0.005087606008846794,0.019304243964770085,0.0009952682416042053,-0.03603578373951616,-0.003840123043036605,0.006910099731679769,0.06092535299234543,0.0,-0.0007471302843893722,0.015581320132933183,0.18544134510609567,-0.05551710704308228,0.5050377237953456
0.0,0.01162382291367425,-0.002508228839242759,-0.001177619259275838,-0.010714781069847495,-0.024744451536859634,0.04592818168917309,0.023356396448273652,-0.029877095788407755,0.026787889856763752,-0.0030532417158666745,-0.055005765225823296,-0.0004156424179477139,0.01517701187067178,0.05698466998885771,0.0018017262955960867,-0.005148763815201979,0.0460155066018988,0.19357796754823892,0.032056269192514635,0.4139831089136507
0.0,0.0,0.0,0.0,0.0,0.0,0.0,0.0,0.0,0.0,0.0,0.0,0.0,0.0,0.0,0.0,0.0,0.0,0.0,-0.026726733251780738,-0.0004131936349555136,-0.011037487896266136,-0.1378439840566173,-0.021243746167919034,0.012816897449773886,0.019798265086545842,-0.026783218591562477,0.03929465242356682,-0.003927612358121569,-0.059379530168686405,0.000297095321714651,0.019397909847119914,0.0059254405412536276,0.0019958528606679364,0.0036931963864964704,0.03215426257458409,-0.31845922768138607,-0.25870957721813176
0.0,0.0,0.0,0.0,0.0,0.0,0.0,0.0,0.0,0.0,0.0,0.0,0.0,0.0,0.0,0.0,0.0,0.0,0.0,-0.05448593582671924,-0.001128628662975502,-0.005101002680953523,-0.18861593667670118,-0.00656756011258058,-0.016733815045150285,-0.014814201494037522,-0.018686881125706715,-0.034371512292151685,-0.0037334584007760706,-0.019673551094280036,-0.0013352783794558399,-0.046374063052653895,-0.040325200151520045,-0.0011430333192952898,-0.004608470146714232,-0.04227404413606356,0.0,-0.08380010960545867,0.0,-0.003997379688673692,-0.16546966066685334,-0.01082463528326828,-0.016653083581105413,-0.019904653645496956,-0.01055946361012574,-0.031586174936044854,-0.0020467412847843328,-0.02453008716706593,0.0,-0.03379946467389814,-0.041934205974912896,-0.0012076665950756752,-0.003703575930662289,-0.049955669954308786
0.0,-0.04276157905337327,-0.0013833355660658978,-0.012654852599992186,-0.08844579253918941,-0.00683632526406347,0.0301725535973126,0.013702236267647888,-0.008387210222683489,-0.011404836565126192,0.0005985995483332598,-0.034638728769370096,-0.003248112041939938,-0.0009660309927010595,0.01720789952174073,0.0,-0.0011043861995300149,-0.009150986079673264,-0.10729380685299574,-0.2993715040250025,-0.3106147993979708
0.0,-0.024752823095823856,-0.0023794786457961613,-0.005476671238297781,-0.09675378745963378,-0.024251854791498,0.03275447194947505,0.015415996485490415,-0.03208837850937011,-0.011864864632601425,-0.003501641838290787,-0.06390240182715594,-0.0008929204878465839,0.003241002156773052,0.011314775051354206,0.0012998571331506218,-0.0058360170812817675,0.013433588120016946,-0.12559699722677625,-0.2943711270864708,-0.23079550600313023
0.0,0.0,0.0,0.0,0.0,0.0,0.0,0.0,0.0,0.0,0.0,0.0,0.0,0.0,0.0,0.0,0.0,0.0,0.0,0.0182304569358908,0.00018335854570005904,0.003169587842264919,0.06008228142702122,-0.0006412338468119021,0.01092410539591833,0.0049474899962625545,6.648564027213032e-05,0.022954384218740197,-1.4122470510005841e-05,0.004603643868872251,0.00036408413067741825,0.008307362129086853,0.01866392386428669,0.00040573936024209474,0.001659065506452022,0.01681373178842907,0.1993465810561858,0.6285752673927579
0.0,0.0,0.0,0.0,0.0,0.0,0.0,0.0,0.0,0.0,0.0,0.0,0.0,0.0,0.0,0.0,0.0,0.0,0.0,-0.03343981387371854,-0.002890775909197382,-0.015416064903343624,-0.08290173160292379,-0.007366169735242221,-0.023181572095162972,0.0008702815141215536,-0.04233060387580385,-0.043603637682486915,-0.01070813682040118,-0.025653809799112092,-0.0021982007098435242,0.022736418971770325,-0.013076097527787076,-0.001325467377439645,-0.004947621372456119,-0.04839337902391012,0.0,-0.04514093669483101,0.0,-0.0055067036363236985,0.14017919493973152,-0.024806275705469907,-0.026066018065533905,-0.039250239663946744,-0.007091417744384427,-0.06942156332401678,-0.0034525338986363487,-0.04171329861451694,0.0,-0.09206207230810773,-0.03369172402188566,0.0023332241112754225,-0.007952141653834588,-0.08018387554245336
0.0,0.008673744925820848,-0.0005162391475137301,-0.002070083234212105,0.037629687244606344,-0.0006012992564660637,0.024539586868110877,0.009635932397024394,0.00034745245761990534,0.01909572386722979,0.00042074666513734624,-0.008934543364654064,-0.0011832905006231031,0.005650574604349662,0.03235554115375471,0.0,0.0003274217825343334,0.011666983373017874,0.17593302903777028,0.0935927647478636,0.5667740416225846
0.0,0.01710711798798728,-0.00026068606463762136,0.0033647446606324774,0.04617758947150738,-0.0018391438911342928,0.016584241412751586,0.005690752501502875,-0.0012855040248843238,0.02134292071877446,-2.401159742347911e-05,0.0015292242378929924,0.00019882626029328783,0.0072160374833280475,0.026183462500432683,0.0003861423971456532,5.6071014132155846e-05,0.018018759819930615,0.18340469478099966,0.17989888561353623,0.46938057978316805
0.0,0.0,0.0,0.0,0.0,0.0,0.0,0.0,0.0,0.0,0.0,0.0,0.0,0.0,0.0,0.0,0.0,0.0,0.0,0.01785847912740324,0.00019210643308728223,0.0033345571327126353,0.059589437698828296,-0.0006661727209951997,0.011290589331582376,0.005045991709226609,7.437806683857192e-05,0.022403770714179594,-1.4094479279659006e-05,0.004840128405114835,0.0003812562167917934,0.008696943615252162,0.017731539343506034,0.000424581061947368,0.0017369009674570546,0.016875475956130953,0.19980591257656155,0.6289878587577841
0.0,0.0,0.0,0.0,0.0,0.0,0.0,0.0,0.0,0.0,0.0,0.0,0.0,0.0,0.0,0.0,0.0,0.0,0.0,-0.026041144394403287,-0.0029814612560968763,-0.016086817207994493,-0.053642940337892187,-0.0068445210091953234,-0.02234217976948796,0.003987506125038043,-0.04321811372067649,-0.04143430324460921,-0.011135253800285213,-0.024489365974855803,-0.0021698886780657876,0.03471543190370247,-0.006304887081948127,-0.0012394995903008473,-0.004557027053176212,-0.045144263939044416,0.0,-0.03306363150631014,0.0,-0.005302757996818919,0.18947566415566325,-0.02535208316076876,-0.0255631992637515,-0.039547588542116104,-0.005725321209951199,-0.07068540545420546,-0.003418357665306811,-0.04134086065569799,0.0,-0.0953872363545912,-0.02888033110274382,0.0028384077805050623,-0.00807949479722643,-0.07889653325596765
0.0,0.006729102131382445,-0.0005733417676593358,-0.0022950053070557135,0.036890373281794724,-0.0006648293467942053,0.02562468036303813,0.010266915178306931,0.000391201837409706,0.01874130929851,0.00046758834739902243,-0.009916713985339812,-0.0013141333748084992,0.006284790548868424,0.03280264275694239,0.0,0.00036476953060614076,0.01165649285815855,0.17868301734709424,0.08721857371872925,0.5690565206163081
0.0,0.01687181316504479,-0.00026890243192098613,0.0034884569617230974,0.046247248306158194,-0.0018934675265606417,0.016445618898488196,0.00585600778597453,-0.001316087182949758,0.020844435056886258,-2.3166455218226126e-05,0.0016154211460589077,0.00020641438375421873,0.007474037344647971,0.02549763572904141,0.00039939867691278193,6.0936204084928204e-05,0.017946266123027344,0.18320258614714272,0.17965302990068693,0.4706360264321608
0.0,0.0,0.0,0.0,0.0,0.0,0.0,0.0,0.0,0.0,0.0,0.0,0.0,0.0,0.0,0.0,0.0,0.0,0.0,0.018529746401401096,0.00023284893693952555,0.0031371516289757616,0.06135481848236543,-0.000804308998521752,0.011636134925519266,0.006039590131603065,-0.00029176122656697625,0.023318938099578027,-1.66929940493785e-05,0.004030209146317075,0.0004620038990253168,0.01053765609085321,0.019382692150117512,0.0005143403247528567,0.002104534778138213,0.019272091650761578,0.2071113429266614,0.6111633503758223
0.0,0.0,0.0,0.0,0.0,0.0,0.0,0.0,0.0,0.0,0.0,0.0,0.0,0.0,0.0,0.0,0.0,0.0,0.0,-0.01800521008343122,-0.0030732622151328987,-0.01677792207296954,-0.021964104977662307,-0.006267781815543338,-0.021391160712345075,0.007342879999721865,-0.044088062810828624,-0.03900955821613542,-0.011573522134950087,-0.023183263188497217,-0.0021349386053654417,0.047570279082031174,0.0010139887280916928,-0.0011442266656488352,-0.004126334762440904,-0.04154691789290582,0.0,-0.019965238533563856,0.0,-0.005071945554634117,0.24228184333646532,-0.025889578947882307,-0.024968806763610737,-0.03978820390230344,-0.004239699310510973,-0.07190569718606324,-0.0033745476549526996,-0.04085514329626322,0.0,-0.09878157189189335,-0.02363028996134232,0.003377739571801038,-0.00820051872831721,-0.07734745952093611
0.0,0.004958829708213876,-0.000635508711452803,-0.0025416416175458047,0.03635776119231487,-0.0007352922589167107,0.02650179060623392,0.011143263611239332,0.0004365156251956794,0.018595662811955,0.0005184529076377458,-0.011423024489906246,-0.0014565996707141397,0.006971251089955187,0.034219060603550865,0.0,0.0004049371012148883,0.01195705824827263,0.18320300563473796,0.08181227489962221,0.5660670971574518
0.0,0.017185075054015835,-0.0002961030598929249,0.0034398724823585243,0.04564644613353609,-0.0020829897338089775,0.016356699072781006,0.006440583850240835,-0.001511973659601091,0.020622247419697974,-2.4625918916599594e-05,0.0007862600828167059,0.00022802323950909254,0.008246932176621712,0.026984779972400626,0.0004403986516399303,6.880953783743328e-05,0.018799289048693234,0.1875206563540514,0.17929326179493818,0.4639670034897971
0.0,0.0,0.0,0.0,0.0,0.0,0.0,0.0,0.0,0.0,0.0,0.0,0.0,0.0,0.0,0.0,0.0,0.0,0.0,0.018615700849110375,0.000272540378070616,0.003204867810956128,0.06134841460706763,-0.0009397864583100595,0.012561748883591264,0.006703774910137325,-0.0005386741450093919,0.023826207972326843,-1.9336775086016846e-05,0.0034951129515414406,0.0005407001742920469,0.01233196358046992,0.019800932610515302,0.000601866547046084,0.0024628952741938175,0.020511237211831197,0.21105502817671531,0.6011052261184299
0.0,0.0,0.0,0.0,0.0,0.0,0.0,0.0,0.0,0.0,0.0,0.0,0.0,0.0,0.0,0.0,0.0,0.0,0.0,-0.008992421113704739,-0.0030560611605616223,-0.016881443254567186,0.011769413497873946,-0.005438598308284743,-0.019618715451641584,0.010561539221643977,-0.04337666814580426,-0.035059597004355965,-0.0116049540173963,-0.020976051653074375,-0.0020203720852995048,0.05918899520009173,0.008584446744943568,-0.001003263394650191,-0.0035274360604938405,-0.036285109853791034,0.0,-0.005618441154475904,0.0,-0.0046461591333793305,0.2882925748166814,-0.025499522371859273,-0.023435950028050184,-0.03858022124574027,-0.0025400979778361743,-0.07053905320605833,-0.0032053445669936974,-0.038853073566494235,0.0,-0.0986898396487144,-0.017307163627895996,0.0038145671736224164,-0.00802579853001519,-0.07290277377185791
0.0,0.0022728191451438485,-0.0007320600802858282,-0.0029264894248433385,0.03303939837864958,-0.0008460493813953996,0.029411032611908746,0.012331358960806556,0.0005045360094697361,0.017855207580408795,0.0005973168304536904,-0.013896410509886745,-0.0016778833712707514,0.008033318488610674,0.036158951330211166,0.0,0.0004668201406842581,0.011332317550239838,0.18714617677653,0.06929624403582417,0.571408505494606
0.0,0.01725757804680684,-0.0003254768689208786,0.003563818163936906,0.0439031466586429,-0.0022885370270449524,0.01703075887296661,0.006932284477361576,-0.0016959324168037812,0.02023165938184947,-2.6590406845249914e-05,4.2036930523302145e-05,0.00025103811007493433,0.009074166503274677,0.02775255637442094,0.00048441103981857527,7.656075787789885e-05,0.018931906480915115,0.1899292616703456,0.17726597813345885,0.46287509001111254
0.0,0.0,0.0,0.0,0.0,0.0,0.0,0.0,0.0,0.0,0.0,0.0,0.0,0.0,0.0,0.0,0.0,0.0,0.0,0.017851669776447088,0.0003651385563098856,0.0037190754746672986,0.0585108138559933,-0.0012570882140463982,0.015528042684221647,0.008531930135586218,-0.0009643146131724233,0.025199080977042293,-2.5658435164945254e-05,0.0016216581130534917,0.0007243381342797545,0.01651947576132658,0.019669083531024263,0.0008061739935998913,0.0032992214446630314,0.022586655385263405,0.2140560318621857,0.5886962300860611
0.0,0.0,0.0,0.0,0.0,0.0,0.0,0.0,0.0,0.0,0.0,0.0,0.0,0.0,0.0,0.0,0.0,0.0,0.0,0.01740672302992472,-0.0022921242148803626,-0.013196536662079395,0.09991096219437816,-0.0019270954381850002,-0.010235724727141375,0.01675526223033007,-0.03127447080949117,-0.01618301432503153,-0.008964736047889518,-0.010102741179494867,-0.001237241386228443,0.07660114050696964,0.026969631633398758,-0.0003878226357410222,-0.0010852583259374606,-0.013585603757141945,0.0,0.03436255583627635,0.0,-0.0024078007331140242,0.3445892744439013,-0.018460939981862982,-0.013802290321574625,-0.026266056314900924,0.002636419635495836,-0.05029318083738143,-0.0019967398026761994,-0.024334935248397648,0.0,-0.07526960700718598,0.003796234651795255,0.0040960443788479635,-0.00567045151468912,-0.043807177098770356
0.0,-0.006099927765929434,-0.0010371908412359254,-0.004144437755473745,0.020805328249114265,-0.0011973359113766223,0.0400819699986655,0.016753558076858754,0.0007172508961989216,0.015134531548833444,0.0008464223808054077,-0.021316468520424764,-0.002377223701259093,0.011385875668576849,0.04355705715714602,0.0,0.0006619103457645651,0.008451400416500868,0.200475405571194,0.013367698741842635,0.5915155799145417
0.0,0.01672842890336969,-0.00039281532028195176,0.0040447373900689,0.03966203803960858,-0.002760732433288704,0.019435005533405762,0.00819280560436382,-0.0020868898007465543,0.019232998954964345,-3.152719125742455e-05,-0.0018252939676755614,0.0003034415076094835,0.010962306778193804,0.028207953995052472,0.0005850142803278539,9.349229652803062e-05,0.018177614169913904,0.19314208406605562,0.16679320973281575,0.4672771900847745
0.0,0.0,0.0,0.0,0.0,0.0,0.0,0.0,0.0,0.0,0.0,0.0,0.0,0.0,0.0,0.0,0.0,0.0,0.0,0.016819064473922413,0.0004291748700713883,0.004258145113308709,0.0578665260403517,-0.0016779838243313806,0.017822979154404832,0.009973128012572616,-0.0011631672441670563,0.026187028013727316,-3.0127874560756945e-05,-0.00025720575781388927,0.0008513606256088076,0.019301673070736762,0.020629517176518453,0.0009475347081143245,0.0038777665700952023,0.022210014345798685,0.21253866131633958,0.5830807022197704
0.0,0.0,0.0,0.0,0.0,0.0,0.0,0.0,0.0,0.0,0.0,0.0,0.0,0.0,0.0,0.0,0.0,0.0,0.0,0.024978161351846596,-0.002015117104206884,-0.011816043943353205,0.12432491388521165,-0.0008321079882378504,-0.007204493438806096,0.01826922170925293,-0.026990481657692925,-0.010176138978260404,-0.007985778869048759,-0.006626478942450943,-0.0009763151898313367,0.08024633366757364,0.03193511613535343,-0.00019487348272406558,-0.0003289984613570403,-0.0064838788333028,0.0,0.04566365555342041,0.0,-0.001685389460073293,0.3543674550926626,-0.015963761190119274,-0.010621874454939237,-0.022022109257443922,0.004137165586224635,-0.04316842189128733,-0.0015922444600356713,-0.019468772718155145,0.0,-0.06667377940455324,0.010058389830460148,0.004095783620414141,-0.004845316049506234,-0.03415774093709908
0.0,-0.008792707824580658,-0.00112232792925643,-0.00448439906534295,0.016654148492301884,-0.0015175256595891281,0.043172409460741586,0.018038526204828053,0.0007764300581515702,0.014698472257452064,0.0009159176327618597,-0.023855853942301938,-0.002572353930095557,0.012321003049550522,0.04564622663621282,0.0,0.0007163074746185717,0.006815428724083321,0.20208740839773703,-0.0029108528667728235,0.592825813444285
0.0,0.01642619791637142,-0.00042700442672549005,0.004367977381653103,0.03748116841504053,-0.003245551006767605,0.02091019894710497,0.008886365001848842,-0.002273026441729619,0.01872892006056478,-3.420778719043841e-05,-0.0032502062029583505,0.0003299041731579845,0.011893531305128442,0.029164191231270092,0.0006359746067082289,0.00010175212016654376,0.017102564615170127,0.19441755946876124,0.16050789491320738,0.4697466063303729
0.0,0.0,0.0,0.0,0.0,0.0,0.0,0.0,0.0,0.0,0.0,0.0,0.0,0.0,0.0,0.0,0.0,0.0,0.0,0.014873846590327944,0.0005092950335840434,0.004974113465361901,0.05575874562476056,-0.002131088129988852,0.020851403606231958,0.011634904398066496,-0.0014010600275175665,0.026994109421551053,-3.573104813138737e-05,-0.0021826072085729814,0.0010102902048839597,0.022824811021064748,0.021224809490869176,0.0011244088589315176,0.004580812776542106,0.021444788828127302,0.2106083299385332,0.5757512323751254
0.0,0.0,0.0,0.0,0.0,0.0,0.0,0.0,0.0,0.0,0.0,0.0,0.0,0.0,0.0,0.0,0.0,0.0,0.0,0.03199967730533722,-0.0017540654078389863,-0.010512545343456692,0.1469034076968228,0.00018966769068168082,-0.004368965350898589,0.019654348731766347,-0.022959180969278844,-0.004562910961295097,-0.007061980276310126,-0.003376977558915335,-0.0007317286550636804,0.08352978665069341,0.03651783953109022,-1.4756481019228047e-05,0.00037634793993171587,0.00014456432934778247,0.0,0.056132027990005114,0.0,-0.001009663636203017,0.3629775113631569,-0.013613548911772407,-0.007642439274484661,-0.01803519339888523,0.00553006753465872,-0.03646635741141506,-0.001212967404632354,-0.014905545362959441,0.0,-0.05856717621390954,0.015880787431134153,0.004089717843963421,-0.004069352953980646,-0.025115338723077942
0.0,-0.012373163866703405,-0.001192085867048659,-0.004762963727001276,0.01067292873069252,-0.0017665707133786345,0.04571656420287344,0.019096788487847637,0.0008249008702923715,0.013854244942623505,0.0009728582383746396,-0.026152235407607142,-0.002732236016303984,0.013087177645574162,0.046882748561555394,0.0,0.0007608744364625957,0.004232278742003597,0.19600363370674911,-0.022441131472853783,0.5763981133035341
0.0,0.015878533029368647,-0.0004693049831753163,0.004781859973929308,0.034564636735588204,-0.0037269129893138502,0.022840212078304375,0.009623327045901606,-0.0025011432085982797,0.018050540490183883,-3.7555082909449504e-05,-0.004673485783664302,0.0003626198286662033,0.01305678252767109,0.030104591703483775,0.0006990045742106466,0.0001119121959300471,0.015301886562055108,0.1944567523713822,0.15342078304865894,0.4752655816376107
0.0,0.0,0.0,0.0,0.0,0.0,0.0,0.0,0.0,0.0,0.0,0.0,0.0,0.0,0.0,0.0,0.0,0.0,0.0,0.0063799475128291944,0.002779009943689027,0.006395550908508791,0.05690369483559788,-0.01277072258588033,0.06909381469408632,0.0608739444211824,-0.00781446111051677,0.07449283196037601,-0.00019479602781211498,-0.060610776373819765,0.005512682081797697,0.12389056334119855,0.05710275131371864,0.006135301351589095,0.02482510633090239,0.07689960458242924,0.2544630882025672,-0.09276838900306926
0.0,0.0,0.0,0.0,0.0,0.0,0.0,0.0,0.0,0.0,0.0,0.0,0.0,0.0,0.0,0.0,0.0,0.0,0.0,0.0548352772792201,-0.00019515572160989223,-0.0023055083645858237,0.20972190333212354,0.0045899500727350695,0.009022784870380444,0.020941647729112445,0.00011883937904193708,0.020962132794386353,-0.0013392447673390515,0.011576858514006517,0.0005089941005049053,0.07767327406274484,0.047652012987796144,0.0007725398398332958,0.003354742047149165,0.02895184773826061,0.0,0.08814617182437835,0.0,0.002174088246499784,0.31290801297229115,-0.00010415270523913338,0.00716490719973501,0.003662247785959733,0.010257351451567467,0.0014902129779775395,0.0007298837506500195,0.008544849582659714,0.0,-0.009169335219280853,0.03738586549768965,0.0030770643172087103,0.00028842057495274704,0.020287307636712625
0.0,-0.03725635751225984,-0.0016947391535222143,-0.01626581079037288,-0.04217939357052297,-0.002940342331848275,0.0262806921514743,0.026974714206457126,0.0011733152142688412,0.00036823253960738007,0.0013831056634649342,-0.04765917807618013,-0.003884302018479946,0.018606514997728432,0.05493258318774307,0.0,0.001081828710025517,-0.0023176458307384087,0.10002611231332702,-0.26779171236958405,-0.34710942712847603
0.0,0.019837640604103028,-0.001056077941489595,0.0038898230279735945,0.022909113265893618,-0.008971154973981781,0.024601828847004834,0.020253082238437765,-0.005639087833891384,0.019350287016019662,-8.435872540475145e-05,-0.024379445707304024,0.0008161291431787689,0.029326989268479906,0.05121806080894601,0.0015730741079530476,0.00025212931906887947,0.0216547595814659,0.26353509881178766,0.09939698263842613,0.381168177794403
0.0,0.0,0.0,0.0,0.0,0.0,0.0,0.0,0.0,0.0,0.0,0.0,0.0,0.0,0.0,0.0,0.0,0.0,0.0,0.0034762525503932613,0.0026162604068376174,0.0053113217979921384,0.04511598241770589,-0.012060058505031392,0.06354485163839872,0.0572140962943975,-0.007362340739277093,0.0676847903477589,-0.00018338236990835896,-0.05867804426771271,0.005189836569665379,0.11661370467821125,0.05165082288029431,0.005775990295799699,0.023365694862034863,0.07101436162158996,0.20917524296766385,-0.19387829963345857
0.0,0.0,0.0,0.0,0.0,0.0,0.0,0.0,0.0,0.0,0.0,0.0,0.0,0.0,0.0,0.0,0.0,0.0,0.0,0.05532832582646673,-5.341038268888073e-05,-0.0015242010195689356,0.20946250948861167,0.0048489703702528095,0.009946821949911205,0.020479571182310717,0.0021346838400527713,0.02262006463180771,-0.0008018072396267287,0.012567471551889474,0.0006035771047075198,0.07502929302563417,0.04731842952006295,0.0008202198718063441,0.0035232586242778504,0.030677681892081116,0.0,0.08852810220653917,0.0,0.002392972414722799,0.29994025817653935,0.0010806483609178655,0.008263781242317952,0.0054600628238851145,0.010389450419524205,0.004770153398230849,0.0008798343782182939,0.010362037756873358,0.0,-0.004595862572967673,0.038241371362672506,0.002904022772479117,0.0006617688841892456,0.023702858613847494
0.0,-0.03511688440087793,-0.0016888323431117648,-0.01678582415584193,-0.035257450250007344,-0.0029561448478167035,0.023837647163716877,0.027032672799990068,0.001169261466814309,0.0009318128696342412,0.0013782870405255833,-0.04812961111520235,-0.0038707634526177186,0.01854172593234646,0.057621168174429076,0.0,0.001078065718552069,-0.0005078104884559181,0.11225476081098754,-0.2599224247478369,-0.35183830719665493
0.0,0.020013049729146398,-0.001173272644896031,0.0040754552347197345,0.01806208245393987,-0.009987627493917314,0.026372447002975884,0.02216060100971804,-0.006265251971818964,0.019614126203578067,-9.371472493669636e-05,-0.027581264087908258,0.00090670081101584,0.032579494224252,0.05379868003597196,0.0017476444030246104,0.0002801190181976322,0.022086246972023705,0.27203542224384264,0.08930566008691061,0.37176837155082326
0.0,0.0,0.0,0.0,0.0,0.0,0.0,0.0,0.0,0.0,0.0,0.0,0.0,0.0,0.0,0.0,0.0,0.0,0.0,0.0011348524611661931,0.0024797181562439914,0.004371388513245244,0.03546131283045313,-0.011465421167358311,0.05882528549797433,0.054140177757483636,-0.006983260398004957,0.06205737424504824,-0.0001738063930277568,-0.05712555976206393,0.004918978263362561,0.11050771501946656,0.047184058466446806,0.0054745383222378225,0.02214105273901097,0.06614855657176494,0.1711987774671102,-0.27811915985327446
0.0,0.0,0.0,0.0,0.0,0.0,0.0,0.0,0.0,0.0,0.0,0.0,0.0,0.0,0.0,0.0,0.0,0.0,0.0,0.05573559528465915,6.874582612268265e-05,-0.0008504791535130793,0.20917243643963548,0.005070622389472932,0.010739886280544113,0.02007490114888208,0.003871019998303549,0.02404148496341702,-0.00033845285948156615,0.013417070375723162,0.0006848856722173616,0.07272718418066206,0.047015951248406886,0.0008610442086776825,0.0036673465804758147,0.03215505197507173,0.0,0.0888290737860436,0.0,0.002580820314483703,0.2886708844633215,0.002101225308681918,0.009208034026772833,0.007007470548876912,0.01049997623480863,0.007594899334649864,0.0010087643808907136,0.011924581300515663,0.0,-0.0006535286263115035,0.03896639284660102,0.0027539934195360627,0.0009832656722643547,0.02663844154814285
0.0,-0.03318298729545972,-0.0017216840296312061,-0.01758499481263057,-0.02730116540474026,-0.0030349989363520785,0.022374182289473785,0.027683074572866475,0.001192035561026762,0.002046773959565252,0.0014050995648857395,-0.049587531446059055,-0.0039460584918365425,0.018902455871212837,0.061519323304458494,0.0,0.0010990428076389578,0.0012977362322034193,0.1301954512129891,-0.25384488587203446,-0.3419980275541833
0.0,0.020069178164494494,-0.0013203059787048413,0.0043767240624731476,0.01136391694922491,-0.011257085091666973,0.028860527445297084,0.024648276758442444,-0.007050735009921788,0.019544817280026893,-0.00010545433866239888,-0.0314603373995306,0.0010203314451905116,0.036660655258887405,0.05705493866268378,0.001966660552466818,0.0003152321833301216,0.02267892174813785,0.2828033689939897,0.07685315472081002,0.3604936703875476
0.0,0.0,0.0,0.0,0.0,0.0,0.0,0.0,0.0,0.0,0.0,0.0,0.0,0.0,0.0,0.0,0.0,0.0,0.0,-0.00043723572844150656,0.0023724926901372892,0.0035672092755762476,0.028429348753688053,-0.01100192373553887,0.054979190741477904,0.05171895260553926,-0.006686086069535867,0.0579521016922889,-0.0001662859339234716,-0.05590044328828079,0.004706275394550433,0.10571074612333814,0.04379643553847386,0.00523781026900807,0.021178834414370944,0.06256173087638367,0.14222242255613257,-0.3412848253977636
0.0,0.0,0.0,0.0,0.0,0.0,0.0,0.0,0.0,0.0,0.0,0.0,0.0,0.0,0.0,0.0,0.0,0.0,0.0,0.05576861142257417,0.00017301915569566424,-0.0002684157980148279,0.20773823267426694,0.005231790808044773,0.011358503167101358,0.019614388998536,0.005336764237692325,0.02512307644661541,6.046601553143716e-05,0.014068950501981852,0.0007506683685032654,0.0703424996828979,0.046490284354762774,0.0008911416247384638,0.0037700126938710566,0.033238590174016,0.0,0.08858342765266072,0.0,0.0027271386434452125,0.277379026811941,0.002963741469340233,0.009964871776162475,0.008293562961352577,0.010535156439306602,0.009972080833677647,0.0011135130846419423,0.013195769944922624,0.0,0.002727953602749115,0.039366712115651174,0.0026098381018175324,0.0012531494529199484,0.029002641638226825
0.0,-0.03170712188869657,-0.0018004866103073947,-0.018776505991938985,-0.018762008608522594,-0.0031913776888426266,0.021821807890531578,0.029052034071779035,0.0012466197275558324,0.005264137277464571,0.001469413230295278,-0.05146911946204923,-0.004126671917627467,0.01976767475723625,0.06754799701142945,0.0,0.0011493517912908265,0.00448495850257061,0.15824246627917643,-0.2399082091659571,-0.32012676478421687
0.0,0.020515841847404258,-0.0015317491335190652,0.004894177126190786,0.0023713599661680765,-0.013075481314599858,0.0327669532568827,0.02834208423412794,-0.008180176998682571,0.018329893486168126,-0.00012233849687011815,-0.03764955588680378,0.0011837378909313378,0.04253029135507019,0.061888416878518995,0.002281618251445826,0.0003657235247753245,0.022602632660299538,0.2981164059501061,0.05464568693188737,0.3485052589422013
0.0,0.0,0.0,0.0,0.0,0.0,0.0,0.0,0.0,0.0,0.0,0.0,0.0,0.0,0.0,0.0,0.0,0.0,0.0,-0.0007475124801836279,0.0023785385844506614,0.003549611599752541,0.028139833238188968,-0.011060820303626097,0.05474656421910731,0.05177412195155975,-0.006707702711234279,0.05815236080616955,-0.0001667050019295033,-0.056423889278998815,0.004718267215463337,0.10596243936790609,0.04455509010545975,0.00525115449577925,0.021228199497947187,0.06243924449291319,0.1393228853469997,-0.3425812362480669
0.0,0.0,0.0,0.0,0.0,0.0,0.0,0.0,0.0,0.0,0.0,0.0,0.0,0.0,0.0,0.0,0.0,0.0,0.0,0.05567659018514536,0.0002617944741685607,0.00022979746517120064,0.20606413609925694,0.00535830079797497,0.01186289785858712,0.01917838200836692,0.006578393724213174,0.02599361163234183,0.00040139094627675113,0.014595939298105777,0.0008052906291648204,0.06815204338070192,0.04594062353898505,0.0009149519008526836,0.003849658082261949,0.03409329102120528,0.0,0.08818240902543759,0.0,0.0028463530978433066,0.26712697897837717,0.003694758406233002,0.010590443210909694,0.009375223838367098,0.010542517803169489,0.011982948051037414,0.001200666929573593,0.014254118714699428,0.0,0.005613066557722598,0.03962408213280308,0.0024809653155750616,0.0014811842885463944,0.030961376692487195
0.0,-0.035045116783654025,-0.0023457947047191754,-0.022901584927658113,-0.002724027574834915,-0.004175298178713803,0.03390407530417296,0.03795219801688453,0.001624203573033278,0.012734110676537218,0.0019144514520235663,-0.06492340229635256,-0.005376504730268042,0.025754693503715807,0.09524481396208641,0.0,0.0014974576535529806,0.00976478856836614,0.2617654538186676,-0.2297112572574478,-0.15053298994104142
0.0,0.022617411890028336,-0.002010671860492126,0.005276271001542276,-0.014155831187729439,-0.017178924950501218,0.037281120851345335,0.036956503428422896,-0.01073810346691621,0.01650386560942742,-0.00016058538949409023,-0.052133933570298885,0.0015538533036914433,0.055826555987242614,0.07338908650369376,0.002995000688551893,0.0004800797128243469,0.02535244912287723,0.3384892512762584,0.0025439390261764584,0.28424021196566324
0.0,0.0,0.0,0.0,0.0,0.0,0.0,0.0,0.0,0.0,0.0,0.0,0.0,0.0,0.0,0.0,0.0,0.0,0.0,-0.0003398785897631528,0.002408153903447594,0.0035690137258613205,0.03049365324403682,-0.01122720938403115,0.05508193454229786,0.05234757443873093,-0.006795474106970488,0.05957029560073568,-0.0001687763042874318,-0.057219224331287406,0.004777013400429669,0.10726534658148393,0.04658252807345452,0.005316533720590675,0.02148823425578042,0.06341821219238776,0.14401175195303,-0.3278243177954049
0.0,0.0,0.0,0.0,0.0,0.0,0.0,0.0,0.0,0.0,0.0,0.0,0.0,0.0,0.0,0.0,0.0,0.0,0.0,0.055572402193892236,0.0003375378759913451,0.0006554434856211266,0.2045389604706838,0.005463951770409177,0.012288487696464578,0.01879698813805296,0.007636417608042985,0.02672560453211811,0.0006925464237453607,0.015039582855128427,0.0008515988903154124,0.06624889853726613,0.045449824531401554,0.0009348792496553387,0.00391595292940474,0.0348080355450828,0.0,0.08779924795363005,0.0,0.0029469223832524886,0.25824343527407906,0.004317758253125124,0.011120169389488042,0.010295261979252752,0.010543970423311951,0.013695848971926328,0.0012745938309728054,0.015151996357448684,0.0,0.008075983234305554,0.0398258354560628,0.0023696976704214914,0.001675373250410281,0.032621018305590534
0.0,-0.034714351880932796,-0.0026590042924815966,-0.024803939623950205,0.014404736257332264,-0.004745624454119641,0.0424803483478747,0.04309447934027458,0.0018410841962322642,0.0193195838945157,0.0021700692569501614,-0.07171890752964256,-0.006094373384422977,0.029193480489566867,0.11369237748525353,0.0,0.0016974013544618872,0.01407510071050929,0.34095941931874485,-0.1942046617538318,0.03803315251404779
0.0,0.021714402735348685,-0.002321682277411256,0.005188592468639028,-0.033204062859233115,-0.019848133332960056,0.03853643020625483,0.04247839082351768,-0.012399292133948766,0.011772632525483077,-0.00018542160801120582,-0.06288565123999135,0.0017942056572767787,0.06446067815170618,0.07705305036177154,0.003458269043075467,0.0005543443743541825,0.025251640999311147,0.3409623893501411,-0.06169766942175776,0.17412767990162828
0.0,0.0,0.0,0.0,0.0,0.0,0.0,0.0,0.0,0.0,0.0,0.0,0.0,0.0,0.0,0.0,0.0,0.0,0.0,-0.021373819011938137,0.0007372091461044744,-0.0016105172106257524,-0.060466902465724844,-0.005704396984516746,0.015629348453477243,0.017909186013639614,-0.005433690395987086,0.005481654312076806,-0.00045442031622545996,-0.032323649673210005,0.0015751844187138879,0.03663224820836354,-0.0003231807410386787,0.001923089753491358,0.007469515384004887,0.01075792304393579,-0.15786114653421254,-0.6162969705723215
0.0,0.0,0.0,0.0,0.0,0.0,0.0,0.0,0.0,0.0,0.0,0.0,0.0,0.0,0.0,0.0,0.0,0.0,0.0,0.03595304837335468,-0.001624291261296706,-0.01006819595556975,0.15176450813584905,0.0008200471902992528,-0.0030698448037622525,0.018091488319206386,-0.02076522050440312,-0.004280448891087568,-0.0066589668225458375,-0.0019243685675138544,-0.0005872981127487019,0.08592000795437184,0.034806266956724924,9.582486024609241e-05,0.0008259131568073934,0.0008050852355160795,0.0,0.05907684846836381,0.0,-0.0006003744242530047,0.36804797929118527,-0.012542143795821126,-0.006090494934178334,-0.020273221748265912,0.006539161750298609,-0.03937499729505899,-0.0009887559710967512,-0.012790905506816668,0.0,-0.05426262393333933,0.013034124609607511,0.0041579637190641,-0.003656457320553657,-0.020172547645682777
0.0,-0.038788954662447805,-0.0011558710459895255,-0.012025602148197033,-0.05355766279249365,-0.003373117280924012,0.011780528110735938,0.015012436975214262,-0.0019464436291321229,-0.012297763203863906,0.0007874414663148373,-0.03467382262087573,-0.002672020404223796,0.008065732005510163,0.025401551937882554,0.0,0.00028033122444534657,-0.009633220805166712,-0.03683790942056671,-0.257437712541232,-0.4742363830321776
