0.0,0.0,0.0,0.0,0.0,0.0,0.0,0.0,0.0,0.0,0.0,0.0,0.0,0.0,0.0,0.0,0.0,0.0,0.0,0.0,0.0,0.0,0.0,0.0,0.0,0.0,0.0,0.0,0.0,0.0,0.0,0.0,0.0,0.0,0.0,0.0,0.0,0.0
0,0,0,0,0,0,0,0,0,0,0,0,0,0,0,0,0,0,0,0,0,0,0,0,0,0,0,0,0,0,0,0,0,0,0,0,0,0,0,0,0,0,0,0,0,0,0,0,0,0,0,0,0,0
0.0,0.0,0.0,0.0,0.0,0.0,0.0,0.0,0.0,0.0,0.0,0.0,0.0,0.0,0.0,0.0,0.0,0.0,0.0,0.0,0.0
0.0,0.0,0.0,0.0,0.0,0.0,0.0,0.0,0.0,0.0,0.0,0.0,0.0,0.0,0.0,0.0,0.0,0.0,0.0,0.0,0.0
0.0,0.0,0.0,0.0,0.0,0.0,0.0,0.0,0.0,0.0,0.0,0.0,0.0,0.0,0.0,0.0,0.0,0.0,0.0,0.0,0.0,0.0,0.0,0.0,0.0,0.0,0.0,0.0,0.0,0.0,0.0,0.0,0.0,0.0,0.0,0.0,0.0,0.0
0,0,0,0,0,0,0,0,0,0,0,0,0,0,0,0,0,0,0,0,0,0,0,0,0,0,0,0,0,0,0,0,0,0,0,0,0,0,0,0,0,0,0,0,0,0,0,0,0,0,0,0,0,0
0.0,0.0,0.0,0.0,0.0,0.0,0.0,0.0,0.0,0.0,0.0,0.0,0.0,0.0,0.0,0.0,0.0,0.0,0.0,0.0,0.0
0.0,0.0,0.0,0.0,0.0,0.0,0.0,0.0,0.0,0.0,0.0,0.0,0.0,0.0,0.0,0.0,0.0,0.0,0.0,0.0,0.0
0.0,0.0,0.0,0.0,0.0,0.0,0.0,0.0,0.0,0.0,0.0,0.0,0.0,0.0,0.0,0.0,0.0,0.0,0.0,0.0,0.0,0.0,0.0,0.0,0.0,0.0,0.0,0.0,0.0,0.0,0.0,0.0,0.0,0.0,0.0,0.0,0.0,0.0
0,0,0,0,0,0,0,0,0,0,0,0,0,0,0,0,0,0,0,0,0,0,0,0,0,0,0,0,0,0,0,0,0,0,0,0,0,0,0,0,0,0,0,0,0,0,0,0,0,0,0,0,0,0
0.0,0.0,0.0,0.0,0.0,0.0,0.0,0.0,0.0,0.0,0.0,0.0,0.0,0.0,0.0,0.0,0.0,0.0,0.0,0.0,0.0
0.0,0.0,0.0,0.0,0.0,0.0,0.0,0.0,0.0,0.0,0.0,0.0,0.0,0.0,0.0,0.0,0.0,0.0,0.0,0.0,0.0
0.0,0.0,0.0,0.0,0.0,0.0,0.0,0.0,0.0,0.0,0.0,0.0,0.0,0.0,0.0,0.0,0.0,0.0,0.0,0.0,0.0,0.0,0.0,0.0,0.0,0.0,0.0,0.0,0.0,0.0,0.0,0.0,0.0,0.0,0.0,0.0,0.0,0.0
0.0,0.0,0.0,0.0,0.0,0.0,0.0,0.0,0.0,0.0,0.0,0.0,0.0,0.0,0.0,0.0,0.0,0.0,0.0,0.0,0.0,0.0,0.0,0.0,0.0,0.0,0.0,0.0,0.0,0.0,0.0,0.0,0.0,0.0,0.0,0.0,0.0,0.0,0.0,0.0,0.0,0.0,0.0,0.0,0.0,0.0,0.0,0.0,0.0,0.0,0.0,0.0,0.0,0.0
0.0,0.0,0.0,0.0,0.0,0.0,0.0,0.0,0.0,0.0,0.0,0.0,0.0,0.0,0.0,0.0,0.0,0.0,0.0,0.0,0.0
0.0,0.0,0.0,0.0,0.0,0.0,0.0,0.0,0.0,0.0,0.0,0.0,0.0,0.0,0.0,0.0,0.0,0.0,0.0,0.0,0.0
0.0,0.0,0.0,0.0,0.0,0.0,0.0,0.0,0.0,0.0,0.0,0.0,0.0,0.0,0.0,0.0,0.0,0.0,0.0,-0.027654730386210625,0.0,-0.0019132806412423663,-0.07938367481694271,-0.0003157431199197605,-0.00439066338165711,-0.00273513383230581,-0.000710323122915174,-0.019826880857197193,-0.0003805980657269908,-0.008972884869700885,-0.0009716361874818419,-0.0010551384343737151,-0.032729207015419225,-0.00020912529097102692,-0.0018487715189814315,-0.01388165608686966,-0.2352166345203933,-0.567764290221639
0.0,0.0,0.0,0.0,0.0,0.0,0.0,0.0,0.0,0.0,0.0,0.0,0.0,0.0,0.0,0.0,0.0,0.0,0.0,-0.054137202511558846,0.0,0.0,-0.16858372696024973,0.0,0.0,-0.0052077257653273794,0.0,-0.06697521091675109,0.0,-0.018045734170519617,0.0,-0.018045734170519617,-0.11723169333948077,0.0,0.0,-0.05171464563702137,0.0,-0.041661806122619036,0.0,0.0,-0.3194071802734126,0.0,0.0,0.0,0.0,-0.05554907483015871,0.0,0.0,0.0,0.0,-0.08332361224523807,0.0,0.0,0.0
0.0,-0.027795175474794473,0.0,-0.00018105514302342387,-0.05659122223274262,-0.0005431654290702717,-0.004481114789829741,-0.001878447108868023,-0.000739308500678981,-0.016135727195038824,0.0,-0.010561550009699732,0.0,-0.0014786170013579615,-0.024180262533745608,0.0,-0.0034460828888791674,-0.012946293840095003,-0.16349279415015178,-0.18123619816644732,-0.4942805404539472
0.0,-0.03271083970703088,0.0,-0.001630878969209937,-0.05197050838829673,0.0,-0.005141151798176088,-0.003954049419227357,-0.0002899340389706554,-0.032139443727630924,-0.00037277233581941416,-0.011097743080957137,-0.0007455446716388283,-0.001335767536686234,-0.030202728724965957,-0.00037277233581941416,-0.0038830451647855644,-0.014266711368686033,-0.21248023141706607,-0.23391464072668236,-0.36345302742392877
0.0,0.0,0.0,0.0,0.0,0.0,0.0,0.0,0.0,0.0,0.0,0.0,0.0,0.0,0.0,0.0,0.0,0.0,0.0,-0.021577465887818753,0.0,-0.004085798552078344,-0.059837070967500156,-0.0006742674098030795,-0.00937623352305979,-0.005840860776451058,0.00856108332104283,-0.01953610543639593,-0.0008127647310858728,-0.01843018333914229,-0.002074922853650172,0.0014553073777122368,-0.031109348464870096,-0.0004465857191225047,-0.0039480397347631925,-0.02464167804720679,-0.2740302023892943,-0.5133474313397518
0.0,0.0,0.0,0.0,0.0,0.0,0.0,0.0,0.0,0.0,0.0,0.0,0.0,0.0,0.0,0.0,0.0,0.0,0.0,-0.05413720177477732,0.0,0.0,-0.16858372466590557,0.0,0.0,-0.005207725694452715,0.0,-0.06697521000525038,0.0,-0.018045733924925776,0.0,-0.018045733924925776,-0.11723169174401331,0.0,0.0,-0.051714644933209694,0.0,-0.04166180555562172,0.0,0.0,-0.31940717592643314,0.0,0.0,0.0,0.0,-0.05554907407416228,0.0,0.0,0.0,0.0,-0.08332361111124344,0.0,0.0,0.0
0.0,-0.024781265412157857,0.0,-0.0005074608595073734,-0.0025366931534421913,-0.0015223825785221268,-0.01255965627280753,-0.005264906417389024,0.0004483910175097708,-0.005867361092175767,0.0,-0.029601883471263628,0.0,0.004710983398349292,-0.02899676661625965,0.0,-0.009658671692623674,-0.025241990733326582,-0.14848411591671934,-0.19821528014844186,-0.5013200177111646
0.0,-0.03229519356667222,0.0,-0.0022811639106695594,-0.04121114964396235,0.0,-0.007191097661253568,-0.005530658624235599,0.004067777219834401,-0.031866236887155584,-0.0005214088938673252,-0.015017629337258314,-0.0010428177877346504,-0.0004229559105631868,-0.025572694855071652,-0.0005214088938673252,-0.005431342644451317,-0.016697908691116935,-0.21282042372008472,-0.2428014351174558,-0.35456622304001706
0.0,0.0,0.0,0.0,0.0,0.0,0.0,0.0,0.0,0.0,0.0,0.0,0.0,0.0,0.0,0.0,0.0,0.0,0.0,0.0260454479842494,0.0,-0.009987058382702162,0.08647186970548974,-0.0016481350956060452,-0.01828917209130641,-0.014277017536750362,0.031144793866203228,0.02339886967570268,-0.001986668876914362,-0.04430796998412238,-0.0010278077937200209,0.01702841282373374,-0.013448459956066295,-0.001091604882841999,-0.009650329752124282,-0.037300112721257855,-0.16851773126550407,0.494132988020694
0.0,0.0,0.0,0.0,0.0,0.0,0.0,0.0,0.0,0.0,0.0,0.0,0.0,0.0,0.0,0.0,0.0,0.0,0.0,-0.05296034191256327,0.0,0.0,-0.16409741866109465,0.0,0.0012486126026681839,-0.005454848412624096,0.0,-0.06141310299612236,0.0,-0.018902059906855943,0.0012486126026681839,-0.01640483470151957,-0.12029747350551269,0.0,0.0,-0.0516714398462478,0.0,-0.03489849908231548,0.0,0.0,-0.3258237477556005,0.0,0.0,0.0,0.0,-0.049444761515979714,0.0,0.0,0.008740288218677287,0.0,-0.08727757460198554,0.0,0.0,0.0
0.0,0.02344883280498721,0.0,-0.0019852176423274595,0.3135282164063856,-0.0059556529269824176,-0.04913413664760499,-0.02059663303914741,0.005008347999788808,0.0728455183675222,0.0,-0.11580436246910268,0.0,0.03310919736197439,-0.044718312403503345,0.0,-0.0377853091256327,-0.05803954105807471,0.08612790063569734,-0.10842342831239296,-0.0230957416994528
0.0,-0.03333757034228603,0.0,-0.004743409985736553,0.0003713139981035421,0.0,-0.013717686495641042,-0.011500349108275585,0.014440996181888356,-0.024665171959065722,-0.0010842079967397769,-0.030551804387401363,-0.0015008014643121807,0.008036774851094788,-0.0188313390689298,-0.0010842079967397769,-0.011293833299372637,-0.023216192083836885,-0.21772996896163804,-0.2800719287741746,-0.303613702046901
0.0,0.0,0.0,0.0,0.0,0.0,0.0,0.0,0.0,0.0,0.0,0.0,0.0,0.0,0.0,0.0,0.0,0.0,0.0,-0.01412795622925154,0.0,-0.008049759568522583,-0.04415645818859095,-0.0012357026607220723,-0.015605734275300853,-0.01070430974036801,0.01769936196396599,-0.008167378054714125,-0.001489521110084791,-0.037318532173674146,-0.0011409948827978548,0.006742316385632781,-0.0428811907597853,-0.0008184396180757591,-0.008290882958252506,-0.03475329776751426,-0.3756881300968934,-0.37107351941645944
0.0,0.0,0.0,0.0,0.0,0.0,0.0,0.0,0.0,0.0,0.0,0.0,0.0,0.0,0.0,0.0,0.0,0.0,0.0,-0.056848593332145585,0.0,-0.0013951134457084278,-0.1786987252656684,0.0,-0.0021739302334577376,-0.004037192941915866,0.0,-0.0678593074882056,0.0,-0.01820427967333589,-0.0007788167877493102,-0.0200928471385215,-0.10401912841576325,0.0,-0.0013951134457084278,-0.044467999800934736,0.0,-0.07332211818263325,0.0,0.0,-0.2800088384078356,0.0,0.0,0.0,0.0,-0.05706169855382897,0.0,0.0,-0.0054517175142451725,0.0,-0.08412667531057182,0.0,0.0,0.0
0.0,-0.013493568215927731,0.0,-0.0009120341279542034,0.07636908098392967,-0.0027361023838626303,-0.02257284466686675,-0.009462354077524921,0.001403423445119785,0.01478676004657471,0.0,-0.0542222982857869,0.0,0.01082614544636862,-0.03718531382142666,0.0,-0.017506101419379867,-0.032672688306170955,-0.10014637317426697,-0.19462125658992105,-0.41104536701415095
0.0,-0.03594856637454329,0.0,-0.0028423351253696713,-0.028409387034154836,0.0,-0.008565115540971585,-0.007116154927635862,0.0053231484827060424,-0.03196199280861537,-0.0006708832928410854,-0.01932287293353723,-0.0011093354262512495,0.002484771341009221,-0.0283264856902926,-0.0006708832928410839,-0.006708401319818129,-0.018376247805442485,-0.22247373931906425,-0.25653721116250106,-0.32311426772699037
0.0,0.0,0.0,0.0,0.0,0.0,0.0,0.0,0.0,0.0,0.0,0.0,0.0,0.0,0.0,0.0,0.0,0.0,0.0,0.0258695551980992,0.0,-0.01599052594147427,0.04943480998463172,-0.0015661492068656361,-0.028827566394553375,-0.012426705442725646,0.04122268607863934,0.028866987789130983,-0.002788362999995911,-0.07541683699782077,0.00033947944709453496,0.015986999941254586,-0.03498996131713264,-0.0015321076910708154,-0.017396786993152294,-0.0545515038141926,-0.44640730645475113,0.1461977864782584
0.0,0.0,0.0,0.0,0.0,0.0,0.0,0.0,0.0,0.0,0.0,0.0,0.0,0.0,0.0,0.0,0.0,0.0,0.0,-0.05544893847450634,0.0,-0.0007077104235097813,-0.17338293085561293,0.0,-0.0008340021180394672,-0.004708287624532572,0.0,-0.06657394801678644,0.0,-0.01839052929797104,-0.00012629169452968615,-0.018782736542989075,-0.11189960500198037,0.0,-0.0007077104235097813,-0.04837535366123938,0.0,-0.05593777817820409,0.0,0.0,-0.3028097800892656,0.0,0.0,0.0,0.0,-0.055065896084371346,0.0,0.0,-0.0008840418617078039,0.0,-0.08524054792165806,0.0,0.0,0.0
0.0,0.025473656400639564,0.0,-0.0009253382862188775,0.19099695476042586,0.0018887604795814483,-0.022902122583917373,0.001765157943437189,0.004119658794610263,0.05563733237001364,0.0,-0.055079150082332294,0.0,0.013890010314335786,-0.005294616587817866,0.0,-0.01774157029268298,-0.025209901812198534,0.19438586859536783,0.05861812472718402,0.3259698453334487
0.0,-0.01524962382171167,0.0,-0.006010427561102025,0.16398559983163274,0.007393550748018384,-0.018468716451638917,0.0006794619792088024,0.02293425916448267,0.02577568236640879,-0.001709951076647433,-0.04109354242839464,-0.002230445406375,0.024793520868792458,0.016974387998383234,-0.0017099510766474303,-0.013925434907841297,-0.023940446702638486,0.13887324070255283,0.009781722272038773,0.46421443610463076
0.0,0.0,0.0,0.0,0.0,0.0,0.0,0.0,0.0,0.0,0.0,0.0,0.0,0.0,0.0,0.0,0.0,0.0,0.0,-0.008754711929638599,0.0,-0.008539256119186527,-0.04381674370265773,-0.0010476231082033071,-0.01599183495472994,-0.006763246475712822,0.016982266777020156,-0.0014532776563191704,-0.0014556623088979289,-0.04086663623951241,-0.0002116138084771992,0.005164912669205574,-0.03926759821749018,-0.0007998353941246784,-0.009429157140550079,-0.03474511023872606,-0.38719562785299416,-0.37747105585013807
0.0,0.0,0.0,0.0,0.0,0.0,0.0,0.0,0.0,0.0,0.0,0.0,0.0,0.0,0.0,0.0,0.0,0.0,0.0,-0.05750076915067978,0.0,-0.0017592601002682031,-0.1815363482870093,0.0,-0.0032688870519944476,-0.003586419406248604,0.0,-0.06981699976193174,0.0,-0.017708675266756128,-0.0015096269517262454,-0.021130031711973394,-0.09823958570714496,0.0,-0.0017592601002682031,-0.04215553468307956,0.0,-0.0837624770652382,0.0,0.0,-0.2642313655216656,0.0,0.0,0.0,0.0,-0.05939781502636064,0.0,0.0,-0.010567388662083718,0.0,-0.08201235190373247,0.0,0.0,0.0
0.0,-0.018763503992002422,0.0,-0.0007256506948218199,0.03531461068812699,-0.004975864387077556,-0.01795985469684013,0.0006313064047057652,-0.001334734360663378,0.013528590602680196,0.0,-0.044121281342213256,0.0,0.006304613705952716,-0.03439068456898167,0.0,-0.014052245196410084,-0.03633575428649432,-0.09392283714041065,-0.20642359107861072,-0.47115500156200796
0.0,-0.06150865103371269,0.0,-0.007076331947765007,0.06893366771463176,0.0027661236934523074,-0.022020004251995934,-0.005011329421204013,0.015019061268474479,-0.02655951728646495,-0.001948910691502203,-0.04943945956566431,-0.0028941721718159113,0.0207074397939688,-0.03453119614218883,-0.0019489106915022024,-0.01640785375617407,-0.0483872427012976,-0.19029181177927024,-0.3279178939694048,-0.09654262125260105
0.0,0.0,0.0,0.0,0.0,0.0,0.0,0.0,0.0,0.0,0.0,0.0,0.0,0.0,0.0,0.0,0.0,0.0,0.0,-0.019555480496645027,0.0,-0.0050806390208848785,-0.0701198041942399,-0.0007787018341119942,-0.00975258897924514,-0.004127444457817029,0.006471433452189444,-0.011111959937440064,-0.0008441669291952037,-0.023812888578073774,-0.00041207010875762373,0.0006280547361610421,-0.03592789022239079,-0.00046384012582633414,-0.005726503546466517,-0.02466958645988739,-0.3095872202548172,-0.4708861193101338
0.0,0.0,0.0,0.0,0.0,0.0,0.0,0.0,0.0,0.0,0.0,0.0,0.0,0.0,0.0,0.0,0.0,0.0,0.0,-0.05860334383250508,0.0,-0.0023253174913269443,-0.18591936675595513,0.0,-0.004579633499509016,-0.0029823127889098736,0.0,-0.07156044728873445,0.0,-0.01734095097581215,-0.0022543160081820736,-0.022392981187166767,-0.09088194192554555,0.0,-0.0023253174913269443,-0.0388054699612978,0.0,-0.09873939306765298,0.0,0.0,-0.2434524967112593,0.0,0.0,0.0,0.0,-0.06172784786894994,0.0,0.0,-0.01578021205727452,0.0,-0.08027144950113521,0.0,0.0,0.0
0.0,-0.027297428448529868,0.0,-0.00038374086575856557,-0.025429875639119276,-0.005582925147631224,-0.008417041234657136,-1.0322913879553162e-05,-0.002792715500258683,-0.005880314051146902,0.0,-0.02178264703383564,0.0,0.0012368332811938932,-0.02912512551812055,0.0,-0.007494826623369523,-0.02678773306424341,-0.14706672484314298,-0.19582048766123214,-0.49485263165483356
0.0,-0.04808739115595834,0.0,-0.003832752216568757,-0.0037218122841366974,-0.0004593877774341732,-0.011938686818797072,-0.004629915414329833,0.004184893595474277,-0.033762688991413436,-0.001034396425873817,-0.02733160195770198,-0.0016559705918752386,0.008419426106410322,-0.037148649085173104,-0.0010343964258738177,-0.008891217361281529,-0.0328742152275182,-0.22147275332761815,-0.2880639639699761,-0.2614129703708177
0.0,0.0,0.0,0.0,0.0,0.0,0.0,0.0,0.0,0.0,0.0,0.0,0.0,0.0,0.0,0.0,0.0,0.0,0.0,-0.023657992376528155,0.0,-0.003939320221579201,-0.08139020702495088,-0.0007213190106558005,-0.007741683496003641,-0.0032785328054610453,0.002269856124958157,-0.013921758241036978,-0.0006379552767977106,-0.017962292010745434,-0.000535969216904562,-0.0012822990884122718,-0.036152308671180584,-0.00035053405390274344,-0.003960619239025234,-0.021941645465154053,-0.286274160620577,-0.49393174724979655
0.0,0.0,0.0,0.0,0.0,0.0,0.0,0.0,0.0,0.0,0.0,0.0,0.0,0.0,0.0,0.0,0.0,0.0,0.0,-0.058486649566794856,0.0,-0.00241550518710154,-0.18802165006622854,0.0,-0.004846188183551636,-0.0024942035211233246,0.0,-0.0761839526378844,0.0,-0.0168268017026152,-0.002430682996450097,-0.022256733868376313,-0.0864027609380384,0.0,-0.003311927695268633,-0.036294572670184204,0.0,-0.0984566094335431,0.0,0.0,-0.21656044042697484,0.0,0.0,0.0,0.0,-0.07031086902276464,0.0,0.0,-0.017014780975150686,0.0,-0.08567662906628934,0.0,0.0,-0.011952300108894582
0.0,-0.029737243394182954,0.0,-0.0002588771095810261,-0.04492711507782217,-0.005909129431227799,-0.004893793840945211,-0.0002568291143605077,-0.0033990546540646352,-0.01182535983595336,0.0,-0.013481155200065044,0.0,-0.0005263998688446217,-0.0269030154509152,0.0,-0.004925547848351308,-0.023053310753573527,-0.1611494694101571,-0.18624289765845023,-0.4824703657280548
0.0,-0.04056312633457175,0.0,-0.0023503638401162225,-0.031218221008798425,-0.0016964178723794354,-0.007329846620240432,-0.004223583655243867,-0.0002881622392053536,-0.03531615614702612,-0.0006190096725900799,-0.017226608794429027,-0.0010793779105700725,0.0030888734189743836,-0.03623333661296033,-0.0006190096725900762,-0.00556361161418866,-0.025251041197332548,-0.22227739529703192,-0.2573242571975861,-0.3076893493442244
0.0,0.0,0.0,0.0,0.0,0.0,0.0,0.0,0.0,0.0,0.0,0.0,0.0,0.0,0.0,0.0,0.0,0.0,0.0,0.02891535616855698,0.00200978068634699,-0.004428788231786673,0.07862656234025237,0.00019112046553989784,-0.006822780938048754,-0.0006385145874763901,0.005678465573500973,0.03708434290023462,-0.000671268573189145,-0.0055299014076737995,0.00035029189737327944,0.0003913980923895684,0.007528793605729425,-0.0003688385420975416,-0.0006850636889878727,-0.010332811833139263,0.12995776174159182,0.6796826845095632
0.0,0.0,0.0,0.0,0.0,0.0,0.0,0.0,0.0,0.0,0.0,0.0,0.0,0.0,0.0,0.0,0.0,0.0,0.0,-0.05778084708022943,0.0,-0.0020484730517141988,-0.18485498322115357,0.0,-0.004230653367781221,-0.0029167823369540993,0.0,-0.07484737188273714,0.0,-0.016916342646038442,-0.002182180316067025,-0.021737602092302147,-0.09091508558586744,0.0,-0.002733417320504867,-0.03877471244853445,0.0,-0.09016611891691706,0.0,0.0,-0.23320098422524974,0.0,0.0,0.0,0.0,-0.06768376537889916,0.0,0.0,-0.015275262212469186,0.0,-0.08447973036580664,0.0,0.0,-0.009132590250542265
0.0,0.003442488788393358,0.0023862360545249786,-0.0002469151529488701,0.08069423747253343,-0.005349184297338719,-0.0011684613271387768,0.007463665045078446,-0.0032933025993147143,0.03493041143357297,0.0,0.0028399317408011136,0.0,0.0025093692554228847,0.01026460247779722,0.0,-0.0038395814321007145,-0.012098046413890503,0.1546887363336973,0.17390742525946273,0.5007817055597563
0.0,-0.019366262353492425,0.0034274067478182995,-0.004104826213072285,0.1305783661730336,-0.0011547311084187763,-0.009091398038978486,0.0019517132082861265,0.0003648060042251819,0.025120433309964923,-0.001263729027594527,-0.007687535757884413,-0.001868082488552776,0.016948815520303424,-0.0029635672555934542,-0.0012637290275945205,-0.005799253293139619,-0.03508118124496102,0.1145486176939717,0.10468053207882377,0.5125304566320211
0.0,0.0,0.0,0.0,0.0,0.0,0.0,0.0,0.0,0.0,0.0,0.0,0.0,0.0,0.0,0.0,0.0,0.0,0.0,0.00961828015949242,0.005487710876846315,-0.01363539581549807,-0.051552063810887165,-0.0003512653468676126,-0.02341741456000787,-0.005413209743228039,0.008295864228911163,0.054877764436440386,-0.002080414963612143,-0.02852188736536785,-0.0004132853639410967,-0.014362748165398691,-0.07980124776912062,-0.0011431150701589475,-0.005773108065673847,-0.05753137900577534,-0.25118992299164306,0.386333180776274
0.0,0.0,0.0,0.0,0.0,0.0,0.0,0.0,0.0,0.0,0.0,0.0,0.0,0.0,0.0,0.0,0.0,0.0,0.0,-0.05316102258244659,0.0,-0.0018542572117832335,-0.20078466091074482,0.0,-0.0038158010582117884,-0.0021689615482285967,0.0,-0.06477524173557282,0.0,-0.01717673136672708,-0.0019615438464285553,-0.023724512777235748,-0.09265464034718028,0.0,-0.003052684968672798,-0.0348412164542882,0.0,-0.09180603337798539,0.0,0.0,-0.22903961494591302,0.0,0.0,0.0,0.0,-0.060432926343587046,0.0,-0.010555560532993932,-0.013730806924999896,0.0,-0.074539621410077,0.0,0.0,-0.019866711271964176
0.0,-0.023389474089710996,0.0021566808570743497,-0.00026911300875429413,-0.06694348860816056,-0.006723556555540019,-0.0024268678366908387,0.00424373600840991,-0.0045987162887099345,0.012787828083522497,0.0,-0.006258962584386311,0.0,-0.012584393616776707,-0.0398539276305009,0.0,-0.010244202064245785,-0.031012047313648657,-0.15877489285912086,-0.14928108823756753,-0.46839012988410833
0.0,-0.08103315566296194,0.004642218988293971,-0.006828850717527613,0.04604060703684745,-0.004485526972636051,-0.016743358974377974,-0.003087378436352897,-0.0045115995970135235,-0.01847058833978695,-0.0019979232386452927,-0.02808164899798353,-0.0032212806540151823,0.005915857940659573,-0.0807443087451586,-0.0019979232386452927,-0.014960597791949998,-0.07651575368664028,-0.2744653298319585,-0.306169857514582,-0.019962896452532464
0.0,0.0,0.0,0.0,0.0,0.0,0.0,0.0,0.0,0.0,0.0,0.0,0.0,0.0,0.0,0.0,0.0,0.0,0.0,-0.015604897894103444,0.004561294789222868,-0.011726241463806625,-0.12698334218667723,-0.000514253686859853,-0.020683093858623013,-0.005433651029341169,0.0050599951234333584,0.02586939435989789,-0.0017922213539993204,-0.02773861388219582,-0.0006922427922339703,-0.016271993230132318,-0.09755604205928874,-0.0009847627875451347,-0.005792060098188186,-0.05707133456771564,-0.4033623716803385,-0.17222816730494353
0.0,0.0,0.0,0.0,0.0,0.0,0.0,0.0,0.0,0.0,0.0,0.0,0.0,0.0,0.0,0.0,0.0,0.0,0.0,-0.05058549311800311,0.0,-0.0017459967541625665,-0.2096513317277618,0.0,-0.0035845579664962124,-0.0017522905096627888,0.0,-0.059161948352951674,0.0,-0.01732115906632268,-0.001838561212333645,-0.0248305019841826,-0.0936203131447463,0.0,-0.003230429123056271,-0.03264869289832715,0.0,-0.09271623016186656,0.0,0.0,-0.22671304717054777,0.0,0.0,0.0,0.0,-0.056391460443998294,0.0,-0.01643540568133645,-0.01286992848633554,0.0,-0.06899951655077234,0.0,0.0,-0.025845687363149773
0.0,-0.01858396819973333,0.0009842314734255352,-0.00013733362851850242,-0.07323272919571863,-0.003665285535128381,-0.001540700402865892,0.001146100100433252,-0.0026112992888449094,0.0004137552606602759,0.0,-0.005582965719247243,0.0,-0.010405073528472796,-0.033623755992284204,0.0,-0.006815608943800964,-0.02055973198952971,-0.16419441162718998,-0.16235054857842393,-0.49412221507811027
0.0,-0.05260330520800793,0.0020728341802251546,-0.003420183649052637,-0.01861339208860239,-0.002856870282324202,-0.0087710491984298,-0.003053785838262296,-0.003477753807300532,-0.024675570701600518,-0.000975791770856619,-0.01784500482603479,-0.0016403709399482084,-0.0023653458192639354,-0.05932137994725627,-0.0009757917708566196,-0.008757323379408806,-0.043012585592207025,-0.2519258400355121,-0.27145335441229174,-0.2221406706953976
0.0,0.0,0.0,0.0,0.0,0.0,0.0,0.0,0.0,0.0,0.0,0.0,0.0,0.0,0.0,0.0,0.0,0.0,0.0,0.023649191042384818,0.005929542211902555,-0.011595860973017465,-0.01929714407985212,0.00021054453870211466,-0.019090737842010454,-0.0031748642844704913,0.0073701395115743475,0.062034073482518735,-0.0017398945769758404,-0.017831094110707546,1.096478277655748e-05,-0.017041302320020473,-0.06620695712121064,-0.0009560110584744248,-0.003490287966820138,-0.04624281973329474,-0.10616346896528239,0.5878678325528832
0.0,0.0,0.0,0.0,0.0,0.0,0.0,0.0,0.0,0.0,0.0,0.0,0.0,0.0,0.0,0.0,0.0,0.0,0.0,-0.052551098456387356,0.0,-0.0017002525961862143,-0.20016209280886962,0.0,-0.003590973043615046,-0.0022038817880464176,0.0,-0.06531296303756885,0.0,-0.016933090770309325,-0.0018907204474288288,-0.023665262217492374,-0.09362226941831496,0.0,-0.0030017055142149644,-0.035300838979832785,0.0,-0.08928551117456551,0.0,0.0,-0.21906328453600885,0.0,0.0,0.0,0.0,-0.06163979267509975,0.0,-0.015023936195778695,-0.013235043132001828,0.0,-0.07511913131213764,0.0,0.0,-0.026568450052674445
0.0,0.05525075677681712,0.007560289316698076,-0.0003870549337395851,-0.01630902850910099,-0.009754601611932107,0.0026765563931213034,0.018692285060174802,-0.007462484348949658,0.15111250342978047,0.0,0.008282685727948966,0.0,-0.05340007506605249,-0.03470081382890587,0.0,-0.029067267781935188,-0.04257373461310391,0.133559437928236,0.21383708390647363,0.21509086326167798
0.0,-0.051774687634323045,0.0075926718623178565,-0.007016625210033034,0.11346618563143736,-0.004359803265942791,-0.014439964788943353,0.002376986611778788,-0.006919527950522867,0.04659748879610408,-0.002173635098547706,-0.018016045089008937,-0.0033627768012074975,-0.0059120022336882575,-0.06464827036635175,-0.002173635098547707,-0.01721895561617874,-0.07460476771184761,-0.05584650209582715,-0.05332820521538637,0.4479481566375683
0.0,0.0,0.0,0.0,0.0,0.0,0.0,0.0,0.0,0.0,0.0,0.0,0.0,0.0,0.0,0.0,0.0,0.0,0.0,-0.008871630785658162,0.007370286339138434,-0.015326131264842797,-0.15568560872146117,-0.0001148413147693157,-0.026145768054793486,-0.005551825366095423,0.006815754309878005,0.04878398350480637,-0.0023096483338654666,-0.029287372210737055,-0.0005217800578480609,-0.030864624328787893,-0.12956661644577322,-0.001269070768759042,-0.0060343759046322795,-0.07288704178725554,-0.4426662362760972,-0.009814705921160639
0.0,0.0,0.0,0.0,0.0,0.0,0.0,0.0,0.0,0.0,0.0,0.0,0.0,0.0,0.0,0.0,0.0,0.0,0.0,-0.05417611094668491,0.0,-0.0015109514864800548,-0.21608842920958657,0.0,-0.003154801201107133,-0.0016648227199948546,0.0,-0.05591228841796836,0.0,-0.015550781640837412,-0.0016438497146270747,-0.030314530068661784,-0.0869156390491057,0.0,-0.0028768436203058796,-0.03016204245767541,0.0,-0.0919822987747616,0.0,0.0,-0.23021163889604754,0.0,0.0,0.0,0.0,-0.055971340133944045,0.0,-0.016637410115749394,-0.011506948002389545,0.0,-0.06724232763921463,0.0,0.0,-0.026419126970928363
0.0,0.017294185859120292,0.005424950248926875,-0.00034978844025651757,-0.09380333359775324,-0.009225319477741889,0.00021112245625446298,0.011642176287750486,-0.00700564474959754,0.09146337938636921,0.0,-0.0015824854946557762,0.0,-0.04617451444665956,-0.05950451342463504,0.0,-0.02536793835479494,-0.0472732167428906,-0.1072243203033826,-0.05803878466349439,-0.4183505557471297
0.0,-0.07479306940514249,0.0061897550922028555,-0.006485612383957665,0.0215551691977918,-0.005113852412304477,-0.014395950721002294,-0.001170421724292279,-0.008170476733566946,0.005858034030129739,-0.0019495193206733128,-0.024761783761193992,-0.0031473215086947415,-0.015016380855535512,-0.09696103207593766,-0.001949519320673314,-0.017831074883132018,-0.07832869841761725,-0.29094429320942883,-0.29979669223072364,-0.025502774144354475
0.0,0.0,0.0,0.0,0.0,0.0,0.0,0.0,0.0,0.0,0.0,0.0,0.0,0.0,0.0,0.0,0.0,0.0,0.0,0.02147396293225329,0.006571906265539128,-0.011586746149251816,-0.039151422031096235,0.0004214289047269345,-0.01880191357502671,-0.0026419068238441585,0.006841508202880866,0.06389703523525342,-0.0017232984160721432,-0.014627038755273948,9.866100983844275e-05,-0.022854776640049375,-0.0751393060998244,-0.0009468920500229306,-0.0029787172124064927,-0.046666833347188526,-0.11528202726656828,0.5482198713804851
0.0,0.0,0.0,0.0,0.0,0.0,0.0,0.0,0.0,0.0,0.0,0.0,0.0,0.0,0.0,0.0,0.0,0.0,0.0,-0.052907004223514645,0.0,-0.0016617574646192175,-0.20613508969867553,0.0,-0.0035434046967890084,-0.002173269678920773,0.0,-0.06317266592889137,0.0,-0.015488448868711696,-0.0018816472321697864,-0.02465718581068779,-0.09269903303967493,0.0,-0.0030903956797227864,-0.03252359585912229,0.0,-0.08978455444246625,0.0,0.0,-0.21871507671897308,0.0,0.0,0.0,0.0,-0.06192365677334776,0.0,-0.018179708014957753,-0.013171530625188537,0.0,-0.06814983625693309,0.0,0.0,-0.030009135349633412
0.0,0.06170972817743145,0.007903043140620417,-0.0003887100314605202,-0.026278363665937627,-0.010026469042099525,0.0029833282832044013,0.018992943962816637,-0.007825479499119218,0.1609669997824968,0.0,0.007647191080930577,0.0,-0.06013663273641757,-0.041733285341198904,0.0,-0.03205146285655114,-0.04583182509823187,0.1209987842206079,0.2050606320187931,0.1893537424625965
0.0,-0.04860014649082934,0.007984581823745913,-0.006669178242695448,0.0985091325969839,-0.004560829682168763,-0.01308711254753081,0.002935017013614575,-0.008370277631551964,0.0544497734858605,-0.002087264341578622,-0.016073128737063375,-0.0032368162090966068,-0.015880975408303643,-0.07113751105258681,-0.002087264341578622,-0.01804681249453212,-0.07290699747875629,-0.06854934151824543,-0.05466972935958313,0.4300508841553984
0.0,0.0,0.0,0.0,0.0,0.0,0.0,0.0,0.0,0.0,0.0,0.0,0.0,0.0,0.0,0.0,0.0,0.0,0.0,0.03312136254325648,0.005425500235268086,-0.008046792715053158,0.0273920421225508,0.0007305486123913558,-0.014569906897652666,-0.0008491526673296136,0.006206187035219017,0.06370225678400607,-0.0011771366173965914,-0.004418808105904833,-7.145934248099068e-05,-0.015459342188439881,-0.03639509745569612,-0.0006467952934955041,-0.0007045647862720163,-0.02724176787039707,0.06756029347120772,0.6862125605038266
0.0,0.0,0.0,0.0,0.0,0.0,0.0,0.0,0.0,0.0,0.0,0.0,0.0,0.0,0.0,0.0,0.0,0.0,0.0,-0.05125533514281212,0.0,-0.001858802938528333,-0.1931608979947739,0.0,-0.0040510876580019,-0.002837277892863379,0.0,-0.07265753786726052,0.0,-0.01540859159018978,-0.002192284719473555,-0.01727374965327303,-0.10025855067459533,0.0,-0.003369498538390998,-0.035609876983771015,0.0,-0.08692413696336758,0.0,0.0,-0.20372738984905842,0.0,0.0,0.0,0.0,-0.06970068790954481,0.0,-0.020195015120898604,-0.01534599303631494,0.0,-0.06934130912370474,0.0,0.0,-0.034698959651044754
0.0,0.04789314133984229,0.0047647432840420565,-0.00019403467521932432,0.017376060745748538,-0.004906413400105939,0.0021639973261624135,0.012043471841902614,-0.003923916445481308,0.1050857205519875,0.0,0.007801184412646213,-7.136640952094536e-05,-0.033877758149866384,-0.010451681894709908,0.0,-0.017687718818673592,-0.02055782199586357,0.15740936449810497,0.21119417028888476,0.3425474063817782
0.0,-0.016131132078996992,0.00609380452568579,-0.004254636578171463,0.10511230519934656,-0.002478789999181361,-0.009336675602116816,0.004388799867269679,-0.005320442130229868,0.062038367937257484,-0.0013825595958954137,-0.004746557433975313,-0.002048574724695783,-0.010402755271723305,-0.029219142344861847,-0.0013825595958954137,-0.0113346555763975,-0.04264989439345978,0.08348837290830304,0.10181006310518091,0.49631357849302915
0.0,0.0,0.0,0.0,0.0,0.0,0.0,0.0,0.0,0.0,0.0,0.0,0.0,0.0,0.0,0.0,0.0,0.0,0.0,0.037918052435551505,0.005042367920735159,-0.006184773711403232,0.05464075139802802,0.001004912794288808,-0.013012944385759749,-0.0004782249042156574,0.006243364289927152,0.062387543180399505,-0.002413070382546393,-0.0011272434967305235,-0.00019667201667086836,-0.011463943743060265,-0.015594832132228063,-0.00048618621460949825,0.0008398277209873592,-0.01846068989243396,0.12774644927227022,0.6346828605802206
0.0,0.0,0.0,0.0,0.0,0.0,0.0,0.0,0.0,0.0,0.0,0.0,0.0,0.0,0.0,0.0,0.0,0.0,0.0,-0.049099025506793306,0.0,-0.0021160525798473674,-0.17622265000427972,0.0,-0.004713885207248186,-0.003704163388749316,0.0,-0.08504036402012073,0.0,-0.015304335442761946,-0.002597832627400797,-0.007634421362263533,-0.11012776136370235,0.0,-0.0037338769294953224,-0.03963912322013782,0.0,-0.08318976553441466,0.0,0.0,-0.18416045519197052,0.0,0.0,0.0,0.0,-0.07985386939766546,0.0,-0.022826067861374522,-0.018184828391805654,0.0,-0.07089681890867004,0.0,0.0,-0.04082168636689955
0.0,0.04094585470206861,0.0033273847033164087,-0.00010127501349842564,0.034629925372354625,-0.002459817301472505,0.0018213362415224988,0.00891345068165753,-0.002066131592854277,0.0794610045111216,-0.0002572508950075597,0.007669858365881268,-0.00011042003320525592,-0.021638826483249655,0.005073419487280277,0.0,-0.010963069657347009,-0.00866890485281995,0.1724202548109148,0.20923374286829594,0.3901857654094019
0.0,0.0014613775709972341,0.004805447906193131,-0.002669127350323365,0.0972292094427609,-0.0011317706464527395,-0.007071318942005178,0.004841417947224739,-0.0033186754837287234,0.061662825467749004,-0.0015649796693518357,0.00047310255311708516,-0.0012690814266818297,-0.006792785382520044,-0.003671074596070203,-0.0009174304510164192,-0.0069354616493626335,-0.02538550445841406,0.14889479777094056,0.1611855163547264,0.45865264786908544
0.0,0.0,0.0,0.0,0.0,0.0,0.0,0.0,0.0,0.0,0.0,0.0,0.0,0.0,0.0,0.0,0.0,0.0,0.0,-0.015224078303648001,0.003706072892576137,-0.005228594631167387,-0.09481363064368072,0.0005029175029694836,-0.014361381220189493,-0.0027771135793976938,0.0023458462551937923,0.012117669237002072,-0.0037966437424272804,-0.01329708925484448,-0.0011171913575500098,-0.013837613530311663,-0.051652595510806455,-0.00041786768509773,-0.0004501538492829918,-0.030293236387002764,-0.2622727491654463,-0.4717206183205828
0.0,0.0,0.0,0.0,0.0,0.0,0.0,0.0,0.0,0.0,0.0,0.0,0.0,0.0,0.0,0.0,0.0,0.0,0.0,-0.05325402344164331,0.0,-0.0016358511691451066,-0.198878460618647,0.0,-0.0035646446434241105,-0.0024314037729170064,0.0,-0.06750398967747136,0.0,-0.01582973866400938,-0.0019287934742789898,-0.022021267535605283,-0.0950678839107305,0.0,-0.0030532688645337172,-0.03480182696671142,0.0,-0.08827921377645713,0.0,0.0,-0.20635626785034572,0.0,0.0,0.0,0.0,-0.06620516407355738,0.0,-0.019403545478688975,-0.013501554319952981,0.0,-0.07303269805905956,0.0,0.0,-0.03319270918105541
0.0,-0.0047068373203644305,0.002540906681311545,-0.00015006351544545564,-0.08417735348350046,-0.00407740901794266,-0.0012056333837003198,0.004994189061871165,-0.003716474449422092,0.035663693222088406,-0.0006168325013363835,-0.004190987856308338,-0.00023626346888000284,-0.02343534498495746,-0.03358180066226608,0.0,-0.012529276693471704,-0.0260667153918658,-0.12992575867275133,-0.1269763870467984,-0.5011474255489049
0.0,-0.04669594416212113,0.0040449329614072405,-0.002971146003593108,-0.025817180946143437,-0.002346713153744535,-0.012080185560672418,0.00036323005540294913,-0.006153221915876631,0.003158440938696107,-0.003198609425173974,-0.015339711824671365,-0.0015607522612089248,-0.014646992855856071,-0.05483678050115502,-0.0009421948691847959,-0.009228977301486762,-0.0456641701375505,-0.22106839298443867,-0.24979334409568613,-0.2800089351668845
0.0,0.0,0.0,0.0,0.0,0.0,0.0,0.0,0.0,0.0,0.0,0.0,0.0,0.0,0.0,0.0,0.0,0.0,0.0,0.0002243905569150436,0.006826131892053163,-0.007544469166896331,-0.07773461699389313,0.001480059411831819,-0.02359742692945906,-0.003611173935231603,0.004561006451303509,0.043485576178673185,-0.007914165745746087,-0.015100813101628491,-0.0018060778510749606,-0.018922920055324626,-0.05360226888224449,-0.0005844126022198438,0.0017041567935104363,-0.03815292673672892,-0.23506153032509314,-0.4579458142153301
0.0,0.0,0.0,0.0,0.0,0.0,0.0,0.0,0.0,0.0,0.0,0.0,0.0,0.0,0.0,0.0,0.0,0.0,0.0,-0.05170329720321189,0.0,-0.0018248019717553934,-0.18366906246026668,0.0,-0.004078416150481666,-0.0031739687206629513,0.0,-0.07830453036091443,0.0,-0.015852598484557376,-0.0022536141787262583,-0.013831108339719263,-0.10334100615708773,0.0,-0.003320701724574503,-0.03858039244034222,0.0,-0.08495051102292053,0.0,0.0,-0.18757410016520779,0.0,0.0,0.0,0.0,-0.07528294040467244,0.0,-0.021790634360501725,-0.015775299251083893,0.0,-0.07570860863662786,0.0,0.0,-0.03885140435128603
0.0,0.03777663710692732,0.008186880759658753,-0.0003033377328120378,-0.10507053050345613,-0.007875265161056893,7.422530752552839e-05,0.019632330828296067,-0.008690311456691826,0.15706717757075295,-0.002180631179389514,0.002159779857939407,-0.0007431772943883226,-0.06173366068876168,-0.03533616904215887,0.0,-0.03161013520389374,-0.048658788963874766,0.009685115590713344,0.02960868593314194,-0.433404611067185
0.0,-0.05261786446986384,0.009020473742281642,-0.004863366995895002,0.013638275939874767,-0.0028747902622332294,-0.02348406735881908,0.005405243718405313,-0.011506967898042965,0.057218140640070386,-0.007244676375324815,-0.018249341656683415,-0.0025317008356577457,-0.025579533698184442,-0.0616019865553409,-0.0016629590431300526,-0.014842016928410804,-0.07250032811596983,-0.17119398889902818,-0.22534380434209084,-0.21844375265273702
0.0,0.0,0.0,0.0,0.0,0.0,0.0,0.0,0.0,0.0,0.0,0.0,0.0,0.0,0.0,0.0,0.0,0.0,0.0,-0.018135385482196863,0.002661700041331575,-0.0030485650565649954,-0.0889739676954522,0.000525241947376496,-0.010558198116372073,-0.002560867969664721,0.0007411520755196613,0.002813310217111207,-0.003993252664010574,-0.011250845746678825,-0.001157736341212316,-0.010010967053737814,-0.03929225289670895,-0.00014388328488852106,0.000768364808001623,-0.022667817652170102,-0.24412618638345962,-0.5365337491429074
0.0,0.0,0.0,0.0,0.0,0.0,0.0,0.0,0.0,0.0,0.0,0.0,0.0,0.0,0.0,0.0,0.0,0.0,0.0,-0.05472872065369791,0.0,-0.0014709272839853005,-0.20309507242792282,0.0,-0.0032048032462935606,-0.0021311751692899934,0.0,-0.06368974898576561,0.0,-0.01614019854852961,-0.0017338759623082556,-0.02553020980206342,-0.09122480812634833,0.0,-0.002819303819537169,-0.03420230871358878,0.0,-0.0892762546990174,0.0,0.0,-0.20828928048422413,0.0,0.0,0.0,0.0,-0.06361682456525047,0.0,-0.018817219681064406,-0.01213713173615783,0.0,-0.07575742658709562,0.0,0.0,-0.03207701498652093
0.0,-0.0026214972090134957,0.0029226809291099925,-0.00014446626061858031,-0.08760092472301953,-0.0038990384325614863,-0.0009585333612561643,0.00613903488360749,-0.004098500950517419,0.04461000581403851,-0.0009460570054955698,-0.0036413735167771175,-0.00032883739635122187,-0.025363903416057196,-0.030510612137611318,0.0,-0.013065304980254832,-0.026612152570038638,-0.11628328495655155,-0.11931299332998467,-0.5109083973823667
0.0,-0.038571989334848046,0.0032834118397742085,-0.002074247576105945,-0.03785430985348991,-0.0016219077843660455,-0.01083679083943056,0.0004506046376413881,-0.0055435420438800865,0.000900290651296897,-0.0033833547870860798,-0.013112635633005498,-0.0011259133100867185,-0.0129231870793313,-0.04361974508932445,-0.0006641056958742573,-0.006843569148838838,-0.036267260799061375,-0.20224576339055617,-0.23700769253359255,-0.34163415527378993
0.0,0.0,0.0,0.0,0.0,0.0,0.0,0.0,0.0,0.0,0.0,0.0,0.0,0.0,0.0,0.0,0.0,0.0,0.0,0.02113295578335456,0.0132461093977668,-0.007529865667139326,-0.07722851723492978,0.004655381785734143,-0.032241973888577705,-0.007196833284411612,0.005648966920917599,0.10080229313364639,-0.020199525700707023,-0.02570950862710728,-0.004657490087916409,-0.029512809300856747,-0.06361684853125492,0.0011808171172801012,0.018086681789100903,-0.06288024689154323,-0.26711665558508646,-0.2370030676494332
0.0,0.0,0.0,0.0,0.0,0.0,0.0,0.0,0.0,0.0,0.0,0.0,0.0,0.0,0.0,0.0,0.0,0.0,0.0,-0.05476718297930878,0.0,-0.001666710835827979,-0.19147211202616168,0.0,-0.0037144791648292355,-0.0025508591657432103,0.00023094089301704435,-0.07058204849708041,0.0,-0.01691370414813431,-0.002047768329001257,-0.019618001035615142,-0.09559240007869793,0.0,-0.003137781177841416,-0.037870684030118465,0.0,-0.08561810708356604,0.0,0.0,-0.19552614759835957,0.0,0.0,0.0,0.0,-0.06845715355527697,0.0,-0.02017551854329519,-0.014334378303008844,0.0,-0.07930969114475847,0.0,0.0,-0.036281794347077574
0.0,0.06084941668503633,0.010283897666615333,-0.00034167593069835177,-0.0718818365012261,-0.008816222485006586,0.003032635760441692,0.02579359432989093,-0.010995028738871196,0.21818511249602104,-0.003269467440379828,0.0060701569669430145,-0.0010712536988540045,-0.06951046074495891,-0.026249517180699837,0.0,-0.03491187217619344,-0.05442912417014615,0.1523268058251404,0.1672868240114619,-0.07445813582113302
0.0,-0.04682415609968729,0.010541552014333145,-0.004616934374770068,0.02103516584574357,-0.002348109882282833,-0.026329091566109464,0.00731223347852559,-0.014505034652250132,0.08467969577547987,-0.010420732265536742,-0.018999708145499113,-0.0024847777257465033,-0.028662423941212763,-0.04911465566036128,-0.0012639110577606079,-0.01259086643376704,-0.07567694244730262,-0.12506401671734843,-0.20857280116905264,-0.2487104300726804
0.0,0.0,0.0,0.0,0.0,0.0,0.0,0.0,0.0,0.0,0.0,0.0,0.0,0.0,0.0,0.0,0.0,0.0,0.0,-0.009432276774248712,0.005539594524460929,-0.00335064497844158,-0.09095957254518872,0.0018707811010993845,-0.015042577415697866,-0.004132460649884298,0.0013507511115532363,0.027866892646942885,-0.009308241073531008,-0.016353079469751928,-0.0023945458078588333,-0.014976617752089902,-0.04519824731324364,0.000549118918783621,0.007476632540177371,-0.034150111774945036,-0.26471263815054635,-0.44529464831753757
0.0,0.0,0.0,0.0,0.0,0.0,0.0,0.0,0.0,0.0,0.0,0.0,0.0,0.0,0.0,0.0,0.0,0.0,0.0,-0.05409059668280901,0.0,-0.0012569085481327295,-0.2056874999120889,0.0,-0.002743955013057106,-0.002036549468193427,-0.0005386975238055669,-0.06347529995444488,0.0,-0.017777399138519754,-0.0014870464649243739,-0.026661888981550082,-0.08854754119698093,0.0,-0.0024486681028405193,-0.033219260436644873,0.0,-0.09069109049404936,0.0,0.0,-0.2056776336919021,0.0,0.0,0.0,-0.0032659078892102213,-0.06342248921475457,0.0,-0.021623209631456367,-0.010409325254470643,0.0,-0.07282384743187299,0.0,0.0,-0.03205780781627607
0.0,0.007433120844348339,0.0048166039934901045,-0.00020591530314187392,-0.0961902115302714,-0.005505211712484288,0.00010929094595231083,0.010930029618355598,-0.006652777068352329,0.08766909164258586,-0.0017203449163796425,-0.0036452748608695436,-0.0005754884475922895,-0.03668939388590305,-0.03539783952214142,0.0,-0.01870436501332959,-0.036878394807721954,-0.08139258067887166,-0.08609728358726462,-0.47934316571768776
0.0,-0.03766743375531932,0.004084714294602117,-0.0020946070496447563,-0.03288108781011956,-0.0014806285736659326,-0.012449666232447568,0.0013418522165493856,-0.006978707643510745,0.012598655043519615,-0.004752928231279921,-0.014080504686157465,-0.0011664076105141056,-0.014727239608849647,-0.04031940192916806,-0.0005525001174302234,-0.006325202747797469,-0.03906771835940548,-0.1869059893156615,-0.23311549905660509,-0.3473712348895703
0.0,0.0,0.0,0.0,0.0,0.0,0.0,0.0,0.0,0.0,0.0,0.0,0.0,0.0,0.0,0.0,0.0,0.0,0.0,0.04913410846938953,0.01621739768390122,-0.006242238071370327,-0.016753464497674467,0.006439648177156367,-0.034105056024437974,-0.009073042838879915,0.005891368149345394,0.14209068381723614,-0.02701513264173175,-0.02609814852147867,-0.006308519926424689,-0.029086836391231927,-0.046736395855731645,0.0024460077009077377,0.028416920234539813,-0.06685114130518867,-0.13199622569063593,0.3488491993562395
0.0,0.0,0.0,0.0,0.0,0.0,0.0,0.0,0.0,0.0,0.0,0.0,0.0,0.0,0.0,0.0,0.0,0.0,0.0,-0.05433671679258285,0.0,-0.0014330557342461937,-0.1968526894604015,0.0,-0.003196835080149722,-0.0024675683410242647,-0.00039959483657766264,-0.06857315936375388,0.0,-0.017714611313607475,-0.0017637793459035244,-0.0225247475451788,-0.09199134521216383,0.0,-0.0027522282497517113,-0.0359276707893684,0.0,-0.08845336472511901,0.0,0.0,-0.19379243336899857,0.0,0.0,0.0,-0.003066421865068576,-0.06779627891117529,0.0,-0.023438649072161345,-0.012346455421324736,0.0,-0.07652961340262335,0.0,0.0,-0.0345107852982392
0.0,0.05581059818892249,0.00925470816846965,-0.0003118473437012366,-0.04153456509126418,-0.008101657084745044,0.003246802915596668,0.023107899809355525,-0.01099418575405443,0.20629906510418794,-0.0032053598369516235,0.005013107541627824,-0.0010422035950297195,-0.059171561228815714,-0.02047701596081286,0.0,-0.030658907728417534,-0.04733728589250123,0.1780274424836487,0.18587294496686527,0.1103811339085575
0.0,-0.050567325542858185,0.01693563875596793,-0.0064884277239471155,0.08811310253264351,-0.0029573903542002536,-0.04178099342330594,0.012331312134635326,-0.02427712291885447,0.16619787974305722,-0.018743380705805855,-0.022909473460133552,-0.0035951596677235493,-0.04060363858636907,-0.04245571218017039,-0.0014077299321189239,-0.01610704914395223,-0.1070103424450511,-0.029384798697037976,-0.16305853642784193,-0.14473519124737574
0.0,0.0,0.0,0.0,0.0,0.0,0.0,0.0,0.0,0.0,0.0,0.0,0.0,0.0,0.0,0.0,0.0,0.0,0.0,0.002861929777241008,0.009799660353656007,-0.00408407325877527,-0.09509092757766029,0.003778917897828787,-0.02276975247680018,-0.008239907061486869,0.0019151123544997083,0.06701040972210236,-0.017442754447027805,-0.023961507137680183,-0.004400818249497611,-0.021108374021938957,-0.05583163764290209,0.0015377144026185651,0.016121972350739658,-0.0528716361119767,-0.30307537562062997,-0.2880384487393563
0.0,0.0,0.0,0.0,0.0,0.0,0.0,0.0,0.0,0.0,0.0,0.0,0.0,0.0,0.0,0.0,0.0,0.0,0.0,-0.05363694765532079,0.0,-0.0010934307889312017,-0.20671974696412204,0.0,-0.002386982931161896,-0.002394528226751175,-0.0009845493749552987,-0.06215305187894723,0.0,-0.01811123316335365,-0.001293552142230688,-0.027693230432814048,-0.08778350523758299,0.0,-0.002318242485136525,-0.03340236396203571,0.0,-0.09005029695537864,0.0,0.0,-0.20302265675263764,0.0,0.0,0.0,-0.00468055207266625,-0.06253084802166009,0.0,-0.02246233260653123,-0.009054864995614876,0.0,-0.07620215573480824,0.0,0.0,-0.031967658104046635
0.0,0.004719068389443427,0.004817444417469451,-0.00020633769155582352,-0.09159618374133494,-0.005535633117549439,0.00040998810886987754,0.005703052161135472,-0.007474721288603311,0.09339270434567001,-0.0018411740179134516,-0.0049294361692532014,-0.0006107310844704556,-0.034858345217511515,-0.03892158203118578,0.0,-0.020655343358474177,-0.039589623327988266,-0.09780384055456001,-0.10990794946124034,-0.43697824025483073
0.0,-0.041718313857075806,0.007178487226609645,-0.0030543537982629086,-0.004001443288853173,-0.0018171971877457022,-0.019916471068810344,0.0025897240048373777,-0.011729886692441493,0.05021038980615712,-0.00863663310968828,-0.016885163600380174,-0.0017254254307010467,-0.02088004484546145,-0.04131280377825682,-0.0006611692580705233,-0.009239887690393704,-0.055834292651366135,-0.15983360263028265,-0.2290529836322801,-0.3136797682127072
0.0,0.0,0.0,0.0,0.0,0.0,0.0,0.0,0.0,0.0,0.0,0.0,0.0,0.0,0.0,0.0,0.0,0.0,0.0,-0.016858363606836832,0.004615686838879859,-0.0021042418240655603,-0.10121921956487537,0.0017984824708619767,-0.011901806671559946,-0.005679781359903962,-4.764697161827829e-05,0.018771786899909722,-0.0088404729586133,-0.01633310066111191,-0.0024845726412931666,-0.012312891533921266,-0.044685897294143025,0.000766000927995162,0.00709161840358477,-0.033419752409612695,-0.281570699484994,-0.4294525176472897
0.0,0.0,0.0,0.0,0.0,0.0,0.0,0.0,0.0,0.0,0.0,0.0,0.0,0.0,0.0,0.0,0.0,0.0,0.0,-0.052675607450138925,0.0,-0.0008812683413326997,-0.21137481267234098,0.0,-0.002646212935483123,-0.0025116338075089916,-0.002072917722074403,-0.057690944833281216,-0.00040508520292928504,-0.019971439924200238,-0.0010065047691773222,-0.029978711060851253,-0.08469410618831005,0.0,-0.0024242069729335436,-0.031637960731134396,0.0,-0.09259650410436378,0.0,0.0,-0.2080091310159639,0.0,0.0,-0.002588622774950315,-0.007243600842346124,-0.05785533961166263,0.0,-0.02126486840654886,-0.007045533384241307,0.0,-0.073712072874169,0.0,0.0,-0.029655739597450697
0.0,-0.01347811011167264,0.0019639716356725386,-0.00011280266814343393,-0.07888208269705597,-0.00281701586359344,0.00024197849979493036,-0.0016847609896905838,-0.004120656020229615,0.02936241434172235,-0.0007978492365542041,-0.006467503103955352,-0.0002934470294500448,-0.01671313374449246,-0.032935993561588384,0.0,-0.01141871450171908,-0.02569033712891703,-0.15542294783551297,-0.16597579656838318,-0.4515844037182947
0.0,-0.037288601031950495,0.0031700854089586525,-0.0016360618316676764,-0.038214080730819944,-0.0013373002903414052,-0.009714139045520426,-0.0013302073633149852,-0.0064331362766379034,0.0031948701608197367,-0.004498683731203306,-0.013641245106955255,-0.0009531999025770624,-0.012745417818077726,-0.040184375830301385,-0.00035315565061701774,-0.006363925151007259,-0.03457667383723693,-0.20421989569935883,-0.24065919071680247,-0.33944261812001314
0.0,0.0,0.0,0.0,0.0,0.0,0.0,0.0,0.0,0.0,0.0,0.0,0.0,0.0,0.0,0.0,0.0,0.0,0.0,0.027058838467264024,0.010602514967343709,-0.0023236932012030333,-0.0048443619430560995,0.005709433569605252,-0.016171728712678086,-0.008888944086450738,0.004433794890420683,0.09681419913070582,-0.01743534002136805,-0.01275666846241158,-0.005055308408950312,-0.01526093028670368,-0.027300516979231883,0.0022150903260712783,0.022412862017257083,-0.04852549053134053,0.0031350010168697214,0.6688615808744984
0.0,0.0,0.0,0.0,0.0,0.0,0.0,0.0,0.0,0.0,0.0,0.0,0.0,0.0,0.0,0.0,0.0,0.0,0.0,-0.052850002845551546,0.0,-0.0009669588754721861,-0.20610449055061514,0.0,-0.0026364140498803756,-0.0024983745563788534,-0.0018651142762116228,-0.06152435459945501,-0.00028740809688759355,-0.019802385184735732,-0.0011569728899672941,-0.027742807645091527,-0.08680255704765259,0.0,-0.002441936875175434,-0.03325440697627486,0.0,-0.09041553681964729,0.0,0.0,-0.19791572949012062,0.0,0.0,-0.0019818713685906993,-0.0071515739426130905,-0.06225853206798994,0.0,-0.023515774479818927,-0.00809881022977111,0.0,-0.07637791959168333,0.0,0.0,-0.03221843647911493
0.0,0.026818836098343304,0.006521884599552942,-0.0002402647605238484,-0.00915421513281674,-0.002352632339481659,0.012232290639424338,-0.0031714687208463893,-0.007918084460206854,0.15841863903795897,0.0005306287698690576,0.005921291988385376,-0.0008286383957850999,-0.03709575811594,-0.02168613724667203,0.0,-0.028428582693750676,-0.044544881838503435,0.08016485127720722,0.10945156964391158,0.444306034914558
0.0,-0.03248395476616036,0.01125648225310702,-0.003966516164160268,0.10846951610439945,-0.0023454331834254567,-0.01557830332474278,0.008508915979469305,-0.015209692699937157,0.1113402463515181,-0.01200247156477925,0.0005388658279387269,-0.002464964885277152,-0.02711392401005398,-0.01899937469315996,-0.0006755193556593594,-0.005645715633254661,-0.07028262086450877,0.08059538326905111,0.06024059003587436,0.4119953695567955
0.0,0.0,0.0,0.0,0.0,0.0,0.0,0.0,0.0,0.0,0.0,0.0,0.0,0.0,0.0,0.0,0.0,0.0,0.0,-0.017195776141268524,0.010887800169835083,-0.0028207469017571584,-0.14548075063515248,0.005849319659010194,-0.01922735023272497,-0.013588247098332791,0.002624096817372013,0.06524532728945376,-0.019222691236247823,-0.028383519465051743,-0.006020516446265792,-0.021096692325287186,-0.07100204715949951,0.002342118915710151,0.021835589449767264,-0.07078173012270736,-0.36780621458926155,-0.10848985488335042
0.0,0.0,0.0,0.0,0.0,0.0,0.0,0.0,0.0,0.0,0.0,0.0,0.0,0.0,0.0,0.0,0.0,0.0,0.0,-0.052409646225524714,0.0,-0.0007923483705040718,-0.20976996028589814,0.0,-0.002702309265060285,-0.002930800599309976,-0.002471978412975622,-0.05749758900957761,-0.000541278879010467,-0.02096392800543497,-0.0009110044288469237,-0.02950583763169553,-0.08418656169948426,0.0,-0.0024211340322858894,-0.03286707886087168,0.0,-0.0936400318035651,0.0,0.0,-0.20236223553721505,0.0,0.0,-0.003540987637491944,-0.008340464416597675,-0.056220395227377894,0.0,-0.021296757768268428,-0.00637703100192848,0.0,-0.07536863290473692,0.0,0.0,-0.032824919409298554
0.0,-0.010646643249013356,0.004591533795734961,-0.00022146212453861693,-0.0923778365577197,-0.0029449649348745784,0.008030196240936554,-0.008548646451237391,-0.007577095503328207,0.09301899557305283,0.00010704569151262028,-0.004358939299489203,-0.0006606663770722315,-0.03105384490511168,-0.046651834819910115,0.0,-0.025204498185725923,-0.049095900133657826,-0.16745985744050054,-0.16718873178480878,-0.2801969072058087
0.0,-0.06788624882715535,0.009750915920861416,-0.003982025525218987,0.00871879218810958,-0.0030353995751511756,-0.015406268644061187,0.0025258683360804847,-0.015566175537910521,0.05543011925496742,-0.011693369260440659,-0.013927158480546372,-0.0024949287964974244,-0.030120471031611407,-0.06076918354583788,-0.00070382204530376,-0.009260731927256361,-0.08182189011268898,-0.21649606394190526,-0.2648417554086403,-0.12548337820258115
0.0,0.0,0.0,0.0,0.0,0.0,0.0,0.0,0.0,0.0,0.0,0.0,0.0,0.0,0.0,0.0,0.0,0.0,0.0,-0.02558209135217179,0.004713682293341558,-0.0013944831004042764,-0.11954006226861154,0.0025268811654082434,-0.009369192367162658,-0.007670758717186369,0.0003506985930906969,0.014350242180143219,-0.008847830232735764,-0.018383243119692402,-0.0029371550967563706,-0.011296983789542322,-0.048141784540746455,0.0010408689911630409,0.00898261564207549,-0.039041719938046324,-0.30852529983208044,-0.36726234691269766
0.0,0.0,0.0,0.0,0.0,0.0,0.0,0.0,0.0,0.0,0.0,0.0,0.0,0.0,0.0,0.0,0.0,0.0,0.0,-0.05215870283733336,0.0,-0.0006936857824266273,-0.2118315785125682,0.0,-0.0027394165771497665,-0.003174934240708881,-0.002814663212251985,-0.055220638382108916,-0.0006846557004064343,-0.021619145977616622,-0.0007720301061403813,-0.030500447628693084,-0.08270536478508077,0.0,-0.0024092815459293123,-0.03264691161993799,0.0,-0.09545745393568889,0.0,0.0,-0.20486533618719385,0.0,0.0,-0.00442150967160707,-0.009011661303774031,-0.05280736977239489,0.0,-0.020042443340875044,-0.005404210742982667,0.0,-0.07479536109728746,0.0,0.0,-0.03316611085654858
0.0,-0.01868795021635757,0.0018222252538710555,-0.00011345303189582265,-0.07859014956994306,-0.001798473233384533,0.0029027240925611425,-0.006478965114084999,-0.003985683714580735,0.027733056119602528,-8.775762183136236e-05,-0.005897010141346294,-0.0002999639760069973,-0.014737072383650192,-0.03386662562956846,0.0,-0.012539056069930254,-0.028195246364591243,-0.17603641246848617,-0.18587166160095192,-0.40032140889621276
0.0,-0.046824857926036294,0.004056676398645375,-0.0019090527728449157,-0.03616931564891782,-0.0017267737424861462,-0.007293119065883426,-0.0011896396017250373,-0.00759603227972856,0.0037258941231523984,-0.00546399462094889,-0.012447850480977928,-0.0012042199117186772,-0.015597220227586101,-0.04601512951832741,-0.00034766020259512976,-0.005872879278154233,-0.043777096310472295,-0.22371680788180492,-0.25802760795633667,-0.2769972196530587
0.0,0.0,0.0,0.0,0.0,0.0,0.0,0.0,0.0,0.0,0.0,0.0,0.0,0.0,0.0,0.0,0.0,0.0,0.0,0.0030612939042043296,0.009796081470096429,-0.0010209451331040476,-0.0617590861245838,0.00636767283275421,-0.010949656769219992,-0.012773701165511487,0.004560201835252514,0.07398809716750325,-0.01603729797617993,-0.021344540603394392,-0.005439652269810628,-0.013610117780731998,-0.03466169145057609,0.002467729138131084,0.02434456037410969,-0.05500766798174027,-0.13573206080881703,0.506899632157498
0.0,0.0,0.0,0.0,0.0,0.0,0.0,0.0,0.0,0.0,0.0,0.0,0.0,0.0,0.0,0.0,0.0,0.0,0.0,-0.05215386169992488,0.0,-0.0007262860714597001,-0.20717535347265625,0.0,-0.002775181016262572,-0.0033031507713808367,-0.0028488551914633243,-0.05819814109413232,-0.0006570802738198705,-0.021785737708022057,-0.0008539994612180447,-0.028622282496320938,-0.0842662619377514,0.0,-0.0024379222407470745,-0.03413029246472447,0.0,-0.09399143724330483,0.0,0.0,-0.19555741392678275,0.0,0.0,-0.004399290247957109,-0.009497591620836817,-0.055933815022745165,0.0,-0.021990713963008397,-0.005977996228526298,0.0,-0.07735297462130802,0.0,0.0,-0.035233173025414524
0.0,0.019127311080814717,0.006505630111550328,-0.0002567015502683866,-0.014513325479132288,-0.0003532992564262017,0.018504642397102106,-0.014234634081177758,-0.008143247952473096,0.1667575107100817,0.0020733183832980463,0.007250575935608558,-0.0008861374331654667,-0.0348700814265403,-0.025181408050788348,0.0,-0.032555500264685414,-0.0532191901119685,0.03606723708606693,0.046406229636740924,0.51286743707472
0.0,-0.06206961549471969,0.01319517449539234,-0.004648557486126949,0.08444732321308049,-0.0034570584207072154,-0.009271005156685727,0.007822174259512706,-0.018046679236876674,0.1031429090599736,-0.014357730405012526,-0.002646290423071611,-0.003100862102833676,-0.03485253258610937,-0.039412758039186827,-0.0006632657673270512,-0.004347422063148505,-0.09398911380343306,-0.031216156844795503,-0.08558256381010833,0.3834537364689547
0.0,0.0,0.0,0.0,0.0,0.0,0.0,0.0,0.0,0.0,0.0,0.0,0.0,0.0,0.0,0.0,0.0,0.0,0.0,-0.030484336033925665,0.007339816839688555,-0.0010840979165349716,-0.14712376626948973,0.004736399270375941,-0.010063765172389102,-0.013178150965481259,0.0014430540721634142,0.02993625590340488,-0.012906594473750862,-0.026046261075719345,-0.004616933445144061,-0.014301163622649618,-0.05612677606755512,0.00188465044758414,0.01745782553646399,-0.05730843314660032,-0.36635103442837863,-0.1975380128615314
0.0,0.0,0.0,0.0,0.0,0.0,0.0,0.0,0.0,0.0,0.0,0.0,0.0,0.0,0.0,0.0,0.0,0.0,0.0,-0.05212568754303731,0.0,-0.0006488999143547286,-0.20986073053538967,0.0,-0.0027436619086437094,-0.0036049363214294555,-0.0032502716205751185,-0.05614695044118139,-0.000738508793789724,-0.021785705602904444,-0.000732028316329468,-0.029845918071651843,-0.08210520537316117,0.0,-0.0023870683666594866,-0.03399588715774608,0.0,-0.0943601252968713,0.0,0.0,-0.20206056139632733,0.0,0.0,-0.004832491985988041,-0.009534344358085565,-0.05366625579531119,0.0,-0.020191014663893777,-0.005124198214306283,0.0,-0.07552845826618611,0.0,0.0,-0.03467400998988401
0.0,-0.014595911084790934,0.004373553765212435,-0.00021982242314290155,-0.09155617727714771,-0.0015373862361783516,0.01154921957623144,-0.0147665821169589,-0.007502857230469549,0.09382576222255114,0.0010612516818018583,-0.0031029409945065177,-0.0006635983118629594,-0.028112793975902026,-0.045616857645070626,0.0,-0.026432919153879436,-0.0519218401309465,-0.18442807682468956,-0.1951660078892595,-0.2235047597812297
0.0,-0.07054622092482096,0.008591129411971448,-0.003410410313976761,-0.010912126180160514,-0.00295094381456105,-0.007448095556539977,0.0013794701466390343,-0.01373449854020315,0.035929707226220055,-0.010257001902779186,-0.011867846497432666,-0.0022701139939464536,-0.027659731649854285,-0.05786312569574883,-0.0005162192931102535,-0.005924090245624371,-0.07803733497429861,-0.23738374774201962,-0.2927485474288682,-0.12050523708765273
0.0,0.0,0.0,0.0,0.0,0.0,0.0,0.0,0.0,0.0,0.0,0.0,0.0,0.0,0.0,0.0,0.0,0.0,0.0,-0.03150356903339025,0.0032508947059215563,-0.0006557509482670744,-0.12056847167331412,0.002078827885477077,-0.005485987788011587,-0.00782148597729822,-0.00044467269986078213,-0.0007677728380101534,-0.006206424559097792,-0.017072349934519383,-0.0023426698804032203,-0.008589042469325354,-0.04144215817778715,0.0008543647936112751,0.0073017083438395285,-0.03423491395960036,-0.3077482536317009,-0.4015881105345347
0.0,0.0,0.0,0.0,0.0,0.0,0.0,0.0,0.0,0.0,0.0,0.0,0.0,0.0,0.0,0.0,0.0,0.0,0.0,-0.052107588106117216,0.0,-0.0006051532426232648,-0.2113690546929634,0.0,-0.0027257402391379563,-0.0037752798961231426,-0.0034769167596380925,-0.05498577439208951,-0.0007844811211367138,-0.021784775350342903,-0.0006630897633592567,-0.03053596448767599,-0.08088087349206259,0.0,-0.002358238401972114,-0.033918531216513496,0.0,-0.0945644659091868,0.0,0.0,-0.20572607111034713,0.0,0.0,-0.0050770280714433035,-0.009554708729432612,-0.052382945637180205,0.0,-0.019173424674833836,-0.0046416283435148,0.0,-0.07449453097433976,0.0,0.0,-0.034356657711477084
0.0,-0.02003397052384473,0.0017527436431281902,-0.00011255800080111009,-0.07886654203352218,-0.0012712517598084182,0.004228722908701527,-0.008608484248080719,-0.004056984408099589,0.02805133032683595,0.0002531205311417186,-0.00533905556232121,-0.00030108284808627497,-0.013745576875019448,-0.03314551430551626,0.0,-0.01294721943450137,-0.029128339077776892,-0.18174973162098496,-0.19521086414134264,-0.38116151675884224
0.0,-0.047114843263947055,0.003514157276947469,-0.001625586933755669,-0.044200005424267746,-0.0016273202477064194,-0.0038908513598924885,-0.0016665114392648102,-0.006810276016787069,-0.0043004946906367155,-0.004741616242060553,-0.010958434500013619,-0.0010794842419656558,-0.014315298444134225,-0.04324808985906359,-0.00026184670000020243,-0.004281637812398018,-0.04228732954676365,-0.22854788362082926,-0.26318999923892356,-0.2722981055107845
0.0,0.0,0.0,0.0,0.0,0.0,0.0,0.0,0.0,0.0,0.0,0.0,0.0,0.0,0.0,0.0,0.0,0.0,0.0,-0.006171819385175095,0.007961106341737021,0.00018972323728726353,-0.0679553132636083,0.006878028827530392,-0.004522595614253079,-0.01466221958280091,0.0047458001108226225,0.05515252011233704,-0.012267233054915477,-0.02145205022657815,-0.004913076262030965,-0.010065103521977406,-0.024410347438687797,0.00234513645423203,0.023231033410937706,-0.0485201263768824,-0.13335425492361172,0.5510017211794861
0.0,0.0,0.0,0.0,0.0,0.0,0.0,0.0,0.0,0.0,0.0,0.0,0.0,0.0,0.0,0.0,0.0,0.0,0.0,-0.052023346634258893,0.0,-0.0006170014068729232,-0.20703820090983915,0.0,-0.002782705109945541,-0.003920583720331136,-0.0035460838582460244,-0.0574464348860915,-0.0007941476765923179,-0.022203895189731874,-0.0007174601044446833,-0.028830594042773102,-0.08232464658262788,0.0,-0.0023939606576168916,-0.03529533985744374,0.0,-0.09379567096821415,0.0,0.0,-0.19594395599817382,0.0,0.0,-0.0052937967765110385,-0.010274723170313537,-0.054591876510060644,0.0,-0.020995694123853367,-0.005022220731112785,0.0,-0.07729270358337698,0.0,0.0,-0.03672375877519918
0.0,0.02055748715448483,0.005333742356776125,-0.0002192986532174,-0.003206507681863526,0.0007937905698874373,0.01900388905212447,-0.014587715703179375,-0.005155238989294992,0.14408954368536564,0.002749788237204343,0.007008102686568369,-0.0007536599254850822,-0.027534457684578673,-0.016231673504628258,0.0,-0.028595136865286544,-0.041348446100455016,0.058314276758709295,0.06278302685863706,0.5415391284705747
0.0,-0.06503857560711987,0.012479307467465632,-0.004249528138402477,0.06701457293924694,-0.0021504721431618067,-0.00014067897936977767,0.008235758676611287,-0.01524169507584123,0.08893573336126778,-0.013204699256248098,0.0005315719596582505,-0.003008967784838892,-0.03469416124219438,-0.03176103199260676,-0.0004906442985175617,-0.0011045984579693018,-0.08859602347911234,-0.029068382642739882,-0.08339065832019357,0.4503627029437886
0.0,0.0,0.0,0.0,0.0,0.0,0.0,0.0,0.0,0.0,0.0,0.0,0.0,0.0,0.0,0.0,0.0,0.0,0.0,0.012735754183762577,0.006069096150751206,0.0006425726845712507,0.0035188850516619545,0.005739029290083313,-0.001313870526856757,-0.00993201696260829,0.0052359768215759425,0.055022234568077394,-0.008557322876463023,-0.011220464000526158,-0.003516978790118801,-0.0046727321471806485,-0.00011854165548670927,0.0018579271255115021,0.019104991616434197,-0.027798873634575706,0.0504807908159829,0.7723917665706542
0.0,0.0,0.0,0.0,0.0,0.0,0.0,0.0,0.0,0.0,0.0,0.0,0.0,0.0,0.0,0.0,0.0,0.0,0.0,-0.051918948073381904,0.0,-0.0006324483040912237,-0.2014335444499463,0.0,-0.002856954662667884,-0.0041096707844062875,-0.0036362542299437474,-0.06064768527033058,-0.0008067783173050851,-0.022750353864417535,-0.0007881412711359583,-0.026618562731081635,-0.08420763508156283,0.0,-0.002440584480851104,-0.03708683280091292,0.0,-0.09280624706821504,0.0,0.0,-0.18325854413809683,0.0,0.0,-0.005575829232022368,-0.01121081274372563,-0.057465924643484156,0.0,-0.023364341472935354,-0.0055169888979517126,0.0,-0.08093419972761773,0.0,0.0,-0.03980150639798604
0.0,0.02294214247839831,0.003119039585747609,-0.00010887791487090917,0.029116795839450385,0.0011967857515019476,0.011576154427883734,-0.006706453649162331,-0.0018848010339217569,0.09191506881432741,0.0019190530399656458,0.007533280058884028,-0.0004151782543360965,-0.01385535354625529,0.0004907532020944849,0.0,-0.015116668372545373,-0.01721854328230277,0.11589419142124342,0.1256462201866204,0.5332949277378908
0.0,-0.025773277499196053,0.008207516000444453,-0.0025343637981774005,0.07875069436566734,-0.000793782396275924,0.0018261298166718696,0.007837292632190922,-0.008494856960579134,0.07488383522955475,-0.008063162953114645,0.006835752257889326,-0.0018379636598638805,-0.020057306640562156,-0.0010857622007394245,-0.0002475734482948629,0.0015875356621432133,-0.04802139279821878,0.10707488079372708,0.08188726978736473,0.5141369775651806
0.0,0.0,0.0,0.0,0.0,0.0,0.0,0.0,0.0,0.0,0.0,0.0,0.0,0.0,0.0,0.0,0.0,0.0,0.0,0.02073511658912314,0.004317755646352068,0.0006758506279700378,0.03478052102491843,0.004487472372328509,-0.0003382195166307518,-0.006049232622626483,0.0050457639256790195,0.04713062348195598,-0.005439442514131697,-0.007548587697000395,-0.00231560676231755,-0.0018751500086246502,0.014301791164698872,0.001379032158829756,0.01473055324648449,-0.012680907850439611,0.11797493491470515,0.69812936615883
0.0,0.0,0.0,0.0,0.0,0.0,0.0,0.0,0.0,0.0,0.0,0.0,0.0,0.0,0.0,0.0,0.0,0.0,0.0,-0.05167278183770289,0.0,-0.0005249069824782851,-0.19365089431249533,0.0,-0.0025113160351369845,-0.0044256561832452185,-0.003824436231019496,-0.06468552413109067,-0.0008397905257620059,-0.021941748245733934,-0.0008895254799949529,-0.023998970486769338,-0.08772865774621985,0.0,-0.0025504211745411374,-0.03978006844063845,0.0,-0.09055137691209737,0.0,0.0009099449089958878,-0.16775325260311916,0.0,0.0,-0.006034746689801011,-0.012570813443742423,-0.06215695514031489,0.0,-0.024580762952184546,-0.006226678359964674,0.0,-0.08572123749495612,0.0,0.0,-0.04433881912564402
0.0,0.023898247307849434,0.002001157316792014,-5.358142778557389e-05,0.044264519504495,0.0013835922125417616,0.007661447502180452,-0.0027696976886591247,-0.0002596440309019541,0.06525118619534628,0.0014926841624740646,0.007410451667908399,-0.00024490698797630415,-0.007001674999047537,0.008705183446614527,0.0,-0.008349729454407463,-0.005196654573953391,0.1420185995870918,0.15427555854573385,0.5177122084632162
0.0,-0.0021820951660335144,0.005203501797249699,-0.001640903877693431,0.07400680742225245,4.173551494124735e-05,0.001711273135625246,0.007094695771535363,-0.004042482362328664,0.0601283836943097,-0.004566227814655035,0.008284090628581294,-0.0010414223760869333,-0.010924112845391413,0.016540643623098025,-9.098943629990147e-05,0.0030386947879879798,-0.021445821252143366,0.16588435716480607,0.15091742417772938,0.46115530081472383
0.0,0.0,0.0,0.0,0.0,0.0,0.0,0.0,0.0,0.0,0.0,0.0,0.0,0.0,0.0,0.0,0.0,0.0,0.0,0.025685738492881992,0.003474418671604666,0.0007012374480349206,0.05233241780883812,0.003738611117775747,0.0003019920259953186,-0.0038890862286384987,0.005204534340439796,0.043908218150388194,-0.00375280950976768,-0.005803679699647715,-0.00168382856363171,-0.0006912763322414546,0.0246646172457456,0.0011647775255006797,0.012433078559961366,-0.004267213873066555,0.1582918684419659,0.647940783636153
0.0,0.0,0.0,0.0,0.0,0.0,0.0,0.0,0.0,0.0,0.0,0.0,0.0,0.0,0.0,0.0,0.0,0.0,0.0,-0.05150906500040974,0.0,-9.313248168308502e-05,-0.1841223888746951,0.0005114215977187604,-0.002160553448489448,-0.004899340318802164,-0.0038167958927388746,-0.06904591997360175,-0.0008978701546196465,-0.021170109301904855,-0.0010294318522759615,-0.020942166228492477,-0.09336997443802589,0.0,-0.002226691843476966,-0.04264682304505893,0.0,-0.08790215853380613,0.0,0.002004601932906537,-0.14844520992493654,0.0,0.0,-0.006713753912794725,-0.014462096710093438,-0.06725439647471688,0.0,-0.026575994699304606,-0.007206022965931743,0.0,-0.091279632154152,0.0,0.0,-0.04958417781372646
0.0,0.024417727390758495,0.0014898118496321142,-2.7128662922992615e-05,0.05059556490658281,0.001512888371008666,0.005887450255529354,-0.0008597609223125533,0.0005513634517199594,0.05325809189405673,0.0013162693993942311,0.007537783669904543,-0.00016549214614434009,-0.003841991552034078,0.013060124409303828,0.0,-0.005486247100642054,0.00039112212592097004,0.15478633129997374,0.1686163677784154,0.5061477881656014
0.0,0.011098170938022678,0.0034912108149058054,-0.0011671881635724887,0.06885802557838876,0.0002082481903509915,0.0016655218369719925,0.006747142564771091,-0.0014911196794765698,0.05125829741439429,-0.002553530928407453,0.00913626068890954,-0.0005829820112980754,-0.005949329051793724,0.02685450793494271,6.135441676465747e-07,0.0038287205522773778,-0.0063213557113526294,0.19640540186837271,0.18659639830471716,0.4157258179102022
0.0,0.0,0.0,0.0,0.0,0.0,0.0,0.0,0.0,0.0,0.0,0.0,0.0,0.0,0.0,0.0,0.0,0.0,0.0,-0.026031385883837507,0.0030036410947034,-0.00020088078656424577,-0.11008557352251973,0.002656311586997866,-0.004181843244209691,-0.006686556406913959,0.0024363481724267943,-0.0030738513532154034,-0.004210403761028525,-0.024307162431586985,-0.001977452558226498,-0.008532852221358841,-0.01684338485516146,0.0010225991212417717,0.008773481742271588,-0.02324916627580389,-0.2747022696685266,-0.47794445298942584
0.0,0.0,0.0,0.0,0.0,0.0,0.0,0.0,0.0,0.0,0.0,0.0,0.0,0.0,0.0,0.0,0.0,0.0,0.0,-0.052260309336127596,0.0,-0.0009493697753989027,-0.19803147999159038,-0.000522188972784994,-0.002826175610447587,-0.004205226943752243,-0.003990147660402168,-0.06300624159460132,-0.0008107133770953608,-0.023223635259190294,-0.0007882179834291439,-0.02497891420470718,-0.08290172260301232,0.0,-0.0029036494884512446,-0.038573465256361114,0.0,-0.09269699031156582,0.0,-0.0003068662997686363,-0.17563431644223748,0.0,0.0,-0.00573321701300472,-0.011619208104176819,-0.059040132096860466,0.0,-0.02420775619873513,-0.005517525884004009,0.0,-0.08306958715985607,0.0,0.0,-0.04214585854714231
0.0,-0.01890888673664039,0.0017025741420193324,-9.837117260019432e-05,-0.0807775517682245,-0.0003033823703938671,0.0037831785420145148,-0.007888973121138888,-0.002415386305157441,0.027595402097686454,0.0007926358282301101,-0.004114061335291656,-0.00028348007851094294,-0.01174466205987355,-0.03621864400347668,0.0,-0.013440564160654266,-0.025320073588816605,-0.17385594744001123,-0.18132705548793174,-0.4093448875564731
0.0,-0.03889274486752258,0.003598526733620949,-0.002547436650157661,-0.05948500212040837,-0.001499832296326334,-0.0038051556459850985,0.0018787292761500236,-0.004406380015856653,-0.00553641670872299,-0.0039615264350659415,-0.011548897923717388,-0.0009431807377397756,-0.016054105298336317,-0.023991875680661145,-0.00011800730062688669,-0.0009268490783334721,-0.03340022941447805,-0.1868999358203932,-0.24636961031165225,-0.35403622054456435
0.0,0.0,0.0,0.0,0.0,0.0,0.0,0.0,0.0,0.0,0.0,0.0,0.0,0.0,0.0,0.0,0.0,0.0,0.0,-0.01738991491193261,0.005447717711182587,0.00017057612256535235,-0.11325507754149922,0.005226633928339789,-0.005159791115121788,-0.009336702731048568,0.007525284977575238,0.014051050830025412,-0.006221107278755567,-0.04059605040915961,-0.0031024403581576985,-0.012907355110380244,0.006178584849079666,0.0019477292368159324,0.01756737725749061,-0.021746247177051328,-0.2712533573094912,-0.4407671075900609
0.0,0.0,0.0,0.0,0.0,0.0,0.0,0.0,0.0,0.0,0.0,0.0,0.0,0.0,0.0,0.0,0.0,0.0,0.0,-0.05194730299413864,0.0,-0.0006528227566225418,-0.1897701528408872,-0.00017210002920521624,-0.002591744287752173,-0.0046395314679962135,-0.004059520424001697,-0.06710696942035847,-0.0008655418979057926,-0.02282601638922824,-0.0009027605641650176,-0.02225563223115896,-0.0876823825853164,0.0,-0.0027074491948537883,-0.04133484326493841,0.0,-0.09067926911810888,0.0,0.0004199484148480509,-0.1580494927186789,0.0,0.0,-0.006357761786677731,-0.01329475929083161,-0.0636010335862134,0.0,-0.026244385596465657,-0.0063193239491551294,0.0,-0.08839475445882135,0.0,0.0,-0.046993938258423504
0.0,0.019967583434464056,0.009486524339532832,-0.0003550017846433296,-0.08546580759248767,0.004601933935401594,0.02773682751855549,-0.024664993299062927,-0.002498254816076323,0.24051087487678294,0.00679110365270156,0.011701538815240347,-0.001314002455859478,-0.044466811955639556,-0.07061546272171823,0.0,-0.057331162076718296,-0.06472307041210049,-0.0305477029239414,-0.004043761260088356,0.2928162539357208
0.0,-0.0472328613210169,0.010533123753749932,-0.007147310641709868,-0.05488089689390444,-0.0030349581862543474,-0.0070025912142020925,0.0147862351643336,-0.006707415556350949,0.044678211618971446,-0.009200691400487166,-0.014414813640593127,-0.002200729355179491,-0.03872249756380031,0.009532252679502569,-7.311563303249557e-05,0.005775922631213891,-0.053308618013109904,-0.08171240803359464,-0.23673837248922147,-0.35206497941079223
0.0,0.0,0.0,0.0,0.0,0.0,0.0,0.0,0.0,0.0,0.0,0.0,0.0,0.0,0.0,0.0,0.0,0.0,0.0,0.0006422079823903801,0.009857216479354067,0.000776033289709132,-0.11661430905687223,0.011850039711324702,-0.007217499730751312,-0.014455583803288166,0.01633073269995758,0.0471525131926067,-0.009764152246473607,-0.06967390928636748,-0.005190654686597154,-0.02111038893644243,0.049796587976045914,0.003605554739190918,0.033232755541334466,-0.02057709039617617,-0.25617451533499347,-0.30581561943411456
0.0,0.0,0.0,0.0,0.0,0.0,0.0,0.0,0.0,0.0,0.0,0.0,0.0,0.0,0.0,0.0,0.0,0.0,0.0,-0.051477118194634214,0.0,-0.00026855839273963884,-0.17884894118271344,0.0002807894253534696,-0.0022853535532948764,-0.005195250167456854,-0.004144105349529308,-0.07232473518463993,-0.0009353456594383307,-0.02228312262749195,-0.0010497289974906155,-0.018706324481699947,-0.09375338747045439,0.0,-0.002450346204580842,-0.044853277175285575,0.0,-0.08795604344257203,0.0,0.0013592063853584467,-0.13511277054853785,0.0,0.0,-0.007157300038953172,-0.015444530011767814,-0.06941823182819365,0.0,-0.028844719933868605,-0.007348102982434306,0.0,-0.0951689214071703,0.0,0.0,-0.053203391407956394
0.0,0.02453830010203464,0.006425443107614395,-0.00022012253838706982,-0.023759179565308194,0.0026847710120847545,0.019487617282738446,-0.014675397207724847,-0.0005383846065844879,0.16988685551027957,0.004849747212400843,0.011369672945275177,-0.0008620542484335246,-0.027910610355548055,-0.03668091690746364,0.0,-0.036983425987297716,-0.03621471251263392,0.06511419010471213,0.08972616718312026,0.4280103527106731
0.0,-0.04392644565664708,0.019174632184267383,-0.012834385577976077,-0.024948782552711116,-0.0028635296413789505,-0.010384793852458203,0.03222339913936209,-0.00867328877068269,0.12077017781720142,-0.01538065053285118,-0.014779060681272669,-0.0036862558871194324,-0.06576631685428032,0.06887932191536103,2.2482977914025845e-05,0.015364844333345567,-0.07086575690542231,0.1416211450796206,-0.1273178477166313,-0.20034400220309834
0.0,0.0,0.0,0.0,0.0,0.0,0.0,0.0,0.0,0.0,0.0,0.0,0.0,0.0,0.0,0.0,0.0,0.0,0.0,0.03388130138032617,0.017713584358919805,0.0020470627409001764,-0.11490312312551564,0.02382316308884365,-0.009199767846627498,-0.023183081705775745,0.03116379426577943,0.10452693629344237,-0.015434876286136434,-0.11688228390678729,-0.008729547885455526,-0.035033907122136894,0.1240888550284904,0.006399434533122404,0.05960770427925553,-0.017215911677861604,-0.20534389231984002,0.05065632667030332
0.0,0.0,0.0,0.0,0.0,0.0,0.0,0.0,0.0,0.0,0.0,0.0,0.0,0.0,0.0,0.0,0.0,0.0,0.0,-0.05082332261270591,0.0,0.0002280980336408131,-0.16457914765650256,0.0008656046265277466,-0.00188748142063537,-0.005908477750700648,-0.004249642828842113,-0.07900017075438417,-0.0010246792984848726,-0.021561703204513165,-0.0012386452567605545,-0.014104272369581002,-0.10151177696821412,0.0,-0.0021159980981424664,-0.04935817333807717,0.0,-0.08435877232574822,0.0,0.002571368217823409,-0.10536007016068051,0.0,0.0,-0.008183739574050046,-0.018207808874485528,-0.07687066712450129,0.0,-0.03217798790659367,-0.008670516797323856,0.0,-0.10383441993694068,0.0,0.0,-0.06117717441487431
0.0,0.026091249757921705,0.00452887372099151,-0.00013670571291797318,0.011657018160767842,0.001380769565377261,0.013558211764661373,-0.008501176199550044,0.0006673329226394077,0.12450748073573764,0.002831878681439389,0.011019092864328948,-0.0005822460309260999,-0.017669199523191237,-0.016110430724573317,0.0,-0.02439020517845576,-0.01897997698352933,0.11580805269432279,0.1327834493316831,0.46873447286386377
0.0,-0.023382399873655698,0.021008385498209638,-0.01394252613257275,0.01800730281439439,-0.0014400964813655955,-0.009432934158006771,0.038307336151129544,-0.0074597061240234235,0.15547127218643833,-0.015797984738144134,-0.009264852329329387,-0.00384993129447338,-0.06925155242377651,0.10543125499455866,0.00011394121539873,0.019598048896407143,-0.06213288703160459,0.32736824645978985,0.0424589432407155,0.05617398704234416
0.0,0.0,0.0,0.0,0.0,0.0,0.0,0.0,0.0,0.0,0.0,0.0,0.0,0.0,0.0,0.0,0.0,0.0,0.0,-0.006819002304177822,0.007118790257516059,0.0004919232917306869,-0.1124403904263256,0.009510564480814864,-0.00544636050970517,-0.010772269111990166,0.01153341587745273,0.02451597548676959,-0.006558066421374253,-0.05474900410713609,-0.0037201888873818548,-0.017440455001566716,0.032604600090898654,0.002561589851292279,0.022773317995538285,-0.015264270302542099,-0.256966734619537,-0.39867363065732003
0.0,0.0,0.0,0.0,0.0,0.0,0.0,0.0,0.0,0.0,0.0,0.0,0.0,0.0,0.0,0.0,0.0,0.0,0.0,-0.05188837834388256,0.0,-0.0007607383918060772,-0.18710957228182967,-0.0003151896241906762,-0.002660698264160183,-0.004822507835657893,-0.004223853979840876,-0.06871978563982145,-0.0008808000005315236,-0.02342687332848034,-0.0009057877917675648,-0.021071854366478217,-0.08782353019070044,0.0,-0.0028834142710052494,-0.04245236200475978,0.0,-0.09091251079899655,0.0,2.6086215544879356e-05,-0.15062172373682325,0.0,0.0,-0.006555367336358393,-0.013723820271392295,-0.06486407228422021,0.0,-0.027822951111624313,-0.006340514542372915,0.0,-0.08999901456973682,0.0,0.0,-0.0491314578789324
0.0,-0.016924597657647443,0.002524884734052463,-0.00010900919288543907,-0.08159832418257326,-0.0020137948110908717,0.005338632506912373,-0.008084356284340424,-0.001127518431224761,0.045697626496428397,0.00037400746505653114,-0.001991085531505256,-0.0003703702457711155,-0.013912858687784307,-0.043414403729835516,0.0,-0.017823475979389578,-0.025408186039243667,-0.1614248838299509,-0.17345258516688902,-0.3983588307647276
0.0,-0.04132051110733064,0.011925680401653526,-0.008600207646833868,-0.059818495459651275,-0.0016517122413219909,-0.008137635479988518,0.019070015902872203,-0.005722828942168254,0.05613782013719717,-0.009682390079768477,-0.016961507424561772,-0.0023649542364432784,-0.044504925859702636,0.029659948979388923,3.2455223400454813e-06,0.007853309691036293,-0.049985710520359834,-0.02770948636223244,-0.21585727608099023,-0.3829757566600758
0.0,0.0,0.0,0.0,0.0,0.0,0.0,0.0,0.0,0.0,0.0,0.0,0.0,0.0,0.0,0.0,0.0,0.0,0.0,0.032764722433108476,0.017382995494124427,0.0020412023422414966,-0.12885446754022017,0.026172390384507315,-0.006983481895939332,-0.021803625094847078,0.031048468501720345,0.09565713095243361,-0.013475252886216994,-0.12087440168019864,-0.008337041720012671,-0.03831551356615628,0.1292981353184934,0.006164999628595281,0.055936230413106,-0.00980627899945849,-0.23902957601469532,0.01583485288997871
0.0,0.0,0.0,0.0,0.0,0.0,0.0,0.0,0.0,0.0,0.0,0.0,0.0,0.0,0.0,0.0,0.0,0.0,0.0,-0.051440438007333104,0.0,-0.00041278661212311907,-0.17555958191587162,9.150962808104267e-05,-0.0023826284611538724,-0.00541195247054448,-0.004364337646582066,-0.07440634526877127,-0.0009562820265735931,-0.023087931139794047,-0.001054259214490208,-0.017229487951857782,-0.09384505895835907,0.0,-0.002661026247876107,-0.04627993486650176,0.0,-0.08824386748954595,0.0,0.0008427778361781667,-0.12604595560343526,0.0,0.0,-0.007419127087929292,-0.016008338530529343,-0.07090527811836833,0.0,-0.030688984619718866,-0.007379814501431414,0.0,-0.09736964607138109,0.0,0.0,-0.0557823069735896
0.0,-0.007151233188508637,0.005674024672601337,-0.00018530160718518814,-0.09433216599014776,-0.004158865224255374,0.012811361178028799,-0.012169096282372269,0.0006546935162321645,0.12631650835201022,0.00017364032914169304,0.004628079467207292,-0.0007499031673716796,-0.025216581929006728,-0.06442478769811756,0.0,-0.03514208596879962,-0.03352161046548706,-0.11988760716473847,-0.14063466847449999,-0.3119976128131435
0.0,-0.03036467248548215,0.018756666265353075,-0.013323536207729778,-0.027995753434286286,-0.00033098004666359094,-0.00937116932161357,0.03459633061800956,-0.006120186511228272,0.12249408174601707,-0.013807643824828053,-0.017276103400250115,-0.003461340708504768,-0.06606781806112688,0.086995239382637,0.00012559928600385504,0.015519548655784058,-0.05701674670159687,0.2011674017396968,-0.08174356998323612,-0.19331518516236046
0.0,0.0,0.0,0.0,0.0,0.0,0.0,0.0,0.0,0.0,0.0,0.0,0.0,0.0,0.0,0.0,0.0,0.0,0.0,0.04296692305683269,0.014358167158260023,0.0019508292457383824,-0.05958072969788994,0.022547827548400973,-0.0037771992206265172,-0.01659070190920245,0.02662268794873119,0.09052909516856608,-0.010330115346482087,-0.09572015427009557,-0.0066507797627816875,-0.030301601408864277,0.12274112766941378,0.0050638467017689245,0.046305900925505065,0.0009929388775789542,-0.07250871263576705,0.33038162044929
0.0,0.0,0.0,0.0,0.0,0.0,0.0,0.0,0.0,0.0,0.0,0.0,0.0,0.0,0.0,0.0,0.0,0.0,0.0,-0.050821088271764465,0.0,3.693456698321766e-05,-0.160503004623314,0.0006167053698538969,-0.0020215996234520138,-0.006168949527856692,-0.0045423149143147094,-0.08169172467494044,-0.0010530112934965994,-0.022631853972033156,-0.001245179464098482,-0.01225324680360086,-0.1015476402081845,0.0,-0.0023716917536007126,-0.05118667619868292,0.0,-0.08472718831039341,0.0,0.0018968990067453318,-0.09420535326983014,0.0,0.0,-0.008528820441750181,-0.018946182975458095,-0.07865147530566521,0.0,-0.0343662304953125,-0.008716256248689352,0.0,-0.10681185078409015,0.0,0.0,-0.06432788256805845
0.0,0.01160315268247819,0.011500772626395794,-0.0003291379533361696,-0.11428717383544963,-0.008144253219790221,0.026601399524178993,-0.01999587411370284,0.0038093135939803045,0.2757851334367807,-0.00016719626347943693,0.01689046499457279,-0.0014558347167328782,-0.04640266911208232,-0.10348090746768063,0.0,-0.06740632412484401,-0.046979735151973366,-0.038567982815614625,-0.07244506952476036,-0.13396979122793115
0.0,-0.009065721489561925,0.01871088356816475,-0.013168834482672441,0.01338944731938269,0.001035258930216014,-0.007283624156926528,0.03728456643467116,-0.004275633582657444,0.14291865290377387,-0.01291812706866735,-0.011504364375341304,-0.0032973338450439983,-0.06353968760474127,0.11130899180770865,0.000197873141496267,0.017389858211354057,-0.04339682065129243,0.35095694306398956,0.07696479671398933,0.06129554924296255
0.0,0.0,0.0,0.0,0.0,0.0,0.0,0.0,0.0,0.0,0.0,0.0,0.0,0.0,0.0,0.0,0.0,0.0,0.0,-0.00410405199245735,0.007557094920210837,0.000547279856178506,-0.11699165936933707,0.01175236178274464,-0.004356159914931954,-0.010444755632883539,0.012707464543080877,0.025286924933579098,-0.005896360071202278,-0.06038775366446159,-0.0037645237260142093,-0.02003575246203171,0.041941235975439826,0.0026541545911878983,0.022950137855643028,-0.011397878663958548,-0.2644499456545757,-0.3727229931556772
0.0,0.0,0.0,0.0,0.0,0.0,0.0,0.0,0.0,0.0,0.0,0.0,0.0,0.0,0.0,0.0,0.0,0.0,0.0,-0.05182436283070312,0.0,-0.0008679983630870972,-0.18457659040154623,-0.00045566127240165294,-0.0027333784405246435,-0.004964077492186535,-0.004384369866325659,-0.0701598378095287,-0.0008957679664237246,-0.024004143561862853,-0.0009083901065171819,-0.019998870350124816,-0.08773761611605296,0.0,-0.0030246250128184377,-0.04343577748835845,0.0,-0.09101105364982501,0.0,-0.00035562944383735407,-0.14412708256948395,0.0,0.0,-0.00674272189658103,-0.01412507147776132,-0.06579339365714983,0.0,-0.02902763641137282,-0.006358730745620233,0.0,-0.09157511134637084,0.0,0.0,-0.05085503588045961
0.0,-0.013611064119157568,0.0035834815515496787,-0.00011826036053537023,-0.08355772018067707,-0.0039878011447281765,0.007175835653953835,-0.008156422939918672,0.00030700289824338084,0.07308140397457301,-0.0006525133749150016,0.0006835072218756056,-0.0004799797043635231,-0.01675663342507787,-0.05108721609769319,0.0,-0.023348068584382015,-0.023102726051718734,-0.13586457478572256,-0.157381370854518,-0.3970344028131978
0.0,-0.03561741934608525,0.011368241419830656,-0.008689830593024873,-0.06627323345810988,-0.00021724345204342227,-0.007899027140342806,0.02003643466726018,-0.004252029815431902,0.052655320031810705,-0.008571385855171898,-0.019437588123390314,-0.002184532806611375,-0.043832540961083986,0.03526254756897819,5.808855112626052e-05,0.007269592573306565,-0.04323034081233726,-0.014824473942328248,-0.20980900582782003,-0.4084505794080834
0.0,0.0,0.0,0.0,0.0,0.0,0.0,0.0,0.0,0.0,0.0,0.0,0.0,0.0,0.0,0.0,0.0,0.0,0.0,-0.02001538166476256,0.0029426165880292424,-0.00012220899713878163,-0.10478795189717638,0.004495647161989423,-0.00335224917488295,-0.005264662572549399,0.004035655399690997,-0.005600301886145546,-0.0026171681317073937,-0.030507453485600387,-0.0016504890871416572,-0.010659793951751487,0.0006439903519456822,0.0010257345280702275,0.007965725522064215,-0.012719255407026751,-0.2598649419175172,-0.5216913802942894
0.0,0.0,0.0,0.0,0.0,0.0,0.0,0.0,0.0,0.0,0.0,0.0,0.0,0.0,0.0,0.0,0.0,0.0,0.0,-0.052239156125928006,0.0,-0.0013760732589386448,-0.19762124393836644,-0.0010594146146788758,-0.0031270198662866617,-0.00426973454769468,-0.00428244875736132,-0.06344812510123503,-0.0008044280396182121,-0.02470837708653242,-0.0007157043464753911,-0.024310956021136164,-0.079689143128667,0.0,-0.003384212472294882,-0.038935513077258496,0.0,-0.09429101575000681,0.0,-0.0016255820192381822,-0.1718746657933297,0.0,0.0,-0.005715228573458229,-0.01136351650230498,-0.05834612271306367,0.0,-0.025930582340669698,-0.005009930425327707,0.0,-0.08271040930265268,0.0,0.0,-0.0431044969624207
0.0,-0.02073216766149691,0.0012051640618228761,-5.468742056752305e-05,-0.0730632836219484,-0.002718327835769773,0.001356519871556911,-0.0045721565974278285,-0.0007323967383333732,0.012481920842933423,-0.0007896493927513855,-0.004119007361734357,-0.00018645756022147718,-0.007817988709810549,-0.035001627497267256,0.0,-0.010079382918842215,-0.015754107004492222,-0.16229404092666708,-0.17993993136847358,-0.467071245741658
0.0,-0.03178193065682274,0.004275117517207927,-0.0036863672150192605,-0.0699073796242894,-0.0005958429995813399,-0.005080988828904238,0.005945047960831579,-0.0026040869960692,-0.0010394749303920367,-0.0036624085751274394,-0.014872549847718986,-0.0009315772924743534,-0.019659626842341717,-0.006443407014354715,-1.590586262416613e-05,0.0007428404658026147,-0.02653292295376977,-0.1441391222486385,-0.2347888184439551,-0.4232572067715223
0.0,0.0,0.0,0.0,0.0,0.0,0.0,0.0,0.0,0.0,0.0,0.0,0.0,0.0,0.0,0.0,0.0,0.0,0.0,-0.024620702635751706,0.0011856063308918073,-0.0003581853793637208,-0.09581304342312422,0.0017626772062530936,-0.0028764672490727366,-0.0032216332428278527,0.0007853090018228861,-0.01617105183224122,-0.0013504396401703323,-0.018738894720405054,-0.0008351200161736044,-0.006874588318074534,-0.013913734853383602,0.00040613463988716647,0.002315081358989084,-0.012731548165679634,-0.24716241218366455,-0.5488409305317395
0.0,0.0,0.0,0.0,0.0,0.0,0.0,0.0,0.0,0.0,0.0,0.0,0.0,0.0,0.0,0.0,0.0,0.0,0.0,-0.052473198619934915,0.0,-0.001662754742463331,-0.20498168017907717,-0.001400082757825124,-0.0033491320202248816,-0.003877950657589934,-0.004224939298247494,-0.05966103057902248,-0.000752889346851253,-0.025105739019177977,-0.0006069812052519459,-0.026744051070690982,-0.07514777916368064,0.0,-0.003587109627924626,-0.03639623209718395,0.0,-0.0961417277790853,0.0,-0.002342153489184509,-0.18753124274284194,0.0,0.0,-0.005135464214919346,-0.009805306120988335,-0.054143989425026864,0.0,-0.024183064992395333,-0.004248868436763618,0.0,-0.07770848724166174,0.0,0.0,-0.038731245942279835
0.0,-0.022485549562003698,0.0005042988211060468,-3.6090662821865124e-05,-0.06910727311465109,-0.0022412402605963343,-0.00036811538601566124,-0.0035188363119593126,-0.0010464017696932913,-0.005273161059367395,-0.0008353193406278643,-0.0055743557927770354,-0.00010019049028651908,-0.005141696526618761,-0.02996652724578552,0.0,-0.006189775366548283,-0.013671542915232001,-0.16852939696060404,-0.18513055071002196,-0.480248832888269
0.0,-0.028454908594998846,0.001540074404873809,-0.001714442562241812,-0.06650473099612267,-0.0006757279241592918,-0.0037793625495496624,0.0006578172353839536,-0.0018662585071138797,-0.019777788053597742,-0.0017248198552386627,-0.012341808492566787,-0.0004372356851236111,-0.01002251099849825,-0.020660227758738905,-4.059141498065021e-05,-0.0015709778393453845,-0.01911940999842091,-0.18007035728038673,-0.22872451871207036,-0.4002810067201539
0.0,0.0,0.0,0.0,0.0,0.0,0.0,0.0,0.0,0.0,0.0,0.0,0.0,0.0,0.0,0.0,0.0,0.0,0.0,0.007188025468557345,0.010153032298648635,0.001975099615712626,-0.1516131742749988,0.022077868918876444,0.00043257561119561233,-0.012479047259131404,0.017465811767988237,0.0350090136329457,-0.00020435819169900628,-0.09627322577896642,-0.004811636970667923,-0.029283730712429325,0.07697614983111171,0.003348925730142788,0.026389923148054013,-0.0016273376795925049,-0.3461750197520949,-0.15598843232572504
0.0,0.0,0.0,0.0,0.0,0.0,0.0,0.0,0.0,0.0,0.0,0.0,0.0,0.0,0.0,0.0,0.0,0.0,0.0,-0.052133579715009724,0.0,-0.001546461627954203,-0.19871483249423924,-0.0013270720774537998,-0.003077561855858968,-0.004212013250655167,-0.004301379911995085,-0.0625447681493958,-0.0005734668170956728,-0.02524649316588345,-0.0006707943060686082,-0.024619660921026704,-0.07762892961720391,0.0,-0.0036031790265864568,-0.03826170388562595,0.0,-0.09539509731351344,0.0,-0.002244470875547216,-0.17345414897171593,0.0,0.0009620491324928246,-0.005610117101703395,-0.01047038792083267,-0.05740474182446931,0.0005110921166259795,-0.026121440619959066,-0.00469556014248026,0.0,-0.08201107864301031,0.0,0.0,-0.04252799465793996
0.0,0.005482446747995408,0.009260414067630703,0.0004253820505136514,-0.1092666422941873,-0.015203272934690695,0.03556440677315231,-0.018358384982041842,0.0035102931618014033,0.21691776269609647,-0.004603573203262655,0.0005893270804055436,-0.0012227539734549699,-0.03225291823829168,-0.14032325194297107,0.0,-0.06518542944109597,-0.03167715525675745,-0.10987456774864317,-0.19674822439733086,-0.0027930121852527703
0.0,-0.02927535615407881,0.010720350781173282,-0.009882406661157105,-0.07910258322927059,0.003810545725219495,-0.002770686812791257,0.022488361093542512,-0.001243544402010076,0.041057504475545264,-0.0034409220480162766,-0.03698929247129083,-0.0019944574962130713,-0.04431252884078784,0.044684471709134796,0.0001717989234541129,0.004344868616296593,-0.03254712820755663,0.00036149086987285643,-0.2450511119310878,-0.38522564183128577
0.0,0.0,0.0,0.0,0.0,0.0,0.0,0.0,0.0,0.0,0.0,0.0,0.0,0.0,0.0,0.0,0.0,0.0,0.0,0.03232485449449676,0.010238836083852955,0.0025326911497465573,-0.07509699903872034,0.023013516456534575,0.0032049078680107435,-0.010963705641734158,0.019045896424370254,0.054809269892487474,0.0010125194280475763,-0.08812383126904945,-0.0046012925098391465,-0.026357395487089035,0.0994379803012324,0.0033633856456168347,0.027796430938388194,0.010214890573909093,-0.1314178419804653,0.37634954468579984
0.0,0.0,0.0,0.0,0.0,0.0,0.0,0.0,0.0,0.0,0.0,0.0,0.0,0.0,0.0,0.0,0.0,0.0,0.0,-0.051700729638634285,0.0,-0.001396709322052555,-0.19065578329782318,-0.0012330887064594387,-0.002727806831633615,-0.004643005030062895,-0.004400314135574838,-0.06626769488405426,-0.00034225125810867545,-0.025430296830836266,-0.0007531103615927241,-0.021883711642070904,-0.08083435506914079,0.0,-0.0036242310885846135,-0.04066983499260276,0.0,-0.09444169522605833,0.0,-0.0021187725731797273,-0.15532558056466977,0.0,0.0022021882914578374,-0.006222456585414318,-0.011328641274604636,-0.06161314403707833,0.0011699205758584597,-0.028622399577934977,-0.005271772531149061,0.0,-0.08756469199037362,0.0,0.0,-0.04742587759608527
0.0,0.02307989964747622,0.00801865713416507,0.0004155149777970127,-0.043758016098431524,-0.012039483587036439,0.032630372473106184,-0.013891207004351543,0.004024813154672782,0.20154964004876372,-0.003520849173287426,0.0052082192270626335,-0.0010320402910281995,-0.025232998226740324,-0.10373402098620473,0.0,-0.05434285767367015,-0.017837260367501787,0.03546654891000463,-0.02965911467778358,0.38447823806039677
0.0,-0.008371963436695417,0.019926587922649435,-0.017854937443431564,-0.03739488599578714,0.009216373937250338,0.0007478322996189216,0.04628819702407043,0.0008030742027176439,0.12261998162847561,-0.004249557134645827,-0.05226817304471651,-0.0034443402935239076,-0.07598841734684308,0.1318545884054668,0.0004331838685659331,0.012542625952012405,-0.03485501792223218,0.34062259400595524,-0.06046155979031001,-0.019878321436827426
0.0,0.0,0.0,0.0,0.0,0.0,0.0,0.0,0.0,0.0,0.0,0.0,0.0,0.0,0.0,0.0,0.0,0.0,0.0,0.03886442706460446,0.007391472502846716,0.002184949564922997,-0.00529303272364121,0.017107403656922864,0.004138878226596354,-0.006855389964507822,0.014693694255388495,0.05111070465818143,0.001534302993405107,-0.0577082620241201,-0.0031562227722032256,-0.01693522766182125,0.08593290950448335,0.002418921442686642,0.020791351669903074,0.015038895640147255,0.04350380370325238,0.6052726049246819
0.0,0.0,0.0,0.0,0.0,0.0,0.0,0.0,0.0,0.0,0.0,0.0,0.0,0.0,0.0,0.0,0.0,0.0,0.0,-0.05114280142101193,0.0,-0.0012036837129804116,-0.18026794587727726,-0.0011119473558938108,-0.0022769845392363428,-0.005198538854222441,-0.004527837055605742,-0.07106642191904723,-4.422226874289785e-05,-0.025667213906937342,-0.0008592129704865212,-0.018357166382154216,-0.08496604077412151,0.0,-0.003651366537909759,-0.04377383475990559,0.0,-0.09321279383740147,0.0,-0.001956751768266718,-0.13195847466417066,0.0,0.0038006855403249634,-0.007011741459931438,-0.012434900847638864,-0.06703763238477962,0.0020191280796658605,-0.03184605109934705,-0.006014490793405646,0.0,-0.09472311216590294,0.0,0.0,-0.05373908293467957
0.0,0.026380853350160275,0.005008143498092454,0.0002906304318210846,0.005963250498949157,-0.006777254935885436,0.02158997555808299,-0.007353116195459608,0.003163599015787791,0.13486612645540033,-0.0018919967669570035,0.00635160437629353,-0.0006269275700874159,-0.013981911695577052,-0.05306526051568089,0.0,-0.0325541919073014,-0.004813430458808673,0.10785843457440644,0.07384466946886481,0.4935613937309668
0.0,0.009582715386871913,0.012437011174342795,-0.010976915377798326,0.0120503921663556,0.006445727884641778,0.002383639713390348,0.03034893641462758,0.0015134932193346885,0.09136000035518323,-0.0019547502029285176,-0.027264531511410863,-0.002064315564179843,-0.04535457766883631,0.09813300650716475,0.00030737088624572525,0.009272685358415791,-0.013434990595744087,0.322418425766067,0.08998672757013992,0.21264883663178982
0.0,0.0,0.0,0.0,0.0,0.0,0.0,0.0,0.0,0.0,0.0,0.0,0.0,0.0,0.0,0.0,0.0,0.0,0.0,-0.009878567853639258,0.006950842988537353,0.0014437706563716827,-0.14670736645790247,0.015691159638745844,0.0005095741483858072,-0.009191388802690697,0.010835868789770392,0.009252111715126835,0.0008908615112258113,-0.068987381619668,-0.003392886303108786,-0.02174805953788982,0.04335768547607181,0.002263926569899212,0.017359848848631433,-0.006070995773985639,-0.3211800413282327,-0.30419710316862336
0.0,0.0,0.0,0.0,0.0,0.0,0.0,0.0,0.0,0.0,0.0,0.0,0.0,0.0,0.0,0.0,0.0,0.0,0.0,-0.052275413949809585,0.0,-0.0016359494827900337,-0.19607302406913982,-0.0014047782858133877,-0.00319019750560501,-0.004365818841818319,-0.004556941471384803,-0.06431457838165922,-0.000730806880336782,-0.025699854256512892,-0.0006833669599171795,-0.023495857516017488,-0.07800466543154076,0.0,-0.0036896569822418143,-0.03955844366403918,0.0,-0.09559894990593808,0.0,-0.002484657240534949,-0.1656603902870117,0.0,0.00029205555597920565,-0.005820662878046168,-0.011627343562418856,-0.05850082279140291,-0.00015456935374072355,-0.02727952078628476,-0.004783568719420255,0.0,-0.08367616868936587,0.0,0.0,-0.04438475502044173
0.0,-0.016483645661811763,0.003126136408769231,0.00013356192484791272,-0.08520173488069392,-0.006402910750835229,0.01199338771292571,-0.007989247345080136,-0.00016096874551560148,0.05953205185338298,-0.00200490634625322,-0.003922504342386553,-0.000437659742187474,-0.012675194752976742,-0.06640392290598927,0.0,-0.02426146767470198,-0.019763106498574254,-0.1605527091360768,-0.19956644275119478,-0.31933067656898645
0.0,-0.033213798909868156,0.010690334524023633,-0.010294762310388245,-0.08461755482185639,0.004328279089325472,-0.0013748509801354875,0.022675932818481376,-0.0016658682271861193,0.03135287703178788,-0.0024825772054445847,-0.038653129039172465,-0.002006840933922793,-0.04539001408965177,0.04044111368422462,0.0001838447394098942,0.003798450259762826,-0.03452008598844854,-0.0229198397137325,-0.2479951771184906,-0.36130914749471343
0.0,0.0,0.0,0.0,0.0,0.0,0.0,0.0,0.0,0.0,0.0,0.0,0.0,0.0,0.0,0.0,0.0,0.0,0.0,0.019143113430175863,0.010989139225266476,0.0030457596399066766,-0.11622066506831015,0.025742562425518017,0.0047479603980549725,-0.012133618943548181,0.01846829763001893,0.0415898303538456,0.0030121649182616563,-0.0945364914780527,-0.004990093632593128,-0.028765668024071624,0.10137902699510276,0.00356339891404959,0.029130454626599883,0.009901280458537625,-0.18446264252269576,0.28803367801050894
0.0,0.0,0.0,0.0,0.0,0.0,0.0,0.0,0.0,0.0,0.0,0.0,0.0,0.0,0.0,0.0,0.0,0.0,0.0,-0.05211868192826267,0.0,-0.0015521074684578728,-0.18754809295757008,-0.0013652756609905563,-0.00295622376395788,-0.004893437498566936,-0.004806142235028491,-0.06890915615755948,-0.0005717984393202321,-0.025814271418832017,-0.0007767015038797295,-0.020799132727040384,-0.08130687554537398,0.0,-0.003803941576905158,-0.041162763974415234,0.0,-0.0950631714316705,0.0,-0.0024802446913893455,-0.14580566267928927,0.0,0.0012732180924706624,-0.006560746409583238,-0.012963890545982574,-0.06299673249275888,0.0002772596432991394,-0.029055499851116787,-0.005436910527158114,0.0,-0.09009161992598291,0.0,0.0,-0.049480602036999353
0.0,0.006858071333125112,0.00797274814466781,0.0004616699753395996,-0.07448391171657455,-0.012959010323830561,0.035118089541682745,-0.014589350501576899,0.0015051329797228393,0.18857947944187664,-0.003753996680953861,0.00550815521703456,-0.0010385456650708047,-0.024841801736596395,-0.11791220047835584,0.0,-0.05563414815367152,-0.019847399808645923,-0.04097429334975688,-0.10919417830952562,0.2785594983656627
0.0,-0.018608200452164502,0.020876419835035194,-0.019557866059853404,-0.05088412309853794,0.010367965095420643,0.0030551678766628375,0.04871547727314118,-0.0008815309924605217,0.10764762529646014,-0.0027953481859118432,-0.05758787745511592,-0.003656669271068664,-0.0815099186890274,0.12888379762186367,0.0004709835984769252,0.011872405547802355,-0.03844080018767409,0.3051727786257766,-0.07738763106181216,0.011440181446847464
0.0,0.0,0.0,0.0,0.0,0.0,0.0,0.0,0.0,0.0,0.0,0.0,0.0,0.0,0.0,0.0,0.0,0.0,0.0,0.0312695416286499,0.00885297258580332,0.002814318928061012,-0.040696670701978695,0.021180376813438852,0.005687838919938738,-0.00880247351145748,0.015510030123275221,0.04578032236440171,0.0031844276062946556,-0.0693622908443489,-0.0038433575333020444,-0.020519533263888064,0.09662523177024661,0.0028632374183190073,0.024263961880734534,0.01706408089404004,0.00041919136875910774,0.5811841379096122
0.0,0.0,0.0,0.0,0.0,0.0,0.0,0.0,0.0,0.0,0.0,0.0,0.0,0.0,0.0,0.0,0.0,0.0,0.0,-0.05190088461034602,0.0,-0.0014436204257029799,-0.17650823387098405,-0.0013139682436744795,-0.0026538933250986585,-0.005571680986122175,-0.005125724852983595,-0.07480738475548278,-0.0003667726933025756,-0.025953811157268258,-0.0008967083342909542,-0.017318589106789097,-0.08553636192929993,0.0,-0.003950016204715443,-0.043217078921314774,0.0,-0.09434396277568059,0.0,-0.0024738043450133885,-0.1201822751270667,0.0,0.002536867856425655,-0.007512201724441814,-0.014681822568954351,-0.06876964769183161,0.0008335030965052822,-0.03133465241999387,-0.0062769583400366785,0.0,-0.09832923741879833,0.0,0.0,-0.056030537958490265
0.0,0.018340533646701206,0.006162345140515523,0.00039019337281532223,-0.01961787944412619,-0.009087458696590608,0.02839228070422623,-0.009717809088920082,0.001691280140142878,0.1554946588089273,-0.002526983862263443,0.008321392982064945,-0.0007813225788141814,-0.017138300842475973,-0.07723778825703796,0.0,-0.041281134034523714,-0.006919998953782611,0.0671261153729323,0.023017114037757386,0.5066842630402273
0.0,0.002659295043924356,0.013603613147973932,-0.012568338246464167,0.0033608606604741955,0.007373678324486343,0.0038416079088743004,0.03310764720702741,0.00019026713089854763,0.08487399694861364,-0.0011596571111192407,-0.03179656940162494,-0.002298188366340693,-0.05081528715890402,0.09987115783217808,0.00034300672501169746,0.009172706709272463,-0.015743126965678686,0.31061739680169365,0.07965524950727966,0.23688455727851698
0.0,0.0,0.0,0.0,0.0,0.0,0.0,0.0,0.0,0.0,0.0,0.0,0.0,0.0,0.0,0.0,0.0,0.0,0.0,-0.015969912615168683,0.007163695739150602,0.0017746339952576557,-0.1577845948724809,0.016799148755695166,0.0018280421268450913,-0.009782775133744584,0.00960812483440566,0.0027485758426301857,0.0020945107354824427,-0.06830806557072142,-0.0034547088440058933,-0.021484104887462042,0.04470697561085412,0.0023089088133617496,0.017862808075370253,-0.0036313465255279286,-0.3152410673299876,-0.29736944159384926
0.0,0.0,0.0,0.0,0.0,0.0,0.0,0.0,0.0,0.0,0.0,0.0,0.0,0.0,0.0,0.0,0.0,0.0,0.0,-0.052261345243356176,0.0,-0.0017032793759860303,-0.19355511652274782,-0.0014633244563943388,-0.0032673246983930585,-0.004470381958312226,-0.004749611400537333,-0.06558022620170832,-0.0008638485277285494,-0.026123092077290612,-0.0006896440490554062,-0.022431338105457645,-0.07817642823325355,0.0,-0.0037401638152843707,-0.04089637153231972,0.0,-0.0956255921192021,0.0,-0.0026782084516842513,-0.1586467765371982,0.0,-0.0002979610419277087,-0.0059648491865896556,-0.012560884797414854,-0.05917300360373777,-0.0007372918888717727,-0.028878189015532157,-0.004827508343387852,0.0,-0.08471763953400306,0.0,0.0,-0.045863591678276694
0.0,-0.020161300123721915,0.0033091633077263027,0.0001687166149649784,-0.09144846368464202,-0.006662047298379984,0.01395538917997777,-0.008113963777989864,-0.0010937697088559068,0.06142509063437142,-0.002035540323764395,-0.00236032973004017,-0.0004577614876343523,-0.012486819535695663,-0.07024191600493783,0.0,-0.02540477329750826,-0.01770820210371064,-0.16634802487811448,-0.20454515959549363,-0.2920230065271858
0.0,-0.03892558022635118,0.011449221201865667,-0.011370513094112883,-0.09054286830157983,0.0050834700985679555,6.168105301104675e-05,0.02431479669516559,-0.003187092221832634,0.02439956317366593,-0.0017220602396876025,-0.041400482638356946,-0.0021490417196445674,-0.048740829309088865,0.04043174800594155,0.00021433603918084856,0.00386544180014084,-0.03612307922889306,-0.03411619108933897,-0.2518340802924453,-0.3299841244607277
