0.0,0.0,0.0,0.0,0.0,0.0,0.0,0.0,0.0,0.0,0.0,0.0,0.0,0.0,0.0,0.0,0.0,0.0,0.0,0.02872244788878611,0.0021821388176122545,0.0,0.10342967022455041,0.0,0.0,0.009585603571113745,0.0,0.019531071864720508,0.0,0.0015466236906976328,0.0,0.0,0.04779245373983637,0.0,0.0,0.029784190170895584,0.2425741999682126,0.5148513631978391
0,0,0,0,0,0,0,0,0,0,0,0,0,0,0,0,0,0,0,0,0,0,0,0,0,0,0,0,0,0,0,0,0,0,0,0,0,0,0,0,0,0,0,0,0,0,0,0,0,0,0,0,0,0
0.0,0.026634127006161176,0.0012422357959564348,0.0,0.06949126196665817,0.0,0.0,0.003327417310597593,0.0,0.025850335372998176,0.0,0.0008873112828260246,0.0,0.0,0.03704524605798652,0.0,0.0,0.024963024090172165,0.18944095888335627,0.18944095888335627,0.431676939094861
0.0,0.031114711751037086,0.003571427783597302,0.0,0.06666665196048296,0.0,0.0,0.007629868446776054,0.0,0.02927488531706272,0.0,0.004383115916233052,0.0,0.0,0.045616873054129176,0.0,0.0,0.03901514290869173,0.2337661821990961,0.22727267713801008,0.3116882429321281
0.0,0.0,0.0,0.0,0.0,0.0,0.0,0.0,0.0,0.0,0.0,0.0,0.0,0.0,0.0,0.0,0.0,0.0,0.0,0.029288918480165668,0.0011608323225381664,0.0,0.10338071116290362,0.0,0.0,0.005099253249416013,0.002307449722673597,0.019470928343074814,0.0,0.001108470192375753,0.0,0.0036602043652875942,0.03946776030455083,0.0,0.00035957570192200294,0.03306595624183432,0.2383700600867426,0.5232596444869029
0.0,0.0,0.0,0.0,0.0,0.0,0.0,0.0,0.0,0.0,0.0,0.0,0.0,0.0,0.0,0.0,0.0,0.0,0.0,0.048543206443142244,0.0,0.0,0.18604835236980155,0.0,0.0,0.0,0.012069228965615072,0.0688439471821911,0.0,0.0032894718790125433,0.0,0.015541449282350534,0.07405227765729429,0.0,0.0032894718790125433,0.08832231995148682,0.0,0.1458332533028894,0.0,0.0,0.062499965701238336,0.0,0.0,0.0,0.0,0.12499993140247664,0.0,0.0,0.0,0.0,0.062499965701238336,0.0,0.0,0.10416660950206388
0.0,0.023035744996253407,0.0008245005949268318,0.0,0.07624448583661277,0.0,0.0,0.0022084837364111606,0.0008724049324190647,0.02295805095299769,0.0,0.0005889289963763093,0.0,0.0033423662652330727,0.028435716833304238,0.0,0.0,0.024315081789213027,0.1828257649337476,0.1828257649337476,0.45152252469755416
0.0,0.02767451661022193,0.0020489181634018067,0.0,0.07174932926521205,0.0,0.0,0.004377234258176574,0.00202947019400086,0.024832220564580097,0.0,0.002514581382356753,0.0,0.006253177191564831,0.03956098385902911,0.0,0.0,0.03981109096941741,0.22457682820960068,0.22085152245796155,0.33371990962669207
0.0,0.0,0.0,0.0,0.0,0.0,0.0,0.0,0.0,0.0,0.0,0.0,0.0,0.0,0.0,0.0,0.0,0.0,0.0,0.021866367917248393,0.0005476452161952696,0.006263512286742695,0.08256690377477677,0.0028669688244929506,0.007683466394751554,0.0026209260620289852,0.003225683943618849,0.013396658031851076,0.0,0.007820073936457698,0.0013233468845273938,0.001736551143004647,0.025609322573840288,0.0,0.0001706165133485362,0.01843375258401512,0.22789414766938765,0.5759738983753502
0.0,0.0,0.0,0.0,0.0,0.0,0.0,0.0,0.0,0.0,0.0,0.0,0.0,0.0,0.0,0.0,0.0,0.0,0.0,0.0485432114116302,0.0,0.0,0.18604837141219827,0.0,0.0,0.0,0.012069230200923223,0.06884395422849782,0.0,0.003289472215696142,0.0,0.015541450873046926,0.07405228523668336,0.0,0.003289472215696142,0.08832232899144139,0.0,0.1458332682291956,0.0,0.0,0.06249997209822667,0.0,0.0,0.0,0.0,0.12499994419645336,0.0,0.0,0.0,0.0,0.06249997209822668,0.0,0.0,0.10416662016371113
0.0,0.0187116371869771,0.0004822264294283138,0.004778391829086272,0.06445621778947495,0.0004861014116871673,0.0049919619462949275,0.0012916779359686984,0.001191188701568976,0.015830696644122597,0.0,0.0018284445390316186,0.0019661834909861244,0.0019628029837765195,0.020123104825698592,0.0,0.0,0.015339470421112384,0.15344010613521444,0.18072553818946135,0.5123941258813355
0.0,0.02224716310947606,0.0010712742779551037,0.007432620614223332,0.060676190082831045,0.0017025858283188024,0.006189067238162421,0.002481970675364545,0.002851962132775062,0.0179774372256318,0.0,0.008906691664664334,0.001335470032792609,0.00328416518225878,0.026311557541756896,0.0,0.0,0.023638506058666763,0.18901891721501116,0.21016658309417036,0.41470768868263735
0.0,0.0,0.0,0.0,0.0,0.0,0.0,0.0,0.0,0.0,0.0,0.0,0.0,0.0,0.0,0.0,0.0,0.0,0.0,0.022614241270583667,0.0004073600321266277,0.004664565129839109,0.08344983002144606,0.002135039356369883,0.006206468127570341,0.002897128677917013,0.0024002330380210606,0.018634289873607143,0.0,0.008302302036882375,0.0009854877357483632,0.0012901344194258479,0.025471494744839854,0.0,0.0022247734362288323,0.017210042265156225,0.23071361429890655,0.5703928004482307
0.0,0.0,0.0,0.0,0.0,0.0,0.0,0.0,0.0,0.0,0.0,0.0,0.0,0.0,0.0,0.0,0.0,0.0,0.0,0.04854320670052915,0.0,0.0,0.18604835335627137,0.0,0.0,0.0,0.012069229029608811,0.06884394754721705,0.0,0.0032894718964540564,0.0,0.015541449364754762,0.07405227804993597,0.0,0.0032894718964540564,0.08832232041979143,0.0,0.14583325407612985,0.0,0.0,0.06249996603262707,0.0,0.0,0.0,0.0,0.12499993206525414,0.0,0.0,0.0,0.0,0.06249996603262707,0.0,0.0,0.10416661005437847
0.0,0.01929980919886757,0.00039042230028184537,0.0038670490941556087,0.06474571717057803,0.00039296968724033415,0.004310697276739325,0.0016687309943505585,0.0009632870367754808,0.017633388786481352,0.0,0.002102327261121482,0.001593400082545663,0.001587026258100354,0.02059523101705768,0.0,0.002163735971982472,0.014717435858954062,0.15891723885220424,0.18001289776674811,0.5050384821589963
0.0,0.02278137134656973,0.0008035403636900995,0.005583525991824675,0.06160858037473345,0.0012785639933030307,0.005115139126802069,0.003058289427481856,0.0021404170139303134,0.023329913863924228,0.0,0.008706682973735003,0.0010032589210557249,0.002461653917440147,0.027059868161499724,0.0,0.0027958689769905947,0.021159997918622636,0.19468980413746728,0.21416336214001028,0.402259976699795
0.0,0.0,0.0,0.0,0.0,0.0,0.0,0.0,0.0,0.0,0.0,0.0,0.0,0.0,0.0,0.0,0.0,0.0,0.0,0.0233099173471487,0.0003440420950370477,0.003938846067439603,0.08290557497223172,0.0018028635283222297,0.00524193947733728,0.002749975339480902,0.0020268453871186763,0.02362456582211028,0.0,0.00728511922178143,0.0008321617169493613,0.0011717763626183278,0.0267081849911591,0.0,0.0023718591654185743,0.017731666891262717,0.2297037492897135,0.5682507113313056
0.0,0.0,0.0,0.0,0.0,0.0,0.0,0.0,0.0,0.0,0.0,0.0,0.0,0.0,0.0,0.0,0.0,0.0,0.0,0.04854320631255615,0.0,0.0,0.1860483518693128,0.0,0.0,0.0,0.012069228933147633,0.06884394699699399,0.0,0.0032894718701635345,0.0,0.015541449240542475,0.07405227745808624,0.0,0.0032894718701635345,0.0883223197138909,0.0,0.14583325291058336,0.0,0.0,0.06249996553310716,0.0,0.0,0.0,0.0,0.12499993106621432,0.0,0.0,0.0,0.0,0.06249996553310717,0.0,0.0,0.10416660922184524
0.0,0.018314136099522836,0.0003305440569340124,0.003273283389174922,0.06218770588923152,0.00033260101956917194,0.0036489911207125587,0.0014137515969133456,0.0008153884611170383,0.026316278141861996,0.0,0.0017806021124839272,0.0013488997718018746,0.0015787157558541424,0.024132731774318805,0.0,0.0024191192259291217,0.015392802036213907,0.16573307698931827,0.19094696607439846,0.4800342439660626
0.0,0.022499701675168557,0.0007045678605645139,0.004895285121437078,0.06049535380952403,0.001120931048698629,0.004485371613719121,0.0028111205084196495,0.00187659545432274,0.029495083540812983,0.0,0.007892780574494569,0.0008795965682117673,0.0022858713997180318,0.030351820846320404,0.0,0.002998585083932597,0.021549436488886374,0.19943782922987363,0.2190581311613164,0.38716174533607534
0.0,0.0,0.0,0.0,0.0,0.0,0.0,0.0,0.0,0.0,0.0,0.0,0.0,0.0,0.0,0.0,0.0,0.0,0.0,-0.02130124994003647,-0.0011349458498634462,-0.0036470227835555557,-0.07415494970206174,-0.001680834390581617,-0.004805473298731847,-0.001519944926333597,-0.002371269877355895,-0.02230277992449582,0.0,-0.006582648751912735,-0.0007786202618649978,-0.0010336123146217088,-0.02104593500974422,0.0,-0.002180558275569624,-0.01433502341415905,-0.21073180480021292,-0.6103820680260214
0.0,0.0,0.0,0.0,0.0,0.0,0.0,0.0,0.0,0.0,0.0,0.0,0.0,0.0,0.0,0.0,0.0,0.0,0.0,-0.04513396420966798,-0.006045922593017408,0.0,-0.1770294971429311,0.0,0.0,0.0,-0.017300682227619046,-0.07807904693202074,0.0,-0.007465592649776249,0.0,-0.012753300250069308,-0.06823501266918744,0.0,-0.013511515242793655,-0.07439367658207939,0.0,-0.13397829631759658,0.0,0.0,-0.16905291201432712,0.0,0.0,0.0,0.0,-0.053947462156836025,0.0,0.0,0.0,0.0,-0.02697373107841798,0.0,0.0,-0.11599580893198459
0.0,-0.01806787066475883,-0.002068964317477639,-0.003639996536391231,-0.060873507719205376,-0.000472021927136397,-0.004929952065750255,-0.0006965571504814359,-0.001119249550831466,-0.023413126436709477,0.0,-0.0020689167474309575,-0.0009645112236185819,-0.0013441713095720508,-0.01658175425951151,0.0,-0.0022034508396379894,-0.013486939545770932,-0.15447489600837938,-0.18392050574385588,-0.5096635462283854
0.0,-0.0194295469949309,-0.0014736137459644481,-0.004520014384822744,-0.06334044184378634,-0.0011734375142212017,-0.005250745888659442,-0.0017205009598737872,-0.002250426258724699,-0.027667096453984106,0.0,-0.007238337363623477,-0.0008034381911346307,-0.0018835373323034458,-0.02517600279437448,0.0,-0.00244243898596593,-0.018761948069498883,-0.18723224088574958,-0.2120240566664828,-0.41759815807559303
0.0,0.0,0.0,0.0,0.0,0.0,0.0,0.0,0.0,0.0,0.0,0.0,0.0,0.0,0.0,0.0,0.0,0.0,0.0,-0.022417610120466957,-0.0010958342545815403,-0.0035796800714148766,-0.07797495873840629,-0.001973092005688783,-0.004896825320300896,-0.0017664947228433364,-0.002608001072734352,-0.023321608439811993,0.0,-0.007179010141882411,-0.0007622951312348835,-0.001144841808265206,-0.023120361540477846,0.0,-0.0022138154689157474,-0.01560903934934509,-0.21888771300309204,-0.5914400375180805
0.0,0.0,0.0,0.0,0.0,0.0,0.0,0.0,0.0,0.0,0.0,0.0,0.0,0.0,0.0,0.0,0.0,0.0,0.0,-0.04641435447393061,-0.003778562279421879,0.0,-0.18041885019277373,0.0,0.0,0.0,-0.015339225616276899,-0.0746182894714797,0.0,-0.005899576195140191,0.0,-0.013799511359002129,-0.07041943694585662,0.0,-0.009678138474562068,-0.07962059731356796,0.0,-0.1384297237133856,0.0,0.0,-0.1290954779650621,0.0,0.0,0.0,0.0,-0.08059852879729584,0.0,0.0,0.0,0.0,-0.04029926439864791,0.0,0.0,-0.11156354744762031
0.0,-0.01947586298865186,-0.0018954689277579607,-0.003310316215153893,-0.06036865650205288,-0.0005686066232664993,-0.004374825368211159,-0.0008050253206764355,-0.0016747585170853855,-0.025226491227414143,0.0,-0.002963091756078083,-0.0009820784256522397,-0.0017007762378232426,-0.018197905574197124,0.0,-0.002195899652856685,-0.015013409790942055,-0.16110151612616086,-0.188517290778848,-0.4916203316999654
0.0,-0.02077399918333903,-0.0013666447587899777,-0.004199958145555271,-0.06158749865362054,-0.0015498984906726157,-0.0047458083530238,-0.0018329086606979144,-0.0027147104173169062,-0.028706540371451338,0.0,-0.008391113641265201,-0.0007488836728203084,-0.002017872264690156,-0.027202831022775625,0.0,-0.002440959107084298,-0.020452214739276685,-0.19270392647718132,-0.21583390987525178,-0.4027208101338379
0.0,0.0,0.0,0.0,0.0,0.0,0.0,0.0,0.0,0.0,0.0,0.0,0.0,0.0,0.0,0.0,0.0,0.0,0.0,0.02277045268653702,0.0008823747097052287,0.0035163950269488918,0.07883031987752094,0.0029485366481649326,0.005808203604945135,0.0016531682961201924,0.0028297661602304795,0.02424596862628219,0.0,0.008558947515945384,0.0004772091754312439,0.0017815110412638963,0.024323297036313588,0.0,0.0016291572672318228,0.01680681093878898,0.22610855320336304,0.5768291446060139
0.0,0.0,0.0,0.0,0.0,0.0,0.0,0.0,0.0,0.0,0.0,0.0,0.0,0.0,0.0,0.0,0.0,0.0,0.0,0.041028766568750465,0.0012141338464697088,0.015095088935357222,0.1776264037380012,0.006421367014593433,0.026877343478360197,0.0,0.007139066980520607,0.07590537808700165,0.0,0.02054175126624364,0.0,0.014444183693926126,0.05453315062081311,0.0,0.003434936754394027,0.055738187589428674,0.0,0.06856238277981516,0.0,0.04348460757607175,0.1443107852235678,0.004832243466251788,0.033819085459703316,0.0,0.0,0.09140211242269934,0.0,0.03865341623686142,0.0,0.0,0.01912671216763758,0.0,0.0,0.05580841324125194
0.0,0.021134702425502926,0.0016469887087170402,0.0026942030884506,0.05924226458083686,0.0018383379007208002,0.0034981253016063366,0.0009010427162458423,0.002277737611820945,0.027853842596451246,0.0,0.004567394578919902,0.0008596042802013076,0.0017594136319517718,0.01921471383441627,0.0,0.0019414427338970408,0.018065127364469222,0.16905438906845557,0.18831655910501924,0.47513395422293564
0.0,0.021458256548879253,0.0011746388523997643,0.003991672578793879,0.05814245407058648,0.0025812734593892994,0.005330647840833684,0.0016504982549897925,0.0028953892342366613,0.030120206651359945,0.0,0.009639352317705352,0.0005162288481799644,0.002286897660210231,0.0269501668911446,0.0,0.0020545305336925547,0.021605492430415416,0.19338869180413704,0.21477134932687159,0.4014420755017611
0.0,0.0,0.0,0.0,0.0,0.0,0.0,0.0,0.0,0.0,0.0,0.0,0.0,0.0,0.0,0.0,0.0,0.0,0.0,-0.023869323969557016,-0.0009232632315787138,-0.0033361751014243687,-0.08425202946805493,-0.0021078690034740796,-0.004824642115251162,-0.0027948045956920765,-0.003465262261980508,-0.022360111745254378,0.0,-0.007977205792995564,-0.0006058429044503693,-0.0034697863221917415,-0.025879641545301514,0.0,-0.0018303012909946395,-0.01624598939333266,-0.23441439401737035,-0.5616353972380757
0.0,0.0,0.0,0.0,0.0,0.0,0.0,0.0,0.0,0.0,0.0,0.0,0.0,0.0,0.0,0.0,0.0,0.0,0.0,-0.03972096580245673,-0.0005352393955440361,-0.0058000608135476426,-0.20841609677776152,-0.002467364186603079,-0.010327242948725524,-0.016279219465504383,-0.015400692808253036,-0.03474431886894816,0.0,-0.021818110956852054,0.0,-0.032202960184684715,-0.07139538428797491,0.0,-0.0014846474283716424,-0.03939510769349536,0.0,-0.060594734843777094,0.0,-0.016809167229734707,-0.20579354406215533,-0.0018500637910148412,-0.013138442261682924,-0.019346141416001418,0.0,-0.04610075689053083,0.0,-0.017546406998036036,0.0,-0.009665052347841957,-0.06321067052280645,0.0,0.0,-0.04593243125514132
0.0,-0.021864619995528883,-0.0013766825051076512,-0.002435109956229059,-0.06409855124940593,-0.0007050384555334949,-0.0029911164209831527,-0.0018077086967402348,-0.0027443124818544917,-0.02162254226332865,0.0,-0.003930313651465186,-0.0007194709254297968,-0.0047808422559413675,-0.01969469638243447,0.0,-0.0016108606231704315,-0.014073973067078653,-0.16800999521177634,-0.19179090316214334,-0.47573725868339334
0.0,-0.02161088831940753,-0.0010165536751921029,-0.0035143083737790917,-0.06200652205306047,-0.0016012693327086787,-0.003972667739490299,-0.0026502808318518705,-0.003539611699126322,-0.0258403046885668,0.0,-0.0086690684296612,-0.0005248665232386814,-0.004917136938972494,-0.02880521031126111,0.0,-0.0018151225146135516,-0.019405935398730638,-0.1962701729605101,-0.21852610101527806,-0.3953064567024549
0.0,0.0,0.0,0.0,0.0,0.0,0.0,0.0,0.0,0.0,0.0,0.0,0.0,0.0,0.0,0.0,0.0,0.0,0.0,0.02340641142617663,0.0007281063535770301,0.0029015321803429438,0.08128873011530421,0.0024336441040022166,0.005503064846477573,0.0030786551742812947,0.0039051973577502288,0.022686903080941217,0.0,0.008767243985012656,0.0003936889260282563,0.0037620033891024333,0.026814949590673147,0.0,0.0017238342904283028,0.01634160286345248,0.23437637208476497,0.5618878594336093
0.0,0.0,0.0,0.0,0.0,0.0,0.0,0.0,0.0,0.0,0.0,0.0,0.0,0.0,0.0,0.0,0.0,0.0,0.0,0.0392712952479055,0.0005404706863271842,0.006628095754557161,0.1933354504254931,0.0028195548357738834,0.01494855993270441,0.016988535358583183,0.01434228347959245,0.045788370133500705,0.0,0.022211017276512326,0.0,0.02802934254318352,0.06828478923987316,0.0,0.0031006541126844095,0.043711330478802185,0.0,0.051496646158490644,0.0,0.01909304892280206,0.18886367049585367,0.002121826358026421,0.014848768027757227,0.019066204996087473,0.0,0.05728248871459724,0.0,0.03144647362401122,0.0,0.006336285506618458,0.06354953419009203,0.0,0.0,0.045894802511156775
0.0,0.02255641878138438,0.0011539793312450642,0.0018873995090031063,0.06044220296739414,0.0012888585263982903,0.00354248709193197,0.0027696244234171655,0.0033071476893085086,0.023606919213363158,0.0,0.006297615452929961,0.0006022797187612049,0.004288637119997773,0.02148820769116981,0.0,0.0022403463143008968,0.015724528684771564,0.17375324245383264,0.19314109050539532,0.4619088456238886
0.0,0.021596757127725432,0.0008925347562977579,0.0030322391522929,0.05779739296362205,0.001961357754546067,0.004917174712037279,0.0034185863098450246,0.003913837260924052,0.027516967847846078,0.0,0.009972553798907697,0.00039220699391976743,0.0047237791953214665,0.030166911966134337,0.0,0.0021456945065690437,0.02021455142090788,0.19806144084579022,0.21974219983141471,0.3895336238010985
0.0,0.0,0.0,0.0,0.0,0.0,0.0,0.0,0.0,0.0,0.0,0.0,0.0,0.0,0.0,0.0,0.0,0.0,0.0,0.023549547155647325,0.0006750781134079394,0.002689543797742487,0.08177961522397698,0.002254494262817441,0.005313736698759838,0.0028523129830507876,0.0037946018548923564,0.023357457219458286,0.00023405484977088393,0.008359863019261905,0.00036522429671614215,0.003485503448983901,0.02616219354661513,2.7388567622261794e-05,0.0019725524643161786,0.016817157703409483,0.23275677048183852,0.5635527052459308
0.0,0.0,0.0,0.0,0.0,0.0,0.0,0.0,0.0,0.0,0.0,0.0,0.0,0.0,0.0,0.0,0.0,0.0,0.0,0.03927349846490501,0.0005404475893890693,0.006624030630115307,0.19340916263281416,0.0028178258062715325,0.014925954865777167,0.016985083026775896,0.01434746979902313,0.045734403422814665,0.0,0.022209091055538487,0.0,0.02804974258761037,0.0683000209976992,0.0,0.003092767969848172,0.04369025430506552,0.0,0.05154109740973475,0.0,0.019081841277178126,0.1889464621130097,0.002120491862868286,0.01484037821079408,0.01906757409145428,0.0,0.05722782852051647,0.0,0.031378558109589914,0.0,0.006352541655283367,0.06354794456566792,0.0,0.0,0.04589503533755094
0.0,0.022744702847000753,0.0011066645765500339,0.0018103291945837385,0.06067604250826357,0.0012345809928738713,0.0034448377397453805,0.0026535579461301664,0.0035708010357775924,0.024265945021552736,0.00010026700705882018,0.006284396979685914,0.0005775870642727984,0.004112218251500947,0.02101893295351211,0.0,0.002146732031833775,0.01572295091658169,0.17392316693559706,0.1935691402911611,0.4610369778931847
0.0,0.02158411102476205,0.0008457985656973185,0.0028735753618811624,0.058055575456724184,0.001857459844538613,0.004777099171556388,0.0032373194280414584,0.003814640830931816,0.028669361312554664,0.000350092013285135,0.00979549536938674,0.00037181726618362607,0.004475580066867182,0.029575971097485464,5.3716669309525174e-05,0.0022469567924943436,0.020681400284582905,0.1986496243540946,0.21999496753028985,0.38808924881668233
0.0,0.0,0.0,0.0,0.0,0.0,0.0,0.0,0.0,0.0,0.0,0.0,0.0,0.0,0.0,0.0,0.0,0.0,0.0,-0.026086403793141668,-0.001113017765904888,-0.003159524593896583,-0.09041544421425947,-8.232444317862915e-05,-0.0024695610159529363,-0.0020465539694564123,-0.0024089068755588456,-0.02425777090848607,-0.0005042203026670147,-0.004909132712135566,-0.0009984284647552883,-0.0017867380229058575,-0.0242179051384748,-5.843660280667597e-05,-0.002990741583669447,-0.016888864424294388,-0.22899375799507718,-0.5665741485160045
0.0,0.0,0.0,0.0,0.0,0.0,0.0,0.0,0.0,0.0,0.0,0.0,0.0,0.0,0.0,0.0,0.0,0.0,0.0,-0.011837003411275915,-0.0019138795529720528,0.018786094716600924,-0.13103162963009968,0.007988479298432126,0.044274870046719476,-0.008102211797444301,-0.01918038231137262,0.06262012696686337,0.0,0.004638031547258481,0.0,-0.03326795410503908,-0.05139187018199343,0.0,0.001586335254307121,0.009993991239403234,0.0,-0.056968873314130426,0.0,0.04808617685355786,-0.17485927141817775,0.006411640115789084,0.03347964439344522,-0.004843525767149597,0.0,0.07794820050453154,0.0,0.0764296982617511,0.0,-0.013684996458741107,-0.05588339758347639,0.0,0.0,-0.042952297508009635
0.0,-0.020628125591845833,-0.0014871518849989122,-0.00302163353857608,-0.06899794949426291,0.0010130840517844652,-0.0020851555076167173,-0.0007044526409277262,-0.002350274257459512,-0.02064515427164802,-0.00013663109206327355,-0.0015201561049419385,-0.000779250413615929,-0.004402882205574613,-0.018805938621789694,0.0,-0.001514120471210889,-0.010667763032848806,-0.16124501376063416,-0.19498788344292228,-0.48498246426437197
0.0,-0.02086264328336777,-0.0009844359993935728,-0.0035924591866201352,-0.07180603892792041,0.0004165759915755003,-0.0011688188500670708,-0.002351575722636488,-0.0026892164929294016,-0.02533506203802909,-0.00043389835112451125,-0.006353890602258455,-0.0007513590893019956,-0.00448074366519597,-0.028999229992177543,-9.536171931216225e-05,-0.0021326525716125243,-0.01768385849189904,-0.1984761223337857,-0.22063971226336274,-0.390706836894878
0.0,0.0,0.0,0.0,0.0,0.0,0.0,0.0,0.0,0.0,0.0,0.0,0.0,0.0,0.0,0.0,0.0,0.0,0.0,0.02350320434414811,0.0006554360623232657,0.0033167195209096037,0.07767674386801728,0.0018667058642847184,0.006635780887265975,0.003258904369417505,0.0032096159604477212,0.02321331043660561,0.0001937948620048926,0.008583493031440443,0.0007610756340589005,0.0028845762442086093,0.024592350429551026,2.2677911955154516e-05,0.0016314702460684817,0.017008055010067503,0.22736799952154566,0.5736179240503618
0.0,0.0,0.0,0.0,0.0,0.0,0.0,0.0,0.0,0.0,0.0,0.0,0.0,0.0,0.0,0.0,0.0,0.0,0.0,0.03925970857161211,0.0005332420457260877,0.0067049506506546,0.19305012525916415,0.002852236630605515,0.015116015868491648,0.016967146276315282,0.01428293106145311,0.04602419145027597,0.0,0.022246679589989316,0.0,0.027940566492076848,0.06815266618998601,0.0,0.0031017333074744805,0.04376760055800536,0.0,0.0513571915036228,0.0,0.01929078650065801,0.18840804814123593,0.0021479897931330613,0.014987183105071732,0.01906450013046756,0.0,0.057588867219515706,0.0,0.03171131624658396,0.0,0.00630322958375253,0.06337844325110115,0.0,0.0,0.04576223847668832
0.0,0.02220321356720502,0.0010785305769085143,0.0019936080620158577,0.05872060696039464,0.0011015741818734045,0.004322420993718858,0.0024577381192956616,0.0031852111395249245,0.023789311320153952,8.955833912328551e-05,0.006363538615931807,0.000652319534273656,0.0036669570567262697,0.020063179517230856,0.0,0.00191451268610159,0.01526055996119039,0.16969468923814623,0.18910485585031592,0.47433747850578895
0.0,0.021390986419363683,0.0008020578484855915,0.003377395020319212,0.05639005327247209,0.0015402263965601053,0.006235334726777449,0.00345038699017695,0.003160402369760399,0.027550698725398084,0.0002904568250010213,0.00985583559965357,0.000961542383630305,0.0037066878555350284,0.027939718181520707,4.454278813434603e-05,0.0018613856410336497,0.020136609922057958,0.19586960058585312,0.21467154352837428,0.4007643816391928
0.0,0.0,0.0,0.0,0.0,0.0,0.0,0.0,0.0,0.0,0.0,0.0,0.0,0.0,0.0,0.0,0.0,0.0,0.0,-0.03252534485106732,-0.0011955345108362566,-0.0014170007966112883,-0.11434719028333366,-0.00012399515238738085,0.002682162250557952,-0.0003311448985462109,-0.0031231032550664366,-0.026913217364697324,-0.0006578697758149234,-0.0032035870867432514,-3.1859562130267174e-05,-0.003943452641273569,-0.03461790819071578,-7.624549188607328e-05,-0.004226697965311752,-0.022540167229154806,-0.2626390589340106,-0.48534547361239155
0.0,0.0,0.0,0.0,0.0,0.0,0.0,0.0,0.0,0.0,0.0,0.0,0.0,0.0,0.0,0.0,0.0,0.0,0.0,-0.03151217368462076,-0.0009835031689728452,0.01672084090641851,-0.09924409965000622,0.007110894974283238,0.03900061681688974,-0.011028687605571495,-0.004564746797238655,0.054175384370238465,0.0,0.008530884265847761,0.0,-0.029400482131673927,-0.04904460459450819,0.0,-0.004873715862897281,-0.02181219364252377,0.0,-0.008267659896876469,0.0,0.044059624354936974,-0.18235183514809147,0.005623674345386845,0.031597289681584366,0.007997404103344544,0.0,0.08699807076779145,0.0,0.07064847093725984,0.0,-0.09315150876287037,-0.00041747991618074976,0.0,0.0,-0.08966163627061735
0.0,-0.023031899653333257,-0.0014064910682266359,-0.002852041807640265,-0.0772754999061846,0.0011320170303564083,0.001881058656942731,-0.0007304891405601576,-0.002691286046499926,-0.022261118645635226,-0.00015533024405565084,-0.0006790010651078534,-0.0005348694738039925,-0.0054054988849752735,-0.022705041480393248,0.0,-0.0018458891526144398,-0.01345517191317053,-0.1745228582771205,-0.21221792311364446,-0.43518610549080883
0.0,-0.02398224274755108,-0.0010016987519169533,-0.0028416525113471773,-0.07984893697338555,0.0004512884874649708,0.00477979935379359,-0.0016750438201286566,-0.00309458260456628,-0.027062535358209013,-0.0004959686194076513,-0.005601100121884524,3.3748315963448875e-05,-0.006249814192150775,-0.03468883071045064,-0.00010875711630616622,-0.002638816355782833,-0.022736701544673086,-0.21135454234333917,-0.23522293632798275,-0.3360783560877464
0.0,0.0,0.0,0.0,0.0,0.0,0.0,0.0,0.0,0.0,0.0,0.0,0.0,0.0,0.0,0.0,0.0,0.0,0.0,-0.02411623213145661,-0.0005967143172616755,-0.003257191321708033,-0.07806921071867909,-0.001560289070420832,-0.006729530816175612,-0.003045652946432294,-0.0027927904074017537,-0.021893546168412235,-0.00019062475675650996,-0.009329852423827634,-0.0007070672092882252,-0.002958628570461672,-0.025072383629941505,-2.2272323482142693e-05,-0.0016252039556687366,-0.018006559277528877,-0.2325476911369354,-0.5674768564331896
0.0,0.0,0.0,0.0,0.0,0.0,0.0,0.0,0.0,0.0,0.0,0.0,0.0,0.0,0.0,0.0,0.0,0.0,0.0,-0.041528952565263524,-0.0005552353444314529,-0.00546326372914281,-0.19503365322311117,-0.0023241379904502778,-0.012248609126766757,-0.017537418076081373,-0.013735287548122917,-0.04159225472019763,0.0,-0.021041416549992784,0.0,-0.029330081304923653,-0.07021133406061986,0.0,-0.003649559927261985,-0.045746612961956284,0.0,-0.0489628603318006,0.0,-0.015929613159610327,-0.19800158649359634,-0.0017362679616442723,-0.01251328974624549,-0.01759806678955933,0.0,-0.04987917368221116,0.0,-0.026278880830738094,0.0,-0.01603976295101169,-0.05991289684998864,0.0,0.0,-0.05314541833191654
0.0,-0.021949651620089973,-0.0009983460939340448,-0.0021821684631219847,-0.05813196132076014,-0.0008601103758918249,-0.0045851511770177685,-0.0023270434689329146,-0.0028568743908712925,-0.022064172996588534,-8.5266221066554e-05,-0.006245190645071133,-0.000584418281826595,-0.0036134599911001684,-0.019417883998094618,0.0,-0.0017636692813474645,-0.01539415933462085,-0.16618799634508527,-0.1897425940883808,-0.4810084987682136
0.0,-0.021322800009174872,-0.0007025163104918426,-0.003387381863971492,-0.05538192478806119,-0.0012372966785395869,-0.006747544965613995,-0.0032324404994200093,-0.002727606057936584,-0.02523980446568806,-0.00026061489063065424,-0.010425589822939067,-0.0008166738366905986,-0.003679498022991739,-0.0270790038215045,-4.1501752504842294e-05,-0.0017163851998990808,-0.0206446490228019,-0.19134341297222202,-0.2166129772870897,-0.40739879778367644
0.0,0.0,0.0,0.0,0.0,0.0,0.0,0.0,0.0,0.0,0.0,0.0,0.0,0.0,0.0,0.0,0.0,0.0,0.0,0.023975832757638593,0.0005309557083204467,0.003168070416254052,0.07662342660875887,0.0015262554118821436,0.00685113843337025,0.0032526693796327403,0.0026957334471981336,0.020887121614606912,0.00015705325191101832,0.009760708149181686,0.0006994234426081061,0.0029438570562933357,0.025195961750303468,1.8378060539181316e-05,0.001403627514345384,0.018121191930679955,0.23220673359369332,0.5699816698196462
0.0,0.0,0.0,0.0,0.0,0.0,0.0,0.0,0.0,0.0,0.0,0.0,0.0,0.0,0.0,0.0,0.0,0.0,0.0,0.041317584106267596,0.0004979563899223778,0.006109630993395569,0.19258761588920892,0.002599002602906441,0.013767090614934448,0.017838072968009506,0.013510066909234566,0.04378143077589451,0.0,0.021565855795971284,0.0,0.02798209770454262,0.06916189430816704,0.0,0.00337013053235002,0.04591132388236868,0.0,0.055367573723692685,0.0,0.017599097174746975,0.19369571741891,0.0019558819414708813,0.013686621313752341,0.017577964837723354,0.0,0.05277081566976486,0.0,0.028939679692828485,0.0,0.011689362816482637,0.058577349954308904,0.0,0.0,0.04813968892949254
0.0,0.021976476648420895,0.0008909218034861943,0.001985428933303386,0.05716304265149424,0.0009092632300451766,0.004836228393126511,0.002374747238570538,0.002830843908442281,0.021029387963869772,7.396240035060633e-05,0.00736560505788587,0.0005389781050465619,0.0034406413182719326,0.019372427562033938,0.0,0.0016130643964555613,0.01635684549410214,0.16590686049585643,0.18809209898000465,0.48324301756033716
0.0,0.02149804526103615,0.0006423242423656423,0.003201486315835095,0.05448666437878114,0.0012319706573942074,0.007058986323638652,0.003452772795827782,0.002590095425097981,0.024414234959170732,0.00023263208224799786,0.010989738300422243,0.0008067775616239677,0.003449972829914021,0.02720143331844247,3.5692335984309984e-05,0.0015620244618828351,0.02110295425571795,0.1909844552126213,0.21665113157580482,0.40840642954916806
0.0,0.0,0.0,0.0,0.0,0.0,0.0,0.0,0.0,0.0,0.0,0.0,0.0,0.0,0.0,0.0,0.0,0.0,0.0,-0.02351675206467902,-0.0006689014968513076,-0.0032978918612044687,-0.07450375471671765,-0.001624448951143985,-0.007588593194940907,-0.0035071460663371533,-0.002525113271049785,-0.021023911861849057,-0.00015030225959158987,-0.009753568334572846,-0.0006136238100985915,-0.002657838546586248,-0.023589857901610563,-0.00020957669241067933,-0.0015544700043284294,-0.016969763807312615,-0.22689510173585928,-0.579348267448797
0.0,0.0,0.0,0.0,0.0,0.0,0.0,0.0,0.0,0.0,0.0,0.0,0.0,0.0,0.0,0.0,0.0,0.0,0.0,-0.04132669009642423,-0.0005013480613160284,-0.00607085259782733,-0.19275152279484586,-0.002582512234956495,-0.013676015638152328,-0.017840966862761907,-0.013536193829897087,-0.043644099471700795,0.0,-0.021544465888987094,0.0,-0.028040428307653836,-0.06923052852465815,0.0,-0.0033708480119194937,-0.04588203470541529,0.0,-0.05534897640170509,0.0,-0.017498859244449202,-0.19395415099972202,-0.0019427115038620092,-0.013616116275285573,-0.017578405879906767,0.0,-0.0525962386344479,0.0,-0.028779884136009837,0.0,-0.011770473765782979,-0.058654409980697486,0.0,0.0,-0.0482582802046472
0.0,-0.02126478898037045,-0.0009515090768328659,-0.0021515253421924624,-0.057088449044672765,-0.0008915749963062513,-0.005078631011459237,-0.0026024106835113407,-0.002725671708405084,-0.02141409343576247,-7.380958728668986e-05,-0.007008093833863781,-0.0005197336294903656,-0.003375662339033694,-0.01889890712322503,-3.3493230088348865e-05,-0.0017471342550936133,-0.015801519742915295,-0.1644882457036335,-0.1862705274774077,-0.48761329117926666
0.0,-0.021012306342208378,-0.0007440194028349292,-0.0034942524930927327,-0.05388888680677293,-0.0013850885468114412,-0.007584328118925868,-0.0036952555200461075,-0.002422027474384044,-0.024980157947175827,-0.00021846259446032368,-0.010934287100652265,-0.0007213031895229823,-0.003210714823081752,-0.025745150321515687,-0.00020087454044298827,-0.0017492316315183937,-0.020054552246718333,-0.18960092621915428,-0.21403849116965326,-0.41431863288735266
0.0,0.0,0.0,0.0,0.0,0.0,0.0,0.0,0.0,0.0,0.0,0.0,0.0,0.0,0.0,0.0,0.0,0.0,0.0,-0.023034177411465042,-0.0007243586604330129,-0.0035379945236089566,-0.07161527664491264,-0.0021735670169312892,-0.009025624877989944,-0.003239476065457505,-0.002265688346141523,-0.019816748934440517,-0.00013311376945885083,-0.009806368217151787,-0.0005552540527453888,-0.0026594000869007792,-0.022004997906315382,-0.00037710428499214486,-0.0015200890260912614,-0.01687401953504207,-0.22189777996444576,-0.5887381912921741
0.0,0.0,0.0,0.0,0.0,0.0,0.0,0.0,0.0,0.0,0.0,0.0,0.0,0.0,0.0,0.0,0.0,0.0,0.0,-0.04254476781521648,-0.0011467113505943527,-0.0074692993148637804,-0.18662009264238655,-0.005643520876994583,-0.023515503444655934,-0.01590972401875439,-0.011899599249114866,-0.0417326077513789,0.0,-0.023734755175477573,0.0,-0.0258460906892973,-0.06321583492997412,-0.0011959601164676789,-0.003184063192776981,-0.04634045561331407,0.0,-0.0486782376285416,0.0,-0.018086259534345245,-0.1885893646213633,-0.012088491537768194,-0.027727523706591383,-0.015460464296759293,0.0,-0.0516562768407012,0.0,-0.030706192893646626,0.0,-0.010338233651470335,-0.051571420876991014,-0.0026744630933385454,0.0,-0.04242205749975083
0.0,-0.021154159107856892,-0.0009521671607221456,-0.0023967286118096094,-0.05505297741664894,-0.0018022628212925205,-0.005981692418746517,-0.002429776338862741,-0.0025392092861117456,-0.020310263113104736,-6.816339278864486e-05,-0.007163079826451501,-0.0004840121395364441,-0.0031930335062868285,-0.018135690243182487,-0.00010445323940195013,-0.0017878280641203013,-0.014997717377520859,-0.16125821509774133,-0.18225527836259148,-0.4979326492814277
0.0,-0.020896313167967473,-0.000736843505197215,-0.0034872662781515883,-0.05225459204142577,-0.0020226492187702164,-0.008567371054584622,-0.0034453008636820873,-0.0022369800256810722,-0.023924789026084782,-0.0002009050681341262,-0.011032498978587584,-0.0006715440305209917,-0.003180600973383997,-0.024566090514590643,-0.00038056112201710683,-0.0018076063344540617,-0.019914951055909565,-0.18631609500361299,-0.21026143338637568,-0.4240948800153165
0.0,0.0,0.0,0.0,0.0,0.0,0.0,0.0,0.0,0.0,0.0,0.0,0.0,0.0,0.0,0.0,0.0,0.0,0.0,-0.022747844566274197,-0.0006884552543124027,-0.00393449669123074,-0.0704892283027344,-0.00219564197605298,-0.009392770646427993,-0.003274650875548566,-0.002335670822042226,-0.019419821197141116,-0.0001263160492932401,-0.009430629779018582,-0.0005625318676053303,-0.002526110215807896,-0.022269190274606977,-0.0003594248014675005,-0.0014436442970806266,-0.01618585174254738,-0.2182816052350693,-0.5943353520215521
0.0,0.0,0.0,0.0,0.0,0.0,0.0,0.0,0.0,0.0,0.0,0.0,0.0,0.0,0.0,0.0,0.0,0.0,0.0,-0.04256913143994764,-0.0011596201233956562,-0.0074972714192332425,-0.18649744593551673,-0.005704748193807591,-0.02371231606177082,-0.015871094281403618,-0.011866863251977972,-0.04169437258831135,0.0,-0.02377856569548791,0.0,-0.025802198242669844,-0.06309552559630206,-0.0012198821293442227,-0.0031803269928294513,-0.04634962422928892,0.0,-0.04854480611565923,0.0,-0.018098008585127758,-0.18848205256856215,-0.01229143094413769,-0.02800978475650772,-0.015418100150910167,0.0,-0.05163747438769506,0.0,-0.030744723044024768,0.0,-0.010309585257748926,-0.05142974332533545,-0.0027279586402850857,0.0,-0.04230531840529295
0.0,-0.02091325053663098,-0.0008407258376757574,-0.003830146258959854,-0.05227512046367319,-0.0021529476949008574,-0.007696873080487617,-0.0025075483508066616,-0.002784394109196964,-0.019125807873019297,-6.0153310984199226e-05,-0.006657476564348659,-0.0005706191260517366,-0.002818274564471805,-0.01795385466610879,-9.262975595811864e-05,-0.0015788048621948579,-0.013503302101048583,-0.15774944186748527,-0.1762844842339393,-0.5106035107878537
0.0,-0.02057885091381449,-0.0006966157595761129,-0.004125594371618387,-0.05128976235033326,-0.002289771031832733,-0.009195549644092423,-0.003563651083794151,-0.002383643610337097,-0.023803078242866257,-0.00018982942126838948,-0.010625535443714876,-0.0007335417559513197,-0.0030069629588351777,-0.02521475839670105,-0.00036104579335547533,-0.0017094431639778497,-0.019012730938072184,-0.1855195146168653,-0.20802083259611429,-0.42767856048695163
0.0,0.0,0.0,0.0,0.0,0.0,0.0,0.0,0.0,0.0,0.0,0.0,0.0,0.0,0.0,0.0,0.0,0.0,0.0,-0.03201807358056661,-0.0014863119373446515,-0.001967155879408775,-0.10879113218710813,-0.0005773293563070935,-0.00162807917084776,-0.0037522235344875535,-0.0035491547375805727,-0.03313848002606412,-0.00047668590123972203,-0.00690623806456392,-0.0002871771611404597,-0.0034617873782763074,-0.030814385482811082,-0.000452212649386362,-0.003943569669843339,-0.020727379943170466,-0.2656078322689206,-0.48036728628289305
0.0,0.0,0.0,0.0,0.0,0.0,0.0,0.0,0.0,0.0,0.0,0.0,0.0,0.0,0.0,0.0,0.0,0.0,0.0,-0.04257325838326452,-0.001159596545493424,-0.006954326262926869,-0.18882166511557802,-0.005305943363630413,-0.02200006042875059,-0.016053613921692345,-0.012292767925353444,-0.04024216657919488,0.0,-0.02340563256138612,0.0,-0.02659829427499245,-0.06429711951407613,-0.0011359069992572014,-0.0031789597588944975,-0.04595527063397487,0.0,-0.04917173191413835,0.0,-0.016835913541449123,-0.19145852677639508,-0.011494472431983095,-0.026408404767468398,-0.01556875411055799,0.0,-0.04982620460876747,0.0,-0.02890586865014857,0.0,-0.011152460663776849,-0.05280008983386247,-0.0024715297981432807,0.0,-0.04388062517177514
0.0,-0.028064594940320233,-0.0021280559724181146,-0.0017877130374608986,-0.09805807427689364,0.004964241745853225,0.013067400561833399,-0.002669126374308706,-0.004127437633459813,-0.03671062713682012,-0.00020806317276685145,-0.0010395405042130782,-0.0010469204497804752,-0.007696442197180824,-0.0296357896131091,4.733192652373422e-05,-0.0029420087930474943,-0.02161457075984603,-0.21920207501825698,-0.24238939885783764,-0.2825568822866518
0.0,-0.02487524041737159,-0.0012034713149334908,-0.004356369612159186,-0.07122919582395235,-0.00039558131469002056,0.001004208547850853,-0.003992597580883323,-0.0031277133052845106,-0.03185328123596294,-0.00038293032742218303,-0.008824983456560624,-0.0004682560070445342,-0.004738988892662249,-0.03231825032175163,-0.00042575139230779675,-0.0028057759711499278,-0.022926051132769593,-0.22064232558490549,-0.22386623874726558,-0.3405256152426502
0.0,0.0,0.0,0.0,0.0,0.0,0.0,0.0,0.0,0.0,0.0,0.0,0.0,0.0,0.0,0.0,0.0,0.0,0.0,-0.025250751364413106,-0.0008328565022097754,-0.003286221777957854,-0.08038472515609749,-0.0017148773977236503,-0.007147271174514056,-0.003441732228820835,-0.0028070583477506177,-0.02248607772705428,-0.00019897342770972313,-0.008846207202201792,-0.0004708855544020338,-0.0026129467821983995,-0.025050171202337573,-0.00036154891541336116,-0.0021692684398487527,-0.017619364294606425,-0.2310558551799198,-0.5642552685937416
0.0,0.0,0.0,0.0,0.0,0.0,0.0,0.0,0.0,0.0,0.0,0.0,0.0,0.0,0.0,0.0,0.0,0.0,0.0,-0.04257176382809617,-0.0011597979092499715,-0.007241566921546984,-0.18759379567001006,-0.005517494961688715,-0.022907425529124746,-0.015956796839800298,-0.01206744102428102,-0.041009048690924824,0.0,-0.023603423421208827,0.0,-0.026177385830621406,-0.06366126305823312,-0.0011806062739330783,-0.0031796559029337187,-0.04616407823456985,0.0,-0.04883912174663914,0.0,-0.017502879336278934,-0.18988635706105278,-0.011918357822118418,-0.027258426863991277,-0.015488713290243282,0.0,-0.0507831000244024,0.0,-0.029877961574757406,0.0,-0.010706928524862044,-0.05207470398796797,-0.00260774480815656,0.0,-0.04304724905575248
0.0,-0.023082262018003633,-0.0010428578706337054,-0.0031778403765756248,-0.06253809665300152,-0.0005890064754847673,-0.003044947638302845,-0.002726509592009185,-0.003332765383934006,-0.02293860529552059,-8.578678238801402e-05,-0.0053588222321199735,-0.0006290651034558916,-0.0036085207415921705,-0.021260518699194746,-5.8488622139684205e-05,-0.0020599391401027894,-0.016510804306160788,-0.17370686497647203,-0.19256165526186622,-0.4616798701943009
0.0,-0.022041132605048676,-0.0007781776471957974,-0.003935836671997894,-0.05682017888744752,-0.0016894094813045002,-0.006147980740715289,-0.0037683582429999907,-0.0026679235136340207,-0.025918695159747825,-0.00022550066522843655,-0.01011800830091956,-0.000624604396556016,-0.003247551102523764,-0.02819974662911345,-0.000354905861727328,-0.002240094299336749,-0.020851686811005903,-0.19640205667996835,-0.21398165266990452,-0.3999791718353212
0.0,0.0,0.0,0.0,0.0,0.0,0.0,0.0,0.0,0.0,0.0,0.0,0.0,0.0,0.0,0.0,0.0,0.0,0.0,-0.02322249444775957,-0.0006345098994438415,-0.0035760977106424627,-0.07284672620181779,-0.001895173961435548,-0.008580494242378165,-0.0033207159957449675,-0.002477940525105721,-0.020466168734157287,-0.0001227543734037082,-0.009626277103574806,-0.0004898884115480432,-0.002274832538056342,-0.023138421357945135,-0.00044634639997483404,-0.0018234428708319415,-0.01656081781141771,-0.22229669414410994,-0.5861980674277579
0.0,0.0,0.0,0.0,0.0,0.0,0.0,0.0,0.0,0.0,0.0,0.0,0.0,0.0,0.0,0.0,0.0,0.0,0.0,-0.04257003749298995,-0.0011598694928070042,-0.007447523578495094,-0.186710613332894,-0.005668995906270521,-0.02355753361169117,-0.01588727375045355,-0.011905699506720673,-0.04155914840680609,0.0,-0.023744894593842308,0.0,-0.02587513009444388,-0.06320458756892858,-0.0012125676328757925,-0.00318013178593986,-0.046313324783016765,0.0,-0.04860035834128091,0.0,-0.01798133646584163,-0.18875594508042134,-0.012221547405540472,-0.027866934976501247,-0.015431254636731218,0.0,-0.05146937480681856,0.0,-0.03057515366693428,0.0,-0.010387127416210552,-0.051554010486304966,-0.0027052427691963673,0.0,-0.04244904548639398
0.0,-0.02140912068540398,-0.0007756090127312045,-0.0034318131178523777,-0.05392097944288475,-0.001706633223062317,-0.006800917921055445,-0.002807251144085218,-0.002994597304167564,-0.01997866520315848,-5.7010882707994594e-05,-0.006642323679277389,-0.000516514680200385,-0.002615281805318356,-0.018721251575931602,-0.00011278395754441624,-0.0018487107558763092,-0.014847592562278304,-0.16121319781001478,-0.17922161168345932,-0.5003763539217851
0.0,-0.020804058364594997,-0.0006281905322039999,-0.003646417167464803,-0.05293776125265011,-0.0019382320499086799,-0.008445069662991208,-0.003609170783680925,-0.002382757100564568,-0.024515540550255985,-0.00017317668904929224,-0.010858336844925934,-0.0006331632123369558,-0.0026950718576804963,-0.02636299150343888,-0.0004265593138403414,-0.002160744581908597,-0.019436593889365847,-0.18793507628935902,-0.21004641209173633,-0.4203626623314433
0.0,0.0,0.0,0.0,0.0,0.0,0.0,0.0,0.0,0.0,0.0,0.0,0.0,0.0,0.0,0.0,0.0,0.0,0.0,0.022442974524917576,0.000554131796545675,0.003734711526192741,0.07032097774710801,0.0018392817761741216,0.009009778150040866,0.0031702487295927188,0.002448790332103682,0.020091690063266266,9.818286943315305e-05,0.010090462585972897,0.0004688610957822304,0.0022562679796286293,0.02231875030743185,0.0004284494118049607,0.0016245031203003905,0.01639643715808821,0.21988977079609387,0.5928155671622493
0.0,0.0,0.0,0.0,0.0,0.0,0.0,0.0,0.0,0.0,0.0,0.0,0.0,0.0,0.0,0.0,0.0,0.0,0.0,0.042205224656197804,0.001128795227639147,0.007906606956725798,0.18565344143338128,0.005572860121124145,0.024331245182094587,0.015630010275040077,0.01191542968434545,0.042007772063412684,0.0,0.024908882292006832,0.0,0.02545855004357444,0.06250742573082314,0.0011918355051399965,0.0030950553461230215,0.0464866442423055,0.0,0.04720948209716108,0.0,0.017675729964265,0.19333218252641088,0.012005617511705447,0.027344135958885313,0.014996400992921483,0.0,0.05034266752549273,0.0,0.03336367572800565,0.0,0.009990743043776562,0.049979984400261114,0.0026686485025953937,0.0,0.04109051050845308
0.0,0.020883546833080108,0.0006843861935969968,0.003562554447904916,0.051462589209227555,0.001918762523052273,0.007854447684715337,0.002688268630051688,0.0028063230629758037,0.019167188274879694,4.809509796993983e-05,0.0075408742282659594,0.00047159487952235516,0.002353474926988322,0.017872661853715555,0.00012290862114954643,0.0017248326747350618,0.014286348020940243,0.15749382650401345,0.17601337796173705,0.5110438031563657
0.0,0.02015733890211153,0.0005632587827583271,0.0036477880118658667,0.051607781011597666,0.001928113231880373,0.009206711568027305,0.003463321542454318,0.0023043649589639154,0.02428468481907555,0.00015234216114470587,0.01156576329213197,0.000610416445063214,0.0026381712500208464,0.025692529764877743,0.00041064917647305917,0.00200316615611446,0.01909942646189013,0.1853395875397779,0.20935256025827267,0.42597186863191355
0.0,0.0,0.0,0.0,0.0,0.0,0.0,0.0,0.0,0.0,0.0,0.0,0.0,0.0,0.0,0.0,0.0,0.0,0.0,0.02258111679621384,0.0005364710693106921,0.00372410059587397,0.07027458433458492,0.0017841764250625307,0.008966904727667981,0.003119946978254702,0.002371077262182944,0.020610420203397612,9.501324152131542e-05,0.00979399256957943,0.0004541019708166308,0.002184616416009415,0.022436474929449352,0.00041495939173424894,0.0016318181090490456,0.016271215806299328,0.21882169492024642,0.5939271364976567
0.0,0.0,0.0,0.0,0.0,0.0,0.0,0.0,0.0,0.0,0.0,0.0,0.0,0.0,0.0,0.0,0.0,0.0,0.0,0.04220676474444313,0.0011289269387569298,0.007905097972088318,0.18565604157938004,0.005573587997001272,0.02432934310565363,0.01563095237634185,0.011915045354833054,0.0420070354292693,0.0,0.024904249474206146,0.0,0.02545967357163157,0.06250940949920876,0.0011919909329659716,0.003095416677580947,0.0464862242340944,0.0,0.04721486731565864,0.0,0.0176780377678031,0.1933103916673135,0.012007173580861532,0.027347638172039952,0.014998121084185497,0.0,0.050348893148115775,0.0,0.03335333754963412,0.0,0.00999174442203271,0.04998554807463642,0.002669009839157619,0.0,0.04109499726601622
0.0,0.021044187176117123,0.0006656276340981433,0.0036606255633526317,0.05158878925007416,0.001868231722801758,0.007785381650779637,0.0026858135197132776,0.002730220267545951,0.019590653139812692,4.6765808191790954e-05,0.007337540152751263,0.00045874781259284714,0.002288794756529366,0.017845379696452477,0.00011965694067713591,0.001771323479657849,0.01430975430870362,0.15778769474283882,0.17580566589002772,0.5106089984721541
0.0,0.02030424348997971,0.0005478219326660749,0.0037168096530211,0.051666057869320714,0.0018761630595314509,0.009224585281253788,0.003420254740154947,0.002241488767332878,0.02493501671962338,0.00014815325794840901,0.011250763457160098,0.0005938874728187405,0.0025657821005436415,0.02592664863629474,0.0003995183374776886,0.0020507111938961628,0.019025012100898766,0.18573322324180255,0.20909812645939985,0.42527556135507194
0.0,0.0,0.0,0.0,0.0,0.0,0.0,0.0,0.0,0.0,0.0,0.0,0.0,0.0,0.0,0.0,0.0,0.0,0.0,-0.0267948261587128,-0.0008031850250677503,-0.002907109547727444,-0.08635932443943353,-0.0012678647407194223,-0.006130248056731305,-0.003385902715409811,-0.0025508453989101436,-0.0261667877808257,-0.00021109512400993775,-0.00920300188041277,-0.000366747824428994,-0.002633158987225406,-0.026531317408846438,-0.00033626587948918984,-0.0023083202558945087,-0.018220254239900778,-0.23823762755712838,-0.545566875071172
0.0,0.0,0.0,0.0,0.0,0.0,0.0,0.0,0.0,0.0,0.0,0.0,0.0,0.0,0.0,0.0,0.0,0.0,0.0,-0.042251387192456774,-0.001132248642258544,-0.007313400127767381,-0.188087069704526,-0.0051870537838062565,-0.02253767133999621,-0.015841649510815514,-0.012337890395856971,-0.04051274742122955,0.0,-0.024402588021487363,0.0,-0.026298522207472634,-0.06378369860602334,-0.001110542783130741,-0.003103610374414995,-0.04607443418932014,0.0,-0.047995353053884235,0.0,-0.016456768535961064,-0.1957596248193638,-0.011236585273338302,-0.02581045998903548,-0.015197034683927678,0.0,-0.048673541008174545,0.0,-0.03121187444387493,0.0,-0.010874729019304355,-0.05152603996481348,-0.002417507183407014,0.0,-0.04281499632547741
0.0,-0.02304436822474355,-0.000993562997381639,-0.002814986808203628,-0.06584666933556033,0.00020906458930482894,-0.0016032255041544823,-0.002650838011182803,-0.002887055195014134,-0.024290285781512648,-8.585627012426657e-05,-0.005452874976785775,-0.0005698229175551613,-0.004181611728560699,-0.02203728499077109,-8.341564407974022e-06,-0.002010223524965747,-0.01728371864447099,-0.1787090727405506,-0.19581785291723638,-0.44948847356459803
0.0,-0.022374306995352884,-0.0007236708814865611,-0.003737045203005953,-0.05969487610703117,-0.0011705837002928734,-0.004754057880475765,-0.003539523658340237,-0.0023955158552244294,-0.028824131248357775,-0.00021588496460402904,-0.010601311806853184,-0.0004909595799481096,-0.003507237711486628,-0.029689877948162517,-0.000343340550041334,-0.0023527715749065144,-0.021157276161590317,-0.20251885348348367,-0.21697264595213597,-0.38491965272455336
0.0,0.0,0.0,0.0,0.0,0.0,0.0,0.0,0.0,0.0,0.0,0.0,0.0,0.0,0.0,0.0,0.0,0.0,0.0,0.022094745372515788,0.0006074477292114004,0.0036898177806866383,0.06979874004268276,0.0018707022628123777,0.00918254159477777,0.00367548959422593,0.002329377252249772,0.0195458216837597,8.608701341478731e-05,0.010370122755483777,0.000411532511148934,0.0021569892854990283,0.022274737337166905,0.000556128785747356,0.0014965173864642373,0.015571396416859618,0.22028656613276568,0.5939950898236157
0.0,0.0,0.0,0.0,0.0,0.0,0.0,0.0,0.0,0.0,0.0,0.0,0.0,0.0,0.0,0.0,0.0,0.0,0.0,0.04220665522982234,0.0011289189839367533,0.007906607643144326,0.18564980925235222,0.005574582360007229,0.02433392711746036,0.015630415666372337,0.011913958508392717,0.042010861382966974,0.0,0.024905512377939802,0.0,0.02545752635506174,0.06250614762488232,0.0011922004679070404,0.0030953972112118533,0.04648727552752576,0.0,0.047212888837820544,0.0,0.017681179529215107,0.19330399586177477,0.01200915637592439,0.02735159517735857,0.014997618339168505,0.0,0.05035321614636405,0.0,0.03335877778848836,0.0,0.009989484334151867,0.049981621360410525,0.002669656351844643,0.0,0.04109060560646231
0.0,0.019857636032501392,0.0008007569054082268,0.003633621528536734,0.049709758674850016,0.0019051852544730722,0.008633188877043394,0.003427715942298304,0.0025347111803802804,0.017695446962930066,4.081800659092352e-05,0.00741758781049137,0.0004003501782273529,0.002346030133330981,0.01725164577856826,0.00034369438002997257,0.0015459248031201205,0.013434672014335384,0.15577267594283367,0.17352701716845972,0.5197214411058861
0.0,0.019610303226008593,0.0007683028539713443,0.0036256661509208987,0.05100131181881594,0.00180501678076622,0.00947437606993382,0.0040204997610013195,0.0021163978416464456,0.023804565205135762,0.00013428592527660476,0.011832537364273848,0.0005382666192428891,0.002599385303756064,0.026185033657893604,0.0006580477283399325,0.0018795477376140615,0.01826751283472527,0.1860179010394166,0.20990199918236407,0.42575889955485985
0.0,0.0,0.0,0.0,0.0,0.0,0.0,0.0,0.0,0.0,0.0,0.0,0.0,0.0,0.0,0.0,0.0,0.0,0.0,0.021927711423099763,0.0006637483621648061,0.004001892487635452,0.06847257260214222,0.0019924772273473817,0.009651935705750358,0.0034915788627450563,0.002212263401211424,0.019676436923383108,8.190064589335716e-05,0.009927215706943618,0.0005723643796923086,0.0020488765587581637,0.02176776575415158,0.0005346178161350562,0.001678420538083385,0.015111039737685837,0.21674144212876456,0.5994455881744508
0.0,0.0,0.0,0.0,0.0,0.0,0.0,0.0,0.0,0.0,0.0,0.0,0.0,0.0,0.0,0.0,0.0,0.0,0.0,0.04220683170972078,0.001128931753284242,0.007904370807677759,0.1856590393255145,0.005573121163379327,0.024327153964369443,0.015631215540059404,0.011915560250810779,0.04200521639602961,0.0,0.024903619295251426,0.0,0.025460704224244925,0.06251097945083176,0.0011918925765679275,0.0030954287656478623,0.04648572628224235,0.0,0.04721584982678265,0.0,0.017676562836379653,0.19331329662522145,0.012006243519869397,0.027345785192552492,0.014998373508360412,0.0,0.05034688762230413,0.0,0.03335068322158532,0.0,0.00999282634092484,0.0499874578427645,0.002668705435620697,0.0,0.04109711953326645
0.0,0.019956933432501312,0.0007772195121083537,0.003741409686874498,0.04916720237543161,0.001963734246701659,0.008917831681763343,0.003325339076950224,0.002459875782594146,0.017646214757011256,3.965085616711424e-05,0.007235038440741651,0.00048334426700776765,0.0022782456213578514,0.017005959319678274,0.00033316666741424456,0.001599240138796477,0.013312151164964528,0.15489329276000222,0.17212068244959677,0.5227433438370523
0.0,0.019583939298784058,0.0007965550409681337,0.003954651734759343,0.05031699292880693,0.0019333809141816496,0.009966122020938138,0.0038583664325368182,0.0020316950298945122,0.023982295531680433,0.00012898549560474667,0.011400187236826089,0.0007123968054457488,0.002496014666117018,0.025750842133673957,0.000631220390243692,0.0020560651666345505,0.017887694133629842,0.18487426059636522,0.20788644010006596,0.4297517479490337
0.0,0.0,0.0,0.0,0.0,0.0,0.0,0.0,0.0,0.0,0.0,0.0,0.0,0.0,0.0,0.0,0.0,0.0,0.0,0.022161234251217438,0.0006451098972266475,0.00389179270226468,0.06882593749080525,0.0019380030162244686,0.009409873708704927,0.003395637477214836,0.0021509620073822404,0.019868606488651203,7.949180918009001e-05,0.010196142544166497,0.0005563968008893692,0.002195260465298919,0.02172857155862737,0.0005201367236321471,0.0018108775699512605,0.015067748741593653,0.21865783230186678,0.5969002058187103
0.0,0.0,0.0,0.0,0.0,0.0,0.0,0.0,0.0,0.0,0.0,0.0,0.0,0.0,0.0,0.0,0.0,0.0,0.0,0.043713370219894306,0.0010331076644566066,0.007234228805461748,0.18506657869102133,0.0051005862513016495,0.022534145896696493,0.014304223091312608,0.010903669566495815,0.04475529420884409,0.0,0.027499754673734618,0.0,0.024725425762333986,0.06190080622740422,0.00109083259871128,0.004259496598397279,0.045878235246136614,0.0,0.0492714129180533,0.0,0.016177792874257264,0.1920574288864806,0.010988176583063537,0.02502672730594156,0.013725109543258044,0.0,0.06274834989880074,0.0,0.03052271999650675,0.0,0.009143544445714864,0.045742730989622025,0.0024425153213024574,0.0,0.04215324673920126
0.0,0.019999635202839823,0.0007649393684800732,0.0036838661510772133,0.049089578785458776,0.0019355347941968613,0.008787211061825036,0.00327436647494579,0.0024208400828190113,0.017461379904959096,3.897148967050398e-05,0.0071853443419396,0.0004754756966921219,0.0023467692019849854,0.016898103488549622,0.00032830143130776703,0.0015735208692748478,0.013486517586717909,0.15433366437026963,0.17385268777758137,0.5220631468604302
0.0,0.019913434127841106,0.0007757561111202621,0.00385184279618424,0.05049856682465285,0.0018838560486117044,0.009713077628138679,0.0037582556600790212,0.0019784643700572406,0.02392134962091866,0.00012552384366411144,0.011574736782757375,0.000693964197024904,0.002663567962249779,0.02554560502329327,0.0006150421223781175,0.0021412561426486405,0.01780543144256832,0.1846559280241831,0.20947526017875043,0.4284089091827033
0.0,0.0,0.0,0.0,0.0,0.0,0.0,0.0,0.0,0.0,0.0,0.0,0.0,0.0,0.0,0.0,0.0,0.0,0.0,0.022259726711011254,0.0006323784174949856,0.003814990847691896,0.06923121020053565,0.0018997584751109383,0.009224218570500634,0.0033286271186239594,0.0021252209980270604,0.01993732461020349,7.792281297561884e-05,0.010148891523096913,0.0005454162951869543,0.002324540789472961,0.021911169983978948,0.0005098725917903844,0.001775462583850548,0.015458227727624087,0.21919804121156752,0.5955968191283959
0.0,0.0,0.0,0.0,0.0,0.0,0.0,0.0,0.0,0.0,0.0,0.0,0.0,0.0,0.0,0.0,0.0,0.0,0.0,0.044956883891324295,0.0009964054263245559,0.00697722919653828,0.1850337722621018,0.004919385166106226,0.02173498134499811,0.01379604942801852,0.010516302701906118,0.045044519009919515,0.0,0.028393823770376823,0.0,0.024777810271914398,0.062496189064473316,0.001052080172770881,0.00411544018990927,0.04518888370192745,0.0,0.053400831381158156,0.0,0.015603068002110851,0.19116051559160915,0.010597815263952277,0.02413763695060947,0.013237509563262256,0.0,0.06060407355444371,0.0,0.035287340056493956,0.0,0.008818704857705764,0.04411766324026891,0.002355744074398663,0.0,0.04067885306259664
0.0,0.020063638236430953,0.0007546661239581649,0.0036343935870955376,0.049292914515688804,0.0019095443945963035,0.00866921250452287,0.0032303935454703115,0.0023883276100417064,0.017508084887410732,3.844802020098123e-05,0.0072488059118807424,0.00046908965387649544,0.0024495070289987033,0.01690778241588295,0.0003238928757871757,0.0015523876048224414,0.013715295260410846,0.1546781469264414,0.17407226515208538,0.5210930582703828
0.0,0.020050421002611018,0.000759803092105301,0.0037726324420109085,0.050849697503931084,0.0018451171885791057,0.009513345672992841,0.003680970194481916,0.0019377779717083276,0.024021066163014967,0.00012294234951125876,0.011590553551043024,0.0006796934777561586,0.002830723344451779,0.025647779573582944,0.0006023946271454347,0.0020974623022514786,0.018148609293985467,0.18519920487114205,0.20988783436666408,0.4267617984055383
0.0,0.0,0.0,0.0,0.0,0.0,0.0,0.0,0.0,0.0,0.0,0.0,0.0,0.0,0.0,0.0,0.0,0.0,0.0,0.02234419704649769,0.000613369676958192,0.0037001030535009096,0.06969959992338157,0.001900378470372651,0.009007736978106981,0.003410024241240064,0.0021196487123518845,0.020360762937972326,7.558902112958496e-05,0.01012138318285936,0.00052902710706176,0.0024100042611513678,0.022085939233233255,0.0004944884916271401,0.0018077435778658458,0.015181952229956972,0.2197003236455544,0.594437550690931
0.0,0.0,0.0,0.0,0.0,0.0,0.0,0.0,0.0,0.0,0.0,0.0,0.0,0.0,0.0,0.0,0.0,0.0,0.0,0.04484613703756026,0.0009013786057023462,0.006311746720703186,0.1846215111210355,0.005079873221098695,0.020291622447934046,0.014495464622322327,0.010143100526153881,0.04832680453272733,0.0,0.027712106828337878,0.0,0.023807094881551392,0.0644989876948189,0.0009517344596193872,0.004523245981711541,0.04348895065559598,0.0,0.04833484628682037,0.0,0.014114871048919892,0.1954339372379726,0.00958701811151186,0.021835463940621008,0.01197506990818873,0.0,0.05879229274171955,0.0,0.031948325014780836,0.0,0.007977760765486891,0.05577958858103154,0.0021310495008155196,0.0,0.042089536199003914
0.0,0.02022705290812051,0.0007322837843782015,0.003526482370920235,0.04960809458119826,0.0018526621609187158,0.008429642739612258,0.00327071028077769,0.002391900283367633,0.018009016908359918,3.731259219065716e-05,0.007325322431111525,0.00045520948775093186,0.002621886425528099,0.016987694532241287,0.00031424979177474663,0.00169881836165265,0.01342698702156406,0.15530242093137667,0.17516051834187552,0.5186215899051679
0.0,0.020294241253775738,0.0007353586749597047,0.0036512424574104163,0.051271208680614314,0.0017856761933417711,0.00926567022876283,0.0037021467863292763,0.0018981615291497641,0.02454048559118387,0.00011899432549620572,0.011595077931969398,0.0006578303004340622,0.0028860267521063497,0.025985122096356755,0.0005829801865490168,0.0021943139597240405,0.017733019048676524,0.18590089147273997,0.21061359925962128,0.42458778238620465
0.0,0.0,0.0,0.0,0.0,0.0,0.0,0.0,0.0,0.0,0.0,0.0,0.0,0.0,0.0,0.0,0.0,0.0,0.0,-0.029026682154720294,-0.0008826431649818504,-0.002934113261609861,-0.08865869998887907,-0.0012185455131628648,-0.004933748565505455,-0.0022674118791282316,-0.0018410464766218497,-0.0305769255476253,-0.00020437621236836498,-0.0070404546855257115,-0.0008236632893861754,-0.0031921274803556206,-0.02634105979856271,-6.170073796160003e-05,-0.0034097130235969564,-0.017480571277199278,-0.2339687682045238,-0.5451084163478971
0.0,0.0,0.0,0.0,0.0,0.0,0.0,0.0,0.0,0.0,0.0,0.0,0.0,0.0,0.0,0.0,0.0,0.0,0.0,-0.045313998353588625,-0.0008679204227046778,-0.005135502489521014,-0.18821444969679926,-0.004411170854034041,-0.016855723805514717,-0.014626110437992364,-0.01049769494681381,-0.047163307880834095,0.0,-0.027367217751720574,0.0,-0.024810756554934196,-0.06678991036555139,-0.0007862730721502031,-0.004794900929634966,-0.04231603606529122,0.0,-0.04930102382515675,0.0,-0.011640535364279963,-0.20041784559774106,-0.007996659981424764,-0.01854705977844872,-0.011767665134436622,0.0,-0.05732517744734565,0.0,-0.028337734690231663,0.0,-0.008989150585150317,-0.059086126669630354,-0.0016546679999384208,0.0,-0.044887326553300834
0.0,-0.026386571590724606,-0.0006916781454150864,-0.0018735903847201584,-0.0735755462815153,0.00125485313250567,0.002728305125536226,-0.0016087433543009323,-0.002588747477360365,-0.028389303558490262,-9.448950788714031e-05,-0.004071247738348026,-0.000822508936259034,-0.005545769487503832,-0.023228023605668353,0.00015027675325239367,-0.002568322174556296,-0.019273458268233595,-0.18394664353593757,-0.2094126012675801,-0.41176380022278164
0.0,-0.02443095725709102,-0.000761841939412406,-0.0036079687674988063,-0.06345016831357664,-0.0010145426561440972,-0.003006133046820873,-0.002971622714155965,-0.001957889433337146,-0.03139314970954851,-0.00019951455551779718,-0.009243068695812486,-0.0007228637120891595,-0.004187704817985683,-0.029987141345993406,-0.00024622346536802147,-0.003086097342852298,-0.020453804428526953,-0.20527819769832653,-0.21877530496009404,-0.37519957802844967
0.0,0.0,0.0,0.0,0.0,0.0,0.0,0.0,0.0,0.0,0.0,0.0,0.0,0.0,0.0,0.0,0.0,0.0,0.0,-0.024908783681509724,-0.0006889289763375878,-0.003370204262972018,-0.0762708477061354,-0.00163620041651278,-0.007478513943997944,-0.002962646911254121,-0.0021691944964917836,-0.02407668520463079,-0.00011632506702947627,-0.00897484473085273,-0.0006147037715311892,-0.002679295634514242,-0.02340839864270722,-0.00034179234044380514,-0.002296229458219002,-0.016404252203233466,-0.22469794709047924,-0.5768966947447001
0.0,0.0,0.0,0.0,0.0,0.0,0.0,0.0,0.0,0.0,0.0,0.0,0.0,0.0,0.0,0.0,0.0,0.0,0.0,-0.04533664963034673,-0.0008603199768456954,-0.005711083706269503,-0.18439789989677213,-0.00469043112826348,-0.018477025875859334,-0.014062537508169933,-0.011069949808359176,-0.04864249003574076,0.0,-0.027063596729775184,0.0,-0.024591036832557093,-0.0650455637100617,-0.0008651186227687834,-0.004465341308911839,-0.044712570400820016,0.0,-0.052207211789980154,0.0,-0.012823506950274155,-0.1916817735667444,-0.008739907854757721,-0.020017054557704476,-0.011508417891608863,-0.001025090165092037,-0.05636194653893088,0.0,-0.029687015651124707,0.0,-0.012180284858973522,-0.059197325660803886,-0.00190190154513246,0.0,-0.04266017814039415
0.0,-0.022393382191491985,-0.0007092884398339433,-0.002959806179518427,-0.05751187091215284,-0.0008544253276614667,-0.004820376830868213,-0.002704913112491614,-0.002705748350573365,-0.021508753036351663,-5.4676226805968595e-05,-0.006233474447966465,-0.0005637230142268271,-0.0035676548098575733,-0.019023768531384398,-0.0001645041890583264,-0.001947144961936217,-0.015749800005549423,-0.16560094203399253,-0.18693533229395895,-0.4839840255179849
0.0,-0.022051958525557018,-0.0007302989766998926,-0.003566592966319818,-0.0556056026004922,-0.0014888368256615002,-0.006956313970146851,-0.0033825849997498525,-0.0020852049201164433,-0.027264217445219844,-0.00014414122305331147,-0.010663401259779609,-0.000667385264968218,-0.0033843082045772266,-0.02731700714314795,-0.0004571181183804572,-0.00245620724157669,-0.019138356981275285,-0.1933959099676369,-0.21381622153614457,-0.40542122392915064
0.0,0.0,0.0,0.0,0.0,0.0,0.0,0.0,0.0,0.0,0.0,0.0,0.0,0.0,0.0,0.0,0.0,0.0,0.0,0.022736950864538856,0.0007049780049310329,0.0038469520694449145,0.06933065641561047,0.0019381927181536254,0.009130819743544695,0.003185737482962297,0.0022412177956001996,0.020302514279234005,7.069577652015608e-05,0.009667557938788271,0.0004944446315571422,0.002337637344475624,0.021783072466923917,0.0005156346196699234,0.0016900474591685015,0.015735434214244684,0.2177394390177728,0.596547871323552
0.0,0.0,0.0,0.0,0.0,0.0,0.0,0.0,0.0,0.0,0.0,0.0,0.0,0.0,0.0,0.0,0.0,0.0,0.0,0.04525911131602648,0.0008641165144386867,0.006051258716069259,0.18285890339341532,0.004873292910977359,0.019457216822810677,0.013906155817464237,0.01114432309778206,0.049202530208888935,0.0,0.027049040667551878,0.0,0.024362928033771585,0.06423370185218165,0.0009124505692351023,0.004340118743024944,0.045484652458593886,0.0,0.05272180912637322,0.0,0.013532273563809373,0.18874088469045544,0.009191268226879342,0.020933947501106713,0.011479923414552628,0.0012774130839280106,0.056381686937873425,0.0,0.030628863007741133,0.0,0.012756165227261274,0.058660578434566284,0.002043136791174441,0.0,0.0416518511165109
0.0,0.020134152566904335,0.0009451822395271313,0.0035707729127461983,0.04935315250114434,0.0018596026022447971,0.008665497973805369,0.0030940039601362757,0.0026004198681179812,0.01773268190977846,3.5340212286721876e-05,0.007001527258742214,0.00043094849364410574,0.0025701205706894726,0.01689761015839064,0.0003509353627170886,0.0016082472021988182,0.013864695554173632,0.15486182983257624,0.17365677336516555,0.5207663871481204
0.0,0.020625877218828716,0.0008580066103015419,0.00371537603406583,0.051204162737402796,0.0017732411648339495,0.009362487590939076,0.003521422229816999,0.002054238483951557,0.024637173077188584,0.0001132454918748494,0.01122805111130202,0.0006258024148749411,0.0028749717917764595,0.025908060942409866,0.000611691812706866,0.0020881933909877087,0.0183741400269381,0.1862367727037665,0.2098270790790144,0.4243598650553523
0.0,0.0,0.0,0.0,0.0,0.0,0.0,0.0,0.0,0.0,0.0,0.0,0.0,0.0,0.0,0.0,0.0,0.0,0.0,-0.023102440913428775,-0.0006816680261072661,-0.0038351281188164004,-0.07065343730571141,-0.0018039656200224366,-0.008897978165628987,-0.0030128982718907425,-0.0021836663468128717,-0.021654223457887745,-7.868960919396455e-05,-0.009559782873240084,-0.0006610543823389911,-0.002430444717813105,-0.02193467129984501,-0.0004595306956159893,-0.0017678047661371416,-0.01572744852675701,-0.22005081909780866,-0.5915020584069425
0.0,0.0,0.0,0.0,0.0,0.0,0.0,0.0,0.0,0.0,0.0,0.0,0.0,0.0,0.0,0.0,0.0,0.0,0.0,-0.04476366707448119,-0.0008007157612389245,-0.007248143896154989,-0.18041415008618894,-0.004485526535404845,-0.020576993840160603,-0.012926098920528916,-0.010833653179677905,-0.05349696500613697,0.0,-0.02738517956912073,-0.0009047769706635756,-0.023583279912144508,-0.06279310153720064,-0.0008374235141295357,-0.004048467663350395,-0.044898708708202784,0.0,-0.05406720536607934,0.0,-0.01241830195905528,-0.19096293829526698,-0.008440249474354893,-0.019244158904160702,-0.010652355759699696,-0.001170655780045899,-0.05738257899070183,0.0,-0.028231038521606078,0.0,-0.011860958512791125,-0.05975192257233479,-0.0018685635954802295,0.0,-0.04394592444320859
0.0,-0.02027065577745716,-0.0008605007146755638,-0.003533432550231673,-0.05038032511059466,-0.0015390380012201776,-0.008251206405135065,-0.002851002926889292,-0.002497855060780053,-0.01861336276700626,-3.800859098204083e-05,-0.00680577382220922,-0.0006433106120998068,-0.0027253102740961714,-0.01692701997393401,-0.0002974819139908288,-0.0016058190619114819,-0.0142063098078813,-0.15552476622737577,-0.17628629555977812,-0.5161406778168313
0.0,-0.02068423513868338,-0.0008160895023828482,-0.003838541662648653,-0.0518454025457097,-0.0016352620180036324,-0.00915697153438825,-0.003335082436653912,-0.0020130670812368422,-0.025475917745412375,-0.00011584670915688872,-0.011094222742331804,-0.000689256419562504,-0.00294436815705977,-0.025901579642283186,-0.0005551899613435424,-0.0020871408608896585,-0.018242647553657686,-0.18665110628183823,-0.2106123668229804,-0.42230352245560493
0.0,0.0,0.0,0.0,0.0,0.0,0.0,0.0,0.0,0.0,0.0,0.0,0.0,0.0,0.0,0.0,0.0,0.0,0.0,-0.022472398497970617,-0.00065931703878153,-0.003952102754369154,-0.0695084753892383,-0.0017826448677689172,-0.009303084526448084,-0.0029505887326642262,-0.002122833310524635,-0.021380674244567584,-7.054443913277383e-05,-0.009729901440235701,-0.0006107816376423157,-0.0025372293481999014,-0.021673785907702574,-0.0004655125406710046,-0.0016378810308331343,-0.01549491497571164,-0.2185116539650983,-0.5951347688884879
0.0,0.0,0.0,0.0,0.0,0.0,0.0,0.0,0.0,0.0,0.0,0.0,0.0,0.0,0.0,0.0,0.0,0.0,0.0,-0.04418417216210927,-0.0007133977233211916,-0.00796554900606783,-0.1802052960152676,-0.004011224470276733,-0.021887085038790593,-0.011496736094799679,-0.009607596881188733,-0.05736806424881284,0.0,-0.02689672056106252,-0.0007516148704847336,-0.02357819781912087,-0.06348392636197193,-0.0007500725951469226,-0.0035938222064518886,-0.043505323717316025,0.0,-0.053932050192785436,0.0,-0.015209648341888593,-0.1892310113059717,-0.007557502224535996,-0.025398317555249846,-0.009483483286467727,-0.0010490935314640829,-0.056931288260553096,0.0,-0.025226424876436265,0.0,-0.010546236231659371,-0.06503050545399953,-0.0016769168743347356,0.0,-0.038726321636843024
0.0,-0.020030146955568488,-0.0008681806415029146,-0.0035909617807691314,-0.049207771874160894,-0.0016415369284017262,-0.008748859128149109,-0.002856891719023231,-0.0024451404880409373,-0.01862676924586532,-3.4988607165826986e-05,-0.007092225807824512,-0.0005954185906652036,-0.002773111193478085,-0.01670319215472941,-0.00031281470188275517,-0.0015386269714780705,-0.013969596300761628,-0.1547169284336754,-0.17450962545936816,-0.5197364763515335
0.0,-0.02020503019249596,-0.0007964969728816299,-0.003868130855066309,-0.05105552558608958,-0.0016240942129320082,-0.009708496187512565,-0.003263121152228362,-0.00195036046380499,-0.02532968402963528,-0.00010864786447306323,-0.011286299770396326,-0.0006591271327487379,-0.003065614062377631,-0.025560850854503225,-0.0005563848371161358,-0.001982259075015711,-0.01793940339320856,-0.1850936565934718,-0.20940825031594598,-0.42653769750210624
0.0,0.0,0.0,0.0,0.0,0.0,0.0,0.0,0.0,0.0,0.0,0.0,0.0,0.0,0.0,0.0,0.0,0.0,0.0,0.022256891915604465,0.0006390513275415808,0.003896990738515168,0.06864948946242164,0.0018116177710653352,0.009519649114683143,0.0028948549231177898,0.0020666567774211392,0.02081960535291208,6.402317194286818e-05,0.010095166684001499,0.0005719579489343981,0.0024402978154298635,0.021635731350653362,0.0004676687685430977,0.0016586667413683446,0.015291390334894267,0.21814294496117476,0.5970771703655766
0.0,0.0,0.0,0.0,0.0,0.0,0.0,0.0,0.0,0.0,0.0,0.0,0.0,0.0,0.0,0.0,0.0,0.0,0.0,0.0441615492932218,0.0007115703303866179,0.008007813428897092,0.180122796312035,0.004012836598084548,0.02199453146376907,0.011451454420605517,0.009567032838604803,0.0575043587887791,0.0,0.026883322028419563,0.0007438194143744201,0.02355978551487544,0.06345564707934019,0.0007513303640768995,0.003574078474691877,0.04349783468191709,0.0,0.053920071750827525,0.0,0.015348074061463986,0.18905272483160654,0.007568301566097932,0.025647238916025272,0.009453398870568631,0.0010512594675501387,0.05693515428257031,0.0,0.02522104736251048,0.0,0.01050205383129547,0.06511999457299608,0.001682326715975591,0.0,0.038498114802591264
0.0,0.01987877618806035,0.0008574751275298782,0.0035162307181740484,0.04811179097764786,0.0017588398570772144,0.009251122199091267,0.002806904271772872,0.002358369190329526,0.0182136181444377,3.2021342233955765e-05,0.007548897819517695,0.0005500212408995792,0.002591166764715507,0.016460901294109567,0.0003185277949477767,0.0016514194967152708,0.013548533431436222,0.15321924282953558,0.17249228769953448,0.524833712533896
0.0,0.02007458840675076,0.0007755860267298555,0.003747479411084123,0.05042971751004137,0.001672668036738995,0.010040044151569191,0.003183823501560944,0.0018884499615061312,0.024914918583980303,0.00010232957171915522,0.011778775795805888,0.000632376674642087,0.0029328956230146312,0.025444887833790727,0.0005531746525003435,0.0021007639571643194,0.01774206248476289,0.1840372223285807,0.20924222111734697,0.42870584622655533
0.0,0.0,0.0,0.0,0.0,0.0,0.0,0.0,0.0,0.0,0.0,0.0,0.0,0.0,0.0,0.0,0.0,0.0,0.0,0.022357352174898912,0.0006270345845027315,0.003823770093528093,0.06901438484544334,0.0017775255590030167,0.00934987579574383,0.0028404658273279673,0.002027813251368509,0.020844216282137413,6.28106767915033e-05,0.010168776202640326,0.0005611633170444492,0.0023943656287225843,0.02188289902290211,0.0004589072431895137,0.0016271662968454308,0.01547030713298368,0.21937971664121816,0.5953312708451882
0.0,0.0,0.0,0.0,0.0,0.0,0.0,0.0,0.0,0.0,0.0,0.0,0.0,0.0,0.0,0.0,0.0,0.0,0.0,0.04416162260400134,0.0007115801153377797,0.00800771072212033,0.18012288261003825,0.004012880329261423,0.02199431916319595,0.01145162714253163,0.00956718240110139,0.057503879422303526,0.0,0.02688337924484137,0.0007438403273165465,0.023559800911238892,0.06345560420916799,0.0007513376334993845,0.003574137773371776,0.04349797297595254,0.0,0.05392009410397635,0.0,0.015347695759681798,0.18905303399607673,0.007568376589516215,0.025646450837811315,0.009453534445507178,0.0010512692448179724,0.05693519372519985,0.0,0.025221337118553816,0.0,0.01050221476770156,0.06511941964088275,0.0016823405013369134,0.0,0.038498796854217476
0.0,0.02007921165096651,0.0008422723332514401,0.003453818381777692,0.04846530271726872,0.0017277134156282543,0.009086926339608696,0.0027571053126619217,0.002316428096081081,0.01818265353602899,3.1447886043333964e-05,0.0075662258939948315,0.0005401836628399102,0.0025448865517848436,0.016344454618180054,0.0003129019994214537,0.001621759790729308,0.013541796985995376,0.15311326240405734,0.1730234718791095,0.5244480324858124
0.0,0.02023492971815091,0.0007593499024429841,0.0036689858120169975,0.050843324087254387,0.0016375917329467234,0.009829720242731549,0.0031171863285009253,0.0018488952892206955,0.02480484117162942,0.00010018032407675991,0.011905273209277922,0.0006191192523571916,0.002871383132134589,0.0255063502126871,0.0005416177696234035,0.002056357751269443,0.017841558860664745,0.18408336740855336,0.2100569621093661,0.42767283387574784
0.0,0.0,0.0,0.0,0.0,0.0,0.0,0.0,0.0,0.0,0.0,0.0,0.0,0.0,0.0,0.0,0.0,0.0,0.0,-0.0237438983043934,-0.0006091966746646601,-0.003489272236085644,-0.07382273172629253,-0.001578482906291081,-0.00804671159287646,-0.003131691847206888,-0.002088076047282156,-0.02296786191450141,-0.00022617080966886078,-0.009738182317516329,-0.0006521096878972983,-0.0026165860566341502,-0.023187964226535455,-0.0003579368145144321,-0.001846364707836505,-0.015867246652581966,-0.22686820588022902,-0.5791552888317982
0.0,0.0,0.0,0.0,0.0,0.0,0.0,0.0,0.0,0.0,0.0,0.0,0.0,0.0,0.0,0.0,0.0,0.0,0.0,-0.04391850301153179,-0.0006689086303311338,-0.007780425379508515,-0.18166202142067292,-0.0038609330369008053,-0.020307895786966092,-0.012575892128915297,-0.010124223455641112,-0.056400593255843304,-0.000524218697866032,-0.026917828414054466,-0.0007236691967317438,-0.02298410968498881,-0.06403400365630584,-0.0006891202836603637,-0.003416693918635192,-0.043402585920035,0.0,-0.050867326988136265,0.0,-0.016480735248491748,-0.19338456799272963,-0.006951719808867654,-0.023622496242794597,-0.008917899864742547,-0.0009620341431978139,-0.058324291034068054,0.0,-0.023389084593104924,0.0,-0.009965126777593413,-0.06159685368456861,-0.0015290631219428408,0.0,-0.0440004263783504
0.0,-0.021191787057814545,-0.0006987274670315237,-0.0030647040376611356,-0.05342931370885923,-0.0011296286075951807,-0.0065897088673183765,-0.0027620731236496815,-0.0023146530023220612,-0.020281762682463907,-0.00010185998574901012,-0.007137574011463214,-0.0006429836600357247,-0.0030047634908771065,-0.01712490343517845,-0.00021053991790721016,-0.0016204457718119625,-0.014482267595518116,-0.15998932558569257,-0.18173221437361325,-0.5024859661815897
0.0,-0.020962753224526256,-0.0006992389450526955,-0.003543876304998966,-0.05375115757664105,-0.001405553285017063,-0.007907642235777253,-0.0034276421975806956,-0.0019650932394694185,-0.02623772010089671,-0.00024913526343906727,-0.011593812687785943,-0.0006178645098821174,-0.003110774042684074,-0.026372558909183504,-0.00044104035358746597,-0.0020859421085037007,-0.01805550029313183,-0.18955887373721386,-0.21464804608980134,-0.4133602045551991
0.0,0.0,0.0,0.0,0.0,0.0,0.0,0.0,0.0,0.0,0.0,0.0,0.0,0.0,0.0,0.0,0.0,0.0,0.0,0.02240530268491228,0.0005964061990643312,0.00366522580486931,0.0699003009474517,0.001708171612206169,0.008991374422659603,0.003112853790843538,0.0020459455733957276,0.021048368296975647,0.00015844611406157962,0.00997164405465018,0.0005335750951057903,0.0026150206067148602,0.022243391444199425,0.000436637164244937,0.0016720291306189104,0.015417703730209412,0.22058513463769647,0.5928922891152185
0.0,0.0,0.0,0.0,0.0,0.0,0.0,0.0,0.0,0.0,0.0,0.0,0.0,0.0,0.0,0.0,0.0,0.0,0.0,0.04388571195497035,0.0006088677689002811,0.007131105867569878,0.1823818002177943,0.0035478170456961864,0.019521474193225204,0.011089841402712828,0.008970976302790845,0.0603321452789288,0.00039257358833254274,0.02418029518757856,0.0006363564008663036,0.023957185735014406,0.06468800534375149,0.0006429673220040815,0.0048912897544432935,0.04314134335684351,0.0,0.05337219060037222,0.0,0.014927468060449839,0.19151511773429605,0.006476693016001189,0.021946822288321566,0.008088825915615392,0.0008996481139782322,0.06587250798365149,0.0,0.021582293083122893,0.0,0.008985846266101064,0.06114462682283425,0.0014397513385083565,0.0,0.04374796549817055
0.0,0.020110185954276556,0.0007962246747057629,0.0032944861911761015,0.049148104170295394,0.0016632522443915433,0.008731292743563764,0.0028986903347098234,0.0022636389771170393,0.018411790463842122,7.421728701276094e-05,0.007508689060118896,0.0005103976270528453,0.0026396847470070896,0.01612177933413591,0.0002958592778422789,0.0016651252150659906,0.013540630475574864,0.1543074894741647,0.173331534997052,0.5226867826820204
0.0,0.02027442233872373,0.0007104650430271246,0.003493910170552059,0.051465092431473125,0.0015503319515246874,0.009384071867251199,0.003419513830394721,0.0018904194970740895,0.02518876743944831,0.00020161336598036215,0.011698384265573573,0.0005791865668012506,0.0030748115856982406,0.025598595295060384,0.0005068411201691804,0.0021291817171586068,0.017604595833343797,0.18572182115811775,0.21109543496558753,0.42441236739126614
0.0,0.0,0.0,0.0,0.0,0.0,0.0,0.0,0.0,0.0,0.0,0.0,0.0,0.0,0.0,0.0,0.0,0.0,0.0,-0.02308995559267548,-0.000587116683730092,-0.0035296740945289645,-0.07226413026666341,-0.0015933794477998163,-0.008311972652211338,-0.003164619397706129,-0.002298976006286365,-0.022373309316614198,-0.00018203400569482002,-0.009665769787778007,-0.0005718406795205398,-0.0026779150696210844,-0.0226706810381884,-0.000386240191060493,-0.0017466756994172828,-0.015720755345290927,-0.22356709862860372,-0.5855950176634329
0.0,0.0,0.0,0.0,0.0,0.0,0.0,0.0,0.0,0.0,0.0,0.0,0.0,0.0,0.0,0.0,0.0,0.0,0.0,-0.0437285230825603,-0.0005996135206482204,-0.0071455981284408825,-0.182416587956978,-0.0034688370655661807,-0.019053371671615176,-0.01131999152081479,-0.009222209109598218,-0.06055823996416562,-0.00039391498466007243,-0.02403523264497952,-0.0006371638959990274,-0.02376770332084613,-0.06462034422071801,-0.0006258345324574071,-0.004801311660947597,-0.04360164908025605,0.0,-0.052481804171315115,0.0,-0.014587489715197235,-0.19410569230749225,-0.0063084309786926255,-0.021404815037828446,-0.007979292922000667,-0.0008747405265045481,-0.06466021277286113,0.0,-0.021117107165435373,0.0,-0.008889026553531213,-0.06026821426505148,-0.0013953986599117064,0.0,-0.04592390128542929
0.0,-0.02099317677415392,-0.0007172463859532752,-0.0031335420901307904,-0.052047939279860816,-0.0013448326968854341,-0.0074268502973687525,-0.0027447947114578202,-0.0024208489802633438,-0.019662208311085557,-8.281528070186183e-05,-0.007205440883067404,-0.0005500803195051675,-0.002936111550812401,-0.01661110811312572,-0.00024378691591250417,-0.001614883647991047,-0.014351532003375325,-0.15869815555151046,-0.1777662687265696,-0.5094460985572441
0.0,-0.020764729526799995,-0.0006761175198474687,-0.0034573852039648826,-0.0532956116653048,-0.001418507461477386,-0.008406342399296062,-0.0034538899648848638,-0.0021444342151622693,-0.026203683274207447,-0.00021262620180449065,-0.01132242779437844,-0.0005736023250358467,-0.0031752772094682143,-0.025786562208122255,-0.0004552520642832329,-0.002100725140140408,-0.017807431851447533,-0.18882327784917327,-0.21238995171750252,-0.4175294910854026
0.0,0.0,0.0,0.0,0.0,0.0,0.0,0.0,0.0,0.0,0.0,0.0,0.0,0.0,0.0,0.0,0.0,0.0,0.0,0.022386712789295462,0.0005691848572092323,0.0035931209570360433,0.07048322761940112,0.0016213620335369448,0.008701517365080512,0.0031909966891966344,0.0022583195243862848,0.021158097489367464,0.0002601303758325854,0.00988745045083693,0.0005067975666802177,0.0025647651646290006,0.022283976070214657,0.00041435030350289503,0.0016341838151782409,0.01570845413146276,0.221485584893383,0.5912915959461057
0.0,0.0,0.0,0.0,0.0,0.0,0.0,0.0,0.0,0.0,0.0,0.0,0.0,0.0,0.0,0.0,0.0,0.0,0.0,0.043726122835862045,0.0006005292138722261,0.007187219316580573,0.18225813859133017,0.003499102490544493,0.019249045813254973,0.011247597295656228,0.009157183646273,0.0606909180871299,0.0003876244682323022,0.02400465886507945,0.0006277379750501268,0.023767184413839328,0.06453828230986072,0.0006340939271550413,0.004815041899890588,0.04360928680246306,0.0,0.05260452133490824,0.0,0.014723635445012671,0.19353180814245882,0.0063873499682386235,0.02164433538775435,0.007978171571896835,0.0008872237266850866,0.0649041008536193,0.0,0.021285455482717836,0.0,0.00886314990991958,0.0602806605053934,0.0014198265758045571,0.0,0.04548952904766466
0.0,0.020377577907523797,0.0007402338778047945,0.0031463069000906285,0.05013035999817983,0.001545659609746803,0.008446944193987773,0.00276525372578901,0.002295804751408726,0.018718275504772456,8.149564097408107e-05,0.007674411659435303,0.00047487952984941184,0.0026102439570690173,0.016083936612877214,0.00027496042632016475,0.0017147445172648506,0.013922592013630362,0.15628823532456043,0.17409621840147424,0.518611726782629
0.0,0.020352040125657656,0.0006654588153674415,0.003397999708154186,0.05224259505368087,0.0014518700795937564,0.009025275215534808,0.0034242893596238538,0.0021039405064200356,0.025259090461383922,0.00027109166786157415,0.011629945252355844,0.0005425965611657504,0.0029878641471743437,0.025406445601864388,0.00047461308109523494,0.002185672399665813,0.017713838179267544,0.18727751614738597,0.2111920594745012,0.422395633577268
0.0,0.0,0.0,0.0,0.0,0.0,0.0,0.0,0.0,0.0,0.0,0.0,0.0,0.0,0.0,0.0,0.0,0.0,0.0,0.022456922746683844,0.000558107578896851,0.0035232666842005362,0.07082443162284309,0.0016030853595103908,0.008532687534254499,0.003128731448304353,0.0023219846472272467,0.02138865246138982,0.0002649508349016605,0.009762897482964368,0.0004968628615790085,0.00252452076664264,0.022390932533627995,0.0004063459963189515,0.0016021587232728633,0.015875428687226675,0.22133734940476862,0.591000500844582
0.0,0.0,0.0,0.0,0.0,0.0,0.0,0.0,0.0,0.0,0.0,0.0,0.0,0.0,0.0,0.0,0.0,0.0,0.0,0.0437260856017024,0.0006005259021785862,0.007187177772285812,0.1822583165603437,0.0034990499347244226,0.019248716694332035,0.011247733061254758,0.009157316726391687,0.060690830125185925,0.0003876316108664431,0.02400465542263664,0.0006277483767432598,0.023767137326791074,0.06453835345213632,0.0006340806934496495,0.004815004486153381,0.04360939299489256,0.0,0.05260416528356093,0.0,0.01472340286549266,0.19353307449240928,0.006387222376508235,0.021643940287764483,0.007978145315361,0.0008872039728239396,0.06490353298583418,0.0,0.02128515665948099,0.0,0.00886315362786423,0.06028042726723614,0.001419789020685833,0.0,0.04549054258704692
0.0,0.020538092444244926,0.00073203017986468,0.003111258420259838,0.050292959031180584,0.0015288025132973936,0.008353869310243131,0.0027343814977153096,0.002351689456361004,0.018778586610117068,8.05572253766874e-05,0.007615478060973209,0.0004694560869725983,0.0025806013216845857,0.016011369702233828,0.00027195355909802213,0.0016953738996798662,0.014155766932804684,0.1565272016543747,0.17432405703780263,0.5178463684382874
0.0,0.02055856177859766,0.0006551970238361509,0.003345436448884,0.05244548768563198,0.001429570416427647,0.008886727767438844,0.0033712931796673826,0.0021873287612323225,0.025635786270281635,0.0002667740369708766,0.011519343352546597,0.0005341942719606804,0.0029415341759597966,0.02546628344496955,0.0004673366739804731,0.002151586050245998,0.017938321172257538,0.18781656128888058,0.21149387069222142,0.42088863126912734
0.0,0.0,0.0,0.0,0.0,0.0,0.0,0.0,0.0,0.0,0.0,0.0,0.0,0.0,0.0,0.0,0.0,0.0,0.0,0.02251449121101118,0.0005450286555668753,0.0034407331857342714,0.07091695686611627,0.0016841997017344186,0.008347541280832944,0.0031035543534681546,0.0022767606331287817,0.021689606674007045,0.00025875595746180325,0.009766564449182466,0.0004852057172743521,0.002511908447274304,0.022587527404158383,0.0005252959431122186,0.0016278342918971743,0.01569249005765444,0.22172048884745094,0.5903048733081809
0.0,0.0,0.0,0.0,0.0,0.0,0.0,0.0,0.0,0.0,0.0,0.0,0.0,0.0,0.0,0.0,0.0,0.0,0.0,0.04372608101084116,0.0006005259612072186,0.007187190703999533,0.18225826850799676,0.0034990572555632323,0.019248765033317735,0.011247716426382925,0.009157302828165034,0.060690875382597105,0.0003876297323794049,0.02400464265584746,0.0006277455336706028,0.02376713264039388,0.06453832669636045,0.0006340827959326866,0.0048150065287777405,0.04360940586777714,0.0,0.052604181485424305,0.0,0.014723436159325068,0.19353296005387655,0.006387242357996851,0.021644000190412762,0.007978142382526362,0.0008872071738593152,0.06490357837181092,0.0,0.021285196768863538,0.0,0.008863143478964573,0.06028041031312215,0.0014197953885274651,0.0,0.04549046143650029
0.0,0.020545146806107743,0.000711553105904389,0.0030242015241790186,0.05050350182392393,0.0015955543426980252,0.008120322946408715,0.0026950798068940992,0.0023124788623265263,0.019082307492909744,7.83002612048545e-05,0.00760364200781426,0.00045629935660054875,0.0026084333929576728,0.015980567876976284,0.0003216625051161505,0.0017472594867255318,0.014030501532445417,0.15677449399848195,0.17489676212236127,0.516911783261729
0.0,0.020722270592650412,0.0006385497686542421,0.0032604204188362664,0.052481977688068525,0.0016017214575983888,0.00866109539965355,0.0033727461216747816,0.0021448841990182816,0.02606396940595991,0.0002599925072294838,0.01148749902747379,0.0005206152533366625,0.0028758720380010487,0.025605534739112586,0.0005899776669577493,0.0021841500669219534,0.017731828182672427,0.1883372480621111,0.2119908066296136,0.4194686652662113
0.0,0.0,0.0,0.0,0.0,0.0,0.0,0.0,0.0,0.0,0.0,0.0,0.0,0.0,0.0,0.0,0.0,0.0,0.0,0.02261473587511034,0.0005368721344387279,0.003389210042548602,0.07142682516845789,0.0016592006244157613,0.00822250687456512,0.0031190105862347476,0.0023646912595193343,0.02154553427036946,0.0002548873591844161,0.009690708383746008,0.00047795756616281573,0.002562007409907558,0.02294736377095034,0.0005176680516491591,0.0016036207427559787,0.015876552122372982,0.2222056975255836,0.5889847672686875
0.0,0.0,0.0,0.0,0.0,0.0,0.0,0.0,0.0,0.0,0.0,0.0,0.0,0.0,0.0,0.0,0.0,0.0,0.0,0.043727367893653175,0.0005800784523171956,0.0069424598900212795,0.18272084522670118,0.0033799098263796144,0.018593311726713795,0.011698643327974812,0.009249570932345463,0.059862294160877044,0.0003744330836125916,0.023591368790932973,0.0006063740729927003,0.023361937834866914,0.06547298713882309,0.0006124906929139072,0.004651057205390867,0.04457462653618257,0.0,0.05506918289469495,0.0,0.014222081652619144,0.19205069493675844,0.006169741978952353,0.02090697958849678,0.007706495604982284,0.0008569952985767995,0.06609865152987747,0.0,0.020560412614164258,0.0,0.008561370185433004,0.06248407460751573,0.0013714461766470253,0.0,0.043941629723980795
0.0,0.020760595003937704,0.000686137308629572,0.002916205270714977,0.051455103066730665,0.0015386946367917313,0.007830144519201335,0.002750290623994912,0.0024772043073653274,0.01881628481605259,7.550682974924913e-05,0.007390003236631036,0.0004400244074646167,0.002666886969233427,0.016474756300083115,0.0003102551369163354,0.0016850263914936065,0.01436276011289484,0.15887815874527225,0.17527946896163213,0.5132063453527009
0.0,0.020895871632382903,0.0006253567412982245,0.003193071642541932,0.05270591949804332,0.0015689923632284007,0.008481992127508829,0.0033845626819341067,0.00231467710654784,0.025880087021811164,0.0002546238470488756,0.0113634593922552,0.0005098648666042013,0.0029419267020837038,0.026087243452868735,0.0005780227825854654,0.0021391958637873463,0.01824617906082818,0.18964444437455888,0.2124295490506718,0.4167547841742845
0.0,0.0,0.0,0.0,0.0,0.0,0.0,0.0,0.0,0.0,0.0,0.0,0.0,0.0,0.0,0.0,0.0,0.0,0.0,-0.02493823787704622,-0.000505666968868573,-0.0028424411091793637,-0.07915044492377671,-0.0013907368992781993,-0.006198463533222743,-0.0029481628327582073,-0.002777486805186999,-0.024973127263011884,-0.00028766336177511785,-0.008680078907568285,-0.0006172933391546359,-0.002983212836474232,-0.025152113690760692,-0.0004399270852883489,-0.0020124547153248596,-0.01654983079665571,-0.23114098817761763,-0.5664002965217745
0.0,0.0,0.0,0.0,0.0,0.0,0.0,0.0,0.0,0.0,0.0,0.0,0.0,0.0,0.0,0.0,0.0,0.0,0.0,-0.04420174430891666,-0.0005119429094155851,-0.006380049849194528,-0.1853160011522765,-0.00289227951207247,-0.017484507980119926,-0.010618495489330637,-0.010752015046720352,-0.05589700340004299,-0.0003553574897055292,-0.022356378786384457,-0.0005728834609097091,-0.02398989621087894,-0.06792028072350192,-0.0005140460283668044,-0.0053914280404539945,-0.044829036387002065,0.0,-0.05857463059415525,0.0,-0.01213791160964857,-0.19143440961402924,-0.005193641514162934,-0.01770075275685494,-0.006849582014485564,-0.00830775770284296,-0.06243347642979496,0.0,-0.017651553327150994,0.0,-0.010986125359032636,-0.060045593183542925,-0.0011294506668315524,0.0,-0.04753846200276084
0.0,-0.022595839249995225,-0.0004611383344467885,-0.0022570519509502274,-0.060160920719670746,-0.0006874733719823026,-0.003801113689370183,-0.002309617733531281,-0.0028186073429722885,-0.02113913420514891,-9.148373405916268e-05,-0.0061791095018246455,-0.0005808922915251235,-0.00371955917538305,-0.018477643091343265,-0.00018685363247724536,-0.0017015761112029277,-0.016192973524883473,-0.16877735957466822,-0.187614865758273,-0.48023790225513663
0.0,-0.022240024161672027,-0.000552562449345128,-0.0030491896399325986,-0.05730044818785292,-0.0013431470814513193,-0.005896729256789718,-0.003207178866285817,-0.0027184952813931167,-0.027905063516439812,-0.0002614420534537148,-0.010431462240006129,-0.000522877725349382,-0.0033968040450941613,-0.027772298562039426,-0.00048003219962038953,-0.0022273423389547833,-0.018986397402296514,-0.1965202777715837,-0.21698156663835833,-0.3981962926854636
0.0,0.0,0.0,0.0,0.0,0.0,0.0,0.0,0.0,0.0,0.0,0.0,0.0,0.0,0.0,0.0,0.0,0.0,0.0,0.02264622126243683,0.0005178237254353643,0.0033306294721829636,0.07192002508558556,0.0016528892293279104,0.008152291925627456,0.003014107228762244,0.0024536836490532126,0.021070431581108735,0.00024577592330829825,0.009727679747172664,0.00046076087934812594,0.002703147977631295,0.023194055441197008,0.0004993694673132381,0.0016028036253498772,0.01613296780602995,0.22260505411116316,0.5880701020721242
0.0,0.0,0.0,0.0,0.0,0.0,0.0,0.0,0.0,0.0,0.0,0.0,0.0,0.0,0.0,0.0,0.0,0.0,0.0,0.044045019582208494,0.0005293459896810849,0.006687487738577827,0.18397676830451068,0.003144037496885387,0.01828742363454696,0.010678045180132703,0.01012647521648527,0.057229970104428,0.000341575821189213,0.022881314274825797,0.0005531750087627481,0.023758967409302664,0.06705707665619524,0.0005590407026338978,0.005181436540180942,0.04496260073422275,0.0,0.05728401111962889,0.0,0.012980076783069372,0.19243484014317028,0.005631260707145437,0.019081816777825642,0.007032287930779167,0.006236985284021683,0.06345099806295107,0.0,0.01876442499961851,0.0,0.010149093142056396,0.06015393747098662,0.0012518600606584872,0.0,0.04554816791285804
0.0,0.020730118734993596,0.0006544261689443102,0.002781110525835885,0.05198569949518756,0.0016406675077810496,0.007609214669483071,0.0026229110787915166,0.002514548319907666,0.01828916484148488,7.197370770804959e-05,0.007291481001732395,0.00041938382946758447,0.0028727439993643045,0.01660094928758966,0.0002959393234247004,0.001701313304186913,0.014660233878394031,0.15869593645382613,0.1754612869784833,0.5131007518428196
0.0,0.020847108926042367,0.0006000100342913692,0.003087404626253276,0.052865469730947176,0.0016843398195200527,0.008407621082674396,0.0032472327726160754,0.0024434378009581315,0.025370330711632322,0.0002442549341610386,0.01134030997479828,0.0004891027613359193,0.0030672503304247953,0.026355863133809387,0.0005546359402670153,0.00212495953101223,0.018649287139117916,0.18950846275041983,0.21247560460205062,0.4166371411339428
0.0,0.0,0.0,0.0,0.0,0.0,0.0,0.0,0.0,0.0,0.0,0.0,0.0,0.0,0.0,0.0,0.0,0.0,0.0,0.02265916235048173,0.0005086840321219703,0.003271353324886576,0.07209474520829352,0.0017288380674850032,0.008006310840840705,0.002964065661956232,0.002410834977330113,0.021590211134456593,0.00024149382404694452,0.00960640823458203,0.00045282463412951523,0.0028746939380716987,0.02319053138862716,0.0004904995279385672,0.0017639593755502307,0.01602956647619073,0.22264545594494972,0.587470174308087
0.0,0.0,0.0,0.0,0.0,0.0,0.0,0.0,0.0,0.0,0.0,0.0,0.0,0.0,0.0,0.0,0.0,0.0,0.0,0.044379918130161095,0.0005042069076249732,0.0063695738855539625,0.18326144998933974,0.003825948586383879,0.017418310742131935,0.010172094791207611,0.009649688167261007,0.060261692566774966,0.00032545347062241226,0.021988625740820587,0.000527054821892772,0.024298722445495025,0.06659060866367016,0.0005323856522371001,0.006095484014171165,0.04379853483467324,0.0,0.05901684477093935,0.0,0.012361991656300393,0.1921937578431346,0.005362824340913259,0.018172610904120406,0.006698511373426921,0.005950861367961617,0.0641406449140182,0.0,0.01787131638676524,0.0,0.009672198428113558,0.057305198176982555,0.0011920853703017375,0.004440646475951138,0.04562026140109245
0.0,0.02071643032679432,0.000646451425431987,0.0027474627905826683,0.052218119464676804,0.0016874542771979468,0.007515213240547688,0.002591324918966535,0.0024847686996984104,0.01848839453489505,7.112989059907687e-05,0.007261063381887547,0.0004145059881707744,0.0029491907490465296,0.01664951591979029,0.00029231537136932355,0.0017860771381636995,0.014510288638612473,0.15891220390715174,0.17547900339227776,0.5125789353377496
0.0,0.020986127523226223,0.000591285300710269,0.0030427331155978986,0.05291451565064682,0.0017351344419109435,0.008283363401722907,0.0032002471818517323,0.002408424792235095,0.02593941200552066,0.00024074236026006107,0.0112610526522529,0.0004820684001026866,0.003154921466337173,0.026368059325969667,0.0005465380312972175,0.0023169586673977205,0.018580110003839623,0.1900641172680301,0.2127560308279347,0.4151279784923864
0.0,0.0,0.0,0.0,0.0,0.0,0.0,0.0,0.0,0.0,0.0,0.0,0.0,0.0,0.0,0.0,0.0,0.0,0.0,-0.04324886572318698,-0.0002593320406710372,0.001582254336670788,-0.1331766245424785,0.00018062662124047492,0.010089723146493883,-0.0016066912718259733,-0.004201412692181972,-0.05553651126371545,-0.0005155867692330236,-0.0012873391480247424,-0.0016090200841188292,-0.0061191024716655005,-0.03772418861833734,0.00014291586535962922,-0.005543782950008811,-0.020363275177877276,-0.2899565730404899,-0.38675544004758733
0.0,0.0,0.0,0.0,0.0,0.0,0.0,0.0,0.0,0.0,0.0,0.0,0.0,0.0,0.0,0.0,0.0,0.0,0.0,-0.039739927573771074,0.00052600444762619,0.013572945942794776,-0.1413275888628937,0.005482992757546509,0.04423735399517299,-0.0035056101539913797,-0.006603349111366034,-0.020994998136430583,-0.0008775803893042698,-0.017500745450796957,-0.0012941941356398212,-0.046672368072670924,-0.06926886203758384,0.0018505499138934045,0.002091519036951628,-0.03484224913879437,0.0,-0.1029605328874392,0.0,0.0331117106064251,-0.043608947247179806,0.01788091254741323,0.055635533884100453,0.004628411859307331,-0.007626443083322319,-0.15508467397081876,0.0,-0.0013545658545404938,0.0,-0.0053533505664294335,-0.03676884941852798,0.005197510486743703,-0.004597426374182131,-0.07396539695081031
0.0,-0.03320763801016181,0.000792950567742081,0.0012995107459108368,-0.10725249887661371,0.0046124380918543635,0.02004080120247682,-3.413340877518487e-05,-0.0041416855915033845,-0.037589096642402384,-0.00019663015687191432,0.0003584581473890277,-0.0014787211766500788,-0.00893945115246659,-0.02845181800012642,0.0005095154794333015,-0.0018823312569380953,-0.024382116436431813,-0.2212271755106801,-0.2509525194909584,-0.2525855464890732
0.0,-0.03001062803853387,-0.00019877436444849805,-0.002312282409620809,-0.08105854457472221,-0.00017177585483537527,0.008679982744598478,-0.0024501103996380823,-0.00362603761025367,-0.04168409307818991,-0.00031240566977537153,-0.006107509012250828,-0.0006215046511017532,-0.005507518483543687,-0.03413592309751783,1.1229291480438968e-05,-0.0029227768296597144,-0.022131346164698973,-0.23195720321175675,-0.2393526943188784,-0.28667749560735817
0.0,0.0,0.0,0.0,0.0,0.0,0.0,0.0,0.0,0.0,0.0,0.0,0.0,0.0,0.0,0.0,0.0,0.0,0.0,-0.02672521915125863,-0.00045377226451476173,-0.0023203883256494202,-0.08420442264547941,-0.0013456551594881283,-0.004555722255881562,-0.0027340221930237437,-0.0027011093190335224,-0.0280324600724032,-0.00028811607987281587,-0.008393665625610985,-0.0006591987221572303,-0.0035653408219220406,-0.02585774422225279,-0.0003647657688196218,-0.0024340231174885367,-0.01707972910131899,-0.23702022456393834,-0.5512550901228495
0.0,0.0,0.0,0.0,0.0,0.0,0.0,0.0,0.0,0.0,0.0,0.0,0.0,0.0,0.0,0.0,0.0,0.0,0.0,-0.04704761622125798,-0.00028366303372448536,-0.002016911038692257,-0.1895995662458381,-0.001817687483486642,-0.003961829506585377,-0.009399830529266073,-0.009198326020505587,-0.05655613315373933,-0.00045830976420100744,-0.0243113011788766,-0.0007134910307588582,-0.031908134391691524,-0.07175802357470998,-6.656564065952983e-06,-0.004397766042323708,-0.046330568914300464,0.0,-0.07729032862707967,0.0,-0.002383671891213288,-0.17243430771794274,-0.0002389128234403223,-0.0019302865379942232,-0.0043021055446808305,-0.006476216657350152,-0.09522133350866553,0.0,-0.01588815152944005,0.0,-0.008933653162441465,-0.05582042122332095,0.00022339716939029936,-0.004598881466129694,-0.054470941173716245
0.0,-0.02339927273869616,-0.0003679152453644379,-0.00196510748881692,-0.06343732281958547,-0.00046750534968353414,-0.0022422051615644642,-0.002116583946538123,-0.002808060841081853,-0.02244476653252959,-9.55204570404394e-05,-0.005923451661756507,-0.0006211770183969937,-0.0041291189195635306,-0.019187862671511673,-0.00013709852002870108,-0.00180633001716914,-0.0165589913543717,-0.17288885280653618,-0.1920691517132063,-0.46732608732856085
0.0,-0.022929495620569465,-0.0004978477748319842,-0.0028318133756388936,-0.05931846730105263,-0.0013748901730934507,-0.004616504220805089,-0.0030686608343332435,-0.0026173832090180976,-0.029374552254916177,-0.0002511532120384849,-0.010421421362200438,-0.0005020646127392559,-0.0037412448179323593,-0.027826547710616652,-0.0004193609663406856,-0.002399873132117439,-0.01947973745447406,-0.19971901073034967,-0.21948931513476586,-0.3891119848534597
0.0,0.0,0.0,0.0,0.0,0.0,0.0,0.0,0.0,0.0,0.0,0.0,0.0,0.0,0.0,0.0,0.0,0.0,0.0,-0.023946694209566338,-0.0004767577246854796,-0.002898199684697242,-0.07598351108504767,-0.001574660319755526,-0.006824557574190548,-0.00287643162323034,-0.0024411637019758777,-0.023310031887649622,-0.00024478628150724735,-0.009622122599868204,-0.0004907873718692234,-0.0031425381530569554,-0.023847822885523867,-0.00043827933158376166,-0.0018763114577598453,-0.01673262437495774,-0.2277872043747189,-0.5754812979609208
0.0,0.0,0.0,0.0,0.0,0.0,0.0,0.0,0.0,0.0,0.0,0.0,0.0,0.0,0.0,0.0,0.0,0.0,0.0,-0.04476949670575503,-0.00044326853623231514,-0.005405505867497897,-0.18459839385229826,-0.0033251088501925537,-0.014648254735096325,-0.009905321252897725,-0.00895082874617707,-0.06001808170103207,-0.00032024363031017824,-0.023873706886264796,-0.0005150569739991888,-0.025922650936179042,-0.0662348027796086,-0.0004317290096693915,-0.005483156910841439,-0.045149379222946484,0.0,-0.06514590122177882,0.0,-0.010301138998594245,-0.18675383263929296,-0.0043701998411919745,-0.0149479359657307,-0.005955089718764314,-0.0056195628578392665,-0.07411045402718297,0.0,-0.018028568202974427,0.0,-0.008936234473041068,-0.05542777872507968,-0.0009371533390201524,-0.004180818453516739,-0.04528031813299132
0.0,-0.02158943924094947,-0.0005442612197977012,-0.0024361634317082077,-0.055724773765626553,-0.0013090345381477774,-0.005793284964551109,-0.002434977457371237,-0.002551127855340813,-0.019754627367675,-7.675141561287936e-05,-0.0069387812425284285,-0.0004670412939331994,-0.0033495025587886276,-0.017554056279525936,-0.00023713807893077028,-0.00174586931620733,-0.015337154609726704,-0.16361645344624523,-0.180861576840718,-0.4976745765616652
0.0,-0.021637545180658597,-0.0005400008814581038,-0.002862300756796306,-0.05534300689299188,-0.0015692523334990128,-0.006891872118688966,-0.00314874944527199,-0.002391024604314603,-0.026982189574340676,-0.00023484750163190553,-0.011219557896442984,-0.000470001280253262,-0.0033943879371709203,-0.02667449143961498,-0.00048651296531070955,-0.0022551381361403324,-0.01931585902914706,-0.19350431605586343,-0.2156520521488821,-0.40542292025580695
0.0,0.0,0.0,0.0,0.0,0.0,0.0,0.0,0.0,0.0,0.0,0.0,0.0,0.0,0.0,0.0,0.0,0.0,0.0,-0.02458531518591255,-0.00046967774330726133,-0.0027646511530929193,-0.0777739348751726,-0.0015209852273265938,-0.006340637717018311,-0.0028254451548615535,-0.0025875575612900156,-0.024255162027934225,-0.00025197489617802905,-0.009305320845056482,-0.0005215019974629045,-0.0032048010307690338,-0.02438139968834189,-0.0004209419156644036,-0.0019765064641067086,-0.017000768326475905,-0.22978393510779724,-0.5700218977525042
0.0,0.0,0.0,0.0,0.0,0.0,0.0,0.0,0.0,0.0,0.0,0.0,0.0,0.0,0.0,0.0,0.0,0.0,0.0,-0.04458211327472165,-0.00045682526468370237,-0.005676735927599972,-0.1842454433360326,-0.0034492843879998574,-0.015492704107379468,-0.009974653775522594,-0.008969733315054833,-0.06023727101791628,-0.0003114315838301001,-0.023808721772560843,-0.00050261893274382,-0.025405017319344754,-0.06582738205286341,-0.000464732149846568,-0.005585164801307884,-0.04500182733782413,0.0,-0.06405108613140313,0.0,-0.010925221842540814,-0.18824223003195803,-0.004691679698458204,-0.015965794066009627,-0.006101144315037001,-0.00557993234513611,-0.0720974684451092,0.0,-0.018107519234042805,0.0,-0.008973442396876282,-0.05542472509092321,-0.0010262591420375825,-0.0041658641165814815,-0.04463929350111883
