0.0,0.0,0.0,0.0,0.0,0.0,0.0,0.0,0.0,0.0,0.0,0.0,0.0,0.0,0.0,0.0,0.0,0.0,0.0,-0.01651872856349472,0.0,-0.002786878877697405,-0.08121080893004973,-0.000561864206818822,-0.015917351173026253,-0.003677821682551356,-0.0010904232218283644,-0.009336914832733734,0.0,-0.016610990341580548,0.0,-0.003695283154338018,-0.017192663108786446,0.0,0.0,-0.0008348373853223741,-0.24916847864445257,-0.5813931168370561
0.0,0.0,0.0,0.0,0.0,0.0,0.0,0.0,0.0,0.0,0.0,0.0,0.0,0.0,0.0,0.0,0.0,0.0,0.0,-0.02641178675195995,0.0,-0.009787314678598306,-0.2269035736849327,-0.006930361731616654,-0.06270624871176922,-0.013084947614255936,-0.003414034655551797,-0.027695997322257363,0.0,-0.05368457835184614,0.0,-0.015809233349564602,-0.04742770004869381,0.0,0.0,-0.006138320390860465,0.0,-0.09635302916562791,0.0,-0.031249631080744186,-0.13020679616976746,-0.02343722331055814,-0.07031166993167441,0.0,0.0,-0.0859364854720465,0.0,-0.031249631080744186,0.0,0.0,0.0,0.0,0.0,-0.031249631080744186
0.0,-0.016654892257312606,0.0,-0.002345759472860931,-0.06509482537189082,0.0,-0.009265749917800676,-0.0007037278418582792,0.0,-0.004222367051149676,0.0,-0.015012860626309956,0.0,-0.002111183525574838,-0.0028149113674331167,0.0,0.0,0.0,-0.13793065700422275,-0.1428567518972307,-0.6009835769469706
0.0,-0.023963880486182084,0.0,-0.0005405386575830547,-0.05599079594797807,-0.0005405386575830547,-0.009864830500890747,-0.004729713253851729,-0.0010810773151661093,-0.011846805578695281,0.0,-0.021981905408377553,0.0,-0.005270251911434784,-0.017162102378261983,0.0,0.0,-0.0010810773151661093,-0.16756698385074695,-0.21351276974530659,-0.464863245521427
0.0,0.0,0.0,0.0,0.0,0.0,0.0,0.0,0.0,0.0,0.0,0.0,0.0,0.0,0.0,0.0,0.0,0.0,0.0,0.037916121165352604,0.0,-5.5302809005345786e-06,0.09559082851829273,-1.1149630206503439e-06,-3.158638284704333e-05,0.0012859726151408992,0.009461070217346101,0.014987183030184259,0.0,-3.296284002873754e-05,0.0,-7.332917843701715e-06,0.023617301914590296,0.0,0.0018657695254241133,0.02330525386398633,0.20779274953257468,0.5840990161602172
0.0,0.0,0.0,0.0,0.0,0.0,0.0,0.0,0.0,0.0,0.0,0.0,0.0,0.0,0.0,0.0,0.0,0.0,0.0,-0.02641178675195995,0.0,-0.009787314678598306,-0.2269035736849327,-0.006930361731616654,-0.06270624871176922,-0.013084947614255936,-0.003414034655551797,-0.027695997322257363,0.0,-0.05368457835184614,0.0,-0.015809233349564602,-0.04742770004869381,0.0,0.0,-0.006138320390860465,0.0,-0.09635302916562791,0.0,-0.031249631080744186,-0.13020679616976746,-0.02343722331055814,-0.07031166993167441,0.0,0.0,-0.0859364854720465,0.0,-0.031249631080744186,0.0,0.0,0.0,0.0,0.0,-0.031249631080744186
0.0,0.03541252556487883,0.0,-3.6351653713624854e-06,0.08359762069941555,0.0,-1.4358903216881813e-05,-1.0905496114087451e-06,0.0035994745303922385,0.01858079278357918,0.0,-2.326505837671991e-05,0.0,-3.271648834226236e-06,0.011925554112530995,0.0,0.0,0.009622981771465621,0.1626627927477324,0.16265515890045257,0.5118973115275093
0.0,0.03533445403627441,0.0,-1.057026176699776e-06,0.08221473821694715,-1.057026176699776e-06,-1.9290727724770913e-05,-9.248979046123045e-06,0.010097484491395727,0.017737971884321475,0.0,-4.2985731185790906e-05,0.0,-1.030600522282282e-05,0.023958109068167227,0.0,0.0029174464739731574,0.03215722624929634,0.20430705927042508,0.20421721204540555,0.38697415023379
0.0,0.0,0.0,0.0,0.0,0.0,0.0,0.0,0.0,0.0,0.0,0.0,0.0,0.0,0.0,0.0,0.0,0.0,0.0,-0.027684773652611697,0.0,-0.0055802744823888915,-0.09411707438247414,-0.0016344409014167377,-0.0054273729075384755,1.5716268046181432e-05,0.00011562665782215246,-0.011378597752639098,0.0,-0.030041537434846482,0.0,-0.008067797909331646,0.0002886343325255231,0.0,2.2802144951390947e-05,-0.0033732773121184605,-0.2601448109076471,-0.5521059899006738
0.0,0.0,0.0,0.0,0.0,0.0,0.0,0.0,0.0,0.0,0.0,0.0,0.0,0.0,0.0,0.0,0.0,0.0,0.0,-0.06544746713132203,0.0,-0.01565661078143071,-0.22924368739845746,-0.012879892962398727,-0.015414736088537218,-0.0004392915491675556,-0.00011461693366774348,-0.03455060111398261,0.0,-0.08531815129749724,0.0,-0.026487521176433722,-0.0015922561130581638,0.0,0.0,-0.01285330232727792,0.0,-0.09722157117120957,0.0,-0.0010491214220390533,-0.2190429973823887,-0.05453754691316892,-0.00236052319958787,0.0,0.0,-0.04312115818389028,0.0,-0.027865389332268124,0.0,0.0,0.0,0.0,0.0,-0.05479982726867867
0.0,0.03541252556487883,0.0,-3.6351653713624854e-06,0.08359762069941555,0.0,-1.4358903216881813e-05,-1.0905496114087451e-06,0.0035994745303922385,0.01858079278357918,0.0,-2.326505837671991e-05,0.0,-3.271648834226236e-06,0.011925554112530995,0.0,0.0,0.009622981771465621,0.1626627927477324,0.16265515890045257,0.5118973115275093
0.0,-0.016157054711772825,0.0,-0.001605452342222711,-0.06922878099514243,-0.004951592420386582,-0.005121361342102166,-8.96223269268334e-08,9.784431900144004e-05,-0.012991613723967161,0.0,-0.024820677964196815,0.0,-0.006623900712872254,0.00023215335149408332,0.0,2.826996800166404e-05,-0.006313820276047013,-0.14745633253633092,-0.1895581846144757,-0.5148118482695219
0.0,0.0,0.0,0.0,0.0,0.0,0.0,0.0,0.0,0.0,0.0,0.0,0.0,0.0,0.0,0.0,0.0,0.0,0.0,-0.03989304568161837,0.0,-5.5078567742945827e-05,-0.09892877537272254,-1.6132300336592934e-05,-5.3569394713020517e-05,1.5512311033799297e-07,1.1412611916934757e-06,-0.013859644878513698,0.0,-0.0002965167501938165,0.0,-7.963098501478914e-05,-0.041385535074116034,0.0,2.2506231357494217e-07,-0.04148761386930492,-0.23677733567422504,-0.5271645735014259
0.0,0.0,0.0,0.0,0.0,0.0,0.0,0.0,0.0,0.0,0.0,0.0,0.0,0.0,0.0,0.0,0.0,0.0,0.0,-0.06544746713132203,0.0,-0.01565661078143071,-0.22924368739845746,-0.012879892962398727,-0.015414736088537218,-0.0004392915491675556,-0.00011461693366774348,-0.03455060111398261,0.0,-0.08531815129749724,0.0,-0.026487521176433722,-0.0015922561130581638,0.0,0.0,-0.01285330232727792,0.0,-0.09722157117120957,0.0,-0.0010491214220390533,-0.2190429973823887,-0.05453754691316892,-0.00236052319958787,0.0,0.0,-0.04312115818389028,0.0,-0.027865389332268124,0.0,0.0,0.0,0.0,0.0,-0.05479982726867867
0.0,-0.02611463051431057,0.0,-2.2386239212415825e-08,-0.07751126915929318,0.0,-8.84256448890425e-08,-6.715871763724744e-09,2.216644626710814e-05,0.00011442507548250293,0.0,-1.4327193095946135e-07,0.0,-2.0147615291174242e-08,-0.013074152475676521,0.0,0.0,-0.03979823701244399,-0.1563621666316862,-0.1563622136427885,-0.5306398129452661
0.0,-0.03432249184888687,0.0,-1.469137164814218e-05,-0.07194955608385059,-4.531164369370718e-05,-4.6865186117629256e-05,-8.201270621527792e-10,8.953658830628353e-07,-0.010244863103548956,0.0,-0.00022713212652953582,0.0,-6.061480903162218e-05,-0.03865390767425781,0.0,2.586963159669545e-07,-0.06469034627248066,-0.22025462922119368,-0.22063990005090814,-0.3388475854373117
0.0,0.0,0.0,0.0,0.0,0.0,0.0,0.0,0.0,0.0,0.0,0.0,0.0,0.0,0.0,0.0,0.0,0.0,0.0,0.03745504350098124,0.0,-9.457998791348425e-08,0.09482779138724805,0.0019201218468644114,-9.198846143088122e-08,0.0001884988106531621,1.959754476918511e-09,0.02233269846909584,0.0,0.010945814564266477,0.0,-1.3674098490337373e-07,0.028598436581795738,0.0,3.864732103609406e-10,0.020247258972212818,0.2375746123945545,0.5459092205590513
0.0,0.0,0.0,0.0,0.0,0.0,0.0,0.0,0.0,0.0,0.0,0.0,0.0,0.0,0.0,0.0,0.0,0.0,0.0,-0.06544746713132203,0.0,-0.01565661078143071,-0.22924368739845746,-0.012879892962398727,-0.015414736088537218,-0.0004392915491675556,-0.00011461693366774348,-0.03455060111398261,0.0,-0.08531815129749724,0.0,-0.026487521176433722,-0.0015922561130581638,0.0,0.0,-0.01285330232727792,0.0,-0.09722157117120957,0.0,-0.0010491214220390533,-0.2190429973823887,-0.05453754691316892,-0.00236052319958787,0.0,0.0,-0.04312115818389028,0.0,-0.027865389332268124,0.0,0.0,0.0,0.0,0.0,-0.05479982726867867
0.0,0.03539022413311804,0.0,-2.88207503051463e-11,0.07066328603297999,0.003336874627510082,-1.1384196370532788e-10,-8.646225091543882e-12,2.853778193625509e-08,0.013507941397653874,0.0,0.012591990632175929,0.0,-2.593867527463167e-11,0.010516401586792826,0.0,0.0,0.016667941861221967,0.16267468838989277,0.16267468832936915,0.5119757994204761
0.0,0.03611720201077293,0.0,-2.4570140990965143e-08,0.06806455675252462,0.0023475009282596256,-7.837826569608192e-08,-1.3715967460497815e-12,1.4974276406747779e-09,0.02632520232929157,0.0,0.01892367479328525,0.0,-1.013734074473378e-07,0.031056941666562806,0.0,4.326488437827465e-10,0.02758184554817775,0.21041672163184655,0.2221484765627321,0.3570174996356929
0.0,0.0,0.0,0.0,0.0,0.0,0.0,0.0,0.0,0.0,0.0,0.0,0.0,0.0,0.0,0.0,0.0,0.0,0.0,-0.025097543341362927,0.0,-0.0014362155136214167,-0.08117188647382875,1.7129517793180096e-05,-0.004764582506830202,1.6816087668339708e-06,1.7483082772824945e-11,-0.009996723372234081,0.0,-0.031149401201894945,0.0,-0.00020732722724911754,-0.004439802381725606,0.0,3.4477498103966162e-12,-0.014304241711053456,-0.2780229439615524,-0.5493896049444191
0.0,0.0,0.0,0.0,0.0,0.0,0.0,0.0,0.0,0.0,0.0,0.0,0.0,0.0,0.0,0.0,0.0,0.0,0.0,-0.06544746713132203,0.0,-0.01565661078143071,-0.22924368739845746,-0.012879892962398727,-0.015414736088537218,-0.0004392915491675556,-0.00011461693366774348,-0.03455060111398261,0.0,-0.08531815129749724,0.0,-0.026487521176433722,-0.0015922561130581638,0.0,0.0,-0.01285330232727792,0.0,-0.09722157117120957,0.0,-0.0010491214220390533,-0.2190429973823887,-0.05453754691316892,-0.00236052319958787,0.0,0.0,-0.04312115818389028,0.0,-0.027865389332268124,0.0,0.0,0.0,0.0,0.0,-0.05479982726867867
0.0,-0.02175133411399026,0.0,-1.3585928865779094e-13,-0.043855135833432375,1.5729826893257545e-05,-0.008201116202778455,-4.075778659733724e-14,1.3452539273547172e-10,-0.0025911087248608384,0.0,-0.010796542664084717,0.0,-1.2227335979201183e-13,4.957368644792762e-05,0.0,0.0,-0.00812254452382681,-0.09525247841654698,-0.21274433165090084,-0.5966195385486094
0.0,-0.0247469984350824,0.0,-0.0029288455390631823,-0.061409782686940306,1.850179666434599e-05,-0.0029996476461008528,-1.0810221114462144e-14,1.1801955600450368e-11,-0.011774024618969512,0.0,-0.026381780914912133,0.0,-7.989731331663645e-10,-0.006663691724349473,0.0,3.4099159827243593e-12,-0.013831060127265826,-0.15071733067982224,-0.2504535477482415,-0.4480739736956016
0.0,0.0,0.0,0.0,0.0,0.0,0.0,0.0,0.0,0.0,0.0,0.0,0.0,0.0,0.0,0.0,0.0,0.0,0.0,-0.03632714362602467,0.0,-1.3724188012837025e-05,-0.09226516091825222,1.6368624383541476e-07,-4.5529396881064956e-05,1.6069116829041524e-08,1.6706484002058312e-13,-0.028209293849333315,0.0,-0.0101394982180387,0.0,-1.981177490397947e-06,-0.015783021932042042,0.0,3.294600717673292e-14,-0.019792476068805947,-0.20358553835425744,-0.5938354514315052
0.0,0.0,0.0,0.0,0.0,0.0,0.0,0.0,0.0,0.0,0.0,0.0,0.0,0.0,0.0,0.0,0.0,0.0,0.0,-0.06544746713132203,0.0,-0.01565661078143071,-0.22924368739845746,-0.012879892962398727,-0.015414736088537218,-0.0004392915491675556,-0.00011461693366774348,-0.03455060111398261,0.0,-0.08531815129749724,0.0,-0.026487521176433722,-0.0015922561130581638,0.0,0.0,-0.01285330232727792,0.0,-0.09722157117120957,0.0,-0.0010491214220390533,-0.2190429973823887,-0.05453754691316892,-0.00236052319958787,0.0,0.0,-0.04312115818389028,0.0,-0.027865389332268124,0.0,0.0,0.0,0.0,0.0,-0.05479982726867867
0.0,-0.04752760597752779,0.0,-1.0754691923336356e-15,-0.07104016517531538,1.2451812748004903e-07,-6.492046223687221e-05,-3.2264075770009034e-16,1.0649100028633652e-12,-0.023698221994292886,0.0,-0.012094384458855542,0.0,-9.679222731002718e-16,3.9242787925561714e-07,0.0,0.0,-0.012073216950556213,-0.16649799807172447,-0.16742806969032398,-0.4995739107655941
0.0,-0.034251714692841495,0.0,-2.875767570352486e-05,-0.0737447745856965,1.8166498072684542e-07,-2.9452865670410882e-05,-1.061431300991503e-16,1.1588074799386996e-13,-0.03858232505334598,0.0,-0.017319604826895423,0.0,-7.844937519913318e-12,-0.01645820530752358,0.0,3.348119820576785e-14,-0.0311615996000268,-0.21157625295041893,-0.21255554043693742,-0.36429055390570236
0.0,0.0,0.0,0.0,0.0,0.0,0.0,0.0,0.0,0.0,0.0,0.0,0.0,0.0,0.0,0.0,0.0,0.0,0.0,0.028626641667797464,0.0,-2.566612569236173e-08,0.09240735304223718,3.0611586670633697e-10,-8.514625578969126e-08,0.002481434449243212,0.006250235708872743,0.01726384260850901,0.0,0.0017348813140777638,0.0,0.009922073317426387,0.03974780239701154,0.0,0.011272045757782668,0.02608457845140978,0.2420201975764143,0.5221886106555036
0.0,0.0,0.0,0.0,0.0,0.0,0.0,0.0,0.0,0.0,0.0,0.0,0.0,0.0,0.0,0.0,0.0,0.0,0.0,0.036644674542636396,0.0,-6.251541419156411e-05,0.1655321780415891,-5.142823402382548e-05,-6.154963067559218e-05,0.01310368668215136,0.015516277718446709,0.04069435684839824,0.0,0.0053772243119413355,0.0,0.030927708498433647,0.0930940545072889,0.0,0.021234627256406794,0.07753235480682312,0.0,0.09605076370272164,0.0,-4.189045838311427e-06,0.14378526266096592,-0.0002177634343642448,-9.425353136200714e-06,0.028932725874210894,0.0,0.03840075355697721,0.0,-0.00011126394978037178,0.0,0.0,0.09643679830964601,0.0,0.0,0.09621798761382218
0.0,0.018316887079397805,0.0,-1.5148559666131634e-18,0.06642729370068598,1.7539045256643132e-10,-9.144394862805278e-08,0.001240041179133796,0.006344702117896575,0.02183204038557769,0.0,0.0063240634737046645,0.0,0.004240268944209297,0.020282264208679887,0.0,0.008827532610144009,0.023859047214342566,0.1925149702395319,0.1851329866643213,0.4446576638387057
0.0,0.02325408682753493,0.0,-5.030213386696882e-08,0.06358440748422325,3.1776337815583676e-10,-5.1518140999735395e-08,0.005908931460142714,0.005025394961314692,0.02356087189636994,0.0,0.0033193830701597608,0.0,0.007900851018720982,0.04418876976492428,0.0,0.013321435249264999,0.029964605302520417,0.23441543812683546,0.2344203611178361,0.31113518286232106
0.0,0.0,0.0,0.0,0.0,0.0,0.0,0.0,0.0,0.0,0.0,0.0,0.0,0.0,0.0,0.0,0.0,0.0,0.0,-0.031081646854525934,0.0,-2.0598235971091112e-10,-0.07986062036002523,-0.002880418299256453,-6.833375203694637e-10,1.9914642725963715e-05,5.016099100793188e-05,-0.026437435939394134,-0.0009522994790894883,-0.024617282748514338,0.0,-0.0033061005550661386,-0.0067792372338805265,0.0,9.046330606291792e-05,-0.018354964282128607,-0.23928460211926156,-0.5662840238655841
0.0,0.0,0.0,0.0,0.0,0.0,0.0,0.0,0.0,0.0,0.0,0.0,0.0,0.0,0.0,0.0,0.0,0.0,0.0,-0.060166007334190925,0.0,-1.331878282222507e-06,-0.179313514543847,-0.01523777435053055,-1.3113024593332924e-06,0.0002791714001210401,0.0003305711652298518,-0.06007972966999091,0.0,-0.09130551141559339,0.0,-0.014577770094787664,-0.028490007322131472,0.0,0.00045239944803428494,-0.04405822487590512,0.0,0.002046342135309783,0.0,-8.924677613404409e-08,-0.37404448138737334,-4.63940601918081e-06,-2.0080524630159923e-07,0.0006164058854233524,0.0,-0.12488447882534237,0.0,-2.3704559943037175e-06,0.0,0.0,0.002054566524699148,0.0,0.0,0.0020499048069859338
0.0,7.312876331411341e-05,0.0,-6.047945972327769e-21,-0.042736710139056104,-0.01433397199986265,-3.650829339473478e-10,4.950769063299309e-06,2.5330735373702307e-05,8.716274261562816e-05,0.0,-0.01430872366338925,0.0,-0.014317043052829288,8.097538038868709e-05,0.0,3.524324521391668e-05,-0.014238716589036086,-0.09956920278736638,-0.199936478793144,-0.6002515624896416
0.0,-0.029099425241066623,0.0,-3.8218383430513865e-10,-0.06424826455271669,-0.004827554522491893,-3.9142277175801483e-10,4.48946775907359e-05,3.8181774162749036e-05,-0.02319221045365779,0.0,-0.029593081308637015,0.0,-0.007664794692888242,-0.004069184139371235,0.0,0.00010121314565851678,-0.019137944948401982,-0.1815388634781488,-0.22605503560215193,-0.410388560521802
0.0,0.0,0.0,0.0,0.0,0.0,0.0,0.0,0.0,0.0,0.0,0.0,0.0,0.0,0.0,0.0,0.0,0.0,0.0,-0.02914325244302825,0.0,-0.0015060488955407148,-0.10702881601188817,-3.869777469097142e-05,-9.180486531407869e-12,2.6754876451780347e-07,-0.01608926599203578,-0.0003551810303572087,-1.279393020438988e-05,-0.026966534515842366,0.0,-4.4416720452953294e-05,-0.016735044944470926,0.0,1.2153542548757102e-06,-0.015341905741667623,-0.35936100320407316,-0.4273741740208713
0.0,0.0,0.0,0.0,0.0,0.0,0.0,0.0,0.0,0.0,0.0,0.0,0.0,0.0,0.0,0.0,0.0,0.0,0.0,-0.060166007334190925,0.0,-1.331878282222507e-06,-0.179313514543847,-0.01523777435053055,-1.3113024593332924e-06,0.0002791714001210401,0.0003305711652298518,-0.06007972966999091,0.0,-0.09130551141559339,0.0,-0.014577770094787664,-0.028490007322131472,0.0,0.00045239944803428494,-0.04405822487590512,0.0,0.002046342135309783,0.0,-8.924677613404409e-08,-0.37404448138737334,-4.63940601918081e-06,-2.0080524630159923e-07,0.0006164058854233524,0.0,-0.12488447882534237,0.0,-2.3704559943037175e-06,0.0,0.0,0.002054566524699148,0.0,0.0,0.0020499048069859338
0.0,-0.03516509036234704,0.0,-6.526391253726848e-23,-0.08995402278962228,-0.00015467914217339373,-3.9396417856587575e-12,5.342418080745873e-08,-0.0029944011724058316,9.405807585918866e-07,0.0,-0.015280089669799627,0.0,-0.00015449646042927956,-0.013992976103171096,0.0,3.8031293329911867e-07,-0.01064017253613523,-0.16833391539856382,-0.2096148515873971,-0.45371280638455663
0.0,-0.02700616213562156,0.0,-3.919320352063532e-12,-0.06854616295534505,-4.9506889073681616e-05,-4.014066263167632e-12,4.603978708325387e-07,-0.013638745869193615,-0.00023783764325256132,0.0,-0.02037087119276266,0.0,-7.860297358951248e-05,-0.018329858169044734,0.0,1.0379474642014217e-06,-0.014267096666273559,-0.1625222252005677,-0.2546261092690083,-0.42032426946002904
0.0,0.0,0.0,0.0,0.0,0.0,0.0,0.0,0.0,0.0,0.0,0.0,0.0,0.0,0.0,0.0,0.0,0.0,0.0,-0.026808637516125236,0.0,-1.558103005536426e-05,-0.08407558388455652,-4.003529980474261e-07,-0.0020361991534073778,-0.0034323438176983687,-0.00016645365082961365,-0.03554251641194044,-0.004942397482726283,-0.01230822063807929,0.0,-0.0026957332383235155,-0.019446305768787222,0.0,-0.0025938017405147773,-0.017218575191900117,-0.26285703739757205,-0.5258591529278731
0.0,0.0,0.0,0.0,0.0,0.0,0.0,0.0,0.0,0.0,0.0,0.0,0.0,0.0,0.0,0.0,0.0,0.0,0.0,-0.04210286015263288,0.0,-3.131486369709206e-08,-0.18053172876769524,-0.00035826759337021207,-3.083108894242299e-08,-0.013556185731041373,7.772325083706344e-06,-0.08278908027340456,-0.013562749554822874,-0.029272256574600735,0.0,-0.013905499256217552,-0.06848359929728282,0.0,-0.013552112826796801,-0.04172413709747358,0.0,4.811319915654023e-05,0.0,-2.0983528805491713e-09,-0.49705344523006006,-1.0908081396423304e-07,-4.721293981235636e-09,1.4492815553615937e-05,0.0,-0.002936259630100822,0.0,-5.57337013091821e-08,0.0,0.0,4.8306569403774844e-05,0.0,0.0,4.819696400159047e-05
0.0,-0.02096804606033057,0.0,-5.570070300439327e-25,-0.05608349993851305,-1.3201379788952388e-06,-0.0031072545867406555,-0.004086215952732202,-2.5556275113745276e-05,-0.031840436290055854,-0.0026928830978613194,-0.011107241071111239,0.0,-0.009629856533195997,-0.01809498512852506,0.0,3.2458516388098908e-09,-0.015996220139143296,-0.17363350651585166,-0.19295956833218558,-0.45977250581123946
0.0,-0.01693645005674756,0.0,-3.55648067821255e-14,-0.06105106065746671,-4.4923680284582874e-07,-0.002098991397213578,-0.0008115918480661615,-0.00012376109070364691,-0.04323019731879982,-0.003421527337956001,-0.011937441048477906,0.0,-0.005628828950822746,-0.02257594400338105,0.0,-0.001775922154205853,-0.016074545121555237,-0.19344772274940486,-0.23745747596779287,-0.38342716391117704
0.0,0.0,0.0,0.0,0.0,0.0,0.0,0.0,0.0,0.0,0.0,0.0,0.0,0.0,0.0,0.0,0.0,0.0,0.0,0.03773452748739565,0.0,-2.5619286921924376e-08,0.0942474376869067,0.0016056295486154201,-3.3480437529458057e-06,-5.643670589675407e-06,0.0013157852466401008,0.02455806690080336,-8.126593604032502e-06,0.005114705461951087,0.0,-4.432490217410333e-06,0.02269244213254802,0.0,-4.26488818600006e-06,0.022664975415333615,0.22668723234616536,0.5633531854648139
0.0,0.0,0.0,0.0,0.0,0.0,0.0,0.0,0.0,0.0,0.0,0.0,0.0,0.0,0.0,0.0,0.0,0.0,0.0,-0.04210286015263288,0.0,-3.131486369709206e-08,-0.18053172876769524,-0.00035826759337021207,-3.083108894242299e-08,-0.013556185731041373,7.772325083706344e-06,-0.08278908027340456,-0.013562749554822874,-0.029272256574600735,0.0,-0.013905499256217552,-0.06848359929728282,0.0,-0.013552112826796801,-0.04172413709747358,0.0,4.811319915654023e-05,0.0,-2.0983528805491713e-09,-0.49705344523006006,-1.0908081396423304e-07,-4.721293981235636e-09,1.4492815553615937e-05,0.0,-0.002936259630100822,0.0,-5.57337013091821e-08,0.0,0.0,4.8306569403774844e-05,0.0,0.0,4.819696400159047e-05
0.0,0.031457665711732176,0.0,-7.027435980030786e-28,0.07454854525301335,-1.6655418389893223e-09,-3.920243642213045e-06,-5.155342654497767e-06,-3.2242876222896826e-08,0.028402812289894826,-3.3974550681047608e-06,0.0076498978282793575,0.0,-1.2149433783372266e-05,0.00690066406176995,0.0,4.095103537672664e-12,0.012257991238155491,0.16119292001024946,0.16116853743429713,0.5163961710043002
0.0,0.04317968342542078,0.0,-6.042950492711293e-17,0.06645619033090835,-7.633151996950076e-10,-3.566475469891615e-06,-1.3790063272934148e-06,-2.1028713824531944e-07,0.04449426585286404,-5.81364618101004e-06,0.007319004974726395,0.0,-9.564155624446513e-06,0.027985396393315213,0.0,-3.017536330935126e-06,0.02698036693566782,0.21637813503058287,0.23127161570523813,0.33591161370802114
0.0,0.0,0.0,0.0,0.0,0.0,0.0,0.0,0.0,0.0,0.0,0.0,0.0,0.0,0.0,0.0,0.0,0.0,0.0,0.07593382143468855,0.0,-5.5320261785805864e-11,0.09901055038515962,3.4670694477611337e-06,-7.229500861899154e-09,-1.2186495877311703e-08,2.8412025877168323e-06,5.3028747210881745e-05,-1.7547923444239444e-08,0.02800488143349945,0.0,0.05989791830468457,4.9000264650516364e-05,0.0,-9.209262211541366e-09,0.003984998547916453,0.33351650189912957,0.3995427150546763
0.0,0.0,0.0,0.0,0.0,0.0,0.0,0.0,0.0,0.0,0.0,0.0,0.0,0.0,0.0,0.0,0.0,0.0,0.0,0.13585120473545603,0.0,-1.2636524122750743e-10,0.21787587098746208,-1.4457214726573903e-06,-1.2441305921691757e-10,-5.470343721109701e-05,3.1363755678501085e-08,-0.00033407975844786217,-5.472992428712414e-05,0.05164267568482026,0.0,0.08385853928913337,-0.000276352681239124,0.0,-5.46870017722479e-05,0.01075961146231137,0.0,0.12524004391017315,0.0,-8.467508289223496e-12,0.32580984923030476,-4.4017510352961117e-10,-1.9051893650752874e-11,5.848303065322027e-08,0.0,-1.1848723342798306e-05,0.0,0.02889193807657384,0.0,0.0,1.9493207298067173e-07,0.0,0.0,0.019281699306612294
0.0,0.031457665711732176,0.0,-7.027435980030786e-28,0.07454854525301335,-1.6655418389893223e-09,-3.920243642213045e-06,-5.155342654497767e-06,-3.2242876222896826e-08,0.028402812289894826,-3.3974550681047608e-06,0.0076498978282793575,0.0,-1.2149433783372266e-05,0.00690066406176995,0.0,4.095103537672664e-12,0.012257991238155491,0.16119292001024946,0.16116853743429713,0.5163961710043002
0.0,0.035189001869962724,0.0,-8.601277375638346e-20,0.09005702025208866,-1.086470221051206e-12,-5.07636870547724e-09,-1.9628186492868645e-09,-2.9931372212279557e-10,6.33312357411301e-05,-8.27489542186407e-09,0.01351965573474798,0.0,0.034222060245407256,3.983321675999591e-05,0.0,-4.2950322040109815e-09,0.0027372998749083106,0.1758281637018777,0.21625778162865364,0.432085679045711
0.0,0.0,0.0,0.0,0.0,0.0,0.0,0.0,0.0,0.0,0.0,0.0,0.0,0.0,0.0,0.0,0.0,0.0,0.0,0.030834793960825203,0.0,-8.874518127993983e-14,0.09394117221261995,0.0031245622442342335,0.0018358962612049945,0.0027347922135409868,4.5578786245848835e-09,0.016742667697073315,-2.8150511166689888e-11,0.020959523282519515,0.0,0.003596273938522042,0.015743817725363474,0.0,-1.4773567912280487e-11,0.010983391917718537,0.2740649369092479,0.5254380023938853
0.0,0.0,0.0,0.0,0.0,0.0,0.0,0.0,0.0,0.0,0.0,0.0,0.0,0.0,0.0,0.0,0.0,0.0,0.0,0.04949717437877146,0.0,-5.020353607810285e-13,0.20746633126054242,0.007326700705369575,0.006550208839621244,0.013876697958372413,1.2460479040399892e-10,0.04162941860498975,-2.1743603714202095e-07,0.062263040731025676,0.0,0.014210076145896151,0.055506563237568786,0.0,-2.1726551065837563e-07,0.04167349263373615,0.0,0.22879656190075065,0.0,-3.364048956503162e-14,0.1879753590414426,0.08303600642097385,-7.569110152132118e-14,2.3234672057244592e-10,0.0,-4.707368925515465e-08,0.0,0.00011478452788944985,0.0,0.0,7.74443926478592e-10,0.0,0.0,7.660409439996566e-05
0.0,0.02634011871004233,0.0,-8.322942247678612e-31,0.07315636716122331,0.0014988956881871755,-4.642939690049724e-09,-6.1057289319042775e-09,-3.8186843318783885e-11,0.01836642745452716,-4.023775158005076e-09,0.011812305652839845,0.0,0.0014988813009805474,0.0045067579932593724,0.0,4.850034968538361e-15,0.010315256808797508,0.16853112291786818,0.1579797976054097,0.5259939270016103
0.0,0.025668081484179508,0.0,-1.1883524372863176e-22,0.07167963683289118,0.003194955396128251,0.0009805757382702813,0.0009856926429916949,-4.1353182284912225e-13,0.01519612534040612,-1.143259508257838e-11,0.023428597926656365,0.0,0.002263330925893986,0.014525690216542313,0.0,-5.93401626869507e-12,0.014626721029008518,0.1873419661982397,0.21676692031628178,0.423341563827307
0.0,0.0,0.0,0.0,0.0,0.0,0.0,0.0,0.0,0.0,0.0,0.0,0.0,0.0,0.0,0.0,0.0,0.0,0.0,-0.020103917340274287,0.0,-0.0044113566611738205,-0.07234123348731357,3.023836361117759e-05,-0.010145228472896044,2.646631268321452e-05,-0.0004325611241273514,-0.004298594873795152,-2.724302881370516e-13,-0.010918287329849058,0.0,-0.0047081073798965175,-0.007069841131766137,-0.004735493929218715,-0.0012367760608628059,-0.014951714670106994,-0.20287103472742213,-0.6417181542157667
0.0,0.0,0.0,0.0,0.0,0.0,0.0,0.0,0.0,0.0,0.0,0.0,0.0,0.0,0.0,0.0,0.0,0.0,0.0,-0.03676513368025162,0.0,-0.03840755087353469,-0.17235108141978062,0.00024311487189816486,-0.03819020158534748,0.0004604571391931946,4.13464107176708e-12,-0.03702620186277846,-7.214971163908158e-09,-0.02353901924140383,0.0,-0.02513351460831284,-0.03656572990202411,-0.012802516957839342,-0.01280252416715209,-0.049827256354456895,0.0,0.007591936544709145,0.0,-0.12482454033893471,0.006237405780732882,0.002755304041446028,-2.5115851172548713e-15,7.709738049833382e-12,0.0,-0.12482454190093462,0.0,-0.12482073155420008,0.0,0.0,-0.12482454031323596,0.0,0.0,2.541880082978381e-06
0.0,-0.0424237514234355,0.0,-7.781131911023914e-33,-0.07872570425550791,1.4013199567619718e-05,-4.340691681872695e-11,-5.708255664678366e-11,-3.570094039904402e-13,0.00017170802164076903,-3.761833778610114e-11,-0.014112901770765731,0.0,1.4013065061396711e-05,4.213375197502239e-05,-0.007347927736308823,4.5343053862714935e-17,-0.007251490236760236,-0.14942324043834088,-0.1495218849460752,-0.5509499844806474
0.0,-0.0209526283148081,0.0,-0.003151631351110058,-0.06433443867479245,3.185173386709822e-05,-0.011268215938883523,9.826747433586957e-06,-4.122657105926467e-15,-0.00526871232897095,-1.139759185439234e-13,-0.014448776818148854,0.0,-0.0031727262507023485,-0.008428632181819188,-0.007979150272193676,-0.0011041123754149756,-0.01679975149999097,-0.15671962484326168,-0.1789648414769804,-0.507364047876026
0.0,0.0,0.0,0.0,0.0,0.0,0.0,0.0,0.0,0.0,0.0,0.0,0.0,0.0,0.0,0.0,0.0,0.0,0.0,0.034187788841468836,0.0,-7.506145607356381e-06,0.09846058370360893,0.0022274493983480263,0.0012980177901862557,0.005490954922681482,-7.360245455459725e-07,0.014149253518579716,-4.635538605637555e-16,0.010341903579731925,0.0,0.009198303738771146,0.020597490161045576,-8.057681499280447e-06,-2.104436777519288e-06,0.01642182872907836,0.24391180750547647,0.5436960373655165
0.0,0.0,0.0,0.0,0.0,0.0,0.0,0.0,0.0,0.0,0.0,0.0,0.0,0.0,0.0,0.0,0.0,0.0,0.0,0.062354844167653065,0.0,-0.00015478100786136905,0.20764878584051658,9.797439316656562e-07,-0.00015390509827800772,0.02083619105690146,1.666245042128153e-14,0.062353792072544344,-2.9076066633812018e-11,0.020739474055742876,0.0,0.02073304829845538,0.04152131232581541,-5.1593669287100634e-05,-5.159369834036406e-05,0.06230220429694172,0.0,3.059522316012483e-05,0.0,-0.0005030382755492357,0.12503114910441923,1.1103773263329436e-05,-1.0121595023289936e-17,3.106995886380854e-14,0.0,0.24950898689832038,0.0,-0.0005030229262877872,0.0,0.0,-0.0005030382754456706,0.0,0.0,0.12500602283376483
0.0,0.021924166304506755,0.0,-9.576014978738739e-36,0.07463321804962753,1.724564118614506e-08,-5.341964259057249e-14,-7.024985872555053e-14,-4.3936119310862284e-16,0.0178778410172564,-4.629580506206264e-14,0.0073162085589941785,0.0,0.006881570048554172,0.003662655362199377,-9.042883075391017e-06,5.580239069793367e-20,0.021531235454399774,0.1538181111904515,0.15381798979149638,0.5385278005153198
0.0,0.03211872958400829,0.0,-4.9524666333884595e-06,0.06964508938478371,0.0028047209822700493,-1.7706849957397778e-05,0.002796106151400958,-6.478334387304319e-18,0.01989699497319765,-1.7910150988940016e-16,0.010474890300396583,0.0,0.011309691993697794,0.019703168300781546,-1.2538419340165923e-05,-1.734999779345381e-06,0.026994158082682112,0.20270911586750326,0.2097207586372356,0.39178948025441507
0.0,0.0,0.0,0.0,0.0,0.0,0.0,0.0,0.0,0.0,0.0,0.0,0.0,0.0,0.0,0.0,0.0,0.0,0.0,-0.024342004596550802,0.0,-1.2005672578578753e-06,-0.14263401913892546,0.0003562684440295188,0.00020761090185719117,0.0008782484432601704,-1.1772313202880066e-07,0.002263096319486388,-7.414292452587604e-17,-0.020597920718052658,0.0,-0.08230084320881426,-0.016761640469279023,-1.288782430866048e-06,-3.3659324285495983e-07,-0.003220643611890072,-0.30293200501230527,-0.403485694714978
0.0,0.0,0.0,0.0,0.0,0.0,0.0,0.0,0.0,0.0,0.0,0.0,0.0,0.0,0.0,0.0,0.0,0.0,0.0,-0.018501260052795468,0.0,-5.332706113333721e-05,-0.20735758182607922,3.375534586630033e-07,-5.302528196453234e-05,0.007178741433654925,5.7407528515560955e-15,0.021482897208720618,-1.0017644957364764e-11,-0.04408612391624519,0.0,-0.09336377190491434,-0.036926108774827555,-1.777568704443803e-05,-1.777569705422654e-05,-0.01040062816838141,0.0,-0.08552364678299619,0.0,-0.00017331294868327228,-0.3269161041440553,3.82560886381249e-06,-3.487216707215787e-18,1.0704605291267911e-14,0.0,0.08596391237845556,0.0,-0.029353248775543597,0.0,0.0,-0.029353254063824715,0.0,0.0,0.003236426543155583
0.0,-0.011838567108527275,0.0,-4.096326808031166e-37,-0.07972466183433123,7.377158710522083e-10,-2.2851291952346864e-15,-3.005074451082121e-15,-1.8794530268962237e-17,0.0007647594494296854,-1.980393178124395e-15,-0.011756172174701466,0.0,-0.018649677372210356,0.00015667721261994645,-3.8682692587532326e-07,2.3870558836394147e-21,0.0009210405079536085,-0.12012697705557235,-0.16825137107293667,-0.5878040050541964
0.0,-0.017833470817915364,0.0,-4.851278112827067e-07,-0.09162521509101053,0.00027474150804250884,-1.734506459191704e-06,0.00027389762672972703,-6.345969422352541e-19,0.0019490460687558693,-1.7544211788182197e-17,-0.012861209664920681,0.0,-0.05837084868568255,-0.007055390310750754,-1.2282235059255046e-06,-1.6995503611377557e-07,-0.004102201068186087,-0.18866832582913723,-0.2116899786316155,-0.40528177141985194
0.0,0.0,0.0,0.0,0.0,0.0,0.0,0.0,0.0,0.0,0.0,0.0,0.0,0.0,0.0,0.0,0.0,0.0,0.0,0.01887918255738326,0.0,-1.966197509759609e-09,0.09277522850504763,0.00411274653788911,3.400093044007364e-07,1.4383283325329708e-06,0.0032836110099333667,0.020655096038992463,0.009626396406537426,0.009183660923934902,0.0,0.014821507912289011,0.028151938209178662,-2.1106695935653575e-09,-5.512467473785451e-10,0.007256009903617396,0.2178586894453734,0.5733939786911599
0.0,0.0,0.0,0.0,0.0,0.0,0.0,0.0,0.0,0.0,0.0,0.0,0.0,0.0,0.0,0.0,0.0,0.0,0.0,0.04833696295735889,0.0,-2.1037772235194873e-07,0.20260635985534206,1.33166400503461e-09,-2.0918718957483404e-07,2.8320466946222926e-05,2.2647535488146763e-17,0.055775768979143305,0.03726020132414942,0.031511600031091894,0.0,0.03689187692629213,0.05594391080960332,-7.012590745061918e-08,-7.012594693969777e-08,0.031644099900806105,0.0,0.08325666098921923,0.0,-6.837275976435428e-07,0.20771256364701327,1.509220388811499e-08,-1.3757231180945233e-20,4.223016292277404e-17,0.0,0.04212030665485121,0.04178244569373816,0.041666645769838556,0.0,0.0,0.04166537510024054,0.0,0.0,0.041795213546123755
0.0,0.012962510157120546,0.0,-4.856873818452487e-40,0.07080790300555817,0.001819859989998606,-2.7093990983231885e-18,-3.563013428358811e-18,0.0018198599891239206,0.02500677931590835,0.009049423223070431,0.009615436749515847,0.0,0.0039049504849178462,0.011436907982481913,-4.5864738254595447e-10,2.830250067377689e-24,0.005435649688909799,0.15185928014023373,0.1645204834855752,0.5317608268818306
0.0,0.022315372387439077,0.0,-7.444625002295478e-10,0.06048992187250689,0.004722622742327908,-2.6617212727094486e-09,4.203150329868965e-07,0.003269330951262833,0.03177624225533309,0.007962394289818656,0.010362705874908857,0.0,0.01708382299344743,0.023939425974652196,-1.8847947299586114e-09,-2.60807869945292e-10,0.013646937345868696,0.20283476846187173,0.21732994171265627,0.38426592813051264
0.0,0.0,0.0,0.0,0.0,0.0,0.0,0.0,0.0,0.0,0.0,0.0,0.0,0.0,0.0,0.0,0.0,0.0,0.0,-0.037206138918013575,0.0,-1.85420888827695e-11,-0.09856429301355554,3.878497021754748e-05,-0.0006196009846450586,1.3564055315934504e-08,-0.00619657188303022,-0.009932742828246138,9.078106187440597e-05,-0.022138801118133197,0.0,-0.004873502247691456,-0.020188419988026125,-1.9904522822243175e-11,-5.198494116433016e-12,-0.009530521126667297,-0.2503389686281265,-0.5402798803101403
0.0,0.0,0.0,0.0,0.0,0.0,0.0,0.0,0.0,0.0,0.0,0.0,0.0,0.0,0.0,0.0,0.0,0.0,0.0,-0.06181315185342772,0.0,-4.921337296074478e-09,-0.2284412911517063,3.1151434004276515e-11,-4.89348732558943e-09,6.62496811290344e-07,-0.020981297273081758,-0.019676542335032358,0.0008716227953500403,-0.06220674526799327,0.0,-0.020118290640013376,-0.04065390628926256,-1.6404457653574484e-09,-1.640446689120065e-09,-0.041222348443574704,0.0,0.0019476116876453974,0.0,-1.5994346212235257e-08,-0.29874022382845705,3.530498621440777e-10,-3.2182102812312045e-22,9.878844275320408e-19,0.0,0.0009853145748761035,0.000977411039605237,-0.12550972249654824,0.0,0.0,0.0009746724232174734,0.0,0.0,-0.07487634878553887
0.0,-0.05046730309212079,0.0,-3.9743796642179953e-42,-0.06786283289726035,1.489191361837555e-05,-2.2171011809520805e-20,-2.91561375533467e-20,1.4891913611218e-05,-0.006377534729501119,7.405142685410081e-05,-0.005207260645902415,0.0,-0.0026583642928574777,-0.03571135078353793,-3.75311136005228e-12,2.3159935244151617e-26,-0.013082951660837835,-0.18126376285158693,-0.21818211269851973,-0.41908183187507786
0.0,-0.04344841438490461,0.0,-6.3852684702727434e-12,-0.07402884536400901,4.0506021571645716e-05,-2.2829632001672877e-11,3.605049719610249e-09,-0.004161456882339755,-0.011655009331247078,6.829360134457023e-05,-0.019550660276582706,0.0,-0.005864675336488925,-0.018731918795588397,-1.616591884538185e-11,-2.2369538670479435e-12,-0.010976138425873926,-0.18824599862987665,-0.23065630393403025,-0.39257088589491296
0.0,0.0,0.0,0.0,0.0,0.0,0.0,0.0,0.0,0.0,0.0,0.0,0.0,0.0,0.0,0.0,0.0,0.0,0.0,0.02284274806935276,0.0,0.004628619353611745,0.05995196917900636,4.4190597579593996e-08,0.018534716129341836,0.0006062024267127914,0.003843571458145653,0.006119677739976718,0.0026134783022298772,0.008058478948183633,0.0,-5.552743122477461e-06,0.008192139530091024,-2.2678701391747847e-14,0.00029483741160667127,0.004227145974038074,0.17155609556786597,0.6885246061902304
0.0,0.0,0.0,0.0,0.0,0.0,0.0,0.0,0.0,0.0,0.0,0.0,0.0,0.0,0.0,0.0,0.0,0.0,0.0,-0.06181315185342772,0.0,-4.921337296074478e-09,-0.2284412911517063,3.1151434004276515e-11,-4.89348732558943e-09,6.62496811290344e-07,-0.020981297273081758,-0.019676542335032358,0.0008716227953500403,-0.06220674526799327,0.0,-0.020118290640013376,-0.04065390628926256,-1.6404457653574484e-09,-1.640446689120065e-09,-0.041222348443574704,0.0,0.0019476116876453974,0.0,-1.5994346212235257e-08,-0.29874022382845705,3.530498621440777e-10,-3.2182102812312045e-22,9.878844275320408e-19,0.0,0.0009853145748761035,0.000977411039605237,-0.12550972249654824,0.0,0.0,0.0009746724232174734,0.0,0.0,-0.07487634878553887
0.0,0.015692119189163797,0.0,0.0010422450634793325,0.04176113782038281,1.2347682059034943e-08,0.019264771874375156,-2.417491303024929e-23,0.003124975912784259,0.008253010305005005,0.003142539476469572,-4.31761830627256e-06,0.0,-2.2041920149732896e-06,0.003112867885553051,-3.1119053597581165e-15,1.9203140995241446e-29,0.006516352961781639,0.10923631586854561,0.15305724914891156,0.6357897914976685
0.0,0.016207983683613276,0.0,0.0037945292818397794,0.05347247604987829,4.573859160151296e-08,0.019496865157516814,4.070750234918782e-12,0.008684816750138397,0.008226870618867345,0.0038020252670469793,0.008879753261351965,0.0,-6.622274409662154e-06,0.007347912368774295,-1.8254233105176344e-14,-2.5259236870587096e-15,0.00825199513297094,0.14265044482020975,0.16051391594488576,0.558663627085292
0.0,0.0,0.0,0.0,0.0,0.0,0.0,0.0,0.0,0.0,0.0,0.0,0.0,0.0,0.0,0.0,0.0,0.0,0.0,-0.031270272815201644,0.0,3.361495568934038e-05,-0.08337991391996527,3.209304689020072e-10,0.00013460680470865733,4.4024937364573715e-06,2.791361189672305e-05,-0.028298517929818637,1.898016462640383e-05,5.8524020247052926e-05,0.0,-4.0326326223114624e-08,-0.04925311387202395,-1.6470214639285975e-16,-0.003883451239876188,-0.03139108610133203,-0.22696851277316804,-0.5452763004016109
0.0,0.0,0.0,0.0,0.0,0.0,0.0,0.0,0.0,0.0,0.0,0.0,0.0,0.0,0.0,0.0,0.0,0.0,0.0,-0.06181315185342772,0.0,-4.921337296074478e-09,-0.2284412911517063,3.1151434004276515e-11,-4.89348732558943e-09,6.62496811290344e-07,-0.020981297273081758,-0.019676542335032358,0.0008716227953500403,-0.06220674526799327,0.0,-0.020118290640013376,-0.04065390628926256,-1.6404457653574484e-09,-1.640446689120065e-09,-0.041222348443574704,0.0,0.0019476116876453974,0.0,-1.5994346212235257e-08,-0.29874022382845705,3.530498621440777e-10,-3.2182102812312045e-22,9.878844275320408e-19,0.0,0.0009853145748761035,0.000977411039605237,-0.12550972249654824,0.0,0.0,0.0009746724232174734,0.0,0.0,-0.07487634878553887
0.0,-0.024924693859117903,0.0,5.91242667476573e-06,-0.06735330585931229,7.004568055583033e-11,0.00010928480748385027,-1.3713895672773488e-25,1.7727300029675226e-05,-0.02875607380959731,1.782693425781955e-05,-2.4492897630278794e-08,0.0,-1.2503895794074087e-08,-0.029386731139884634,-1.765315366134634e-17,-0.003879323190996596,-0.023811262791228947,-0.1779190787217316,-0.1776704922194602,-0.4661476607770282
0.0,-0.02860406474602388,0.0,2.6871332339050167e-05,-0.07173960463924768,3.239023352715925e-10,0.00013806896832359273,2.882741818735758e-14,6.150238405422649e-05,-0.04303476184034912,2.692441589559967e-05,6.288284613233046e-05,0.0,-4.689628759858726e-08,-0.04198140173872019,-1.2926914721972005e-16,-0.004794769999324709,-0.02941695916589024,-0.21922354967570204,-0.21909704774788252,-0.3417908178478688
0.0,0.0,0.0,0.0,0.0,0.0,0.0,0.0,0.0,0.0,0.0,0.0,0.0,0.0,0.0,0.0,0.0,0.0,0.0,0.02745769343994696,0.0,5.8172478189598525e-08,0.10283853294734431,5.553873363724189e-13,2.3294427288413813e-07,7.618750809334659e-09,0.001819747006194204,0.045711415436542835,3.284618974269818e-08,1.0127894627773985e-07,0.0,0.02064193328017231,0.014418916474797637,-2.8502587084643905e-19,-6.72052001614582e-06,0.002797737466467914,0.2156800861448863,0.568626602258915
0.0,0.0,0.0,0.0,0.0,0.0,0.0,0.0,0.0,0.0,0.0,0.0,0.0,0.0,0.0,0.0,0.0,0.0,0.0,0.04820676361510471,0.0,-1.9849178863823484e-11,0.24181063971298844,1.2564275688006407e-13,-1.9736851865641334e-11,2.6720415433634086e-09,-8.462364949068697e-05,0.12935991106107075,3.515507213961734e-06,-0.00025089782290386975,0.0,0.03887682199004611,0.040933903433652906,-6.61639295460496e-12,-6.616396680407178e-12,-0.0001662616720248039,0.0,0.1303414712248945,0.0,-6.450983130739893e-11,0.2492154779743368,1.4239523609031593e-12,-1.297997427335595e-24,3.984424053703918e-21,0.0,0.07823669197314168,3.9421818464008005e-06,-0.0005062170668468513,0.0,0.0,0.0417004065745748,0.0,0.0,-0.00030199800385551567
0.0,0.027429549993703513,0.0,9.122712922096756e-09,0.06050509803344801,1.0807857252099527e-13,1.68623473958141e-07,-2.1160166569212407e-28,2.7352739907089386e-08,0.06037714295820947,2.7506472800632863e-08,-3.77918722721734e-11,0.0,0.021961927277066882,0.005460737895653843,-2.723833408530264e-20,-5.985689759932039e-06,0.016419106348626044,0.1921478735682955,0.19214825713048095,0.42354390330473296
0.0,0.019720277768239702,0.0,4.268197479321344e-08,0.08262179675115328,5.144810512218072e-13,2.1930643971637435e-07,4.578898883395337e-17,9.768935804162719e-08,0.04937961576564542,4.27662918264737e-08,9.988206091460659e-08,0.0,0.023854475538309647,0.01680715568618438,-2.0532895107527503e-19,-7.615932461712357e-06,0.005180103044183513,0.19755636147290376,0.19755656240644984,0.40731536512607075
0.0,0.0,0.0,0.0,0.0,0.0,0.0,0.0,0.0,0.0,0.0,0.0,0.0,0.0,0.0,0.0,0.0,0.0,0.0,-0.02013174035074915,0.0,-0.01107080234994911,-0.06765374169836214,-0.0015884761416783625,-0.010755957743789424,-0.007784416302505387,1.683313836700677e-07,-0.009483792670331368,-0.0014016277865282016,-0.011437320097279121,-0.003499609126697923,1.909433112871845e-06,-0.011504081764664312,-2.636564261846998e-23,-0.0013642904822379319,-0.004226391795592776,-0.22334386662336891,-0.614750828041572
0.0,0.0,0.0,0.0,0.0,0.0,0.0,0.0,0.0,0.0,0.0,0.0,0.0,0.0,0.0,0.0,0.0,0.0,0.0,0.04820676361510471,0.0,-1.9849178863823484e-11,0.24181063971298844,1.2564275688006407e-13,-1.9736851865641334e-11,2.6720415433634086e-09,-8.462364949068697e-05,0.12935991106107075,3.515507213961734e-06,-0.00025089782290386975,0.0,0.03887682199004611,0.040933903433652906,-6.61639295460496e-12,-6.616396680407178e-12,-0.0001662616720248039,0.0,0.1303414712248945,0.0,-6.450983130739893e-11,0.2492154779743368,1.4239523609031593e-12,-1.297997427335595e-24,3.984424053703918e-21,0.0,0.07823669197314168,3.9421818464008005e-06,-0.0005062170668468513,0.0,0.0,0.0417004065745748,0.0,0.0,-0.00030199800385551567
0.0,-0.018008233060064587,0.0,-0.01920057680117485,-0.03914071648416227,-0.002210921502460828,-0.009327164888374043,-0.0022109215024608306,1.3451341782229355e-12,-0.008350563333091305,-0.002194676526863661,-0.006303698733871693,-0.0036705884538530526,1.0800285126965464e-06,-0.004762289860873912,-1.3395080076237277e-24,-2.943601227399082e-10,-0.0022101140549729234,-0.13295212116108435,-0.1756493543928829,-0.5738062360159577
0.0,-0.018618528151180164,0.0,-0.01842117469650358,-0.0534168046615785,-0.0031676600631010046,-0.00774393161122379,-0.006369171750969123,7.898199070650216e-12,-0.00948138027406079,-0.0005001358231613333,-0.010581290713777423,-0.003837107034555432,1.9286378813876744e-06,-0.010412052063764887,-1.6600876114563764e-23,-0.000499983274604907,-0.004602483535976409,-0.17075318743230275,-0.20475834330864093,-0.4768339302817572
0.0,0.0,0.0,0.0,0.0,0.0,0.0,0.0,0.0,0.0,0.0,0.0,0.0,0.0,0.0,0.0,0.0,0.0,0.0,0.02975600919876615,0.0,-1.834425327716589e-05,0.09139394272650114,0.009749455497071008,0.001136313216289955,-1.2898731253088844e-05,2.78924095917375e-10,0.011224335754032996,-2.32248885885899e-06,-1.8951570992275213e-05,-5.798831391071044e-06,0.013815504596554808,0.036352842116644135,-4.368771212058318e-26,-2.260621168971953e-06,0.023315241937640823,0.21658125698859035,0.5666143482883194
0.0,0.0,0.0,0.0,0.0,0.0,0.0,0.0,0.0,0.0,0.0,0.0,0.0,0.0,0.0,0.0,0.0,0.0,0.0,0.06244489962967208,0.0,-7.614792937279324e-14,0.2015442261736521,0.03458914971957285,-7.571700634152259e-14,1.0250823579208375e-11,-3.2464394264839486e-07,0.02470854496206953,1.3486633219180802e-08,-9.625259477656425e-07,0.0,0.03473829389905943,0.08317074176904089,-2.538264312425341e-14,-2.5382657417646913e-14,0.058800790002568035,0.0,0.14577433456576622,0.0,-2.4748077046147295e-13,0.35376400550984405,5.462746068851194e-15,-4.979541828954985e-27,1.528555128220858e-23,0.0,0.00030014148875396777,1.5123496386117575e-08,-1.942013909895884e-06,0.0,0.0,0.00015997637163947735,0.0,0.0,-1.1585629222288444e-06
0.0,0.02409556876692137,0.0,-2.3243334028202766e-05,0.056307030774812764,0.013415881523077263,-1.1291036268417578e-05,-2.676439750950011e-06,1.6283574884726714e-15,0.016451682937433022,-2.6567743316245935e-06,-7.630967381957676e-06,-4.443445340024914e-06,0.012154536742067646,0.013454768629123039,-1.6215467054482236e-27,-3.5633880837412145e-13,0.02274724299068809,0.15855617294633834,0.15850448564213054,0.5242605623262088
0.0,0.033311038959127,0.0,-2.9030781205101034e-05,0.05755187688614114,0.012793499896508747,-1.2204019992024387e-05,-1.0037472343997156e-05,1.2447137216384964e-14,0.027969379783240694,-7.881871755868856e-07,-1.667554543291664e-05,-6.0470744464453665e-06,0.01305798441892027,0.03723205110040654,-2.6162088478883036e-26,-7.879467672612648e-07,0.023812460788718865,0.20561631106951414,0.20556272077159035,0.38301694332620295
0.0,0.0,0.0,0.0,0.0,0.0,0.0,0.0,0.0,0.0,0.0,0.0,0.0,0.0,0.0,0.0,0.0,0.0,0.0,-0.030463167158226164,0.0,-1.5148405570516628e-07,-0.08759520584169775,8.050952182674602e-05,-0.0017128513366672226,-1.0651576241051322e-07,-0.007243801309003739,-0.013407753113032921,-0.004549532761938998,-0.007094560068582632,-4.788586835329535e-08,0.00011408633735473703,-0.032399114939284636,-3.60766487276071e-28,-0.009490808731941863,-0.010117424050346938,-0.24909533823574653,-0.5466346854315457
0.0,0.0,0.0,0.0,0.0,0.0,0.0,0.0,0.0,0.0,0.0,0.0,0.0,0.0,0.0,0.0,0.0,0.0,0.0,0.06244489962967208,0.0,-7.614792937279324e-14,0.2015442261736521,0.03458914971957285,-7.571700634152259e-14,1.0250823579208375e-11,-3.2464394264839486e-07,0.02470854496206953,1.3486633219180802e-08,-9.625259477656425e-07,0.0,0.03473829389905943,0.08317074176904089,-2.538264312425341e-14,-2.5382657417646913e-14,0.058800790002568035,0.0,0.14577433456576622,0.0,-2.4748077046147295e-13,0.35376400550984405,5.462746068851194e-15,-4.979541828954985e-27,1.528555128220858e-23,0.0,0.00030014148875396777,1.5123496386117575e-08,-1.942013909895884e-06,0.0,0.0,0.00015997637163947735,0.0,0.0,-1.1585629222288444e-06
0.0,-0.030754242448299156,0.0,-1.6247464378191822e-07,-0.051899766826114246,9.377916992620623e-05,-7.892615979333821e-08,-1.8708744391477175e-08,-0.011416031595503853,-0.024512787671633056,-0.002483735631044778,-0.004459374001899479,-3.1060397699787134e-08,8.49621670069152e-05,-0.02853988611656783,-1.1334872313230481e-29,-0.006196647190349331,-0.01233326086216347,-0.2018015329772218,-0.21383864098721955,-0.41158433886848234
0.0,-0.03186789754474529,0.0,-2.355725222501425e-07,-0.05264794182570669,0.00010381384564663193,-9.903046531201143e-08,-8.144984664332703e-08,-0.004083643487951634,-0.03442510318993766,-0.005740190359584235,-0.007464866646992662,-4.906945388480328e-08,0.00010596002578558247,-0.04326837576088344,-2.122942929699374e-28,-0.006842239289025918,-0.011644190433571764,-0.2191758949209541,-0.25128880452176733,-0.3313397802132638
0.0,0.0,0.0,0.0,0.0,0.0,0.0,0.0,0.0,0.0,0.0,0.0,0.0,0.0,0.0,0.0,0.0,0.0,0.0,0.037479067118026635,0.0,-2.658022881887682e-10,0.0825661896528927,1.41266452254109e-07,-3.005463528778565e-06,-1.8689843789229898e-10,-1.2710373736397926e-05,0.03739926675491043,-7.982861382235287e-06,-1.2448506815741503e-05,-8.402318858550287e-11,0.007758910665153035,0.020608235544705495,-6.330207979540744e-31,0.006508923215054209,0.029030884386631806,0.22123613340866016,0.5573759194626678
0.0,0.0,0.0,0.0,0.0,0.0,0.0,0.0,0.0,0.0,0.0,0.0,0.0,0.0,0.0,0.0,0.0,0.0,0.0,0.06244489962967208,0.0,-7.614792937279324e-14,0.2015442261736521,0.03458914971957285,-7.571700634152259e-14,1.0250823579208375e-11,-3.2464394264839486e-07,0.02470854496206953,1.3486633219180802e-08,-9.625259477656425e-07,0.0,0.03473829389905943,0.08317074176904089,-2.538264312425341e-14,-2.5382657417646913e-14,0.058800790002568035,0.0,0.14577433456576622,0.0,-2.4748077046147295e-13,0.35376400550984405,5.462746068851194e-15,-4.979541828954985e-27,1.528555128220858e-23,0.0,0.00030014148875396777,1.5123496386117575e-08,-1.942013909895884e-06,0.0,0.0,0.00015997637163947735,0.0,0.0,-1.1585629222288444e-06
0.0,0.039434646406150374,0.0,-2.732159721855228e-10,0.060233451456189864,1.576982505438256e-07,-1.327215556647163e-10,-3.146046465040315e-11,-1.919710114922774e-05,0.04669365874188954,-4.176628606729359e-06,-7.498845203828687e-06,-5.223089927439338e-11,0.010100338231462521,0.013066417943893155,-1.9060624393888845e-32,0.014794456696470414,0.027427947476211315,0.21167078928095293,0.21165054778301393,0.3648965377196068
0.0,0.02721153721260279,0.0,-4.21939370893071e-10,0.06673400990755018,1.8594337023576093e-07,-1.7737574753573766e-10,-1.4588669647782626e-10,-7.314307915879426e-06,0.06219321868855046,-1.0281387175358384e-05,-1.3370494600759192e-05,-8.788942914248541e-11,0.007049859086037474,0.024593207877227158,-3.8024519822736046e-31,0.01149388432510672,0.02606631307811787,0.22527291771030802,0.22521539953821784,0.32413831490056516
0.0,0.0,0.0,0.0,0.0,0.0,0.0,0.0,0.0,0.0,0.0,0.0,0.0,0.0,0.0,0.0,0.0,0.0,0.0,-0.0272888931258237,0.0,-1.8626301729585552e-12,-0.09683937686902208,9.899356329409941e-10,-2.1061019040038525e-08,-1.3097053154402719e-12,-0.00435389374398594,-0.021183384948179056,-5.5940520973007165e-08,-8.723387808766113e-08,-5.887990180746601e-13,-0.0077588591376564165,-0.041032227553365865,-4.435942393175323e-33,-0.016708819185375416,-0.006349890760541259,-0.22151606453655528,-0.5569676972003937
0.0,0.0,0.0,0.0,0.0,0.0,0.0,0.0,0.0,0.0,0.0,0.0,0.0,0.0,0.0,0.0,0.0,0.0,0.0,-0.06638499844398035,0.0,-1.240682375427543e-15,-0.2022784221766639,0.0005635629069834077,-1.2336613229253023e-15,1.6701722887405147e-13,-0.009683411158835765,-0.044659508223916705,2.1973845220368683e-10,-1.5682487877486453e-08,0.0,-0.025129281237483488,-0.09174258532388868,-4.135607918090018e-16,-0.05139054831747103,-0.008725361383900117,0.0,-0.12451914598775547,0.0,-4.032217720137803e-15,-0.2228061205392316,8.900482028709378e-17,-8.11319471950871e-29,2.490483225313525e-25,0.0,4.890221681650598e-06,2.4640795325161106e-10,-3.164133878213915e-08,0.0,0.0,-0.15211014224497274,0.0,0.0,-1.8876529017566795e-08
0.0,-0.04219683512448052,0.0,-1.6515918233943946e-12,-0.06644524904168236,9.53286658456873e-10,-8.0230242167242e-13,-1.9017865522705154e-13,-0.0011435933227667214,-0.03354274467397523,-2.5247739365491036e-08,-4.533055415637952e-08,-3.157360291935937e-13,6.105659161563919e-05,-0.027780172958430112,-1.1522156316821158e-34,-0.017518983160347088,-0.0014351733316319067,-0.19000206334727857,-0.19000218570722785,-0.4298712415180393
0.0,-0.040885741500167556,0.0,-3.152921440072523e-12,-0.06415215984498979,1.3894527960611837e-09,-1.3254316518759882e-12,-1.0901312484130769e-12,-0.004772832221096946,-0.034318292649984115,-7.682716592732752e-08,-9.991037101344802e-08,-6.567494872842827e-13,-0.0058371049877733745,-0.046902920761107664,-2.8413637614288802e-33,-0.027149504829985422,-0.009327040709517313,-0.23334605928834637,-0.23334648909009154,-0.29996090538717496
0.0,0.0,0.0,0.0,0.0,0.0,0.0,0.0,0.0,0.0,0.0,0.0,0.0,0.0,0.0,0.0,0.0,0.0,0.0,-0.03986307432060103,0.0,-1.8073852813272202e-14,-0.08981372556102721,9.605745243549806e-12,-2.0436357348520703e-10,-1.2708599615579411e-14,-0.0067148866578799205,-0.029551435069314454,-0.007299052064245155,-8.464655495100265e-10,-5.7133546657720735e-15,-7.528734371900164e-05,-0.027971521954998625,-4.304374054837625e-35,-0.0001621324206084219,-0.005086989889757724,-0.20653811171814845,-0.5869227674924613
0.0,0.0,0.0,0.0,0.0,0.0,0.0,0.0,0.0,0.0,0.0,0.0,0.0,0.0,0.0,0.0,0.0,0.0,0.0,-0.06638499844398035,0.0,-1.240682375427543e-15,-0.2022784221766639,0.0005635629069834077,-1.2336613229253023e-15,1.6701722887405147e-13,-0.009683411158835765,-0.044659508223916705,2.1973845220368683e-10,-1.5682487877486453e-08,0.0,-0.025129281237483488,-0.09174258532388868,-4.135607918090018e-16,-0.05139054831747103,-0.008725361383900117,0.0,-0.12451914598775547,0.0,-4.032217720137803e-15,-0.2228061205392316,8.900482028709378e-17,-8.11319471950871e-29,2.490483225313525e-25,0.0,4.890221681650598e-06,2.4640795325161106e-10,-3.164133878213915e-08,0.0,0.0,-0.15211014224497274,0.0,0.0,-1.8876529017566795e-08
0.0,-0.056724842383134196,0.0,-1.6267560321726987e-14,-0.052670854580790925,9.389516223489779e-12,-7.902378091216232e-15,-1.873188460967698e-15,-0.021143392427256397,-0.027503183176351077,-2.4868076803095686e-10,-4.4648896519762143e-10,-3.1098815263526642e-15,6.013845388899564e-07,-0.035574597874033706,-1.1348892036473616e-36,-0.00017255541671945575,-0.0191222755536899,-0.2129111036553057,-0.21291110486050532,-0.3612644045243222
0.0,-0.04222609364853521,0.0,-3.1809894649923636e-14,-0.0689410180493239,1.4018220213800007e-11,-1.3372309463847489e-14,-1.0998358451269264e-14,-0.006797017123211662,-0.041075863426179623,-0.008242897112046616,-1.0079979589657846e-09,-6.625960208327885e-15,-5.8890682261129815e-05,-0.03329678103127306,-2.8666582289181443e-35,-0.000273911959068528,-0.018453295909263766,-0.2193657728249988,-0.21936577716127822,-0.3419016231052894
0.0,0.0,0.0,0.0,0.0,0.0,0.0,0.0,0.0,0.0,0.0,0.0,0.0,0.0,0.0,0.0,0.0,0.0,0.0,0.030969536588645517,0.0,-3.2187330841395854e-17,0.08466780031837799,0.003558048145141263,-3.639466371479962e-13,0.0018174291770984177,0.0011927815874410233,0.009838633907176339,-1.2998722853818447e-05,0.003149795399291931,-1.0174788892072664e-17,-1.340775907322807e-07,0.02946928387702137,-7.665566008507069e-38,-2.887380967497662e-07,0.05467272134459558,0.23763332607579438,0.5430170390058049
0.0,0.0,0.0,0.0,0.0,0.0,0.0,0.0,0.0,0.0,0.0,0.0,0.0,0.0,0.0,0.0,0.0,0.0,0.0,-0.06638499844398035,0.0,-1.240682375427543e-15,-0.2022784221766639,0.0005635629069834077,-1.2336613229253023e-15,1.6701722887405147e-13,-0.009683411158835765,-0.044659508223916705,2.1973845220368683e-10,-1.5682487877486453e-08,0.0,-0.025129281237483488,-0.09174258532388868,-4.135607918090018e-16,-0.05139054831747103,-0.008725361383900117,0.0,-0.12451914598775547,0.0,-4.032217720137803e-15,-0.2228061205392316,8.900482028709378e-17,-8.11319471950871e-29,2.490483225313525e-25,0.0,4.890221681650598e-06,2.4640795325161106e-10,-3.164133878213915e-08,0.0,0.0,-0.15211014224497274,0.0,0.0,-1.8876529017566795e-08
0.0,0.027817454143854704,0.0,-2.0464914215156896e-17,0.0696084863994704,0.004803608385557192,-9.941348704665934e-18,-2.356508314976148e-18,-2.659880791487142e-05,-3.459955108302425e-05,-3.1284534890678577e-13,0.009231216761362055,-3.912292771467774e-18,7.565537029094037e-10,0.010300072273766104,-1.4277131749947214e-39,-2.1707814390630286e-07,0.033217338219446474,0.15491676149885478,0.15491676149733863,0.5351267525342542
0.0,0.031129948668805293,0.0,-5.175506062441881e-17,0.06317667050928119,0.006933371336702835,-2.175689968817856e-17,0.0009998113555613037,0.0028238428617706392,0.008943371433755417,-1.3411287413862715e-05,0.007670389716976706,-1.0780512669123843e-17,-9.581581027479058e-08,0.02763966015362618,-4.664085563939579e-38,-4.456578748015131e-07,0.05058428243419238,0.20489098892459637,0.21494279314393408,0.3802507499310321
0.0,0.0,0.0,0.0,0.0,0.0,0.0,0.0,0.0,0.0,0.0,0.0,0.0,0.0,0.0,0.0,0.0,0.0,0.0,-0.03018432072951905,0.0,-2.228255798960234e-19,-0.10018016489761955,2.463155907974291e-05,-2.519519896611377e-15,1.2581649354598843e-05,-0.008404849863217424,-0.020311127048391678,-8.998720558974376e-08,-0.0033699616132409275,-7.043775224380767e-20,-0.002492631662569482,-0.033927680584891894,-5.306697220386105e-40,-1.998868255444031e-09,-0.010042127950994172,-0.21696284745074768,-0.5740862641009635
0.0,0.0,0.0,0.0,0.0,0.0,0.0,0.0,0.0,0.0,0.0,0.0,0.0,0.0,0.0,0.0,0.0,0.0,0.0,-0.04330499562379824,0.0,-2.0767524405408645e-17,-0.21573444681319692,9.433362362972066e-06,-2.0650000466905295e-17,2.7956666794515537e-15,-0.017617155207515892,-0.053112746028143705,3.6781562786158036e-12,-0.027626475732816923,0.0,-0.017875700416325316,-0.08881099307112963,-6.922508135133215e-18,-0.0008602157067175493,-0.035056185212297974,0.0,-0.14137993398919352,0.0,-6.749445431754944e-17,-0.15121493394869423,1.4898331870590672e-18,-1.3580508007552472e-30,4.168768105949453e-27,0.0,8.185640429246862e-08,4.1245715133788315e-12,-0.07374271483335137,0.0,0.0,-0.13365197921921762,0.0,0.0,-3.159702957226518e-10
0.0,-0.030227272407135006,0.0,-1.2817805948160617e-19,-0.07798439391531543,3.008647849177273e-05,-6.226572817247885e-20,-1.47595372152698e-20,-0.008291694596326074,-0.014513200928402036,-1.9594467545345812e-15,-0.004975372837533548,-2.45038943383037e-20,-0.004767374777292035,-0.03189065281604318,-8.942207250085122e-42,-1.359627260063032e-09,-0.01610476672943527,-0.18872464388864318,-0.18872464388865273,-0.4337652488420884
0.0,-0.0323079621482609,0.0,-3.7875162906856772e-19,-0.07147017816079419,5.0739495945532935e-05,-1.5922039508714364e-19,7.31677588841292e-06,-0.009187282649079533,-0.037251501550116924,-9.814589906036508e-08,-0.007548793949237281,-7.889347797804535e-20,-0.004641695632079727,-0.04167524142895283,-3.4132507703484922e-40,-3.2613940366764746e-09,-0.014239285470911366,-0.21822736904709267,-0.22485450510988536,-0.33853727318258886
0.0,0.0,0.0,0.0,0.0,0.0,0.0,0.0,0.0,0.0,0.0,0.0,0.0,0.0,0.0,0.0,0.0,0.0,0.0,0.01727703189165156,0.0,-4.861088323409183e-22,0.08208661551495218,0.0009096153329585767,0.00020333959184416764,0.009142028691162919,0.004281197063388253,0.039090231315206704,-1.9631307794762308e-10,0.011359995766908153,-1.5366464439106912e-22,0.004101669074590674,0.028994152541528685,-1.1576913164962529e-42,0.00582491151021336,0.017322547867402286,0.2601320909686715,0.5192743523565857
0.0,0.0,0.0,0.0,0.0,0.0,0.0,0.0,0.0,0.0,0.0,0.0,0.0,0.0,0.0,0.0,0.0,0.0,0.0,0.023466918690641384,0.0,-1.0372045671769808e-19,0.18577852339153558,0.00355471863348317,0.0016937184445533417,0.03264392374210766,0.012490230549428924,0.07858923465269436,1.8370030132129894e-14,0.02961496725208707,0.0,0.008934267762141825,0.05593681847801218,-3.457348557255103e-20,0.023070700637256632,0.04422570307633614,0.0,0.07466249751239074,0.0,-3.370914843323756e-19,0.25468813361840104,7.440760659691615e-21,-6.782592212266049e-33,2.0820321356484876e-29,0.0,4.088202075868139e-10,2.0599587740031432e-14,0.03313349769404766,0.0,0.0,0.0621460609112729,0.0,0.0,0.07536953516534335
0.0,0.021936090632410556,0.0,-2.327787351132722e-22,0.05847703079709229,0.0013909410008097602,-1.1307814694274122e-22,0.004860118718169262,0.003104909596484698,0.04171091635376117,-3.5584681098079914e-18,0.01017739521343848,-4.450048278534094e-23,0.0049824577809059875,0.021035365434168254,-1.6239563160918816e-44,0.008179306049122037,0.007616451358789628,0.1864109186068532,0.21276344316542214,0.41735447080418475
0.0,0.016010642580749423,0.0,-7.456854057683495e-22,0.06009416272540496,0.0018442846792198636,-3.134727768937447e-22,0.008289446174400899,0.0026202297020623834,0.04235583906404582,-1.9322943836653077e-10,0.01518498773588474,-1.5532531248303812e-22,0.004575958225910245,0.02737342948510075,-6.720000893291685e-43,0.006203813891783641,0.014004717190797584,0.20791286032641002,0.2406367723357718,0.35289265727131675
0.0,0.0,0.0,0.0,0.0,0.0,0.0,0.0,0.0,0.0,0.0,0.0,0.0,0.0,0.0,0.0,0.0,0.0,0.0,-0.016166156848806554,-0.0017649231617579274,-0.004097581961164617,-0.04829961947672663,-0.0034364665221416736,-0.019294681189382556,0.0002852604122795369,0.00024458409566112003,-0.006609736006166871,-1.1215334385535152e-11,-0.0027734311983853943,-0.00031968075570429317,-0.004524246644935676,-0.01411041602647801,-6.613871763143581e-44,0.0003327762522811911,-0.0013655819710532407,-0.13993698466727672,-0.7364320054097914
0.0,0.0,0.0,0.0,0.0,0.0,0.0,0.0,0.0,0.0,0.0,0.0,0.0,0.0,0.0,0.0,0.0,0.0,0.0,-0.036365106739336114,-0.010402166214524241,-0.0360185360660187,-0.08924266848436344,-0.013144003867733813,-0.09929840030755176,0.012730261541414822,0.006712041118482374,-0.0011531667389616921,9.871747131221175e-15,-0.0020147029597543257,-0.004812037422445988,-0.013128165180180399,-0.0397206577689252,-1.8579213238207984e-20,0.012397808887246212,0.016239028462917898,0.0,-0.02323241482473437,0.0,-0.11027215784573523,0.1368651458010438,-0.09408906401839418,-3.644851681357438e-33,1.1188492677673806e-29,0.0,-0.14087926152720073,1.1069874121835016e-14,0.017805387822225353,0.0,0.0,-0.07687590350619898,0.0,0.0,-0.006542203640741332
0.0,-0.016245752622249372,-0.004521504194915124,-0.0005243173484717969,-0.03156974491961162,-0.003106483772745753,-0.023119864095462617,0.000190235056147469,0.00012153255623405356,-0.005028548828767834,-1.392857705589745e-19,-0.0002533734146088045,-1.741840545913181e-24,-0.002969562570435591,-0.0029059343622629998,-6.356499478456091e-46,0.0003201548842181748,-0.004354690255873514,-0.09385277875175463,-0.11660545961626448,-0.6943059783611566
0.0,-0.010901992512532478,-0.002358669986671584,-0.00262209529221157,-0.038297178507875,-0.005708037189526968,-0.022323966243101272,0.0006387872889874821,0.00020191571218277144,-0.01582875916415901,-1.4890320353114644e-11,-0.004347066654616892,-1.1969416675697811e-23,-0.0060369924307538386,-0.018817997593504998,-5.178453496538321e-44,0.00047806781948273714,-0.0056793316030268335,-0.1308823902764844,-0.1617107319533576,-0.5731580802095799
0.0,0.0,0.0,0.0,0.0,0.0,0.0,0.0,0.0,0.0,0.0,0.0,0.0,0.0,0.0,0.0,0.0,0.0,0.0,0.025531909196883952,-2.503900063680162e-06,-5.8132478261974325e-06,0.07994417011128446,-4.875322014050075e-06,0.006274781170872064,4.04699524573483e-07,3.469919518145181e-07,0.018143683595246804,0.006967304405021228,0.020447493154005077,-4.53531735493814e-07,-6.4185578770895765e-06,0.010898754273984774,-9.38311326392975e-47,4.7211034300676534e-07,0.01782817303827791,0.23689435997302258,0.5770479365507657
0.0,0.0,0.0,0.0,0.0,0.0,0.0,0.0,0.0,0.0,0.0,0.0,0.0,0.0,0.0,0.0,0.0,0.0,0.0,-0.036365106739336114,-0.010402166214524241,-0.0360185360660187,-0.08924266848436344,-0.013144003867733813,-0.09929840030755176,0.012730261541414822,0.006712041118482374,-0.0011531667389616921,9.871747131221175e-15,-0.0020147029597543257,-0.004812037422445988,-0.013128165180180399,-0.0397206577689252,-1.8579213238207984e-20,0.012397808887246212,0.016239028462917898,0.0,-0.02323241482473437,0.0,-0.11027215784573523,0.1368651458010438,-0.09408906401839418,-3.644851681357438e-33,1.1188492677673806e-29,0.0,-0.14087926152720073,1.1069874121835016e-14,0.017805387822225353,0.0,0.0,-0.07687590350619898,0.0,0.0,-0.006542203640741332
0.0,0.01217265857295649,-3.021454033246897e-06,-3.5037029690761306e-07,0.043125458828045984,-2.0758795126042976e-06,0.013811914690507372,1.2712284516027302e-07,8.121302477550384e-08,0.0015617094411140794,-9.307644869656379e-23,0.010043651722029966,-1.1639690943206462e-27,-1.9843831651227887e-06,0.00317927283620393,-4.247672933293271e-49,2.1394058801771303e-07,0.004743373867009288,0.08863110704523033,0.16677973004461447,0.6559431934117209
0.0,0.02461525866652341,-2.8065882530850053e-06,-3.1200387876115167e-06,0.05173206805616025,-6.792009994965581e-06,0.011773724642193955,7.600948465122898e-07,2.402600911224315e-07,0.020164533811070584,0.006808253613173328,0.013370930495594674,-1.4242443592415415e-26,-7.183434789886087e-06,0.010073362414688673,-6.161856823828347e-47,5.688542839482163e-07,0.017274000734909197,0.16068262326157592,0.2047165464749819,0.47876710383934457
0.0,0.0,0.0,0.0,0.0,0.0,0.0,0.0,0.0,0.0,0.0,0.0,0.0,0.0,0.0,0.0,0.0,0.0,0.0,-0.03139094416065496,-2.097043582903874e-08,-4.868658388801577e-08,-0.09111899953187434,-0.0056977726963746205,-0.0022969172493750556,3.3894026096381657e-09,2.9060954006384555e-09,-0.01611599014224997,-0.003997823003515887,-0.016788511344992985,-3.798377696283513e-09,-5.3756121511753514e-08,-0.01300742368150102,-7.858459585988303e-49,3.953975558312646e-09,-0.01465294650076789,-0.25615696032925406,-0.5487747041755943
0.0,0.0,0.0,0.0,0.0,0.0,0.0,0.0,0.0,0.0,0.0,0.0,0.0,0.0,0.0,0.0,0.0,0.0,0.0,-0.036365106739336114,-0.010402166214524241,-0.0360185360660187,-0.08924266848436344,-0.013144003867733813,-0.09929840030755176,0.012730261541414822,0.006712041118482374,-0.0011531667389616921,9.871747131221175e-15,-0.0020147029597543257,-0.004812037422445988,-0.013128165180180399,-0.0397206577689252,-1.8579213238207984e-20,0.012397808887246212,0.016239028462917898,0.0,-0.02323241482473437,0.0,-0.11027215784573523,0.1368651458010438,-0.09408906401839418,-3.644851681357438e-33,1.1188492677673806e-29,0.0,-0.14087926152720073,1.1069874121835016e-14,0.017805387822225353,0.0,0.0,-0.07687590350619898,0.0,0.0,-0.006542203640741332
0.0,-0.018588475400021093,-1.4362966442439426e-08,-1.6655414120279512e-09,-0.05167071498761671,-0.006280484118155225,-0.006116428135824192,6.042988372529793e-10,3.8605914129564603e-10,-0.01654863077323397,-0.008243000069187432,-0.004074159259760305,-5.533113811365385e-30,-9.433083706049997e-09,1.51131834392613e-05,-2.0191994691307007e-51,1.0170009050483794e-09,-0.0041693356450209045,-0.11567613829406669,-0.14552463860836515,-0.6230923192695617
0.0,-0.033534853201006055,-1.979250099855008e-08,-2.200300338014902e-08,-0.05059991985191533,-0.012520517950846884,8.303015466594681e-05,5.360308193426906e-09,1.6943518837240808e-09,-0.01744553013051925,-0.007775270272350632,-0.015907358273339063,-1.004399482948087e-28,-5.0658709946340473e-08,-0.010877745469227576,-4.345438174070894e-49,4.011649721222415e-09,-0.015129111857025574,-0.17621041532563178,-0.22593927436475608,-0.43397613829339154
0.0,0.0,0.0,0.0,0.0,0.0,0.0,0.0,0.0,0.0,0.0,0.0,0.0,0.0,0.0,0.0,0.0,0.0,0.0,-0.02320080377585128,-3.26700805247529e-10,-0.002419605514002472,-0.06447558821136996,-0.01160255614178638,-0.0012997913802146744,-0.0030773230932116037,-0.002635297378792461,-0.020811756248205526,-6.228253933936504e-05,-0.009016376105973105,-5.91753582103286e-11,-0.00021212029209169046,-0.02037384094335812,-1.2242783581981588e-50,6.159943500272979e-11,-0.011861055215972251,-0.19888576404644187,-0.6300642374792222
0.0,0.0,0.0,0.0,0.0,0.0,0.0,0.0,0.0,0.0,0.0,0.0,0.0,0.0,0.0,0.0,0.0,0.0,0.0,-0.036365106739336114,-0.010402166214524241,-0.0360185360660187,-0.08924266848436344,-0.013144003867733813,-0.09929840030755176,0.012730261541414822,0.006712041118482374,-0.0011531667389616921,9.871747131221175e-15,-0.0020147029597543257,-0.004812037422445988,-0.013128165180180399,-0.0397206577689252,-1.8579213238207984e-20,0.012397808887246212,0.016239028462917898,0.0,-0.02323241482473437,0.0,-0.11027215784573523,0.1368651458010438,-0.09408906401839418,-3.644851681357438e-33,1.1188492677673806e-29,0.0,-0.14087926152720073,1.1069874121835016e-14,0.017805387822225353,0.0,0.0,-0.07687590350619898,0.0,0.0,-0.006542203640741332
0.0,-0.03075797207973913,-1.9950305474335987e-10,-0.0017148612722207132,-0.04429357339351713,-0.023873881068721566,-8.495780465027055e-05,-0.0025021446656134784,5.362400469898929e-12,-0.0183359875730881,-0.00011449610361780628,-0.008394426203942328,-7.685550976073887e-32,-1.310264855487024e-10,-0.015326303810171096,-2.8046884593244706e-53,1.4126245302252018e-11,-0.005108380642456031,-0.15050698492370101,-0.15092158360817723,-0.5480630040667991
0.0,-0.01895917932379595,-2.9548741746802156e-10,-0.002484880368553272,-0.050236877463141684,-0.01978412367245311,-0.0006658629727447201,-0.0031014410693158425,-0.0022601623158192913,-0.02687736677756687,-0.00011607904089842278,-0.01355882772696331,-1.4994942243240881e-30,-7.562971135079028e-10,-0.01633590874244584,-6.487418158610805e-51,5.989096658361449e-11,-0.014771207691123427,-0.1800045395146276,-0.19830438871375264,-0.452537627392865
0.0,0.0,0.0,0.0,0.0,0.0,0.0,0.0,0.0,0.0,0.0,0.0,0.0,0.0,0.0,0.0,0.0,0.0,0.0,-0.024360432145184633,-2.0237630909572297e-12,-1.4988357100022288e-05,-0.0957057115275915,-7.187256506060915e-05,-8.05161719521874e-06,-1.9062618747674724e-05,-0.008305313801743647,-0.024233487389000715,-3.858120405629217e-07,-0.02615447789288817,-3.6656446484575e-13,-0.006973831777629514,-0.018749221408815884,-7.583848324162929e-53,3.8158051948445967e-13,-0.01725053054728028,-0.2800198790723494,-0.4981321213680932
0.0,0.0,0.0,0.0,0.0,0.0,0.0,0.0,0.0,0.0,0.0,0.0,0.0,0.0,0.0,0.0,0.0,0.0,0.0,-0.034484990176166325,-0.00014124669065020644,-0.0004890807276552378,-0.19129034161631994,-0.00017847696430947938,-0.0013483316975571524,0.0001728589292608875,-0.014300259408859727,-0.07275651694606768,1.3404435042325778e-16,-0.0575929545134822,-6.534065570461869e-05,-0.014569661322241068,-0.06261201819748034,-2.522794128320327e-22,0.00016834469287677477,-0.05017002671771256,0.0,-0.09667076866307742,0.0,-0.0014973397891700263,-0.24599054062970024,-0.0012775962857060942,-4.949192574751846e-35,1.5192389080256314e-31,0.0,-0.05694680163780621,1.5031321874480058e-16,-0.041066940055014815,0.0,0.0,-0.05611922108807392,0.0,0.0,-8.883386352010035e-05
0.0,-0.010044379396165634,-1.1001512121458415e-12,-9.456530426175693e-06,-0.08185258856863684,-0.00013165151395885515,-4.684962437666915e-07,-1.3797971616926027e-05,-0.006378262601800542,-0.04186263005852015,-6.313839522063653e-07,-0.009642822454686782,-4.238164790615951e-34,-0.0038745007988687137,-0.017478792974860706,-1.5466336654276049e-55,7.789858612608187e-14,-0.02682332788114402,-0.19811331063187562,-0.1981155969188995,-0.4056572053056495
0.0,-0.0199069769044501,-1.5306598112794532e-12,-1.2871974544883595e-05,-0.0728849627092088,-0.00010248410327009512,-3.4492490439452008e-06,-1.606583198205755e-05,-0.005382070085936982,-0.024702805060772035,-6.013031768241312e-07,-0.018452661634109777,-7.767557637769569e-33,-0.005372346255782719,-0.019260194281534807,-3.360559423964228e-53,3.1024229861882513e-13,-0.02016392015552817,-0.18631762741425925,-0.230366828237774,-0.39705360642470683
0.0,0.0,0.0,0.0,0.0,0.0,0.0,0.0,0.0,0.0,0.0,0.0,0.0,0.0,0.0,0.0,0.0,0.0,0.0,-0.015052795588771749,-9.341733419724347e-28,-0.005814312071881074,-0.05577639057758844,-0.0015965964396491956,-0.014471124545474449,-0.00705211682271223,-0.0032415250862605997,-0.021581831538832093,-1.780916575246937e-22,-0.012162204192636637,-0.002775851605827175,-0.0008412256261238446,-0.013341020955377463,-0.0022020150974965316,-0.002071575028990853,-0.003225014829442307,-0.21436064922389853,-0.6244330973406554
0.0,0.0,0.0,0.0,0.0,0.0,0.0,0.0,0.0,0.0,0.0,0.0,0.0,0.0,0.0,0.0,0.0,0.0,0.0,-0.023809463815336038,-1.2159688864505003e-16,-0.035714195722959946,-0.13690441693817626,-0.01190473190765333,-0.07142839144592021,-0.011904731907653026,-0.005952365953838899,-0.059523659538328506,1.1539651567681608e-28,-0.0357141957230091,-0.005952365953826645,-0.00595236595383913,-0.02976182976918684,-0.011904731907653175,-0.017857097861479616,-0.03571419572300272,0.0,-8.322223082356115e-14,0.0,-1.2890345166274113e-15,-2.1176909872359978e-13,-1.0998610485753451e-15,-4.2606762369064313e-47,-0.12499968503035834,-0.12499968503035834,-4.9024539021537454e-14,1.2940210944024586e-28,-0.12499968503039369,0.0,0.0,-4.831208891394648e-14,0.0,0.0,-0.12499968503035841
0.0,-0.017003061046357994,-8.338694089193099e-29,-0.004511811917024042,-0.047465167691730106,-0.0004023702293597481,-0.010962838792623102,-0.000817800683868202,-4.8344609422568115e-19,-0.016350619114841182,-4.7856308952342927e-23,-0.01114893448856418,-0.0004089120017520599,-0.0018417845795326796,-0.007759425923447713,-0.004473706666532523,-0.0004023702293597481,-0.0007042587064903231,-0.18296108221875707,-0.16647630896499657,-0.5263090375873459
0.0,-0.01352424757069111,-3.874236837299515e-28,-0.0056045366607201585,-0.043774662026385504,-0.0014602484438488437,-0.014142149689620106,-0.006895133908161016,-0.00336432062468625,-0.021695523566982403,-1.521952102531524e-22,-0.012216567755680557,-0.003355172517871091,-0.001198288013136425,-0.01263598781972305,-0.004582365802602898,-0.0020330848084588902,-0.0027339097625544216,-0.17832208261669782,-0.19460724813240232,-0.4778538733255287
0.0,0.0,0.0,0.0,0.0,0.0,0.0,0.0,0.0,0.0,0.0,0.0,0.0,0.0,0.0,0.0,0.0,0.0,0.0,0.024289594365989868,-1.2843806345744802e-30,0.0002946087859619934,0.08546694100051953,-2.1951360161768556e-06,0.005537248551608455,-9.695847518752862e-06,0.0037438373839372434,0.019264412677227574,-2.448554950423071e-25,0.016731938536856422,-3.816475900981233e-06,-1.156588242199208e-06,0.007518792822315197,-3.027516865653223e-06,-2.848176811260825e-06,0.007123844394691282,0.22119436465160572,0.6088115350165129
0.0,0.0,0.0,0.0,0.0,0.0,0.0,0.0,0.0,0.0,0.0,0.0,0.0,0.0,0.0,0.0,0.0,0.0,0.0,-0.023809463815336038,-1.2159688864505003e-16,-0.035714195722959946,-0.13690441693817626,-0.01190473190765333,-0.07142839144592021,-0.011904731907653026,-0.005952365953838899,-0.059523659538328506,1.1539651567681608e-28,-0.0357141957230091,-0.005952365953826645,-0.00595236595383913,-0.02976182976918684,-0.011904731907653175,-0.017857097861479616,-0.03571419572300272,0.0,-8.322223082356115e-14,0.0,-1.2890345166274113e-15,-2.1176909872359978e-13,-1.0998610485753451e-15,-4.2606762369064313e-47,-0.12499968503035834,-0.12499968503035834,-4.9024539021537454e-14,1.2940210944024586e-28,-0.12499968503039369,0.0,0.0,-4.831208891394648e-14,0.0,0.0,-0.12499968503035841
0.0,0.025795155829279003,-1.0312308525544733e-31,-5.579674227152706e-06,0.0783959146462473,-4.976038096935914e-07,-1.3557539674210462e-05,-1.0113589579188455e-06,0.003957772666757258,0.024279562809815924,-5.918301085657207e-26,0.009910532428459143,-5.056938984403221e-07,-2.2777008748104274e-06,0.010379869802790353,-5.53255016967937e-06,-4.976038096935914e-07,-8.709436975918644e-07,0.1526158743931407,0.18053824307784444,0.5140966087658401
0.0,0.026821438709458807,-5.1417775964596734e-31,-7.43818260236112e-06,0.07138759844888455,-1.9380004499365166e-06,0.004684689658767753,-9.151026780872788e-06,0.0023309104168043413,0.023655016327697346,-2.019891801229162e-25,0.017218054666556303,-4.452890106912447e-06,-1.5903339725471505e-06,0.009321101151766818,-6.081586338699354e-06,-2.698252677583598e-06,0.008192013630934676,0.16353884423206064,0.21044138743185634,0.4623754575952117
0.0,0.0,0.0,0.0,0.0,0.0,0.0,0.0,0.0,0.0,0.0,0.0,0.0,0.0,0.0,0.0,0.0,0.0,0.0,0.03836850987446018,0.004042744538721584,4.914468907634552e-07,0.08408372551683775,0.007064858372569181,9.236871789775751e-06,-1.6173971529221047e-08,6.2452218994490756e-06,0.02872349854425936,-4.084517416273267e-28,0.014569764276628512,-6.36639266913394e-09,0.003037997596330819,0.009488728107021992,-5.050303389631909e-09,-4.75114017278249e-09,0.018648007593299324,0.24640925185863513,0.5455467348471892
0.0,0.0,0.0,0.0,0.0,0.0,0.0,0.0,0.0,0.0,0.0,0.0,0.0,0.0,0.0,0.0,0.0,0.0,0.0,0.06878257194605614,0.017219320765146377,-0.0001420666717938782,0.17164861874291995,0.017171965207881754,-0.00028413334358775764,-4.735555726462491e-05,-2.3677778632361726e-05,0.06864050527426213,4.590331263788189e-31,0.03429657485849868,-2.367777863231298e-05,0.017195642986514013,0.034320252637130975,-4.735555726462551e-05,-7.103333589693767e-05,0.06873521638879146,0.0,-3.3104778402623797e-16,0.0,-5.127620541289607e-18,0.4993603021892441,-4.375111785210158e-18,-1.6948445297885474e-49,-0.0004972333512785678,-0.0004972333512785678,-1.9501357804738228e-16,5.147456533499474e-31,-0.0004972333512787084,0.0,0.0,-1.9217953926936295e-16,0.0,0.0,-0.0004972333512785681
0.0,0.021586545727414082,-1.0965407141488139e-34,-5.933045880661882e-09,0.07010415287646804,0.008057466247172731,-1.4416165109523155e-08,-1.0754102936602642e-09,4.208426130477328e-06,0.016224340139933006,-6.293118638701169e-29,0.002707461326392675,-5.377204795248861e-10,0.008057464354338646,1.103724720621875e-05,-5.882937364700202e-09,-5.291180296758609e-10,0.005405202427997803,0.13215777319743813,0.13218746394420197,0.6034967341872575
0.0,0.033275548954903485,0.00410791925224044,-1.1017709504773403e-08,0.06880395185888814,0.0068322828321544255,6.939134535892546e-06,-1.3554837267648348e-08,3.4526301956943673e-06,0.03634535010926987,-2.991937988985655e-28,0.011328520153168318,-6.595784518528391e-09,0.0017088055391385824,0.006854325771031552,-9.00826924936185e-09,-3.996751056186262e-09,0.015761573287326122,0.18502856813153806,0.2055493906322016,0.42439317393031817
0.0,0.0,0.0,0.0,0.0,0.0,0.0,0.0,0.0,0.0,0.0,0.0,0.0,0.0,0.0,0.0,0.0,0.0,0.0,-0.035251762349915165,3.5903201947226965e-05,4.364489716433271e-09,-0.08954802395206493,-0.002727304818914901,8.203171633838469e-08,-1.4363939164109387e-10,5.546317876718215e-08,-0.03453666798487208,-3.627418261253734e-30,0.00012939259063663334,-5.65392840150968e-11,2.698014682143319e-05,-0.03093584534073026,-4.485122934580919e-11,-4.219439132726761e-11,-0.01755719993981338,-0.21002366699298053,-0.5792261838322929
0.0,0.0,0.0,0.0,0.0,0.0,0.0,0.0,0.0,0.0,0.0,0.0,0.0,0.0,0.0,0.0,0.0,0.0,0.0,0.06878257194605614,0.017219320765146377,-0.0001420666717938782,0.17164861874291995,0.017171965207881754,-0.00028413334358775764,-4.735555726462491e-05,-2.3677778632361726e-05,0.06864050527426213,4.590331263788189e-31,0.03429657485849868,-2.367777863231298e-05,0.017195642986514013,0.034320252637130975,-4.735555726462551e-05,-7.103333589693767e-05,0.06873521638879146,0.0,-3.3104778402623797e-16,0.0,-5.127620541289607e-18,0.4993603021892441,-4.375111785210158e-18,-1.6948445297885474e-49,-0.0004972333512785678,-0.0004972333512785678,-1.9501357804738228e-16,5.147456533499474e-31,-0.0004972333512787084,0.0,0.0,-1.9217953926936295e-16,0.0,0.0,-0.0004972333512785681
0.0,-0.029814670971910016,-6.359669833598221e-37,-3.4410225194318544e-11,-0.07226520229584867,-0.005594692922790875,-8.361025649136383e-11,-6.237118526548405e-12,2.4407849488469548e-08,-0.014630014052292788,-3.6498559742826865e-31,1.570261815263209e-05,-3.118648189180041e-12,4.673133640036111e-05,-0.009105612005402436,-3.4119607971213204e-11,-3.068756069266961e-12,-0.009330549498753908,-0.14067828399690913,-0.14067811179778866,-0.5778397712305576
0.0,-0.04863396714345479,3.6918449643180926e-05,-9.901770910256564e-11,-0.06855296623404919,-0.0035103520990511705,6.236298067224326e-08,-1.2181923410842586e-10,3.1029274479226745e-08,-0.03585971872015676,-2.6888968647970343e-30,0.00010181100823206384,-5.92772456449225e-11,1.5357276366196667e-05,-0.033059704719271395,-8.095858614392142e-11,-3.591936538763941e-11,-0.020846668747692844,-0.21030919844839766,-0.21012477492261525,-0.3689475322812987
0.0,0.0,0.0,0.0,0.0,0.0,0.0,0.0,0.0,0.0,0.0,0.0,0.0,0.0,0.0,0.0,0.0,0.0,0.0,0.03219128241011924,7.307872735864776e-08,8.883646492467891e-12,0.09990367468085018,-5.551258786844835e-06,1.669704401815271e-10,0.0067429345702264614,1.1289183971748511e-10,0.024907459502925847,-7.383383535529376e-33,0.012575159054079698,-1.1508218480528977e-13,5.49164054102447e-08,0.024218853452577002,-9.129187881014962e-14,-8.588405079864029e-14,0.007511832481898016,0.23313195448588991,0.558810958132965
0.0,0.0,0.0,0.0,0.0,0.0,0.0,0.0,0.0,0.0,0.0,0.0,0.0,0.0,0.0,0.0,0.0,0.0,0.0,0.06878257194605614,0.017219320765146377,-0.0001420666717938782,0.17164861874291995,0.017171965207881754,-0.00028413334358775764,-4.735555726462491e-05,-2.3677778632361726e-05,0.06864050527426213,4.590331263788189e-31,0.03429657485849868,-2.367777863231298e-05,0.017195642986514013,0.034320252637130975,-4.735555726462551e-05,-7.103333589693767e-05,0.06873521638879146,0.0,-3.3104778402623797e-16,0.0,-5.127620541289607e-18,0.4993603021892441,-4.375111785210158e-18,-1.6948445297885474e-49,-0.0004972333512785678,-0.0004972333512785678,-1.9501357804738228e-16,5.147456533499474e-31,-0.0004972333512787084,0.0,0.0,-1.9217953926936295e-16,0.0,0.0,-0.0004972333512785681
0.0,0.0252962430536623,-9.335262221633174e-40,-5.051024403772622e-14,0.07624454166726087,-8.212364297254444e-06,-1.2273021857854498e-13,0.002280308827540168,3.582790949889635e-11,0.01169996872063186,-5.357567842770478e-34,0.01953382508490821,-4.5778160478096936e-15,6.859621500474938e-08,0.006187164832472628,-5.008365145433793e-14,-4.5045801669592176e-15,0.009330616010252426,0.15056452446358448,0.15056452471635295,0.5482898414938823
0.0,0.04274153004774113,7.291779851021652e-08,-1.9557032949832225e-13,0.07106356117894563,-6.933312463889109e-06,1.2317340796013328e-10,0.004918742797781502,6.128606174588848e-11,0.029711452088686627,-5.3108524788293264e-33,0.018471003480984786,-1.1707875861399942e-13,3.0332226693134614e-08,0.02752709205302106,-1.5990167326012983e-13,-7.094450263391572e-14,0.006786523438070518,0.21465911122917167,0.2146713267729922,0.3694424160709743
0.0,0.0,0.0,0.0,0.0,0.0,0.0,0.0,0.0,0.0,0.0,0.0,0.0,0.0,0.0,0.0,0.0,0.0,0.0,0.029167865391308518,9.516016851094955e-11,1.1567925821506716e-14,0.08180805024505466,0.0033980364562108015,0.006618471084611019,8.780377178874424e-06,0.0028984002485905975,0.018439967946784763,0.00014172954676848793,0.006449338398867469,-1.498553750797318e-16,7.150992609939189e-11,0.013123541724330504,-1.1887659904940875e-16,0.0016281715135230287,0.004256758957300092,0.18465920867823787,0.6474015447080564
0.0,0.0,0.0,0.0,0.0,0.0,0.0,0.0,0.0,0.0,0.0,0.0,0.0,0.0,0.0,0.0,0.0,0.0,0.0,0.06878257194605614,0.017219320765146377,-0.0001420666717938782,0.17164861874291995,0.017171965207881754,-0.00028413334358775764,-4.735555726462491e-05,-2.3677778632361726e-05,0.06864050527426213,4.590331263788189e-31,0.03429657485849868,-2.367777863231298e-05,0.017195642986514013,0.034320252637130975,-4.735555726462551e-05,-7.103333589693767e-05,0.06873521638879146,0.0,-3.3104778402623797e-16,0.0,-5.127620541289607e-18,0.4993603021892441,-4.375111785210158e-18,-1.6948445297885474e-49,-0.0004972333512785678,-0.0004972333512785678,-1.9501357804738228e-16,5.147456533499474e-31,-0.0004972333512787084,0.0,0.0,-1.9217953926936295e-16,0.0,0.0,-0.0004972333512785681
0.0,0.03677290511656124,-1.1788947455268044e-42,-6.378638315414627e-17,0.07323750839486837,0.008128348166837999,-1.549886937983521e-16,2.8796663994460254e-06,4.5244936080723694e-14,0.02122712917958845,-6.765753793191816e-37,0.012807719093798724,-5.781051626214504e-18,8.66260802452086e-11,0.0062140533720629176,-6.324766475170893e-17,-5.688566387911741e-18,0.004666487618370661,0.16305703069515803,0.16305703069547722,0.5108287732112159
0.0,0.023774402577925124,9.588513568893908e-11,-2.571702377719175e-16,0.07878279916297108,0.004070042396411029,0.002708838190407911,6.4680274256797545e-06,0.0013573746642056336,0.021692001882916565,-6.983642141707551e-36,0.008179863810066391,-1.5395572665873866e-16,3.9886142089319596e-11,0.021132007908415528,-2.1026682031942784e-16,0.0013632188942321172,0.007139650219948828,0.17022434908179768,0.18378558478148924,0.4757832615085389
0.0,0.0,0.0,0.0,0.0,0.0,0.0,0.0,0.0,0.0,0.0,0.0,0.0,0.0,0.0,0.0,0.0,0.0,0.0,0.04140156466124036,1.732391947781069e-13,2.105942208730012e-17,0.09268955560302013,6.1861292252007235e-06,1.2048934121299565e-05,1.598468661960436e-08,5.276540942156109e-06,0.018287636564780947,2.5801880075079615e-07,0.007212605719766218,-2.7281188041398594e-19,0.0002817958709429124,0.022262788825368057,-2.1641498349080565e-19,2.964088088294268e-06,0.04226437572946015,0.24309115277229407,0.5324815849215547
0.0,0.0,0.0,0.0,0.0,0.0,0.0,0.0,0.0,0.0,0.0,0.0,0.0,0.0,0.0,0.0,0.0,0.0,0.0,0.06878257194605614,0.017219320765146377,-0.0001420666717938782,0.17164861874291995,0.017171965207881754,-0.00028413334358775764,-4.735555726462491e-05,-2.3677778632361726e-05,0.06864050527426213,4.590331263788189e-31,0.03429657485849868,-2.367777863231298e-05,0.017195642986514013,0.034320252637130975,-4.735555726462551e-05,-7.103333589693767e-05,0.06873521638879146,0.0,-3.3104778402623797e-16,0.0,-5.127620541289607e-18,0.4993603021892441,-4.375111785210158e-18,-1.6948445297885474e-49,-0.0004972333512785678,-0.0004972333512785678,-1.9501357804738228e-16,5.147456533499474e-31,-0.0004972333512787084,0.0,0.0,-1.9217953926936295e-16,0.0,0.0,-0.0004972333512785681
0.0,0.03572085449993188,-1.3701840046436035e-45,-7.413645895319012e-20,0.08161364313905745,9.447266335383252e-06,-1.80137395597781e-19,3.346925460650355e-09,5.2586448403607984e-17,0.010229235824064006,-7.863575320836338e-40,1.4885919124569102e-05,-6.719093878663746e-21,1.0068216012271585e-13,7.222355148081934e-06,-7.351032728127656e-20,-6.611601844562372e-21,0.015306869010079046,0.1429021613607666,0.14290216136076703,0.5712933706350092
0.0,0.042433642065951606,1.5529610463809833e-13,-4.1651436239704245e-19,0.07476096748634764,6.5918635389432525e-06,4.387249556906985e-06,1.0475653569068513e-08,2.1984116346189643e-06,0.01723051946580254,-1.1310746060911686e-38,0.00641128348088528,-2.493475601306155e-19,6.459981988874184e-14,0.017603913197864883,-3.4054932389288875e-19,2.207876982414542e-06,0.041580326960178916,0.200036077171206,0.21602614257860644,0.38390156327658603
0.0,0.0,0.0,0.0,0.0,0.0,0.0,0.0,0.0,0.0,0.0,0.0,0.0,0.0,0.0,0.0,0.0,0.0,0.0,-0.027476273520450168,2.495729649652482e-15,-0.0029525271372249154,-0.06896631663911985,8.911901341777816e-08,-0.0055488198383986794,-0.0092902472020335,-0.004719507732194042,-0.012424242690510392,3.71708707158524e-09,-0.013791685348827873,-3.9302000889505224e-21,-0.006259857577385691,-0.018335465955155318,-3.1177314788310978e-21,4.270143679444423e-08,-0.013657005254793997,-0.26797412294881323,-0.5486023213394831
0.0,0.0,0.0,0.0,0.0,0.0,0.0,0.0,0.0,0.0,0.0,0.0,0.0,0.0,0.0,0.0,0.0,0.0,0.0,-0.05445676931589608,0.0007351148804147923,-0.012656392897245189,-0.17449036662504488,0.0007330932109604419,-0.015787369424441585,-0.03413536109826735,-0.01006847811022728,-0.031202988254425596,1.9596712693070344e-32,-0.044084718940777236,-1.010834727175298e-06,-0.02074890749424325,-0.05851087052483489,-2.0216694543505768e-06,-3.0325041815258398e-06,-0.04384927280439903,0.0,-0.04443235684266724,0.0,-2.1890469504767946e-19,-0.25384581518350585,-1.8677913145656961e-19,-7.235508594270511e-51,-2.122752927068105e-05,-0.044453584371937915,-8.325379674425477e-18,2.1975151898691287e-32,-0.05567200581837066,0.0,0.0,-0.10008313513176721,0.0,0.0,-2.1227529270681066e-05
0.0,-0.031086427519842127,-1.537191819978733e-47,-0.004949590906282824,-0.05694803190886135,1.0598766649366171e-07,-0.010373980253578618,-0.004696612866460976,-0.0005296160787450777,-0.003288321215418989,-8.822044059783338e-42,-0.008255158936427536,-7.538065043050644e-23,-0.003480876293997816,-0.014797872824901602,-8.247029114175797e-22,-7.41747111188992e-23,-0.008389609147895669,-0.15148914546572156,-0.1467959919647461,-0.5549175016833359
0.0,-0.022685328699130872,1.9280661621616233e-15,-0.004055612703666754,-0.05591175426066549,8.1840745874739e-08,-0.00910358636097153,-0.004796709869191884,-0.003610492383780698,-0.011093974452758951,-1.404276481993398e-40,-0.01317916873907141,-3.0957543618093928e-21,-0.004611996336150858,-0.012625162077716856,-4.228062445449225e-21,2.7411717183308207e-08,-0.01503647171244989,-0.17603977136963408,-0.20657081258867888,-0.4606777908742035
0.0,0.0,0.0,0.0,0.0,0.0,0.0,0.0,0.0,0.0,0.0,0.0,0.0,0.0,0.0,0.0,0.0,0.0,0.0,0.036946322488653864,4.0877458063600255e-18,-4.835932619959811e-06,0.09783624226673661,1.459676826038397e-10,-9.088390254056513e-06,0.00420123558557966,-7.730063207385557e-06,0.023218006538430796,6.088202338287483e-12,0.01040919854060436,-6.4372593137242926e-24,0.005048345351319914,0.013695625133443816,-5.106520163240867e-24,0.002592179590871632,0.02011689448303967,0.24650955213633163,0.5394045745939215
0.0,0.0,0.0,0.0,0.0,0.0,0.0,0.0,0.0,0.0,0.0,0.0,0.0,0.0,0.0,0.0,0.0,0.0,0.0,-0.05445676931589608,0.0007351148804147923,-0.012656392897245189,-0.17449036662504488,0.0007330932109604419,-0.015787369424441585,-0.03413536109826735,-0.01006847811022728,-0.031202988254425596,1.9596712693070344e-32,-0.044084718940777236,-1.010834727175298e-06,-0.02074890749424325,-0.05851087052483489,-2.0216694543505768e-06,-3.0325041815258398e-06,-0.04384927280439903,0.0,-0.04443235684266724,0.0,-2.1890469504767946e-19,-0.25384581518350585,-1.8677913145656961e-19,-7.235508594270511e-51,-2.122752927068105e-05,-0.044453584371937915,-8.325379674425477e-18,2.1975151898691287e-32,-0.05567200581837066,0.0,0.0,-0.10008313513176721,0.0,0.0,-2.1227529270681066e-05
0.0,0.03952932599538396,-2.0983319469011395e-50,-6.756401242681801e-06,0.07021643665870009,1.446776542072873e-10,-1.416092246893869e-05,-6.411075502638535e-06,-7.22948381054149e-07,0.03184774051001843,-1.2042463827233294e-44,0.00889109890598743,-1.0289778082393589e-25,0.008897616004024216,0.00509983793027793,-1.1257544069899023e-24,-1.012516225822114e-25,0.014010944103175597,0.1784585425513278,0.17846494890464998,0.4645553067895222
0.0,0.026151584096064957,2.7788865359662713e-18,-5.8452804984026125e-06,0.07996202994308589,1.1795557189270617e-10,-1.3120832709987332e-05,0.0046991529461520585,-5.203736713188526e-06,0.026056985456634398,-2.023958038976474e-43,0.010177990967312102,-4.4618542057945374e-24,0.0023453266059794164,0.01587978523833305,-6.093829160774715e-24,0.002351983147887025,0.020576620859093345,0.1999640131333275,0.20582093564945603,0.4059892733566185
0.0,0.0,0.0,0.0,0.0,0.0,0.0,0.0,0.0,0.0,0.0,0.0,0.0,0.0,0.0,0.0,0.0,0.0,0.0,0.0332383894211087,7.235628579255489e-21,-8.559977535269775e-09,0.090546508180365,2.583741714694613e-13,-1.6087158883354135e-08,7.436514331177084e-06,-1.3682814174938973e-08,0.020188291921962944,1.0776592508923518e-14,0.010197499657255995,-1.1394450552672105e-26,0.009433493242966622,0.02494578447118269,-9.038938570055439e-27,4.588359848866209e-06,0.02982952086387591,0.2365607172331601,0.545047547420606
0.0,0.0,0.0,0.0,0.0,0.0,0.0,0.0,0.0,0.0,0.0,0.0,0.0,0.0,0.0,0.0,0.0,0.0,0.0,0.047485146993825084,2.9666387750986305e-06,-5.107629694649144e-05,0.16388041150345597,2.958480100647198e-06,-6.371170484935339e-05,-0.00013775708876818368,-4.063247577192016e-05,0.06189222142214933,7.908473803023311e-35,0.018109267492269068,-4.079337225716893e-09,0.018203441783839133,0.10948693080296414,-8.15867445143371e-09,-1.2238011677150461e-08,0.08012836225214695,0.0,0.1417470520854385,0.0,-8.834145161272664e-22,0.28282830438107165,-7.5376819123243235e-22,-2.9199708678472767e-53,-8.566608174005391e-08,-0.00017939743923493543,-3.3598005995515206e-20,8.868319693726613e-35,-0.00022467064066925612,0.0,0.0,-0.0004038967477407114,0.0,0.0,0.07513119935438269
0.0,0.03711266552344022,-2.6554019796574823e-53,-8.55010631738849e-09,0.07605451890967573,1.8308701345446914e-13,-1.7920397015033162e-08,-8.11310269882767e-09,-9.14878394277149e-10,0.022277173850148494,-1.5239525058946977e-47,0.005574903958978885,-1.3021532236868445e-28,0.0074295179085414696,6.453754734083715e-06,-1.4246222983660077e-27,-1.2813213821835958e-28,0.007428896504533246,0.1558840868046239,0.1558840949117508,0.5323475152809877
0.0,0.03399659832306497,4.7206783386804245e-21,-9.929764556840925e-09,0.07349974117503756,2.0037893089684531e-13,-2.2289226263046867e-08,7.98276188535809e-06,-8.839931700775027e-09,0.01851538382368165,-3.4382313740895805e-46,0.012502160167096894,-7.57964682149947e-27,0.014983160338099209,0.023993846797393834,-1.0351990607232719e-26,3.995469320344512e-06,0.03248547467392643,0.21000832535767952,0.21999033349447433,0.36001277859324105
0.0,0.0,0.0,0.0,0.0,0.0,0.0,0.0,0.0,0.0,0.0,0.0,0.0,0.0,0.0,0.0,0.0,0.0,0.0,-0.03832699429222183,5.0067595005313545e-22,-5.923154896579387e-10,-0.09033997644993046,-0.0023566209956418526,-1.1131657007203414e-09,-0.005065275652115421,-0.009347014922284451,-0.008246452006506096,7.456961939989408e-16,0.000705625333464603,-7.884494475225795e-28,0.0006527592095154412,-0.030098637338767355,-6.254576373653627e-28,-0.0013452140877116474,-0.031248592040732867,-0.2137591575341293,-0.5685004927017198
0.0,0.0,0.0,0.0,0.0,0.0,0.0,0.0,0.0,0.0,0.0,0.0,0.0,0.0,0.0,0.0,0.0,0.0,0.0,0.047485146993825084,2.9666387750986305e-06,-5.107629694649144e-05,0.16388041150345597,2.958480100647198e-06,-6.371170484935339e-05,-0.00013775708876818368,-4.063247577192016e-05,0.06189222142214933,7.908473803023311e-35,0.018109267492269068,-4.079337225716893e-09,0.018203441783839133,0.10948693080296414,-8.15867445143371e-09,-1.2238011677150461e-08,0.08012836225214695,0.0,0.1417470520854385,0.0,-8.834145161272664e-22,0.28282830438107165,-7.5376819123243235e-22,-2.9199708678472767e-53,-8.566608174005391e-08,-0.00017939743923493543,-3.3598005995515206e-20,8.868319693726613e-35,-0.00022467064066925612,0.0,0.0,-0.0004038967477407114,0.0,0.0,0.07513119935438269
0.0,-0.0435933893844436,-1.4227147590882076e-54,-4.580987188648171e-10,-0.07515753329093265,-0.0012119393522970537,-9.601413841416424e-10,-0.004541124599034142,-0.005528839187261512,-0.00443462484466963,-8.165052744916278e-49,0.0002986929362748165,-6.976693638574925e-30,0.0003980596859672267,-0.01075085308539578,-7.63286005485663e-29,-0.0021674493793043875,-0.024956740520271962,-0.19986334793484847,-0.17164574243960876,-0.455446105690797
0.0,-0.039597912569309834,3.457944906215785e-22,-7.273653552690113e-10,-0.06550324545232707,-0.0039603061970092555,-1.6327084984430209e-09,-0.009837974336788381,-0.01021758487053531,-0.009743292084004831,-2.518539458409229e-47,0.0009157959506004221,-5.5521684039682525e-28,0.0010975317370305584,-0.03301027343719261,-7.582938429878342e-28,-0.0014659369015609506,-0.03567737069686221,-0.23666737909721902,-0.20626791227055144,-0.34602997380966166
0.0,0.0,0.0,0.0,0.0,0.0,0.0,0.0,0.0,0.0,0.0,0.0,0.0,0.0,0.0,0.0,0.0,0.0,0.0,0.02872085677453726,8.051691431370582e-25,-9.525405708504198e-13,0.08717051114127915,-3.789833539155171e-06,-1.7901532384837745e-12,-8.145795011991192e-06,-1.5031534858157995e-05,0.026873476842101562,1.1992019299089025e-18,0.0077221321138958845,-1.2679561820400383e-30,0.0027725853091658745,0.0321374063660253,-1.0058385865998817e-30,0.001235331615596617,0.0347131444095707,0.2340233228608417,0.5446040999896582
0.0,0.0,0.0,0.0,0.0,0.0,0.0,0.0,0.0,0.0,0.0,0.0,0.0,0.0,0.0,0.0,0.0,0.0,0.0,0.039502829461873216,1.0799532852359935e-08,-1.8593438186022057e-07,0.1710264396501187,1.0769832616015176e-08,-2.3193138826872382e-07,-5.014807391735795e-07,-1.4791546603343438e-07,0.06577525460385866,2.878942436965169e-37,0.01317591298663011,-1.485011817238172e-11,0.013176255811770872,0.09216849356280427,-2.9700236344763165e-11,0.013109989301204933,0.09206161879657919,0.0,0.1250609042918408,0.0,-3.2159170065627154e-24,0.2501193848552643,-2.743962093601349e-24,-1.0629646446996976e-55,-3.1185248162001307e-10,-6.53065197862695e-07,-1.2230770141885215e-22,3.228357651141636e-37,-8.178744191017048e-07,0.0,0.0,-1.4703159120011598e-06,0.0,0.0,0.12481840085795608
0.0,0.033068431093838016,-1.9476674269328274e-57,-6.271277832419999e-13,0.05935884234328728,-1.6591202029841974e-06,-1.3144139309704989e-12,-6.216706761972825e-06,-7.568867845779749e-06,0.025560722324965975,-1.1177790325766872e-51,0.0062026349719697975,-9.550950997549461e-33,5.449355743173327e-07,0.02551609760318552,-1.0449229410334158e-31,-2.967193900696158e-06,0.038611487752418905,0.18826171980939144,0.2028784596080824,0.4205225002380652
0.0,0.027948588731934485,5.321210842529878e-25,-1.119296148409062e-12,0.06746458409129769,-6.094262588563311e-06,-2.5124709618677568e-12,-1.5139031167138637e-05,-1.572318960311652e-05,0.032478813211636516,-3.875619721221269e-50,0.004577744238421708,-8.543877797948946e-31,0.0022876552195578033,0.03157545957875886,-1.1668900253087827e-30,0.001140736381467133,0.04388874591010679,0.2112797185179165,0.2285353865558281,0.3487854530334458
0.0,0.0,0.0,0.0,0.0,0.0,0.0,0.0,0.0,0.0,0.0,0.0,0.0,0.0,0.0,0.0,0.0,0.0,0.0,0.027013318609270056,1.1381190700597491e-27,0.0020714865273081585,0.08051273272950496,0.006172272047233614,0.0043216773344654,0.004140175862907063,-2.1247307624933874e-08,0.01704307293383726,1.6950905246619106e-21,0.014149991816236523,-1.792275726262243e-33,3.919092330631012e-06,0.010654117267405056,-1.4217684402945437e-33,1.7461603956659628e-06,4.906756794024989e-05,0.22328549603976172,0.6105807579759471
0.0,0.0,0.0,0.0,0.0,0.0,0.0,0.0,0.0,0.0,0.0,0.0,0.0,0.0,0.0,0.0,0.0,0.0,0.0,0.039502829461873216,1.0799532852359935e-08,-1.8593438186022057e-07,0.1710264396501187,1.0769832616015176e-08,-2.3193138826872382e-07,-5.014807391735795e-07,-1.4791546603343438e-07,0.06577525460385866,2.878942436965169e-37,0.01317591298663011,-1.485011817238172e-11,0.013176255811770872,0.09216849356280427,-2.9700236344763165e-11,0.013109989301204933,0.09206161879657919,0.0,0.1250609042918408,0.0,-3.2159170065627154e-24,0.2501193848552643,-2.743962093601349e-24,-1.0629646446996976e-55,-3.1185248162001307e-10,-6.53065197862695e-07,-1.2230770141885215e-22,3.228357651141636e-37,-8.178744191017048e-07,0.0,0.0,-1.4703159120011598e-06,0.0,0.0,0.12481840085795608
0.0,0.022625345513745152,-2.1555437978995378e-60,-6.940617196574394e-16,0.051064310706784334,0.009558842572896839,-1.4547025624585368e-15,0.00930457451162302,-8.376700208918395e-09,0.015177538212155247,-1.2370806369582117e-54,0.022299852346062302,-1.0570332954241154e-35,6.030970591957537e-10,2.8239454628946114e-05,-1.156448546441294e-34,-3.283885288302625e-09,4.273252804944659e-05,0.15592648456640468,0.18177796926819906,0.5321939763153631
0.0,0.023360053178086655,6.276467858674879e-28,-1.3202307722292837e-15,0.038809865380582925,0.018657474290906063,0.0040282914309562904,0.008944709250627328,-1.8545796642948505e-08,0.02247255175834048,-4.571366054183034e-53,0.013032059786440382,-1.0077663895343265e-33,2.6983321808120487e-06,0.00957277268864978,-1.3763686414983031e-33,1.3455199287114771e-06,5.176759786713658e-05,0.1619917480275284,0.21962775132690715,0.47944677001866554
0.0,0.0,0.0,0.0,0.0,0.0,0.0,0.0,0.0,0.0,0.0,0.0,0.0,0.0,0.0,0.0,0.0,0.0,0.0,-0.01637260797709493,1.0858677883053155e-29,-0.00671557347052521,-0.048949872560625045,-0.009106784289922044,-0.017766488935788312,3.950099533271091e-05,-2.0271839340077482e-10,-0.004212210178554751,1.6172685683012886e-23,-0.013572001270608982,-1.709991977208074e-35,3.7391659916595596e-08,-0.0018684976864662664,-1.3564947573226088e-35,1.6659938109714575e-08,-0.010765836921018436,-0.17547793905608183,-0.6951516550433888
0.0,0.0,0.0,0.0,0.0,0.0,0.0,0.0,0.0,0.0,0.0,0.0,0.0,0.0,0.0,0.0,0.0,0.0,0.0,0.039502829461873216,1.0799532852359935e-08,-1.8593438186022057e-07,0.1710264396501187,1.0769832616015176e-08,-2.3193138826872382e-07,-5.014807391735795e-07,-1.4791546603343438e-07,0.06577525460385866,2.878942436965169e-37,0.01317591298663011,-1.485011817238172e-11,0.013176255811770872,0.09216849356280427,-2.9700236344763165e-11,0.013109989301204933,0.09206161879657919,0.0,0.1250609042918408,0.0,-3.2159170065627154e-24,0.2501193848552643,-2.743962093601349e-24,-1.0629646446996976e-55,-3.1185248162001307e-10,-6.53065197862695e-07,-1.2230770141885215e-22,3.228357651141636e-37,-8.178744191017048e-07,0.0,0.0,-1.4703159120011598e-06,0.0,0.0,0.12481840085795608
0.0,0.022625345513745152,-2.1555437978995378e-60,-6.940617196574394e-16,0.051064310706784334,0.009558842572896839,-1.4547025624585368e-15,0.00930457451162302,-8.376700208918395e-09,0.015177538212155247,-1.2370806369582117e-54,0.022299852346062302,-1.0570332954241154e-35,6.030970591957537e-10,2.8239454628946114e-05,-1.156448546441294e-34,-3.283885288302625e-09,4.273252804944659e-05,0.15592648456640468,0.18177796926819906,0.5321939763153631
0.0,-0.014307167150566286,5.5716566622042896e-30,-0.004143020770845976,-0.03986298905988176,-0.009641226056237243,-0.0188316168960069,7.940269911341487e-05,-1.6463210478924648e-10,-0.0031688177367384524,-4.058027971251464e-55,-0.01437208815490373,-8.946000273758985e-36,2.395325015690556e-08,-0.002323950262402633,-1.2218103691001984e-35,1.1944257891120149e-08,-0.011561113200751703,-0.117927862088089,-0.1516677101936749,-0.6121120813523457
0.0,0.0,0.0,0.0,0.0,0.0,0.0,0.0,0.0,0.0,0.0,0.0,0.0,0.0,0.0,0.0,0.0,0.0,0.0,0.03608129489648047,1.93097977475652e-32,-1.1942187333610721e-05,0.0927723714631811,-1.6194435884643322e-05,-3.1593837825306806e-05,7.02439319884954e-08,0.01029411318534637,0.022956643863713863,2.875960526108863e-26,-2.4134853468134188e-05,-3.0408489491505984e-38,6.649293755753152e-11,0.03056679341751012,-2.412231000093652e-38,2.962607776473512e-11,0.03468611976291317,0.22719140697343065,0.5453671358414729
0.0,0.0,0.0,0.0,0.0,0.0,0.0,0.0,0.0,0.0,0.0,0.0,0.0,0.0,0.0,0.0,0.0,0.0,0.0,0.039502829461873216,1.0799532852359935e-08,-1.8593438186022057e-07,0.1710264396501187,1.0769832616015176e-08,-2.3193138826872382e-07,-5.014807391735795e-07,-1.4791546603343438e-07,0.06577525460385866,2.878942436965169e-37,0.01317591298663011,-1.485011817238172e-11,0.013176255811770872,0.09216849356280427,-2.9700236344763165e-11,0.013109989301204933,0.09206161879657919,0.0,0.1250609042918408,0.0,-3.2159170065627154e-24,0.2501193848552643,-2.743962093601349e-24,-1.0629646446996976e-55,-3.1185248162001307e-10,-6.53065197862695e-07,-1.2230770141885215e-22,3.228357651141636e-37,-8.178744191017048e-07,0.0,0.0,-1.4703159120011598e-06,0.0,0.0,0.12481840085795608
0.0,0.03053549122998207,-3.104788978773353e-63,-9.997083705191927e-19,0.06845386092812694,1.376830714322736e-05,-2.0953155708159365e-18,1.3402066069830338e-05,0.00434026298620177,0.038314829485620205,-1.7818586341063924e-57,3.212012479625534e-05,-1.522523146607958e-38,8.686852497946172e-13,0.010096455430993582,-1.6657182772199637e-37,-4.730022586696303e-12,0.030094372055985887,0.18193176035255315,0.18196899615581788,0.45420452883164564
