0.0,0.0,0.0,0.0,0.0,0.0,0.0,0.0,0.0,0.0,0.0,0.0,0.0,0.0,0.0,0.0,0.0,0.0,0.0,0.032281666651783246,0.0,0.0,0.0842959028745213,0.0,0.0,0.0,0.008120213879367932,0.02642921388385382,0.0,0.008698582781793912,0.0,0.001433477148083863,0.029482573203165028,0.0,0.005356260192447618,0.02194718559957766,0.23308266767766983,0.5488720884022549
0.0,0.0,0.0,0.0,0.0,0.0,0.0,0.0,0.0,0.0,0.0,0.0,0.0,0.0,0.0,0.0,0.0,0.0,0.0,0.04411762519135131,0.0,0.0,0.14705875063783772,0.0,0.0,0.0,0.014705875063783768,0.07352937531891886,0.0,0.014705875063783768,0.0,0.014705875063783768,0.08823525038270263,0.0,0.014705875063783768,0.08823525038270263,0.0,0.0,0.0,0.0,0.12499993804216204,0.0,0.0,0.0,0.0,0.24999987608432409,0.0,0.0,0.0,0.0,0.12499993804216204,0.0,0.0,0.0
0.0,0.028911560190253687,0.0,0.0,0.07539681382948511,0.0,0.0,0.0,0.002267573348255191,0.006802720044765573,0.0,0.002267573348255191,0.0,0.0,0.03401360022382787,0.0,0.002267573348255191,0.03854874692033825,0.19047616125343608,0.2063491746912224,0.4126983493824448
0.0,0.03090277267199129,0.0,0.0,0.06504628554928504,0.0,0.0,0.0,0.008680554121345871,0.035763882979944976,0.0,0.008680554121345873,0.0,0.0013888886594153394,0.03229166133140663,0.0,0.006249998967369027,0.0262731438072735,0.2152777422093776,0.23611107210060767,0.3333332782596814
0.0,0.0,0.0,0.0,0.0,0.0,0.0,0.0,0.0,0.0,0.0,0.0,0.0,0.0,0.0,0.0,0.0,0.0,0.0,-0.028369208423903357,0.0,-0.0027350386017062243,-0.07380081240030814,0.0,-0.007122825228977491,0.0,-0.003627743046065191,-0.020172407111958748,-0.00012625471724680374,-0.005881317378267717,0.0,-0.0006404125350525099,-0.02162302227439943,0.0,-0.0023929339737514543,-0.0119124496907578,-0.18512253880528762,-0.6364721220960485
0.0,0.0,0.0,0.0,0.0,0.0,0.0,0.0,0.0,0.0,0.0,0.0,0.0,0.0,0.0,0.0,0.0,0.0,0.0,-0.044117492260607086,0.0,0.0,-0.14705830753535695,0.0,0.0,0.0,-0.014705830753535695,-0.07352915376767848,0.0,-0.014705830753535695,0.0,-0.014705830753535695,-0.08823498452121419,0.0,-0.014705830753535695,-0.08823498452121419,0.0,0.0,0.0,0.0,-0.12499956140505343,0.0,0.0,0.0,0.0,-0.24999912281010686,0.0,0.0,0.0,0.0,-0.12499956140505343,0.0,0.0,0.0
0.0,-0.025830003025055292,0.0,0.0,-0.05837913403136194,0.0,-0.007886857580795388,0.0,-0.0011271076234759608,-0.014179987548180558,0.0,-0.0023345825484550006,0.0,0.0,-0.025915654593738357,0.0,-0.0011271076234759612,-0.02574385904799596,-0.16252429362253445,-0.17041404698686616,-0.5045365020408267
0.0,-0.026832836814658326,0.0,-0.0032265570772318113,-0.054257435920217284,0.0,-0.009811955495519158,0.0,-0.004811454523768947,-0.03332374560668095,0.0,-0.0074311947922083,0.0,-0.000769832723803031,-0.02801516723761187,0.0,-0.003464247257113634,-0.020613891780096857,-0.19255831922891012,-0.2041058100859557,-0.4107765469626402
0.0,0.0,0.0,0.0,0.0,0.0,0.0,0.0,0.0,0.0,0.0,0.0,0.0,0.0,0.0,0.0,0.0,0.0,0.0,-0.028146857065421728,0.0,-0.0017522554616207795,-0.08002779569674688,-0.00091714586988609,-0.004558419611167423,0.0,-0.00243508886107976,-0.026338399933436545,-8.002800182379964e-05,-0.006667422368084694,0.0,-0.0014339408488555103,-0.021640504310411555,0.0,-0.004785855521899803,-0.01218909763444956,-0.2040302229683516,-0.60499636524542
0.0,0.0,0.0,0.0,0.0,0.0,0.0,0.0,0.0,0.0,0.0,0.0,0.0,0.0,0.0,0.0,0.0,0.0,0.0,-0.03834788880866232,0.0,0.0,-0.17071147082586985,-0.009236179194407047,0.0,0.0,-0.0050641141298578204,-0.08542083384600617,0.0,-0.014300293324264867,0.0,-0.014300293324264867,-0.08567156307944672,0.0,-0.023536472518671914,-0.05341003433209329,0.0,-0.054637193686539,0.0,0.0,-0.17963600474471145,-0.04097692047719048,0.0,0.0,0.0,-0.18170405437131243,0.0,0.0,0.0,0.0,-0.04304497010379149,0.0,0.0,0.0
0.0,-0.02201399374563292,0.0,0.0,-0.06425744925576729,-0.0007378420979296248,-0.0052421838769957044,0.0,-0.0007782830269179242,-0.017749960219985532,0.0,-0.0015823241566993943,0.0,-0.0007438981417804457,-0.020660676280150673,0.0,-0.0030161194144573376,-0.020622843359561917,-0.15740557357587875,-0.16285355476430421,-0.5223347909616711
0.0,-0.02493155778658706,0.0,-0.002020042150706921,-0.05940783812327031,-0.0020283403877536135,-0.006095481649432524,0.0,-0.0030996740164062203,-0.03746537351715701,0.0,-0.007151770744083451,0.0,-0.002065470830867448,-0.027873320350572734,0.0,-0.005255058808523712,-0.017409773244451532,-0.19480370160981245,-0.20701211911842898,-0.40337986356269623
0.0,0.0,0.0,0.0,0.0,0.0,0.0,0.0,0.0,0.0,0.0,0.0,0.0,0.0,0.0,0.0,0.0,0.0,0.0,-0.029424485959540177,0.0,-0.0015626733669571215,-0.08545482963897079,-0.0008184272876730883,-0.004066055504294895,0.0,-0.0021612281893904706,-0.024744572073401458,-7.151273056228419e-05,-0.005936196459678186,0.0,-0.00897237229653896,-0.02081254358850232,0.0,-0.004263047210024376,-0.010844056567568318,-0.21074539301603665,-0.5901219024950045
0.0,0.0,0.0,0.0,0.0,0.0,0.0,0.0,0.0,0.0,0.0,0.0,0.0,0.0,0.0,0.0,0.0,0.0,0.0,-0.0621471872886404,0.0,0.0,-0.22640913987222627,-0.0034819213285084915,0.0,0.0,-0.0018282792081194433,-0.058613117877988244,0.0,-0.005310200536627934,0.0,-0.06162366691878288,-0.05214353040215162,0.0,-0.008792121865136423,-0.01964993485889623,0.0,-0.07788837641120881,0.0,0.0,-0.2601550133084018,-0.015447752578463354,0.0,0.0,0.0,-0.09658937801192928,0.0,0.0,0.0,-0.01473137684824021,-0.035187202998834474,0.0,0.0,0.0
0.0,-0.023319002700469636,0.0,0.0,-0.06652235865463992,-0.0006467848649826495,-0.004607494138640526,0.0,-0.0006813566897062654,-0.015578903581866938,0.0,-0.001387807878773685,0.0,-0.0033588018932851566,-0.019419261807257008,0.0,-0.0026457608824661588,-0.018074204573552004,-0.15624173766563998,-0.16101123449358382,-0.5265047247493447
0.0,-0.025310554865454624,0.0,-0.0017413468216059842,-0.06360771608630571,-0.0017553655816024327,-0.005262044425666588,0.0,-0.002667015479238852,-0.033595658466582606,0.0,-0.006170906815972237,0.0,-0.011290486266570806,-0.026231245908195477,0.0,-0.004541073509861635,-0.015014035555405947,-0.1971874497824629,-0.2077152794990488,-0.3979091228668791
0.0,0.0,0.0,0.0,0.0,0.0,0.0,0.0,0.0,0.0,0.0,0.0,0.0,0.0,0.0,0.0,0.0,0.0,0.0,0.030438216424095117,0.0,0.0010791766694023288,0.08870505602690755,0.0006523189739126859,0.00280096034594777,0.0,0.0016750715183221064,0.022804574997639538,4.8165021416604564e-05,0.008830506446965383,0.0,0.006727312347320708,0.026287512395249752,0.0,0.0032036098426483487,0.014210173903967548,0.22372403303547647,0.5688131602228752
0.0,0.0,0.0,0.0,0.0,0.0,0.0,0.0,0.0,0.0,0.0,0.0,0.0,0.0,0.0,0.0,0.0,0.0,0.0,0.06258054045001421,0.0,0.0,0.2274550813967408,0.003380656167338968,0.0,0.0,0.0017631074898163152,0.05812174032516715,0.0,0.005143763657155284,0.0,0.06250637278761038,0.05151764558784215,0.0,0.00852441982449425,0.01900648267976121,0.0,0.07834225206774989,0.0,0.0,0.2616913984495236,0.014998728655668423,0.0,0.0,0.0,0.09497537728813762,0.0,0.0,0.0,0.015002876091879173,0.034989177812982095,0.0,0.0,0.0
0.0,0.022524789319195056,0.0,0.0,0.06795919660910447,0.0003047999178989762,0.0019435843659084194,0.0,0.00030157732000056443,0.014766931550732474,0.0,0.011893967753368768,0.0,0.0015716384388983335,0.02287802023883566,0.0,0.001213733358738238,0.024496398430142556,0.1698546373028235,0.18051438275844264,0.4797762179303344
0.0,0.0243633891505346,0.0,0.001109452797643502,0.06468297759318427,0.0011917842904334212,0.003295053253689177,0.0,0.0020205116932747475,0.029658877377076162,0.0,0.013115250111631937,0.0,0.007570033122195971,0.03413951034693738,0.0,0.003000669818800855,0.01978132263187829,0.20392883218728003,0.219335031228177,0.3728071551642107
0.0,0.0,0.0,0.0,0.0,0.0,0.0,0.0,0.0,0.0,0.0,0.0,0.0,0.0,0.0,0.0,0.0,0.0,0.0,0.027773757094202538,0.0,0.0014712072711507882,0.0867755453426049,0.0004750959599683724,0.00504853064349152,0.00047645915349941553,0.0012198910218144431,0.019969986400814266,3.50749005637681e-05,0.011603149295428203,0.0,0.004899821761508037,0.02171020528697831,0.0001532498151807322,0.002333409598918802,0.013590794687931966,0.2293959567314054,0.5730677175584866
0.0,0.0,0.0,0.0,0.0,0.0,0.0,0.0,0.0,0.0,0.0,0.0,0.0,0.0,0.0,0.0,0.0,0.0,0.0,0.06257901948440528,0.0,0.0,0.22745152661006454,0.0033810243786683153,0.0,0.0,0.0017633131991644894,0.05812345226717404,0.0,0.005144337577832805,0.0,0.06250335225710728,0.051519784954245,0.0,0.008525361956501123,0.019008634873590554,0.0,0.07834077103789602,0.0,0.0,0.2616862638793615,0.015000362291402856,0.0,0.0,0.0,0.094980804395526,0.0,0.0,0.0,0.015001935313232366,0.03498967064133476,0.0,0.0,0.0
0.0,0.0216656172526749,0.0,0.0,0.06776169582120939,0.0002753737395952758,0.0022932939779191173,0.0,0.00027244500693996543,0.01359059017538697,0.0,0.012064454550073937,0.0,0.0014198723770430445,0.020902623573887526,0.0002687766035308557,0.0010965270891250647,0.02289644358519617,0.1645077137525821,0.17788143596028697,0.4931030133409786
0.0,0.024172220557741247,0.0,0.0010347710995332947,0.06348821790132474,0.0008901965066750455,0.004880307961650506,0.000205294294614768,0.0015086545262788255,0.025082127993187032,0.0,0.015923834482437907,0.0,0.005654144306233708,0.027999374008576657,0.00046477490943721644,0.002241241475835618,0.01785345187211091,0.1913986118956374,0.21731401809255418,0.39988861530885705
0.0,0.0,0.0,0.0,0.0,0.0,0.0,0.0,0.0,0.0,0.0,0.0,0.0,0.0,0.0,0.0,0.0,0.0,0.0,0.028058845648308597,0.0,0.0012665123466773253,0.08617921489955013,0.0004087639525737878,0.004347251333235156,0.0015789474194131418,0.0020354187851813095,0.02196004567470538,0.0006163632413801062,0.010713363323692654,0.0,0.004215370955824594,0.022148844198773665,0.0001320698213635485,0.0020075290264060337,0.014423873230119913,0.23116321005028057,0.5687442232709397
0.0,0.0,0.0,0.0,0.0,0.0,0.0,0.0,0.0,0.0,0.0,0.0,0.0,0.0,0.0,0.0,0.0,0.0,0.0,0.0625790633381988,0.0,0.0,0.22745175376238372,0.0033810274073557754,0.0,0.0,0.0017632823513251713,0.05812338818077581,0.0,0.005144309758680944,0.0,0.06250352348940068,0.0515196602893347,0.0,0.00852533716603672,0.01900845744511153,0.0,0.07834093433699471,0.0,0.0,0.2616866894846689,0.01500037670204066,0.0,0.0,0.0,0.09498038902512647,0.0,0.0,0.0,0.015001975701901869,0.034989437937871126,0.0,0.0,0.0
0.0,0.02026262478947654,0.0,0.0,0.06667830259276226,0.0002392134670462163,0.0019918695028713286,0.000743810151524383,0.0007067215967938858,0.017521303978561102,0.0,0.011418098798046766,0.0,0.0012333674024237408,0.02058118407691572,0.00023367527590670756,0.0009524410692162281,0.021686361615379405,0.16752502314511553,0.18243948005086347,0.4857863967145392
0.0,0.023806233119990836,0.0,0.0008544892909522817,0.06360752544839454,0.0007350194681228558,0.004032033059408242,0.0015227148262458008,0.0026117758661373894,0.028754666638822854,0.0006828112423279686,0.0144510787936838,0.0,0.004668177521198266,0.028426174828636734,0.0003843812712237106,0.0018503583881012066,0.01753330682414139,0.19903729764224048,0.21874802744959887,0.38829378034239653
0.0,0.0,0.0,0.0,0.0,0.0,0.0,0.0,0.0,0.0,0.0,0.0,0.0,0.0,0.0,0.0,0.0,0.0,0.0,-0.028070892485882883,0.0,-0.0011527509898796248,-0.08559992210800975,-0.0003398408675837891,-0.003955874241846919,-0.0015047763336821696,-0.001784593779071465,-0.02363305771464981,-0.0005497237288665389,-0.011328166243069166,0.0,-0.003577488248521082,-0.02344709757661464,-0.00012012078031445309,-0.0016888859228630575,-0.013184505600541107,-0.2325416307706833,-0.5675200047656516
0.0,0.0,0.0,0.0,0.0,0.0,0.0,0.0,0.0,0.0,0.0,0.0,0.0,0.0,0.0,0.0,0.0,0.0,0.0,-0.06256659755536803,0.0,0.0,-0.2273914846593287,-0.003380603172865315,0.0,0.0,-0.0017710979878766164,-0.058140609071352524,0.0,-0.005151701160741933,0.0,-0.0624581641695296,-0.051552286451679176,0.0,-0.008532304333607245,-0.019054266901370905,0.0,-0.07829889193499803,0.0,0.0,-0.26157574432847125,-0.014998253655425146,0.0,0.0,0.0,-0.09508780921179433,0.0,0.0,0.0,-0.01499106677303036,-0.035047349560000905,0.0,0.0,0.0
0.0,-0.023793588799674466,0.0,0.0,-0.06585766356718507,-0.00018374589711802702,-0.0017113921601303924,-0.0006274476482784436,-0.000588206387763089,-0.021400189492093106,0.0,-0.013020101312598663,0.0,-0.0009586235452177782,-0.021786416973101085,-0.0002037289827060365,-0.000750907293485895,-0.018110310445114783,-0.17181101968962273,-0.18393284332165583,-0.4752632427260215
0.0,-0.024367370774153612,0.0,-0.0007633805603669813,-0.06429262386499364,-0.00061538584859041,-0.0036616072575247943,-0.0013563984506616313,-0.0022974497161891753,-0.030494486372639417,-0.0006090187211657243,-0.015545014606045947,0.0,-0.0039822564119923595,-0.02948857462781661,-0.00034405173631258675,-0.0015904574751766272,-0.015836965317053253,-0.19983015563061202,-0.2202760411831017,-0.38464810674008526
0.0,0.0,0.0,0.0,0.0,0.0,0.0,0.0,0.0,0.0,0.0,0.0,0.0,0.0,0.0,0.0,0.0,0.0,0.0,-0.02761911528442399,0.0,-0.0016774665193933411,-0.08455517788051274,-0.0003046893474012339,-0.004402766886861469,-0.0017946787406921598,-0.0019383026606567182,-0.023846087412771683,-0.0005053038574549179,-0.010337375004504655,0.0,-0.00379702648000161,-0.023210838937445584,-0.00011122309679950064,-0.0015209812484358147,-0.011998171855206621,-0.22756700567556767,-0.574812837225467
0.0,0.0,0.0,0.0,0.0,0.0,0.0,0.0,0.0,0.0,0.0,0.0,0.0,0.0,0.0,0.0,0.0,0.0,0.0,-0.06314991005848095,0.0,-0.0023767179926306842,-0.2226067968704019,-0.003026941199311279,-0.0047534359852613685,-0.0023767179926306842,-0.0015883119718128767,-0.059195998072993805,0.0,-0.004615253171124154,0.0,-0.05828915972939426,-0.05330144290698466,0.0,-0.0076421943704354355,-0.017075880421827255,0.0,-0.09624153715131054,0.0,0.0,-0.24725866063006863,-0.013429135730947027,-0.013071948959468763,0.0,0.0,-0.08517727788098799,0.0,0.0,0.0,-0.013419970534768448,-0.0314002298557379,0.0,0.0,0.0
0.0,-0.022805566857860272,0.0,-0.002133208945529289,-0.06283275407314495,-0.0001479401225684857,-0.003704830452514017,-0.0012197622689103333,-0.0020980539899921324,-0.023042916580368295,0.0,-0.010704375111662136,0.0,-0.0020597718535004935,-0.020952613686988916,-0.00017175720833701724,-0.0006107393559098858,-0.014866281710565017,-0.17487441627121353,-0.1796859566815172,-0.47808823172916226
0.0,-0.023885206491527786,0.0,-0.0018377178391968882,-0.06257782755997494,-0.0005371879770367064,-0.0046814306556895455,-0.0017545408689899234,-0.0029064051259278722,-0.032211760525997064,-0.0005437546424824772,-0.013789694211524458,0.0,-0.00461410605592087,-0.02949898222209659,-0.00030775996515742735,-0.001402142818912112,-0.014037895925069871,-0.2012017179397928,-0.21687190581665586,-0.3873390217372223
0.0,0.0,0.0,0.0,0.0,0.0,0.0,0.0,0.0,0.0,0.0,0.0,0.0,0.0,0.0,0.0,0.0,0.0,0.0,-0.028118003456334813,0.0,-0.00155370899764342,-0.08605682238991642,-0.0002880181753962054,-0.0040335901328044455,-0.0016567686102687904,-0.0017981906034605288,-0.02417241172296331,-0.00046270960350066573,-0.009538687168941523,0.0,-0.00400914103373998,-0.02492913393074373,-0.00010090224720884777,-0.0014296121449036932,-0.012724720022155397,-0.228282470694153,-0.5708445206447377
0.0,0.0,0.0,0.0,0.0,0.0,0.0,0.0,0.0,0.0,0.0,0.0,0.0,0.0,0.0,0.0,0.0,0.0,0.0,-0.05858821267575911,0.0,-0.001900667493852813,-0.21601847130214513,-0.002357237558965346,-0.003801334987705626,-0.001900667493852813,-0.0012343809589889627,-0.059368905911793335,0.0,-0.003591618517954309,0.0,-0.05167092122988794,-0.06388127901256677,0.0,-0.005948856076919651,-0.029736699814971297,0.0,-0.10973982960217833,0.0,0.0,-0.19285162076741857,-0.010458046498403692,-0.010453671216190466,0.0,0.0,-0.0868337646192661,0.0,0.0,0.0,-0.010453664638710026,-0.0586671450445349,0.0,0.0,-0.02054151064866097
0.0,-0.023136268595704793,0.0,-0.0018756856112775125,-0.06382817631851777,-0.00012950263240136918,-0.0031924660917889815,-0.0010406004152781418,-0.0018104431862357201,-0.024306850236675635,0.0,-0.009102368837184974,0.0,-0.0021887365590434987,-0.022132245537956004,-0.0001417951889019242,-0.0005278059672428489,-0.01537329833025188,-0.1753006915241135,-0.1792451639504694,-0.47666739986511425
0.0,-0.0244497681571908,0.0,-0.0016895346958748158,-0.06278049709869293,-0.0004970109230930973,-0.0042355716076389405,-0.001592811266595492,-0.0026472167582977215,-0.033908875563390534,-0.000488840631364957,-0.012478395585756953,0.0,-0.004924743357436914,-0.03152379484119871,-0.0002760204666899023,-0.0012810851133866537,-0.015295717149312233,-0.2040950408145138,-0.21815475284083524,-0.3796797418373866
0.0,0.0,0.0,0.0,0.0,0.0,0.0,0.0,0.0,0.0,0.0,0.0,0.0,0.0,0.0,0.0,0.0,0.0,0.0,0.0274653116530832,0.0,0.0013329339804534867,0.0847352114984875,0.0003980303404918992,0.004549638884455169,0.0014160737416796783,0.0017094047646433223,0.0232996445849427,0.00039098702150678846,0.010065017590199106,0.0006995965537907507,0.003556604515932654,0.023880582349546826,8.3642024998946e-05,0.001271136735474325,0.013229189205095037,0.2259520550863016,0.5759647916401153
0.0,0.0,0.0,0.0,0.0,0.0,0.0,0.0,0.0,0.0,0.0,0.0,0.0,0.0,0.0,0.0,0.0,0.0,0.0,0.05853138814681521,0.0,0.0018939870827693343,0.21596154752114785,0.0023479794182616953,0.0037879741655386687,0.0018939870827693343,0.0012245283246043813,0.05936102290770422,0.0,0.003572507742866077,0.0,0.05160465290200781,0.06401158488559483,0.0,0.005920487161127771,0.029888161054522508,0.0,0.10995815219601365,0.0,0.0,0.19214714227096816,0.010417122112533084,0.010416928955231325,0.0,0.0,0.08679207718746902,0.0,0.0,0.0,0.010418228270797567,0.05901857371949146,0.0,0.0,0.020831583683225442
0.0,0.020976110758331987,0.0,0.001707762402075485,0.06264710385944129,0.0006550182892333508,0.0036803731981071,0.0009025816736914876,0.0015990888840163666,0.023638737115825738,0.0,0.009262903231697863,0.0,0.00197785704410257,0.021227087976185482,0.00011638956730997622,0.0004742547820549868,0.01494616459843571,0.16961021292079503,0.17625228422678657,0.49032594726737844
0.0,0.024311284155734317,0.0,0.0014687252392845736,0.0621134499618771,0.0008514239361071938,0.004742954331850923,0.001360132179494016,0.0022757275899282204,0.03327364667014921,0.0004121254491132759,0.012411402574054386,0.0007292535941805589,0.004317776348924721,0.029462124408471933,0.00023159161174740242,0.0011147279972507102,0.01564871721380198,0.1998952501820927,0.21644951803257187,0.3889300232622183
0.0,0.0,0.0,0.0,0.0,0.0,0.0,0.0,0.0,0.0,0.0,0.0,0.0,0.0,0.0,0.0,0.0,0.0,0.0,-0.02768973910479566,0.0,-0.0012328447997240863,-0.08486733351585003,-0.0003493374075114082,-0.00419799811628629,-0.0020496468504354083,-0.0018377287949119386,-0.02395910377132289,-0.00036703598635663513,-0.009260042807579494,-0.000611626258301392,-0.003185420242788281,-0.024891950033308227,-8.000952003581987e-05,-0.001148558709410681,-0.012957067734592594,-0.2244440516063233,-0.5768699323749877
0.0,0.0,0.0,0.0,0.0,0.0,0.0,0.0,0.0,0.0,0.0,0.0,0.0,0.0,0.0,0.0,0.0,0.0,0.0,-0.05852102234561486,0.0,-0.0018936492800287067,-0.2159216434127518,-0.0023473656076970864,-0.0037872985600574133,-0.0018936492800287067,-0.001229121083066276,-0.0593713649119888,0.0,-0.0035764866907633595,0.0,-0.05157357952504807,-0.0640370943809391,0.0,-0.005923852298460448,-0.02992312565894952,0.0,-0.109939073949705,0.0,0.0,-0.19205002864577553,-0.010414251616419137,-0.01041507104015789,0.0,0.0,-0.08685762479732094,0.0,0.0,0.0,-0.010409986899274684,-0.05906885737161184,0.0,0.0,-0.02084435871512907
0.0,-0.02269109253442877,0.0,-0.0015143549601561602,-0.06344925683523979,-0.0005778821296095538,-0.0033054664133865437,-0.0014514353236430373,-0.0017984454221335008,-0.023929141166634856,0.0,-0.008515167160668193,0.0,-0.0017685606119628616,-0.02125686445592061,-0.00011422952221474696,-0.0004259848514613201,-0.014444230197438042,-0.17129434322568074,-0.17646878185930262,-0.48699428296459074
0.0,-0.024560039592675647,0.0,-0.0013420448340918626,-0.063003987592839,-0.0007591817432665924,-0.004379651237787216,-0.0019712764260212978,-0.0024920182978255,-0.03412149870275034,-0.00038804629436330973,-0.01148278875976693,-0.0006548443404021905,-0.003915811379996303,-0.03015182379421122,-0.00021908707901573544,-0.0010175788468652941,-0.015500621752961623,-0.2017248906971279,-0.21604817176682758,-0.3862660716686271
0.0,0.0,0.0,0.0,0.0,0.0,0.0,0.0,0.0,0.0,0.0,0.0,0.0,0.0,0.0,0.0,0.0,0.0,0.0,0.02767941345525279,0.0,0.0011024283942144052,0.08506610337120411,0.00032893591432022953,0.003825250421884941,0.0021760585834290735,0.0016549253350902876,0.02390280442871863,0.00032339583915146156,0.009830423482127723,0.0005775325018134587,0.0029411194755748393,0.024311859395774467,6.918878440236023e-05,0.001818747887563557,0.013849255035332523,0.2254221214631988,0.5751202907032371
0.0,0.0,0.0,0.0,0.0,0.0,0.0,0.0,0.0,0.0,0.0,0.0,0.0,0.0,0.0,0.0,0.0,0.0,0.0,0.05853159160573071,0.0,0.0018940116341950993,0.21596173001066793,0.002348013323873135,0.0037880232683901987,0.0018940116341950993,0.0012245685542682872,0.05936106116892156,0.0,0.0035725818781414216,0.0,0.05160487488226072,0.06401112236321324,0.0,0.005920595202014556,0.02988762706246149,0.0,0.10995732822584646,0.0,0.0,0.1921496824168723,0.01041727186351568,0.010417063988073037,0.0,0.0,0.08679228509904394,0.0,0.0,0.0,0.01041835339008078,0.059017310102186506,0.0,0.0,0.020830517502714783
0.0,0.021954625627416506,0.0,0.0014828916209712487,0.06340998757701304,0.0005681393226930513,0.0031949906234585834,0.0014481096938814403,0.0016936313786713225,0.024330542817837354,0.0,0.008352082460242976,0.0,0.0017174829163840114,0.020730465030845198,0.0001011117908948614,0.000618869205990798,0.014823037563879385,0.17017141364324725,0.1773895520449011,0.4880129467052564
0.0,0.024232713236696145,0.0,0.001222477447706046,0.06371929426120967,0.0007080450947920258,0.003946401341156481,0.0022087742669711498,0.002237480788080195,0.03372330903974038,0.0003430758825225433,0.011757277946022684,0.000605949160455517,0.00359372605704892,0.02993645055909662,0.00019279386366633354,0.0015564376693034776,0.016137327970374128,0.2025829479498287,0.2168026683465429,0.3844927060753797
0.0,0.0,0.0,0.0,0.0,0.0,0.0,0.0,0.0,0.0,0.0,0.0,0.0,0.0,0.0,0.0,0.0,0.0,0.0,-0.026720744369859,-0.0001254258639989846,-0.0012052573616445625,-0.08210761070719332,-0.0009089837059173736,-0.004815402485988369,-0.002062301110477616,-0.0015178464218771376,-0.02287012067736447,-0.00032343617447642986,-0.010275057617479872,-0.00043495129146876047,-0.002444917183735102,-0.02186093580967926,-0.00035829421488419024,-0.0014570049818059172,-0.012729684806690643,-0.2217929253315532,-0.585986467026267
0.0,0.0,0.0,0.0,0.0,0.0,0.0,0.0,0.0,0.0,0.0,0.0,0.0,0.0,0.0,0.0,0.0,0.0,0.0,-0.05848726049050985,0.0,-0.0018924909952517798,-0.21579364337487525,-0.0023452982420857265,-0.0037849819905035596,-0.0018924909952517798,-0.0012435922902150503,-0.0594039852250201,0.0,-0.003588890532300778,0.0,-0.05147392619530274,-0.06411955762941579,0.0,-0.005934188774386505,-0.030035968609961612,0.0,-0.10988081387028444,0.0,0.0,-0.19173252429205767,-0.010404613442888183,-0.010408700473884801,0.0,0.0,-0.08706517795145345,0.0,0.0,0.0,-0.010383349696235103,-0.05923270817058707,0.0,0.0,-0.020888387447689824
0.0,-0.022651895980844942,0.0,-0.0012942280136400233,-0.0637480110840813,-0.0004868013647064703,-0.0029559773571933646,-0.0015552534680383706,-0.0017417751213053684,-0.0247140492758412,0.0,-0.008625403778417093,0.0,-0.0015563929034219457,-0.020901531083539048,-0.00013129179234938452,-0.0005539299155540758,-0.01480771355634689,-0.17144866551137108,-0.17794575986296088,-0.48487895293140426
0.0,-0.023820316730422564,-9.62281639870887e-05,-0.0011043011068618974,-0.06252968379286794,-0.0008667899232247292,-0.004999856368539935,-0.0021196397437505884,-0.0021343131667814447,-0.03258173179824042,-0.00034861176580127973,-0.011827314889407138,-0.0005122334298605499,-0.003146619790991331,-0.027828034118476706,-0.0005937672672378123,-0.001364339354511268,-0.015365442744032972,-0.19730547537218385,-0.21296481591299632,-0.39848784209740734
0.0,0.0,0.0,0.0,0.0,0.0,0.0,0.0,0.0,0.0,0.0,0.0,0.0,0.0,0.0,0.0,0.0,0.0,0.0,-0.026819100246501762,-9.945882651250989e-05,-0.001080727126634251,-0.0843948121275168,-0.0007996885468655805,-0.0042621779159226405,-0.001875328539761593,-0.0015086070435158768,-0.021936073500655337,-0.00028256249324182015,-0.010462676009381012,-0.00047256897160882354,-0.0032866700677681264,-0.024945817887996102,-0.00028832158798892564,-0.001994250180332991,-0.013294027275548398,-0.22791910216950328,-0.5742775099354539
0.0,0.0,0.0,0.0,0.0,0.0,0.0,0.0,0.0,0.0,0.0,0.0,0.0,0.0,0.0,0.0,0.0,0.0,0.0,-0.055563910143616495,0.0,-0.0014266884757507658,-0.21666899499456438,-0.0017685244592280098,-0.0028533769515015316,-0.0014266884757507658,-0.002067689301050204,-0.047927099650795744,0.0,-0.009830388224030536,0.0,-0.04599212824131668,-0.07904621078785692,0.0,-0.007260557423671248,-0.028167078108144065,0.0,-0.09995319065396156,0.0,0.0,-0.21830956192918688,-0.007846184617639832,-0.007846786616629218,0.0,-0.006850401257130412,-0.07571481312782866,0.0,0.0,0.0,-0.007843052575384066,-0.052211246552202356,0.0,-0.0025733562403943847,-0.020850741666919814
0.0,-0.02116486034631118,0.0,-0.0012113289927039427,-0.06427152254922534,-0.00046234781429084373,-0.00264221691051497,-0.0012390817088559992,-0.0018774156755450109,-0.02071216237270432,0.0,-0.008720555978201431,0.0,-0.003561578996273693,-0.022545520430040353,-9.09036038019299e-05,-0.00147538419651987,-0.015135604283131621,-0.16994080062500258,-0.18054408287858814,-0.4844041938892658
0.0,-0.023449193565573203,-7.496231448667132e-05,-0.001021769106244543,-0.06362928634969965,-0.0008035922767919739,-0.0043113024799814595,-0.0018721763606420472,-0.0020711037859576413,-0.02993102116762806,-0.0002949904663859086,-0.011639874733655735,-0.0004989806122800006,-0.004239578800661559,-0.030370595793060996,-0.00046803403475239035,-0.0023384898961712045,-0.015504898725798922,-0.19796801174273546,-0.2160392445360583,-0.3934723867391091
0.0,0.0,0.0,0.0,0.0,0.0,0.0,0.0,0.0,0.0,0.0,0.0,0.0,0.0,0.0,0.0,0.0,0.0,0.0,-0.027105651792941415,-9.452199491364538e-05,-0.0010210908691386865,-0.08471692405979694,-0.0007681101430979901,-0.004743289827248293,-0.002357959249388339,-0.001422573240060151,-0.02128279547729869,-0.00026741423254887225,-0.010075016284668097,-0.00044223993046202907,-0.0033302845061856873,-0.02435808882573971,-0.0002738525850082828,-0.001873335003209169,-0.012947063297121066,-0.22660503083155528,-0.5763141124670988
0.0,0.0,0.0,0.0,0.0,0.0,0.0,0.0,0.0,0.0,0.0,0.0,0.0,0.0,0.0,0.0,0.0,0.0,0.0,-0.05594438199377008,0.0,-0.0012210472082622137,-0.21798376495751604,-0.001513596050840203,-0.010067446425996046,-0.004594406900710597,-0.0017867356741776202,-0.045381521904781674,0.0,-0.009193440870311364,0.0,-0.04283894170971009,-0.07471157720056339,0.0,-0.006255268895516808,-0.028507046430662885,0.0,-0.10335726790652769,0.0,0.0,-0.21206081278083277,-0.006715165306938054,-0.0067157596454421814,0.0,-0.005963265592221166,-0.06495838001853405,0.0,-0.004389347761004258,0.0,-0.015498399365923675,-0.060175805550511226,0.0,-0.002241043367969992,-0.017923928926913905
0.0,-0.020909450538471357,0.0,-0.0011488707801181205,-0.06430072529574846,-0.0004382113981609593,-0.0028953581998450604,-0.0012643050178515278,-0.0017928335708533982,-0.01991803347042297,0.0,-0.008401151080098363,0.0,-0.003552975873367483,-0.02167191728146524,-8.76280601108763e-05,-0.0014079869207819522,-0.01459661059869226,-0.167522748793188,-0.178140889705093,-0.4919497642826792
0.0,-0.023759834299020236,-7.083838873879167e-05,-0.0009578511802638015,-0.06391726397563957,-0.0007529165556810674,-0.00460730647543818,-0.002305169082832168,-0.0019457483637863675,-0.02892036399436849,-0.00027786003453120797,-0.01134713057918705,-0.0004665650525349222,-0.0044741141552825025,-0.029532772075742182,-0.00044222077789818186,-0.002195011602998025,-0.01498089885552133,-0.19705024881120115,-0.21369881380911676,-0.3982964456365066
0.0,0.0,0.0,0.0,0.0,0.0,0.0,0.0,0.0,0.0,0.0,0.0,0.0,0.0,0.0,0.0,0.0,0.0,0.0,0.0268913179703792,8.289553236257691e-05,0.0010502997861752909,0.08324484676736355,0.0007035823857471697,0.005539623107107883,0.0022093294462601424,0.0013246405724915958,0.020441576147547602,0.00024210920884942157,0.010005009086689864,0.00043311140675778584,0.0031907742596834596,0.023498578451671547,0.00036655972238217814,0.001803192021919458,0.01328839669499759,0.22314530187492723,0.5825386965968293
0.0,0.0,0.0,0.0,0.0,0.0,0.0,0.0,0.0,0.0,0.0,0.0,0.0,0.0,0.0,0.0,0.0,0.0,0.0,0.055957705042281265,0.0,0.001217484366529013,0.21803930291569695,0.001509323159667561,0.010186746179672806,0.004646944570831649,0.0017792929281682738,0.04532185864453772,0.0,0.009185264160267062,0.0,0.04280368789694047,0.0746320420594549,0.0,0.006237164861255736,0.028482974825579876,0.0,0.10342512588961687,0.0,0.0,0.21207714908881717,0.00669631433305753,0.0066961640159095516,0.0,0.005953255041274583,0.0647189020660708,0.0,0.004465265976440565,0.0,0.015625666773698917,0.06025848073045357,0.0,0.00223125016014622,0.017852217535397494
0.0,0.020590236520615278,0.0,0.0011755178853762609,0.06435212842030069,0.00045041818364971383,0.002944419443018477,0.001228286432963901,0.0017648626165213208,0.019678400857136385,0.0,0.00836610685283449,0.0,0.0035949316985825503,0.021436886919947204,7.995004779450382e-05,0.001412903675063837,0.014610412714334066,0.16681541036372635,0.17770133011168987,0.4937976651036552
0.0,0.023585748495492005,6.447509150653742e-05,0.0010558156470044631,0.0635974610059944,0.0007291164800615409,0.005038930546177495,0.0022092820250985204,0.0018550891184599448,0.02818098778415144,0.0002592184338861866,0.011317471746302182,0.00045835675301136,0.004363930438169539,0.028696645922928764,0.00046948319382103933,0.00213474085562842,0.015407021630021637,0.19529191545200938,0.21191707883030728,0.40336707562956237
0.0,0.0,0.0,0.0,0.0,0.0,0.0,0.0,0.0,0.0,0.0,0.0,0.0,0.0,0.0,0.0,0.0,0.0,0.0,-0.026632967813405174,-8.575625933103116e-05,-0.0010362228496650725,-0.08219023899289327,-0.001459958282186453,-0.0054017651370699945,-0.0020822244996468583,-0.0012566881376466,-0.02068348941600461,-0.00023927038379725323,-0.010288530154920279,-0.00038127267281891906,-0.0029045535137839614,-0.023286670603672593,-0.00035437888803003685,-0.0016289724968938158,-0.012331866545874103,-0.2244442220774201,-0.5833099488681219
0.0,0.0,0.0,0.0,0.0,0.0,0.0,0.0,0.0,0.0,0.0,0.0,0.0,0.0,0.0,0.0,0.0,0.0,0.0,-0.05594715983311535,0.0,-0.001217745020716217,-0.21798868759252196,-0.0015094317353707245,-0.010186060932239513,-0.004646415729141555,-0.0017834890054464001,-0.04534827519762391,0.0,-0.009181806145845857,0.0,-0.04277877905924794,-0.07464412913702523,0.0,-0.006239463262749732,-0.028527210260189673,0.0,-0.10340751458485492,0.0,0.0,-0.21189918851408185,-0.0066966376723732275,-0.0066975976139391795,0.0,-0.00594638694184557,-0.06481174507752492,0.0,-0.0044598823057129065,0.0,-0.015623938088697782,-0.06033082571205978,0.0,-0.0022376894047771343,-0.017887246995366694
0.0,-0.020655006842603442,0.0,-0.0010904628288580572,-0.06353872492459223,-0.0007976884295889578,-0.0027596827212488626,-0.001230965345937841,-0.001733947770373328,-0.02041686882466968,0.0,-0.00942668122365987,0.0,-0.003392468556277698,-0.02172661101503505,-8.767465188827439e-05,-0.0013493030745307195,-0.014236167902385546,-0.16738050907236043,-0.17926968664216367,-0.49090668964793016
0.0,-0.023495765722378027,-6.632354360343483e-05,-0.0009919697238537286,-0.0625417614255845,-0.0014581115553033038,-0.0048153092736060756,-0.002113352455341852,-0.0017840345014983885,-0.02830559622333079,-0.00025731873616130306,-0.01218600035153578,-0.00042172054966670825,-0.004062757299091188,-0.028821551180027643,-0.00046910041999983365,-0.0019937900286394685,-0.014621010759647604,-0.1939790371056474,-0.21343496556623806,-0.40417953954793795
0.0,0.0,0.0,0.0,0.0,0.0,0.0,0.0,0.0,0.0,0.0,0.0,0.0,0.0,0.0,0.0,0.0,0.0,0.0,-0.02643468079757912,-8.576095618426444e-05,-0.0010368663375228719,-0.08116211074969076,-0.001424907830167063,-0.006030290664154175,-0.00199131428930869,-0.0012058754873920002,-0.020447986255278335,-0.00023427258614240238,-0.010263136068828142,-0.0003513976615305239,-0.0027272983180294673,-0.022611473818080017,-0.00034337758560222016,-0.0015232180252335579,-0.011999691367194178,-0.22297858405575866,-0.5871461771738854
0.0,0.0,0.0,0.0,0.0,0.0,0.0,0.0,0.0,0.0,0.0,0.0,0.0,0.0,0.0,0.0,0.0,0.0,0.0,-0.05594206211396166,0.0,-0.0012178633195873002,-0.21796421723600332,-0.001509474755278453,-0.010185980059490375,-0.004646270060030206,-0.0017855053703168056,-0.045360931324913055,0.0,-0.009180110613512383,0.0,-0.0427666234708383,-0.07464979184248757,0.0,-0.0062405361824587405,-0.028548579853622642,0.0,-0.10339909509557313,0.0,0.0,-0.21181294419539498,-0.006696752039662746,-0.006698248257730155,0.0,-0.005943036499587723,-0.06485619210014193,0.0,-0.004457434610990463,0.0,-0.015623367005273826,-0.06036603053210245,0.0,-0.0022407873184421816,-0.01790405854760125
0.0,-0.020809111065164174,0.0,-0.0010127020836783493,-0.06120759816314051,-0.0007599389040965156,-0.003888147507632822,-0.0011924890276902803,-0.0016624202786633218,-0.020131103309587044,0.0,-0.009516089089476742,0.0,-0.0031815986559785487,-0.020910385632394578,-8.869778507187343e-05,-0.0012738881406661176,-0.01378333493003192,-0.16410027371252744,-0.17693780936998793,-0.49954304636666075
0.0,-0.023225411462333017,-6.544323157589284e-05,-0.0009358148169166911,-0.06111610085284478,-0.0014005109509939665,-0.006103001107488409,-0.002012389160892968,-0.00170347652823292,-0.027697199987953777,-0.00024963132508618377,-0.012099401239434794,-0.00039333434511914183,-0.003813675141377773,-0.027666690273582942,-0.0004565841801035076,-0.0018747778498792171,-0.014078060802235233,-0.1901792106684718,-0.210929543686192,-0.41399820087098865
0.0,0.0,0.0,0.0,0.0,0.0,0.0,0.0,0.0,0.0,0.0,0.0,0.0,0.0,0.0,0.0,0.0,0.0,0.0,-0.026343844219082826,-8.021177058832867e-05,-0.0012110556992489393,-0.08015547835917963,-0.0013456442203672741,-0.0065760587865302126,-0.0019547800640023435,-0.0011518609008959162,-0.019877771610010798,-0.00022147865320843588,-0.009918990357050569,-0.0003427688060052281,-0.002634552837219035,-0.022107160051050356,-0.000326361074123035,-0.0014746073873593852,-0.012285497382343243,-0.21992896344545934,-0.5920616577910697
0.0,0.0,0.0,0.0,0.0,0.0,0.0,0.0,0.0,0.0,0.0,0.0,0.0,0.0,0.0,0.0,0.0,0.0,0.0,-0.05594467368097859,0.0,-0.0012178027250642563,-0.21797674900228753,-0.0015094526327334747,-0.010186029024657865,-0.004646347906227274,-0.0017844741244070557,-0.04535446042095171,0.0,-0.009180977780786165,0.0,-0.04277283989448824,-0.07464689779515767,0.0,-0.0062399870541410786,-0.02853765451248469,0.0,-0.10340341188861733,0.0,0.0,-0.2118570580284947,-0.0066966930083459265,-0.006697914987853394,0.0,-0.005944749458689778,-0.06483345787306652,0.0,-0.004458690796072447,0.0,-0.01562366749271782,-0.06034803987701496,0.0,-0.002239202981921293,-0.017895460161571335
0.0,-0.02066194208529299,0.0,-0.0010135589899582852,-0.06109045665415372,-0.0007489732671980797,-0.004061973963625954,-0.0011675471818859227,-0.0016363936438485674,-0.019817148587576553,0.0,-0.009378659045783678,0.0,-0.003167949508332567,-0.020612169001192445,-8.4943549085656e-05,-0.0012640160767430784,-0.013739174883066061,-0.16308076092014254,-0.17594806706325816,-0.5025251839182815
0.0,-0.023330615860140635,-6.2108810588553e-05,-0.0010137944223954786,-0.06092114346726442,-0.0013440267603377497,-0.006566518978295712,-0.0019449562061422344,-0.0016440639919608788,-0.02695916566332829,-0.00023896886696087,-0.0117493418678011,-0.0003842641489262467,-0.0037133139565287978,-0.02705938994009337,-0.00043634907259965875,-0.0018238092440138111,-0.014466267870974495,-0.18877839104254002,-0.20892121529514832,-0.4186410672778228
0.0,0.0,0.0,0.0,0.0,0.0,0.0,0.0,0.0,0.0,0.0,0.0,0.0,0.0,0.0,0.0,0.0,0.0,0.0,0.026629429016603052,6.933069884614999e-05,0.0011897600901698353,0.08055685596691972,0.001223878484399425,0.006626836942864034,0.0019017041989659784,0.001107470349644264,0.019414245391755822,0.00020245072841116948,0.009644416559729018,0.0003619976896482834,0.0037506553346323755,0.02195617336494951,0.00030632241933938135,0.0015072708252980816,0.01232615724435216,0.21950761524750076,0.5917172805931383
0.0,0.0,0.0,0.0,0.0,0.0,0.0,0.0,0.0,0.0,0.0,0.0,0.0,0.0,0.0,0.0,0.0,0.0,0.0,0.061680255249831756,0.0,0.0010017403999207709,0.22565056631553296,0.0012418637125203196,0.008381108668208948,0.0038232634238914466,0.001463997570101916,0.038767010974308194,0.0,0.007557534609935611,0.0,0.04917067996155588,0.07269444980491253,0.0,0.00513190840572453,0.023435420554687256,0.0,0.10601569902339945,0.0,0.0,0.2274146815908379,0.005509694476240059,0.005509572199564237,0.0,0.004898293362744899,0.058787976140210405,0.0,0.003673707142425787,0.0,0.012856148853852566,0.0588094047173093,0.0,0.0018358671783250257,0.01468875496622229
0.0,0.020623984883112047,0.0,0.0010491681542392152,0.06111006866850754,0.0007253816633731159,0.0042954883826964605,0.0010966019872964336,0.001575524453104531,0.01905195871638227,0.0,0.009050558386787817,0.0,0.0032818679526851013,0.019965150997471256,7.140648920767684e-05,0.0012611811187586291,0.013409616342698567,0.16114717564378525,0.17443515191127573,0.5078495908693894
0.0,0.02332275913254741,5.524616899352258e-05,0.0010167410042535732,0.06134298412753501,0.0012648302139611296,0.006668816112040143,0.0018924647758572083,0.0015891026034528363,0.026424577568878234,0.00022208025808503112,0.011418329668171546,0.0003925674668490008,0.004629797490936292,0.026755138231821494,0.00040214803539253294,0.0018284427636307736,0.014292130114275043,0.1885446482101262,0.20837755105738578,0.41955950029488037
0.0,0.0,0.0,0.0,0.0,0.0,0.0,0.0,0.0,0.0,0.0,0.0,0.0,0.0,0.0,0.0,0.0,0.0,0.0,0.026853928159115335,6.667090187987593e-05,0.0011429941812802903,0.08102141308833981,0.0011764421209760948,0.006365158121628291,0.0018270632467519247,0.0013480540567141722,0.019156651163059486,0.00019459626944326173,0.009265904152726483,0.00034758706705381747,0.0036549009250665056,0.022876879719479444,0.00029437787092294223,0.001447594473855444,0.013504730427658398,0.2200736015505802,0.5893813109870129
0.0,0.0,0.0,0.0,0.0,0.0,0.0,0.0,0.0,0.0,0.0,0.0,0.0,0.0,0.0,0.0,0.0,0.0,0.0,0.06097124008507569,0.0,0.0009741015838276595,0.2245368166126847,0.0012075974752671847,0.00814984385877022,0.0037177635574889138,0.0017788496680586003,0.0384011309575204,0.0,0.007348960544980824,0.0,0.04810398141230947,0.07347792995834534,0.0,0.004990324995643352,0.026341271612982928,0.0,0.10299313873406125,0.0,0.0,0.22799589657519823,0.0053576660868802535,0.0053575587110521366,0.0,0.004763061091763865,0.05714108241224103,0.0,0.0035722845086835976,0.0,0.012501392172968622,0.06069659804854849,0.0,0.0017852760650217338,0.017835857916536083
0.0,0.022919537705862643,0.0,0.000965769718569929,0.0609879891801834,0.000668021359800413,0.003953501635238203,0.0010101068329421503,0.002214433333140879,0.018680770846999324,0.0,0.008335086795691563,0.0,0.0030213361559950943,0.02017234209433466,6.582980858336748e-05,0.0011612140702715887,0.01671183622904075,0.1650843119533146,0.17731621662928046,0.4967315761536554
0.0,0.023761860023973503,5.2440477238860314e-05,0.0009642401123434918,0.06170596961076938,0.0012000694130582638,0.006323897360462514,0.0017951227537145512,0.0018888583812907795,0.02595607992117972,0.00021072962777939332,0.010831109806462718,0.00037224554940160217,0.00449456100298907,0.027798921496643467,0.00038161848383289385,0.0017340201494071652,0.016166323765881556,0.19040570655408123,0.20921685259925377,0.4147392350417
0.0,0.0,0.0,0.0,0.0,0.0,0.0,0.0,0.0,0.0,0.0,0.0,0.0,0.0,0.0,0.0,0.0,0.0,0.0,0.026983426860969818,6.474928131707654e-05,0.0011103810526774346,0.08138818267498478,0.0011426772395400947,0.006183897925109274,0.0017870791287255912,0.0013099081653768203,0.019473270158167136,0.00018901346023761633,0.009001356838003932,0.00033772349343227405,0.0038729279379143577,0.022852700626611516,0.00028595022676564954,0.0014064190816806457,0.014435314454285544,0.22050993484669515,0.5876649408113266
0.0,0.0,0.0,0.0,0.0,0.0,0.0,0.0,0.0,0.0,0.0,0.0,0.0,0.0,0.0,0.0,0.0,0.0,0.0,0.06148339528172987,0.0,0.0008859248512097941,0.22080665738284105,0.0010982848616377906,0.007412115553327436,0.004457901561382081,0.0016190352176662756,0.040740401949492765,0.0,0.006683735167597863,0.0,0.04611889189398295,0.07135775758371266,0.0,0.0045385934667065185,0.032797113506104855,0.0,0.10497305472515907,0.0,0.0,0.22352798778051736,0.004872686513735124,0.004872586681653883,0.006460029274360175,0.0043319195746447684,0.05681149091697572,0.0,0.0032489291654440597,0.0,0.011369761133937279,0.05521423414253154,0.0,0.0016236592480011556,0.022693469120431752
0.0,0.022896796927533866,0.0,0.0009565092746429572,0.06118543748208982,0.0006615221979119562,0.003915760192453482,0.0010002109708541792,0.0021937631196990667,0.018696212312461838,0.0,0.008253929218457228,0.0,0.0029922332234835294,0.02004351968292667,6.516755912309579e-05,0.0011499908461112007,0.016685214524770942,0.16487196049405342,0.17698651799341428,0.4974451318923254
0.0,0.023979987657472446,5.1067905089286664e-05,0.0009392599703419482,0.06191516665266644,0.0011688159377208638,0.00616023604540097,0.0017997993016743293,0.0018402852116089752,0.026244763236902984,0.00020523556925559861,0.010549807123402472,0.0003626174340272372,0.004634587812006816,0.02760596424303834,0.0003716617843076847,0.001689101121248495,0.01695522263413497,0.19111749978860326,0.20944062393181662,0.4129681549843548
0.0,0.0,0.0,0.0,0.0,0.0,0.0,0.0,0.0,0.0,0.0,0.0,0.0,0.0,0.0,0.0,0.0,0.0,0.0,-0.027190937952339046,-6.785855238961894e-05,-0.0010735180116095686,-0.08214490689990661,-0.0011674914025545356,-0.006047891723291191,-0.001736459858681992,-0.0015005738760837722,-0.019468418162440555,-0.00019101881626037927,-0.008939961935684646,-0.0003117536420589503,-0.003709677098185743,-0.02343175031701134,-0.00028412704687253245,-0.001324594945197596,-0.013922977899771342,-0.22142670255212488,-0.5860586148250307
0.0,0.0,0.0,0.0,0.0,0.0,0.0,0.0,0.0,0.0,0.0,0.0,0.0,0.0,0.0,0.0,0.0,0.0,0.0,-0.06148012599969461,0.0,-0.0008848757836551808,-0.22070552246469147,-0.001096862787408603,-0.007402064976050382,-0.0044667399297588254,-0.0016228496336517196,-0.04079343155820175,0.0,-0.006672783641409423,0.0,-0.04605257221313637,-0.0713467960106198,0.0,-0.004533766531814764,-0.032940591819433034,0.0,-0.10496629226478899,0.0,0.0,-0.22334486554568864,-0.004866287580384796,-0.004866816810103492,-0.006541332421136979,-0.004322182020046294,-0.05686004636775841,0.0,-0.003241692260001149,0.0,-0.01135382670660858,-0.055201598362237043,0.0,-0.001625115369531961,-0.022808927641239568
0.0,-0.024940677252033902,0.0,-0.0008395946378645915,-0.06170907752125919,-0.0006049893620435751,-0.004125737055902571,-0.0009325302340253069,-0.0021644609730959367,-0.01867716733089509,0.0,-0.007980664365729138,0.0,-0.0026608128214579314,-0.02058103167323152,-6.525521702307891e-05,-0.0010324550227530276,-0.015363185853052696,-0.1654499312141526,-0.1787916616887786,-0.4940801222092918
0.0,-0.02471662050972023,-5.2223671068721884e-05,-0.0008906617319522669,-0.06152189090216815,-0.001152717153479256,-0.006117935899127049,-0.0017390782065801246,-0.0019744221401189073,-0.026521529244947384,-0.0002040384364526385,-0.01076338565324598,-0.00033966048175051517,-0.004401249459718465,-0.028875707578286326,-0.0003714704998596069,-0.0016007680089216104,-0.0163459256821072,-0.19204856175941953,-0.21038624255182273,-0.409975165290842
0.0,0.0,0.0,0.0,0.0,0.0,0.0,0.0,0.0,0.0,0.0,0.0,0.0,0.0,0.0,0.0,0.0,0.0,0.0,0.027134585154511694,6.004287467695415e-05,0.001029646262972217,0.08291823592376103,0.0010680186529382636,0.005885050254697453,0.001657161588154362,0.0014046468420861745,0.019701203073233687,0.00017527275450267873,0.00917119745867517,0.0003131638461757782,0.004104024308667202,0.023363274174054396,0.0002651611686921254,0.0013041499219907163,0.013495496556860153,0.22174432685626702,0.5852051969090016
0.0,0.0,0.0,0.0,0.0,0.0,0.0,0.0,0.0,0.0,0.0,0.0,0.0,0.0,0.0,0.0,0.0,0.0,0.0,0.060969148205056556,0.0,0.0007925450434635899,0.22235082507524817,0.0009825217755266937,0.006630853498853354,0.003992026610248514,0.001448374951544628,0.043494391154202346,0.0,0.010531677924796874,0.0,0.04513232344335057,0.0691015989308358,0.0,0.0040602074720944865,0.03051331517595284,0.0,0.1114621679236709,0.0,0.0,0.2155939997142836,0.00435908841755576,0.0043589977390497405,0.005803136398615292,0.003875329007041092,0.050841245894169725,0.0,0.008743668441869069,0.0,0.01017135097289676,0.05717562365074223,0.0,0.001452512108145479,0.026162688993134845
0.0,0.024847726605918538,0.0,0.0008486405562332897,0.06204697151506681,0.0005869330954094622,0.004131711667674121,0.0008874429135595379,0.0020620946460803416,0.018031248601921766,0.0,0.00787860656505353,0.0,0.00289118982509607,0.01999077611861787,5.7822683695068296e-05,0.001020314826177048,0.014863239284259783,0.16384956208836546,0.17745278465268854,0.49855281371941956
0.0,0.02455446765134252,4.733287768682769e-05,0.0008705410180544505,0.06204056958739989,0.0010833165821215159,0.006001797568111651,0.0016682005888623626,0.0018718929166712192,0.026485817550668464,0.00019022303992507784,0.010850528963297267,0.0003360859257459046,0.004956273960548329,0.028629264041099674,0.0003444761932694634,0.0015655213328307502,0.015920679899834745,0.1917211655999454,0.21037850845818362,0.41048319508378833
0.0,0.0,0.0,0.0,0.0,0.0,0.0,0.0,0.0,0.0,0.0,0.0,0.0,0.0,0.0,0.0,0.0,0.0,0.0,0.027279574707251213,5.808022517027226e-05,0.0009964882204321732,0.08285290387853393,0.0010333269843195388,0.0056960267141864425,0.001999722752336794,0.0013741958692609455,0.020112053494172822,0.00016958261722373243,0.008988546900614718,0.00030316050188971926,0.004027928431920533,0.023361468289499535,0.0002565796986895407,0.0012623461474033798,0.01380603857050651,0.22184320955507753,0.584578614158514
0.0,0.0,0.0,0.0,0.0,0.0,0.0,0.0,0.0,0.0,0.0,0.0,0.0,0.0,0.0,0.0,0.0,0.0,0.0,0.06097109446504061,0.0,0.0007928943215120047,0.22234525975243616,0.0009829551240053463,0.0066337793792729015,0.003993759049878643,0.0014489969149307216,0.04348401657904803,0.0,0.01051733182317422,0.0,0.045136142556749435,0.06910998648455538,0.0,0.004061995260886019,0.030521590075200902,0.0,0.11143803306728371,0.0,0.0,0.21562405645882307,0.004361011281690848,0.004360918768316026,0.005805520555074976,0.003877050031656636,0.050863381680465294,0.0,0.008723177181642174,0.0,0.010175840583163115,0.057168127510734565,0.0,0.001453142594050554,0.026149542073789438
0.0,0.02540132911001252,0.0,0.0008077988072779115,0.06186981789183642,0.0005585477147348616,0.003932684256007182,0.0012877796766155459,0.001962151043249576,0.019719486311374636,0.0,0.007663532465934876,0.0,0.002917919918915715,0.019548920883968045,5.499402357726358e-05,0.0009710798692670075,0.015379430524471174,0.16560140649351626,0.17854795222601813,0.49377504121622556
0.0,0.024621551124596325,4.508232325716911e-05,0.000829534599799245,0.06231657089191972,0.001032042552818095,0.0057192265521298115,0.0021779947723905473,0.0017834002706170573,0.02766187107188297,0.00018121067403798838,0.010522359840950886,0.0003202779102495788,0.004767183699117747,0.028189960708828496,0.00032814472986938996,0.0014917833725997085,0.01629936127290378,0.1932918366377065,0.21061497142038693,0.40780548745862705
0.0,0.0,0.0,0.0,0.0,0.0,0.0,0.0,0.0,0.0,0.0,0.0,0.0,0.0,0.0,0.0,0.0,0.0,0.0,0.02735063449269863,5.567795264507627e-05,0.000954171068658772,0.08268474459241032,0.0015483401798136584,0.005453049265609757,0.0019157512744530645,0.0013162908456516137,0.020843029843416717,0.00016248212640338215,0.008822533952295455,0.00029010629690751983,0.003856356962549543,0.023585245757251558,0.0002457773161011205,0.0012083102350750195,0.013714783901132132,0.22179564955816075,0.5841969243653895
0.0,0.0,0.0,0.0,0.0,0.0,0.0,0.0,0.0,0.0,0.0,0.0,0.0,0.0,0.0,0.0,0.0,0.0,0.0,0.060971040215705284,0.0,0.0007928887576206466,0.2223441526383917,0.0009829467497138506,0.0066337173555842755,0.0039938468410568384,0.0014490563217984228,0.04348446911309365,0.0,0.010517102621674516,0.0,0.04513546689923644,0.06911004641262442,0.0,0.0040619734084141315,0.03052311083971477,0.0,0.1114376218412099,0.0,0.0,0.21562223966034266,0.004360973038036077,0.004360888166913546,0.005806226346282828,0.003876966839951437,0.05086418149386811,0.0,0.008722917748084275,0.0,0.010175739155790894,0.057168300245779964,0.0,0.0014531734488807421,0.026150590189488464
0.0,0.024675612775549853,0.0,0.0007560208152809452,0.0616415409916835,0.00167224230728969,0.0036810008317250437,0.0012068853053441386,0.001837837372742554,0.01984970824751782,0.0,0.00727989491434767,0.0,0.0027316768927249705,0.018678125645298835,5.156389573788542e-05,0.0009091071998008991,0.014767092932984935,0.1630395004217774,0.17515943007120707,0.5020626440118341
0.0,0.024752047644125964,4.3166804952000176e-05,0.0007934448081740471,0.06174791708126399,0.0018156813703977838,0.005470104505371933,0.002084830697730236,0.0017065108619300257,0.02839297693563362,0.0001734406170791524,0.010338063009110126,0.0003062932526076917,0.004559901027568304,0.02825455344613634,0.00031409820964355584,0.0014268704261970859,0.016191547136260986,0.19316071111030353,0.21037959816713597,0.4080881069618155
0.0,0.0,0.0,0.0,0.0,0.0,0.0,0.0,0.0,0.0,0.0,0.0,0.0,0.0,0.0,0.0,0.0,0.0,0.0,-0.02756069815351525,-5.8042297509435433e-05,-0.0009205162073059736,-0.08272267328317494,-0.0017754886853933525,-0.005187314559946095,-0.0020484191571750773,-0.0012988239708492714,-0.020684945569164892,-0.00016356610477775686,-0.008702953679472589,-0.00026772769877745744,-0.0036795860837853943,-0.0235254664864247,-0.00024342100834716485,-0.0013634889533401756,-0.014013497457233197,-0.2213442211398574,-0.5844384100500075
0.0,0.0,0.0,0.0,0.0,0.0,0.0,0.0,0.0,0.0,0.0,0.0,0.0,0.0,0.0,0.0,0.0,0.0,0.0,-0.06096643052112095,0.0,-0.0007923958772666199,-0.2222666125112967,-0.000982231305249185,-0.006628499542581376,-0.003999553517210369,-0.001453075235350599,-0.04351914134301574,0.0,-0.010504842162608207,0.0,-0.04508650101018809,-0.06911168731029929,0.0,-0.004059918700171657,-0.030628134743769558,0.0,-0.11141481842477367,0.0,0.0,-0.21548472584286713,-0.004357721799659649,-0.0043581773249664005,-0.005855404170188039,-0.0038705980237822317,-0.05091435594719515,0.0,-0.008710230226061912,0.0,-0.010167290803649885,-0.05718235547849029,0.0,-0.001455172923599351,-0.026228172814894684
0.0,-0.024948213573387463,0.0,-0.000701498829785203,-0.06175864152454794,-0.001928605564776183,-0.0034422018922311993,-0.0014062705604590208,-0.0018042244260627579,-0.01978368189326681,0.0,-0.007225851359222938,0.0,-0.002574151291056653,-0.01823385898465667,-5.429227198529729e-05,-0.0012357582171518102,-0.015088665556953509,-0.1633346910036536,-0.17479991620312735,-0.5016788654009625
0.0,-0.025036661969684865,-4.441539080766511e-05,-0.0007592943607053655,-0.06177488269301142,-0.001966817886445432,-0.00521426913907762,-0.0023701405248216277,-0.0016804575950166193,-0.02832306828878018,-0.00017368201254464743,-0.010277077382086948,-0.00028967918167431957,-0.004367219955883015,-0.028064717721648626,-0.000316151456938594,-0.0016409864059359319,-0.016806596997613617,-0.19422109180141378,-0.2104561837663664,-0.4062158849474379
0.0,0.0,0.0,0.0,0.0,0.0,0.0,0.0,0.0,0.0,0.0,0.0,0.0,0.0,0.0,0.0,0.0,0.0,0.0,0.027460902935920007,5.243839575411373e-05,0.0010512927668371282,0.08215972042411653,0.001718042850298187,0.00563064630830931,0.0019716860495262297,0.0012423359499639328,0.020260972474601274,0.00015323693649920984,0.00847160238773994,0.0002744716024574636,0.0036441961122386144,0.02304391219076583,0.00023193600971592828,0.001350496420009421,0.013663391745219617,0.21861988053858042,0.5889986679709319
0.0,0.0,0.0,0.0,0.0,0.0,0.0,0.0,0.0,0.0,0.0,0.0,0.0,0.0,0.0,0.0,0.0,0.0,0.0,0.060971211491178255,0.0,0.0007929079071523102,0.2223471501403222,0.0009829745697605256,0.006633920324655968,0.003993623289256726,0.0014488990758212482,0.043483107765203574,0.0,0.01051757997112075,0.0,0.045137373782402374,0.0691099723474486,0.0,0.004062053133191434,0.030519002575718757,0.0,0.11143849632305304,0.0,0.0,0.21562758221143646,0.004361099477133263,0.004360993489337699,0.005804303851195754,0.0038772151697996473,0.05086221378034728,0.0,0.00872341195657307,0.0,0.010176067869140848,0.05716774258131439,0.0,0.0014530951144976054,0.026147554549403536
0.0,0.02456543730757992,0.0,0.0007311152826579425,0.061776289344322756,0.0018116658053659409,0.003610300311637859,0.001364441642648895,0.0017737254473502483,0.01945883278235802,0.0,0.007178995615225359,0.0,0.002640263911502294,0.0180307070695876,4.9632691961676206e-05,0.0012278702421768583,0.014905666953703023,0.16231429428332653,0.17402704632607086,0.504533574389433
0.0,0.024910169701523748,4.148461615588845e-05,0.000806978248326204,0.061890109616265725,0.001925382377891871,0.005356971714521938,0.0023204887063801513,0.0016427499109269539,0.028198334124856825,0.00016685528310246404,0.010143902937584895,0.0002952829985239282,0.004394000807367437,0.027923480942126964,0.0003021135371787347,0.0016393663595827886,0.01657771346789802,0.19356375545921248,0.2097338636536141,0.40816682902883533
0.0,0.0,0.0,0.0,0.0,0.0,0.0,0.0,0.0,0.0,0.0,0.0,0.0,0.0,0.0,0.0,0.0,0.0,0.0,0.02740952461987037,5.077238324342041e-05,0.001014869143485564,0.0820526260532378,0.0020027140574754047,0.00543461565694927,0.0019053358140637524,0.0013734865750143605,0.020353590309014048,0.00014820259783136596,0.008590529744152258,0.00026476179345556473,0.003660207833630178,0.023037025925763403,0.00022420233345190387,0.0013039452759305093,0.013791664922554318,0.2190619690592526,0.5883198111235288
0.0,0.0,0.0,0.0,0.0,0.0,0.0,0.0,0.0,0.0,0.0,0.0,0.0,0.0,0.0,0.0,0.0,0.0,0.0,0.05958247270068196,0.0,0.0007414539621328789,0.21822032471603722,0.002979191472401838,0.0062033939788185095,0.0037347151881411975,0.0023850296191171754,0.04375325861775652,0.0,0.011894899681657025,0.0,0.043237655545850726,0.07080661850421945,0.0,0.003798469783470696,0.03266232704045209,0.0,0.112317600627898,0.0,0.0,0.21785329376201704,0.004078079475821853,0.004077996791730838,0.005429251501031597,0.003625491816646555,0.04756411317231185,0.0,0.008157105249188204,0.0,0.00951565068817863,0.06156871824790768,0.0,0.001358888072873164,0.024453621405131888
0.0,0.023827441118528626,0.0,0.0006862540476349953,0.06052574427057844,0.0028234896604852873,0.003389369580397908,0.0012832891463719566,0.0019498963617922112,0.019334901320111356,0.0,0.007870182893099044,0.0,0.002610730987902656,0.018864320166339887,4.676596558084235e-05,0.0011540158793295948,0.015403594633397383,0.16276602212635005,0.17442305731309754,0.5030408043214073
0.0,0.02467602274875611,4.0008178536089904e-05,0.0007764261918833173,0.061303112897381266,0.0024625124576771367,0.005153994965503241,0.002234676859055153,0.001662294548617912,0.028217181848838487,0.00016077953423514159,0.010441916231269523,0.00028404109412626517,0.004388787436930529,0.028142348224032637,0.00029115903164043423,0.0015778076353380522,0.016921736921537433,0.19357669742925687,0.21034139488223075,0.40734695904532553
0.0,0.0,0.0,0.0,0.0,0.0,0.0,0.0,0.0,0.0,0.0,0.0,0.0,0.0,0.0,0.0,0.0,0.0,0.0,-0.02737754929271516,-5.2163942398433265e-05,-0.0009747560694823463,-0.08284188438443636,-0.002005412864541195,-0.005184308156627368,-0.0018672781165672509,-0.0016713172031571132,-0.02062426672051256,-0.00014822842552497418,-0.008475522265422976,-0.00024793839947440533,-0.003920186219972073,-0.023395666372000513,-0.00022146891687432706,-0.0012509325510571124,-0.013577958906384755,-0.2199387800570494,-0.5862238613138012
0.0,0.0,0.0,0.0,0.0,0.0,0.0,0.0,0.0,0.0,0.0,0.0,0.0,0.0,0.0,0.0,0.0,0.0,0.0,-0.05767363299063678,0.0,-0.0006409621566098357,-0.21759808786770155,-0.0025970224108597764,-0.005361956816052213,-0.0032335500744508894,-0.005607298601812446,-0.046456033750241765,0.0,-0.011355722483348455,0.0,-0.04196202320959606,-0.07380856433268294,0.0,-0.0032839380490902598,-0.030420524225288046,0.0,-0.11001380094152123,0.0,0.0,-0.21171857466037974,-0.0035250325302437335,-0.0035252918613540947,-0.00472572366180204,-0.007933313650164787,-0.04357078967966942,0.0,-0.007047097084545216,0.0,-0.01302276260270878,-0.06294347730398879,0.0,-0.0011764904517940844,-0.030796962540199133
0.0,-0.023796061900599613,0.0,-0.0006223966270624599,-0.06155231674484595,-0.0027651300800427365,-0.003089751162235629,-0.0012253970156627225,-0.0020821554594620388,-0.02021634672001168,0.0,-0.007667070757360473,0.0,-0.003593815675918638,-0.019252738407476027,-4.6696233226631775e-05,-0.001082204482427943,-0.014757103880128847,-0.1645233156487627,-0.17528915723734154,-0.498437908238683
0.0,-0.024824105252837805,-4.0092692057376136e-05,-0.0007354476660035933,-0.06172677118026476,-0.002426135532702237,-0.004870682593052231,-0.0021614761173579197,-0.0019494775975524288,-0.028681952527975486,-0.0001578046313214653,-0.010265618903657932,-0.00026696001866001695,-0.0049875288583930465,-0.02849972251164007,-0.00028689322732862975,-0.0015035224186924715,-0.01670105367534375,-0.19475580096163414,-0.21103307801102658,-0.4041253657348045
0.0,0.0,0.0,0.0,0.0,0.0,0.0,0.0,0.0,0.0,0.0,0.0,0.0,0.0,0.0,0.0,0.0,0.0,0.0,0.02767645711279269,4.718810608659053e-05,0.0009428505881426035,0.08201044161707913,0.001861517178615254,0.005676608190074758,0.0017703321706698978,0.0015674612341453056,0.020347368671251472,0.00013771803912688953,0.008636955953920823,0.0002459385169884499,0.004060808459376832,0.022699077828113652,0.0002083259452240264,0.0016260769421486266,0.013235256006175072,0.2185609458017041,0.5886885311358144
0.0,0.0,0.0,0.0,0.0,0.0,0.0,0.0,0.0,0.0,0.0,0.0,0.0,0.0,0.0,0.0,0.0,0.0,0.0,0.05882513875268207,0.0,0.0006143826943452475,0.21478106517868664,0.002475518955002108,0.007563030698405305,0.00309467182806631,0.0052872454440343,0.04703029016412841,0.0,0.012466638744644229,0.0,0.041741854786870834,0.07202049004518024,0.0,0.004278076207188227,0.02982141244968435,0.0,0.10848233067480956,0.0,0.0,0.21135330043485723,0.003379172237169052,0.005640084482584699,0.004498886882202285,0.007502128815843845,0.04166107201533673,0.0,0.010151299119910324,0.0,0.01238374804533455,0.06456209336949463,0.0,0.0011260060921526262,0.02925969377922294
0.0,0.024169560969421106,0.0,0.0006415961083860664,0.06136614532452825,0.002642297696866055,0.0031689006977257566,0.0012001466923986066,0.0020436155766343973,0.019968894791880607,0.0,0.007691457985709458,0.0,0.003676783524558011,0.019065186020441674,4.3748252249228865e-05,0.0011828900115739244,0.014597305290811236,0.16425992867647912,0.1757855352596506,0.4984958893176564
0.0,0.02523192493568004,3.714727496051954e-05,0.0007206670147685316,0.06139549856200206,0.0022870153314165954,0.005237713325030581,0.0020744437335430427,0.001860402180831754,0.028128033863506693,0.00014926397329889546,0.01028927226778453,0.00026363097627159915,0.005109755122161728,0.02784698199214921,0.00027031153499564834,0.0018672503501365666,0.016312828319702533,0.19357678187772173,0.21008221525966567,0.4072587242818008
0.0,0.0,0.0,0.0,0.0,0.0,0.0,0.0,0.0,0.0,0.0,0.0,0.0,0.0,0.0,0.0,0.0,0.0,0.0,0.02782694239544206,4.581326206007343e-05,0.0009153859657623275,0.08245120759630689,0.0018072855711616987,0.0055104001865032715,0.0017187604225831006,0.0017656964866275416,0.02033464798671484,0.00013370590859472959,0.00856753047043927,0.00023877502228230078,0.003942124611399399,0.022718732692979634,0.00020225703192420312,0.001578144800996725,0.013685955312087043,0.21928917481992033,0.5872673177898282
0.0,0.0,0.0,0.0,0.0,0.0,0.0,0.0,0.0,0.0,0.0,0.0,0.0,0.0,0.0,0.0,0.0,0.0,0.0,0.058821003426066255,0.0,0.0006144806279381259,0.21479137055932873,0.0024759447887990524,0.0075550804029639205,0.003095175897633606,0.005288364687057359,0.047028155962437326,0.0,0.012462621985735878,0.0,0.04174272317206616,0.07202691980131025,0.0,0.004274486555454477,0.029823488082126082,0.0,0.10848790999138369,0.0,0.0,0.211354758124455,0.003379710171802462,0.005632438404405537,0.004499673458566849,0.007503662647978208,0.0416679984053844,0.0,0.01014009251019724,0.0,0.012386052794312487,0.06455617078441366,0.0,0.0011261893982599503,0.02926515925775783
0.0,0.02429574576361571,0.0,0.0006256670421116462,0.06163678788631848,0.002576623900324578,0.0030902199563807116,0.00117032829067496,0.0021645589677698053,0.019772820150456016,0.0,0.0076718808183079855,0.0,0.003585366251570776,0.018763235568023708,4.266056801437811e-05,0.0011533902334139234,0.014791587970212494,0.16407270165112559,0.17560988989751877,0.4989764167683034
0.0,0.02560507657628421,3.6074219541781267e-05,0.0006998547484222887,0.061653244942894835,0.002220956705295733,0.005085850999571415,0.0020145299573376364,0.001996860936049498,0.027912192782306427,0.00014495266862027398,0.010181539743792493,0.00025601779177957456,0.004961835295692158,0.027820331592255942,0.0002625037823454535,0.001812784229026703,0.01673688900616115,0.19376632512049327,0.2106957345045365,0.40613630569985726
0.0,0.0,0.0,0.0,0.0,0.0,0.0,0.0,0.0,0.0,0.0,0.0,0.0,0.0,0.0,0.0,0.0,0.0,0.0,-0.027945932935650654,-4.7116438061046646e-05,-0.000879188322837615,-0.08253860737779456,-0.0018103934276245265,-0.005242823669002866,-0.0017015371138783119,-0.0021267937747908054,-0.02065353191641899,-0.000133811341039765,-0.008330228239672369,-0.00022350486773708788,-0.003797340247080573,-0.023363953458513404,-0.00019987594283254806,-0.0017568573614617114,-0.013563626650311458,-0.21959911960543715,-0.5860852220260518
0.0,0.0,0.0,0.0,0.0,0.0,0.0,0.0,0.0,0.0,0.0,0.0,0.0,0.0,0.0,0.0,0.0,0.0,0.0,-0.05879780791188349,0.0,-0.0006133704915607072,-0.21472315808616924,-0.0024853901187793337,-0.007540981866036877,-0.0030944488276843487,-0.005314870274429997,-0.04706439634683076,0.0,-0.012458256340563332,0.0,-0.0416955952353971,-0.07205760432425036,0.0,-0.004267334056741904,-0.029886084337748912,0.0,-0.1084662231885673,0.0,0.0,-0.2112654810192247,-0.0033732833188046592,-0.005623828190415918,-0.004522901568965671,-0.007522125444830808,-0.04166137547011179,0.0,-0.010116360231718422,0.0,-0.012392409322798767,-0.06459647097091688,0.0,-0.001125879160122565,-0.029332960331599357
0.0,-0.024804726106960575,0.0,-0.0005657513435002997,-0.062042964107026304,-0.0025176087786926804,-0.0028088698472528524,-0.0011151268773626276,-0.002831656356441904,-0.020281061691608347,0.0,-0.007234402123301709,0.0,-0.0033432533652709047,-0.019799788271304783,-4.253369683024622e-05,-0.0014937795565562178,-0.014540566235382716,-0.16594490162879597,-0.17658556232526681,-0.49404699827391324
0.0,-0.02591586291814597,-3.6459484461119656e-05,-0.0006680027700261414,-0.06171799595240961,-0.0022054786482045593,-0.00483458675637276,-0.001999846778713746,-0.0025233811657954,-0.028498705759384072,-0.0001434422449044404,-0.009884606531226208,-0.00024243678345092735,-0.0047688808508834874,-0.028710667591961374,-0.00026080346119354775,-0.0018865907695577078,-0.016662404928155804,-0.19520406059599055,-0.21158716501579575,-0.4022480948678522
0.0,0.0,0.0,0.0,0.0,0.0,0.0,0.0,0.0,0.0,0.0,0.0,0.0,0.0,0.0,0.0,0.0,0.0,0.0,0.027996737109435274,4.3464836459928844e-05,0.0008688893182938965,0.08271226466506021,0.0017149738528124442,0.005230841173443854,0.0018259496323865664,0.0020291934748911666,0.02065547425766037,0.00012687739213823512,0.008131904556995754,0.00022668651199606726,0.00391527423379117,0.023205170726765704,0.00019194495209104274,0.0017356166391022353,0.013958480372933391,0.21910066798410024,0.5863294416539455
0.0,0.0,0.0,0.0,0.0,0.0,0.0,0.0,0.0,0.0,0.0,0.0,0.0,0.0,0.0,0.0,0.0,0.0,0.0,0.05900146960992803,0.0,0.0006035716715696709,0.21403896729768185,0.002431861619720647,0.007420924938508193,0.0036529489734418814,0.005194150310017166,0.047111263578495495,0.0,0.012241183339803558,0.0,0.04130776226872448,0.0719722581575896,0.0,0.004198580301477099,0.0308248676647073,0.0,0.11248368149814972,0.0,0.0,0.20759975185822327,0.0033197126652201015,0.0055323996184186005,0.00738120872833512,0.0073701570299818135,0.04092763297562315,0.0,0.00996007713572034,0.0,0.012165899527188391,0.06340860003392201,0.0,0.0011061802251591756,0.028744508435723546
0.0,0.024598715008258252,0.0,0.000583806784764526,0.062091143658989774,0.0024029766879028647,0.002883371066150496,0.0011728889010126874,0.0027600944974248295,0.020078401660230612,0.0,0.007156797005298878,0.0,0.0033854425399657334,0.019641974346117305,3.977983287227903e-05,0.001476976765972953,0.01459595194249637,0.1657014601793558,0.1761812591532754,0.4952488370792314
0.0,0.025887502161406215,3.4165288116055796e-05,0.0006630896788272641,0.06193747524133624,0.0021036989413628776,0.004818813471644247,0.002202597781944923,0.0024330361962656,0.028425947968589996,0.00013730316035841903,0.009645798458113917,0.00024258174998263935,0.004882958795108921,0.02863047084812549,0.0002486437338665024,0.0018635141965244074,0.017005945929040745,0.19564513988062357,0.21133830673398124,0.401852865712436
0.0,0.0,0.0,0.0,0.0,0.0,0.0,0.0,0.0,0.0,0.0,0.0,0.0,0.0,0.0,0.0,0.0,0.0,0.0,0.028286413897106108,4.2500859204057995e-05,0.0008496748617563407,0.0830578289163883,0.0016769821081505294,0.005115212043198114,0.001799136610728074,0.001984259150443111,0.020392168735443524,0.0001240667946319665,0.008034947162545634,0.00022167885521564,0.004081722655034962,0.02361862542569168,0.00018769526082577681,0.0016972380522743142,0.014219693427676193,0.21956116569927964,0.5850488409478444
0.0,0.0,0.0,0.0,0.0,0.0,0.0,0.0,0.0,0.0,0.0,0.0,0.0,0.0,0.0,0.0,0.0,0.0,0.0,0.06031993786351025,0.0,0.0005685761620848888,0.2127914411687431,0.002290878914984237,0.006990653948851238,0.0034389585810859634,0.004893037341091622,0.04580328157254887,0.0,0.012096766245477288,0.0,0.04049288099762011,0.07429487511671132,0.0,0.003955144437427011,0.03206337674457017,0.0,0.1080133398548848,0.0,0.0,0.20592686704407717,0.0031272329700676275,0.00521162930544848,0.0069426671474086205,0.006942872338377847,0.04270018219831639,0.0,0.009382577794811602,0.0,0.011460549987492508,0.06802481574454122,0.0,0.0010420453908683556,0.03122502931841145
0.0,0.02520012435144047,0.0,0.0005645632386566982,0.06219145059554985,0.0023235520153171694,0.0027883119854265094,0.0011340675381414811,0.002668943603572547,0.019608381182350816,0.0,0.006959170833567049,0.0,0.0037697304542474324,0.02012756901743032,3.846402048276398e-05,0.0014282250322604727,0.015186863134048883,0.16672877907507505,0.17686323030921172,0.49241844875781976
0.0,0.026231067407562043,3.3280843050554835e-05,0.0006459605240624132,0.06205835963340689,0.002049276267349198,0.004694350585801237,0.002145293997737299,0.002370125696086612,0.028074296726287536,0.00013375159180248626,0.00947164150652544,0.0002363170821145805,0.005012736259852022,0.029156825473891323,0.000242211203054086,0.0018153686342097354,0.017690549404202133,0.19642668037955735,0.2118814734844836,0.39963028730819355
0.0,0.0,0.0,0.0,0.0,0.0,0.0,0.0,0.0,0.0,0.0,0.0,0.0,0.0,0.0,0.0,0.0,0.0,0.0,-0.028671444670377137,-4.44803184240615e-05,-0.000819602024451058,-0.0835491289674468,-0.0017010349485808132,-0.004878609909574593,-0.0017722640208426863,-0.0020705554595556812,-0.02042750423312698,-0.00012570699278266302,-0.00786730165335131,-0.0002073144919552233,-0.003958803551515739,-0.024348299592418483,-0.00018733422825529115,-0.0016364202928431531,-0.014156763934683013,-0.2202612664706153,-0.5833154943791081
0.0,0.0,0.0,0.0,0.0,0.0,0.0,0.0,0.0,0.0,0.0,0.0,0.0,0.0,0.0,0.0,0.0,0.0,0.0,-0.060308190781235234,0.0,-0.0005669857350042647,-0.21270467901229947,-0.002299910278115379,-0.006970638808762434,-0.0034351632814024805,-0.004919349945284645,-0.045830152402267677,0.0,-0.012090865303299225,0.0,-0.04043253455370279,-0.07435246400199506,0.0,-0.003944730804826251,-0.03214346445262754,0.0,-0.10793875390881214,0.0,0.0,-0.2058210884804967,-0.0031181293826956415,-0.005198822987843881,-0.006960098888383158,-0.006958968704388573,-0.04271474858169032,0.0,-0.009350380963625133,0.0,-0.011460364790449998,-0.06811579310645408,0.0,-0.0010410433728582013,-0.03132093619312439
0.0,-0.026536120196843493,0.0,-0.0005071571552111406,-0.06298606712519769,-0.002290235910593524,-0.002520550168185341,-0.0010808704388508097,-0.002562275781705339,-0.02026060825279224,0.0,-0.006575897429898127,0.0,-0.003529135964629291,-0.02109744715043404,-3.883222514938114e-05,-0.0013480361978505664,-0.014559288842656488,-0.1684119777466883,-0.17773899216173894,-0.48795594356979877
0.0,-0.026655049050986986,-3.411885686288996e-05,-0.0006184970625864998,-0.062170994564017486,-0.0020572916951741484,-0.004472766386258095,-0.002101365803546696,-0.002413506298447525,-0.028244609503160174,-0.0001337185858897504,-0.009256692888798147,-0.00022412587553424597,-0.004845537374818023,-0.0303775092433916,-0.00024330209815917746,-0.0017475229416581478,-0.017623899452515173,-0.19748587920880262,-0.21254048888859228,-0.3967524651058557
0.0,0.0,0.0,0.0,0.0,0.0,0.0,0.0,0.0,0.0,0.0,0.0,0.0,0.0,0.0,0.0,0.0,0.0,0.0,-0.028312822331231946,-4.161956918564357e-05,-0.000769694378917794,-0.08230486824839416,-0.001661732575037996,-0.005347100831475412,-0.0016873707689310658,-0.0019374239265815651,-0.020004180869689303,-0.00011764658412534569,-0.00847817184983573,-0.00019412682342371678,-0.003745255734345198,-0.02468343601796698,-0.00017533957650496724,-0.0015583169897058482,-0.01413609152953292,-0.22111721533717574,-0.5837269277059081
0.0,0.0,0.0,0.0,0.0,0.0,0.0,0.0,0.0,0.0,0.0,0.0,0.0,0.0,0.0,0.0,0.0,0.0,0.0,-0.05989066631676168,0.0,-0.0005534400302247553,-0.2112051659174874,-0.0024156859458878827,-0.008171907561010475,-0.003523973956019985,-0.0048011698106637055,-0.045587576995339836,0.0,-0.013340318681681871,0.0,-0.039636681746550335,-0.0742815382117966,0.0,-0.004021452045384743,-0.032569581337438994,0.0,-0.10535630168697277,0.0,0.0,-0.20688029464359714,-0.006035692137838057,-0.005074590361258805,-0.0067932151716716994,-0.006792133788158969,-0.04169207335689046,0.0,-0.009127090711841842,0.0,-0.011186047746045986,-0.06947591481665062,0.0,-0.001016140844358712,-0.03056966329096304
0.0,-0.025749348976932176,0.0,-0.0004542852258290511,-0.060345657087232676,-0.0023385465050841884,-0.0037328581401384975,-0.0009678436730641303,-0.0022942414629527354,-0.019154316404589044,0.0,-0.006938025765438431,0.0,-0.0031604268821495084,-0.020601351826886705,-3.476018387637666e-05,-0.0012693069582751036,-0.01433706753300157,-0.16406967245751636,-0.17635766260885702,-0.4981940837476954
0.0,-0.025889045916808816,-3.1205645879009845e-05,-0.0005659406847898007,-0.06075100116978254,-0.001986644104698992,-0.005652063891211806,-0.0019510757332029522,-0.0022075255024448398,-0.027230322152213687,-0.00012232084735371612,-0.009851801095838952,-0.00020509423537733428,-0.004462271661991302,-0.0298655613082097,-0.0002225569764856054,-0.001635063710558331,-0.017261362001737734,-0.19407993735174273,-0.21144373778754044,-0.40458482747819474
0.0,0.0,0.0,0.0,0.0,0.0,0.0,0.0,0.0,0.0,0.0,0.0,0.0,0.0,0.0,0.0,0.0,0.0,0.0,0.028318203464982778,3.793116398320365e-05,0.0007603853500440131,0.08219978849139248,0.0015684544326544443,0.005367038741584623,0.0016430094378975257,0.0021451613966996783,0.019679256372520996,0.00011070994668753824,0.008504944441997706,0.00019774144364559585,0.0036824749208865136,0.025005306332966167,0.00016747646700219774,0.001541303112072627,0.01445069480053972,0.22095063707013496,0.5836693386745857
0.0,0.0,0.0,0.0,0.0,0.0,0.0,0.0,0.0,0.0,0.0,0.0,0.0,0.0,0.0,0.0,0.0,0.0,0.0,0.059898657849307715,0.0,0.0005545685521969286,0.21125437844235317,0.0024087770278106656,0.008212841398983164,0.0035285416284839225,0.004772582591398364,0.04555231058450862,0.0,0.013369744518640293,0.0,0.03967591428953304,0.07423365497393422,0.0,0.004032007360232174,0.03250583484622644,0.0,0.10536086769379972,0.0,0.0,0.2069959196684065,0.0061004656627487415,0.0050832381255094755,0.006771668212588376,0.006771906989187798,0.041664793873494116,0.0,0.009151412219353436,0.0,0.011178277457604453,0.06943242157356605,0.0,0.0010163776320026479,0.03047246495534756
0.0,0.026410991822028284,0.0,0.00045207001231150024,0.059849857411939655,0.002163750762368646,0.003747613928382652,0.000908347779389048,0.0027285566390213255,0.019338217090358243,0.0,0.007252870510582057,0.0,0.003019672692741998,0.020991950727268095,3.0817106227270666e-05,0.0012069817897890078,0.015275372176674473,0.16601237513817574,0.17875688433328343,0.4918535496690007
0.0,0.02594844710933139,2.8741929297082074e-05,0.0005576856524608521,0.06063369017413595,0.001876888679386439,0.005646776924353605,0.0018815740466671203,0.002517005606165201,0.02717731169498607,0.00011549646435617284,0.009995543955403785,0.00020401405912690436,0.004357443180112252,0.0303184998007704,0.00020915759923483782,0.0016038139587031782,0.01766128710882416,0.19479480603701163,0.21208344811631916,0.40238822740674945
0.0,0.0,0.0,0.0,0.0,0.0,0.0,0.0,0.0,0.0,0.0,0.0,0.0,0.0,0.0,0.0,0.0,0.0,0.0,-0.028642088078687893,-4.0193865749683436e-05,-0.0007374675558314871,-0.08277280540150352,-0.0015999427353617856,-0.005120478872259376,-0.0016282086454465505,-0.0021560728669971847,-0.019898892194168356,-0.00011326829145329264,-0.008319174123116753,-0.00018539924509393003,-0.0035903941472935864,-0.02538386975500244,-0.00016856718189979942,-0.0014930483908688656,-0.014754678207403022,-0.22168980447090017,-0.5817048970600407
0.0,0.0,0.0,0.0,0.0,0.0,0.0,0.0,0.0,0.0,0.0,0.0,0.0,0.0,0.0,0.0,0.0,0.0,0.0,-0.05988185086174362,0.0,-0.0005530551415139116,-0.21117116908569836,-0.0024186629976921206,-0.008189966761237956,-0.0035251331313447456,-0.0048021909604180546,-0.04558700148936919,0.0,-0.01336060004780944,0.0,-0.03961715212307639,-0.07428564416355354,0.0,-0.004021700230049586,-0.03258490187241644,0.0,-0.10530691795580006,0.0,0.0,-0.20688713395795097,-0.006083502055887606,-0.005071254371533603,-0.006792512604697325,-0.006791281723240761,-0.04167583123730927,0.0,-0.009120094525158903,0.0,-0.011181742658271846,-0.06950659195782397,0.0,-0.001015642674997867,-0.0305665231432514
0.0,-0.026503234200731984,0.0,-0.00041907908723754785,-0.06042248248130276,-0.0021750799474880276,-0.0034495356883456575,-0.0008981920813625286,-0.0026930763697224466,-0.019601968588237845,0.0,-0.007028321468616507,0.0,-0.002927752420418237,-0.021267638436312145,-3.2435199619666456e-05,-0.00117681268189877,-0.015817343878807132,-0.16690292607599944,-0.17890575823055274,-0.4897777380269972
0.0,-0.0262429029148863,-2.9861152367411806e-05,-0.00053793423274924,-0.06093211418014762,-0.0018971398526944124,-0.0053762077522920195,-0.0018588167804248785,-0.00250299488962738,-0.027410597120840416,-0.00011676889766105929,-0.00980027274212709,-0.00019475472341247825,-0.00424561421610847,-0.03075274112092519,-0.00021255320898125074,-0.0015551527094972333,-0.018093930307327512,-0.19575087118250697,-0.21257323557192856,-0.39991480599256285
0.0,0.0,0.0,0.0,0.0,0.0,0.0,0.0,0.0,0.0,0.0,0.0,0.0,0.0,0.0,0.0,0.0,0.0,0.0,0.028584630305809444,3.6301174604765654e-05,0.0007484837512890441,0.08211563232448633,0.0015021469585874616,0.0054562987338608385,0.0015743803437128303,0.0020546117729453987,0.01985811011712327,0.00010602374435045863,0.008157882370069319,0.0001896691807701022,0.0036936823938908646,0.024664220285831363,0.00016043636840460347,0.0014775388066192313,0.01445896467446645,0.21934608338901151,0.5858147439426622
0.0,0.0,0.0,0.0,0.0,0.0,0.0,0.0,0.0,0.0,0.0,0.0,0.0,0.0,0.0,0.0,0.0,0.0,0.0,0.06100987349053939,0.0,0.0006952654517460524,0.21216577635525186,0.0023323602165046613,0.008744358537882182,0.0034169269798771293,0.0046210173585085786,0.04648361870587987,0.0,0.012946709400865692,0.0,0.03937080685021578,0.07267462236048144,0.0,0.0039045836728564902,0.031633874173376514,0.0,0.10499464537203804,0.0,0.0,0.20934764019577107,0.005907523885735522,0.005911461275775267,0.006556996702124412,0.006557254283997785,0.04034606318492328,0.0,0.00886236647913607,0.0,0.010824465209821992,0.0702007107775434,0.0,0.000984226317318355,0.029506439869799825
0.0,0.026327300898568204,0.0,0.0004395004035093919,0.06019211746660214,0.0021005554384499222,0.0036438428167676366,0.0008820861866896128,0.002649036260578881,0.019320831833664544,0.0,0.00704497747251229,0.0,0.002933411436896222,0.021080097078651248,2.9890988890763367e-05,0.0011723844742041563,0.01570881920866445,0.16608603843919809,0.17847198132706318,0.4919169944329549
0.0,0.02619987282571942,2.780426191563832e-05,0.0005402299936116409,0.060902917272554404,0.001816597084109407,0.005641920904439323,0.0018218991047252435,0.0024363064907930556,0.027329572519777696,0.0001117859485102707,0.009679242986386808,0.00019766458363819388,0.0042770132343270695,0.030271128716920604,0.00020241863941473297,0.0015534690509932728,0.01785946870354,0.1948023161288913,0.21154677852129122,0.40278143691739643
0.0,0.0,0.0,0.0,0.0,0.0,0.0,0.0,0.0,0.0,0.0,0.0,0.0,0.0,0.0,0.0,0.0,0.0,0.0,-0.028445775458427254,-3.820942771261277e-05,-0.0008696078232762811,-0.08221196492635909,-0.0015171734079966585,-0.0054491099014206176,-0.001540957055750314,-0.0020425323268957376,-0.020133031246483846,-0.00010742983902846195,-0.008154326946024509,-0.00017477685485017865,-0.003812623087641525,-0.02419886012891911,-0.00015970314614311912,-0.001410802383315306,-0.01440482830552453,-0.2195703134719892,-0.5857571718886854
0.0,0.0,0.0,0.0,0.0,0.0,0.0,0.0,0.0,0.0,0.0,0.0,0.0,0.0,0.0,0.0,0.0,0.0,0.0,-0.06089976784546543,0.0,-0.001561571203997296,-0.21103147229185,-0.0021678500906227413,-0.010825808764035084,-0.0031584287827960147,-0.004304851631548497,-0.048474104015596625,0.0,-0.013773678730463618,0.0,-0.039482353928191216,-0.06864497169091378,0.0,-0.0036029253153182636,-0.03207116470658474,0.0,-0.10082358077874656,0.0,0.0,-0.20571428122780888,-0.005449960055254403,-0.011066786450539181,-0.00608768629791847,-0.006086488425853858,-0.037343780836033125,0.0,-0.011917488155215069,0.0,-0.016578639678577402,-0.06781749289848091,0.0,-0.0009100054631632873,-0.030202758729791793
0.0,-0.02654768423772358,0.0,-0.00041632199135702977,-0.060535948587125736,-0.0021730200814248615,-0.0034250625283188734,-0.0008963460262479994,-0.0026872576927142525,-0.019553207350429088,0.0,-0.007004198676925695,0.0,-0.0029177883631442514,-0.0212060410459336,-3.2501719272256934e-05,-0.0011732624847720819,-0.015766984076477843,-0.16681261830266697,-0.17875018284391075,-0.49010089769061044
0.0,-0.025971242977229886,-2.881530258101011e-05,-0.0006599484292380111,-0.06109091586250197,-0.001827369851710665,-0.005634169752864384,-0.0017876708095331078,-0.002408323400176347,-0.027327402711846187,-0.00011247624995928619,-0.009593067660038809,-0.00018685099834446603,-0.004358973608788326,-0.029732606037630307,-0.00020480992299631417,-0.001493692674912825,-0.017788032579739904,-0.1940427046987287,-0.21094345013592,-0.40480669244317286
0.0,0.0,0.0,0.0,0.0,0.0,0.0,0.0,0.0,0.0,0.0,0.0,0.0,0.0,0.0,0.0,0.0,0.0,0.0,-0.028519365820915677,-3.721868958119878e-05,-0.0008544807239067373,-0.08220012790943275,-0.001620045996632264,-0.005376948525911375,-0.0015140196314403249,-0.002022206560574442,-0.020208009049122712,-0.00010511121301933784,-0.008110321908829309,-0.00017303087504426615,-0.0037509023985195147,-0.02426581933479034,-0.00015658932085965143,-0.001390402048986977,-0.014545621489162493,-0.2196147301901934,-0.5855343677685602
0.0,0.0,0.0,0.0,0.0,0.0,0.0,0.0,0.0,0.0,0.0,0.0,0.0,0.0,0.0,0.0,0.0,0.0,0.0,-0.06090439224061211,0.0,-0.001543747585556935,-0.2110646616527222,-0.0021701673132611963,-0.010785143379849035,-0.0031641394498558356,-0.00430814867586352,-0.04842926884016964,0.0,-0.013757235810599183,0.0,-0.039486262042799466,-0.0687226374675158,0.0,-0.0036102809682836494,-0.032053045025154464,0.0,-0.100916268611413,0.0,0.0,-0.20580270484569535,-0.005461242992144778,-0.010961498875220318,-0.006095103931833917,-0.006094096637487611,-0.03740459142997504,0.0,-0.011856983436705425,0.0,-0.01645784748803787,-0.06785931755732785,0.0,-0.0009116188627677231,-0.030177855783633915
0.0,-0.02662934444747677,0.0,-0.00041134477119194837,-0.060598068012588484,-0.002208954770950067,-0.0033874936777160457,-0.0008779134886562504,-0.002632541458564541,-0.01964974985725975,0.0,-0.006935419598885347,0.0,-0.002865248097525471,-0.020938776091821855,-3.1581558566977395e-05,-0.0011512745790024804,-0.015866628654966127,-0.1666252599258189,-0.17839410281209875,-0.4907957241994602
0.0,-0.026235658288623304,-2.8101022580762175e-05,-0.0006477137149053541,-0.06099715819527999,-0.00190596018079745,-0.005552783029688534,-0.0017548116012659658,-0.002388507909869107,-0.02746299340750418,-0.00011007284633708288,-0.009568477985327152,-0.0001842713474174105,-0.004284205045777259,-0.029728611969318235,-0.00020029951750075026,-0.001469920326842686,-0.018067163089300845,-0.19435527211564854,-0.2112259634816808,-0.4038313892796921
0.0,0.0,0.0,0.0,0.0,0.0,0.0,0.0,0.0,0.0,0.0,0.0,0.0,0.0,0.0,0.0,0.0,0.0,0.0,0.028349121842153484,3.362655532677556e-05,0.0008431186131628686,0.08196252480182964,0.0015279501528190228,0.005451626106868262,0.0014581483399883953,0.0019223233210525444,0.019849555484715977,9.820367569457211e-05,0.00854578647031109,0.00017564457375997944,0.003660235157419417,0.023482736903045226,0.0001485971899804846,0.0014940566872277306,0.01464119581703442,0.21898354169665443,0.5873718501707021
0.0,0.0,0.0,0.0,0.0,0.0,0.0,0.0,0.0,0.0,0.0,0.0,0.0,0.0,0.0,0.0,0.0,0.0,0.0,0.06092293208978127,0.0,0.001540197178292745,0.21114490261715863,0.0021626203648224466,0.010793225961300742,0.003168214406782524,0.004284741820013218,0.048391167337101186,0.0,0.013758230836455462,0.0,0.03953351468663995,0.06869870825411646,0.0,0.0036203602047363667,0.03198098040153296,0.0,0.10098613311483774,0.0,0.0,0.20592258302970984,0.005477499048107465,0.010946370069036192,0.0060797882071363775,0.0060800235679340274,0.03740945955941762,0.0,0.011862564243674868,0.0,0.016415747998412906,0.06781350200758522,0.0,0.000912586655845581,0.030093538657035814
0.0,0.026387167621637914,0.0,0.0004299766055052428,0.06030014174184161,0.002145249056897653,0.0035949691465453,0.0008630958591025822,0.002591996070569827,0.019442437201300282,0.0,0.006982985933181116,0.0,0.0028701296205600937,0.020775232720753763,2.9251814314378276e-05,0.0011471074361765457,0.01578873419433457,0.16585426551876947,0.17797222829175685,0.4928248991202876
0.0,0.026167785637595045,2.6120475313808658e-05,0.0006383516240669457,0.06109918486116864,0.0018258443962012,0.005705980119681572,0.0017113637799642722,0.002314951788648326,0.027219149983309515,0.00010500950888938392,0.009693434246525795,0.00018565780250438991,0.004227249174692,0.029101844162585048,0.0001901503798245869,0.001565330348951542,0.01807157264485391,0.193543321698076,0.21072050685435062,0.40588703712932667
0.0,0.0,0.0,0.0,0.0,0.0,0.0,0.0,0.0,0.0,0.0,0.0,0.0,0.0,0.0,0.0,0.0,0.0,0.0,-0.028432100731657247,-3.881482162944343e-05,-0.0010119154142306792,-0.08255515302668529,-0.0016007785647933846,-0.0051938050588459786,-0.001451259283005037,-0.001974424810465427,-0.020055799215664777,-0.00010503897836177651,-0.008582826347286134,-0.000153126566840164,-0.003527826730677102,-0.023553537786257912,-0.0001532300016140162,-0.0016233397086255854,-0.014492680188009525,-0.2211477532868292,-0.5843446929220109
0.0,0.0,0.0,0.0,0.0,0.0,0.0,0.0,0.0,0.0,0.0,0.0,0.0,0.0,0.0,0.0,0.0,0.0,0.0,-0.06087644437237197,0.0,-0.0015483323348267316,-0.21094435503638215,-0.002181694360409458,-0.01077109041994347,-0.0031582179609311346,-0.004343730781130487,-0.04848491193324913,0.0,-0.013754983067555822,0.0,-0.03941483481165645,-0.06876221820721778,0.0,-0.0035953402592896638,-0.03216131820428416,0.0,-0.10081445298197673,0.0,0.0,-0.20562483334130255,-0.00543712100383601,-0.010979730469657509,-0.006118614819399245,-0.006115734380720839,-0.03739986330411252,0.0,-0.011845838803362997,0.0,-0.01651622342469247,-0.06793045211614387,0.0,-0.0009102236955265373,-0.030304383408517196
0.0,-0.026879569276891613,0.0,-0.0006029762492748689,-0.06079893320290909,-0.0022500046464841595,-0.00321636232377244,-0.0008788262121040932,-0.002629752471536525,-0.01983284176368678,0.0,-0.006940042395254242,0.0,-0.0027925413931551967,-0.020756469020358007,-3.416848269945645e-05,-0.001130772593590617,-0.01572097303365068,-0.16675691134899728,-0.17873315476262594,-0.4900441061216538
0.0,-0.026373007361511054,-2.8876207107428066e-05,-0.0007365609788144595,-0.06129342528715248,-0.0018840588815996894,-0.005394049440702995,-0.0016902394471885664,-0.0023213450295683034,-0.02723077047141069,-0.00010931484349382205,-0.009779338046935123,-0.00016911353375878164,-0.004057363850964014,-0.028918477917456956,-0.00020023737846457525,-0.0015629670690768677,-0.017926357697657373,-0.19327851834962426,-0.21177644542145257,-0.40526768615739145
0.0,0.0,0.0,0.0,0.0,0.0,0.0,0.0,0.0,0.0,0.0,0.0,0.0,0.0,0.0,0.0,0.0,0.0,0.0,-0.028424896513657812,-3.4975951447292964e-05,-0.0009856254150623404,-0.08235892920417102,-0.00153012965008461,-0.005277549782551134,-0.001413657454315779,-0.001890849586086148,-0.020070428212717508,-9.84499142298183e-05,-0.00855885132318074,-0.0001606505913271267,-0.003586189232595914,-0.023369175830190065,-0.000146433160652002,-0.0016125896088570444,-0.014572439952126452,-0.2203207567012012,-0.5855866642533308
0.0,0.0,0.0,0.0,0.0,0.0,0.0,0.0,0.0,0.0,0.0,0.0,0.0,0.0,0.0,0.0,0.0,0.0,0.0,-0.060902204492034547,0.0,-0.0015438316989646716,-0.2110554553557781,-0.0021711395434528924,-0.010783348048153405,-0.003163751687201451,-0.004311087394061552,-0.04843305993062974,0.0,-0.013756788545862188,0.0,-0.03948053581618835,-0.06872710502807691,0.0,-0.003609188454233798,-0.0320615339722069,0.0,-0.10090951537243736,0.0,0.0,-0.20578972219251587,-0.005459469518487598,-0.010961278135444324,-0.006097130472594488,-0.0060959743684159354,-0.03740519209048563,0.0,-0.011855103712511656,0.0,-0.016460631942900494,-0.06786576503200947,0.0,-0.0009115318370193508,-0.030187715292021963
0.0,-0.026305637060107547,0.0,-0.0006056989738567771,-0.06037848181526801,-0.0022670063695518095,-0.0034079872136849325,-0.0008509010763253051,-0.002551149316728603,-0.019831805201374158,0.0,-0.006941690551517098,0.0,-0.0028269100088573547,-0.02047385587541559,-3.079091903999428e-05,-0.0011143126614193322,-0.015825421014691164,-0.16576677393271513,-0.17836847302642653,-0.4924524668569453
0.0,-0.026187952845936637,-2.6648527447143056e-05,-0.0007264780000808786,-0.06121462124317512,-0.0018576033433309038,-0.005498332786407528,-0.0016560147667655086,-0.0022556769304018457,-0.0274008633318933,-0.0001041115418400389,-0.009736202935065627,-0.00017329665746075264,-0.004112267164264465,-0.028804957990157046,-0.00018954609419588974,-0.0015629657705520442,-0.0180442463663963,-0.19310625157509007,-0.21160671546326262,-0.4057345071628881
0.0,0.0,0.0,0.0,0.0,0.0,0.0,0.0,0.0,0.0,0.0,0.0,0.0,0.0,0.0,0.0,0.0,0.0,0.0,-0.02830192942716316,-3.3264972730976604e-05,-0.0009539757147820748,-0.08240729457317299,-0.0014717810509726516,-0.005149119100925024,-0.0013673930038166898,-0.0018224880495226782,-0.020127061730376684,-9.44548821023527e-05,-0.008981470393872199,-0.00015769006406435724,-0.003518406577628986,-0.023574145743429562,-0.0001410758467224795,-0.0015667762913163527,-0.014927868481197225,-0.22145503531602853,-0.583948229464923
0.0,0.0,0.0,0.0,0.0,0.0,0.0,0.0,0.0,0.0,0.0,0.0,0.0,0.0,0.0,0.0,0.0,0.0,0.0,-0.060907526356606755,0.0,-0.0015429008646207192,-0.2110784123392734,-0.002168956661466671,-0.010785881978942053,-0.0031648957647708257,-0.0043043364992492224,-0.048422333018037673,0.0,-0.013757160742626975,0.0,-0.03949411913486506,-0.06871983781699086,0.0,-0.003612051891657537,-0.03204089625121873,0.0,-0.10092916518287197,0.0,0.0,-0.20582380284633153,-0.005464090627046019,-0.010957461394985385,-0.0060926870671616775,-0.006091887548490496,-0.037406290814621074,0.0,-0.01185701868197552,0.0,-0.016449134512623538,-0.06785238215208907,0.0,-0.0009118022762590286,-0.030163586215871115
0.0,-0.02596760253698401,0.0,-0.0005894224169957373,-0.06046034432976103,-0.002183339031314982,-0.0033476061578536272,-0.000820994592579374,-0.0024624809776997965,-0.01965372029251613,0.0,-0.006931164530683732,0.0,-0.002796455678106333,-0.02008343752942278,-2.924813199291487e-05,-0.0010790610948786265,-0.01606677854283037,-0.16477119695726217,-0.1792982992950062,-0.4934583973974977
0.0,-0.026083917299514828,-2.534685978368406e-05,-0.0007012505448102798,-0.06130039548199898,-0.0017820564165725032,-0.005340012280617906,-0.0015953958633686863,-0.0021694016432867802,-0.027378449673939237,-9.97069168834943e-05,-0.01013959404361568,-0.0001684634242039627,-0.004023263661239702,-0.02866516786945619,-0.00018129006389842834,-0.001512304945826067,-0.018386989965665877,-0.19298220540577274,-0.2128533624032635,-0.40461090022006807
0.0,0.0,0.0,0.0,0.0,0.0,0.0,0.0,0.0,0.0,0.0,0.0,0.0,0.0,0.0,0.0,0.0,0.0,0.0,0.028350250189985434,3.0793006507793295e-05,0.0009332910160279345,0.08237598503456538,0.001412072282917864,0.0051591981865240265,0.0013350532920527877,0.0017986864410090603,0.020130691441046015,8.9920492424022e-05,0.009046050983099959,0.00016079593991841129,0.0034758078871266473,0.023655407228975134,0.00013605795301274994,0.0015505183309722796,0.014850942763097758,0.22116489101862502,0.5843434313151801
0.0,0.0,0.0,0.0,0.0,0.0,0.0,0.0,0.0,0.0,0.0,0.0,0.0,0.0,0.0,0.0,0.0,0.0,0.0,0.060922878071993425,0.0,0.0015402079657458954,0.21114466810991603,0.0021626425101703706,0.01079320309602843,0.00316820235339844,0.004284810557465647,0.04839128056033194,0.0,0.013758228351605258,0.0,0.03953337614348208,0.06869877765942889,0.0,0.003620330484593528,0.031981192739892715,0.0,0.10098592697320878,0.0,0.0,0.2059222309674386,0.005477451122693136,0.010946416640328324,0.006079833111290248,0.006080064817815539,0.03740944441499154,0.0,0.011862549119966781,0.0,0.016415874149764177,0.06781363639264827,0.0,0.0009125837896463189,0.0300937871042609
0.0,0.026101603621077423,0.0,0.0005868722932056776,0.06031304834164116,0.002104135238080137,0.003425274347649804,0.0007964942581345886,0.0025157725025025173,0.019930866933385052,0.0,0.00694691970787939,0.0,0.0027588462729304843,0.019943125821762983,2.6998688609427625e-05,0.0010585548304578912,0.01578230077690783,0.16460299935455253,0.17944798265946366,0.49365807478740775
0.0,0.026498118878416885,2.3887019550492254e-05,0.0006919437321647173,0.06110904482765408,0.0017242537417652987,0.005366080108279385,0.0015648377458304579,0.0021712975229274054,0.02771314130433086,9.602404776274598e-05,0.010177723414201006,0.00016974815351909783,0.003986308003873993,0.02870469520240647,0.0001738817853888413,0.0015029400350412652,0.01823117964031177,0.19328309443887146,0.21333493553664876,0.4034767133001216
0.0,0.0,0.0,0.0,0.0,0.0,0.0,0.0,0.0,0.0,0.0,0.0,0.0,0.0,0.0,0.0,0.0,0.0,0.0,-0.028618530300814213,-3.2407089573261667e-05,-0.0009181233843884672,-0.0824235162276514,-0.0014395066355070726,-0.005072317145528273,-0.001324924000924989,-0.0017955984933657957,-0.020434069737634904,-9.146220882512486e-05,-0.008900337914687232,-0.0001503017289409605,-0.003422874304793989,-0.023542732076679382,-0.00013621290636191012,-0.001503924637927296,-0.014662249951365445,-0.22083461076904498,-0.5846955987860996
0.0,0.0,0.0,0.0,0.0,0.0,0.0,0.0,0.0,0.0,0.0,0.0,0.0,0.0,0.0,0.0,0.0,0.0,0.0,-0.06122931903797026,0.0,-0.001509720884117505,-0.21008979213452547,-0.0021229026862163393,-0.011543813351911044,-0.003094776921308379,-0.004214571798436086,-0.04902851213281219,0.0,-0.013787460743585628,0.0,-0.038951578565059194,-0.0688789354615647,0.0,-0.003530976352740154,-0.03201672311314883,0.0,-0.10144333756817354,0.0,0.0,-0.20129091548557956,-0.0053412494220340554,-0.013458868863560644,-0.005962181640160566,-0.00596115930881455,-0.03658592064261467,0.0,-0.011595922419942993,0.0,-0.016096457575521122,-0.07185251133078623,0.0,-0.0008916410083876976,-0.029518917917820228
0.0,-0.026457319774040648,0.0,-0.0005752822203068196,-0.060640783106677025,-0.002146837043227022,-0.003246331013565248,-0.000806065453484204,-0.0025380105388778463,-0.020118052014581982,0.0,-0.006916153414000404,0.0,-0.0027354761436306657,-0.01996729592458465,-2.9029493745569603e-05,-0.0010567782159743079,-0.015734384740092165,-0.16520703421876767,-0.17953857221071598,-0.49228600700986413
0.0,-0.02692209636893208,-2.4848285900117403e-05,-0.0006804560319960952,-0.06126825416569871,-0.0017369073104870469,-0.005259676216442556,-0.001550200823896945,-0.0021632919684802096,-0.02790845531676027,-9.728174897944153e-05,-0.010128574675467484,-0.00016267495724870448,-0.003925269427646225,-0.028568902172792173,-0.00017704091790598053,-0.0014650485814488748,-0.018119788893329956,-0.19348756253624666,-0.21323730231948668,-0.4031156816752445
0.0,0.0,0.0,0.0,0.0,0.0,0.0,0.0,0.0,0.0,0.0,0.0,0.0,0.0,0.0,0.0,0.0,0.0,0.0,0.02865617015536163,2.965833474895286e-05,0.0008987835531663314,0.08258983976579665,0.001375130515773667,0.005100102574586896,0.001293037876919215,0.0017321727903444948,0.02024700683904147,8.660126869284534e-05,0.00890172343090882,0.0001548362627890347,0.003513247165031015,0.02365379833104973,0.00013103167972834212,0.0015581310232038966,0.014582782269302128,0.22070470994172556,0.5847910828357278
0.0,0.0,0.0,0.0,0.0,0.0,0.0,0.0,0.0,0.0,0.0,0.0,0.0,0.0,0.0,0.0,0.0,0.0,0.0,0.06116781932304501,0.0,0.0014450238317193387,0.21094612331192727,0.002028995812009435,0.011059005182246825,0.00297239635168691,0.00402002836912269,0.048355097858423866,0.0,0.01391873942578041,0.0,0.038800724232616934,0.06950707884107102,0.0,0.004096422452896967,0.03168234608800114,0.0,0.10074965914840789,0.0,0.0,0.1966359514378702,0.0051389145940986545,0.012835270835541361,0.005704105421479134,0.005704321342266574,0.0385377307263542,0.0,0.011129411774232732,0.0,0.015401387262705625,0.07563323798077676,0.0,0.0008561831581907226,0.03167362739862412
0.0,0.026333755730192976,0.0,0.0005593430555201115,0.060975014414467725,0.002005583912887821,0.0032644017010346462,0.0007591771196873352,0.002397737276366468,0.01960402339679428,0.0,0.006809413228136406,0.0,0.0030808058289983086,0.019749877368533276,2.5736796837123966e-05,0.0012143703896627745,0.015620750509438184,0.16460366685334096,0.17930506649068398,0.49369114784728696
0.0,0.02695760931253502,2.3096068411455073e-05,0.0006689603662963597,0.061286812471549,0.0016670566660247125,0.005280055439972559,0.0015128812802964982,0.0020991476978931517,0.027823269966638055,9.283973770757607e-05,0.010095970629380103,0.00016410211081189683,0.004033176504078829,0.028879352733576915,0.00016811719405698686,0.001607093847200135,0.018117839216927438,0.1937431809217908,0.21359626829828582,0.4021830193159931
0.0,0.0,0.0,0.0,0.0,0.0,0.0,0.0,0.0,0.0,0.0,0.0,0.0,0.0,0.0,0.0,0.0,0.0,0.0,0.028690961351214763,2.8884713691432443e-05,0.0008948196760862985,0.08255503856718345,0.0013389183288945712,0.005179402800199751,0.0012588322441100344,0.0017733426944825704,0.02005528170153537,8.432514741415504e-05,0.009276951001336436,0.00015069497260656022,0.003419837292372395,0.02317805517141215,0.0001275760097824744,0.0015985982477086855,0.014582116933163063,0.22155595035846695,0.584250263599438
0.0,0.0,0.0,0.0,0.0,0.0,0.0,0.0,0.0,0.0,0.0,0.0,0.0,0.0,0.0,0.0,0.0,0.0,0.0,0.06116799788595817,0.0,0.0014452902298981388,0.2109424286010699,0.0020293937953257393,0.011060892633449827,0.002972860771203605,0.004020883160704538,0.048357904622138244,0.0,0.013918219135665755,0.0,0.03880112364614376,0.0695047123053011,0.0,0.004094158656615408,0.031683941732359666,0.0,0.10075214116163278,0.0,0.0,0.19665370163309753,0.005139645315696265,0.012837824830757133,0.005705178012777983,0.005705384228571659,0.038530017659154724,0.0,0.011131215387625078,0.0,0.015404269657136708,0.07561863376909418,0.0,0.0008563185464256192,0.03166547697386439
0.0,0.026402957374289344,0.0,0.0005526663378253223,0.06073218339654689,0.0019820765575223865,0.0033006728776189195,0.0007502449819381089,0.0023694863629420805,0.019524328827578503,0.0,0.00698472000364039,0.0,0.0030435755015771823,0.01956647239059145,2.544275232454418e-05,0.0011997042946561137,0.015639968712433644,0.16425173170224447,0.17983705684252416,0.49383658651252393
0.0,0.02682014997602877,2.2521453990545132e-05,0.0006521052799386727,0.061250247608790984,0.0016252759193746585,0.005348548554552786,0.0014748238985723367,0.002091475903578398,0.027364793133671784,9.051591225350728e-05,0.010490005599077557,0.00015994448778362003,0.00393121765718544,0.028336861172077447,0.00016391388394609803,0.0016338284888765444,0.01816312630060886,0.19280290710126435,0.2136150864790582,0.40396250550659546
0.0,0.0,0.0,0.0,0.0,0.0,0.0,0.0,0.0,0.0,0.0,0.0,0.0,0.0,0.0,0.0,0.0,0.0,0.0,0.028693318109055413,2.8335249990529097e-05,0.0008777068352397308,0.08236650733346051,0.0013133302247125198,0.005176831073376771,0.0012347210961393131,0.0017717072696469835,0.02031879089908999,8.271513164181367e-05,0.009250998254254655,0.000147792986196235,0.0033542358516122387,0.023195544011797676,0.00018907933512826307,0.0015680561921557253,0.014568265386819518,0.22122262927682543,0.5846392880123807
0.0,0.0,0.0,0.0,0.0,0.0,0.0,0.0,0.0,0.0,0.0,0.0,0.0,0.0,0.0,0.0,0.0,0.0,0.0,0.06116796809795791,0.0,0.0014452973967479447,0.21094225066297465,0.00202940970332982,0.011060893375985918,0.002972855101572983,0.004020930867944942,0.04835799557666029,0.0,0.013918214385740986,0.0,0.038801032270735725,0.06950474941227718,0.0,0.00409412734201714,0.03168408517241117,0.0,0.10075203545374252,0.0,0.0,0.19665352707656722,0.0051396178755507066,0.012837887223322108,0.005705211435098322,0.0057054152714872165,0.038529958681745614,0.0,0.011131209966055272,0.0,0.015404356562536482,0.07561868320570567,0.0,0.0008563173077432874,0.03166558930680242
0.0,0.026648602534546442,0.0,0.0005462896182959935,0.06062314883370213,0.001959363654731469,0.0033129197087903035,0.0007416355737184897,0.0023422808713951734,0.01978925931539824,0.0,0.006980300355184466,0.0,0.0030085010424182553,0.019392005695763846,7.576711672618473e-05,0.001185896063071961,0.015730367529381516,0.16448839744779856,0.1798950431633285,0.4932800981145577
0.0,0.026912591368303332,2.211142326718229e-05,0.0006401593566077113,0.06118829262514737,0.0015955796924558472,0.0053888540908840704,0.0014478278023231546,0.002097565292395243,0.02760911576195592,8.886308518921231e-05,0.010465042658472253,0.00015700650346727016,0.0038591629318804007,0.02827255833354302,0.00021093596258482246,0.0016039771635750436,0.01814002653129254,0.19282491581793573,0.21347953600056285,0.40399573349951334
0.0,0.0,0.0,0.0,0.0,0.0,0.0,0.0,0.0,0.0,0.0,0.0,0.0,0.0,0.0,0.0,0.0,0.0,0.0,-0.02888262234565683,-3.02812508178744e-05,-0.000869422972849912,-0.08262853848331728,-0.001402262629491844,-0.005032671293856878,-0.0013299225202545676,-0.001795161587341149,-0.020536280469585926,-8.503060985793965e-05,-0.009097208292498228,-0.00013786566185056191,-0.0032742006791547955,-0.02317705028434617,-0.00019275261371020839,-0.0015307646453550344,-0.014364501582237567,-0.22117713839586503,-0.5844554885172871
0.0,0.0,0.0,0.0,0.0,0.0,0.0,0.0,0.0,0.0,0.0,0.0,0.0,0.0,0.0,0.0,0.0,0.0,0.0,-0.06114979999483943,0.0,-0.0014489019861973758,-0.21084511112855922,-0.0020378508661970433,-0.01105703413647043,-0.0029684663077011023,-0.004047016707693854,-0.04840490250771152,0.0,-0.013916534057064459,0.0,-0.03874628352734481,-0.06953157132829256,0.0,-0.00408080705820533,-0.03176462409883558,0.0,-0.1006839103597001,0.0,0.0,-0.1965101797103691,-0.005121830730749184,-0.012868738264695328,-0.0057224077782197,-0.0057212356088718,-0.038512499390477746,0.0,-0.011123917811819248,0.0,-0.015448858142182106,-0.07568025983992874,0.0,-0.0008552812206559334,-0.03174978484744361
0.0,-0.027055080898116313,0.0,-0.0005305269423812628,-0.0605818227899547,-0.0020556053221569047,-0.003231675461014997,-0.0008265588983667349,-0.002351316744245729,-0.02015936622692733,0.0,-0.006882428609915704,0.0,-0.0029464951020705442,-0.01953293155231758,-7.939037406071397e-05,-0.0011713697409150019,-0.015577727689747469,-0.16504325391039626,-0.1799058987363718,-0.49206784991865304
0.0,-0.02713514882593657,-2.3293139054366948e-05,-0.0006323869373377531,-0.06119254963135281,-0.001643421339594849,-0.005278664464311261,-0.00159093285979802,-0.002106606763426186,-0.02793983315910861,-9.083000467495267e-05,-0.01036657330234619,-0.00015055584359269963,-0.003790398852743367,-0.028319871044383105,-0.0002159485389844909,-0.0015731637215223861,-0.018022694991570595,-0.19328465761617158,-0.2135806510422662,-0.40306100108288856
