0.0,0.0,0.0,0.0,0.0,0.0,0.0,0.0,0.0,0.0,0.0,0.0,0.0,0.0,0.0,0.0,0.0,0.0,0.0,-0.015602241917550247,0.0,-0.009453857324527155,-0.06507781002824656,0.0,-0.019658584148972643,-0.0053192200460857935,-0.0037507841250175008,-0.009131011897083543,0.0,-0.012487086298085892,-0.00023531377799668155,0.0,-0.005965199165077053,0.0,0.0,-0.007740130429330426,-0.20697891779147934,-0.6385757953970975
0,0,0,0,0,0,0,0,0,0,0,0,0,0,0,0,0,0,0,0,0,0,0,0,0,0,0,0,0,0,0,0,0,0,0,0,0,0,0,0,0,0,0,0,0,0,0,0,0,0,0,0,0,0
0.0,-0.014894798508364067,0.0,-0.006262585736471257,-0.03740625534486885,0.0,-0.027927747203182623,0.0,-0.0006770362958347304,-0.004908513144801792,0.0,0.0,0.0,0.0,0.0,0.0,0.0,-0.007447399254182036,-0.09952433548770537,-0.11848135177107781,-0.6824525862014079
0.0,-0.010916426932233818,0.0,-0.009999780395939377,-0.055373783942514306,0.0,-0.01662463490824921,-0.006124865492512865,-0.0031249313737310544,-0.007958158565101748,0.0,-0.013249709024619681,0.0,0.0,-0.006499857257360589,0.0,0.0,-0.007624832551903772,-0.15249665103807564,-0.1674963216319844,-0.5424880864797109
0.0,0.0,0.0,0.0,0.0,0.0,0.0,0.0,0.0,0.0,0.0,0.0,0.0,0.0,0.0,0.0,0.0,0.0,0.0,-0.010733848209836756,0.0,-0.013340072630433896,-0.06265720446189636,0.0,-0.02751060772979284,-0.00704487539810639,-0.004610052877606657,-0.01094219681309464,0.0,-0.017580909986790894,-0.0003389309004310469,0.0,0.002340195315081391,0.0,0.0016782435191662556,0.00042943566099355393,-0.22409107419467927,-0.6166538229133717
0,0,0,0,0,0,0,0,0,0,0,0,0,0,0,0,0,0,0,0,0,0,0,0,0,0,0,0,0,0,0,0,0,0,0,0,0,0,0,0,0,0,0,0,0,0,0,0,0,0,0,0,0,0
0.0,-0.003192029202801574,0.0,-0.00997894518903927,-0.010460681440706094,0.0,-0.044500701518688644,-0.0018457804130545532,-0.000578974195567806,-0.005200935058552186,0.0,0.0,0.0,0.0,0.010257143220632628,0.0,0.0016343868174865397,0.0013609084869700822,-0.06250560849332093,-0.09271214528176405,-0.7557112396539449
0.0,-0.012933094380436282,0.0,-0.010623055363668735,-0.047831037031841536,0.0,-0.01766082954209926,-0.006506621410247082,-0.0033622917536449567,-0.009069433556530873,0.0,-0.014075548356861043,0.0,0.0,-0.01273575965032832,0.0,-0.0019990877307040364,-0.006798034557357991,-0.15952937637922335,-0.1754639594247264,-0.5213754086179309
0.0,0.0,0.0,0.0,0.0,0.0,0.0,0.0,0.0,0.0,0.0,0.0,0.0,0.0,0.0,0.0,0.0,0.0,0.0,0.019800673125967082,0.0,0.006231834549298952,0.04256027538458369,0.0035045537111000145,0.00917480292205194,0.0020792372992274504,0.0005317643972896644,0.009348763705044562,0.0,0.007226633128961505,0.0019751931985572016,0.00027630463116481437,0.011776308764323453,0.0,0.001002043171650881,0.01228714024657513,0.16421773876325363,0.7079925559832086
0,0,0,0,0,0,0,0,0,0,0,0,0,0,0,0,0,0,0,0,0,0,0,0,0,0,0,0,0,0,0,0,0,0,0,0,0,0,0,0,0,0,0,0,0,0,0,0,0,0,0,0,0,0
0.0,0.025766863553344,0.0,0.004857833565572309,0.04427865536471258,0.00385811501700245,0.008539989328365215,0.00014582145489914607,0.0015183294081636705,0.010697988681484055,0.0,0.005219171846162658,0.0,0.0005565068425048833,0.025030117422631504,0.0,0.0033102429059584143,0.01250821452897693,0.14628784991977795,0.16105526540143236,0.5463519949304295
0.0,0.017388898781718443,0.0,0.005645699215871098,0.03904219911224618,0.005696826227716045,0.0176164743898313,0.0029457835301296585,0.00011579525987621932,0.010726636693112995,0.0,0.00788904255899796,0.002979959001555157,0.0,0.011168565342384324,0.0,0.0010388131810477887,0.012339168289973675,0.1397448182286579,0.16617980723227346,0.5594633643921292
0.0,0.0,0.0,0.0,0.0,0.0,0.0,0.0,0.0,0.0,0.0,0.0,0.0,0.0,0.0,0.0,0.0,0.0,0.0,-0.008048494516968692,0.0,-0.00779026414931375,-0.055101135152737,0.0027188182296940147,-0.019611991326727505,-0.007278240020977736,-0.005388452836353554,-0.004491506893006719,0.0,-0.015393785003873853,-0.0012280415717755362,-0.00500210418139409,-0.010927022889525618,0.0,-0.0023580645873871988,-0.00172556362487072,-0.22243855323085693,-0.6304759533256672
0.0,0.0,0.0,0.0,0.0,0.0,0.0,0.0,0.0,0.0,0.0,0.0,0.0,0.0,0.0,0.0,0.0,0.0,0.0,-0.03835286414206087,0.0,-0.0368266998276905,-0.17619744470372653,0.0,-0.05537492007629406,-0.012784288047353622,-0.012784288047353622,-0.020720342482079525,0.0,-0.047438865641568156,-0.00881626082999067,-0.020074384562973925,-0.044762754262416396,0.0,-0.0072900965156203045,-0.01854822024860356,0.0,0.0,0.0,-0.10118469404275522,-0.3095061229543101,0.0,0.0,0.0,0.0,-0.05356836743439984,0.0,0.0,-0.03571224495626656,0.0,0.0,0.0,0.0,0.0
0.0,-0.008771511370763452,0.0,-0.009042971034175161,-0.029955026072248696,0.0018093983611375325,-0.022957688566456767,-0.010283481045331904,-0.004351131572398787,-0.003091243325553131,0.0,-0.004717999802332336,-0.0018699490205527497,-0.005024196300823425,-0.0012861379405354272,0.0,0.00028148021613843963,0.0007082766849573813,-0.09855218078893849,-0.14848943079774715,-0.6487927943149212
0.0,-0.009876934312572576,0.0,-0.006927573408296161,-0.047063979802816173,0.0029306487951488084,-0.020814194389293498,-0.00581788855080078,-0.0038401326528718564,-0.005227897531109642,0.0,-0.012806603898167774,-0.0005176683068499419,-0.005928057126691452,-0.012425632253963426,0.0,-0.002852984369746485,-0.0027583076633584595,-0.14287611007612416,-0.17626544306260356,-0.5410495011337785
0.0,0.0,0.0,0.0,0.0,0.0,0.0,0.0,0.0,0.0,0.0,0.0,0.0,0.0,0.0,0.0,0.0,0.0,0.0,0.020123749582739495,0.0,0.001703775752762802,0.05096568393659358,0.005922554971442038,0.0020558660563491896,-0.003230633970456424,-0.004436714686954881,0.018485660838593758,0.0007746753178431625,0.008386090241524624,0.00023063991631788166,0.0010807057049189155,0.020471922739017042,0.0,-0.0015798908893014955,0.02657043030245378,0.1585715115942359,0.6753762796542805
0.0,0.0,0.0,0.0,0.0,0.0,0.0,0.0,0.0,0.0,0.0,0.0,0.0,0.0,0.0,0.0,0.0,0.0,0.0,-0.02892054662302651,0.0,-0.045393209171880625,-0.12130749659484333,0.0,-0.056198738867092916,-0.015109956391187158,-0.013529762867006445,-0.00299760608032474,0.0,-0.03664993212230827,-0.011301426796266804,-0.009575330067175128,-0.0290602030232643,0.0,-0.009345060643933981,0.005853156315724933,0.0,0.034451183275550586,0.0,-0.12970707589966604,-0.26902578272815864,0.0,0.01969945849727422,0.0,0.012861971663965598,-0.049579052985072765,0.0,0.0,-0.04577896796458801,0.011280898236945175,0.011280898236945175,0.0,0.0,0.030980356734219387
0.0,0.013338491112855688,0.0,0.0017440977418852473,0.06532405054219938,0.00716290095249872,-0.01007219119524766,-0.025126047798765237,-0.008045184645441378,0.01665102516877921,0.005735337898164606,0.015035965399874262,-0.004375932151518679,-0.004287686680405162,0.06407245996285932,0.0,0.005930392341674482,0.03511805576037258,0.21488412693952094,0.1612240378065777,0.34183479925678856
0.0,0.012787466153291696,0.0,0.006127722795006363,0.04063102961031064,0.009092804125343568,0.008083927701024736,-0.004071393103213988,-0.00403654208141915,0.0202833208125154,0.00010834051152400887,0.00897304065786069,0.0017900155065107637,-0.0033273616749552805,0.022123372756976394,0.0,-0.0020331931918032044,0.027089421151017853,0.15023467112311714,0.19311118181234735,0.48605837881639863
0.0,0.0,0.0,0.0,0.0,0.0,0.0,0.0,0.0,0.0,0.0,0.0,0.0,0.0,0.0,0.0,0.0,0.0,0.0,0.01595044127846707,0.0,0.0027215988773537647,0.04076625492337403,0.007164740422182056,0.004068034803821529,-0.003590072815832313,-0.005110701076397011,0.017458291638051935,0.0009665219673185159,0.00860575810226029,0.00038112027538632267,0.0017293109925350337,0.018657388560035116,0.0,-0.0017862699011701316,0.02769428338085964,0.1477156702775522,0.6955852774385708
0.0,0.0,0.0,0.0,0.0,0.0,0.0,0.0,0.0,0.0,0.0,0.0,0.0,0.0,0.0,0.0,0.0,0.0,0.0,-0.02464773068677682,0.0,-0.04769233875198924,-0.09747956090974581,0.0,-0.05527590514595891,-0.01567263763571247,-0.013518422129832012,0.003897651812111463,0.0,-0.03168378795200531,-0.012009619454920796,-0.005318406838936541,-0.022368195670707077,0.0,-0.009930659565381365,0.015126563196620186,0.0,0.04696593934378972,0.0,-0.1378350406764642,-0.2474902386767869,0.0,0.02685549478775334,0.0,0.01753421867051085,-0.046947667437950036,0.0,0.0,-0.04864766141522266,0.01537880362779394,0.01537880362779394,0.0,0.0,0.04223429841554728
0.0,0.001296858251009921,0.0,0.003591408773037032,0.05721177454328583,0.009727803546131984,-0.011046811451334036,-0.033615664373881735,-0.01062702902604935,0.014641027086450344,0.007975859002854694,0.02068711178872359,-0.005844292630066701,-0.005314873928365652,0.08003134413791219,0.0,0.008210818566564122,0.04291333575176375,0.2308455492250754,0.15117425234299178,0.30518086161339636
0.0,0.008143587973979226,0.0,0.0074636018172216075,0.035071233895986646,0.009665114460497864,0.011092381747003109,-0.003846749699745699,-0.0040195972844346145,0.018113191331494593,0.00011888652683925156,0.009266064796224481,0.0020195101835844783,-0.003018534642775378,0.019693423719519428,0.0,-0.0019266005564674297,0.02519718519981178,0.1412442281358691,0.18598855716657334,0.5140627908005255
0.0,0.0,0.0,0.0,0.0,0.0,0.0,0.0,0.0,0.0,0.0,0.0,0.0,0.0,0.0,0.0,0.0,0.0,0.0,0.00992822937216745,-0.0008882513910961309,0.004406852191648784,0.020556328668950182,0.009936242102662732,0.006761287264703962,-0.005191654224230437,-0.007493243302003851,0.020091230793126087,0.0014577976969026077,0.009449351726679706,0.0006221398728850239,0.0010197438944280727,0.01565812084305409,0.0,-0.0036109063718695413,0.03042301362382693,0.11661968388968394,0.735815578654365
0.0,0.0,0.0,0.0,0.0,0.0,0.0,0.0,0.0,0.0,0.0,0.0,0.0,0.0,0.0,0.0,0.0,0.0,0.0,-0.019985477118141633,0.0,-0.049643033488496614,-0.07319540456145505,0.0,-0.05437627393415772,-0.016143773093403768,-0.013487240822292133,0.010538969177771458,0.0,-0.026972649679330524,-0.012614687332232482,-0.0012733962255937232,-0.015280399812295429,0.0,-0.010430985418842798,0.02441828889121451,0.0,0.0580163603342228,0.0,-0.14477943685773595,-0.22634238538640117,0.0,0.03311761908945059,0.0,0.02162282168139084,-0.04276808165235169,0.0,0.0,-0.051098624773318564,0.01896481016722866,0.020950590605841948,0.0,0.0,0.053870263374416555
0.0,-0.015987141272796865,0.0,0.006231716808948301,0.04323700751089725,0.014985197731444556,-0.015511751359659093,-0.05149297890309124,-0.016199413614459767,0.011719154992668153,0.012393249846112259,0.029570140517135454,-0.008946462604562222,-0.009978323766378352,0.11166615157120272,0.0,0.012738070009830146,0.055086420734400364,0.2587678301546571,0.12749040822734795,0.1979102573062847
0.0,0.002549690614643639,-0.0009520767214966167,0.009990452113703517,0.020474280143299703,0.01227993014668976,0.015428752124814128,-0.004630537094552557,-0.004962280773626051,0.017869931209546313,0.00015304138242181327,0.009861818323958126,0.0026282870748096676,-0.005220723925727243,0.017880068486355434,0.0,-0.0025661410154597013,0.024032977458553127,0.1258823656886797,0.17456098927383176,0.5480117887704584
0.0,0.0,0.0,0.0,0.0,0.0,0.0,0.0,0.0,0.0,0.0,0.0,0.0,0.0,0.0,0.0,0.0,0.0,0.0,-0.0039584456153358965,-0.0019511827141584011,0.0073210428417525555,-0.025055423098291122,0.015615546692254824,0.011325730451387834,-0.012923079860869,-0.013643332451162086,0.02099413756319053,0.0023644229791289027,0.013296828933884555,0.0010362423238545085,0.0007409241470731955,0.004115944677727085,-0.0003068461890878992,-0.006383440204114797,0.03541078699002897,0.04420176356710768,0.7792585355545931
0.0,0.0,0.0,0.0,0.0,0.0,0.0,0.0,0.0,0.0,0.0,0.0,0.0,0.0,0.0,0.0,0.0,0.0,0.0,-0.014999043227050986,0.0,-0.051386114486958324,-0.04740556746479147,0.0,-0.05311513147700663,-0.016540184134248258,-0.01337487002743677,0.01741124256104323,0.0,-0.02189382462121273,-0.013171829854307341,0.0029578025166049266,-0.007789139546040297,0.0,-0.01089168217421388,0.033975896507664215,0.0,0.06921151757028086,0.0,-0.15117379119019655,-0.20292110465930338,0.0,0.0394603400936598,0.0,0.02576404707801109,-0.038150814403120396,0.0,0.0,-0.053355455714187025,0.022596970421974717,0.02664448454242299,0.0,0.0,0.06570136083250348
0.0,-0.05559053172006717,0.0,0.010973749013098763,-0.005600120507086668,0.02537101975266569,-0.02535199570164078,-0.0967348558096155,-0.03152530968444902,-0.0010954836756533178,0.02104728674312559,0.04867479665416757,-0.015112903657208292,-0.017977357136144814,0.1589665703853266,0.0,0.02162073473533908,0.07523785966473162,0.2415671223118456,0.0023021980094394484,-0.1451258686950488
0.0,-0.008233187339169471,-0.0018728346574570223,0.014268432420435977,-0.005688388142611185,0.01718402493272144,0.02234853520973646,-0.009462791777839994,-0.007711746723611064,0.015340373052542749,0.00021529020406314454,0.01271519821017077,0.003713351999431143,-0.008092305360475265,0.009757606390848592,-0.00015875862526150333,-0.0036581241060224135,0.022293579607832355,0.0843888179452175,0.14722812473593147,0.6055848525121272
0.0,0.0,0.0,0.0,0.0,0.0,0.0,0.0,0.0,0.0,0.0,0.0,0.0,0.0,0.0,0.0,0.0,0.0,0.0,-0.030927612047940176,-0.002843067041294622,0.006280577924871614,-0.14895865569586586,0.018584076005296064,-0.0020411021043350366,-0.020188828511458343,-0.020364949693336236,0.002861705992341911,0.0031309178122523413,-0.004427486943407957,0.001385980150468017,-0.002634464432233069,-0.028086710903794204,-0.0005622038152704432,-0.00872046992220259,0.027169904727161336,-0.35162552792114227,-0.31910806948566456
0.0,0.0,0.0,0.0,0.0,0.0,0.0,0.0,0.0,0.0,0.0,0.0,0.0,0.0,0.0,0.0,0.0,0.0,0.0,-0.01075743725593458,0.0,-0.05259697119062306,-0.0227195029809431,0.00020147276920335312,-0.050953939186400045,-0.016892007615945656,-0.013301469073137102,0.02419012696351868,0.0,-0.01665487150352999,-0.013790559302077818,0.006372263061521662,-0.0007496767521076743,0.0,-0.011403304672491088,0.04270493144681471,0.0,0.07903611167687337,0.0,-0.1567837993647509,-0.1807862832365227,0.0,0.04753717188193522,0.0,0.029225157734983083,-0.03304582639802632,0.0,0.0014911825768503415,-0.05586175833232984,0.025632619864236764,0.03173971633051682,0.0,0.0,0.07546476197410229
0.0,-0.07113552837189921,0.0,0.012858938651680382,-0.02496754193228925,0.028903114702215783,-0.01996309155855171,-0.1108266336988506,-0.036202489918906046,-0.005327055989894797,0.023171343126050247,0.0545603925593295,-0.016600419101483015,-0.01968946284099671,0.1640539627374874,0.0,0.023796994659333142,0.07564219780423675,0.21715454606710594,-0.019500297663269182,-0.07555294984675102
0.0,-0.041059110364012934,-0.004012815108889545,0.026129931558053255,-0.1359767285419907,0.030645308104008236,0.0014076458312229834,-0.02048251330340573,-0.01771781743063455,-0.013162021450178476,0.0004111165098667143,0.004301989136964445,0.007104096170072644,-0.020338349860551934,-0.01884671750746419,-0.0004330457770052439,-0.007024972991811574,0.01682312954683016,-0.17378597222045383,-0.2537559493489426,-0.20644558091949627
0.0,0.0,0.0,0.0,0.0,0.0,0.0,0.0,0.0,0.0,0.0,0.0,0.0,0.0,0.0,0.0,0.0,0.0,0.0,-0.02110825827650236,-0.0008230020267413014,-0.0014686727487431043,-0.08806110041845143,0.0037787674613594404,-0.008827940106326855,-0.007115189422327951,-0.006364739300954199,-0.009372547689080519,0.0007209441415573782,-0.01062665978061078,-8.332035032344882e-05,-0.0025771073216705187,-0.02151852728430178,-0.000202156683341607,-0.0027162001008346694,-0.0033588146490894696,-0.25656575662725434,-0.554690302361045
0.0,0.0,0.0,0.0,0.0,0.0,0.0,0.0,0.0,0.0,0.0,0.0,0.0,0.0,0.0,0.0,0.0,0.0,0.0,-0.030437628974087538,0.0,-0.046110189455828225,-0.13495570000769844,-0.0006951131152440111,-0.0610075931986717,-0.015400261831260297,-0.012918679299328599,-0.007973620948816535,0.0,-0.04079424348452307,-0.01095465250957758,-0.008021356356998856,-0.03547824266925023,0.0,-0.009058315722492888,0.002562042523929438,0.0,0.030105596249838506,0.0,-0.12977009170000353,-0.2546590982253068,0.0,0.0016906740745424855,0.0,0.016477028873609318,-0.06004411376459254,0.0,-0.004042962716288631,-0.044374280817781706,0.01164782105456563,-0.004510539802108432,0.0,0.0,0.026236411723676994
0.0,-0.04168140419828593,0.0,0.0011188545536002287,-0.05639620829749786,0.008239984604129813,-0.012989014409529454,-0.03753278101233766,-0.013230073593605883,-0.014584866843952523,0.006619165987643936,0.011322452564502504,-0.005134541900204163,-0.007221318049353655,0.027940193636023226,0.0,0.006259975687003843,0.01071177962115487,-0.08911350050030713,-0.17035426845431711,-0.47952374936788317
0.0,-0.023022538327567912,-0.00113634753673584,0.0037201859679946436,-0.07198082932734978,0.006757489507839659,-0.009555778431350182,-0.007253388422646323,-0.005445687932407903,-0.0166777712145172,5.157079298161762e-05,-0.0073939726456602245,0.0012955674955201612,-0.007038533304259327,-0.02056002432732632,-0.00014697366639090812,-0.0023768144741004625,-0.006895105796694392,-0.16520827199817825,-0.22119728909573966,-0.4222653200051866
0.0,0.0,0.0,0.0,0.0,0.0,0.0,0.0,0.0,0.0,0.0,0.0,0.0,0.0,0.0,0.0,0.0,0.0,0.0,-0.0187776878864174,-0.00043071553121752334,-0.0030469697325866546,-0.07525243941678432,0.0008678842973253178,-0.010308974914228542,-0.0045916309636209966,-0.0036564593361217913,-0.011438446184068368,0.0003986946822999976,-0.01195708380846002,-0.00037947630465571527,-0.0026065074939384996,-0.01993772939692478,-0.000133117856598632,-0.0015544867153248624,-0.00898688248151246,-0.2359248889300821,-0.5897287713349723
0.0,0.0,0.0,0.0,0.0,0.0,0.0,0.0,0.0,0.0,0.0,0.0,0.0,0.0,0.0,0.0,0.0,0.0,0.0,-0.0360868803055842,0.0,-0.03350380460741616,-0.17456626802592357,-0.0010848276189135955,-0.055193885049123835,-0.01158328868291177,-0.010223181541112757,-0.02520029642567083,0.0,-0.047061357204493365,-0.007204765065128484,-0.014878267688629218,-0.04893659191926089,0.0,-0.005957563383161796,-0.02133302810148044,0.0,-0.004184137703092043,0.0,-0.08918531783353717,-0.24899413851122468,0.0,-0.025363048696946652,0.0,0.005891109822192209,-0.06429412706599566,0.0,-0.006495846319145635,-0.029184519358020494,0.0012650702062152852,-0.024782546182834767,0.0,0.0,-0.00748650397642142
0.0,-0.030183531672499826,0.0,-0.001684301516988514,-0.05639302376665829,0.0026652194899477316,-0.010063881888065828,-0.016909598487420033,-0.006616276830617897,-0.01518299943354416,0.002075142037289233,0.000262363556826574,-0.0019836539213898318,-0.0036275501869457417,-0.005848739469701949,0.0,0.0016035887666405446,-0.004696760483797204,-0.14746691647437354,-0.18323493937156535,-0.5094775521457175
0.0,-0.019285383983366076,-0.0005553151160819725,-0.000827810516938422,-0.05801479593196846,0.0019211283370194929,-0.011828064997601254,-0.004589596986879219,-0.0029692618227567876,-0.017486539104649503,-6.367445154053195e-05,-0.009811278061651892,0.00011811977327425311,-0.004359453240310117,-0.02105144220017978,-8.932967249045361e-05,-0.001440156258551171,-0.011534100709694994,-0.16207193664520164,-0.21270074622533566,-0.45926034190154386
0.0,0.0,0.0,0.0,0.0,0.0,0.0,0.0,0.0,0.0,0.0,0.0,0.0,0.0,0.0,0.0,0.0,0.0,0.0,-0.010592899250418132,-0.0007082221584553761,-0.002183331249498957,-0.07252443027359409,0.0025792825881337136,-0.012077918576062064,-0.00467995753289578,-0.0045630079864541215,-0.006057540844187373,0.0015029184018887517,-0.013281417471217995,-3.6599086187145074e-05,-0.003070442961967854,-0.016482732054872024,-0.00020538845686534764,-0.0021178733550068617,0.00037790590523334065,-0.23846493075985778,-0.6084351946596144
0.0,0.0,0.0,0.0,0.0,0.0,0.0,0.0,0.0,0.0,0.0,0.0,0.0,0.0,0.0,0.0,0.0,0.0,0.0,-0.03562621929226587,0.0,-0.03675331261333141,-0.1690977439384821,-0.0010137106038473705,-0.057645325140636146,-0.012696720534666724,-0.010851675759046173,-0.022158570835741156,0.0,-0.04665912345335768,-0.008184216210369504,-0.013347018873747596,-0.0475546229730218,0.0,-0.006767463806803129,-0.016493919508503433,0.0,0.0023791338441954035,0.0,-0.09969170551142967,-0.24848582582590065,0.0,-0.02205894523101224,0.0,0.00913413286999484,-0.0655514046725288,0.0,-0.005761021154978311,-0.03315200624345332,0.003579001649952096,-0.02398133468935532,0.0,0.0,-0.001259668579304283
0.0,-0.044762647225677916,0.0,0.0007336939749242429,-0.06520987272543134,0.012465258872234309,-0.011239572771191138,-0.05385460393359758,-0.019644927554382147,-0.021976862870430033,0.009386906159864067,0.014630750692983968,-0.006369557169493999,-0.009495037460721703,0.023032248700614634,0.0,0.0072354924468965255,0.01902333729777201,-0.13399783595954537,-0.18361083203798206,-0.3631731986049063
0.0,-0.012496708948442393,-0.0009284415849316196,0.0020602152197833857,-0.05926458536365447,0.004753452475289383,-0.016940817470800538,-0.004015991117825333,-0.0039027756097769254,-0.014094721703143768,0.0006284870767778552,-0.009387914054994539,0.0008708628145885484,-0.006438675123765393,-0.016273184780499196,-0.00014172348533891387,-0.0017392338856071002,-0.002358733245564775,-0.11805319197218231,-0.21650400466613043,-0.5090803798918558
0.0,0.0,0.0,0.0,0.0,0.0,0.0,0.0,0.0,0.0,0.0,0.0,0.0,0.0,0.0,0.0,0.0,0.0,0.0,-0.015704300721364937,-0.0004449403189144044,-0.0033974517519004513,-0.07227253634295518,0.0007880018383878891,-0.011820487986893996,-0.004375097603163052,-0.003433339178621912,-0.009695537235942416,0.0006330259441766062,-0.013036495009644098,-0.0003861116222004936,-0.0028942389732914543,-0.018314869385841422,-0.00014561826112688002,-0.0015183279793811821,-0.007548947464404638,-0.23445716616297513,-0.5991084312321787
0.0,0.0,0.0,0.0,0.0,0.0,0.0,0.0,0.0,0.0,0.0,0.0,0.0,0.0,0.0,0.0,0.0,0.0,0.0,-0.036392156096552865,0.0,-0.026097912510232867,-0.18094865840400068,-0.0011822249121540027,-0.04953168451085536,-0.009311134806830722,-0.008390926359220086,-0.031143078936756413,0.0,-0.04697034640431349,-0.005200804937229258,-0.01673275675609933,-0.05208486436095948,0.0,-0.004300504565647706,-0.030187225331402532,0.0,-0.018934548247531355,0.0,-0.06666607051827884,-0.22833006854398644,0.0,-0.036483267454847944,0.0,0.001497980053238485,-0.06281075561097793,0.0,-0.006976155882421607,-0.021067028695008382,-0.003200170941768626,-0.033621906372809,0.0,0.0,-0.021882286677863315
0.0,-0.03199664083669581,0.0,-0.0017813871295225406,-0.05773601078153893,0.004337366708286757,-0.01022278535359446,-0.023123931372626312,-0.009003208286750207,-0.01758077316225518,0.0031240559423063793,0.00189934404930504,-0.0025492109318174514,-0.004587763438686097,-0.005895678274274539,0.0,0.00213054715089509,-0.0017910135088349593,-0.1589855741693987,-0.18948699960401472,-0.47373971317037666
0.0,-0.017430337856982215,-0.0005323070136427202,-0.0011196348948892588,-0.05424753074613785,0.0016963289440028802,-0.013781251193550077,-0.003975230783786158,-0.0027566866488281765,-0.017062117322090013,7.708828856880243e-05,-0.01034573408511086,5.045819818429846e-05,-0.0043758527769655175,-0.020483819515043022,-9.143605818926688e-05,-0.0013461313039172162,-0.010596187144328108,-0.15184260808947772,-0.2127616815761351,-0.47540347451250264
0.0,0.0,0.0,0.0,0.0,0.0,0.0,0.0,0.0,0.0,0.0,0.0,0.0,0.0,0.0,0.0,0.0,0.0,0.0,0.0024473203292040896,-0.000967584867362326,-0.0033946846408257495,-0.06473522709425152,0.0034194791055174906,-0.01783255170698909,-0.0061552402426099636,-0.005767273107962298,0.0014524688874459292,0.0021784698110571088,-0.017069924260104976,-8.702105560564089e-05,-0.0034052809038532103,-0.010828127516511613,-0.00028837422935840227,-0.0025353547201061657,0.007529128661578456,-0.239928243676971,-0.6098941645009692
0.0,0.0,0.0,0.0,0.0,0.0,0.0,0.0,0.0,0.0,0.0,0.0,0.0,0.0,0.0,0.0,0.0,0.0,0.0,-0.0363010652185644,0.0,-0.028599090325239367,-0.1779560586693963,-0.0011346024886847194,-0.051680437166867224,-0.010207932691294087,-0.008850319220478329,-0.029172893258301035,0.0,-0.04698032301427331,-0.0059617065894808155,-0.01559455143587893,-0.051597194642939034,0.0,-0.004929688138000641,-0.026793949050159686,0.0,-0.014507632101176473,0.0,-0.07478696537488595,-0.2270646686943042,0.0,-0.03500727803221567,0.0,0.004181570241910424,-0.06444883017785537,0.0,-0.006364142041750279,-0.02414923176463607,-0.0015068847195108975,-0.0343326408003368,0.0,0.0,-0.017773108444796817
0.0,-0.05319963495684621,0.0,0.0006183963149048179,-0.04742136993519745,0.029298029489281487,-0.02411819460580813,-0.12476767080411484,-0.046012965520675984,-0.03029077194917048,0.02140942895043943,0.03679251175688129,-0.014211651396883814,-0.019480290612948228,0.059415672543704404,0.0,0.015605005883513054,0.0499663117234193,-0.13475830778107256,-0.21990565465596995,-0.07240826636646451
0.0,-0.008155992079427903,-0.0010952205812358408,0.0020880914898685253,-0.05077946775177923,0.005454802875819724,-0.02207448537927802,-0.004459922576520848,-0.004416983624179959,-0.011124535382719859,0.0008411250315311628,-0.010540918219270485,0.0009612196779892182,-0.007516912856148752,-0.014453345459437782,-0.00017216921736759345,-0.0019321635861740646,0.0013704163170345587,-0.09707068002256677,-0.21785104092372412,-0.5375572367368449
0.0,0.0,0.0,0.0,0.0,0.0,0.0,0.0,0.0,0.0,0.0,0.0,0.0,0.0,0.0,0.0,0.0,0.0,0.0,0.023795025552718105,-0.0015427994593677362,-0.0037873484653423778,-0.04790681902161625,0.0061466140454961155,-0.025229425243145035,-0.008054117566948791,-0.008281013875206262,0.01362127559113206,0.003799907035808219,-0.02262673326805921,0.00016757724421145447,0.00011353201989050531,0.0011844529290926816,-0.0004482927372126059,-0.003038043578657036,0.026878646842701606,-0.23042496230196596,-0.5728585547810563
0.0,0.0,0.0,0.0,0.0,0.0,0.0,0.0,0.0,0.0,0.0,0.0,0.0,0.0,0.0,0.0,0.0,0.0,0.0,-0.03645710204032323,0.0,-0.032979447716587784,-0.1727743189887913,-0.0012119065467779617,-0.05803833125340345,-0.010934095110986222,-0.009004828294854127,-0.027952966006577634,0.0,-0.05148326916835171,-0.007032178262491543,-0.009321842215455768,-0.04616748655217427,0.0,-0.00468290720242122,-0.020623894389183033,0.0,-0.006628391603275802,0.0,-0.08727985072878915,-0.22218304510954806,0.0,-0.037388074656312956,0.0011678067236534756,0.00634481537099071,-0.06786864070772512,0.0,-0.006571167119541039,-0.028485417744440474,0.0025773186965143066,-0.031504868780081505,0.0,0.0011857610084925723,-0.012030819098316613
0.0,-0.03412899606186144,0.0,0.0022393846493011294,0.002747609629881787,0.03114279185421531,-0.020017711299972787,-0.12852664319889412,-0.046856114591353644,-0.020214045565012356,0.022795881195914615,0.042105728910282074,-0.014730373479557598,-0.01591370192941703,0.07825696719575922,0.0,0.01735577164170722,0.06282896540985336,-0.003532440237292716,-0.07892458366552277,0.37758976688959817
0.0,0.0019191717548363342,-0.0017686260571944756,0.005295338177979656,-0.04007665774612937,0.00966913659358131,-0.03289665375407662,-0.005162428745192265,-0.006319660984989358,-0.005862567857766004,0.0016572063662379944,-0.01231612647544387,0.001927733713518797,-0.00635051784801858,-0.005008983086028656,-0.00027103906841917814,-0.0018948050237246102,0.01630348020009847,-0.02528203204924934,-0.218837095271986,-0.6010836913875107
0.0,0.0,0.0,0.0,0.0,0.0,0.0,0.0,0.0,0.0,0.0,0.0,0.0,0.0,0.0,0.0,0.0,0.0,0.0,0.07858724102464533,-0.003216238356379611,-0.0063299801190660155,-0.008889426108157803,0.013419721370577302,-0.04626444619797954,-0.014115662284107459,-0.013501990889279256,0.048006372738229226,0.008206446461604964,-0.03075768441014476,0.0006167218913359818,0.0050749966772032935,0.02915365057862493,-0.0009244942293679736,-0.005456536955491284,0.0760339365307833,-0.20235910700252846,-0.4089363204579328
0.0,0.0,0.0,0.0,0.0,0.0,0.0,0.0,0.0,0.0,0.0,0.0,0.0,0.0,0.0,0.0,0.0,0.0,0.0,-0.03631851866219997,0.0,-0.03781044155895607,-0.16519463988784958,-0.0012916170002709626,-0.06496075268043057,-0.011686825102104385,-0.009106185327330976,-0.02628052643532246,0.0,-0.05629465785777614,-0.008221822531075602,-0.0019058872649455173,-0.03941270607883539,0.0,-0.004353143370462147,-0.013228441811489427,0.0,0.00264215721004228,0.0,-0.10111764767958345,-0.21451919255797797,0.0,-0.03984241954195709,0.0025228901475134323,0.008818151703676539,-0.07126937930509569,0.0,-0.006755353581984565,-0.03330433909327014,0.0073297588346469345,-0.027921307188519418,0.0,0.0025616779772191056,-0.005211162493759471
0.0,-0.023505093534326837,0.0,0.003396160264410797,0.01862279745001317,0.030798093723898884,-0.026106722660685745,-0.12498477224512741,-0.04621699752970197,-0.014231848599161136,0.022572247614936827,0.03882675088419552,-0.0142864259233505,-0.012157760914830573,0.08327790354009416,0.0,0.017737398906458507,0.0647832617149543,0.03770053114297603,-0.040031926682528474,0.38067554502414014
0.0,0.020415625966053865,-0.002957095908695514,0.010184986388873012,-0.006057552059850735,0.01676209633776622,-0.04227233842048884,-0.006459661525195766,-0.0062344062842987135,0.00936597412280946,0.0029777045724345887,-0.009103870275890689,0.0034830344627555816,-0.006611382825285025,0.016144351162974004,-0.0004483319053676246,-0.0023198868205367793,0.04359139712319461,0.14413835506898529,-0.1438144354313073,-0.5065362793557365
0.0,0.0,0.0,0.0,0.0,0.0,0.0,0.0,0.0,0.0,0.0,0.0,0.0,0.0,0.0,0.0,0.0,0.0,0.0,0.08933920054041018,-0.0027119592584932415,0.0002217525978025961,0.06175162962432902,0.01318713142947878,-0.023127598042395992,-0.010499283720376125,-0.009003353820333007,0.05383188166016312,0.007069195295000723,-0.012733763527704901,0.0006602995113584877,0.007236304329419476,0.04503655556913072,-0.0007742681112683412,-0.0041410005798308185,0.07814228393212225,0.06674610666397378,0.5137341785759104
0.0,0.0,0.0,0.0,0.0,0.0,0.0,0.0,0.0,0.0,0.0,0.0,0.0,0.0,0.0,0.0,0.0,0.0,0.0,-0.03261718882347017,0.0,-0.044691107294941364,-0.13300255117801477,-0.001233980102025126,-0.07393528678232801,-0.01242428195761424,-0.008453179907379952,-0.020071908657207482,0.0,-0.06200088320928568,-0.01023228265205472,0.01514086907056119,-0.02050519152637942,0.0,-0.003249051184505355,0.005099314337482641,0.0,0.02337362231245363,0.0,-0.12405106813158366,-0.1779717922802723,0.0015424774099414304,-0.03901884497582237,0.0053770623512192995,0.013680294475278508,-0.0730783442414181,0.0,-0.006614616389462393,-0.0414481594383957,0.017464863498895856,-0.017521266955977607,0.0,0.005459731261318869,0.01062933123666186
0.0,-0.010208425135724638,0.0,-0.0032222372613497255,0.005762537449646858,0.014921451735071279,-0.04759991552401148,-0.07343928319046235,-0.027792510980580772,-0.011247133052205743,0.013657732062404327,0.015319449423252618,-0.00835742250039519,-0.003908038947743787,0.054569425576955904,0.0,0.011260972998718182,0.03891862035396046,-0.017880976917001003,-0.11579813069087536,-0.5260835869033447
0.0,0.03811491596828001,-0.0031640617464381657,0.015105044345461829,0.05629658813477204,0.020511581283467806,-0.01594778828539211,-0.005268500791530501,-0.003393037223483173,0.028635353362760116,0.0033426623366568224,0.0031532134474726104,0.003923473858521904,-0.002996608281832006,0.04348993413409069,-0.00047604962790230343,-0.0018404853465580498,0.06142175518627566,0.3596036662478126,0.10270127256465497,0.23056008291242572
0.0,0.0,0.0,0.0,0.0,0.0,0.0,0.0,0.0,0.0,0.0,0.0,0.0,0.0,0.0,0.0,0.0,0.0,0.0,-0.0011210348583085936,-0.0011056347902742652,-0.004981252328371378,-0.07863157426531951,0.003781655141379996,-0.01970010587083383,-0.007809438651810763,-0.005529734332151324,-0.002652047287764351,0.0014792307676581291,-0.017337849472152247,-0.0005028526002039276,-0.0023570820974483796,-0.013632948782950259,-0.00034672436019276,-0.0026339538264539414,0.002799147076790224,-0.2710216341826712,-0.5625413836727675
0.0,0.0,0.0,0.0,0.0,0.0,0.0,0.0,0.0,0.0,0.0,0.0,0.0,0.0,0.0,0.0,0.0,0.0,0.0,-0.03777429756217567,0.0,-0.02266546300871752,-0.1782762827862746,-0.0011313453344123196,-0.04445040708328251,-0.007917501393644229,-0.00729874990599148,-0.03275947324388315,-0.0008557200562816838,-0.03870790909667897,-0.00390543628564903,-0.02146698672959598,-0.0573514613698022,0.0,-0.00463188718258184,-0.03892557054378818,0.0,-0.024921111893246018,0.0,-0.052691904518260245,-0.1969739066171078,-0.0024769059709633967,-0.04007284572598104,-0.0010025638617375556,0.0018538912898470273,-0.06960070692191166,0.0,-0.005052610433795928,-0.0158198469831726,-0.007843669328211273,-0.049376744718980736,0.0,-0.0021243709112029395,-0.03201519498803514
0.0,-0.016709424596340387,0.0,-0.003206625660783266,-0.039773827674541046,2.9063129054906924e-05,-0.017109017362029563,-0.008236764540076049,-0.003916460190692041,-0.011556048960624463,0.0008274032812294622,-0.004677323820914104,-0.0007928735120847535,-0.0018204993847697711,-0.008805024530338672,0.0,0.0003552357313848393,-0.0057550606505518895,-0.12595064090613764,-0.1605393898786202,-0.5899202006958587
0.0,-0.02003237188246032,-0.0014051064378836624,0.001054834843996755,-0.05369568098289784,0.006999068725280703,-0.014652051760392474,-0.00683918371918479,-0.003296515244721064,-0.018191956743293925,0.00038320470945977576,-0.012919842664418025,0.0007190090095966576,-0.006913356239439611,-0.01879956941420186,-0.0002319023304616203,-0.0026140852012317894,-0.004740711789049146,-0.125555536737367,-0.24701915083749112,-0.45390377972901025
0.0,0.0,0.0,0.0,0.0,0.0,0.0,0.0,0.0,0.0,0.0,0.0,0.0,0.0,0.0,0.0,0.0,0.0,0.0,-0.012345573869137308,-0.0006604584303059354,-0.004683492258721265,-0.07931103514224522,0.0017240131617723205,-0.01510736612976412,-0.005580290213061083,-0.00367053852968525,-0.009500008121060497,0.0004002572327414366,-0.014023559211579835,-0.000559404904723839,-0.003194964270754041,-0.018176171374569526,-0.0002175401511310397,-0.0017842351286476456,-0.007381841884141734,-0.25355600903229963,-0.5680880318748059
0.0,0.0,0.0,0.0,0.0,0.0,0.0,0.0,0.0,0.0,0.0,0.0,0.0,0.0,0.0,0.0,0.0,0.0,0.0,-0.03748451411398551,0.0,-0.017388448871166893,-0.18116153109231703,-0.0010704382378034308,-0.036886722565472166,-0.006721618381522623,-0.00680580507231796,-0.03417705956210071,-0.0009992617520288537,-0.03260543197542983,-0.0024818593379164217,-0.028143809138481576,-0.06280617865826513,0.0,-0.00474881217962194,-0.046491018268364694,0.0,-0.033849827075946526,0.0,-0.03632965250043753,-0.19386005762374517,-0.0032057459582553872,-0.038868132133109294,-0.0022630885758898878,-0.0006142835514650535,-0.06642991613059461,0.0,-0.004556394137960382,-0.010053328767357126,-0.012707385074069797,-0.054099937737282035,0.0,-0.0035898659519754904,-0.03954489398870642
0.0,-0.017084982706071984,0.0,-0.0032806607589860684,-0.03971957961941002,-0.00044872758183919624,-0.016367121910879218,-0.006238306417281744,-0.003146233381994279,-0.011861106902967999,0.0004344200109738104,-0.005300554283051424,-0.0005682678614477581,-0.0017957471539621192,-0.010884401251147764,0.0,0.0002229307124833208,-0.0071288312266290154,-0.1286697506821035,-0.16078922870573967,-0.586038526211547
0.0,-0.023380770595021208,-0.0008038798814911409,-0.0012286405384272473,-0.05463009367121292,0.003320491861634539,-0.010541794071269385,-0.005317082366782287,-0.0023954653114004725,-0.02042879227165692,-0.00013766127045488204,-0.011962798156711817,7.969586979458006e-05,-0.005764515879843608,-0.022814107121334,-0.0001393172482868979,-0.0020007820797442013,-0.01292657740313492,-0.1615143972027112,-0.2324807853781112,-0.4280980879566486
0.0,0.0,0.0,0.0,0.0,0.0,0.0,0.0,0.0,0.0,0.0,0.0,0.0,0.0,0.0,0.0,0.0,0.0,0.0,-0.01592251934675313,-0.0005275898800477932,-0.004773374925694267,-0.0801769724935619,0.0010538912335450426,-0.014066887692110527,-0.004708007916159912,-0.0031478803417807413,-0.011643174172840986,0.00020186598291865109,-0.013351681735857199,-0.0006033934634135525,-0.003632066077189225,-0.01968593647001337,-0.00018007426750247968,-0.0015526911249347207,-0.010807702608191952,-0.24856347701708587,-0.565363094183185
0.0,0.0,0.0,0.0,0.0,0.0,0.0,0.0,0.0,0.0,0.0,0.0,0.0,0.0,0.0,0.0,0.0,0.0,0.0,-0.03725171670676345,0.0,-0.014488376631793807,-0.18236331073620007,-0.0010352147377579281,-0.0327058871101999,-0.006058801868201914,-0.00652446746525864,-0.03487790830260148,-0.0010751835586404392,-0.029226553514902665,-0.0017039558007596808,-0.0317122173726238,-0.06564128278946589,0.0,-0.004802734248759217,-0.05050495370774328,0.0,-0.03862937495473329,0.0,-0.027372905170874536,-0.19177916401326617,-0.003595003443474277,-0.03813580336142079,-0.0029429130608759242,-0.0019531006418307096,-0.06457465120754172,0.0,-0.004277808893716691,-0.006902255743656983,-0.01532247455899099,-0.05655540067630115,0.0,-0.004378304520129233,-0.04355340430485984
0.0,-0.017379698517606318,0.0,-0.003555741821023014,-0.03907104402610627,-0.0005888395160918227,-0.017250183630741597,-0.005869393401062904,-0.0032256915264269916,-0.011640972719899981,0.0004908335114266287,-0.0056281016362271855,-0.0005638850694059476,-0.0019320140985320325,-0.010723590273805369,0.0,0.00021152676166006701,-0.0072395336274571585,-0.12504331229308271,-0.1583027165497072,-0.5912595171454926
0.0,-0.024993661205235444,-0.0006240101919037865,-0.002064338619466055,-0.055251201788412585,0.0021630350804149427,-0.009361228765962357,-0.004728590280242474,-0.002168318299696368,-0.02103025258535685,-0.00027816049089037095,-0.012104530574716166,-0.0001391830653283033,-0.005571462806333509,-0.024038317418302473,-0.00011217155960914862,-0.0018593662676318727,-0.016075631788547373,-0.17277109501661594,-0.22697334999183888,-0.4176551258595218
0.0,0.0,0.0,0.0,0.0,0.0,0.0,0.0,0.0,0.0,0.0,0.0,0.0,0.0,0.0,0.0,0.0,0.0,0.0,-0.016897511931634603,-0.0004853565384818619,-0.004881526087879078,-0.08042440640557118,0.0008159595791929285,-0.013890281709932372,-0.004450048843647028,-0.002998386332665617,-0.012505203240678137,0.00012971721303557722,-0.013303848121716578,-0.0006294449299335243,-0.003797821692649976,-0.020230297982794975,-0.00016865105508013516,-0.0014889165416657518,-0.011798154044371267,-0.24757134043144932,-0.5634942918185963
0.0,0.0,0.0,0.0,0.0,0.0,0.0,0.0,0.0,0.0,0.0,0.0,0.0,0.0,0.0,0.0,0.0,0.0,0.0,-0.037666385348317094,0.0,-0.012805988594719632,-0.1826690783198857,-0.0010064206434884,-0.030165507167186013,-0.005647556960714084,-0.006311451794296129,-0.03527140362208388,-0.0011050754806156081,-0.02714627540635115,-0.0012739127031054162,-0.033480481468344404,-0.06741034872893413,0.0,-0.004784664757034485,-0.053228025321461724,0.0,-0.04322620665539653,0.0,-0.022345966448970626,-0.18880717426135726,-0.0037669192471410404,-0.03737550916156017,-0.003275613003738779,-0.0026456927937799296,-0.06539256746462255,0.0,-0.004088115670082589,-0.005160269572724116,-0.01656333764639053,-0.057310232464665885,0.0,-0.004754767924740222,-0.04526020400136768
0.0,-0.01740036715394445,0.0,-0.003684508726876477,-0.038115876841080476,-0.000632575849665772,-0.01776787367767088,-0.005886881706364262,-0.0033021912508742006,-0.011666233329921042,0.0005129794586474287,-0.005806352238051374,-0.0005729269617442845,-0.001973988760513278,-0.010784390282441533,0.0,0.0002126052968194866,-0.00702473757611016,-0.12394059496741609,-0.1580647722654198,-0.5926260458937465
0.0,-0.025679905894921612,-0.0005602294937654559,-0.0023800303607091665,-0.05517441399117979,0.0017453832401545478,-0.008963143588931969,-0.004530393951842449,-0.0020931565879717547,-0.021373687434308206,-0.00033096649738208113,-0.012203914239523668,-0.00022030051834179417,-0.0055445628371463525,-0.024570340004644975,-0.00010261605224811254,-0.0018145593486893696,-0.017303400243985953,-0.17711876554677705,-0.22536113035607522,-0.41289152743403673
0.0,0.0,0.0,0.0,0.0,0.0,0.0,0.0,0.0,0.0,0.0,0.0,0.0,0.0,0.0,0.0,0.0,0.0,0.0,-0.01694179069826257,-0.00048691062932293053,-0.0051087430473803295,-0.08078768212112591,0.0007522949809742285,-0.014344520188705247,-0.004515619273699862,-0.003052220954215743,-0.012889774849776915,0.0001059684967615123,-0.013529592637047956,-0.0006635497531062783,-0.004006999831842487,-0.02052366564291156,-0.00017048221347391594,-0.0015198023374786256,-0.011992817520635288,-0.24881975241175694,-0.559746628650425
0.0,0.0,0.0,0.0,0.0,0.0,0.0,0.0,0.0,0.0,0.0,0.0,0.0,0.0,0.0,0.0,0.0,0.0,0.0,-0.037891475006722644,0.0,-0.011892755743650799,-0.18283505253084822,-0.0009907906406943561,-0.028786539533251308,-0.005424325217996345,-0.006195822697436025,-0.0354850000233283,-0.0011213013785015533,-0.026017059964200187,-0.0010404769959239347,-0.03444032890980063,-0.06837063099328229,0.0,-0.004774856227171304,-0.05470616045408026,0.0,-0.04572145504438231,0.0,-0.019617246832604768,-0.18719391846918787,-0.0038602384143031597,-0.03696280632293876,-0.0034562089101952296,-0.003021645143345469,-0.06583654735510268,0.0,-0.003985146476026644,-0.004214685802329552,-0.01723690186061797,-0.057719968991568844,0.0,-0.004959119463739102,-0.04618668723054577
0.0,-0.017664335088896848,0.0,-0.003852122131537555,-0.03608296306640647,-0.0006667081804547646,-0.018550589259821827,-0.006108071835539243,-0.0034427789581408896,-0.01184451007125124,0.0005373600907940896,-0.0059114832718691595,-0.0005962712128167577,-0.0020570995932458233,-0.010993487027963596,0.0,0.0002207042678716594,-0.006637630213633967,-0.12344403498209855,-0.158700013329333,-0.5926642619921056
0.0,-0.026263302885936757,-0.0005437452727207003,-0.0025304348214591726,-0.0544713229095328,0.001611758609978216,-0.008933258111896625,-0.004516421173541207,-0.0020928668719435366,-0.021745971608090685,-0.00035522813238112583,-0.012394909443178835,-0.0002537223333270188,-0.0056084980357398746,-0.024922345099197062,-0.00010039591845249639,-0.0018219550227615644,-0.017936907162071428,-0.1794028073227638,-0.22522676561724608,-0.4092285307830828
0.0,0.0,0.0,0.0,0.0,0.0,0.0,0.0,0.0,0.0,0.0,0.0,0.0,0.0,0.0,0.0,0.0,0.0,0.0,0.05648877764380157,-0.0019655972362482067,-0.0070141221704187184,0.034560876877206374,0.008163267070371395,-0.02511347279256091,-0.002205998056990306,-0.002417792393177007,0.02996089556058433,0.004064176915554535,-0.006795436218793776,-0.0010048507283938676,-0.0020807709760489175,0.030580698893500437,-0.0006212591834965025,-0.0014949523409794481,0.04248409510056173,0.08726195016669736,0.6555122284855368
0.0,0.0,0.0,0.0,0.0,0.0,0.0,0.0,0.0,0.0,0.0,0.0,0.0,0.0,0.0,0.0,0.0,0.0,0.0,-0.03817235776770232,0.0,-0.012840919336637984,-0.18201600502706464,-0.0010263490205568882,-0.030653351375732874,-0.005429331309472114,-0.006083111665088725,-0.03499165634263677,-0.0010305286910283732,-0.027103458688271943,-0.0012395448493650555,-0.0332504391032955,-0.06756591420182824,0.0,-0.004731361983956103,-0.05380551469083277,0.0,-0.044483492048088935,0.0,-0.021788164594910116,-0.1803130570997334,-0.003962744885133346,-0.0390097254578635,-0.003194919214028857,-0.002483980549826948,-0.06755404522691448,0.0,-0.004008409174440867,-0.005021054860833786,-0.01709454156579957,-0.059892130379471595,0.0,-0.004091672092798237,-0.04704190690362662
0.0,0.016066132020991362,0.0,-0.010795861669193937,0.09370129079523211,-0.0008185453178109117,-0.06338667933709223,-0.017784224909596975,-0.009850896165583786,0.007140691080523353,0.0054064840171336006,0.0008721598739463922,-0.0025674511709580542,0.00240602044411779,0.032311240157365084,0.0,0.00617610175993299,0.03352375093946537,0.1483854188482438,0.04780894646176557,-0.5008526524122607
0.0,-0.002197983588813032,-0.0021088209457930064,0.0025393476397712355,0.06360382771079505,0.012005465673363209,0.0032400543000486717,-0.0008563590439817287,0.0001661386902021977,0.00971366001037335,0.0025913639268176007,-0.002660203641201543,0.0008993883632532926,-0.008960800512914495,0.022252820337326906,-0.00035188464236191155,-0.0010711093335480934,0.018268669953164635,0.21019173629212903,0.12091463481896712,0.5152024365845265
0.0,0.0,0.0,0.0,0.0,0.0,0.0,0.0,0.0,0.0,0.0,0.0,0.0,0.0,0.0,0.0,0.0,0.0,0.0,0.02698558303713644,-0.0020525316123537205,-0.014326707534511703,-0.09164045492792308,0.007204464432858941,-0.04203029623524817,-0.00872676043157782,-0.005796544179080984,0.006878805809546493,0.0030042154104377747,-0.029410527081311706,-0.0014875269464904035,-0.009881149751550786,-0.00017249373090450846,-0.0009082027035568791,-0.00334055987107309,0.021681536099514086,-0.2901664028305012,-0.43422559476354006
0.0,0.0,0.0,0.0,0.0,0.0,0.0,0.0,0.0,0.0,0.0,0.0,0.0,0.0,0.0,0.0,0.0,0.0,0.0,-0.037221188242273835,0.0,-0.01173739140510134,-0.18685227984554303,-0.0008994219017266286,-0.028889192833761564,-0.006248613557007809,-0.005941519898569544,-0.03644893443778393,-0.0011091750094737107,-0.028914239999835643,-0.0009425512512605644,-0.033253633409675576,-0.06548097797252712,-0.00016756198491143848,-0.004853656616654872,-0.05101219398657274,0.0,-0.04822530182627111,0.0,-0.02077340378838564,-0.18026650740008285,-0.003548655202016617,-0.03759368610078869,-0.00497157861812502,-0.002566760318078627,-0.06431629140351883,0.0,-0.004436026037194518,-0.0038180155757583595,-0.0174007422194148,-0.05757236350561971,-0.0012986053830636478,-0.007295399071624406,-0.04588919590273677
0.0,-0.010302983845188457,0.0,-0.007541451710393583,0.007391227350190346,-0.0009696522728892617,-0.04173286565743154,-0.012479546273404571,-0.0069891989996287976,-0.008160052091264967,0.002558950648135658,-0.004797436603580062,-0.0015442838005379175,-0.0007796951394710228,0.0017409655128149473,0.0,0.0025941554251981535,0.006657406407738998,-0.051639576142420145,-0.12218071373847605,-0.7099027676137792
0.0,-0.043825027062413736,-0.002902689844941756,-0.00537092066170652,-0.04041335993438896,0.014388054942787245,-0.015951141308085684,-0.01081025774429263,-0.0031054832393038433,-0.028059874421305846,0.0019492648009077184,-0.029831818669318607,0.0005265658428337582,-0.023175694771758338,-0.018073254831336375,-0.0006665213470642016,-0.00459478617549374,-0.008393337718806373,-0.1277586742108449,-0.3079368968196782,-0.3121644703455147
0.0,0.0,0.0,0.0,0.0,0.0,0.0,0.0,0.0,0.0,0.0,0.0,0.0,0.0,0.0,0.0,0.0,0.0,0.0,0.043218391303532645,-0.00046999895622352046,0.0025961982860311277,0.06410797796374984,0.0030456877630141497,0.00030505011669534383,0.0003124081556415361,0.0012312435096931658,0.026568553060487467,0.0013833147039217465,0.0017717323046541932,0.00011662570520702562,-0.0010344582733444398,0.02849313335776329,-0.00036375944984749466,-0.00014201017771519776,0.028269620297118873,0.19720344886579017,0.5993169988190824
0.0,0.0,0.0,0.0,0.0,0.0,0.0,0.0,0.0,0.0,0.0,0.0,0.0,0.0,0.0,0.0,0.0,0.0,0.0,-0.03762358349004325,0.0,-0.022376414945438038,-0.1537269699520899,-0.0015704556570723194,-0.049666307003572066,-0.004669450048012308,-0.0058570893334266615,-0.03132317931934077,-0.0007550289826131572,-0.029847867462591212,-0.003298543067083714,-0.0207219721158464,-0.06958208286906108,0.000579274246273223,-0.0044877286861899545,-0.05749969050462782,0.0,-0.028104846484251725,0.0,-0.03933163404983748,-0.08684570736477756,-0.0059050479707173364,-0.05917232278720548,-0.001909442718133552,0.0024440938957378073,-0.0970651393518654,0.0,-0.0028969601820631034,-0.013361489670288173,-0.014849284313359936,-0.08731535216485976,0.0044893754086175,-0.0008894535624801228,-0.0617138778752541
0.0,0.023892969103406138,0.0,0.00014147328287392137,0.08845735140438919,6.50352794267603e-05,-0.012664485609372915,-0.003678899450557856,-0.002408887296504688,0.01542352268960914,0.0023752767593005148,0.0076927888268897215,-0.0008378021742849616,0.004073700084394944,0.02381274545609811,0.0,0.0028618900992138643,0.02123317847062201,0.20145791608162913,0.18436767526724435,0.4045120297328147
0.0,0.019320757586343607,-0.0004895995349437631,0.0026700306618783177,0.05365317902980066,0.003973045957192988,0.008625815363665332,0.001156055713855598,0.002073658124314337,0.021089689608499843,0.0013331942264075336,0.004850018708174703,0.0005965847940658748,-0.0029449129919879263,0.027677892615580416,-0.00016363075654700324,0.00040764596057604816,0.02119372183454548,0.19565258050910797,0.18033871000562823,0.45174210297097245
0.0,0.0,0.0,0.0,0.0,0.0,0.0,0.0,0.0,0.0,0.0,0.0,0.0,0.0,0.0,0.0,0.0,0.0,0.0,0.04510766669657821,-0.0004932553312710992,0.0030427416637156743,0.06433413700319723,0.0028552203624605576,0.0007933521396576417,3.2510033516351124e-05,0.0014854952464374467,0.02743261753142163,0.0015031164260006329,0.0011886643231652334,0.0001561629301542865,-0.002315654249134582,0.02964831597243162,-0.0005006792362872405,-0.00010303565606579584,0.028799251120584082,0.19802899699122736,0.5921216598300377
0.0,0.0,0.0,0.0,0.0,0.0,0.0,0.0,0.0,0.0,0.0,0.0,0.0,0.0,0.0,0.0,0.0,0.0,0.0,-0.037154396222395435,0.0,-0.02524520834814128,-0.14430333739039194,-0.001558399247384253,-0.05537370616309651,-0.00420631408929913,-0.005938480527808111,-0.0294598930571986,-0.0006834727828514434,-0.029935327936454346,-0.0039188863527168,-0.017417806395159427,-0.07047924427948726,0.0009115764578216783,-0.004478087878695465,-0.0588795741154046,0.0,-0.023361129018752803,0.0,-0.04371961249895538,-0.06226192652027953,-0.006570688461516191,-0.0647697986671192,-0.0007618638878075333,0.003684197814191803,-0.10473282042764272,0.0,-0.0017669686543782806,-0.01587432950122221,-0.014353462253054925,-0.09449746116537028,0.006597549199525917,0.0006263023847371984,-0.06635854667102266
0.0,0.024223443750462596,0.0,2.0082682036108727e-05,0.09130490664519357,-0.00013122109036393557,-0.013992855717232987,-0.003953012254904505,-0.0025941742646111835,0.015525103215933004,0.0025792426161491905,0.007578412995694023,-0.0009065952290904349,0.0037557561312951326,0.024920548058130314,-0.0003687472993854862,0.003110041709278785,0.02170995008592315,0.2065149947523592,0.18273415493001866,0.3940294564273511
0.0,0.020599639438591822,-0.0004952379418050121,0.002717589454475233,0.05259279591119186,0.0037461539164699025,0.008928843585197806,0.0011734513042092134,0.002323893187300356,0.0218499011153239,0.0014360763543612312,0.00468727276055866,0.0006477043983323871,-0.0036817007725643237,0.028405091689286423,-0.00034722451533124456,0.000515402014465575,0.02175068978052658,0.1985693454222638,0.18001120666451473,0.445467077554841
0.0,0.0,0.0,0.0,0.0,0.0,0.0,0.0,0.0,0.0,0.0,0.0,0.0,0.0,0.0,0.0,0.0,0.0,0.0,-0.004301909058284556,-0.00031695263214671384,-0.004521979654294338,-0.07173422899284791,0.00031909959704350376,-0.014057305337570665,-0.006868083572875345,-0.0015793050743566042,-0.007200926356658032,0.00014101973465331262,-0.01655508605485533,-0.00030411839981033065,-0.007909445824855461,-0.01525435753579843,-0.0006919572751470032,-0.001972744253693752,-0.006284695917985666,-0.2302198512252879,-0.60973900428576
0.0,0.0,0.0,0.0,0.0,0.0,0.0,0.0,0.0,0.0,0.0,0.0,0.0,0.0,0.0,0.0,0.0,0.0,0.0,-0.035141034945802695,0.0,-0.01505864286040879,-0.18129561637582375,-0.0015057639830934973,-0.03682215559251168,-0.009479894195625548,-0.0046507446676312784,-0.034864244962131155,-0.0008040153977648851,-0.03104085719040647,-0.0014627358225231244,-0.027175343944447743,-0.06733126318720777,-0.0005910274950190834,-0.004713529139048314,-0.048035723970747624,0.0,-0.04065324635921842,0.0,-0.02996925928918917,-0.15405000595938154,-0.003483875876604574,-0.047824514176206034,-0.005286600864525792,-0.0002289103642394679,-0.07345157151595444,0.0,-0.007212285177046244,-0.005925140034713171,-0.013653759151126656,-0.0662021538283216,-0.0014511065771356509,-0.0053632379897125965,-0.045216926566819214
0.0,-0.011765772863146281,0.0,-0.004180435757732243,-0.03315588415173948,-0.0006337900176369949,-0.020950254364313293,-0.007316109996090361,-0.0024089689839501384,-0.009006708671987051,0.000561369724884201,-0.006670955105248868,-0.0004611150548688635,-0.0029547569075978166,-0.009765372964581352,-0.0006130567134367121,-0.0007670821772889809,-0.004926019271944565,-0.11875267408213874,-0.14225034034324002,-0.6228383444207591
0.0,-0.013474731022674272,-0.0003155375058049279,-0.0048080377542282764,-0.05201219811954935,0.000810250930088145,-0.013061730412817756,-0.005469286121523058,-0.0006921195746791443,-0.014062109836900281,-3.0827629898156877e-05,-0.013395961890350016,-3.961567551445839e-05,-0.008413178306336234,-0.018737202474029935,-0.0006236191987900137,-0.0024256122664109846,-0.010817231774548292,-0.16594215521516836,-0.20857788646457007,-0.46626487934249883
0.0,0.0,0.0,0.0,0.0,0.0,0.0,0.0,0.0,0.0,0.0,0.0,0.0,0.0,0.0,0.0,0.0,0.0,0.0,-0.0082071466996261,-0.0002505759239901028,-0.004679873610961715,-0.07303019921231112,0.00010952413899398675,-0.01325231584002162,-0.006573659880027866,-0.001684421571529403,-0.008262308893103138,7.181103779898693e-05,-0.015474245716632863,-0.00030953826267128375,-0.007301698836639102,-0.016813013938377388,-0.0006132183735058588,-0.001755851818606808,-0.008808052292704559,-0.22993295392147686,-0.6028390633620755
0.0,0.0,0.0,0.0,0.0,0.0,0.0,0.0,0.0,0.0,0.0,0.0,0.0,0.0,0.0,0.0,0.0,0.0,0.0,-0.034527188137378706,0.0,-0.01295183546096846,-0.18725000273162218,-0.0016015217666287705,-0.033120695516211135,-0.010426750444993171,-0.004351709572290582,-0.036090052657048975,-0.0008790750536415017,-0.03125145405465531,-0.000980560179229237,-0.028760017691341885,-0.06636679774996221,-0.0008683203245358149,-0.0048874326709561315,-0.045659254140863706,0.0,-0.043441374635614705,0.0,-0.027010594995350398,-0.17143927335827197,-0.002858303274476834,-0.04404873514275132,-0.0060798554567229185,-0.0009666391921011173,-0.06758533014123426,0.0,-0.009084133329853701,-0.00397197927673288,-0.01335881793717751,-0.06005990250973095,-0.002956830573564563,-0.006432756179073528,-0.04067814214967179
0.0,-0.012754774885792287,0.0,-0.004301095841671634,-0.035888227169065465,-0.0006441605410151825,-0.019803646647999395,-0.007291947046231249,-0.00232474259801929,-0.009012331433870579,0.00042522080763765795,-0.0068767149555252335,-0.00042079832346959107,-0.0032608174176887196,-0.010176458277044815,-0.0006088190473705995,-0.0009783134616806826,-0.006226252507776828,-0.12581618206124226,-0.1422236555089898,-0.610942304091452
0.0,-0.014430769283886018,-0.00025491601387180117,-0.004827622281904447,-0.05240323051459065,0.000552891525207066,-0.012575358271439482,-0.0053270360647380355,-0.0008725656698901447,-0.01472545884467492,-5.242886106450239e-05,-0.013096216964808864,-9.72472593223345e-05,-0.007666808835428409,-0.020022128932539223,-0.0005618520292766947,-0.0023783710928073844,-0.01212690706160991,-0.17127404628629073,-0.20726431955361577,-0.45946203912386685
0.0,0.0,0.0,0.0,0.0,0.0,0.0,0.0,0.0,0.0,0.0,0.0,0.0,0.0,0.0,0.0,0.0,0.0,0.0,-0.009190197055610362,-0.00026004810309636454,-0.004733642597038054,-0.07823511931390541,0.00010221851274364134,-0.013170644252911172,-0.0069394070088485745,-0.0016495592423655106,-0.008802907237931845,5.752960766192592e-05,-0.015595137813378677,-0.00033729723304436524,-0.007987760471919549,-0.018606854228643988,-0.0006647449708991678,-0.0015050207663291583,-0.009416832980841719,-0.23792609704980605,-0.5847833546323072
0.0,0.0,0.0,0.0,0.0,0.0,0.0,0.0,0.0,0.0,0.0,0.0,0.0,0.0,0.0,0.0,0.0,0.0,0.0,-0.03412666029258191,0.0,-0.01205345766709839,-0.1899634204081579,-0.0017070317421333332,-0.0314498212017066,-0.010892857282584408,-0.004218732333618848,-0.036865018808656815,-0.0009098280410913781,-0.03175091298369355,-0.0007140365315924141,-0.0293743995562384,-0.06559109509864482,-0.0010066903018044265,-0.005071561921800378,-0.044277162103587175,0.0,-0.044471449262344774,0.0,-0.02515671812929713,-0.1788991737069282,-0.002496010849866231,-0.0428838996958934,-0.006438272394509951,-0.002649464919869723,-0.06376358081065717,0.0,-0.00998465596417717,-0.0028923653707257717,-0.01306301384290553,-0.05747045713806607,-0.003726488163764607,-0.006934359595693837,-0.03914277643029196
0.0,-0.01326998743597613,0.0,-0.004447413330768592,-0.03733378839671783,-0.0007451172481120846,-0.018648384527995852,-0.008159310203242247,-0.002656339108661277,-0.009901695259434146,0.0004533673356494244,-0.007495503277032163,-0.00047407057769158266,-0.003840136014458604,-0.011800159528021149,-0.0007004572242504977,-0.0008489581066472183,-0.007000168661201974,-0.13222834237359748,-0.14171573725867206,-0.5982533774190448
0.0,-0.014875664338850991,-0.0002544040552607785,-0.004858757540813767,-0.05390409614608279,0.0005580362623149349,-0.011522712711997556,-0.005545324521307588,-0.0007786041081209083,-0.015293873367385899,-6.229333744054661e-05,-0.013438910512978321,-0.00012068430082021673,-0.00795391936628304,-0.021337164055491933,-0.0005817482694444948,-0.002421733141638212,-0.012801441412211817,-0.17609285420006046,-0.20971096410009474,-0.447856153657821
0.0,0.0,0.0,0.0,0.0,0.0,0.0,0.0,0.0,0.0,0.0,0.0,0.0,0.0,0.0,0.0,0.0,0.0,0.0,-0.009251395073438702,-0.00028257366798225983,-0.004961450285198572,-0.08210090075054204,0.0001204305786018483,-0.013759937008023965,-0.0075537037114076075,-0.0012451819716162828,-0.008444454352354773,5.634190793281191e-05,-0.01650206291009655,-0.00037234453165522845,-0.008661728069613087,-0.019927109723784205,-0.0007326176127981323,-0.0014752756073987366,-0.009543596174782919,-0.24703238427210839,-0.5679373495643116
0.0,0.0,0.0,0.0,0.0,0.0,0.0,0.0,0.0,0.0,0.0,0.0,0.0,0.0,0.0,0.0,0.0,0.0,0.0,-0.03398459398594832,0.0,-0.011566387182414676,-0.1914847391940998,-0.0017515218450572907,-0.03041393867984149,-0.01106595636606297,-0.004273523133511427,-0.03756560895956452,-0.0009199120142256251,-0.03195138164382138,-0.0005664989090448248,-0.029652953630659104,-0.06502830817943712,-0.0010736530669737592,-0.005134567475215408,-0.04353913629164247,0.0,-0.044711317949957335,0.0,-0.023989267858593608,-0.18338610369752953,-0.00228479024708799,-0.04196097905944735,-0.006584932360872349,-0.003530951480250038,-0.061273639918623404,0.0,-0.011270663723102857,-0.002294731088087367,-0.013687665512425678,-0.05568359849033711,-0.004112056628499073,-0.007154129559764361,-0.03804785298294279
0.0,-0.013699640794667884,0.0,-0.004726623254282732,-0.03710459505168295,-0.000818018622957575,-0.018184497253279672,-0.00888871007712631,-0.002542172300215383,-0.009710060925290157,0.00048809609918967474,-0.007896565326553499,-0.000517282311024012,-0.004176076353283842,-0.012177452276239916,-0.0007680438242290751,-0.0006535548437277858,-0.007184953292770272,-0.13414441436329919,-0.1421861708393234,-0.5941028494174595
0.0,-0.015304165006681279,-0.0002591709499454291,-0.0049647371536890314,-0.05405321182988275,0.0005704280614561443,-0.011154165811378972,-0.005720088079716573,-0.0006253964207498736,-0.015351099939747499,-6.654561946637263e-05,-0.01375154363540372,-0.00013025845103019064,-0.008193629835535577,-0.02204292533590182,-0.0005991546679101449,-0.0024532145621812647,-0.013178288516292182,-0.1785395283790645,-0.21129751724130877,-0.441712872200711
0.0,0.0,0.0,0.0,0.0,0.0,0.0,0.0,0.0,0.0,0.0,0.0,0.0,0.0,0.0,0.0,0.0,0.0,0.0,0.0979522589915321,-0.0016332127097477259,-0.00499286357971903,-0.02045380965528042,0.006890654596592777,-0.026873445401826502,-0.027259641294789763,0.009464053323471475,0.06950363338243444,0.004316637648842987,-0.0270219521395788,-0.0005451059588240145,-0.033594179402841054,0.013319628235804596,-0.002866090161264748,-0.0005104540564490089,0.054098482626811537,-0.011038036142759788,0.5873900279565897
0.0,0.0,0.0,0.0,0.0,0.0,0.0,0.0,0.0,0.0,0.0,0.0,0.0,0.0,0.0,0.0,0.0,0.0,0.0,-0.03382160391657886,0.0,-0.012151684209466935,-0.19015699106148218,-0.001779030666468371,-0.03169168518604979,-0.011187532449311009,-0.004217780929916979,-0.037330948535704664,-0.0009064526875426037,-0.03229964701437431,-0.0006752763246872887,-0.02894837398931052,-0.06515081015818992,-0.0010131509285725775,-0.005145410135783472,-0.04346370726835292,0.0,-0.044285510422047786,0.0,-0.025366323447099763,-0.17693444645952247,-0.002385202066252989,-0.04344607167493648,-0.006703648946641814,-0.0032571172210222447,-0.06269725493340693,0.0,-0.010955584805399484,-0.00273535844565358,-0.01335985024773726,-0.057479134662775364,-0.0039405710558764575,-0.0072480409292822925,-0.03914597014413821
0.0,0.04795396713295762,0.0,-0.014132880352292055,0.13008527085765245,-0.0022074487573003894,-0.05375687097602497,-0.03733583830904808,-0.0045276681084658954,0.04196981930621317,0.005943770806107593,-0.003120552717972463,-0.00278474032648254,-0.007435062469296665,0.03212486179714951,-0.0036680226718365664,0.004891450535291656,0.03526633047490196,0.20573418798705256,0.2955666801840661,-0.07129184365452608
0.0,0.054959741833558666,-0.003275845918696317,-0.025566811344245415,-0.033164685090352246,0.020339614753384194,-0.029510381401477954,-0.03658160224807715,0.02183863963422543,0.07334015650771285,0.008374489904715544,-0.05457205560848908,0.0019015793041705655,-0.07460130891595862,-0.01072325609965287,-0.004702043321962777,-0.01447946646894463,0.04034250377343434,-0.05432749196195525,-0.19318843686892007,-0.2436618449271756
0.0,0.0,0.0,0.0,0.0,0.0,0.0,0.0,0.0,0.0,0.0,0.0,0.0,0.0,0.0,0.0,0.0,0.0,0.0,0.06883852569483416,-0.0009604797182776981,-0.0009609933067422231,0.02164709873415265,0.004349371629830431,-0.01141235833192654,-0.014666900196167395,0.006773175064592886,0.049137313829835966,0.0026135541766878915,-0.010662184710979055,-0.0001865457403410003,-0.018538375684975232,0.01744895413231923,-0.0015714058861178402,0.0002469093246369597,0.04008852614974908,0.09944596846777508,0.63040166777097
0.0,0.0,0.0,0.0,0.0,0.0,0.0,0.0,0.0,0.0,0.0,0.0,0.0,0.0,0.0,0.0,0.0,0.0,0.0,-0.03359061911512163,0.0,-0.012905030594137142,-0.18866983306255483,-0.001727074573578812,-0.03337053753732317,-0.011382090959592644,-0.004086304641419285,-0.03664099800550245,-0.000801619763054995,-0.032761985531051745,-0.0008047876274099247,-0.028235092158697853,-0.06530325027826624,-0.0009503257087727445,-0.00513520642845206,-0.043245996029814035,0.0,-0.04347236702216392,0.0,-0.027117380576529574,-0.16903634481688742,-0.0025164366032822704,-0.04544120307751408,-0.006884560604870255,-0.0026346034388189566,-0.06442002546307939,0.0003293559962802506,-0.010666069396590091,-0.0032599730704503424,-0.013071638512181745,-0.05992416022711388,-0.003769589347543802,-0.007404050442965052,-0.04032170541104007
0.0,0.039394043677047234,0.0,-0.007655048333447293,0.10657004683066672,-0.0011991938141506456,-0.029023029947444,-0.021869842252396614,-0.002017792755402685,0.03333724301958376,0.0038845996096596993,0.001211294470971124,-0.0016978804820927226,-0.0033084015319633014,0.027662478850846745,-0.002196744832801054,0.003670571650397603,0.027660242897594955,0.20231435219577554,0.2683366487927943,0.21694362598452413
0.0,0.09229295795016201,-0.004137710281344027,-0.029011145227492534,0.019837216135242964,0.027142812702856445,-0.027435164139632717,-0.04305340879511173,0.03067257518641372,0.11838721853979593,0.011643780016355,-0.057864416010981475,0.002715042203419301,-0.09153006160450211,0.011241159431132415,-0.005685719162078604,-0.016702574329211017,0.07010851061234594,0.13740386864783743,-0.012130218183191335,0.19088961547573038
0.0,0.0,0.0,0.0,0.0,0.0,0.0,0.0,0.0,0.0,0.0,0.0,0.0,0.0,0.0,0.0,0.0,0.0,0.0,0.06274292282690629,-0.0007570315607962214,0.000884694545356387,0.03867815269748065,0.003363768386417172,-0.0065303159971690766,-0.010213775099857545,0.00569263038803842,0.04199822118537066,0.002036205555613412,-0.006757003252986312,-0.0005485216016188175,-0.014208368788601735,0.022192903724017724,-0.0011259288142224297,0.0002908001098732475,0.0383914779032498,0.13040849175812547,0.6131181097019824
0.0,0.0,0.0,0.0,0.0,0.0,0.0,0.0,0.0,0.0,0.0,0.0,0.0,0.0,0.0,0.0,0.0,0.0,0.0,-0.033329279450186364,0.0,-0.013859091495929092,-0.1870970019850112,-0.0016546610178920808,-0.03521124567120221,-0.011713594882220076,-0.0037610971902005954,-0.035309062860623255,-0.0006897035535532639,-0.033044236682128414,-0.000838205981015925,-0.027540903523170433,-0.06586115694700759,-0.0008877759300500739,-0.005172960246702658,-0.04326171015816278,0.0,-0.04255212626191358,0.0,-0.02937640512315471,-0.15940267631503996,-0.0026903979567381607,-0.047757268199080875,-0.007157228328672382,-0.0015518395964036495,-0.06637514081168104,0.0007083600066058362,-0.009712546952718955,-0.0038899819780966673,-0.012868494448203332,-0.06329066925142807,-0.0036107392478468866,-0.007653298919418224,-0.04205123419126715
0.0,0.034479701502002795,0.0,-0.0048401193834662105,0.0927440322521538,-0.0007339959937421921,-0.018477545099644263,-0.014744754514667557,-0.000987530281308622,0.028107245982619353,0.0029389628518203944,0.0025511412015262382,-0.0013714012126114085,-0.001399454508140693,0.025440930992215983,-0.001519296146575389,0.0031141370071279717,0.023851727620829474,0.1931434079637957,0.24225936998169473,0.3072476042040566
0.0,0.0660487959349327,-0.0025487371992740644,-0.016490813233434203,0.036068677618676465,0.01721487315093722,-0.013672482272738635,-0.02514872433125422,0.02012604101008321,0.08280649209621316,0.007616137494491935,-0.03199076532273748,0.0016726346793559327,-0.05531816307463203,0.01723659686249114,-0.003392056625593043,-0.009612870141163805,0.05111264440097138,0.16551965917044353,0.0786654271211547,0.29768015703038425
0.0,0.0,0.0,0.0,0.0,0.0,0.0,0.0,0.0,0.0,0.0,0.0,0.0,0.0,0.0,0.0,0.0,0.0,0.0,0.061789196174855135,-0.0006879679949781987,0.002149962012136959,0.04630871573180419,0.002954627052874854,-0.003916927271847023,-0.008548913458784743,0.004997434626872661,0.039027538028534155,0.0018309790637146624,-0.005173859428688751,-0.0008275626768961763,-0.01258164605768195,0.025182139313389244,-0.0011966299437614909,0.0003431137866430789,0.039269960568849675,0.1435764062470438,0.5995700739328014
0.0,0.0,0.0,0.0,0.0,0.0,0.0,0.0,0.0,0.0,0.0,0.0,0.0,0.0,0.0,0.0,0.0,0.0,0.0,-0.03301743912450635,0.0,-0.014997532423104979,-0.1852202387925287,-0.0015682533442064777,-0.037407686837976274,-0.012109165627684352,-0.0033730419789308663,-0.033719728303352785,-0.0005561589606567145,-0.03338103933692419,-0.0008780827540063746,-0.026712562716468855,-0.06652689194444554,-0.0008131381571545678,-0.005218010964181635,-0.04328046737564962,0.0,-0.041454049558091864,0.0,-0.03207200403235463,-0.14790726622777295,-0.0028979787795411077,-0.050520933769353224,-0.007482591767734556,-0.0002598253311463696,-0.06870810357214385,0.0011606089312375786,-0.008574751943100182,-0.00464174447002052,-0.012626093423794211,-0.06730778558786477,-0.003421190928504008,-0.007950717271795473,-0.044115010909799836
0.0,0.032471993457630376,0.0,-0.0037419308666880443,0.08692977981751998,-0.0005484727953411323,-0.014384574239725273,-0.012379925028949666,-0.0006064886414951825,0.02560667581139398,0.0026504614857781605,0.002888303838044076,-0.001293646188006022,-0.0005393915812937396,0.024673324457795586,-0.0015893982976977789,0.003029193307058137,0.02247305948528758,0.18801382492744692,0.23135665105902803,0.34477128205685664
0.0,0.0515912413687703,-0.0016909682732870635,-0.009652054355760165,0.043146767572526445,0.01188423612700706,-0.006055974901483714,-0.01554584045712739,0.014288333009307068,0.06325500981168869,0.005467638471752583,-0.018034594700599482,0.0011099293224755998,-0.0357084620345196,0.020393378520491463,-0.0022706851639982873,-0.005746505217911223,0.04077919931871016,0.17794406500909676,0.12509424719880433,0.350281637583083
0.0,0.0,0.0,0.0,0.0,0.0,0.0,0.0,0.0,0.0,0.0,0.0,0.0,0.0,0.0,0.0,0.0,0.0,0.0,0.01586078446465846,-0.0005770909082052027,-0.004087059373504778,-0.07230759481944389,0.0007073223866534903,-0.020264037275204885,-0.01104458455507634,-0.000441560918766878,0.00047835639813236864,0.00048508925550770984,-0.024155733272534924,-0.001359737317749137,-0.01478309404775912,-0.007849296759780173,-0.0015312030055120696,-0.0015466251840884472,0.007134899356694185,-0.24408051494743066,-0.5712519646432511
0.0,0.0,0.0,0.0,0.0,0.0,0.0,0.0,0.0,0.0,0.0,0.0,0.0,0.0,0.0,0.0,0.0,0.0,0.0,-0.03345126303935026,0.0,-0.012822409246681618,-0.18846827970339836,-0.0018597932183151214,-0.03337073364489899,-0.011375848469141032,-0.004270852433874166,-0.037809098623889634,-0.0008825539809025418,-0.033264732279141465,-0.0008875486362812818,-0.027636895745218926,-0.06477525802631576,-0.000984394619664645,-0.005143750488380478,-0.04296921050094584,0.0,-0.043240227967064164,0.0,-0.026915598778927723,-0.16801011445590708,-0.0024284091739152722,-0.045406955192952965,-0.006900667555567738,-0.0040436481877082495,-0.06476344643154773,-0.0005461523881581099,-0.011473618079176835,-0.0031905830290465016,-0.012907808529929106,-0.0590460054827936,-0.003773515227237577,-0.007429854517159398,-0.039896017659309
0.0,-0.004768341999203978,0.0,-0.007927145297299652,-0.014630790693242128,-0.001463063862271472,-0.031406309232107944,-0.018331318029276674,-0.0037330802438477065,-0.004969421825471666,0.001956563249932175,-0.010962691757483089,-0.0017012055346468464,-0.005405545758515805,-0.00446514901703787,-0.0024242634858838825,0.000932617504620763,0.0008022160774467931,-0.10479119701504098,-0.10355515210796519,-0.6757181980971433
0.0,0.007978613482947032,-0.0012206204650670265,-0.011293943471555665,-0.0479771960152329,0.0070361307794249255,-0.019194437678125002,-0.015381582586739426,0.006459758442689341,0.010925972059594382,0.002888799502440375,-0.030256349788675058,0.00023451032048588574,-0.029139951578297445,-0.015315354877887292,-0.0022289893691238324,-0.005884720748086065,0.00542852176545434,-0.1386894963326737,-0.2204069508403852,-0.422001777972222
0.0,0.0,0.0,0.0,0.0,0.0,0.0,0.0,0.0,0.0,0.0,0.0,0.0,0.0,0.0,0.0,0.0,0.0,0.0,0.04214315841618056,-0.0008630032414267114,-0.003739350457423245,-0.048037021981570144,0.001699328505712276,-0.02798544201095109,-0.013554491909232655,0.0004570040292013895,0.015357228792960437,0.0011953859464097114,-0.029556958134938527,-0.0020705520301749726,-0.019259481946401504,0.01047533635337054,-0.002383660404132981,-0.0008301511111838081,0.023383901966737466,-0.19677171732564813,-0.5601339127722642
0.0,0.0,0.0,0.0,0.0,0.0,0.0,0.0,0.0,0.0,0.0,0.0,0.0,0.0,0.0,0.0,0.0,0.0,0.0,-0.033334101728344986,0.0,-0.013928563107985351,-0.18684700774287344,-0.0017853376175323344,-0.035376530809975264,-0.011887172063667278,-0.004075575017304231,-0.036003863879803456,-0.0008080760689472845,-0.03379665537640328,-0.000949581076997976,-0.026887336335947178,-0.06434155503470919,-0.0009494710774480671,-0.00527200157469888,-0.043696964064879315,0.0,-0.04197776839895143,0.0,-0.029472447898402768,-0.15732861899676884,-0.002300031241660597,-0.048375938641008684,-0.007281462884624714,-0.003356551476520757,-0.06662803592612342,-0.0003593891333212547,-0.010528747101456671,-0.003824629591640324,-0.012917178220176214,-0.061949564894816095,-0.0036924957883915587,-0.007799873220865266,-0.042147059162789366
0.0,0.030572283915985866,0.0,-0.014867488749925778,0.10599665403158173,-0.002584208605629434,-0.05458977696992965,-0.03674356819936666,-0.005697690842265821,0.038655982172359826,0.005873211063431225,-0.008416843549786288,-0.0040404739328755235,-0.006037074283333962,0.04146907183980559,-0.005678572129229855,0.008333328016788892,0.031563826305144996,0.15775634161758872,0.23432424855469314,-0.2066535359111796
0.0,0.05678283168686841,-0.0031787660590898844,-0.024755989137893977,-0.020173505433422726,0.021028419342321057,-0.03572155379536459,-0.03450471212213018,0.020788951247326184,0.07586901347775364,0.009277679059616472,-0.0615635611000451,0.0008922461937923774,-0.06895884856875834,0.011333470165868723,-0.005572346813660102,-0.01166177521721171,0.045303350614462286,-0.003567536934479949,-0.18209752032933388,-0.30675697812494956
0.0,0.0,0.0,0.0,0.0,0.0,0.0,0.0,0.0,0.0,0.0,0.0,0.0,0.0,0.0,0.0,0.0,0.0,0.0,0.07751628685982949,-0.0012333102166710553,-0.0036352996894469143,-0.0171063340888023,0.003206571443067482,-0.03832437346912439,-0.016702598690363887,0.0014577232923761632,0.034290908721925424,0.0020467513783596495,-0.03697675031486365,-0.0028249384339574407,-0.025472834870508023,0.03404503597121094,-0.003474046458040997,-0.00011860387491611603,0.04448014983416073,-0.13734158913842906,-0.5196356126270022
0.0,0.0,0.0,0.0,0.0,0.0,0.0,0.0,0.0,0.0,0.0,0.0,0.0,0.0,0.0,0.0,0.0,0.0,0.0,-0.03319627043742511,0.0,-0.015255737439855147,-0.1849181041673492,-0.0016962193820847017,-0.037783902639689344,-0.012501092052339867,-0.0038417936031308526,-0.033842548714898835,-0.0007188541616713062,-0.034436995031251666,-0.0010240214737650476,-0.02599086691497772,-0.0638266883931998,-0.0009076788187169799,-0.0054261663607859745,-0.044572848247171185,0.0,-0.04046761250652173,0.0,-0.03253996638612781,-0.1445358264030898,-0.002146310420021946,-0.05193901945599644,-0.00773854060918419,-0.002533111290055198,-0.06886858530832207,-0.0001355221373914311,-0.00939684685680731,-0.004585037531137329,-0.012929427551046951,-0.06543528259393136,-0.003595658822275697,-0.008244072531748593,-0.04484896743465569
0.0,0.031186424620234816,0.0,-0.009753404604337669,0.1086369845104389,-0.001682268678573869,-0.034548302375929055,-0.02484255166637426,-0.003355802953497153,0.03903231837030628,0.004498638144834533,-0.002028552138553182,-0.0028869612248700154,-0.002758805882260007,0.04151475620658903,-0.004056901822065856,0.007396053970889052,0.02920043138363242,0.20268983120511558,0.27610498831223745,0.173768790369375
0.0,0.09580228221748636,-0.004320868768034826,-0.031475255206951824,0.025016008088209613,0.030833979777772406,-0.04189111175085026,-0.04343795310879233,0.030111373031814322,0.12659059723551486,0.0134308521738773,-0.07548118665867724,0.0014420047821369064,-0.09049824640545504,0.04099650488253547,-0.007465843946420497,-0.014140166767049822,0.07724279251535543,0.18080089492964074,-0.049386225382225896,-0.01951085467028893
0.0,0.0,0.0,0.0,0.0,0.0,0.0,0.0,0.0,0.0,0.0,0.0,0.0,0.0,0.0,0.0,0.0,0.0,0.0,0.01629434467363859,-0.0005141931210231456,-0.004086118042931131,-0.056448936294050324,0.0005989950707448588,-0.022375867636046792,-0.008806478688393092,-0.0012619831710220394,0.0006543348713078383,0.0003852928413112361,-0.023505065954480035,-0.0014016365180162002,-0.012548657122265357,0.0003076140309637471,-0.0016163037115850987,-0.0009274106121293558,0.0069515484445537064,-0.2133631964279604,-0.627919773042768
0.0,0.0,0.0,0.0,0.0,0.0,0.0,0.0,0.0,0.0,0.0,0.0,0.0,0.0,0.0,0.0,0.0,0.0,0.0,-0.03328625807409899,0.0,-0.012654642787360325,-0.18828844235765993,-0.001956727569513946,-0.033230607859566344,-0.011271522773402926,-0.0043636188157924255,-0.03901379435504174,-0.0009324019728023645,-0.03354290156973568,-0.000939837317539749,-0.027192317684500446,-0.06481422582014403,-0.0009997351316676593,-0.005103924983997242,-0.04238165705892128,0.0,-0.04338176577890948,0.0,-0.026544928150989782,-0.16775958879961603,-0.0024341940667834054,-0.044991701659383175,-0.00685238066940894,-0.005020361224683446,-0.0649629817505264,-0.0011730870419859405,-0.01220878422846294,-0.0031165637063255915,-0.012671140044979979,-0.058488528821568436,-0.0037411101832514337,-0.007383646808513657,-0.039241853196357146
0.0,-0.009624830551324374,0.0,-0.011387910422065807,0.0027066111249292816,-0.0023299104611215382,-0.04107475926371118,-0.02627293615897765,-0.005236268945062588,0.0044095150027081455,0.0031446875937857417,-0.013023756036148417,-0.002679543609523919,-0.006378298830980128,0.007206333382641845,-0.003888343954269508,0.004434851870734113,0.00381987329661015,-0.0970131415924979,-0.060537134805310484,-0.694771515258516
0.0,0.023208683073349504,-0.0018992884501056982,-0.016359216202168632,-0.03674762009266292,0.012675688935615066,-0.026485586689424013,-0.021891673868657122,0.011000791261093998,0.03355581150768207,0.005241272327383002,-0.04320679045437362,0.00030127020159762555,-0.041846144563658615,-0.001767615775898864,-0.0035962640805698404,-0.0073373195103615075,0.018746708016834878,-0.08582444369024754,-0.20913375159661482,-0.39913410793070536
0.0,0.0,0.0,0.0,0.0,0.0,0.0,0.0,0.0,0.0,0.0,0.0,0.0,0.0,0.0,0.0,0.0,0.0,0.0,-0.0029127607994562667,-0.00027131821199107643,-0.004044845619332857,-0.06506281428474622,-0.00021202627529947685,-0.016507734845513,-0.006000894350620897,-0.00202337721606118,-0.009641813930628922,-0.00014061000735188765,-0.018276427502906735,-0.0009040755011049047,-0.008038443493855992,-0.009593107720973094,-0.00097622767508611,-0.0011344754963017217,-0.0046813088935789456,-0.22472909158736026,-0.6248174255126109
0.0,0.0,0.0,0.0,0.0,0.0,0.0,0.0,0.0,0.0,0.0,0.0,0.0,0.0,0.0,0.0,0.0,0.0,0.0,-0.03333412701487853,0.0,-0.011236096847030133,-0.19011917999191522,-0.0020986842036773315,-0.03074700377939199,-0.010600769404527052,-0.004647956941300561,-0.04183171356485607,-0.0010487929063632826,-0.03305424932929215,-0.0008939072453798997,-0.027846364272404344,-0.06535030212432212,-0.001049887603805232,-0.004928059242179981,-0.041185522640637164,0.0,-0.04496898256534588,0.0,-0.023275538070641026,-0.1804149661710671,-0.0025910584593596625,-0.041202477181710495,-0.006369009109352839,-0.006376207385044956,-0.06283135711593608,-0.0017387159264916558,-0.013741389691126609,-0.0023158536786269932,-0.012529870496016463,-0.05469912872083426,-0.003820275017616886,-0.006914286290566024,-0.03618350123222413
0.0,-0.016460536517439013,0.0,-0.00651998004650654,-0.027117531028859308,-0.0012564037599000208,-0.023709765953023754,-0.014326217832240855,-0.003343272912804601,-0.008105792237871274,0.001248213056197502,-0.009920162380087217,-0.0013530405543665457,-0.004478941333946903,-0.005279659127764587,-0.002003936102639068,0.001438585627174358,-0.005150088755883022,-0.13533950476000606,-0.12671582170335868,-0.6062002822012381
0.0,-0.004711858197614098,-0.0007715545095073456,-0.008507859887869187,-0.049793654839599466,0.004524556513063307,-0.016714959576560637,-0.01095757758807538,0.0028386137331245518,-0.002685594856360932,0.001640432322038967,-0.025091487924123093,-0.00012300010634842996,-0.018524081385128306,-0.015521915110808622,-0.0016930170539312878,-0.0038083902810510527,-0.003659854776863807,-0.1570357951379632,-0.2231821999430512,-0.44818038798052207
0.0,0.0,0.0,0.0,0.0,0.0,0.0,0.0,0.0,0.0,0.0,0.0,0.0,0.0,0.0,0.0,0.0,0.0,0.0,-0.00836040063305523,1.644735872595141e-05,-0.0037041658812411713,-0.06884167625786289,-0.00031412655420606924,-0.014460738494469652,-0.0053856308728996135,-0.002372449221925047,-0.012796987945155196,-0.00031904119663004596,-0.017085528137790813,-0.0007869742615889397,-0.006969149809210277,-0.012906165153468563,-0.0008162709402895978,-0.0010578405643275302,-0.00851371022111044,-0.23070320861815002,-0.6045563416230662
0.0,0.0,0.0,0.0,0.0,0.0,0.0,0.0,0.0,0.0,0.0,0.0,0.0,0.0,0.0,0.0,0.0,0.0,0.0,-0.0333602246869656,0.0,-0.010462718591674584,-0.19111728116516893,-0.00217607765711258,-0.02939296556836078,-0.010235080805050624,-0.0048029754759301956,-0.04336801724244259,-0.001112248175304164,-0.032787840571780275,-0.0008688665901080756,-0.02820294444694743,-0.06564256594148636,-0.001077230270762082,-0.004832178846574663,-0.04053340107632105,0.0,-0.04583431855977857,0.0,-0.0214930965433297,-0.1873145617136707,-0.0026765794855010887,-0.03913662668696071,-0.0061054793589034925,-0.007115402276284656,-0.061669214837871175,-0.002047091607540798,-0.014576952125817957,-0.0018793139088833372,-0.012452851619498698,-0.05263318246357551,-0.003863434955553029,-0.006658395231257007,-0.03451611573756412
0.0,-0.018086648546377166,0.0,-0.00499920618311497,-0.03606893264002011,-0.0009235868700063736,-0.017957228514166514,-0.010627095915056712,-0.002771771188549499,-0.012006385689737085,0.0006470064063432905,-0.008874704854741271,-0.0009390676249398516,-0.003920853303279501,-0.009380776805652693,-0.0014169690803956356,0.0006067480123887307,-0.008144426680144177,-0.14664851094350653,-0.1469867616632842,-0.5689604462871175
0.0,-0.013309647547436314,-0.0003355425688883666,-0.005578334435030216,-0.05191351047600324,0.001841457250350645,-0.012564947064296905,-0.007115902433535229,0.00013651244184504366,-0.013945128007557582,0.0004363296374630873,-0.018408543578664952,-0.0002550637200108663,-0.01048028918420578,-0.019349639088569612,-0.001030962116995362,-0.0024727256997519524,-0.01067214043088754,-0.17288699667519933,-0.21816857285588592,-0.43906529674791733
0.0,0.0,0.0,0.0,0.0,0.0,0.0,0.0,0.0,0.0,0.0,0.0,0.0,0.0,0.0,0.0,0.0,0.0,0.0,-0.009926874989473283,0.00011281963490180408,-0.0036519077610294255,-0.07014476114779734,-0.0003534392963717629,-0.014017281441830683,-0.00523153562886623,-0.0024072789524979253,-0.013679034210771455,-0.00038392621620523946,-0.016920802143941236,-0.0007609369286388842,-0.006727790066787619,-0.01383546439374922,-0.0007764085419497645,-0.0010498149602555366,-0.009789615440952594,-0.2332688332385521,-0.5969272008416284
0.0,0.0,0.0,0.0,0.0,0.0,0.0,0.0,0.0,0.0,0.0,0.0,0.0,0.0,0.0,0.0,0.0,0.0,0.0,-0.033374452898558095,0.0,-0.010041079856146315,-0.19166143677557151,-0.0022182718584863037,-0.028654756347707228,-0.010035710732757103,-0.0048874901600086664,-0.0442055959246951,-0.0011468434062581133,-0.032642596959261076,-0.0008552146543929045,-0.028397348689459877,-0.06580190549552051,-0.0010921372421461117,-0.004779905733793041,-0.04017787037722827,0.0,-0.04630609181170498,0.0,-0.020521325761665928,-0.1910761579572782,-0.0027232047650115223,-0.03801034393416134,-0.005961805354644728,-0.007518404555043497,-0.06103562552082579,-0.0022152152020751374,-0.01503249310589839,-0.0016413164280286597,-0.012410861634026361,-0.051506847501933684,-0.0038869653580834557,-0.006518885771386683,-0.03360707245022232
0.0,-0.018863773276684002,0.0,-0.004631543314556684,-0.03779981633483606,-0.0008385545538375708,-0.01654094428193146,-0.009634247054668588,-0.002651163128830891,-0.01285954402540929,0.00046601958509007575,-0.008737794086294041,-0.0008276776673619663,-0.003841861838819123,-0.010474025013245864,-0.0012613222678323165,0.00034859871313982853,-0.009130624890397464,-0.1502874700679556,-0.15265599599021207,-0.5581137587979496
0.0,-0.016128348414341354,-0.00019608047271538732,-0.00464908740117038,-0.052179271247453286,0.0009827220372624946,-0.011259483365756284,-0.005911698532687912,-0.0007271706548030397,-0.01770094225333778,5.003864039588778e-05,-0.01632769078545417,-0.0002981409692513346,-0.00791746410309375,-0.020844238105938582,-0.000820419830513649,-0.002048886760119501,-0.012983057475094777,-0.17818413032815825,-0.21652756295794276,-0.43423029210213177
0.0,0.0,0.0,0.0,0.0,0.0,0.0,0.0,0.0,0.0,0.0,0.0,0.0,0.0,0.0,0.0,0.0,0.0,0.0,-0.01044268810835907,0.00015458724998710464,-0.0036977624397328004,-0.07203735006196314,-0.000383576843557373,-0.014307718766467671,-0.005069654703334819,-0.0023446455426568893,-0.014171215658798331,-0.0003335449185963607,-0.017380295221422697,-0.000788924695999944,-0.007061639378986653,-0.014693417611879171,-0.0008106105174255076,-0.0010856400069902536,-0.00989984654606799,-0.23773454978201855,-0.5875651786844467
0.0,0.0,0.0,0.0,0.0,0.0,0.0,0.0,0.0,0.0,0.0,0.0,0.0,0.0,0.0,0.0,0.0,0.0,0.0,-0.03338220998909315,0.0,-0.009811206282553274,-0.1919581054262761,-0.002241275750295562,-0.02825229144751642,-0.009927015996899402,-0.004933566791051255,-0.04466223614446403,-0.0011657044090516466,-0.03256341147311375,-0.0008477717441835815,-0.028503336100440993,-0.0658887759597691,-0.001100264386297621,-0.004751406911874105,-0.03998403829911022,0.0,-0.046563298264072364,0.0,-0.01999152523939077,-0.19312694574803657,-0.0027486244400027502,-0.03739630490158072,-0.005883475604532917,-0.0077381177032398284,-0.06069019843306793,-0.0023068746446842075,-0.015280849872450989,-0.0015115623831075697,-0.012387969078854555,-0.050892780005570855,-0.0038997939178479447,-0.00644282649270052,-0.03311147038285006
0.0,-0.01956250849206843,0.0,-0.00455162297891838,-0.03761142293291811,-0.0008350989434479999,-0.016123907080604776,-0.009231161163248083,-0.0026529526889137616,-0.013308891894383036,0.0004952783235684867,-0.008732685683702637,-0.0008143547411564345,-0.003938138749566502,-0.011208854763173407,-0.0012461098895696174,0.00026674051878012667,-0.009339878951130849,-0.15204980566610438,-0.15426227697719408,-0.553731368303196
0.0,-0.01741120149843324,-0.00015487948960334316,-0.004302505265803427,-0.052184941261901735,0.0007219617845182404,-0.010691876271458362,-0.005502327481356787,-0.000992014748415721,-0.01922326935439546,-3.692792141192092e-05,-0.01596198193888385,-0.00032215020182182645,-0.007296035955225633,-0.02196598246532627,-0.0007747147073271839,-0.001937849702427167,-0.013778403211995582,-0.18058117843741087,-0.2169006354750094,-0.42922415665218466
0.0,0.0,0.0,0.0,0.0,0.0,0.0,0.0,0.0,0.0,0.0,0.0,0.0,0.0,0.0,0.0,0.0,0.0,0.0,-0.010729179513671564,0.00018627143620583638,-0.003899140954776349,-0.07404908703396769,-0.0002573533162843082,-0.01515288917125437,-0.00509105009116839,-0.0024187929959681403,-0.014889768568547438,-0.0003198814601508074,-0.017866417077742017,-0.0008425173133063952,-0.007438275724793319,-0.01516068666367403,-0.0008688550897056771,-0.0011578190080512576,-0.009961866265279987,-0.24058724569687498,-0.5790839573839741
0.0,0.0,0.0,0.0,0.0,0.0,0.0,0.0,0.0,0.0,0.0,0.0,0.0,0.0,0.0,0.0,0.0,0.0,0.0,-0.0331272246764411,0.0,-0.009155633000151465,-0.19257690181665044,-0.0028754315675244974,-0.026611116101798588,-0.010045340653404013,-0.004757562736143134,-0.04438918773729665,-0.0011316966821917245,-0.03398613229059035,-0.0008029288130716808,-0.028200755593005167,-0.06648340966925519,-0.0010589705397611958,-0.004512641186280034,-0.0402576599105484,0.0,-0.04780103173399645,0.0,-0.01859735504382199,-0.1952463126782988,-0.004580564366752561,-0.03514667235301637,-0.005546915316925978,-0.007602193413848148,-0.059321293487156125,-0.0022912147714146108,-0.01653636480014,-0.0013209014263072755,-0.0118143146361796,-0.053180413054567485,-0.003738246318667982,-0.006083504402455287,-0.031165295170564832
0.0,-0.02246597812735184,0.0,-0.005432164418670646,-0.034319689639689496,0.001624609112497523,-0.01915477554954006,-0.010144320858111833,-0.0031981158331337812,-0.015792071387578703,0.0006161487397027002,-0.009592313243297106,-0.0009725413479856642,-0.0045937553901658984,-0.011244476926094914,-0.0014915795922105083,0.0002673975052309811,-0.008900367629178603,-0.16027435286300856,-0.14685086199464165,-0.5430219263948399
0.0,-0.018877162252938985,-0.00014088547626359756,-0.004344322713892908,-0.05207391274767998,0.001637477477255091,-0.010954247662641024,-0.005513128272961162,-0.0011876785988569599,-0.02090332111599439,-8.581721084896659e-05,-0.016064305265468835,-0.00035223840885699746,-0.007142026384537221,-0.02272548154498186,-0.0007912558655504745,-0.001980999675505887,-0.01430703737262484,-0.1841047223087326,-0.21534609422622839,-0.4214308327423272
0.0,0.0,0.0,0.0,0.0,0.0,0.0,0.0,0.0,0.0,0.0,0.0,0.0,0.0,0.0,0.0,0.0,0.0,0.0,0.12885437758756485,0.003310437093114943,-0.0032174354448800437,0.04798109857862445,0.009184811142964693,-0.06491486017464967,-0.012819079001609404,0.0011438100607993487,0.048421782651577025,0.002837948165652904,-0.057418652371515756,-0.0050858778827879165,-0.03907175333126611,0.08293584896045313,-0.006368678643687217,0.0013158656736488772,0.06885359904651765,0.01998673373884925,0.39585832272709903
0.0,0.0,0.0,0.0,0.0,0.0,0.0,0.0,0.0,0.0,0.0,0.0,0.0,0.0,0.0,0.0,0.0,0.0,0.0,-0.03270881331047998,0.0,-0.009691274800054925,-0.19186374793861727,-0.0028466176356753384,-0.027771547083953924,-0.010281740987365959,-0.004767109667348402,-0.04418642159928249,-0.001132578290391285,-0.03447637510870249,-0.0008609508836856832,-0.02752673733253903,-0.06599440253744673,-0.0010627681232262395,-0.004609543731839434,-0.040159016109436375,0.0,-0.047032809080166015,0.0,-0.01981038730144176,-0.19040476251756394,-0.004696199539123225,-0.036729496986480585,-0.005764792917576483,-0.007779392564690997,-0.060715118390896466,-0.002485054194245038,-0.016420170858785454,-0.001587921754535654,-0.011465188236263246,-0.05355265486687672,-0.00373609100033522,-0.0063041097627642255,-0.031455495168301074
0.0,0.017007293544788873,0.0,-0.004927544160128341,0.0891242739653172,0.005988879657138695,-0.016788552517442826,-0.008030856642167884,-0.0019287278121639794,0.015537634953335806,0.0020351269925731443,0.0003082555344619147,-0.0014343761029651377,-0.0008964841999916039,0.030381451132765837,-0.002117443994781795,0.003472099225498125,0.018955746609716162,0.1461080558804984,0.22525152457343947,0.4096237821602902
0.0,0.02009871964348035,-0.00043874415110024665,-0.00937255020670287,0.058413325051335285,0.028066855219797536,-0.015821367536250266,-0.011853974133499652,0.009666073682426323,0.02991281672887054,0.004664516520588781,-0.03173397049224708,-0.00045001510693194887,-0.029608668147233102,0.028675530640488164,-0.0037746924459852683,-0.00387002356909715,0.034916851385612485,0.15862847230379626,0.12975890063129303,0.38993875937547323
0.0,0.0,0.0,0.0,0.0,0.0,0.0,0.0,0.0,0.0,0.0,0.0,0.0,0.0,0.0,0.0,0.0,0.0,0.0,0.07358204609892365,0.002388975387454607,-0.006583115554182298,-0.04675167578757364,0.005090093115764346,-0.058324722614002796,-0.013556483774459291,-0.0029228972088260257,0.015704707944251186,0.001569066012849315,-0.057061163582917455,-0.0042251659489914535,-0.0334062597177886,0.03983914691821098,-0.005104720035714099,-0.0005925281715140107,0.03496694762247957,-0.24301594341995195,-0.35524781844039743
0.0,0.0,0.0,0.0,0.0,0.0,0.0,0.0,0.0,0.0,0.0,0.0,0.0,0.0,0.0,0.0,0.0,0.0,0.0,-0.03352827935123685,0.0,-0.009240162116174852,-0.19198132632855197,-0.002865767414243529,-0.026662832941204098,-0.010017454670517607,-0.004668735557425564,-0.044157694244671385,-0.0011104761586081524,-0.03380963428364071,-0.0008174473075849792,-0.028260644331535544,-0.06684132116580782,-0.001039931987226791,-0.004470243429873909,-0.040500640483845704,0.0,-0.048272400271228665,0.0,-0.01883198832071777,-0.1916026254194979,-0.004723154087713281,-0.03523540429140692,-0.005545059554400268,-0.007561006431660882,-0.05897978342656281,-0.002357616275376488,-0.01630468101271739,-0.0014285190514829623,-0.012691755403642504,-0.05457039234223261,-0.0036612035651396504,-0.006072284177262111,-0.03213471814110736
0.0,-0.024253967866226245,0.0,-0.020402597803954568,0.06619023815159518,0.00823778771290347,-0.06643983454936726,-0.03343364632311418,-0.010475371233693468,-0.0183608019530739,0.004556684452204729,-0.022641438338711583,-0.004314340995433626,-0.010026150458744403,0.026186865136805917,-0.0064841473179538135,0.00562953278507296,0.010552954729642452,-0.1280813245081942,0.026728042644273805,-0.5068426054526932
0.0,-0.01325363876525587,-0.0006368699661898704,-0.016290284770429618,-0.03129934105494986,0.028303607855629957,-0.03214001886455798,-0.01989015022363161,0.0057427577610554845,-0.007227988811210495,0.004322927383271537,-0.05677120865511965,-0.0009791197724224772,-0.039717330684926916,-0.00915251965353945,-0.00483789052640368,-0.0070921314150536405,0.009093945536766316,-0.15568162789772433,-0.23496275869926278,-0.322508231887902
0.0,0.0,0.0,0.0,0.0,0.0,0.0,0.0,0.0,0.0,0.0,0.0,0.0,0.0,0.0,0.0,0.0,0.0,0.0,0.023015821294847846,0.00110012322211735,-0.005424296688593449,-0.06721706699125815,0.0014803048460277429,-0.03330417133592092,-0.008706979930688585,-0.0034507479305360684,-0.003598950830703535,0.000453622586431147,-0.03505039914020997,-0.002257300442356238,-0.018321195919315313,0.007045525529453438,-0.0026364050630937963,-0.0011387887166752243,0.00780818605982631,-0.2566089745220905,-0.5213398599082737
0.0,0.0,0.0,0.0,0.0,0.0,0.0,0.0,0.0,0.0,0.0,0.0,0.0,0.0,0.0,0.0,0.0,0.0,0.0,-0.03405287497105024,0.0,-0.008830387390222558,-0.19183931439507892,-0.0028218224970757736,-0.025581291939270612,-0.010537080530770949,-0.004529413118499925,-0.044451040099216375,-0.001078015515161707,-0.03282456685809262,-0.0007793166258905935,-0.02865880615377175,-0.06777901771756314,-0.0010084158264044216,-0.004313265055825107,-0.04088794453006722,0.0,-0.049264708561339576,0.0,-0.0179660003210676,-0.1927992962167286,-0.004648319147356345,-0.033791018239501314,-0.005325801057359987,-0.007304497137456877,-0.05696224995541582,-0.002246613892635521,-0.015937337282567944,-0.0013183004486871487,-0.013997843336913295,-0.05559605698606003,-0.003553127330558458,-0.005836778543390565,-0.03342462476692275
0.0,-0.02592211182875757,0.0,-0.013197598737798143,0.010228377806937673,0.003495267456769735,-0.04263689356520449,-0.021636160762550313,-0.007051711505123022,-0.021201219826467558,0.002519073202159833,-0.01729394922845862,-0.0026108825577293394,-0.0074286198331389875,0.005693541604139397,-0.003941538208407679,0.0026730850086201657,-0.0008957558400349488,-0.16396585331792896,-0.08264298602772426,-0.5649179615249081
0.0,-0.017450290546417082,-0.00032137401144696244,-0.008896795489992526,-0.044860207803495734,0.01114920647260623,-0.018529436467496586,-0.010763537927801962,0.0008099327048213147,-0.01666327488596783,0.0015647310903351141,-0.0313448502668091,-0.0005761750123172533,-0.01923090906097816,-0.01765660133173875,-0.0022797028470326677,-0.003950245224850226,-0.006008356018929129,-0.17641588244229897,-0.2257856628301382,-0.38570540563961925
0.0,0.0,0.0,0.0,0.0,0.0,0.0,0.0,0.0,0.0,0.0,0.0,0.0,0.0,0.0,0.0,0.0,0.0,0.0,0.1344015446349352,0.003528263300086603,-0.005755984347549409,0.03855056685043114,0.007426808769898504,-0.06905194183702092,-0.01346448234453544,-0.004068882569448208,0.05187604466275346,0.0029465687729977198,-0.06628089788144143,-0.004452048717032374,-0.04147879151682444,0.09040578690339506,-0.006656903733560533,2.8960126415005116e-05,0.07260443280919815,-0.023060926788220575,0.3637488228042833
0.0,0.0,0.0,0.0,0.0,0.0,0.0,0.0,0.0,0.0,0.0,0.0,0.0,0.0,0.0,0.0,0.0,0.0,0.0,-0.03378019215582434,0.0,-0.009316297975603969,-0.19138779640589226,-0.0027675125441461597,-0.02669015232903287,-0.01058323770569973,-0.004567411496685545,-0.04378802743887069,-0.0010858788052944583,-0.033398722478751426,-0.0007791483588919626,-0.028213982632469114,-0.06742225484124277,-0.0009870072057982248,-0.004434737918289265,-0.04073718405971214,0.0,-0.04815123948248005,0.0,-0.01926457230441836,-0.1872860651012711,-0.0048429759924837334,-0.0352036960762914,-0.005572147882808567,-0.0075299596699765605,-0.05872456159340987,-0.002454796878143667,-0.015969733061158477,-0.0015878902814676528,-0.013938490344525987,-0.056509244226504836,-0.0032344393495968293,-0.006088975873798811,-0.033580756233868664
0.0,0.010591820122208636,0.0,-0.010535981483922935,0.1124500350020404,0.005405011241992756,-0.032524673166860536,-0.016103642567037165,-0.004951636136087538,0.008752573953603834,0.003265660319824976,-0.006293420389771708,-0.002013318900561892,-0.0025776733035071074,0.041472619914390295,-0.0038046854961061418,0.004817716038014111,0.022733804624733588,0.12513107251692743,0.24310078431309623,0.3433971099815492
0.0,0.015973647730903644,-0.0007783684540158358,-0.018752439367105845,0.05841040579420615,0.04283703380411579,-0.028704496242826023,-0.020639358540026236,0.009550215188082108,0.03404002893939782,0.007376730940850727,-0.0632780683517089,-0.00014039567391234168,-0.05055986885808118,0.03476876791941319,-0.0061344884473716705,-0.00819097081300141,0.04498972109431809,0.13332550705046153,0.0547137750015299,0.36658616229758484
0.0,0.0,0.0,0.0,0.0,0.0,0.0,0.0,0.0,0.0,0.0,0.0,0.0,0.0,0.0,0.0,0.0,0.0,0.0,0.0,0.0,0.0,0.0,0.0,0.0,0.0,0.0,0.0,0.0,0.0,0.0,0.0,0.0,0.0,0.0,0.0,0.0,0.0
0.0,0.0,0.0,0.0,0.0,0.0,0.0,0.0,0.0,0.0,0.0,0.0,0.0,0.0,0.0,0.0,0.0,0.0,0.0,0.0,0.0,0.0,0.0,0.0,0.0,0.0,0.0,0.0,0.0,0.0,0.0,0.0,0.0,0.0,0.0,0.0,0.0,0.0,0.0,0.0,0.0,0.0,0.0,0.0,0.0,0.0,0.0,0.0,0.0,0.0,0.0,0.0,0.0,0.0
0.0,0.0,0.0,0.0,0.0,0.0,0.0,0.0,0.0,0.0,0.0,0.0,0.0,0.0,0.0,0.0,0.0,0.0,0.0,0.0,0.0
0.0,0.0,0.0,0.0,0.0,0.0,0.0,0.0,0.0,0.0,0.0,0.0,0.0,0.0,0.0,0.0,0.0,0.0,0.0,0.0,0.0
0.0,0.0,0.0,0.0,0.0,0.0,0.0,0.0,0.0,0.0,0.0,0.0,0.0,0.0,0.0,0.0,0.0,0.0,0.0,0.0,0.0,0.0,0.0,0.0,0.0,0.0,0.0,0.0,0.0,0.0,0.0,0.0,0.0,0.0,0.0,0.0,0.0,0.0
0.0,0.0,0.0,0.0,0.0,0.0,0.0,0.0,0.0,0.0,0.0,0.0,0.0,0.0,0.0,0.0,0.0,0.0,0.0,0.0,0.0,0.0,0.0,0.0,0.0,0.0,0.0,0.0,0.0,0.0,0.0,0.0,0.0,0.0,0.0,0.0,0.0,0.0,0.0,0.0,0.0,0.0,0.0,0.0,0.0,0.0,0.0,0.0,0.0,0.0,0.0,0.0,0.0,0.0
0.0,0.0,0.0,0.0,0.0,0.0,0.0,0.0,0.0,0.0,0.0,0.0,0.0,0.0,0.0,0.0,0.0,0.0,0.0,0.0,0.0
0.0,0.0,0.0,0.0,0.0,0.0,0.0,0.0,0.0,0.0,0.0,0.0,0.0,0.0,0.0,0.0,0.0,0.0,0.0,0.0,0.0
0.0,0.0,0.0,0.0,0.0,0.0,0.0,0.0,0.0,0.0,0.0,0.0,0.0,0.0,0.0,0.0,0.0,0.0,0.0,-0.028822308875521802,0.0,0.0,-0.0959537592221643,-0.0017573922758960154,-0.0005566932825050703,-0.004835803405798921,0.0,-0.01200916673974602,-0.0020246550323086963,-0.00985029796234063,0.0,-0.009965198305166952,-0.029864515971560594,-0.0006735788126719035,0.0,-0.02230816619865906,-0.25664267279466,-0.524691686602416
0.0,0.0,0.0,0.0,0.0,0.0,0.0,0.0,0.0,0.0,0.0,0.0,0.0,0.0,0.0,0.0,0.0,0.0,0.0,-0.02983677230565812,0.0,0.0,-0.26470966416367375,-0.013710723358000415,-0.0018771479265149152,-0.009056415434940382,0.0,-0.007175467613837379,-0.0026510597909552755,-0.02208790763532027,0.0,-0.06395050189125377,-0.05309926957920703,0.0,0.0,-0.03179213472911115,0.0,-0.06616946440965076,0.0,0.0,-0.264677857638603,-0.014704325424366836,0.0,0.0,0.0,-0.014704325424366836,0.0,-0.02940865084873367,0.0,0.0,-0.036760813560917094,0.0,0.0,-0.07352162712183419
0.0,-0.026799174829239714,0.0,0.0,-0.06442463302317714,-0.002151392145777873,0.0,-0.005775292693554823,0.0,-0.009454173262834984,-0.004216728605724631,-0.007572900353138113,0.0,-0.001663743259401555,-0.017806355659888196,-0.001505974502044511,0.0,-0.021274877886025636,-0.17670100823988932,-0.18071694024534135,-0.4799038746515175
0.0,-0.026042106171158735,0.0,0.0,-0.06310112494397783,-0.003305073780498096,0.0,-0.005016211269692147,0.0,-0.01617376530882047,-0.0032347530617640933,-0.01125131499744033,0.0,-0.0072899145087582115,-0.033050737804980926,-0.001687697249616049,0.0,-0.025338898983818716,-0.21377498495136618,-0.22643271432348652,-0.36426132304213055
0.0,0.0,0.0,0.0,0.0,0.0,0.0,0.0,0.0,0.0,0.0,0.0,0.0,0.0,0.0,0.0,0.0,0.0,0.0,-0.03675720717060331,0.0,0.0,-0.11881900253022529,-0.0028374539194293215,-0.000379256303025464,-0.007354272436949548,0.0006913345721507428,-0.015697894985784788,-0.0032689715527442825,-0.009411247699113313,0.0,-0.014748525719756008,-0.03898993531359999,-0.0010875482203231992,0.0,-0.03193721998684811,-0.2708308576699779,-0.4471222396706858
0.0,0.0,0.0,0.0,0.0,0.0,0.0,0.0,0.0,0.0,0.0,0.0,0.0,0.0,0.0,0.0,0.0,0.0,0.0,-0.030229575733707565,0.0,0.0,-0.26362162995905974,-0.01304475019663633,-0.0022464863565267693,-0.00887333150073898,-0.00046051743686124035,-0.007876374741568996,-0.0025222894391767553,-0.02390654017318922,0.0,-0.061304741358434695,-0.054000507095467234,0.0,0.0,-0.03188625737121901,0.0,-0.06295540441820985,0.0,0.0,-0.2719801878644981,-0.013990089870713308,0.0,0.0,0.0,-0.013990089870713308,0.0,-0.03213155530810204,0.0,0.0,-0.03497522467678326,0.0,0.0,-0.06995044935356652
0.0,-0.039929917649823836,0.0,0.0,-0.0605305817453351,-0.0040889491069040695,0.006735989312559147,-0.010976556713644711,0.0003527589072180603,-0.009915409712863728,-0.00801434024953199,-0.002307252117428234,0.0,-0.000414674387471705,-0.02107789670968744,-0.00286226437483285,0.0,-0.03370373775040686,-0.2134472997965932,-0.20478132318658415,-0.380796015690655
0.0,-0.03455281662314937,0.0,0.0,-0.06075974894995972,-0.004498279289105751,0.0024626045508304283,-0.0062782403028673345,0.0005708461334015161,-0.020487690041996773,-0.004402571219124793,-0.012617258925516591,0.0,-0.00830251258500718,-0.0402476292805185,-0.0022969936795433675,0.0,-0.03472598865529962,-0.2475856641813735,-0.22119345616252067,-0.29896457050563596
0.0,0.0,0.0,0.0,0.0,0.0,0.0,0.0,0.0,0.0,0.0,0.0,0.0,0.0,0.0,0.0,0.0,0.0,0.0,0.007530439989379531,0.0,0.0034120162831117306,0.03978436891090362,0.00018749447355719123,0.010632082329661239,-0.00239519624467827,0.002919636631039526,0.0029227119921695906,-0.0013683554080241933,0.013577020175655916,0.0,-0.004376362714295143,0.007878996372046528,-0.0004552356803218534,0.0,0.005878415548065906,0.17528848680335218,0.7213511520783542
0.0,0.0,0.0,0.0,0.0,0.0,0.0,0.0,0.0,0.0,0.0,0.0,0.0,0.0,0.0,0.0,0.0,0.0,0.0,-0.029791915567184066,0.0,0.0,-0.2649033944786258,-0.013808121728060209,-0.0018262799552212364,-0.00903910553806222,6.42028730074531e-05,-0.007057212550005374,-0.0026698924153054286,-0.02181877621605061,0.0,-0.06434059121611778,-0.052945411627288934,0.0,0.0,-0.03174372643725708,0.0,-0.06663951969506128,0.0,0.0,-0.26323196536614796,-0.014808782154458067,0.0,0.0,0.0,-0.014808782154458067,0.0,-0.029325309327610558,0.0,0.0,-0.037021955386145146,0.0,0.0,-0.07404391077229029
0.0,0.007735823730021964,0.0,0.0006580048070696759,0.05370316123426448,0.0013752701685082844,0.017201760254997797,-0.003102023031991859,0.0014877102422349298,0.007081081283699482,-0.0022648876773318184,0.009710087444750081,0.0,0.001873293820147186,0.006929520414450478,-0.0008088884561899313,0.0,0.0015295257132202933,0.09555981435674515,0.1306627978920408,0.6582879227962142
0.0,-0.0007598875109983027,0.0,0.0036328779897056977,0.0565109389487704,-0.002177569138533757,0.019528136494325242,-0.0035701275607392473,0.0032091457876147838,0.0017832738401200355,-0.003064711653164336,0.016732422256639175,0.0,-0.0007157277052985207,0.0049857450781927454,-0.0015989799929553212,0.0,-0.0020711566235088338,0.08219969798011835,0.2069184357537065,0.5904713146109692
