0.0,0.0,0.0,0.0,0.0,0.0,0.0,0.0,0.0,0.0,0.0,0.0,0.0,0.0,0.0,0.0,0.0,0.0,0.0,-0.029717178100875576,-0.0023284826476317336,0.0,-0.0896745302916703,-0.019382697479973548,0.0,-0.0041243792004101625,-0.0009392097643945816,-0.00045187130348970874,0.0,0.0,0.0,-0.006952883517239307,0.0,0.0,-0.0030240353058814673,-0.011106496876286925,-0.16770176448785334,-0.6645958814889003
0.0,0.0,0.0,0.0,0.0,0.0,0.0,0.0,0.0,0.0,0.0,0.0,0.0,0.0,0.0,0.0,0.0,0.0,0.0,-0.09927515199012871,-0.010869542188700223,0.0,-0.2528980149237585,-0.049275257922107685,0.0,-0.010869542188700223,0.0,0.0,0.0,0.0,0.0,-0.027536173544707238,0.0,0.0,-0.010869542188700223,-0.03840571573340746,0.0,-0.1249997351700526,0.0,0.0,-0.18749960275507888,0.0,0.0,0.0,0.0,0.0,0.0,0.0,0.0,0.0,0.0,0.0,-0.0624998675850263,-0.1249997351700526
0,0,0,0,0,0,0,0,0,0,0,0,0,0,0,0,0,0,0,0,0
0.0,-0.024096371764378,0.0,0.0,-0.07710838964600959,-0.0144578230586268,0.0,-0.0048192743528755995,0.0,0.0,0.0,0.0,0.0,-0.009638548705751199,0.0,0.0,-0.007228911529313401,-0.019277097411502398,-0.15662641646845699,-0.15662641646845699,-0.5301201788163159
0.0,0.0,0.0,0.0,0.0,0.0,0.0,0.0,0.0,0.0,0.0,0.0,0.0,0.0,0.0,0.0,0.0,0.0,0.0,0.02720147293269307,0.0013366604631490167,0.0,0.09439699317840893,0.012286389459532657,0.0,0.002367591022346467,0.0012803174767140896,0.0002593957513149699,0.0,0.0,0.0,0.01863606871311009,0.006196088256301578,0.0,0.007294021096005986,0.011547372908608402,0.1828023712581852,0.6343951081827535
0.0,0.0,0.0,0.0,0.0,0.0,0.0,0.0,0.0,0.0,0.0,0.0,0.0,0.0,0.0,0.0,0.0,0.0,0.0,0.07965654260720223,0.00392186052676409,0.0,0.25079740829590325,0.031574743836501926,0.0,0.00392186052676409,0.0,0.0,0.0,0.0,0.0,0.05596747639816203,0.02194912008779982,0.0,0.026937908725277255,0.025272859212177725,0.0,0.12499838747227404,0.0,0.0,0.23888153953470553,0.0342338795614461,0.0,0.0,0.0,0.0,0.0,0.0,0.0,0.0,0.0342338795614461,0.0,0.02255069802889353,0.04510139605778706
0,0,0,0,0,0,0,0,0,0,0,0,0,0,0,0,0,0,0,0,0
0.0,0.019676386887339865,0.0,0.0,0.08378109135847096,0.007855753588014188,0.0,0.00195798384447321,0.0009877937669857321,0.0,0.0,0.0,0.0,0.021719588937983498,0.0069229361813524255,0.0,0.009859959474221787,0.01475079571580205,0.16751228975464372,0.16751228975464372,0.49746299267249644
0.0,0.0,0.0,0.0,0.0,0.0,0.0,0.0,0.0,0.0,0.0,0.0,0.0,0.0,0.0,0.0,0.0,0.0,0.0,-0.036801475016572535,-0.0009363165927249568,0.0,-0.09445177519326564,-0.008559879292555398,0.0,-0.0028999754416137624,-0.003335794937800429,-0.0036982471219877346,-0.002844061521492972,-0.0004589073745623691,0.0,-0.0150131547542475,-0.004081654887454513,0.0,-0.004884938968232954,-0.009971003432252396,-0.1987863896399228,-0.613275531832
0.0,0.0,0.0,0.0,0.0,0.0,0.0,0.0,0.0,0.0,0.0,0.0,0.0,0.0,0.0,0.0,0.0,0.0,0.0,-0.08879269227177099,-0.00333900352901161,0.0,-0.24705354035067245,-0.026667173307371967,0.0,-0.006952894535751813,-0.003613891006740203,-0.003613891006740203,-0.003613891006740203,0.0,0.0,-0.050517913030231704,-0.01833616285809745,0.0,-0.022561610070675992,-0.02493605179203133,0.0,-0.15813485722655723,0.0,0.0,-0.22698925214095403,-0.028638397261437236,0.0,0.0,0.0,0.0,0.0,0.0,0.0,0.0,-0.028638397261437236,0.0,-0.01919927029181677,-0.03839854058363354
0.0,-0.018518499377950685,0.0,0.0,-0.11111099626770411,0.0,0.0,0.0,0.0,-0.027777749066926028,0.0,0.0,0.0,-0.027777749066926028,0.0,0.0,0.0,0.0,-0.18518499377950687,-0.18518499377950687,-0.44444398507081645
0.0,-0.026278244832718397,0.0,0.0,-0.08148042709994155,-0.005118924874336902,0.0,-0.002642603332982068,-0.003536952112125067,-0.004069493339290724,-0.003395065219059353,-0.0008365314303860735,0.0,-0.01884401650493258,-0.004354186903744985,0.0,-0.006298841504317172,-0.011789721674398965,-0.18254327733805092,-0.17910672796705396,-0.46970417725118946
0.0,0.0,0.0,0.0,0.0,0.0,0.0,0.0,0.0,0.0,0.0,0.0,0.0,0.0,0.0,0.0,0.0,0.0,0.0,-0.04207185361620197,-0.0007714767728981064,0.0,-0.09635194638636248,-0.007535140712404465,0.0,-0.0023789222271751497,-0.0027271423799290944,-0.0037942983945211182,-0.002319389407492065,-0.0003741984642059017,0.0,-0.012910404394798377,-0.005632111748832767,0.0,-0.004020037619248086,-0.010089835011734764,-0.1998347835303305,-0.609187516472153
0.0,0.0,0.0,0.0,0.0,0.0,0.0,0.0,0.0,0.0,0.0,0.0,0.0,0.0,0.0,0.0,0.0,0.0,0.0,-0.08859076590239946,-0.003352654262110224,0.0,-0.24713668984836093,-0.02677870458777328,0.0,-0.006885890638380023,-0.0035332363762698013,-0.0035332363762698013,-0.0035332363762698013,0.0,0.0,-0.05063701997618091,-0.018415003102477057,0.0,-0.022657850663392837,-0.02494442665585953,0.0,-0.15739567316999903,0.0,0.0,-0.22724567933911097,-0.028762038117616184,0.0,0.0,0.0,0.0,0.0,0.0,0.0,0.0,-0.028762038117616184,0.0,-0.019277762007133787,-0.038555524014267574
0.0,-0.04190068093652103,0.0,0.0,-0.08966770122039959,0.0,0.0,0.0,0.0,-0.017134227093539327,0.0,0.0,0.0,-0.01713462986285249,-0.005974082289228285,0.0,0.0,0.0,-0.17181132140254074,-0.17181132140254074,-0.4845651121608342
0.0,-0.02942225475665986,0.0,0.0,-0.0811317007671386,-0.005090814627179172,0.0,-0.002334950369060178,-0.0031162513761231,-0.004123796822942558,-0.0029854770376572517,-0.0007351089988857151,0.0,-0.017798451632241263,-0.00675940763778034,0.0,-0.005590141052789027,-0.012104746668936678,-0.18342768546569369,-0.1804040288485686,-0.46497433517340486
0.0,0.0,0.0,0.0,0.0,0.0,0.0,0.0,0.0,0.0,0.0,0.0,0.0,0.0,0.0,0.0,0.0,0.0,0.0,-0.043341616816364906,-0.0006266974432369635,0.0,-0.09505931413981218,-0.006127591029067246,-0.0002666005415137619,-0.002857386763966748,-0.002212450225548848,-0.0061012148922186624,-0.0018799637695051127,-0.0011496979285402613,0.0,-0.012653913604889279,-0.006013453260219487,0.0,-0.005310566328338164,-0.0097525865701751,-0.2035620693036911,-0.6030839624491827
0.0,0.0,0.0,0.0,0.0,0.0,0.0,0.0,0.0,0.0,0.0,0.0,0.0,0.0,0.0,0.0,0.0,0.0,0.0,-0.09713786378140461,-0.002320209618190158,0.0,-0.22690651760623295,-0.018534505511898735,-0.0039503337631790125,-0.009934747418583393,-0.0024428214779632453,-0.015799182001315193,-0.0024428214779632453,-0.005171716322429989,0.0,-0.04567789030385003,-0.019426148174305446,0.0,-0.022362735097341158,-0.02789130729490307,0.0,-0.16021224585217422,0.0,0.0,-0.20217688504490355,-0.019909727840653705,0.0,0.0,0.0,-0.0320894278967312,0.0,0.0,0.0,-0.025677169460663576,-0.019909727840653705,0.0,-0.013341205304593413,-0.026682410609186826
0.0,-0.048268477627297496,0.0,0.0,-0.0827069467040051,0.0,0.0,0.0,0.0,-0.015159365354606666,0.0,0.0,0.0,-0.009609204003059205,-0.0034011044987536645,0.0,-0.0033462112676925786,-0.004434784126489144,-0.16692609358190383,-0.16692609358190383,-0.4992208843922089
0.0,-0.033149573712742096,0.0,0.0,-0.07940230436001579,-0.0038562078535330974,0.0,-0.002603889679963805,-0.0023528913627590903,-0.007805120756590624,-0.0022535176745879957,-0.002225785734116255,0.0,-0.0159936330551754,-0.007649690174267732,0.0,-0.006198403452856427,-0.01196836475145764,-0.1908848234303291,-0.18645603700577018,-0.44719892560470836
0.0,0.0,0.0,0.0,0.0,0.0,0.0,0.0,0.0,0.0,0.0,0.0,0.0,0.0,0.0,0.0,0.0,0.0,0.0,-0.04246843509926855,-0.0005440385450182561,0.0,-0.0949366478090226,-0.00650444669961881,-0.00023445380138040678,-0.0024897559130118772,-0.0029793924360544044,-0.006927458641296855,-0.0016273892091293947,-0.0010074212335742442,0.0,-0.01256920099402165,-0.009406230232989598,0.0,-0.00464262532879321,-0.009637928772821559,-0.20485523350902501,-0.5991684734483181
0.0,0.0,0.0,0.0,0.0,0.0,0.0,0.0,0.0,0.0,0.0,0.0,0.0,0.0,0.0,0.0,0.0,0.0,0.0,-0.08913795762171449,-0.0018288230729010778,0.0,-0.2221709428380372,-0.017870226546050496,-0.0032179312594197663,-0.007966311181993398,-0.006106706205936739,-0.021169466141746973,-0.0019245522714613514,-0.0042129358376309664,0.0,-0.04465694327294377,-0.03129764539112046,0.0,-0.01780754128411604,-0.030630905022834228,0.0,-0.1480061369057086,0.0,0.0,-0.20125887282710486,-0.036064899899742056,0.0,0.0,0.0,-0.0261403272218373,0.0,0.0,0.0,-0.020916553186228485,-0.036064899899742056,0.0,-0.010515732669181207,-0.021031465338362414
0.0,-0.03550456324150253,0.0,0.0,-0.073883433578899,-0.006568262861782142,0.0,0.0,-0.0023012765086768533,-0.009717087802630026,0.0,0.0,0.0,-0.007323056102341838,-0.006965360347678974,0.0,-0.0017793441390475152,-0.00409565117757355,-0.1481380357601324,-0.1481380357601324,-0.5555852055809353
0.0,-0.03184027409462052,0.0,0.0,-0.07728022278008766,-0.006322696004876488,0.0,-0.0020690329630577396,-0.002927075089583131,-0.008294467707547102,-0.0017804679278404913,-0.001778967864870669,0.0,-0.015246368554692283,-0.012375124009419761,0.0,-0.0049346265365583395,-0.010850641865935548,-0.18795452600293547,-0.18443423939003029,-0.451910489831923
0.0,0.0,0.0,0.0,0.0,0.0,0.0,0.0,0.0,0.0,0.0,0.0,0.0,0.0,0.0,0.0,0.0,0.0,0.0,-0.04152723298295283,-0.00046195984828322135,0.0,-0.09330779674882704,-0.005571286497714354,-0.0010934788875346848,-0.002715477797455677,-0.0025388504677523716,-0.006544894480492319,-0.0013830640094952772,-0.0015915615788643443,0.0,-0.011885943667167345,-0.009587276600696045,0.0,-0.005105878145323408,-0.01101946386889827,-0.20297094193795126,-0.6026940090022628
0.0,0.0,0.0,0.0,0.0,0.0,0.0,0.0,0.0,0.0,0.0,0.0,0.0,0.0,0.0,0.0,0.0,0.0,0.0,-0.08911376982503379,-0.0015646833377487492,0.0,-0.2182922350579857,-0.015363970496728467,-0.0041504327232405646,-0.007516291201892666,-0.005321584604495915,-0.022325310817874932,-0.0016467979674864462,-0.006922402738650082,0.0,-0.041719319125914305,-0.031157917178359897,0.0,-0.01855320513696636,-0.036350949759076066,0.0,-0.1445747172139113,0.0,0.0,-0.19495462257429633,-0.03132568854076439,0.0,0.0,0.0,-0.039829912058678536,0.0,0.0,0.0,-0.017909489256910074,-0.03132568854076439,0.0,-0.008996929192055317,-0.031081822594073636
0.0,-0.032709961686741514,0.0,0.0,-0.07123449868793978,-0.005476071341612137,-0.0009662249236280255,-0.0024148038743697703,-0.0019189405628505327,-0.008024079016519386,0.0,-0.0009662249236280255,0.0,-0.006057392588609488,-0.007238662209720699,0.0,-0.0019422883902266116,-0.01060333093110241,-0.14955247913694839,-0.14955247913694839,-0.5513418551952564
0.0,-0.03141560270483535,0.0,0.0,-0.07576824956346008,-0.0051565325191114215,-0.0014502577232419422,-0.00228822364104332,-0.0023853891704086957,-0.007812407962141246,-0.0014467542194363159,-0.0029053880493482404,0.0,-0.013741032141560064,-0.011717859213958213,0.0,-0.006474146315002754,-0.013794097435734301,-0.1876375844977523,-0.18474815000580894,-0.45125752390317525
0.0,0.0,0.0,0.0,0.0,0.0,0.0,0.0,0.0,0.0,0.0,0.0,0.0,0.0,0.0,0.0,0.0,0.0,0.0,0.03949645584428955,0.0003705659018537407,0.0,0.08802414096695514,0.005883066014776299,0.0023562844371617943,0.0022223453587414546,0.002311554957496864,0.008086739335903955,0.001140288658592214,0.003695244514361776,0.0009531388041227765,0.010520520532641525,0.009545626206273068,0.0,0.0043136894587871765,0.009969226730211288,0.20284052597778593,0.6082704337547608
0.0,0.0,0.0,0.0,0.0,0.0,0.0,0.0,0.0,0.0,0.0,0.0,0.0,0.0,0.0,0.0,0.0,0.0,0.0,0.08695956777706042,0.0014008856261134768,0.0,0.21143026288983713,0.01774328062976169,0.00639702086939381,0.006757369257419175,0.0060889677922012974,0.025445650971664333,0.002775768493179071,0.011564917858962284,0.001313045524273603,0.03895503185882157,0.030806317830776215,0.0,0.016793367737654812,0.03556833607019361,0.0,0.1302937851022844,0.0,0.0,0.1922137482849893,0.04441239901320104,0.0,0.0,0.0,0.03628307250679151,0.0,0.0,0.0,0.016124234719049474,0.02821817088049329,0.0,0.00805509235015249,0.044399288330351
0.0,0.032583691927044384,0.0,0.0,0.06622775425012839,0.005133332293109497,0.002283760246426967,0.001891513820669204,0.0022832169920544414,0.011618245897400077,0.0,0.0036135374631259777,0.0,0.004621829661200678,0.008322212882850736,0.0,0.0015134499675564668,0.008329453723507591,0.14842199912507445,0.15374110799187046,0.5494147728146865
0.0,0.030202956320616304,0.0,0.0,0.07232427063388976,0.005491755923981568,0.0025554908397995737,0.0017784786099158064,0.002317242348919728,0.010085476876243522,0.001069910489567062,0.005766013848130188,0.0008681024927412279,0.011548760859524384,0.011030426559224196,0.0,0.005189453952820124,0.01179343319598361,0.1806205047538311,0.1861039926923447,0.4612535904466974
0.0,0.0,0.0,0.0,0.0,0.0,0.0,0.0,0.0,0.0,0.0,0.0,0.0,0.0,0.0,0.0,0.0,0.0,0.0,-0.03977974449238696,-0.0003490837792703391,0.0,-0.0900218609179729,-0.005380072712604662,-0.0020681052097136455,-0.002785569917543346,-0.0037294614003169735,-0.008201026453727386,-0.0011248640874461317,-0.0032741598759117845,-0.0008324009220836055,-0.009506736371334631,-0.010272362420854168,0.0,-0.0038577745997153356,-0.011709383477762887,-0.20538093755077189,-0.6017255242192565
0.0,0.0,0.0,0.0,0.0,0.0,0.0,0.0,0.0,0.0,0.0,0.0,0.0,0.0,0.0,0.0,0.0,0.0,0.0,-0.08703217057474706,-0.0014083648744685142,0.0,-0.21147592324558748,-0.01775076373822085,-0.006382589285622228,-0.006781150005666319,-0.006099284743304635,-0.025417966653833394,-0.0027906859613213335,-0.011537226982623827,-0.00130765428575696,-0.03892844798237452,-0.030751980839654098,0.0,-0.016771108594649073,-0.03556344827061181,0.0,-0.13052608684996037,0.0,0.0,-0.19208153199936384,-0.044324593856845874,0.0,0.0,0.0,-0.03624853366571027,0.0,0.0,0.0,-0.01611484980532122,-0.02819685766584338,0.0,-0.008098098028193943,-0.04440821416720318
0.0,-0.031205532309712028,0.0,0.0,-0.07134793217141104,-0.0038983574539191847,-0.001729998874568754,-0.0014886707327983076,-0.003551471677996464,-0.009928257751486468,0.0,-0.0027540989557241526,0.0,-0.003706359146921922,-0.008070606420467872,0.0,-0.0011897200509025329,-0.009944629968465544,-0.16274878762824538,-0.1529120358389959,-0.5355228128257471
0.0,-0.030254194196232133,0.0,0.0,-0.07425371730733851,-0.004665299436507895,-0.0021275046138638605,-0.0025105009970951423,-0.003736032445107241,-0.010584441283016879,-0.000990042693460467,-0.00489640580606409,-0.0007373549726554977,-0.009976287658545017,-0.011295062381669397,0.0,-0.004430325138032453,-0.014389388731734764,-0.18858707380406373,-0.1868950588518417,-0.4496704701939668
0.0,0.0,0.0,0.0,0.0,0.0,0.0,0.0,0.0,0.0,0.0,0.0,0.0,0.0,0.0,0.0,0.0,0.0,0.0,-0.03986802364600633,-0.000316700147890074,0.0,-0.09025805973710378,-0.0050236877548641415,-0.0018825986244138731,-0.0025213617740791894,-0.0033679115525275956,-0.009167867185481278,-0.0010183596413779628,-0.0035431102101465195,-0.000757903765852268,-0.009247876426060304,-0.011179640602288156,0.0,-0.003508625080994016,-0.01176335418332972,-0.20714364455954756,-0.5994303975512065
0.0,0.0,0.0,0.0,0.0,0.0,0.0,0.0,0.0,0.0,0.0,0.0,0.0,0.0,0.0,0.0,0.0,0.0,0.0,-0.08615588072567754,-0.0012864078071726417,0.0,-0.20815962061179086,-0.01787779273831232,-0.005832089640815879,-0.006194593725094963,-0.005572107765678217,-0.028205081619463394,-0.0025488230784443287,-0.012202222726366622,-0.0011948836109420761,-0.03888995116391238,-0.03308055494446069,0.0,-0.015324799627409314,-0.037474067081969625,0.0,-0.1336352890373365,0.0,0.0,-0.17550777660476644,-0.040501262284562,0.0,0.0,0.0,-0.03312176054769529,0.0,0.0,0.0,-0.02911183363199714,-0.02576436441627639,0.0,-0.007396844891242692,-0.05495974545363432
0.0,-0.0326101518102652,0.0,0.0,-0.07073668985737987,-0.003546386912261752,-0.001573950100674247,-0.001351905755108496,-0.003206222724771254,-0.011164044101883297,0.0,-0.003860964071031792,0.0,-0.004725671910953913,-0.007840016764421113,0.0,-0.0010804817231034928,-0.010085691011603563,-0.16426719493159297,-0.15550594883859462,-0.5284439807857632
0.0,-0.030717775039716795,0.0,0.0,-0.07468406707198717,-0.0043121541198395475,-0.001968363533364811,-0.0023070443089932176,-0.003430127779311792,-0.011617554773425846,-0.0009114867003816547,-0.005295975499078005,-0.0006815101714311205,-0.010163696622433339,-0.011606741733538916,0.0,-0.00409405709797305,-0.014691937647626812,-0.1890922873420977,-0.18845135851109052,-0.44597306538291903
0.0,0.0,0.0,0.0,0.0,0.0,0.0,0.0,0.0,0.0,0.0,0.0,0.0,0.0,0.0,0.0,0.0,0.0,0.0,-0.0391259134078372,-0.0002892276549569445,0.0,-0.09130649057049244,-0.0045891579776088055,-0.0017193464212141901,-0.002302592549877841,-0.00381193622474111,-0.009539604559730526,-0.0009300020007857777,-0.0034484046451023834,-0.000692182543312585,-0.008451140348560504,-0.012112000413935925,-0.0007148688870885669,-0.003204342412554587,-0.011326271379746766,-0.20894454608468038,-0.5974910923461934
0.0,0.0,0.0,0.0,0.0,0.0,0.0,0.0,0.0,0.0,0.0,0.0,0.0,0.0,0.0,0.0,0.0,0.0,0.0,-0.08613675891112418,-0.0012837465928979184,0.0,-0.2080872550305361,-0.017880564533828042,-0.005820077237103214,-0.006181794532839317,-0.005560604283870959,-0.02826589872762386,-0.002543545410086769,-0.012216733446160453,-0.0011924228520913446,-0.038889110942136734,-0.033131366273257204,0.0,-0.015293239848256148,-0.037515758245704134,0.0,-0.13370313385562627,0.0,0.0,-0.17514612216501008,-0.04041783370691101,0.0,0.0,0.0,-0.03305353151002794,0.0,0.0,0.0,-0.02939543885155798,-0.025711285197784414,0.0,-0.007381542909163038,-0.055189988671435625
0.0,-0.03362605717342898,0.0,0.0,-0.07146032872289591,-0.0030591126431904164,-0.0013576900067764728,-0.0011661382218871308,-0.00369169928307628,-0.013167802694006754,0.0,-0.0033393288220514255,0.0,-0.004085215330569544,-0.01048294533877537,-0.0012993816441531497,-0.0009320114057978152,-0.009537269489686365,-0.167973311815198,-0.1604170876876198,-0.514403896997129
0.0,-0.030487414165048816,0.0,0.0,-0.0749688256280807,-0.003939968757964892,-0.00179848746159425,-0.0021078163696609245,-0.0040961634251489255,-0.013691331366409723,-0.0008327872646808505,-0.005155111421724405,-0.0006226882668134479,-0.00929384530127793,-0.01317633180292368,-0.00107914561640037,-0.003740688733870413,-0.013434769837417473,-0.1899460994766861,-0.19012384898193171,-0.4415038702675705
0.0,0.0,0.0,0.0,0.0,0.0,0.0,0.0,0.0,0.0,0.0,0.0,0.0,0.0,0.0,0.0,0.0,0.0,0.0,-0.03881866162653709,-0.0008721544336404266,0.0,-0.09139488642133618,-0.004253820244783173,-0.0017669863357273677,-0.0021376547067465867,-0.0035462557614910437,-0.01017439492428241,-0.000865748225876951,-0.0035464070833961647,-0.0006399066346636295,-0.007828025644998357,-0.01329182392182308,-0.00066805801766131,-0.0029662768583199046,-0.01161746803755885,-0.2099350614161514,-0.595675460908457
0.0,0.0,0.0,0.0,0.0,0.0,0.0,0.0,0.0,0.0,0.0,0.0,0.0,0.0,0.0,0.0,0.0,0.0,0.0,-0.08613956563822373,-0.001284032889532865,0.0,-0.20808651014082633,-0.017881504678638735,-0.005819546370261787,-0.0061825579532824694,-0.005561032430553096,-0.028266502192645017,-0.002544422339010526,-0.012216622855456072,-0.0011923691784082983,-0.03888715938877343,-0.03312966351056154,0.0,-0.015291034180562343,-0.03751627444747348,0.0,-0.13371345316248265,0.0,0.0,-0.17513074468899914,-0.04041425058576073,0.0,0.0,0.0,-0.03304950747055989,0.0,0.0,0.0,-0.02940091725943881,-0.02570836405205839,0.0,-0.007383189114813985,-0.05519837186009623
0.0,-0.03373983467929659,-0.001520330103865808,0.0,-0.06950270660264653,-0.0026554059700189384,-0.0017516590000206927,-0.0010144488718842669,-0.0032236201957499505,-0.015015440569156808,0.0,-0.002902278062417265,0.0,-0.0035578963057433196,-0.01267420168504861,-0.0011415029791616526,-0.0008107187703286959,-0.010224145742415314,-0.16916466387738366,-0.1625250399958775,-0.5085753186398304
0.0,-0.030561461497466913,-0.0013625360939957289,0.0,-0.07479895036586179,-0.003624696208612648,-0.0016526177791686765,-0.0019449651312538176,-0.0037855450374233257,-0.015329553796608053,-0.0007698785203006953,-0.0051724619587839365,-0.0005729011019241326,-0.008559071846924919,-0.014971916885643036,-0.001002383318849085,-0.0034422848142429273,-0.013379413322087782,-0.1915723506008535,-0.19240421202950495,-0.4350919232359672
0.0,0.0,0.0,0.0,0.0,0.0,0.0,0.0,0.0,0.0,0.0,0.0,0.0,0.0,0.0,0.0,0.0,0.0,0.0,0.038855655089885636,0.0008107192936576536,0.0,0.09085849109950046,0.0038950319449331506,0.0016828962780195392,0.0019048827590408342,0.0031472316140596745,0.01021156790507025,0.0007342088221895131,0.004003506360922775,0.0006127086076937638,0.0072562606745486,0.015088830736845617,0.0006263912126317842,0.0027778585220473006,0.012737530969927536,0.21191436731887026,0.5928817034297351
0.0,0.0,0.0,0.0,0.0,0.0,0.0,0.0,0.0,0.0,0.0,0.0,0.0,0.0,0.0,0.0,0.0,0.0,0.0,0.08608169985058904,0.0012778586627511016,0.0,0.20807138872350645,0.017865720006428783,0.005824360332928563,0.006163861479474937,0.005548853599644327,0.02827944539013981,0.0025266356461258093,0.012224270205157678,0.001192368003900246,0.03892178347682987,0.03318003277715875,0.0,0.015318219286176068,0.03752329432166714,0.0,0.13355488297736362,0.0,0.0,0.17526482823592635,0.04044582271803075,0.0,0.0,0.0,0.03309493438285486,0.0,0.0,0.0,0.029413597567068895,0.025739950669927694,0.0,0.007347687310818841,0.055138087900487506
0.0,0.033081824462363324,0.0012579834905345226,0.0,0.0694410640711247,0.002351484450473973,0.0015695159309910716,0.0008666380827797906,0.0026756687823863514,0.013522274999074617,0.0,0.003417046356873039,0.0,0.002981874059352103,0.013526069834250032,0.0009497488423930599,0.0006934266726112216,0.011127812724679513,0.16461647535382043,0.1647625911586784,0.5131583733801909
0.0,0.03181845457035434,0.00122287568056041,0.0,0.07393004741611363,0.003301150375785573,0.0015353924841799967,0.0016813299434643432,0.0033023992863887744,0.01477214799645425,0.0006434077827056256,0.0058609277720449125,0.0005211475631759545,0.007658043011466894,0.017830571691317472,0.0008993852781574035,0.0031207399880529285,0.015196367477441795,0.1923224933752789,0.19697691671231657,0.42740605359501926
0.0,0.0,0.0,0.0,0.0,0.0,0.0,0.0,0.0,0.0,0.0,0.0,0.0,0.0,0.0,0.0,0.0,0.0,0.0,-0.03794170101045231,-0.0009937044798206268,0.0,-0.08937258750224726,-0.004084056156689559,-0.0014858475744126964,-0.0017784269110013248,-0.002948641707332695,-0.012433587343333047,-0.0007152734621182601,-0.004886388931371146,-0.0005380576896781284,-0.006804085569589426,-0.015775516898125782,-0.0005599987140002101,-0.002720706582442442,-0.01214888146323845,-0.2137655365625602,-0.5910462122297229
0.0,0.0,0.0,0.0,0.0,0.0,0.0,0.0,0.0,0.0,0.0,0.0,0.0,0.0,0.0,0.0,0.0,0.0,0.0,-0.08613188316793863,-0.0012832123121132417,0.0,-0.20808448587505146,-0.017879412239413583,-0.005820180308594613,-0.006180071152850844,-0.005559411219834978,-0.028268249615230823,-0.0025420594151480415,-0.01221764529946726,-0.0011923679998478486,-0.03889175734837591,-0.033136374131434054,0.0,-0.015294629193413924,-0.037517227750135156,0.0,-0.13369244752858928,0.0,0.0,-0.17514839054866632,-0.04041840630738485,0.0,0.0,0.0,-0.03305550837748761,0.0,0.0,0.0,-0.02940273044388702,-0.02571253430926138,0.0,-0.0073784707946511355,-0.055190478718922784
0.0,-0.03267526676874669,-0.002452438215811001,0.0,-0.0670464914796085,-0.0029415050694247104,-0.0013745793258141366,-0.0007882417779174616,-0.002494047649811159,-0.015004878822697373,0.0,-0.00494964348933944,0.0,-0.0030892265212766937,-0.013905305736827862,-0.0008835131079599254,-0.0006300555162323338,-0.010958377453510287,-0.1663967329061838,-0.16932739044784895,-0.5050816572051963
0.0,-0.0305331752830308,-0.0021581321713760493,0.0,-0.07209141598497548,-0.0039993967403345425,-0.0013526176643569368,-0.0015751116696278834,-0.0030697427962848405,-0.01715384595907248,-0.0006205253453132214,-0.006829285925396863,-0.0004674177086728381,-0.007090610405280977,-0.018618236769388927,-0.0008162186994943568,-0.0030561022848590606,-0.014194942290190457,-0.19222201164489158,-0.20032829117033543,-0.42382218115909776
0.0,0.0,0.0,0.0,0.0,0.0,0.0,0.0,0.0,0.0,0.0,0.0,0.0,0.0,0.0,0.0,0.0,0.0,0.0,-0.03740031213131443,-0.0009273185573383414,0.0,-0.08961152341244512,-0.0038135405101977164,-0.0014509541631873143,-0.0016646985034152188,-0.0031040854220289044,-0.013611017512852644,-0.0006723342351692589,-0.005687929446644805,-0.001109832554660304,-0.006347018358907289,-0.014855670705740847,-0.0005218553262435889,-0.0025359024584119907,-0.011466399484768564,-0.21362013707656993,-0.5915985885372448
0.0,0.0,0.0,0.0,0.0,0.0,0.0,0.0,0.0,0.0,0.0,0.0,0.0,0.0,0.0,0.0,0.0,0.0,0.0,-0.08613623492485557,-0.0012836768593976063,0.0,-0.2080856147072141,-0.017880599802377817,-0.005819817342336122,-0.006181477613505313,-0.005560327212446919,-0.028267276996369908,-0.0025433978111312934,-0.012217069931892336,-0.0011923679546029188,-0.038889150201613605,-0.03313258416553374,0.0,-0.015292581443276188,-0.0375166999009674,0.0,-0.13370438057694417,0.0,0.0,-0.17513827936317491,-0.0404160255592304,0.0,0.0,0.0,-0.03305208570066503,0.0,0.0,0.0,-0.029401786354382085,-0.025710154119127755,0.0,-0.0073811419415362334,-0.055195023252460264
0.0,-0.0322753435330709,-0.0023850495525126443,0.0,-0.06834171825632107,-0.002850738972437365,-0.0013279519874512642,-0.0007646780532269187,-0.0024258069797965854,-0.01538579790289532,0.0,-0.005611012699980235,0.0,-0.003001287832500981,-0.013509820689578813,-0.0008591586023629844,-0.0006111533336432456,-0.010657746535886454,-0.16706788514926338,-0.1698383201283616,-0.5030857985780774
0.0,-0.029647787785988824,-0.002006036935537896,0.0,-0.07312547531067415,-0.003717507232383482,-0.001254663201657341,-0.0014703737093845314,-0.003292791528965666,-0.018374023699462384,-0.0005809223743773449,-0.007114945565262411,-0.0009736098053485793,-0.0065990694719709,-0.017603995487242376,-0.0007594829330415977,-0.0028407908482782785,-0.013331549807925175,-0.19072955510604567,-0.19979967708768318,-0.42677691993390354
0.0,0.0,0.0,0.0,0.0,0.0,0.0,0.0,0.0,0.0,0.0,0.0,0.0,0.0,0.0,0.0,0.0,0.0,0.0,0.03155533659254118,0.0007480754682913303,0.0,0.08887600978282345,0.003091015507167188,0.0014125036177641294,0.0018084325008947998,0.0030891769251853393,0.017477870455874876,0.0009711865049181476,0.00606922256373585,0.0009483380298288015,0.007854762388093746,0.01770643454141747,0.000437349582562414,0.002104911681477417,0.015353565161581163,0.2205373182633169,0.579958293035092
0.0,0.0,0.0,0.0,0.0,0.0,0.0,0.0,0.0,0.0,0.0,0.0,0.0,0.0,0.0,0.0,0.0,0.0,0.0,0.05600689084892188,0.0007006000293701282,0.0,0.20121257802814177,0.00979622058307238,0.004374783902009399,0.006083712456550882,0.005927063163261585,0.05021493770131639,0.0031417625185850887,0.013660462866382879,0.0006538222552183918,0.03897803701911487,0.04842103788328027,0.0,0.008400023021953409,0.0524278164420556,0.0,0.09608792946135405,0.0,0.0,0.20365860298914404,0.022178547442722525,0.008061563631095099,0.0,0.0,0.041668194383874695,0.0,0.006049237488919094,0.0,0.034272431520120605,0.034272545978858086,0.0,0.004028450168878222,0.049722245654268485
0.0,0.026415576055209614,0.0018317049707919939,0.0,0.06599416668872977,0.0023122928096659294,0.001427776959578222,0.0024844885433838535,0.0034242627083280407,0.01889812031435143,0.001589945782588356,0.00841315268009152,0.0,0.004002471820760652,0.014365674559119997,0.0006854153436084187,0.0005008603720226208,0.011857923083001409,0.16935115201769285,0.17730300393852227,0.48914184842918335
0.0,0.02405440974552653,0.0015336980549079682,0.0,0.07106082733178724,0.002898539263853399,0.0013409634391612192,0.0020542544357591455,0.003022957497337317,0.022315719837502718,0.0016435453743282365,0.008871897924552391,0.0007798367172232234,0.008472084355612464,0.020064069404395674,0.0005980230288639126,0.002246655607038258,0.015649561753909347,0.194336095579859,0.20606552801418337,0.41299114768750667
0.0,0.0,0.0,0.0,0.0,0.0,0.0,0.0,0.0,0.0,0.0,0.0,0.0,0.0,0.0,0.0,0.0,0.0,0.0,-0.02952346787353832,-0.000652930263326486,-0.0009871489203653375,-0.08408400129640481,-0.0026863902806451984,-0.004592312111208436,-0.0018449186564402334,-0.002701245544580897,-0.016965576343271577,-0.001205371696856828,-0.006416289358155061,-0.0007896185389465994,-0.006701254294605178,-0.016552255070951795,-0.000559528355680255,-0.0017905534280997842,-0.013171356081824997,-0.21587079051810087,-0.5929042342596931
0.0,0.0,0.0,0.0,0.0,0.0,0.0,0.0,0.0,0.0,0.0,0.0,0.0,0.0,0.0,0.0,0.0,0.0,0.0,-0.056038518416888686,-0.0007038814589382667,0.0,-0.20120320256424393,-0.009808065364593901,-0.0043747562628226825,-0.0060919401969350495,-0.005931489552417557,-0.050208150736288024,-0.003149103470626145,-0.013653554803005808,-0.0006541042474629125,-0.03896515717551197,-0.04839439599900392,0.0,-0.008390518280783953,-0.052432180844532855,0.0,-0.09615806289632503,0.0,0.0,-0.20351115215820545,-0.022172856086415983,-0.008076178980549112,0.0,0.0,-0.04166045699819973,0.0,-0.006044998882171771,0.0,-0.034281037470021224,-0.03428058604131953,0.0,-0.00404731838889503,-0.04976637147195273
0.0,-0.02297849773375344,-0.0015546897778972062,-0.0010596843443588812,-0.05866508523977129,-0.0018681556534438305,-0.005333206561975409,-0.0025913380523960284,-0.002819896379859597,-0.01672883826182065,-0.0016270388422983974,-0.0077946809798966074,0.0,-0.0032649934560107885,-0.012293118977832966,-0.0010006453294946246,-0.00040092157802024516,-0.009715144243334221,-0.1591539757218616,-0.16923230050016125,-0.5219171930371527
0.0,-0.022576336456348437,-0.001354682678081382,-0.001142137074816212,-0.06654755662854185,-0.0025152253720164062,-0.004406877475335303,-0.0020722760983360776,-0.0026451207145725374,-0.021713741445715643,-0.001875047118743604,-0.009094702762852845,-0.0006634196522868186,-0.007291646462498223,-0.018534538921144646,-0.0006913358657003243,-0.0019247383254282608,-0.01357143773386612,-0.188296672160771,-0.20093302273302666,-0.43214877915387273
0.0,0.0,0.0,0.0,0.0,0.0,0.0,0.0,0.0,0.0,0.0,0.0,0.0,0.0,0.0,0.0,0.0,0.0,0.0,-0.029598072175408666,-0.0006320647551158256,-0.0009602276749536578,-0.08445191099183519,-0.0025999848634600795,-0.004458379715172742,-0.0017872669628524781,-0.002615162266681014,-0.01773028400871316,-0.00116916821200153,-0.006211454682751047,-0.0007625370074400749,-0.007086358397923844,-0.016722173825637687,-0.0005420034191468324,-0.001731071231736127,-0.013265812167332611,-0.2161941901340961,-0.5914810675037623
0.0,0.0,0.0,0.0,0.0,0.0,0.0,0.0,0.0,0.0,0.0,0.0,0.0,0.0,0.0,0.0,0.0,0.0,0.0,-0.056116516387160593,-0.000634180978008164,0.0,-0.19990216203891628,-0.008835346881250244,-0.003940654013745359,-0.005487808217641922,-0.00534311123622122,-0.05548635208292629,-0.002836946013025998,-0.012298426785437815,-0.0005892108189396258,-0.040228423446777344,-0.048889343867201736,0.0,-0.007557519553612662,-0.0518529582934537,0.0,-0.09902307011111892,0.0,0.0,-0.21520301739316472,-0.01997242311697854,-0.0072754354572710294,0.0,0.0,-0.04284434734274619,0.0,-0.005444975106063758,0.0,-0.030879757002765608,-0.03087932543360889,0.0,-0.00364654062354694,-0.04483006902705423
0.0,-0.023115928767144397,-0.0015137280590036856,-0.0010354723747000086,-0.058868809460655834,-0.0018144186362726604,-0.0052101649895800765,-0.0025216029297125864,-0.002741463270225645,-0.017140059641228597,-0.00158252277164772,-0.00758102039847313,0.0,-0.003854160267795634,-0.011949203208747653,-0.0009744434253873633,-0.00038920151348855164,-0.010027088836540417,-0.15956621688644015,-0.1693660201125034,-0.5207478385714847
0.0,-0.022977115960520496,-0.0013163522983475266,-0.0011122700147633677,-0.06657694610346816,-0.0024418964680497277,-0.004289109064130676,-0.002013397067129368,-0.0025690771609446265,-0.022523266430892648,-0.0018224515763282647,-0.008831916472708166,-0.0006434285564931842,-0.007938103920314297,-0.018497330173728028,-0.0006714737644501222,-0.0018674113300765458,-0.013786124773196268,-0.18929061348377776,-0.20155271076677364,-0.4292782496678179
0.0,0.0,0.0,0.0,0.0,0.0,0.0,0.0,0.0,0.0,0.0,0.0,0.0,0.0,0.0,0.0,0.0,0.0,0.0,0.0297523814986784,0.0005975667030411586,0.000827869094769214,0.08527305765504913,0.002468725158285478,0.0039826516359845335,0.0016658180948990883,0.002681024771757766,0.017928780053412623,0.0010621481143728631,0.006560896991780192,0.000756228735789186,0.007383286776794113,0.016811676896047352,0.0005077288931433679,0.0016798127184187042,0.013999906906347767,0.21843591727092143,0.587624366885349
0.0,0.0,0.0,0.0,0.0,0.0,0.0,0.0,0.0,0.0,0.0,0.0,0.0,0.0,0.0,0.0,0.0,0.0,0.0,0.05636575005494126,0.0005949669495643131,0.0,0.1986459210552235,0.008318176791879347,0.003714561859387576,0.005165833670658281,0.005826007594731931,0.05558818755597163,0.002667842110914544,0.01384053160540989,0.0005551590227288096,0.0391744520450691,0.04959705029221549,0.0,0.007132048600024022,0.052813307398247376,0.0,0.09873326441674966,0.0,0.0,0.21062576087215434,0.018831299416419547,0.006845387100507946,0.0,0.0,0.04051684533418746,0.0,0.010292612980783433,0.0,0.02910045753122088,0.039413386635763305,0.0,0.003421059959994783,0.04221972235918547
0.0,0.023836699231620274,0.0013942963987678466,0.000883512957564112,0.06058541138751608,0.0017568475452266479,0.004467966067071796,0.002350329779049948,0.0026035556908796287,0.017454573851709208,0.001488895812394112,0.008067377672861357,0.0,0.004152371756840584,0.011766721864833058,0.0008944852846306474,0.00038041721251767287,0.009679332041562062,0.15955851730632478,0.1721745435286864,0.5165040229513311
0.0,0.02387524488177913,0.0012263801905701725,0.0009895634988657722,0.06692016154445246,0.0023161860069705513,0.003864004293922615,0.0018804429615018566,0.0026238289100809897,0.022641135064176247,0.0016891509532347938,0.009340878502292966,0.0006226990928213212,0.007988574832397021,0.018747271276811524,0.0006313144701618859,0.0017944178766160029,0.014215735816808786,0.18992945498067515,0.20409886390724835,0.42460454573478634
0.0,0.0,0.0,0.0,0.0,0.0,0.0,0.0,0.0,0.0,0.0,0.0,0.0,0.0,0.0,0.0,0.0,0.0,0.0,-0.029744428288902308,-0.0005739282926208421,-0.0008712522219711995,-0.08528013152866726,-0.002360929443195639,-0.004046395349989696,-0.001622680173276808,-0.0029318566906794134,-0.017582199092740277,-0.0010612743257457564,-0.006857601808470237,-0.0006926906538123381,-0.007223790200440375,-0.01712763426171096,-0.0004921128751262423,-0.0015722055625887533,-0.014711507160354045,-0.22061512952602638,-0.5846314376525774
0.0,0.0,0.0,0.0,0.0,0.0,0.0,0.0,0.0,0.0,0.0,0.0,0.0,0.0,0.0,0.0,0.0,0.0,0.0,-0.05653717159691648,-0.0005660916495352635,0.0,-0.1975625698265855,-0.007886575568444047,-0.0035174677263140807,-0.004898511693051789,-0.0067937635503634375,-0.05515428040720058,-0.0025323210024920805,-0.014366779588355257,-0.0005259368811580108,-0.03834711108681207,-0.0507460071354526,0.0,-0.006745874626321025,-0.053818478592693834,0.0,-0.09686054952997702,0.0,0.0,-0.20925747544901332,-0.017827561552435922,-0.006494195656472191,0.0,0.0,-0.04724974644643252,0.0,-0.00972799024721642,0.0,-0.027563625218318902,-0.04174678906107126,0.0,-0.0032550269848277626,-0.040015980785930445
0.0,-0.024589413018937734,-0.001324376048157438,-0.0009052721131919368,-0.05882963035453239,-0.0015882732795753206,-0.004555253751313082,-0.002206441198391352,-0.0031240852314870166,-0.016971109353214168,-0.001384864481414211,-0.00856185290888418,0.0,-0.004326868840192482,-0.012079749998765307,-0.0008525209800594497,-0.00034072640435230063,-0.010566459552444786,-0.16029021500635945,-0.17703382505866594,-0.5104684257563273
0.0,-0.023903874197394176,-0.0011764261367932303,-0.000993636596493239,-0.06635870753005388,-0.0021826804717142304,-0.0038320505246600073,-0.0017994161746803094,-0.002795778245368512,-0.02219837678267505,-0.001628652839026128,-0.009579405098351295,-0.000575232762080666,-0.00783832031073887,-0.019430933064234313,-0.0006001464214678395,-0.0016693777010560887,-0.015447507306516957,-0.19042110519707553,-0.20636065639857926,-0.4212069580864321
0.0,0.0,0.0,0.0,0.0,0.0,0.0,0.0,0.0,0.0,0.0,0.0,0.0,0.0,0.0,0.0,0.0,0.0,0.0,0.029869452212942182,0.0006592938056460257,0.0007773143639253799,0.0855084847950625,0.0022608416186396473,0.0037203401097594432,0.0019109651200839605,0.0027781559333241246,0.018458967129278275,0.0009724762466371,0.006785139851498368,0.0006927045176215453,0.0070308806473217255,0.017230912662292007,0.00046494127206145596,0.0015385354656587056,0.014492617537169942,0.2208268389547675,0.5840209764685265
0.0,0.0,0.0,0.0,0.0,0.0,0.0,0.0,0.0,0.0,0.0,0.0,0.0,0.0,0.0,0.0,0.0,0.0,0.0,0.056505734645185254,0.0005642352668526811,0.0,0.19760123310976438,0.007888664833596534,0.0035227817842162106,0.004899090336587729,0.006759545073698024,0.05518030556219662,0.002530072081541887,0.014354520247812476,0.0005264953567276212,0.03838459048600833,0.05073521004751482,0.0,0.006763866434034865,0.053783444724143856,0.0,0.09685381508592815,0.0,0.0,0.2094423966031347,0.017859077011847573,0.00649190243279031,0.0,0.0,0.04707030187233587,0.0,0.00974044508212493,0.0,0.027597984935800797,0.0416597538744916,0.0,0.003244352784402923,0.04003976030702442
0.0,0.025024170251869496,0.0015503698999564447,0.0008156304326574514,0.05955195711554906,0.0016229775917065792,0.0041248005158625615,0.0021708081843316127,0.003082678672911049,0.01731015545284593,0.0013752394682844105,0.008492557394680746,0.0,0.00435414450243471,0.012345738447693076,0.0008260959658862767,0.00035144657148616205,0.01113928218240483,0.1613343080824771,0.17781887481939096,0.50670863676223
0.0,0.0240186488162191,0.0013142613953112208,0.0008961557899134088,0.06710420438988775,0.002098284068906336,0.0035626780460913557,0.00201697126144093,0.0026556576835478803,0.022919921863929753,0.001530051167103184,0.009456719253677437,0.0005641758851191001,0.007578038381309442,0.019095325405595272,0.0005718950992322171,0.0016257129925627775,0.015044137509337327,0.19012246445832207,0.20637475998883764,0.4214497859621959
0.0,0.0,0.0,0.0,0.0,0.0,0.0,0.0,0.0,0.0,0.0,0.0,0.0,0.0,0.0,0.0,0.0,0.0,0.0,0.03007670295125448,0.0006368193168452604,0.0007516882677352655,0.08597593091247374,0.0021843865129784505,0.003596474528930415,0.0018458757928174893,0.0026844535099422233,0.018949772831472353,0.0009399880990120125,0.006555573533897043,0.0006690122202934481,0.006792069444062361,0.017937012548108585,0.0004492756540746783,0.0014862068822649043,0.014784814878848711,0.22112352521444356,0.582560262727948
0.0,0.0,0.0,0.0,0.0,0.0,0.0,0.0,0.0,0.0,0.0,0.0,0.0,0.0,0.0,0.0,0.0,0.0,0.0,0.05650608569841185,0.0005642621795787964,0.0,0.1976009538738801,0.007888709911685486,0.0035227501743381093,0.004899126820958941,0.006759798589874856,0.05518006652313839,0.002530121012178132,0.014354582575385882,0.0005264934164886032,0.038384277188548366,0.05073515580733608,0.0,0.006763713758930979,0.053783703981170224,0.0,0.09685420251136595,0.0,0.0,0.20944041312396,0.017858862728223637,0.006491986917420391,0.0,0.0,0.04707136391095694,0.0,0.009740387654199661,0.0,0.027597823173844495,0.04166042045203508,0.0,0.003244507532578081,0.04003983350732068
0.0,0.026185934702010295,0.0014323914320834245,0.0007543115486620792,0.06014183601709546,0.001499191785458616,0.003814508924310303,0.0020059207859794035,0.0028484189361879715,0.01875718322674219,0.0012706732215203918,0.007846857166710134,0.0,0.004022572034453291,0.012928013316143504,0.00076345536678256,0.0003246148225495536,0.011795577193835895,0.16304750242723104,0.17827962302973716,0.5022812908615963
0.0,0.02455715061885738,0.0012558365026126654,0.000856926909140151,0.06711190320303563,0.0020052042615967243,0.0034061548306265127,0.001927235330519086,0.0025381205975638366,0.02435161485815616,0.0014624945850158786,0.009037271996421242,0.0005390497179918041,0.007241476486994627,0.019694525156507103,0.0005465706683506036,0.0015534109345877371,0.015952008423335256,0.1917510067299743,0.20728069425630868,0.4169311992730784
0.0,0.0,0.0,0.0,0.0,0.0,0.0,0.0,0.0,0.0,0.0,0.0,0.0,0.0,0.0,0.0,0.0,0.0,0.0,0.02973977382466789,0.0005752556742167739,0.0006767881883069022,0.08637269881778321,0.0019731952599244154,0.003242119187819768,0.0030601691063955046,0.0026839883758254116,0.019261307222822526,0.0008478262746441873,0.006304590744915703,0.0006051902531173853,0.006659722531433602,0.0199178075393689,0.00040565410475466987,0.0013434821315568733,0.01668736040986884,0.22387294256445284,0.5757699365405395
0.0,0.0,0.0,0.0,0.0,0.0,0.0,0.0,0.0,0.0,0.0,0.0,0.0,0.0,0.0,0.0,0.0,0.0,0.0,0.054961103667627575,0.00046277858893172647,0.0,0.1942772202788418,0.006470677068290112,0.0028896388962849277,0.011148186926513936,0.007171743354559059,0.05305421687677892,0.002075240068299389,0.014518660593371683,0.0004318651880743518,0.03366325203797435,0.05557488141899092,0.0,0.005548346892230502,0.0577519476400602,0.0,0.08869690047982096,0.0,0.0,0.19866884789857855,0.014649379656481422,0.005324911998904992,0.009252353548948463,0.0,0.05314758218138265,0.0,0.00798976423158359,0.0,0.022637723230667168,0.04738804752914739,0.0,0.0026609768863574373,0.049583271854956736
0.0,0.027815811151883082,0.0011760989246030746,0.0006175512720466919,0.06013554275655383,0.0012327952085422404,0.0031235016923885943,0.002682778302195249,0.002684666302232697,0.01854235319958037,0.0010438899743573933,0.0068280633170117785,0.0,0.004452848906525415,0.016174058257242697,0.0006266727563232057,0.00026701442630570486,0.013177879212168125,0.17244085675947457,0.18081706387338095,0.4861603998815763
0.0,0.025772745588792115,0.0010628281292034308,0.000723996837509536,0.0660292701445698,0.0016978991245862312,0.0028792419508157532,0.0033125421928297447,0.002448622037835539,0.024303636831553708,0.0012373948992355215,0.008082162625895062,0.0004567418566146864,0.0067581939525611975,0.022558693499677755,0.00046266971286608227,0.001315911586717873,0.01771867540288158,0.20182693350926983,0.20948477238684915,0.4018668892088435
0.0,0.0,0.0,0.0,0.0,0.0,0.0,0.0,0.0,0.0,0.0,0.0,0.0,0.0,0.0,0.0,0.0,0.0,0.0,-0.027428796721679256,-0.0004422699280064082,-0.0012457410169750916,-0.08438928670070647,-0.0015353142409968456,-0.004661255986166926,-0.0038764117237752686,-0.003320644006555695,-0.018995684332444345,-0.0010711461758036679,-0.007819171946194971,-0.00018784294196582343,-0.004352035358552174,-0.022585853278293197,-0.0003731801602812567,-0.0007235830743844312,-0.017012409998476388,-0.23199440721116904,-0.5679730420279722
0.0,0.0,0.0,0.0,0.0,0.0,0.0,0.0,0.0,0.0,0.0,0.0,0.0,0.0,0.0,0.0,0.0,0.0,0.0,-0.05509254069603175,-0.00047987943177463536,0.0,-0.19371422582973552,-0.006389051278118115,-0.002803084671876298,-0.011900103079750597,-0.007387364669443739,-0.05261420414915752,-0.0020824433299895715,-0.014534018876891017,-0.00042162519811179153,-0.03288343838857355,-0.05599002804695973,0.0,-0.005293086669904914,-0.058397427002150594,0.0,-0.0882397282412779,0.0,0.0,-0.1959498208837488,-0.014158259882821697,-0.005303627692788305,-0.010188769833178034,0.0,-0.05427701713362198,0.0,-0.007781297977868485,0.0,-0.02204280254216537,-0.048426519212648934,0.0,-0.002759306732704152,-0.05085537118564564
0.0,-0.02639133720701428,-0.0009085640768632397,-0.0009240782853032734,-0.058635683755602255,-0.0004919931124932104,-0.004528613729105957,-0.002366451976262704,-0.002539235366787652,-0.015921363928471478,-0.0006635987705045593,-0.010062941767173763,0.0,-0.0029309372801990204,-0.017349140574707354,-0.0005290973108195693,-8.627983175124803e-05,-0.01229232710114076,-0.1725780164572457,-0.18022596906169783,-0.4905663146996928
0.0,-0.024317338848644534,-0.0008979378867251871,-0.0009707817723586466,-0.06397731077421011,-0.0011798198390478413,-0.003432480798129756,-0.003773105428138405,-0.0031312824371776174,-0.02325445148244994,-0.0011419622908989309,-0.00949121711338993,-0.00022880033144583763,-0.004613580392541992,-0.02540340417934947,-0.0003614531616335445,-0.0007490073227697811,-0.018433704488487752,-0.2053138291764345,-0.21285181311671666,-0.39646639231408676
0.0,0.0,0.0,0.0,0.0,0.0,0.0,0.0,0.0,0.0,0.0,0.0,0.0,0.0,0.0,0.0,0.0,0.0,0.0,0.02926348868279641,0.000509029495069071,0.0005994416567564883,0.08762303237423955,0.0017521997144373874,0.002870570667201635,0.0030214577407328964,0.002869470577729283,0.01949959322590014,0.0007505491160470089,0.007246094514329834,0.0007179439947201612,0.005893398895532953,0.021433577955539983,0.0003590013163059165,0.001188571623242955,0.017245447134430804,0.2301348809677264,0.56702208649012
0.0,0.0,0.0,0.0,0.0,0.0,0.0,0.0,0.0,0.0,0.0,0.0,0.0,0.0,0.0,0.0,0.0,0.0,0.0,0.0549534567026355,0.0004622601425903651,0.0,0.1942623806595453,0.0064640433827003,0.002886772586711442,0.011176673860106727,0.007173305015944836,0.05304487724523727,0.0020730485035622133,0.014519417005307313,0.0004314316374397703,0.033642134401042245,0.05559726252298749,0.0,0.0055430142247354115,0.05776971761719114,0.0,0.08865871664584134,0.0,0.0,0.19862245634362125,0.014634948932179292,0.005319364902958884,0.009294868103595083,0.0,0.053174522841439434,0.0,0.007981779777400234,0.0,0.02261510873502396,0.047413492431662915,0.0,0.002657995819894583,0.04962654097412022
0.0,0.02804180824686769,0.0009541984075168734,0.0005017392514058117,0.06240724632805225,0.0009994719619293275,0.002537509172263436,0.0022317090034057545,0.002622228296099,0.017245767261824647,0.0008467088820373837,0.009947113441243972,0.00017173990479265154,0.003613645285450138,0.01726101214772118,0.0005085061326962778,0.00021644635203158365,0.013112762294624285,0.172861825687922,0.1830246325536329,0.48089379721567693
0.0,0.025448322483586153,0.000900785429880307,0.0006139948048931235,0.06615475637696641,0.0014387608316889157,0.0024413235372870708,0.0032342892223173937,0.002794384640642763,0.023706437832857113,0.0010488395853687216,0.009526099606720862,0.0006951763163725903,0.005727769492437442,0.024306979299758412,0.0003920981337976073,0.0011148977872632306,0.01865833671327075,0.2022125218656718,0.21380020568787828,0.3957838682238939
0.0,0.0,0.0,0.0,0.0,0.0,0.0,0.0,0.0,0.0,0.0,0.0,0.0,0.0,0.0,0.0,0.0,0.0,0.0,-0.029137558282642986,-0.00048442331511084496,-0.0006316484963787842,-0.08759439282264682,-0.0016685208529281601,-0.002993739998616058,-0.00297751557440008,-0.0027950901233139472,-0.019558419152343062,-0.0007496346391547571,-0.0075143663467994205,-0.0006559948488198027,-0.005543647691635867,-0.021875705629713825,-0.00034681797569769877,-0.001105027963701438,-0.016961060909611192,-0.23185220647609933,-0.5655533147377514
0.0,0.0,0.0,0.0,0.0,0.0,0.0,0.0,0.0,0.0,0.0,0.0,0.0,0.0,0.0,0.0,0.0,0.0,0.0,-0.05496487517985135,-0.00046368898363266075,0.0,-0.19421893236115226,-0.006458203501515611,-0.0028801315399693424,-0.011234015129526603,-0.007190457390528538,-0.05301059157634142,-0.002073862723738083,-0.014520582200386106,-0.0004306561181530048,-0.033581805793079525,-0.05562825486835126,0.0,-0.005523093036821782,-0.05781969829381435,0.0,-0.08862616469146607,0.0,0.0,-0.1984092675579085,-0.014597069498872257,-0.005318252959515028,-0.009365523801511061,0.0,-0.053262378261912935,0.0,-0.007965901118742416,0.0,-0.022569775781917052,-0.04749419880998151,0.0,-0.002666211655887787,-0.04972410455914723
0.0,-0.02799265528566991,-0.00089278556953243,-0.0005124666635509422,-0.06184510335812672,-0.0008908393851662221,-0.0027585227213713617,-0.002110832536221108,-0.002453356960906049,-0.017521873504804893,-0.0007784681442150542,-0.01041299833336478,-0.00014964611203551468,-0.0033319071838272705,-0.01757629919900553,-0.00048010700119617116,-0.0001909674266401238,-0.012438974072678093,-0.17201237820352402,-0.18396641852814075,-0.48168267530554715
0.0,-0.025870623746770943,-0.0008619132480923283,-0.0006193418518331458,-0.06506955514533487,-0.0013540913841682764,-0.002604635142176362,-0.0031389177941001777,-0.0026968359829880515,-0.02470670659330695,-0.0010121388527787344,-0.01013583791326231,-0.0006408757003743055,-0.0053832875430309055,-0.02475402959799624,-0.0003725674336459475,-0.0010346197613047621,-0.01811659828405304,-0.20229543733364105,-0.21631720478945976,-0.39301393621493924
0.0,0.0,0.0,0.0,0.0,0.0,0.0,0.0,0.0,0.0,0.0,0.0,0.0,0.0,0.0,0.0,0.0,0.0,0.0,0.02924700736765776,0.0004766437127185444,0.0006759681368474376,0.0874537305648795,0.001809163826000799,0.0029133471217236595,0.0028306066772496447,0.0028414460291824473,0.019449183703866935,0.000703253820944438,0.007454763984070841,0.0006717407116390568,0.005517608241171008,0.0216597011485223,0.0003362274711890941,0.0011126147854433662,0.016793037408845208,0.23031442531294333,0.5677393627922809
0.0,0.0,0.0,0.0,0.0,0.0,0.0,0.0,0.0,0.0,0.0,0.0,0.0,0.0,0.0,0.0,0.0,0.0,0.0,0.0549539381516714,0.00046232052295488296,0.0,0.1942605183010409,0.006463785457769412,0.0028864852315039387,0.011179162552030077,0.007174040395460005,0.053043403728871105,0.0020730804974470577,0.014519468823780439,0.0004313979552492338,0.03363953112743856,0.055598620495618985,0.0,0.00554215640026985,0.057771880777814665,0.0,0.08865728105092308,0.0,0.0,0.19861330038918323,0.014633312347349537,0.005319310339439838,0.009297944280340713,0.0,0.05317831604534758,0.0,0.00798109127485957,0.0,0.022613143317200414,0.047416977804162874,0.0,0.002658343006990584,0.04963077056312313
0.0,0.028120413067745143,0.000876355491435028,0.0005776406524667714,0.06127471218332853,0.0015307836442328394,0.0026942643141253985,0.002049825778331158,0.002458256714917263,0.017496057404100897,0.000777531186242533,0.010245872443812417,0.00015758661901190882,0.0033184756385491523,0.017326978545501227,0.0004670551750246614,0.00019870166461326052,0.012718494126546066,0.17114953953695358,0.18356648795931774,0.4829948331653498
0.0,0.025809691184103225,0.0008419907172843,0.0006917685350909268,0.06493916136989722,0.0017240300706270798,0.0025892263980125136,0.0030237367527650542,0.0027831059969118488,0.024739206646670685,0.0009804739445989049,0.010035985125279177,0.0006492673235983237,0.00535286227991196,0.024593098284115274,0.0003664774464104918,0.0010417797601693544,0.017926989086718782,0.20118955563304336,0.21559262145436558,0.3951288161775558
0.0,0.0,0.0,0.0,0.0,0.0,0.0,0.0,0.0,0.0,0.0,0.0,0.0,0.0,0.0,0.0,0.0,0.0,0.0,0.02961585226902637,0.00046389791162868065,0.0006580289344435614,0.08779229035390222,0.001760482083566408,0.0028362200164615313,0.0027554892335764805,0.0030021496641639963,0.019199293365354326,0.0006846475944469448,0.00760698028397398,0.0006536253679680768,0.005369697827946948,0.021756608721379727,0.0003272656396450123,0.0010827156401314532,0.016878588438557194,0.2307372589491346,0.5668187453197364
0.0,0.0,0.0,0.0,0.0,0.0,0.0,0.0,0.0,0.0,0.0,0.0,0.0,0.0,0.0,0.0,0.0,0.0,0.0,0.05495403140858403,0.0004623319935033344,0.0,0.19426017615500704,0.006463738928144622,0.002886432130338097,0.011179622097237444,0.007174178053198948,0.053043130676133976,0.0020730871101932846,0.014519478592364465,0.0004313917582488782,0.0336390489143232,0.05559887029513755,0.0,0.005541996980994112,0.05777228286713566,0.0,0.08865702329735116,0.0,0.0,0.1986115984402405,0.014633009389890794,0.005319301652332833,0.009298510310564192,0.0,0.053179021418084005,0.0,0.007980964356157735,0.0,0.022612780961965985,0.0474176257274355,0.0,0.0026584089626441824,0.04963155344387777
0.0,0.029073278447877215,0.0008306291882517632,0.0005475387110729637,0.062019777554279835,0.0014497456820522232,0.0025544988010642367,0.0019429909676125438,0.0024761833348306166,0.01706324445914548,0.0007368884570852684,0.010901335690989484,0.00014930590119716355,0.0031450642913139295,0.016847361678979128,0.00044270820680624226,0.00018827263650808597,0.013180783200083724,0.17195127978379707,0.18436664376452191,0.48013233764972235
0.0,0.026418485778960745,0.0008175246257895362,0.0006716407325989753,0.06483262013793323,0.001673148409201055,0.0025142850556992436,0.0029361202960131055,0.003016858974185072,0.024788333280376638,0.0009520315308301643,0.0102872922409202,0.0006302676011491644,0.005196780239820098,0.024778125985771077,0.00035581402365983026,0.0010113292846230667,0.018289866874317568,0.20189343944136123,0.21645367925281278,0.3924822043788155
0.0,0.0,0.0,0.0,0.0,0.0,0.0,0.0,0.0,0.0,0.0,0.0,0.0,0.0,0.0,0.0,0.0,0.0,0.0,0.029695781669908005,0.00045090728732410696,0.0006396628522827877,0.08808242170008866,0.001711175038061784,0.002833516546796428,0.0026784379654042037,0.0029185416234182083,0.01909019333488589,0.0006655138252988882,0.007589446857847901,0.0006352922678977622,0.0052192584150318145,0.02200774127917111,0.00031810679192845377,0.0010583557215202166,0.017361707157404288,0.23111730093651275,0.5659264771962216
0.0,0.0,0.0,0.0,0.0,0.0,0.0,0.0,0.0,0.0,0.0,0.0,0.0,0.0,0.0,0.0,0.0,0.0,0.0,0.054954044904446435,0.00046233364698074653,0.0,0.19426012704998497,0.006463732229675277,0.0028864244810998248,0.011179688332104887,0.007174197898070099,0.05304309138213098,0.002073088065318727,0.014519480015059413,0.0004313908656685823,0.03363897945895871,0.0555989063500556,0.0,0.005541974013317424,0.057772340870466524,0.0,0.08865698624535696,0.0,0.0,0.1986113533826545,0.01463296574685226,0.005319300406048539,0.009298591888507974,0.0,0.05317912312188426,0.0,0.007980946074619657,0.0,0.022612728767655764,0.04741771914642595,0.0,0.002658418470139293,0.04963166631319295
0.0,0.029138763524613868,0.0007931162513920521,0.0005228461902837812,0.06268452186059842,0.00138418760811497,0.0025271329139024273,0.001855265800939132,0.0023645526879147844,0.0167043289436773,0.0007035943429545093,0.010865505985645075,0.00014255119371488597,0.0030029740803028766,0.016315249118461043,0.00042271921606920604,0.00017975750138264984,0.013367124100909303,0.17099712533959538,0.1828526143237699,0.48317593890164673
0.0,0.02638214487155708,0.0007905645170955556,0.0006495200034223097,0.06513057810504969,0.0016179260920554752,0.0025520816019248146,0.002839341985029154,0.002917875428175409,0.0246335007442002,0.0009206450561650068,0.010377380529323443,0.0006094565247940491,0.005025295736468477,0.02479713122577117,0.0003440772277687184,0.0009779427419608973,0.018706201991062026,0.20157557257380315,0.2162135984005362,0.3929390138958135
0.0,0.0,0.0,0.0,0.0,0.0,0.0,0.0,0.0,0.0,0.0,0.0,0.0,0.0,0.0,0.0,0.0,0.0,0.0,0.02981282783770022,0.0004406217779003671,0.000624982598613654,0.08832483618442874,0.0016721528625708094,0.0027687127626439757,0.0026238976072960178,0.0029978701718805035,0.01906622788266971,0.0006502767937250424,0.007649413754894246,0.0006208438118552723,0.005100306568907225,0.02207863523180745,0.00031084233832197116,0.0010342647850299575,0.017504373449611376,0.2310152638697546,0.5657034859402625
0.0,0.0,0.0,0.0,0.0,0.0,0.0,0.0,0.0,0.0,0.0,0.0,0.0,0.0,0.0,0.0,0.0,0.0,0.0,0.054954025189408784,0.0004623312324673245,0.0,0.19426019872571854,0.006463742009977755,0.0028864356502647298,0.011179591612832772,0.007174168919087961,0.053043148752329086,0.002073086670316885,0.014519477935477,0.0004313921689708686,0.03363908087429931,0.05559885369370283,0.0,0.0055420075504211,0.057772256164221776,0.0,0.08865704033647225,0.0,0.0,0.19861171119209448,0.014633029473245638,0.005319302225115844,0.009298472765215452,0.0,0.05317897460390639,0.0,0.007980972768557516,0.0,0.02261280497963184,0.0474175827269595,0.0,0.0026584045866871174,0.049631501491610726
0.0,0.029026741167438898,0.0007741521735446494,0.0005102924860141442,0.06282818025613385,0.0013512124339955793,0.0024665011583646945,0.0018108693252818211,0.0024809651804122913,0.016997851699126515,0.0006867922624732434,0.01069273291241585,0.00013915980908437575,0.002931247165480686,0.01627147969265341,0.0004126048877804142,0.00017547737125796407,0.014064649437471915,0.17145098929553332,0.18362522488153224,0.48130274418330027
0.0,0.026294818833904523,0.0007742396979156079,0.000636065700778373,0.06517403022041492,0.0015845821588241246,0.0024994107201970787,0.00278064019844115,0.0030490295677846955,0.024609911614646082,0.0009016204344428984,0.010464742654088489,0.0005969099314044325,0.004921681200940944,0.02494327422054532,0.00033697635598975526,0.0009578001015860222,0.019224978151533876,0.20179972096095225,0.21650059761843296,0.3919488166901346
0.0,0.0,0.0,0.0,0.0,0.0,0.0,0.0,0.0,0.0,0.0,0.0,0.0,0.0,0.0,0.0,0.0,0.0,0.0,0.029354787347721574,0.00042717170645477945,0.0008688090500239132,0.08824888667562174,0.0016211795631051755,0.003181772733989648,0.0025427757649362343,0.0029057663493269135,0.018644257403499644,0.0006300692237236771,0.007752215342301581,0.0006021661707078479,0.005233314790222091,0.02140019237582782,0.00030130151065351125,0.0010029558034153215,0.01732379955261319,0.23036795284422895,0.5675904502627321
0.0,0.0,0.0,0.0,0.0,0.0,0.0,0.0,0.0,0.0,0.0,0.0,0.0,0.0,0.0,0.0,0.0,0.0,0.0,0.056039391994009695,0.0004526994373656721,0.0,0.19616284698161654,0.006329363384731461,0.002826471731033658,0.01094643842026315,0.007024763525495362,0.05194025495381973,0.0020299587537860016,0.014960302942076783,0.00042242789912999475,0.03368289853071435,0.05444209220684113,0.0,0.005426953862627571,0.05731291676731912,0.0,0.09201322019159047,0.0,0.0,0.19968286424581497,0.014329083195103303,0.005208675813060646,0.009104300968846223,0.0,0.052071925952265743,0.0,0.00781514593137541,0.0,0.022142964999772884,0.04643044556456403,0.0,0.0026030217648526253,0.048598132763583685
0.0,0.029028274082026583,0.0007742229778873562,0.0005099977098813777,0.06283052193289212,0.0013521364046884595,0.0024646102995320674,0.0018108018474297415,0.0024813125989210133,0.016999923629084868,0.0006869959144342337,0.010692612606271917,0.00013928502323837455,0.0029320189559649233,0.016271933713131303,0.00041259827461957575,0.00017561174108202,0.014066430600514093,0.1714533944981844,0.1836293535146669,0.4812878210986999
0.0,0.025998915104946736,0.0007592139257070563,0.0007304943296865681,0.06533629312013241,0.0015542520279937077,0.00266340060498583,0.002726221436648514,0.002989782771690077,0.024203491236922656,0.000884034387415527,0.010511483612933779,0.0005855730218299959,0.004934330707071775,0.02445789915828866,0.00033046349869891574,0.0009395432840929493,0.019137050339446432,0.20055228014532978,0.2155028000642707,0.39520231315781773
0.0,0.0,0.0,0.0,0.0,0.0,0.0,0.0,0.0,0.0,0.0,0.0,0.0,0.0,0.0,0.0,0.0,0.0,0.0,0.029292613905052698,0.00041411916820866673,0.0008597618655674206,0.0882649758438359,0.0015715973103945736,0.0032545254571426747,0.0024657653437987165,0.002817527590212705,0.018826023313476117,0.0006110534582687755,0.00797303066357846,0.0005835856137252572,0.005073178080688117,0.02118142567384962,0.000292129595716523,0.0009721364953551154,0.01709555583877141,0.23082676033073712,0.5676240679805084
0.0,0.0,0.0,0.0,0.0,0.0,0.0,0.0,0.0,0.0,0.0,0.0,0.0,0.0,0.0,0.0,0.0,0.0,0.0,0.05603956618448145,0.00045270926529376057,0.0,0.1961626857680382,0.0063293095875352305,0.0028264178368621923,0.010946844418350641,0.007024878753191152,0.051939914002573716,0.0020299614016745836,0.014960347651490518,0.0004224214516531697,0.033682456646363094,0.05444223016463487,0.0,0.005426797280641324,0.057313251769068256,0.0,0.09201325345731538,0.0,0.0,0.19968137919472323,0.01432877877859262,0.005208658899035757,0.009104808513740747,0.0,0.05207248896040953,0.0,0.007815015309754153,0.0,0.022142592361668375,0.046430965107488065,0.0,0.0026030782754391272,0.048598773323685264
0.0,0.028695313263864555,0.0007548737870874654,0.000497479059826802,0.06287043571672205,0.001317811826774821,0.002640495814740196,0.0017657017607938285,0.0024193758599854033,0.016911576303244785,0.0006697330137399981,0.010782288912988765,0.00013572923435048836,0.0028584076618974994,0.016034217560100178,0.0004023162158451915,0.00017114420370303746,0.013848104850672662,0.17040802231660174,0.18227981942642804,0.4845370183917208
0.0,0.025706528241121938,0.0007374727868546345,0.0007098021759071597,0.06528490853759991,0.0015094642971234572,0.002930259866774487,0.002648453392503725,0.00290440951594311,0.024318257183041665,0.0008587772533511122,0.010826515301547074,0.0005686404503207022,0.004792407080889619,0.02422735038911629,0.0003209824098116541,0.0009124186861501248,0.01894311056935754,0.1996749385883662,0.21506110142369275,0.3970640463390379
0.0,0.0,0.0,0.0,0.0,0.0,0.0,0.0,0.0,0.0,0.0,0.0,0.0,0.0,0.0,0.0,0.0,0.0,0.0,0.029163674540473895,0.0004011552833800621,0.0009760850389079177,0.08798899005168542,0.0016447054044536325,0.0034498281088451775,0.002388252598850759,0.0027290674230047315,0.018522451538644215,0.0005918133755223215,0.008180346938865005,0.0005654017404549337,0.004914477195352916,0.02081237632361554,0.0002829682993679134,0.0009417855402627391,0.016952271559298192,0.23022672990297915,0.569267449280658
0.0,0.0,0.0,0.0,0.0,0.0,0.0,0.0,0.0,0.0,0.0,0.0,0.0,0.0,0.0,0.0,0.0,0.0,0.0,0.056039482065484134,0.0004527045167112792,0.0,0.19616276371202954,0.00632933557269209,0.002826443872115051,0.010946648258509054,0.0070248230767715565,0.05194007867811347,0.0020299601205210176,0.01496032606701985,0.00042242456622896434,0.03368267013241377,0.05444216346271353,0.0,0.0054268729250108476,0.05731308989654387,0.0,0.0920132375092302,0.0,0.0,0.1996820966907454,0.014328925837955014,0.005208667065877936,0.009104563295334739,0.0,0.05207221690626811,0.0,0.007815078409690366,0.0,0.02214277237366643,0.04643071405790699,0.0,0.0026030509710898487,0.04859846380511308
0.0,0.028761046143183235,0.0007489674866469171,0.0004934771949564722,0.06283500733150672,0.0013077576015028062,0.002660716034277945,0.0017518117785276512,0.002400409670368524,0.016820851056994924,0.0006645380302650923,0.010697925570756361,0.00013470332506625797,0.0028362043443671487,0.0159084735652948,0.0003991541843107074,0.00016984307038485065,0.013781239637539388,0.16994327591676722,0.1823019927578333,0.48538246738565766
0.0,0.025813472845986594,0.0007201231449537794,0.0008622209984983774,0.06545040085646674,0.0014740855238365347,0.002971183192721504,0.0025860036072189313,0.0028359655536622985,0.023958291634421137,0.000838546124384832,0.010843388432333859,0.0005553404459156144,0.004679956947654929,0.02382673201298922,0.0003134394864892125,0.0008910573898010661,0.01887824209871324,0.19870199191822804,0.2149093993845755,0.39888999951528
0.0,0.0,0.0,0.0,0.0,0.0,0.0,0.0,0.0,0.0,0.0,0.0,0.0,0.0,0.0,0.0,0.0,0.0,0.0,-0.029093647419127764,-0.00038316713023879535,-0.001009106559674514,-0.08763717234235803,-0.00157632027098999,-0.003515075845427277,-0.002359884762143854,-0.0026697050094343223,-0.01909682217760694,-0.0005924137812062597,-0.008060562025552866,-0.0005192822980128491,-0.004666410870253739,-0.020863299930214664,-0.00027424728057441226,-0.0008796683195362005,-0.01674371315291897,-0.229563016449604,-0.5704956088718288
0.0,0.0,0.0,0.0,0.0,0.0,0.0,0.0,0.0,0.0,0.0,0.0,0.0,0.0,0.0,0.0,0.0,0.0,0.0,-0.05606081909246317,-0.0004539212654923901,0.0,-0.1961418709227544,-0.006322637433409034,-0.002819748727853741,-0.010996946192790253,-0.007039081504034138,-0.051897577075069264,-0.0020302797615820893,-0.014965798416329569,-0.0004216232501398862,-0.03362772324399925,-0.05445903716122103,0.0,-0.005407433060446774,-0.057354377682746274,0.0,-0.09201691486411884,0.0,0.0,-0.19949703693057028,-0.014291115916619404,-0.005206547346054833,-0.009167461210099618,0.0,-0.0521418081725496,0.0,-0.00779884746086644,0.0,-0.02209646928280924,-0.046494939708578834,0.0,-0.002610047276581255,-0.04867768662148283
0.0,-0.028758660981578497,-0.0007272038544622608,-0.0005056382040817165,-0.06274304988636766,-0.0012076365482831955,-0.002775655381727488,-0.0017189988198383665,-0.0023394824526692245,-0.01722864824569744,-0.0006342970285876972,-0.010505113569011832,-0.00012205874869255732,-0.0027146962913730333,-0.015824353178725735,-0.00039099761366973826,-0.00015572460285205543,-0.013546511120098616,-0.16976908618574152,-0.1818356251533212,-0.4864958589270121
0.0,-0.025877202362710874,-0.0007018683397668382,-0.0008746576570448814,-0.06544716409544311,-0.0014042659855251281,-0.0030176000937207417,-0.002555396336736046,-0.0027923163180550844,-0.024652539630830965,-0.0008240694194455345,-0.01066896993292646,-0.0005222404478468915,-0.004489093722448907,-0.02389060735315242,-0.0003034265877497181,-0.0008429934129948576,-0.018780981308409606,-0.19897512517016183,-0.21486281916725455,-0.3985158423231315
0.0,0.0,0.0,0.0,0.0,0.0,0.0,0.0,0.0,0.0,0.0,0.0,0.0,0.0,0.0,0.0,0.0,0.0,0.0,0.029206972929677565,0.00038061674712756133,0.0009268103904660766,0.08804477353503418,0.0015607336962544728,0.003333889571867289,0.002266451220795974,0.0025897223440185272,0.018892280157501707,0.0005616766627754585,0.008647065453859182,0.0005363291338596901,0.004662696899766892,0.020767927471804996,0.00026850461920327413,0.0008934479499713284,0.017070649256052912,0.2312904006264951,0.5680988890993344
0.0,0.0,0.0,0.0,0.0,0.0,0.0,0.0,0.0,0.0,0.0,0.0,0.0,0.0,0.0,0.0,0.0,0.0,0.0,0.05603956168576339,0.000452708991412397,0.0,0.19616269175894213,0.00632931115086794,0.0028264193774237534,0.010946833047667045,0.007024875554567716,0.05193992399664419,0.002029961341777075,0.01496034650146034,0.0004224216365676586,0.03368246935609544,0.054442226670220535,0.0,0.0054268017362491235,0.05731324274029393,0.0,0.09201325320296642,0.0,0.0,0.1996814225455514,0.014328787468407364,0.005208659413989842,0.009104794265712705,0.0,0.052072473461014936,0.0,0.007815019050589666,0.0,0.022142603032437477,0.04643095079286774,0.0,0.002603076700621281,0.04859875561179387
0.0,0.028552179709628724,0.0007124384112421283,0.00046957841252340395,0.06295716376475693,0.0012435778646420824,0.002532229526229723,0.0016664870293659419,0.0022833919004773707,0.017449971829431764,0.0006320569356502106,0.01080177983442457,0.00012807769845545638,0.0026976254904617675,0.015836585025375747,0.00037970840519713336,0.00016150069385551313,0.014113571170392768,0.1698231275357221,0.18300225417199373,0.4845565628479808
0.0,0.02571841405629268,0.0006821687380214608,0.0008172452732578255,0.06581682410542684,0.0013961958119799508,0.002815495263294656,0.0024499197100641443,0.002686666516556197,0.024416293814395206,0.0007943914212644464,0.011100114888310433,0.0005259552822403054,0.004432858438536981,0.02351736570547204,0.0002969069461684672,0.0008439388631100165,0.019051819021695268,0.1979781228583379,0.21595065376362327,0.398708497996337
0.0,0.0,0.0,0.0,0.0,0.0,0.0,0.0,0.0,0.0,0.0,0.0,0.0,0.0,0.0,0.0,0.0,0.0,0.0,0.029020114656593377,0.00036558866396880395,0.000887961053995316,0.08795611298374899,0.0014989584725276406,0.003195752001251268,0.002205962057935545,0.0026168222440371646,0.01964420325415881,0.0005387000287944648,0.00856925647227514,0.0005157649016859122,0.004479413428482757,0.02145344972153354,0.0002577862046406286,0.0008587574961331864,0.017404266021586366,0.2317897434857846,0.5667411894173064
0.0,0.0,0.0,0.0,0.0,0.0,0.0,0.0,0.0,0.0,0.0,0.0,0.0,0.0,0.0,0.0,0.0,0.0,0.0,0.05603894578843236,0.000452674242063999,0.0,0.19616326075710197,0.006329501246793554,0.002826609863456244,0.010945397634213334,0.007024468112113245,0.051941128610617567,0.0020299519536818213,0.014960188461274216,0.0004224444236877592,0.03368403124698626,0.05444173823330014,0.0,0.005427355204399289,0.057312057900342724,0.0,0.09201313587634705,0.0,0.0,0.19968667124902795,0.01432986343417422,0.005208719137359152,0.009102999893542506,0.0,0.05207048243771964,0.0,0.007815480712618781,0.0,0.02214392006655497,0.04642911350196241,0.0,0.0026028768918680014,0.04859649047728988
0.0,0.02803405926606038,0.000683643788847885,0.0004498031647851773,0.06280371528149692,0.0011951827819997346,0.0024241091708843165,0.0015985890056081924,0.0022287658712934204,0.018267922380090996,0.0006068395416520755,0.01083300263807511,0.00012316351452791526,0.0025897702473068923,0.017367047611067346,0.000364258300972689,0.00015524925847217112,0.014552298004490623,0.1711758094431949,0.18408768495297786,0.48045892437734045
0.0,0.025435614588014625,0.0006512041023876104,0.0007791543244071176,0.06577973858239758,0.0013337695075530027,0.002684140840513074,0.00233769225537039,0.0026939728403969987,0.025494322638409596,0.0007581345506977076,0.011050961703079074,0.0005026377131756804,0.004233756838959645,0.02454093918155225,0.00028349036570269616,0.0008063762934695876,0.019262228512238404,0.1987498323848012,0.2168216920714662,0.3958001558181373
0.0,0.0,0.0,0.0,0.0,0.0,0.0,0.0,0.0,0.0,0.0,0.0,0.0,0.0,0.0,0.0,0.0,0.0,0.0,0.02887501305397935,0.0003548027489054406,0.0010174949198246957,0.08762574201523493,0.0014548336741979071,0.00341156662966288,0.0021424923964819954,0.0025412482727557926,0.019485090614371692,0.0005233265433997779,0.008875048625733132,0.0005001506640940307,0.004346727455519505,0.021044093905617373,0.00025025675299597273,0.0008330408374567486,0.017017907693731495,0.23181117053166486,0.5678898185007393
0.0,0.0,0.0,0.0,0.0,0.0,0.0,0.0,0.0,0.0,0.0,0.0,0.0,0.0,0.0,0.0,0.0,0.0,0.0,0.05603939208194654,0.000452699436585307,0.0,0.19616284713576995,0.006329363373844107,0.0028264717261753725,0.01094643840137302,0.007024763513390514,0.05194025486446312,0.002029958750291777,0.014960302977792557,0.00042242789840370696,0.03368289853426454,0.05444209211312019,0.0,0.005426953853305902,0.05731291673010342,0.0,0.09201322046350927,0.0,0.0,0.1996828643326007,0.014329083170477538,0.005208675804097687,0.009104300953114382,0.0,0.05207192586257252,0.0,0.00781514591794008,0.0,0.02214296496170632,0.04643044548458603,0.0,0.002603021760365499,0.0485981326798601
0.0,0.02800410713613362,0.0006791007375652098,0.0004852067396655942,0.06289249711675837,0.0011860108210942975,0.002411804343192672,0.0015883239135179043,0.0022142397373168163,0.01822632657316869,0.0006025905269175974,0.010801696402694778,0.00012217224845392175,0.0025717865426640083,0.017258574718413498,0.0003619058082941096,0.0001540358091922903,0.014458729422948097,0.1708819329184262,0.18397020143029108,0.48112861412853847
0.0,0.025291479320088562,0.0006379668001512135,0.0009215888252383114,0.06588738746174055,0.0013060366246647882,0.002721690787385521,0.0022908414974360854,0.002640102065042411,0.025268858668139847,0.0007428533253492128,0.011316822487405438,0.0004920564999444308,0.004146313793516001,0.024171083425767362,0.00027768818997290124,0.0007894974028553437,0.01893594382699477,0.1977620072257539,0.21681256019739684,0.3975870582392797
0.0,0.0,0.0,0.0,0.0,0.0,0.0,0.0,0.0,0.0,0.0,0.0,0.0,0.0,0.0,0.0,0.0,0.0,0.0,0.028964694947384736,0.0003477079760594242,0.0009981423409008185,0.08769282890943453,0.0014257974976276207,0.0033460204093023276,0.0021005170137129146,0.0024911970907201832,0.019766196303311823,0.0005131525376466778,0.008782320179270909,0.0004899270600755441,0.004259511992854833,0.0212938877161817,0.0002452950127032198,0.0008161700530381487,0.0170607336882399,0.2318310922660977,0.5675746452151239
0.0,0.0,0.0,0.0,0.0,0.0,0.0,0.0,0.0,0.0,0.0,0.0,0.0,0.0,0.0,0.0,0.0,0.0,0.0,0.05603964694597134,0.00045271382453304084,0.0,0.1961626109153006,0.006329284637609183,0.002826392839191822,0.010947032757373047,0.0070249322094161435,0.05193975588639686,0.002029962631550746,0.014960368374498321,0.0004224184611939772,0.03368225166779931,0.054442294202040505,0.0,0.005426724651207575,0.057313407183402366,0.0,0.092013268763793,0.0,0.0,0.19968069028418936,0.014328637580150147,0.005208651057229008,0.009105043955844714,0.0,0.052072750164119504,0.0,0.007814954724440923,0.0,0.022142419523422167,0.04643120614453426,0.0,0.0026031044910649697,0.048599070498696745
0.0,0.02829639675244842,0.0006590849437424714,0.0004712159420086714,0.06268722704217207,0.001150374089243918,0.0023428236922080617,0.0015417078273292726,0.0021490997468382954,0.01887999126104564,0.0005847100883855786,0.010521190438423198,0.00011847574004082623,0.0024955576717935455,0.017322061029397224,0.0003512767031122798,0.00014939519656864266,0.01488536395430178,0.1712721877630619,0.18500299326737932,0.47911873381791903
0.0,0.025694075705339502,0.0006236525174675989,0.0009013614203759421,0.06566193999929913,0.0012763865459064043,0.002661989832089239,0.002239813776484915,0.002581223842439345,0.025920043539896135,0.0007262579724478596,0.011159727658146623,0.0004808131958519518,0.004052511240707551,0.024491918292718736,0.00027143555666696436,0.0007715114892524562,0.01912340695005046,0.1983435765717047,0.21755532967302926,0.39546287207504816
0.0,0.0,0.0,0.0,0.0,0.0,0.0,0.0,0.0,0.0,0.0,0.0,0.0,0.0,0.0,0.0,0.0,0.0,0.0,-0.028894427433934455,-0.00033107182942641313,-0.0010265199041848427,-0.08729521438967935,-0.0013619207201062543,-0.003393361702020573,-0.002068124692167132,-0.0024320877919176715,-0.019822462134202322,-0.0005114387477181646,-0.008613123613768285,-0.0004490103283667346,-0.004032406377690671,-0.02181095179505329,-0.00023689773811427892,-0.0007603844053523453,-0.017375339345019447,-0.23138904190920054,-0.5681953589310079
0.0,0.0,0.0,0.0,0.0,0.0,0.0,0.0,0.0,0.0,0.0,0.0,0.0,0.0,0.0,0.0,0.0,0.0,0.0,-0.05606042553981034,-0.00045389878107260476,0.0,-0.1961422601246311,-0.006322761344024429,-0.002819872529482369,-0.01099601661343527,-0.007038818047489626,-0.051898363503559114,-0.002030273884158926,-0.014965697490103973,-0.00042163806876912316,-0.03362873944152472,-0.054458726087821,0.0,-0.0054077924854084546,-0.057353615363924526,0.0,-0.09201684829756766,0.0,0.0,-0.19950046077889386,-0.014291815044566782,-0.0052065866083757075,-0.009166298694506412,0.0,-0.05214052258951045,0.0,-0.007799147606243165,0.0,-0.022097325524861273,-0.04649375322147299,0.0,-0.0026099179911674634,-0.04867622294804984
0.0,-0.02860111866232783,-0.0006322246192318544,-0.0004760058166673417,-0.06252966262480907,-0.0010508670460030994,-0.0024101644440554593,-0.0014942032750039594,-0.002070987132144903,-0.018865492138050846,-0.0005516208994752378,-0.010182346124953013,-0.00010625150449361505,-0.0023607362061012368,-0.0178701816533048,-0.0003398767677036344,-0.00013552728763854713,-0.015285767697674828,-0.1717974440004136,-0.18499962222585428,-0.47823919940963877
0.0,-0.025834318313955714,-0.0006048117196899892,-0.0009096028075168909,-0.06554388249779951,-0.0012105825831046592,-0.0026891472175072277,-0.0022014861798868024,-0.0025314783648065086,-0.02612450129519938,-0.0007100093434127955,-0.010918101704734345,-0.0004503182133134578,-0.0038694469423119376,-0.025157642588366662,-0.0002614998249391775,-0.0007268164600157183,-0.019468244467537307,-0.19896855241385444,-0.21769034459231096,-0.3941284041679606
0.0,0.0,0.0,0.0,0.0,0.0,0.0,0.0,0.0,0.0,0.0,0.0,0.0,0.0,0.0,0.0,0.0,0.0,0.0,-0.028987603180897714,-0.0003254430284237335,-0.0010112044317454347,-0.08734015751930328,-0.0013388875320414233,-0.003341491469621466,-0.002034874799825079,-0.0023924246232802943,-0.019848470700831716,-0.0005033844845292376,-0.008635233410534907,-0.0004408857922347284,-0.003963194108224456,-0.022050404445505604,-0.00023296378859435248,-0.0007469867437635938,-0.017489214925874415,-0.2314708584879823,-0.5678454359664296
0.0,0.0,0.0,0.0,0.0,0.0,0.0,0.0,0.0,0.0,0.0,0.0,0.0,0.0,0.0,0.0,0.0,0.0,0.0,-0.05606073884419448,-0.0004539165742014646,0.0,-0.19614196003559564,-0.006322663628938273,-0.0028197747647808503,-0.010996751938337273,-0.007039026601485157,-0.051897743787490055,-0.002030278609376932,-0.01496577785956539,-0.00042162636993072183,-0.03362793736851222,-0.05445897412439785,0.0,-0.005407508543993867,-0.057354220254352904,0.0,-0.09201690448987641,0.0,0.0,-0.1994977617158987,-0.014291262888107968,-0.0052065557705300355,-0.009167218101170693,0.0,-0.05214154095549968,0.0,-0.007798910622254568,0.0,-0.02209664946106709,-0.04649469302619282,0.0,-0.0026100203016584072,-0.048677381972896734
0.0,-0.028664057533101917,-0.0006244142386354056,-0.00047082481236267274,-0.06251209212137819,-0.0010363506943225564,-0.0023851363547872572,-0.0014761909728664663,-0.0020456786823853496,-0.019010588782408345,-0.0005445363312352375,-0.010203818213836759,-0.00010472328547077623,-0.0023306066665810775,-0.01799732959158684,-0.00033576300413046305,-0.00013362621884806898,-0.015409420732428148,-0.17204796009150386,-0.1850878943098971,-0.477578264554445
0.0,-0.02589289505242088,-0.0005948937998531867,-0.0008956858362526332,-0.06568404398820425,-0.0011899637266039125,-0.002648079395590343,-0.0021662116903042364,-0.002490761459257132,-0.026101354809673755,-0.000698526661173568,-0.010919924363722263,-0.0004424839742997384,-0.0038042866147312573,-0.02522778786407345,-0.0002571627771587965,-0.0007142955139827511,-0.019656883746109462,-0.19899160845744807,-0.21767639626589513,-0.3939459224212723
0.0,0.0,0.0,0.0,0.0,0.0,0.0,0.0,0.0,0.0,0.0,0.0,0.0,0.0,0.0,0.0,0.0,0.0,0.0,-0.029014953169657583,-0.0003177220788141173,-0.0010210718952616436,-0.08729560866620202,-0.0013084590980669507,-0.0033720236558649544,-0.0020075592407101423,-0.0023541566810278184,-0.019975751568500098,-0.0004984706190808081,-0.008619174905355218,-0.00042504759100707006,-0.003861996161662194,-0.022066519601334954,-0.0002284644373302851,-0.0007241142872034288,-0.017453821130407176,-0.2315651556369876,-0.5678887342865843
0.0,0.0,0.0,0.0,0.0,0.0,0.0,0.0,0.0,0.0,0.0,0.0,0.0,0.0,0.0,0.0,0.0,0.0,0.0,-0.05606705612794966,-0.0004542774716188992,0.0,-0.19613571452593637,-0.006320674807569721,-0.0028177876657904106,-0.011011672556595199,-0.007043255355664278,-0.051885121345420275,-0.00203037296260316,-0.014967397925862944,-0.0004213885216616327,-0.03361162679881836,-0.05446396753417175,0.0,-0.005401739511441567,-0.05736645655648401,0.0,-0.09201797364721952,0.0,0.0,-0.199442807593926,-0.01428004140411998,-0.005205925617184301,-0.009185877528682244,0.0,-0.05216217605009542,0.0,-0.0077940930955006215,0.0,-0.022082906223077084,-0.046513737503926206,0.0,-0.002612095461808661,-0.04870087554204837
0.0,-0.028537825732806443,-0.0006122170709990194,-0.0004688925375261298,-0.0622313692467584,-0.0010001734172640226,-0.002387843432049758,-0.0014519957600704785,-0.002008586650558475,-0.019359097334250293,-0.0005310958075322449,-0.010032176388463659,-0.00010043835972779599,-0.0022750539511829683,-0.018009303491110417,-0.00033008717056964555,-0.00012866057050942744,-0.015524450540183591,-0.1717531416757978,-0.1861363916080176,-0.4771202205736568
0.0,-0.025961701466462907,-0.0005829484522020344,-0.0008884423332104147,-0.06559233098639555,-0.0011578194556335277,-0.0026525389793194006,-0.002131598833783152,-0.002449297470374418,-0.026429206070109432,-0.0006862240289897951,-0.010836175258621693,-0.00042876308431050414,-0.003709535271717227,-0.025307543361978286,-0.0002514734358984762,-0.0006934760307250291,-0.019567776424117764,-0.19884460486277575,-0.21809758919781957,-0.3937298257065492
0.0,0.0,0.0,0.0,0.0,0.0,0.0,0.0,0.0,0.0,0.0,0.0,0.0,0.0,0.0,0.0,0.0,0.0,0.0,0.02923285961514613,0.0003216736592741841,0.0009340390242165675,0.08774304179742515,0.0015138945783896717,0.0032125509394036974,0.0019431006716034876,0.0023045456724267647,0.020033376804248174,0.0004746830772161391,0.008496672434039539,0.00045328066927893986,0.003940633541640886,0.022172730478002122,0.000226921808953959,0.0007550949725319321,0.017406798044936125,0.23150526072231783,0.5673286787787722
0.0,0.0,0.0,0.0,0.0,0.0,0.0,0.0,0.0,0.0,0.0,0.0,0.0,0.0,0.0,0.0,0.0,0.0,0.0,0.05603953627933483,0.0004527075485348885,0.0,0.1961627160937116,0.00632931907476374,0.0028264273053429717,0.010946773418819796,0.0070248586425410405,0.05193997425055823,0.002029960958600453,0.014960339984152948,0.0004224225852479523,0.03368253439766916,0.054442206556478336,0.0,0.005426824761579991,0.05731319368861738,0.0,0.09201324864622809,0.0,0.0,0.1996816414175261,0.014328832243788815,0.005208661914687337,0.009104719709337213,0.0,0.05207239087984567,0.0,0.007815038268056584,0.0,0.0221426578556923,0.046430874582376123,0.0,0.0026030684040756085,0.04859866162433932
0.0,0.02869319927409293,0.0006077938410557307,0.00043450396131457735,0.062332369103509096,0.001308051584059012,0.0021602218842723,0.0014217032305399934,0.001981836928898007,0.01931066488483529,0.0005392228476720367,0.009880603145607326,0.00010926844545469783,0.002301405974390868,0.017827115655102862,0.00032393475491064447,0.000137782355719159,0.015381544452072212,0.17089792570632334,0.1864578893799128,0.47789282914940323
0.0,0.025888503089778758,0.0005768883343752748,0.0008337039258593046,0.06556524195608396,0.001468436818221578,0.002572940270887529,0.0020718053083287782,0.0023876171221560616,0.026409311399960746,0.0006717888350506772,0.010728363544296014,0.0004447910108574125,0.0037487550743901675,0.025247875961477595,0.0002510855358205934,0.0007137020931021873,0.019457432405860602,0.19801531392686686,0.21771708959324543,0.3952292009107761
0.0,0.0,0.0,0.0,0.0,0.0,0.0,0.0,0.0,0.0,0.0,0.0,0.0,0.0,0.0,0.0,0.0,0.0,0.0,-0.029157239556876106,-0.0003086191225556467,-0.0009699081106973872,-0.08746327443249413,-0.001449972523279558,-0.0032789967646907237,-0.001930309004969287,-0.002269301170553743,-0.020325709515682272,-0.00047757236255842404,-0.008395719057414363,-0.00041793292002710136,-0.0037581003489375138,-0.02237188447864647,-0.00022095141397502176,-0.0007082166860054338,-0.017095681408582537,-0.2308242931028896,-0.5685754210139805
0.0,0.0,0.0,0.0,0.0,0.0,0.0,0.0,0.0,0.0,0.0,0.0,0.0,0.0,0.0,0.0,0.0,0.0,0.0,-0.056061225632386066,-0.0004539444935808664,0.0,-0.19614146872334098,-0.006322509419073339,-0.002819620828252878,-0.01099790652258907,-0.007039353673310938,-0.05189676459413571,-0.0020302858322311652,-0.014965902672768774,-0.0004216079409460315,-0.03362667340279029,-0.05445935849386412,0.0,-0.005407061739816572,-0.057355165189483366,0.0,-0.09201698357690165,0.0,0.0,-0.19949349967473576,-0.01429039364775412,-0.0052065067814703585,-0.00916866218446083,0.0,-0.05214313626003417,0.0,-0.007798537379753784,0.0,-0.02209558469660218,-0.04649616542477719,0.0,-0.002610180838089987,-0.04867919869398995
0.0,-0.02858866830716136,-0.0005937071658180568,-0.00044784966436087653,-0.06233144221118781,-0.0012055563380212909,-0.0022690548256253176,-0.0014037099356727153,-0.001945148090986994,-0.01953887075328064,-0.0005176884442410283,-0.009734868477950881,-9.951815382661427e-05,-0.0022157466919638796,-0.018265203820045428,-0.000319272779505921,-0.00012699685754606887,-0.01509976153530583,-0.171136566493606,-0.18619398335053355,-0.477965654196343
0.0,-0.02590683231864332,-0.0005663486042280213,-0.0008530106270172284,-0.06542959110071063,-0.0014001826152429985,-0.002622879946047649,-0.0020625195596786,-0.002371486804197009,-0.026943537577585996,-0.000665057414853724,-0.010641692389874448,-0.00042111550976215166,-0.00362122481300898,-0.025669846737335175,-0.00024480833017709693,-0.0006798382360982695,-0.019244281703280817,-0.19849261505954435,-0.21783393544324342,-0.3943283488874048
0.0,0.0,0.0,0.0,0.0,0.0,0.0,0.0,0.0,0.0,0.0,0.0,0.0,0.0,0.0,0.0,0.0,0.0,0.0,0.029442479053270586,0.0003124690740479485,0.0009073924668475645,0.08794624155835892,0.0014702826112330486,0.003120739246883469,0.0018875719029278516,0.0022386657425462943,0.02027109605263038,0.0004611244602421401,0.008264397351598573,0.00044029161199109315,0.0038278488356445818,0.022932744626524632,0.00022043206656108272,0.0007334703859512987,0.017089412683094735,0.23103840216371443,0.5673947757309237
0.0,0.0,0.0,0.0,0.0,0.0,0.0,0.0,0.0,0.0,0.0,0.0,0.0,0.0,0.0,0.0,0.0,0.0,0.0,0.05603957356815361,0.0004527096617357972,0.0,0.19616268078953036,0.006329307484161086,0.0028264157030764995,0.010946860736887117,0.00702488341428847,0.05193990076157346,0.0020299615229385157,0.014960349550518738,0.0004224211970222372,0.03368243922861814,0.05444223609387044,0.0,0.0054267910601296316,0.0573132655975239,0.0,0.09201325546920416,0.0,0.0,0.1996813213056066,0.014328766713698635,0.0052086582621085524,0.009104828879119302,0.0,0.05207251186919982,0.0,0.007815010145471857,0.0,0.022142577627822138,0.04643098623539758,0.0,0.0026030805549808276,0.048598799307418734
0.0,0.02942784477783519,0.0005702745636266702,0.00040770319867424674,0.062272272052294804,0.0012269632765753548,0.002027015236532149,0.0013339547025625943,0.0018595060037142396,0.019988794221465288,0.0005059282620342077,0.009270707337542452,0.00010251671433453382,0.002159310186847175,0.020267058075381827,0.0003039407619285095,0.00012927011298235935,0.015566659267833965,0.17318737465245967,0.18778531323424788,0.47160745836598134
0.0,0.02630697131696702,0.0005606964406790418,0.0008103399542121507,0.06522761451622447,0.001426775940279816,0.0025007118122801993,0.002013684506143774,0.0023206311036843693,0.02719594886289518,0.0006529391057655052,0.010453654520732164,0.00043229051174148707,0.0036434746087534247,0.026928157365725534,0.00024403638983797147,0.0006936483763542743,0.019240451145453457,0.19937748326616248,0.21852530396848063,0.3914450327311708
0.0,0.0,0.0,0.0,0.0,0.0,0.0,0.0,0.0,0.0,0.0,0.0,0.0,0.0,0.0,0.0,0.0,0.0,0.0,0.029538724952411843,0.00030791227551840125,0.0008942332348562499,0.08800237519135568,0.0014488389990751464,0.003075424945586611,0.0018601108433931887,0.002206076861697598,0.02038897721277273,0.00045442184712056504,0.008144108441484596,0.0004338538740753984,0.003772004045498905,0.023180335669546595,0.00021722068660779697,0.0007227578786804892,0.017137457782547695,0.23082789750284394,0.567387105061142
0.0,0.0,0.0,0.0,0.0,0.0,0.0,0.0,0.0,0.0,0.0,0.0,0.0,0.0,0.0,0.0,0.0,0.0,0.0,0.05603964766779596,0.00045271386552677947,0.0,0.1961626102239229,0.006329284412482566,0.0028263926139509106,0.010947034451494248,0.007024932689905448,0.05193975445862786,0.002029962642437213,0.014960368559662205,0.0004224184342409271,0.0336822498198966,0.05444229477349409,0.0,0.00542672399703258,0.05731340857701449,0.0,0.09201326889325505,0.0,0.0,0.19968068406579553,0.01432863630803225,0.005208650986181432,0.00910504607407342,0.0,0.05207275251034155,0.0,0.007814954178451539,0.0,0.022142417965833185,0.046431208309758235,0.0,0.0026031047267789766,0.0485990731689838
0.0,0.029377243417423718,0.0005625360744292727,0.00040218820359176936,0.062264405817831436,0.001210260135276867,0.001999627469549811,0.0013158643965067828,0.0018342798371825178,0.02040852497887382,0.0004990562062440379,0.009144968104121324,0.00010112021146348672,0.0021299847937704328,0.0204869488097378,0.00029981847806212253,0.00012751029409812016,0.015829468360248834,0.17368351548046687,0.1880832588980599,0.4702392843860714
0.0,0.026336526083014948,0.0005539732806198615,0.0008006549915622879,0.06521409312999077,0.0014096303158122327,0.0024708152694761414,0.00198956509773088,0.0022928301978231004,0.027448713471225378,0.0006451149602654271,0.010328383420050213,0.0004270928037991127,0.0035997326585609697,0.027356249679592808,0.00024110866880836237,0.0006853119692292813,0.019303252068192115,0.19972418707891612,0.2186424118512713,0.3905301989293556
0.0,0.0,0.0,0.0,0.0,0.0,0.0,0.0,0.0,0.0,0.0,0.0,0.0,0.0,0.0,0.0,0.0,0.0,0.0,0.02894125056702742,0.00029362259819935935,0.0012428932320966532,0.08676168089171803,0.0013815971644997502,0.003805364586970776,0.001773898217847692,0.0021037953645378876,0.020068186006735576,0.00043337043918048216,0.008251681372394161,0.0004136907491655051,0.003596913548593584,0.022857066435892134,0.00020714533564801098,0.0006891884337970018,0.016464961468539995,0.22925146288596915,0.571462071885084
0.0,0.0,0.0,0.0,0.0,0.0,0.0,0.0,0.0,0.0,0.0,0.0,0.0,0.0,0.0,0.0,0.0,0.0,0.0,0.056039686891750845,0.00045271607994990003,0.0,0.19616257386041341,0.006329272294017173,0.0028263804724085,0.010947125928031721,0.007024958653545882,0.051939677659406054,0.0020299632397269307,0.01496037862429244,0.0004224169817513816,0.03368215025992162,0.054442325874925465,0.0,0.00542668872050079,0.05731348406030868,0.0,0.09201327632384561,0.0,0.0,0.19968034945238317,0.014328567727018982,0.005208647177222456,0.009105160428793356,0.0,0.052072879376178334,0.0,0.007814924751712405,0.0,0.0221423340170109,0.04643132538076075,0.0,0.0026031174597119437,0.04859921750631286
0.0,0.02889895939909252,0.0005423900670449703,0.0007195820061637932,0.061743213664944806,0.0011667975534175206,0.0024376958546641924,0.001268764485851315,0.001768604486909659,0.020249941134644227,0.0004811685396187637,0.009058497377452887,9.748678814675349e-05,0.0020536501803576127,0.020186505736411387,0.00028908587080967525,0.00012293114375824425,0.01532351054325619,0.1718954451392711,0.18619573204548293,0.47549990519188096
0.0,0.025987037426295535,0.0005343753070034109,0.001004767499752132,0.0644772747854051,0.001359691586527888,0.0031593967197673257,0.00191922884465364,0.0022117634656733643,0.027124001969507275,0.00062230212712296,0.01040806400727492,0.0004119569263197352,0.003472283639789049,0.027060802995481217,0.00023257605348945843,0.0006610320301114167,0.01872115459501511,0.1976844309279833,0.21680818794767245,0.39613952026613886
0.0,0.0,0.0,0.0,0.0,0.0,0.0,0.0,0.0,0.0,0.0,0.0,0.0,0.0,0.0,0.0,0.0,0.0,0.0,0.028943720084891055,0.0002880131092349942,0.0012195957751008008,0.0866171868932212,0.0013552061908694497,0.003850622872761877,0.001739899434644238,0.002063506988951238,0.020261142180080734,0.00042505443442056106,0.008223203971800944,0.00040581552262869473,0.003528234078151097,0.02296825709748211,0.00020318257685124754,0.0006760487942237862,0.016364890736679454,0.22880769259614622,0.572058566025782
0.0,0.0,0.0,0.0,0.0,0.0,0.0,0.0,0.0,0.0,0.0,0.0,0.0,0.0,0.0,0.0,0.0,0.0,0.0,0.056039648121272254,0.00045271389128052637,0.0,0.19616260978957453,0.006329284271049879,0.0028263924724464245,0.01094703551580243,0.007024932991766192,0.05193975356165167,0.0020299626492764926,0.014960368675988859,0.0004224184173080455,0.03368224865897729,0.05444229513250188,0.0,0.005426723586056183,0.05731340945253205,0.0,0.09201326897458761,0.0,0.0,0.1996806801591758,0.01432863550884183,0.005208650941546788,0.009105047404821274,0.0,0.05207275398432289,0.0,0.007814953835441252,0.0,0.022142416987299404,0.04643120967003027,0.0,0.0026031048748630277,0.04859907484655458
0.0,0.0287781600256256,0.0005314798016950776,0.0007054813288772797,0.06155786897645213,0.0011434443344019492,0.002477379151955873,0.001243218714754471,0.0017330136591835587,0.020839290917219658,0.0004715044764378785,0.00912821918982047,9.553758305945269e-05,0.0020123933184864134,0.02009230973606525,0.0002832662252863698,0.00012047073108075642,0.01516940361122852,0.1717580377581453,0.18639398095690227,0.47546540511351565
0.0,0.026009910119572516,0.0005246593772957108,0.000986777554685729,0.06435489748560114,0.0013350385291753515,0.0032629747126838057,0.0018842859112997905,0.0021715035114613537,0.027569216159306447,0.0006109782499110627,0.010377947506884092,0.0004044928126126898,0.0034092499253493697,0.0270987958336103,0.0002283502196897244,0.0006490481002256401,0.018510395748832547,0.1975534681911021,0.21657805431509342,0.3964798030029528
0.0,0.0,0.0,0.0,0.0,0.0,0.0,0.0,0.0,0.0,0.0,0.0,0.0,0.0,0.0,0.0,0.0,0.0,0.0,-0.02792148920335638,-0.0002442994913824517,-0.0016937163168005526,-0.08394197518868958,-0.001141068149512014,-0.00470522748236202,-0.0017302182575622761,-0.0019747354300639324,-0.01978076619105018,-0.00044584608706546883,-0.008109871924250665,-0.00027894548369549393,-0.0029056688915815227,-0.022445957479787927,-0.0001848157415038984,-0.0005109286283287304,-0.015626278623976923,-0.22457827093552152,-0.5817755769482396
0.0,0.0,0.0,0.0,0.0,0.0,0.0,0.0,0.0,0.0,0.0,0.0,0.0,0.0,0.0,0.0,0.0,0.0,0.0,-0.05614464366215953,-0.00045871059226909827,0.0,-0.1960589485237411,-0.0062962428111863365,-0.002793377662145011,-0.011194953362424586,-0.007095199283590325,-0.051730056116767696,-0.002031531504394809,-0.014987295094796483,-0.0004184667160574601,-0.03341126132423215,-0.054525293110687725,0.0,-0.005330871985645652,-0.05751675243005054,0.0,-0.09203108513227204,0.0,0.0,-0.1987677089211549,-0.014142194375406205,-0.005198183633164098,-0.009415085941059593,0.0,-0.05241564311876159,0.0,-0.00773491320447025,0.0,-0.02191408035165564,-0.0467476669357041,0.0,-0.002637585905547312,-0.04898945666095278
0.0,-0.027777358693579546,-0.0004915523007546006,-0.0011759549349207887,-0.06035890917404807,-0.0007918446938380409,-0.0036651610206999323,-0.0012051027501746572,-0.001636984988599176,-0.020036597531506578,-0.00040268229264290195,-0.008864206412480176,-6.16835669303403e-05,-0.001741757673238187,-0.019232323089171194,-0.0002725036800481022,-8.336003492194117e-05,-0.014484065437045583,-0.16884032901394253,-0.1822105055169895,-0.4866635524760542
0.0,-0.025658867098865255,-0.0004949150284691976,-0.0013610083981138168,-0.06359304591359152,-0.0010955934037735456,-0.00406504349166044,-0.0018915121557055875,-0.0021581558310349116,-0.027170979263535695,-0.0005984675257425442,-0.010262566477019654,-0.0003194801131016019,-0.00298024763571109,-0.026876241748432842,-0.00020865749418897994,-0.0005291087612257148,-0.01816173195071559,-0.196466379678065,-0.21475588192213205,-0.4013478791121416
0.0,0.0,0.0,0.0,0.0,0.0,0.0,0.0,0.0,0.0,0.0,0.0,0.0,0.0,0.0,0.0,0.0,0.0,0.0,0.028932447382503192,0.0002785446690176701,0.0013414614216596993,0.08640852822021189,0.0013106673004560584,0.003960347160247637,0.0016822920312888315,0.0019953090680512016,0.020262575664014057,0.0004109438920865388,0.008180952245982866,0.0003925790550747784,0.0034123829530705112,0.022883699420244857,0.00019648293369604587,0.000653923963102745,0.01602563435577677,0.22771183751647003,0.5739592302634442
0.0,0.0,0.0,0.0,0.0,0.0,0.0,0.0,0.0,0.0,0.0,0.0,0.0,0.0,0.0,0.0,0.0,0.0,0.0,0.05603922006337012,0.00045268959005234275,0.0,0.19616301897148816,0.006329417697926952,0.002826525978583021,0.010946031260455992,0.007024648150427984,0.05194059972571572,0.0020299561894702245,0.014960258867807042,0.0004224343928049856,0.03368334392443656,0.054441956214862516,0.0,0.005427111341694863,0.057312583176864974,0.0,0.09201319193170754,0.0,0.0,0.19968436556320843,0.014329389531500777,0.005208693039112156,0.009103791758517938,0.0,0.052071363050056,0.0,0.007815277454364316,0.0,0.022143340202224252,0.046429926043935796,0.0,0.0026029651428009807,0.048597491828533276
0.0,0.029017059072099605,0.0005114583010402574,0.0009483945732509131,0.06143116922953382,0.0011007248558610933,0.002759911031739329,0.0011963111686497177,0.0016676831849853219,0.020457917169349814,0.00045378700723363544,0.008981289232723327,9.197425554032978e-05,0.001936743796176071,0.01962744029570611,0.0002725811646321615,0.0001159699921820563,0.014768497124968456,0.17050987945052393,0.18479945340068124,0.4793516217972352
0.0,0.026522020770392184,0.0005092789171611083,0.0011552929252416808,0.06426348455563223,0.001296152345099352,0.003392995519208995,0.0018288732484511587,0.0021076775935937324,0.027552554675306307,0.00059303347222665,0.010419189017216234,0.00039273007307026006,0.0033096681051032173,0.026984891593432883,0.0002216664292442879,0.0006301484274751251,0.018093667853601832,0.1971968664208864,0.21627273984999917,0.3972569151127016
0.0,0.0,0.0,0.0,0.0,0.0,0.0,0.0,0.0,0.0,0.0,0.0,0.0,0.0,0.0,0.0,0.0,0.0,0.0,0.028856766039253655,0.000269106332794972,0.0012934098643919948,0.08640455930294007,0.0012662993283171912,0.003819796652393756,0.0017266074389069754,0.0019265494759547466,0.020765063838342132,0.0003965822954268416,0.008077689638938424,0.00037961111267939443,0.0032972021788701617,0.023347750730955862,0.00018976132855000287,0.0006320863254691293,0.01671345388581243,0.22798135308060954,0.5726561584610117
0.0,0.0,0.0,0.0,0.0,0.0,0.0,0.0,0.0,0.0,0.0,0.0,0.0,0.0,0.0,0.0,0.0,0.0,0.0,0.056039001426815886,0.0004526773824819251,0.0,0.19616320923992825,0.006329484063068971,0.002826592646106168,0.010945527361068444,0.0070245049332868965,0.05194101971400284,0.002029952801227355,0.014960202737897036,0.0004224423640023215,0.03368389006836808,0.05444178235261925,0.0,0.005427305179693849,0.05731216495888452,0.0,0.09201314643739504,0.0,0.0,0.1996861967807701,0.014329766182245537,0.0052087137371636776,0.009103162063766618,0.0,0.05207066236115388,0.0,0.007815438984192243,0.0,0.02214380102334749,0.04642927953376832,0.0,0.0026028949492710716,0.04859669517637793
0.0,0.02896951952210066,0.00048665630484768217,0.0009010382035799877,0.061282895463425476,0.001048789222925695,0.002620681963842642,0.001423565401363125,0.001586627366082798,0.020773743147797542,0.0004319628548468404,0.008900927650787236,8.765890443668636e-05,0.001843473927000669,0.02009374495624031,0.00025930590419697905,0.00011049852921433204,0.01634602525611386,0.17207872096759907,0.18567649102882502,0.4750775116226632
0.0,0.026565037295397755,0.0004906944997771688,0.0011119929360449492,0.06399423503628972,0.0012496778364542956,0.0032653855926541814,0.001933279540966921,0.002030212574235589,0.02815165197191467,0.0005712813471645591,0.010445144410002789,0.0003787111687922926,0.0031900793267031925,0.02785355737726539,0.00021361141774115213,0.0006075717473232973,0.01894547426213266,0.198740546743407,0.21711785525383848,0.39314381513603563
0.0,0.0,0.0,0.0,0.0,0.0,0.0,0.0,0.0,0.0,0.0,0.0,0.0,0.0,0.0,0.0,0.0,0.0,0.0,-0.027771815003364314,-0.00022585738547099558,-0.0017205253460060373,-0.08360988803446909,-0.0010549248709315448,-0.00467004583800211,-0.0017132625404532218,-0.0018257783439327535,-0.020118536389146596,-0.00041223306350262706,-0.008118494630857781,-0.0002578544571115985,-0.0026862760075457973,-0.022478378583857202,-0.0001708704496605862,-0.00047232667280139626,-0.016251166539485884,-0.22350779660001613,-0.5829296501642647
0.0,0.0,0.0,0.0,0.0,0.0,0.0,0.0,0.0,0.0,0.0,0.0,0.0,0.0,0.0,0.0,0.0,0.0,0.0,-0.056144724964144986,-0.0004587152095570741,0.0,-0.19605887065115782,-0.006296217454281984,-0.002793352292364959,-0.011195144178038493,-0.0070952534030129565,-0.0517298953014675,-0.002031532730581505,-0.014987315950542986,-0.00041846368022805454,-0.03341105318759975,-0.0545253574757835,0.0,-0.005330798303312794,-0.05751690939813882,0.0,-0.09203109971409935,0.0,0.0,-0.19876700851874443,-0.014142051091708517,-0.0051981756307943215,-0.009415324525590102,0.0,-0.05241590738308249,0.0,-0.007734851707513209,0.0,-0.021913904914207874,-0.046747910813502755,0.0,-0.002637612454953182,-0.04898975742601694
0.0,-0.028088020619623878,-0.00045977670748620803,-0.0010905724137335111,-0.06049154282448251,-0.0007406852576304559,-0.0034150738369503305,-0.00142115425671577,-0.0015311611666397778,-0.020325885885655887,-0.00037665508369905533,-0.00880128111409935,-5.7698951774779834e-05,-0.0016291772201282686,-0.019626036554559724,-0.0002548870149904091,-7.797432615449195e-05,-0.015951200239644026,-0.1704729473060302,-0.18309508236537841,-0.4820895822262805
0.0,-0.02607284413638731,-0.00046169555248194494,-0.0013470986275282756,-0.06346127810005746,-0.0010219538868650564,-0.003942914462698613,-0.0019400431555937141,-0.002013365086887943,-0.027633987319495967,-0.0005583111663855922,-0.010411358534149762,-0.00029799760238853384,-0.0027800625269497974,-0.02739569864970204,-0.00019464789019421028,-0.0004935425828705211,-0.018904410961380638,-0.19749517661234345,-0.2154337308729591,-0.39813562010827347
0.0,0.0,0.0,0.0,0.0,0.0,0.0,0.0,0.0,0.0,0.0,0.0,0.0,0.0,0.0,0.0,0.0,0.0,0.0,0.028842737536016242,0.0002600356603557313,0.0013725738721335125,0.08624001236653094,0.0012235747060780732,0.003927115137101329,0.0016700146788173709,0.0018627252465852494,0.020687947444793797,0.00038363801303455624,0.008122402783196802,0.0003664918718983292,0.003185632650618298,0.02317191927576488,0.0001834269784013089,0.000610470707715895,0.016557072659843453,0.22711563816719982,0.5742164094585822
0.0,0.0,0.0,0.0,0.0,0.0,0.0,0.0,0.0,0.0,0.0,0.0,0.0,0.0,0.0,0.0,0.0,0.0,0.0,0.05603921973434709,0.0004526895713665236,0.0,0.1961630192866328,0.00632941780054445,0.0028265260812526246,0.010946030488239483,0.007024647931410737,0.05194060037652324,0.0020299561845079322,0.01496025878340539,0.0004224344050907604,0.03368334476674997,0.054441955954381796,0.0,0.005427111639881767,0.05731258254162687,0.0,0.09201319187269597,0.0,0.0,0.19968436839768489,0.01432939011135918,0.005208693071497152,0.009103790792984168,0.0,0.05207136198059796,0.0,0.007815277703237925,0.0,0.022143340912206533,0.046429925056980646,0.0,0.002602965035357513,0.04859749061135955
0.0,0.028936389890552035,0.00047533926156864085,0.0008814269462876738,0.06150521317662807,0.001022996873596805,0.002565005877107401,0.0013913603786547264,0.001549911244487427,0.020979655444769502,0.000421741313233424,0.008871558305590443,8.547955113151529e-05,0.0017999737011954457,0.019911447062273036,0.0002533313667533656,0.00010778074117095381,0.015972547550158485,0.17153692517454291,0.1859525612211238,0.47577921990501204
0.0,0.026733442900081405,0.0004759754172247227,0.0011468596171980998,0.06398642715531275,0.001211394191096479,0.0032823260127118727,0.001876233343465786,0.0019698481636649086,0.028380407633724306,0.0005542527434105691,0.0104982425461495,0.00036704874950454813,0.003093239980105104,0.027744989117386612,0.00020717096934106736,0.0005889417205473137,0.01874353671040423,0.1983778672857805,0.21733625436213325,0.3934253869948247
0.0,0.0,0.0,0.0,0.0,0.0,0.0,0.0,0.0,0.0,0.0,0.0,0.0,0.0,0.0,0.0,0.0,0.0,0.0,-0.028703754506842726,-0.0002483708918458923,-0.0014295564666765566,-0.08575444337259684,-0.0011669130420292157,-0.00403403887194032,-0.001654655527424,-0.0018262871526395152,-0.020708136947153403,-0.0003843397973038105,-0.008017198317694344,-0.00033634573648783236,-0.003024450331251914,-0.023245794629790283,-0.00017781734215651694,-0.0005699606280518447,-0.01652144152665654,-0.2262237603872154,-0.5759718539382609
