0.0,0.0,0.0,0.0,0.0,0.0,0.0,0.0,0.0,0.0,0.0,0.0,0.0,0.0,0.0,0.0,0.0,0.0,0.0,0.034049452512008936,0.0,0.0,0.09884324938937754,0.0,0.0,0.0,0.01690651441158779,0.02468578532584853,0.0,0.0048744006335284884,0.0,0.0,0.029665528663395318,0.0,0.0,0.007191246008423546,0.2252251843168439,0.5585584571057729
0,0,0,0,0,0,0,0,0,0,0,0,0,0,0,0,0,0,0,0,0,0,0,0,0,0,0,0,0,0,0,0,0,0,0,0,0,0,0,0,0,0,0,0,0,0,0,0,0,0,0,0,0,0
0.0,0.037593302021501705,0.0,0.0,0.0730759222451512,0.0,0.0,0.0,0.01570141337426638,0.022625479272098598,0.0,0.004054053453191729,0.0,0.0,0.020463317430396345,0.0,0.0,0.004864864143830075,0.17837835194043608,0.2108107795659699,0.43243236834045107
0.0,0.03672479983050015,0.0,0.0,0.07131781708508737,0.0,0.0,0.0,0.01957364001520061,0.0379844895344487,0.0,0.00697674297571507,0.0,0.0,0.031492242598713846,0.0,0.0,0.005232557231786301,0.20930228927145206,0.2325580991905023,0.34883714878575345
0.0,0.0,0.0,0.0,0.0,0.0,0.0,0.0,0.0,0.0,0.0,0.0,0.0,0.0,0.0,0.0,0.0,0.0,0.0,0.03856962656959254,0.0,0.0,0.0956206855997229,0.0,0.0,0.0,0.010060583603881863,0.02188589920596837,0.0,0.002678496465249412,0.0,0.005363098326143811,0.02903613271967919,0.0,0.0,0.01360123896124629,0.22176623561586278,0.5614178238508274
0.0,0.0,0.0,0.0,0.0,0.0,0.0,0.0,0.0,0.0,0.0,0.0,0.0,0.0,0.0,0.0,0.0,0.0,0.0,0.08695646914449183,0.0,0.0,0.15217382100286073,0.0,0.0,0.0,0.0,0.043478234572245915,0.0,0.0,0.0,0.043478234572245915,0.08695646914449183,0.0,0.0,0.08695646914449183,0.0,0.37499977318562105,0.0,0.0,0.12499992439520702,0.0,0.0,0.0,0.0,0.0,0.0,0.0,0.0,0.0,0.0,0.0,0.0,0.0
0.0,0.03264440935780269,0.0,0.0,0.07625912308308712,0.0,0.0,0.0,0.011937370592630451,0.017782471391366676,0.0,0.0030821899480972057,0.0,0.0018385241872879818,0.01788241189824424,0.0,0.0,0.006698950956001469,0.16812545141451787,0.1927829709992955,0.47096598722433036
0.0,0.03491538652870159,0.0,0.0,0.07416307025260005,0.0,0.0,0.0,0.01218817518845966,0.03245892782268711,0.0,0.00434430006717374,0.0,0.007314526408956708,0.03183418121060292,0.0,0.0,0.01218686051777489,0.20940542799695658,0.22388642822086893,0.3573025439985463
0.0,0.0,0.0,0.0,0.0,0.0,0.0,0.0,0.0,0.0,0.0,0.0,0.0,0.0,0.0,0.0,0.0,0.0,0.0,0.0358884062468931,0.0,0.0,0.09508964448729329,0.0,0.0,0.0,0.00653336776065961,0.023424139867757262,0.0,0.004924829873281229,0.0,0.007150159385250422,0.0251334494815991,0.0,0.0,0.019222897688991367,0.22376543917081518,0.5588674876744848
0.0,0.0,0.0,0.0,0.0,0.0,0.0,0.0,0.0,0.0,0.0,0.0,0.0,0.0,0.0,0.0,0.0,0.0,0.0,0.06943116209859093,0.0,0.0,0.16645432290456683,0.0,0.0,0.0,0.0,0.06534209970831054,0.0,0.019263907490342437,0.0,0.030271070723098165,0.06054214144619633,0.0,0.0,0.08869506958893338,0.0,0.15715967828721603,0.0,0.0,0.15609138510356846,0.0,0.0,0.0,0.0,0.06226290758227807,0.0,0.0,0.0,0.0,0.0,0.0,0.0,0.12448580298697598
0.0,0.031046293904426366,0.0,0.0,0.07623778431473203,0.0,0.0,0.0,0.010595518594731481,0.019485966468502595,0.0,0.003251212418482749,0.0,0.002237340589694668,0.017425420169760727,0.0,0.0,0.007068742608432886,0.16734827906876346,0.18923410436279905,0.4760691994529
0.0,0.033804538685010155,0.0,0.0,0.07307168495619604,0.0,0.0,0.0,0.009226076071541583,0.03271324663240724,0.0,0.006691767633944475,0.0,0.007550939351451333,0.02807064194140297,0.0,0.0,0.019274539180581862,0.21040343445253568,0.22408388867881177,0.3551090704215985
0.0,0.0,0.0,0.0,0.0,0.0,0.0,0.0,0.0,0.0,0.0,0.0,0.0,0.0,0.0,0.0,0.0,0.0,0.0,-0.03579454800939144,0.0,0.0,-0.0991797877739635,0.0,0.0,0.0,-0.007540302562528065,-0.019842521340627386,0.0,-0.004991792551230069,0.0,-0.0053188025329945305,-0.027114894878233476,0.0,0.0,-0.01791898299449053,-0.2272166452809313,-0.5550807614961247
0.0,0.0,0.0,0.0,0.0,0.0,0.0,0.0,0.0,0.0,0.0,0.0,0.0,0.0,0.0,0.0,0.0,0.0,0.0,-0.0693434023589695,0.0,0.0,-0.16653735046593213,0.0,0.0,0.0,0.0,-0.06545018501079071,0.0,-0.019367227643968983,0.0,-0.03019664348795718,-0.06039328697591436,0.0,0.0,-0.0887106300029385,0.0,-0.15605592935840762,0.0,0.0,-0.15643900595948487,0.0,0.0,0.0,0.0,-0.062425786462284756,0.0,0.0,0.0,0.0,0.0,0.0,0.0,-0.12507800416629417
0.0,-0.033239392008077434,0.0,0.0,-0.07842655063226549,0.0,0.0,0.0,-0.009198025977042182,-0.012871138960968741,0.0,-0.003057476109907898,0.0,-0.0013913377595187015,-0.016495797910103045,0.0,0.0,-0.008530995341433745,-0.16321071469931714,-0.19423739671158605,-0.47934045104294615
0.0,-0.0326516682781954,0.0,0.0,-0.07471503757239438,0.0,0.0,0.0,-0.01095216905428835,-0.024980663015586303,0.0,-0.005707147376907284,0.0,-0.00518065500923859,-0.030547603190188396,0.0,0.0,-0.017897304517609274,-0.2026322480144079,-0.22343559709594848,-0.3712990052033786
0.0,0.0,0.0,0.0,0.0,0.0,0.0,0.0,0.0,0.0,0.0,0.0,0.0,0.0,0.0,0.0,0.0,0.0,0.0,0.03399990740942724,0.0,0.0,0.09508034181864317,0.00010472977930317969,0.0,0.0,0.005746742790094661,0.02538678914811159,0.0,0.006897196123159149,0.0,0.003984203091739846,0.021709678350829677,0.0,0.0027946624405876543,0.014999262816349772,0.21963011701222984,0.5696661985832905
0.0,0.0,0.0,0.0,0.0,0.0,0.0,0.0,0.0,0.0,0.0,0.0,0.0,0.0,0.0,0.0,0.0,0.0,0.0,0.06936050207060436,0.0,0.0,0.16651186646814747,0.0,0.0,0.0,0.0,0.06543025524777563,0.0,0.019341557491609693,0.0,0.03021784437323005,0.0604356887464601,0.0,0.0,0.08870205956221403,0.0,0.15628141279476504,0.0,0.0,0.15621620166623737,0.0,0.0,0.0,0.0,0.06251436052912475,0.0,0.0,0.0,0.0,0.0,0.0,0.0,0.12498779896991419
0.0,0.03335924765252794,0.0,0.0,0.0778196100788923,0.0,0.0,0.0,0.00917132950834267,0.014104417283630627,0.0,0.0036437817219016704,0.0,0.0013345070845876407,0.016234004194482017,0.0,0.0,0.008931728508742468,0.16459862603310718,0.19489595797495898,0.4759066558150939
0.0,0.03209512018519793,0.0,0.0,0.07497370513676024,0.0,0.0,0.0,0.009386563173635695,0.02936324107152625,0.0,0.006889840588332853,0.0,0.004419711346034449,0.027284756294847567,0.0,0.0025806651357979716,0.016247720911815602,0.20324132384394875,0.22080408206430932,0.37271310578516476
0.0,0.0,0.0,0.0,0.0,0.0,0.0,0.0,0.0,0.0,0.0,0.0,0.0,0.0,0.0,0.0,0.0,0.0,0.0,-0.021013736746539866,-0.0005599246042899715,-0.003351627899478338,-0.0741592480512415,-0.00225382230551481,-0.00801006852882338,-0.002225271362958963,-0.00410196014080122,-0.0185427786077954,0.0,-0.00925101959907357,-0.00048046901919835273,-0.0057999725719586675,-0.02117677467466917,0.0,-0.0010487356130497243,-0.011069346448997933,-0.22312684750091719,-0.5938270837565236
0.0,0.0,0.0,0.0,0.0,0.0,0.0,0.0,0.0,0.0,0.0,0.0,0.0,0.0,0.0,0.0,0.0,0.0,0.0,-0.0335510534864186,-0.0012219883764649267,-0.014790699412565991,-0.1665776064119053,-0.013365352886662001,-0.040045106970394664,-0.009162279031595682,-0.011071648527495256,-0.04898056034747829,0.0,-0.026754135102191094,-0.0025763890327372353,-0.02472923663866237,-0.07349821189490453,0.0,0.0,-0.03367378086455329,0.0,-0.0575751985181928,-0.0105905659293627,-0.029967212217205285,-0.14511366579736726,-0.021182759926962762,-0.06527055016875391,-0.007951952817954848,-0.010577251842837285,-0.047044887529356844,0.0,-0.010591665854836434,-0.005305158987909825,-0.010584403257479641,-0.043264399513957885,0.0,0.0,-0.03497837662185174
0.0,-0.019896103795216606,-0.00044389269629979683,-0.002444050089321559,-0.05414904789043613,-0.003333059205433051,-0.008657004846329079,-0.0015752539078402242,-0.004890927096818797,-0.012496315487604638,0.0,-0.0056155687395891265,-9.809528922043157e-05,-0.0027947720221063173,-0.016000919381219666,0.0,0.0,-0.0062381851547783,-0.1418583409418126,-0.16580869958347208,-0.5536987900235167
0.0,-0.018497182005264415,-0.0007318858234244215,-0.004396553898796551,-0.052916154368628225,-0.002315211654005496,-0.010263848461712348,-0.0018106881962407391,-0.005598289177803384,-0.02140832892612947,0.0,-0.008965742570481565,-0.0007835003890246674,-0.004856926706133439,-0.022120930101271943,0.0,-0.0008329591722238419,-0.01232852976661322,-0.17322779979879746,-0.20385452031806658,-0.4550897367354047
0.0,0.0,0.0,0.0,0.0,0.0,0.0,0.0,0.0,0.0,0.0,0.0,0.0,0.0,0.0,0.0,0.0,0.0,0.0,0.021696050190792474,0.0005105914378458039,0.0029832926681241864,0.07743224368965859,0.0020303374802185985,0.007044592852161181,0.0019720327431661717,0.004649629380581823,0.02032457935575882,0.0,0.00872847247616072,0.0004241331470748204,0.006184426355803677,0.02208534216112676,0.0,0.001579781203811208,0.011774567067142078,0.2237177155124247,0.5868620586279379
0.0,0.0,0.0,0.0,0.0,0.0,0.0,0.0,0.0,0.0,0.0,0.0,0.0,0.0,0.0,0.0,0.0,0.0,0.0,0.03378927800736256,0.0010481598951866658,0.012690553158320225,0.16594085125104135,0.011460358502129562,0.03434294088715686,0.007858479049169144,0.01181045414126537,0.052505026028793485,0.0,0.02498678081558096,0.002210033752494082,0.025928827203135458,0.07618521187205202,0.0,0.0014056798008402047,0.03783716025820033,0.0,0.06823320603165943,0.009084052424951096,0.025742009763730093,0.13859192502434137,0.018167945262681246,0.056022042232001856,0.006812154335766307,0.018222276209658467,0.04240063484256374,0.0,0.0182208633130338,0.0045410581405823415,0.009084656505085272,0.04622821264814367,0.0,0.0,0.038648757888529485
0.0,0.02102377026675846,0.00041305195571212484,0.0022233151627958797,0.056499779398445395,0.0030589180731685466,0.007485908089505194,0.0014480903188688642,0.004783396634229994,0.013592784038172701,0.0,0.005286701509033079,9.024442612500004e-05,0.0031300006208807366,0.018529530145972296,0.0,0.00021123650938496588,0.0071350339439224,0.14778999300174006,0.1701802927736616,0.5371178352457953
0.0,0.019042590570206897,0.000688942292668425,0.004046751840205453,0.055297110258760815,0.0020948474819566503,0.009075543826261145,0.0016885661995368496,0.005940398569764327,0.023235951392793483,0.0,0.008681137080540923,0.0007345660445275745,0.005135980757789033,0.023266338728755834,0.0,0.0012244023931143842,0.01300286044946743,0.1781021276457197,0.20549074802449105,0.44325099615804986
0.0,0.0,0.0,0.0,0.0,0.0,0.0,0.0,0.0,0.0,0.0,0.0,0.0,0.0,0.0,0.0,0.0,0.0,0.0,-0.02245791116774983,-0.00047251026832017347,-0.0028054945250277513,-0.07838200232264955,-0.0018949189342708631,-0.006678169685820484,-0.002053320642931462,-0.00420048877610463,-0.018894703549021133,0.0,-0.0080342560248884,-0.00040107148088114537,-0.005924344177969318,-0.023579539382767783,0.0,-0.0013257549210324766,-0.011832932327405949,-0.22212111753010572,-0.5889406361673583
0.0,0.0,0.0,0.0,0.0,0.0,0.0,0.0,0.0,0.0,0.0,0.0,0.0,0.0,0.0,0.0,0.0,0.0,0.0,-0.03427669283448164,-0.0010303152508742519,-0.012472021126210235,-0.16657730296384077,-0.011267680896292766,-0.03376196091130566,-0.00809035308232031,-0.011585237251781717,-0.0518843506019441,0.0,-0.02454459209102665,-0.00217231978662841,-0.02580578764073557,-0.07695320224508345,0.0,-0.0013649595892370467,-0.03821207020928277,0.0,-0.06688732526805088,-0.008929398840910194,-0.025279446314773142,-0.13620510474979947,-0.01785964566676607,-0.05504486514717256,-0.0067017515887612894,-0.01779470148315326,-0.04167697117662312,0.0,-0.01780220907092025,-0.004469843381149801,-0.00892618899204619,-0.04534415207210551,0.0,0.0,-0.047077242728813425
0.0,-0.023169547643714913,-0.0003489858146369407,-0.0019070575092613618,-0.05839758510277118,-0.0026083617455486922,-0.006644571264558666,-0.0014063615051459896,-0.003957448545316971,-0.01363680840607109,0.0,-0.004450727899088405,-7.68283520379957e-05,-0.003523429851857326,-0.019801442594940186,0.0,-0.00015467496591030025,-0.009195724021899384,-0.1542091141843711,-0.17079260118105033,-0.5257180826687593
0.0,-0.020592643779936096,-0.0006369280563965869,-0.003796872027086758,-0.05479955848105488,-0.0019879016486401527,-0.008745470297979134,-0.0018003172377789355,-0.005459396584008061,-0.022993084598163082,0.0,-0.00805205453031161,-0.0006809022324426319,-0.005100119279916047,-0.026335980586368515,0.0,-0.0010647270300564535,-0.014462641598851394,-0.18269334586489203,-0.2074798346407059,-0.4333174461006689
0.0,0.0,0.0,0.0,0.0,0.0,0.0,0.0,0.0,0.0,0.0,0.0,0.0,0.0,0.0,0.0,0.0,0.0,0.0,-0.024546257487918468,-0.00044484133270452546,-0.002641601805805422,-0.0798920940517778,-0.0017840970866444556,-0.0063429417186282085,-0.00257996027240972,-0.00446641024828385,-0.017777737734955588,0.0,-0.00756342076732388,-0.0003776604954755239,-0.005575417045673431,-0.024097583652313702,0.0,-0.0012469461178479897,-0.013129803235846732,-0.22371990961426058,-0.5838124654557436
0.0,0.0,0.0,0.0,0.0,0.0,0.0,0.0,0.0,0.0,0.0,0.0,0.0,0.0,0.0,0.0,0.0,0.0,0.0,-0.03426630994088626,-0.0010307129249397535,-0.012476844524098151,-0.16656373618337936,-0.011272020566814011,-0.03377497789652226,-0.008085418136416231,-0.011589998192345023,-0.05189756782901466,0.0,-0.024554303941804557,-0.0021731585850344464,-0.02580827307193795,-0.07693617178450075,0.0,-0.0013656700809185347,-0.0382037083881408,0.0,-0.06691545274838046,-0.008932845349477856,-0.02528929699863272,-0.1362589965873475,-0.017866535146974383,-0.055066201039542,-0.006704316856334935,-0.017802795112085153,-0.04169324083795216,0.0,-0.017810271385864086,-0.004471545180083564,-0.00892964888882483,-0.04536280095565773,0.0,0.0,-0.046894924959595435
0.0,-0.026839227466110185,-0.000316317007888502,-0.001728804893063814,-0.059250836883684335,-0.0023644154916043023,-0.006025570070499075,-0.002020516468546973,-0.004022272438228173,-0.012340025056232665,0.0,-0.0040339426654329436,-6.964185246762227e-05,-0.0031869653342157414,-0.020041149048364168,0.0,-0.00013997526540712773,-0.010402114082325694,-0.1622871145221707,-0.17228251084799945,-0.5126479273847738
0.0,-0.02415746643764733,-0.0005867713674482321,-0.0034983948189444337,-0.055100327074805895,-0.0018318356228689276,-0.008060090420406476,-0.002412578122966637,-0.005850239119080716,-0.021166000010099606,0.0,-0.0074182247402738224,-0.0006272993875525437,-0.004695694659166772,-0.027258388593559713,0.0,-0.0009802637503081911,-0.01702947315874378,-0.18944806778605258,-0.20921540687372378,-0.42066267563466
0.0,0.0,0.0,0.0,0.0,0.0,0.0,0.0,0.0,0.0,0.0,0.0,0.0,0.0,0.0,0.0,0.0,0.0,0.0,0.02565979498926013,0.00040673428437357277,0.0023764795280272876,0.08269435813704536,0.001617355702585902,0.005665534193236758,0.0023877489151469086,0.005624569765905538,0.018335967746435103,0.0,0.007893003232345335,0.0003378631038214595,0.005115954480891522,0.02399165484644109,0.0,0.0012578923705758578,0.013627223127673617,0.23026760747191893,0.5727400980457269
0.0,0.0,0.0,0.0,0.0,0.0,0.0,0.0,0.0,0.0,0.0,0.0,0.0,0.0,0.0,0.0,0.0,0.0,0.0,0.0342563102360928,0.001030127193491999,0.01247221672868371,0.16655146691450995,0.011263198869729697,0.033752109024998325,0.008080399934484004,0.01159668204726972,0.051910768709569975,0.0,0.02454755972073523,0.00217201177387,0.025818274448278146,0.07695706210069315,0.0,0.001375076447747145,0.03821652970620016,0.0,0.06697304124525032,0.008927769010264005,0.02529907922211198,0.13614242176959765,0.017855383704350306,0.05505817167421079,0.006694971005057261,0.017867027894102473,0.041661709747203464,0.0,0.01786566166436693,0.004462948407909074,0.008928353138095837,0.04539119699668084,0.0,0.0,0.04687205837715309
0.0,0.026594522041764823,0.0002750653044715159,0.0014805765731480964,0.060816285939461444,0.0020370336081914505,0.004985070958058949,0.0018208261929963273,0.005317404259435598,0.01317492795947892,0.0,0.003836302539090548,6.009673442788959e-05,0.0028033201530076866,0.019102326324756357,0.0,0.00014053135209527253,0.010994301806216788,0.1621726328523214,0.18352840534428871,0.5008602453298017
0.0,0.024425112922844407,0.0005263448852071508,0.0030916761679501657,0.05639973854978988,0.0016004412222871156,0.006933616759157634,0.002201527279966293,0.007617302232361319,0.021254522927282395,0.0,0.007618000199128889,0.0005612009351615812,0.004218824758227338,0.02684610296920929,0.0,0.000935057995561268,0.01768620564093619,0.18993553023687232,0.21600971499546315,0.41213893171916205
0.0,0.0,0.0,0.0,0.0,0.0,0.0,0.0,0.0,0.0,0.0,0.0,0.0,0.0,0.0,0.0,0.0,0.0,0.0,0.02636262741568906,0.0003570028498238057,0.0020849041316797043,0.08370654812130504,0.0014192422333324422,0.004969333955876101,0.002291071786165122,0.004941283661150422,0.019649806380105488,0.0,0.006929656900358785,0.00029636023330996284,0.004541755305267079,0.026444557046702177,0.0,0.001107131757771702,0.01665422980708448,0.2309363812001238,0.5673079113517859
0.0,0.0,0.0,0.0,0.0,0.0,0.0,0.0,0.0,0.0,0.0,0.0,0.0,0.0,0.0,0.0,0.0,0.0,0.0,0.03425605633542569,0.0010301117635933465,0.012472093143102846,0.16655114042754904,0.011262968124281533,0.03375150909235197,0.008080273467582591,0.011596848928632135,0.05191109211553439,0.0,0.0245473770098737,0.002171981503487541,0.025818526238978363,0.07695760016645298,0.0,0.00137531721265368,0.03821685965270815,0.0,0.06697449191954533,0.008927635284475688,0.0252993204781298,0.13613937648667,0.017855090621710458,0.05505794432597291,0.006694728574937832,0.017868668747018684,0.04166088431429951,0.0,0.0178670755940843,0.004462726064446225,0.008928316432708031,0.04539190753308068,0.0,0.0,0.046871588805128477
0.0,0.026620108659575363,0.0002509559049617385,0.0013501780976124067,0.060935206905994105,0.0018579646446465876,0.004541125193595184,0.0016628468441285192,0.004857594398697759,0.01568903299960624,0.0,0.0035010543375088373,5.481653779114474e-05,0.0025584905965114904,0.019838796345775483,0.0,0.00012873123363381638,0.013874620361559639,0.16570196643810498,0.18519819041079086,0.49137816681168694
0.0,0.024694568001253393,0.0004732258864068522,0.0027784504812853944,0.057061160715055535,0.0014378082884158104,0.006226136911026609,0.0021313347086206495,0.006851160098154956,0.023979333506153933,0.0,0.006848748472214384,0.0005045251456015106,0.0037932341784262455,0.028622515054025008,0.0,0.000842146106079023,0.02079539668027747,0.19425343797522124,0.21767567953353364,0.4010309569484137
0.0,0.0,0.0,0.0,0.0,0.0,0.0,0.0,0.0,0.0,0.0,0.0,0.0,0.0,0.0,0.0,0.0,0.0,0.0,0.025421440247761308,0.00033095151722305004,0.0019339762540858147,0.08502833325802248,0.0013670847016742098,0.004610909548024594,0.0022811901916273,0.005179033988652025,0.01987986911530968,0.0,0.007121832976001517,0.0002749666053248082,0.004892439059173523,0.02695326301726929,0.0,0.0010226647069708629,0.01584290124476161,0.23063915973182098,0.5672198276625556
0.0,0.0,0.0,0.0,0.0,0.0,0.0,0.0,0.0,0.0,0.0,0.0,0.0,0.0,0.0,0.0,0.0,0.0,0.0,0.03455906068070764,0.0009161374920839698,0.011092068040878547,0.1737712338369225,0.010016882189977233,0.03001727279602437,0.00826414923007185,0.0125202519822955,0.05241541190829912,0.0,0.0239869380918152,0.0019316649024034543,0.026156183238476474,0.07806453469036198,0.0,0.0012228180020492883,0.03506519821164969,0.0,0.07536972566795,0.007939858264727727,0.022499352973977423,0.14083796975614357,0.015879588904750372,0.04896543340466844,0.011882584486344525,0.015889218972855928,0.04495689727875415,0.0,0.015888089054595687,0.00396915494825848,0.0079403413582268,0.04629626789343901,0.0,0.0,0.04168532232932471
0.0,0.025708030698857742,0.0002385900618065205,0.0012844160611021661,0.06171718211667334,0.0017670553784560536,0.00432595087272195,0.0016381843618076422,0.005006061348366301,0.01621547134492038,0.0,0.0035656914369327094,5.213106788926353e-05,0.0026895482903966654,0.019612755299864615,0.0,0.00012175361421168116,0.013354147508866397,0.1648694868513506,0.18461825543546387,0.49321516661433346
0.0,0.023896888786885954,0.00043817581042213826,0.0025741209872709504,0.0586656614121605,0.0013326588702158798,0.005774307536945075,0.0021997125759600053,0.006773801760764315,0.02465048914424823,0.0,0.00677756468273685,0.0004672039451899491,0.004363634980046467,0.028577330844593667,0.0,0.0007780194047965874,0.019863688706351242,0.19380875623704646,0.2175994729935147,0.4014583669329899
0.0,0.0,0.0,0.0,0.0,0.0,0.0,0.0,0.0,0.0,0.0,0.0,0.0,0.0,0.0,0.0,0.0,0.0,0.0,0.025779451904801264,0.00029168790071772073,0.001703464079808284,0.08681500076483492,0.0012045818257665206,0.0040601786728024095,0.0022502261079313324,0.004743843058232569,0.01943566409692803,0.00046817678257269463,0.006281236127096439,0.00024214018700522783,0.005833769782855816,0.029134924421724526,0.0,0.0009045761568897398,0.018973007359217812,0.23363889759205517,0.5582389711142696
0.0,0.0,0.0,0.0,0.0,0.0,0.0,0.0,0.0,0.0,0.0,0.0,0.0,0.0,0.0,0.0,0.0,0.0,0.0,0.039622302428774986,0.0007500372401478073,0.00908108661817092,0.17879556055319412,0.00820070791493146,0.024574895536945012,0.00815734330825996,0.010915281453960986,0.04887855089670078,0.0011184722789051205,0.019645710836302913,0.0015814468527373263,0.02591619060991243,0.07883612690190947,0.0,0.0010013849633557263,0.042924657939258676,0.0,0.07468205716319795,0.006500322747947687,0.018420749600767377,0.15251722818708255,0.013000514540307118,0.04008837533917636,0.018366162435828753,0.013010395944007165,0.04167915309609939,0.0,0.013009236535957593,0.0032493669844014233,0.006500818449726486,0.04707952680068657,0.0,0.0,0.051895848508281425
0.0,0.024945132722235436,0.0002090443315265878,0.001124688257816042,0.06244726521547632,0.001547670478098939,0.0037827258706891755,0.0015415648018110232,0.0043956028191343395,0.017045147739159924,0.0005878354877766434,0.0031259902923415636,4.566175942978868e-05,0.0030847839362495733,0.02042895888033812,0.0,0.00010723185496595336,0.016654184331624626,0.1680845033450808,0.1854176272217108,0.48542422410381253
0.0,0.023727082295255192,0.00038300985230010307,0.0022487659432137578,0.05908880959834558,0.001163704430786661,0.005039187564017532,0.0021994501017195737,0.0061109960328316875,0.025220565859302893,0.0007401736364141992,0.005925776649043852,0.00040834222785717997,0.004963088264363918,0.030167192893341483,0.0,0.0006815980421498814,0.023738762302805885,0.19855835100704516,0.21934647350685588,0.3902884838570737
0.0,0.0,0.0,0.0,0.0,0.0,0.0,0.0,0.0,0.0,0.0,0.0,0.0,0.0,0.0,0.0,0.0,0.0,0.0,-0.02587313939890345,-0.00028130490167686443,-0.0016707404329261923,-0.08689205992580226,-0.0011718794398679956,-0.0040401085997872534,-0.0023954145379931264,-0.004395651136634684,-0.018652994262025477,-0.00044795196344700504,-0.006289467481025218,-0.00023887290006473645,-0.005601124575284519,-0.029408937753709757,0.0,-0.0007877226249433945,-0.01799520186544703,-0.23293416587300056,-0.5609223363145005
0.0,0.0,0.0,0.0,0.0,0.0,0.0,0.0,0.0,0.0,0.0,0.0,0.0,0.0,0.0,0.0,0.0,0.0,0.0,-0.03966520060516549,-0.0007493079097213645,-0.009070376719152827,-0.17885353927641298,-0.008194577666331464,-0.024553804270072345,-0.008159216019022605,-0.01090141165738228,-0.04884468572013743,-0.0011246738771455026,-0.019622963108493898,-0.0015798417877713922,-0.02590862744139309,-0.07882129172190357,0.0,-0.0009926419677648512,-0.04295666609613931,0.0,-0.07465847351113233,-0.006494001884251833,-0.018384402173991447,-0.1527122728113397,-0.012988634881451373,-0.04003163779648815,-0.018402588302186256,-0.012941013532087988,-0.04168228736141537,0.0,-0.012946601055628094,-0.003250829335794157,-0.0064916129536599495,-0.04705181063530178,0.0,0.0,-0.05196265960928198
0.0,-0.025428438235964492,-0.00020221876169601054,-0.0011053388840100147,-0.06282099831644584,-0.0015116581870311505,-0.003853534783705076,-0.0017411935127003557,-0.004019048458204016,-0.016555385341860376,-0.000560032758804579,-0.0032425697014761205,-4.45240577240211e-05,-0.002941157229785646,-0.020386319756362948,0.0,-8.937869525656734e-05,-0.015526277450337201,-0.1664880327862561,-0.18359475688200197,-0.48988842003902455
0.0,-0.023917885747491725,-0.0003688797238204655,-0.002199603280555065,-0.05974058141850294,-0.0011518800048981872,-0.005068985413726422,-0.0023639592458337276,-0.0057280672431726624,-0.024648730368971097,-0.0007075688364206782,-0.006156951203282231,-0.00039436781897611914,-0.004773035764350774,-0.030526651067662187,0.0,-0.0006158900485193298,-0.02252973702319031,-0.19762539117797648,-0.21821708466896797,-0.39326388808747315
0.0,0.0,0.0,0.0,0.0,0.0,0.0,0.0,0.0,0.0,0.0,0.0,0.0,0.0,0.0,0.0,0.0,0.0,0.0,-0.025890921333801973,-0.00026937562790997475,-0.0015983171017630692,-0.08761857669875453,-0.0011216104180207546,-0.0039491716656929925,-0.0022926835642097564,-0.004219365073776215,-0.018456631194751726,-0.0007534655534107996,-0.00644746260696643,-0.00022844155423372802,-0.00584200062498232,-0.028825186711065733,0.0,-0.0007590863656101127,-0.017426534669094915,-0.23336338146038318,-0.5609369345685163
0.0,0.0,0.0,0.0,0.0,0.0,0.0,0.0,0.0,0.0,0.0,0.0,0.0,0.0,0.0,0.0,0.0,0.0,0.0,-0.041434803230567196,-0.0006730155070005798,-0.00814697867306274,-0.18460312029384657,-0.007360109404392853,-0.023245631674604677,-0.007328209904574927,-0.009791852812721314,-0.04771648933108474,-0.00366228171419884,-0.021201271273977616,-0.0014189911500269328,-0.02632710509796211,-0.07642298273163205,0.0,-0.0008920780555365925,-0.03977402760438065,0.0,-0.07837609033578494,-0.0058328010606716885,-0.016513750657873836,-0.15694401042679043,-0.01166611954106109,-0.03595688217077971,-0.016527714789238677,-0.011627077044415455,-0.04309884507315108,-0.005662038015715043,-0.011631657991238427,-0.002919539249606697,-0.005830842489235411,-0.050742389745144695,0.0,0.0,-0.04666918986886323
0.0,-0.025404856026184027,-0.00019899435155049585,-0.001086750710128788,-0.06308861507462833,-0.0014867493354911634,-0.003781314206779926,-0.0017138565216873645,-0.0039678861513509295,-0.016358547456128244,-0.0005964807615455272,-0.0031917356661095653,-4.3794528268806725e-05,-0.003038302201730406,-0.020181194561956963,0.0,-8.874937430165959e-05,-0.015311513586679829,-0.16591418770737934,-0.1833759033688919,-0.4911699074618302
0.0,-0.02379366549723724,-0.00035427903561135603,-0.0021106233187101918,-0.0604508220922388,-0.0011045228503325432,-0.004908675657438175,-0.0022694305453617863,-0.005510294302086003,-0.024124283613056807,-0.001011885176530683,-0.0060698083648652364,-0.00037869644121073844,-0.005022838606764056,-0.030148739568630258,0.0,-0.0005938130904812198,-0.021879429955669206,-0.19645372621306026,-0.21800919209654507,-0.3958044825976064
0.0,0.0,0.0,0.0,0.0,0.0,0.0,0.0,0.0,0.0,0.0,0.0,0.0,0.0,0.0,0.0,0.0,0.0,0.0,0.0265305310927485,0.0002543121221565067,0.0014859195867328629,0.08828431809548179,0.0010504979041675543,0.0036564288981182727,0.0021798076137240848,0.004131623825098114,0.019781504698970803,0.0007495784973633809,0.006563924466372761,0.00021125340758800453,0.005587872237758256,0.028630301369281907,0.0,0.0007864505201216984,0.017424556563872488,0.2340191791537079,0.5586717723382119
0.0,0.0,0.0,0.0,0.0,0.0,0.0,0.0,0.0,0.0,0.0,0.0,0.0,0.0,0.0,0.0,0.0,0.0,0.0,0.04147136792471681,0.0006707260143351967,0.008120782471600628,0.18474776437151935,0.007333581589294363,0.02320172089869194,0.007302148157318882,0.009764416318762296,0.04769591555417149,0.0037356418744184062,0.021244430197130078,0.001414218322457216,0.02634466194332402,0.07637116595996638,0.0,0.000895320423255073,0.039685933937890105,0.0,0.07849509873183866,0.005812958790905041,0.01647246800336905,0.15696589741060563,0.011625817640197643,0.035848908202452755,0.016469775431278547,0.01163335884888434,0.04311854060276334,0.005820586271284172,0.011632474021351678,0.002905873139729551,0.005813337096525787,0.05088233171801079,0.0,0.0,0.046502370049655226
0.0,0.02579310230318748,0.0001918037942209917,0.0010324226848182564,0.06346851839347836,0.0014204396451658271,0.0034762442291110455,0.0016917367649974208,0.0040264988961914265,0.016763100157535078,0.0005888865792049864,0.003461276732391067,4.190587382595141e-05,0.0029850617595059796,0.02037804819790932,0.0,9.798252012917714e-05,0.015466724613419762,0.16730802192834873,0.18488662009922674,0.48692147463547525
0.0,0.024251663744497106,0.00034238012604328663,0.0020111157029996975,0.06096345610473577,0.0010410860174065303,0.004565847944913149,0.002212686584470461,0.005458891879929879,0.024839616389049413,0.0010089751699860585,0.006205703744713774,0.00036505424297257854,0.004889914818929407,0.0302893200099707,0.0,0.0006082150640376551,0.021985409077798772,0.1976278366688952,0.21899326214871218,0.3923394102807158
0.0,0.0,0.0,0.0,0.0,0.0,0.0,0.0,0.0,0.0,0.0,0.0,0.0,0.0,0.0,0.0,0.0,0.0,0.0,0.025417736009627757,0.00022240038131047791,0.0014164284857372434,0.08666319691462232,0.0009222834613628639,0.0041122960469489305,0.001906680692559576,0.004015930100123107,0.020548731409797523,0.0008404147138564321,0.007779208456782668,0.0001846295014496147,0.004888475566691745,0.02876136445470542,0.00015825642508528054,0.0007386100956470523,0.01773601649356413,0.23889179633229418,0.5547953462537324
0.0,0.0,0.0,0.0,0.0,0.0,0.0,0.0,0.0,0.0,0.0,0.0,0.0,0.0,0.0,0.0,0.0,0.0,0.0,0.04147118189519665,0.0006707150578978276,0.008120689546925353,0.18474783123064098,0.0073334228136320906,0.023201409711833577,0.007301999369519787,0.009764410551330222,0.047696097139504214,0.003735930061810433,0.02124454251430991,0.0014141966430785094,0.026344849479818886,0.07637134316254883,0.0,0.0008954700268529058,0.03968566981427793,0.0,0.07849581457602117,0.005812863835114505,0.016472588611811015,0.15696372795778002,0.011625611624112327,0.0358486979334629,0.01646946227578814,0.011634368016587881,0.04311813962377783,0.005821094983474992,0.011633340608718575,0.002905727970315972,0.00581330310057295,0.05088361678778837,0.0,0.0,0.04650140111385156
0.0,0.023956218097707482,0.0001662980288303181,0.0008947320524829498,0.061631816277969445,0.0012312169093417111,0.004241603766318552,0.001467831945565274,0.0037588124106346034,0.01634432183418848,0.0005109407621396733,0.004515630056260761,3.63251504091045e-05,0.002589592194246337,0.02034040989316401,0.0,8.528397244769849e-05,0.015243288557184058,0.16432139334611948,0.18334437188122985,0.49531976170978215
0.0,0.022719209770444296,0.0002937475484285677,0.0018651218184926877,0.059478864456833605,0.0008925394183069133,0.005397889081928545,0.0018988851834583476,0.005069239379969514,0.025087837377153126,0.0010537406511351888,0.007364128654945377,0.0003131775612929014,0.004196152019768421,0.029900172089471412,0.00014066683109349167,0.0005226936122931329,0.021398316058806842,0.19464220371854407,0.21996888604447074,0.39779634868345165
0.0,0.0,0.0,0.0,0.0,0.0,0.0,0.0,0.0,0.0,0.0,0.0,0.0,0.0,0.0,0.0,0.0,0.0,0.0,-0.0253659267075768,-0.00021855287834661596,-0.0014133895427040496,-0.08621955613503922,-0.0009246012053695398,-0.004110772796602679,-0.001859518400469988,-0.0038112350440228124,-0.020653129546533835,-0.0007941388347531341,-0.007520224358937643,-0.00018551187475560258,-0.00474060556169857,-0.029038102898359182,-0.00015592485617106432,-0.0006614474789956226,-0.01733463837469461,-0.2373482893145415,-0.5576435320740342
0.0,0.0,0.0,0.0,0.0,0.0,0.0,0.0,0.0,0.0,0.0,0.0,0.0,0.0,0.0,0.0,0.0,0.0,0.0,-0.04147243963680275,-0.0006714363469296278,-0.008127772696540345,-0.1847238165686688,-0.007342927933233571,-0.023218838012445002,-0.007311077913391949,-0.009768527330000483,-0.04769231999541971,-0.003714975714229194,-0.0212341946522752,-0.0014156584168642924,-0.026335458147462798,-0.07637210106698578,0.0,-0.0008896130745209235,-0.039707695580788474,0.0,-0.07845257422891494,-0.005819115006723439,-0.01647412062369391,-0.15703802181944268,-0.011638782683353947,-0.03587166338442732,-0.016489009804201968,-0.011597080343349123,-0.04312955831494974,-0.005779926356159251,-0.011601973375771952,-0.0029129100537736642,-0.005817023003932189,-0.050816984721950835,0.0,0.0,-0.04656010936591422
0.0,-0.024030235607930946,-0.00016588295439764404,-0.0009064711944037178,-0.061267798091186175,-0.001239822478299169,-0.004422165822865054,-0.0014272181551246606,-0.003565022042980222,-0.016678189430246092,-0.0004969822062156521,-0.004440598615606014,-3.651855651949581e-05,-0.0025315103545615206,-0.020261067713456878,0.0,-7.352859329353616e-05,-0.014997873721714962,-0.16364595075857777,-0.18201635622308462,-0.4977961237631526
0.0,-0.023123502959384264,-0.0002876628333907154,-0.0018542846600985497,-0.05929746846218641,-0.0008978252385553147,-0.005493263948683559,-0.0018419548768591444,-0.004848048045739411,-0.025613485810921457,-0.001007948313788119,-0.007177203931205786,-0.0003075236314826409,-0.0040801056336131495,-0.030107804196168705,-0.0001382436466209042,-0.00048086655856590413,-0.021085728880641044,-0.1945342974869996,-0.21955980150074195,-0.398262151079802
0.0,0.0,0.0,0.0,0.0,0.0,0.0,0.0,0.0,0.0,0.0,0.0,0.0,0.0,0.0,0.0,0.0,0.0,0.0,-0.02519944521057337,-0.0002118249718035556,-0.0013686990600231658,-0.08661865480711094,-0.0008956211058799911,-0.003980453706895106,-0.001803063301502023,-0.004075866397518055,-0.020920806363751144,-0.00077147581077077,-0.007412782711264282,-0.0001795744875109743,-0.004934716083211128,-0.02883329778391918,-0.00015111898109457784,-0.0006446698965820955,-0.017341948690291337,-0.23695075474986513,-0.5577043907785341
0.0,0.0,0.0,0.0,0.0,0.0,0.0,0.0,0.0,0.0,0.0,0.0,0.0,0.0,0.0,0.0,0.0,0.0,0.0,-0.043380526012083295,-0.0006287559547982651,-0.0076112334933477735,-0.18681385544213588,-0.006876061652337511,-0.02174341181093835,-0.0068462622051918,-0.009555574394652759,-0.05074722723429097,-0.0034804832716150732,-0.019886623211834806,-0.001325674858860986,-0.026827397706944207,-0.07368631047001055,0.0,-0.0008335155538312666,-0.0397560569404863,0.0,-0.08141094676158792,-0.0054492182749182935,-0.015428001101181126,-0.16293023853094216,-0.010898909814459286,-0.0335924839613307,-0.015440751066938636,-0.010863199091014495,-0.04700796939124327,-0.005415660133443902,-0.01086738911314846,-0.002727480007548981,-0.005447426842276503,-0.048919393541955854,0.0,0.0,-0.043599902581369976
0.0,-0.02362081117348436,-0.00016052673713083765,-0.0008764615264911666,-0.061659371782218496,-0.0011991707461005367,-0.004269347851411628,-0.0013830927678255328,-0.003870856322652114,-0.01727772134576792,-0.0004816072577803018,-0.004300717709870292,-3.5324348833924694e-05,-0.0028739580422071516,-0.019970787158186065,0.0,-7.176613952499722e-05,-0.015577731878623637,-0.16451478165221536,-0.1828353700407553,-0.49501995615128946
0.0,-0.022765175481363437,-0.00027974602521475497,-0.0018017124335376132,-0.05971471171760178,-0.0008717868666804269,-0.005330646699190092,-0.0017922460102403083,-0.005135873135844367,-0.02595515518156601,-0.0009815669045113425,-0.007024442141249782,-0.00029901364404244046,-0.004373059441205548,-0.02990419511772809,-0.00013442554947375247,-0.00046936576782310335,-0.021422703087663607,-0.19495837528080343,-0.2197041249946828,-0.3970809060547741
0.0,0.0,0.0,0.0,0.0,0.0,0.0,0.0,0.0,0.0,0.0,0.0,0.0,0.0,0.0,0.0,0.0,0.0,0.0,-0.02544277456719079,-0.00020597573585881941,-0.0013318601352681014,-0.08663333790669957,-0.0008712332515752886,-0.003873584603844692,-0.0017526352673203826,-0.004100082692090273,-0.021073890075835537,-0.0007487232803208045,-0.007202700356167106,-0.00017479956458492236,-0.0047968730278733955,-0.028826277730501962,-0.00014694829314045412,-0.0006239608860969725,-0.01737444766064369,-0.23592864031763125,-0.5588903645519483
0.0,0.0,0.0,0.0,0.0,0.0,0.0,0.0,0.0,0.0,0.0,0.0,0.0,0.0,0.0,0.0,0.0,0.0,0.0,-0.04341856944095543,-0.0006279381955315273,-0.007601261062250556,-0.18685436535433037,-0.006867190541648278,-0.021714798306400173,-0.006837412408345439,-0.009551554508704341,-0.050807938313945734,-0.00347484762210873,-0.019859284625682014,-0.0013239480649566118,-0.026836780840780353,-0.07363281056261661,0.0,-0.0008321286143647452,-0.03975807470953315,0.0,-0.08146793223406118,-0.005442131027939907,-0.01540721679738235,-0.16305073067439793,-0.010884764407843738,-0.03354810143404408,-0.015420750389439627,-0.010846858865791946,-0.047086047578661264,-0.005406510369047186,-0.010851306411091397,-0.0027241128307537712,-0.005440229491964564,-0.04887862767648107,0.0,0.0,-0.043543582983253996
0.0,-0.024226065776157543,-0.00015782098707612407,-0.000862321624225603,-0.061749135185272405,-0.0011794874805267001,-0.004205951323131906,-0.0013581054821771785,-0.0038339945760459543,-0.01758088337635921,-0.00047291472642289173,-0.004225217318733992,-3.474181572128601e-05,-0.0028240111212266793,-0.019750884105848618,0.0,-7.003336439005438e-05,-0.01580806902216843,-0.16510064129105392,-0.18308507089269677,-0.49347396595036286
0.0,-0.023357240179821846,-0.0002731513893484319,-0.0017605114803227874,-0.05999107664506777,-0.0008523350932009812,-0.005214422507771774,-0.001749182467640687,-0.005228626689009892,-0.026304564329321305,-0.0009573015226931663,-0.006857280702674536,-0.0002920033341642588,-0.00427057424854981,-0.029795351968282063,-0.00013126582495375522,-0.0004568675090108901,-0.021421792610670655,-0.19545738667117535,-0.21963121194366186,-0.39599703064753533
0.0,0.0,0.0,0.0,0.0,0.0,0.0,0.0,0.0,0.0,0.0,0.0,0.0,0.0,0.0,0.0,0.0,0.0,0.0,0.0258324272071251,0.00019371447807418129,0.0013903000398815789,0.08721373107806601,0.0008128250504539051,0.0038023896355691765,0.0016604590478693046,0.00431774289629689,0.02090912397224728,0.0007317167480234715,0.007733643177777096,0.00016089935314623067,0.004594578935573109,0.02764938620323558,0.00013815768700863805,0.0010338895756281633,0.01718508100138641,0.23632951261044555,0.5583102506041213
0.0,0.0,0.0,0.0,0.0,0.0,0.0,0.0,0.0,0.0,0.0,0.0,0.0,0.0,0.0,0.0,0.0,0.0,0.0,0.04343459523124858,0.0006269309884931558,0.007590543220918085,0.18689442749513424,0.006854728942837696,0.021686690514430892,0.006825349609843317,0.009545347459162898,0.050837466846648215,0.003491590755023946,0.019857095318112247,0.0013218772452999624,0.026849186008998136,0.07360916444501339,0.0,0.0008368889815300886,0.0397379071425533,0.0,0.08153172600502004,0.005433401900274021,0.015396966469747496,0.16304145401251607,0.01086670759289641,0.03350822036244421,0.015394374591536388,0.010873967051294996,0.04710403158296152,0.00544022377056476,0.010873115282178129,0.002716117344990582,0.005433766071858407,0.04891975446557923,0.0,0.0,0.04346596370138589
0.0,0.02448780835337451,0.00015340111609714983,0.0008256533529108998,0.0622287393993095,0.001135991830050766,0.003918836675816684,0.0013531761316696526,0.003930038225457125,0.01768794231845881,0.0004710339466431975,0.004371566331300307,3.351433770843353e-05,0.002828417544771228,0.01979632345239284,0.0,7.841347022745926e-05,0.016147830512697532,0.1661877069662793,0.1850950577968572,0.4892684155134174
0.0,0.023730071736581863,0.0002638090728281617,0.0016758763544804062,0.060724383498203555,0.0008020748991792672,0.004908618456773102,0.001704980822808906,0.005360159135868051,0.02610740157989873,0.0009461833449089387,0.007310736350698372,0.00028127640093852,0.004172430306555643,0.029161545638930503,0.00012659973422071523,0.0008104439304364349,0.02123677595665071,0.19565698914164964,0.22013243239730598,0.39488705398099716
0.0,0.0,0.0,0.0,0.0,0.0,0.0,0.0,0.0,0.0,0.0,0.0,0.0,0.0,0.0,0.0,0.0,0.0,0.0,-0.025979677187452248,-0.00019243584178323548,-0.001383545268475991,-0.0865001934581723,-0.0008137969689045514,-0.0038120382551851315,-0.001637732274816674,-0.004436875720058626,-0.021233069237598212,-0.0007002022489456109,-0.007483335685530682,-0.0001632207271273028,-0.004483676209936626,-0.027673291849843174,-0.00013728750084600704,-0.0009343586625510507,-0.016775615066777674,-0.23503342860332024,-0.5606253535179457
0.0,0.0,0.0,0.0,0.0,0.0,0.0,0.0,0.0,0.0,0.0,0.0,0.0,0.0,0.0,0.0,0.0,0.0,0.0,-0.04341963584776128,-0.0006279054731203825,-0.007600885073286787,-0.18685583643513665,-0.006866812946510964,-0.0217137584570468,-0.006837041154800703,-0.009551375002216481,-0.0508096988039116,-0.003474971052789591,-0.019858654511671424,-0.0013238797930432472,-0.02683716801113619,-0.07363129142290332,0.0,-0.0008321684178437946,-0.03975782076903385,0.0,-0.08147011539877745,-0.0054418474337099825,-0.015406611254726374,-0.16305322320891688,-0.010884189036964685,-0.0335465432821715,-0.01541992440866047,-0.010846900908716183,-0.0470880175845659,-0.005406806971966749,-0.010851276011419914,-0.0027239213982730008,-0.005439976870370714,-0.048878341613161944,0.0,0.0,-0.04354120778981128
0.0,-0.02466065259395782,-0.00015113205753028306,-0.0008254408819909362,-0.06201724493417461,-0.0011292189499539315,-0.0040231869289388215,-0.0013014253670211653,-0.003938153774193451,-0.018810268514172133,-0.00045317340575451253,-0.004228834709973991,-3.3262583539717186e-05,-0.002706559421839837,-0.020301487737700075,0.0,-6.734018806849174e-05,-0.01568186443293355,-0.1668081500305672,-0.18477093028757424,-0.4880909998370924
0.0,-0.023763136545710693,-0.00025839250897626253,-0.001664753827745346,-0.0607444734878417,-0.000805733917856629,-0.004975132794358357,-0.0016550764153787196,-0.005597414771248071,-0.026819045627327932,-0.0009061380092859979,-0.00708444002771527,-0.0002762066438875591,-0.004041095145287244,-0.029447649294431635,-0.00012416870436257786,-0.0007465652729565159,-0.020649235567689016,-0.19574927382478027,-0.21976705791737758,-0.3949242058187303
0.0,0.0,0.0,0.0,0.0,0.0,0.0,0.0,0.0,0.0,0.0,0.0,0.0,0.0,0.0,0.0,0.0,0.0,0.0,-0.026193275398901473,-0.00018586165253708104,-0.0013363493573372329,-0.08600032698909017,-0.0011245243556111523,-0.0038495575684359125,-0.0015814831771299486,-0.004277712503011793,-0.02137479104638558,-0.000675602652174318,-0.0077450551596355,-0.00015773065222913482,-0.004510408103693499,-0.027043265930625462,-0.00013259840683563868,-0.0009001021794376683,-0.01638920349891741,-0.23453928485668932,-0.5619819805412264
0.0,0.0,0.0,0.0,0.0,0.0,0.0,0.0,0.0,0.0,0.0,0.0,0.0,0.0,0.0,0.0,0.0,0.0,0.0,-0.04515257546602962,-0.0005905157716336017,-0.007148257438263274,-0.18623276854788062,-0.007938687264059831,-0.021450730166842114,-0.0064299327335894255,-0.008982501297593908,-0.05268159143700246,-0.003267745585426883,-0.02144610641013184,-0.0012450463993988552,-0.026527986490705147,-0.07144250538461175,0.0,-0.0007825329421766102,-0.0386794201766436,0.0,-0.08033748159663487,-0.00511780335415788,-0.014489002360431385,-0.16450202759506488,-0.011478426521504293,-0.031548768442136686,-0.014501740967248667,-0.010200400642533292,-0.04552520486137144,-0.005084275110809201,-0.013929350376859592,-0.002561769989511617,-0.005116013517502797,-0.05341571347545805,0.0,0.0,-0.04219092470076478
0.0,-0.02479292302754572,-0.00015008733666727576,-0.0008200674410467548,-0.062126990522378314,-0.001121691013210755,-0.003999873921743135,-0.0012915497036571828,-0.0039035702180462806,-0.018649518016208757,-0.0004497389314271224,-0.004266358030240771,-3.3039412116387274e-05,-0.002685632562944476,-0.020203634569020388,0.0,-6.659998719873757e-05,-0.015657601502888006,-0.1666485477582003,-0.18446876746026944,-0.4886631155600312
0.0,-0.024032375736604255,-0.0002528719512114645,-0.0016298114140278182,-0.06069506766858307,-0.0009391065183589688,-0.004946709043705242,-0.0016193158176711474,-0.005470136016810576,-0.02664753237386977,-0.0008862249320433574,-0.007244990292584476,-0.00027032442263004805,-0.004067753072487453,-0.02912401148835955,-0.00012152035751724879,-0.0007293647595417443,-0.02049320226798317,-0.19522832288241995,-0.21948315875040247,-0.39611737554348697
0.0,0.0,0.0,0.0,0.0,0.0,0.0,0.0,0.0,0.0,0.0,0.0,0.0,0.0,0.0,0.0,0.0,0.0,0.0,0.02693219063260227,0.00017339566551651556,0.0012442531435773623,0.08675568797576136,0.001081891023518874,0.0037215066893393914,0.0014862490338192057,0.0041648723070669864,0.021373391636045815,0.0006548677221269991,0.008536481948979893,0.00014403507269315476,0.004531053478634174,0.026952152234452513,0.00012366640988085122,0.0009245332001850037,0.015700747109754616,0.2385770214195556,0.5569218375784412
0.0,0.0,0.0,0.0,0.0,0.0,0.0,0.0,0.0,0.0,0.0,0.0,0.0,0.0,0.0,0.0,0.0,0.0,0.0,0.04622136391395642,0.0005490759527665616,0.006647911656724059,0.18693510797477828,0.007424844437031392,0.02085178226603159,0.005977751270856423,0.008359935484233848,0.052441495389430645,0.0030579191181021215,0.024969848909269832,0.0011577205729740284,0.025969654134617784,0.07266139211938676,0.0,0.0007329411590359683,0.03604105124442506,0.0,0.07817166646425387,0.0047586582573102,0.013484857986990936,0.16707871731682936,0.010708367002492291,0.02934697874114086,0.01348263892877392,0.009523449391683205,0.05081983909633371,0.004764498858638948,0.013096524441909313,0.002378829470225894,0.0047589700458592395,0.058366472168726216,0.0,0.0,0.03925932743245264
0.0,0.02544686349370887,0.00014199800157488536,0.0007643245358089991,0.062225744886972384,0.0010515863066437418,0.0036281558479885193,0.0012524648248062643,0.003886638623093074,0.01871327449799063,0.0004359774302469032,0.004539624719262385,3.102398254042091e-05,0.0029368732324374885,0.02037367642495278,0.0,7.254629035975561e-05,0.015383102476725452,0.16712132890705575,0.18765632275737607,0.48433834216831234
0.0,0.024495987695338655,0.00024052696069924687,0.0015280615407001058,0.06073251078619621,0.0008871914280106514,0.004632416997639893,0.0015544541494325772,0.005338804121910649,0.02645058928716772,0.0008626018479722829,0.007938603962711996,0.0002564553805947534,0.0041218035296049565,0.029358324834669887,0.00011542747794290645,0.0007382699047748023,0.01982563331177119,0.19485227127525626,0.22204781140794633,0.39402210093423456
0.0,0.0,0.0,0.0,0.0,0.0,0.0,0.0,0.0,0.0,0.0,0.0,0.0,0.0,0.0,0.0,0.0,0.0,0.0,0.027129195305182086,0.00016838508958210257,0.001208304010286495,0.08731459223753239,0.0010505529161870092,0.003613745099103992,0.0014432758502567007,0.004044113332504339,0.021061512280408402,0.0006358866068892936,0.008466546315361768,0.0001398802199648612,0.004399495435367709,0.027374605414736877,0.0001200929391910934,0.0008976186143563687,0.01603152379024276,0.23890828093332436,0.5559922286014775
0.0,0.0,0.0,0.0,0.0,0.0,0.0,0.0,0.0,0.0,0.0,0.0,0.0,0.0,0.0,0.0,0.0,0.0,0.0,0.04621705200735304,0.0005492432479518389,0.0066499308213087945,0.18693226719350076,0.007426913290508858,0.02085420669165266,0.005979577323271823,0.00836244420710454,0.05244244021873107,0.0030587546503250567,0.02495567604048383,0.001158073085573249,0.025971894135434718,0.07265651197444298,0.0,0.0007331382095569158,0.03605167495964141,0.0,0.07818034393506072,0.004760108148915939,0.013488904296190976,0.16706834942442264,0.010711471617156557,0.02935586029655819,0.013486753957910066,0.00952615925156764,0.05079855228768529,0.0047657678781311795,0.013099851369126819,0.00237956988948278,0.004760410281977354,0.05834653339496177,0.0,0.0,0.03927116202769356
0.0,0.02565724842166505,0.0001375338870588292,0.0007403184465936767,0.06246091116282472,0.0010185456021752826,0.0035144006590821105,0.0012130301148550677,0.0037640714582025422,0.018432754388808512,0.0004222506732177894,0.0047636731914231225,3.0049115052058802e-05,0.0028439489234921714,0.020354971415490513,0.0,7.024688257768198e-05,0.015682920805469368,0.16714793349384519,0.18751289768815788,0.4842321637526335
0.0,0.02483798625243685,0.000234291972416586,0.001488499152858305,0.06087920830444347,0.000864207444964849,0.004512537296544535,0.0015141283568580665,0.00520011487115937,0.02618441360893341,0.0008401985169580832,0.007977969510071025,0.0002498089567398414,0.0040145235075356184,0.029879975171621272,0.0001124356929989256,0.0007190353474000234,0.020265904678255363,0.1954001292419896,0.22244497862420137,0.39237950083962936
0.0,0.0,0.0,0.0,0.0,0.0,0.0,0.0,0.0,0.0,0.0,0.0,0.0,0.0,0.0,0.0,0.0,0.0,0.0,0.027380842353754858,0.00016447386868120625,0.0011802362310052088,0.08751694058787009,0.0012196529337737561,0.00352980388751581,0.001409758247472166,0.004029731758550187,0.021071413193805247,0.0006211312356749033,0.008270380297469123,0.00013662921658234078,0.004297372371792975,0.027954764229740532,0.00011730341703807452,0.00087682027739932,0.016013656889863042,0.23881620693935635,0.555392715818088
0.0,0.0,0.0,0.0,0.0,0.0,0.0,0.0,0.0,0.0,0.0,0.0,0.0,0.0,0.0,0.0,0.0,0.0,0.0,0.04621705393325621,0.0005492430872424111,0.0066499296411922605,0.1869322773349593,0.007426916844547458,0.020854198094583734,0.005979575004703007,0.008362446390254262,0.05244246415693889,0.003058765343664276,0.024955637961370347,0.0011580727741265255,0.025971906129970065,0.07265647721250737,0.0,0.0007331411600152548,0.0360516921763386,0.0,0.0781804018491194,0.004760106756100898,0.013488907859309542,0.1670683272862558,0.01071147278390532,0.029355858940246414,0.013486749159519413,0.00952617957488874,0.05079848646964342,0.004765788492959451,0.01309988326331515,0.0023795673103402834,0.004760410063995318,0.058346506325543654,0.0,0.0,0.03927115111052737
0.0,0.026145344810397857,0.00012948830031001975,0.0006970037777736558,0.061906882606921405,0.0017864244604422755,0.003308719645193681,0.0011420871829936354,0.003619980427574576,0.018579096800968687,0.00039755565009724634,0.004485543812913734,2.829113491041091e-05,0.0026776443060326856,0.021101542378859722,0.0,6.614315134119555e-05,0.01582344236193383,0.16758294486579045,0.1867577463993228,0.4837639868320989
0.0,0.025222476203051517,0.00022705894555361176,0.0014425332441690313,0.060415581923824326,0.0012632848980543895,0.004373140938736696,0.0014673928465723473,0.005136591495277682,0.0265846632257932,0.000814271707225643,0.007732138329482176,0.0002420964924347571,0.0038906250631419387,0.030874409379336103,0.0001089644997299055,0.0006968638503094107,0.020328928012670416,0.1962722682106126,0.22248325066427063,0.3904233059517129
0.0,0.0,0.0,0.0,0.0,0.0,0.0,0.0,0.0,0.0,0.0,0.0,0.0,0.0,0.0,0.0,0.0,0.0,0.0,0.027809185306330773,0.0001603783208635443,0.0011508472808551924,0.08768295378369753,0.0011896032379963342,0.0034419085811140185,0.0013746540052654325,0.003929519675001378,0.021044825127761065,0.0006056645318423318,0.00825647315224668,0.00013322702260906613,0.004190364032255869,0.02790073676284057,0.00011438245601332162,0.0008549867460991915,0.016136558013655666,0.23863932644220395,0.5553842391118702
0.0,0.0,0.0,0.0,0.0,0.0,0.0,0.0,0.0,0.0,0.0,0.0,0.0,0.0,0.0,0.0,0.0,0.0,0.0,0.0462170539412934,0.0005492430866004479,0.006649929636495266,0.18693227737691406,0.007426916858871804,0.020854198060186655,0.005979574995428669,0.0083624463990781,0.05244246425343636,0.0030587653866375503,0.02495563780857563,0.001158072772883046,0.02597190617831934,0.07265647707334807,0.0,0.0007331411718715273,0.0360516922457301,0.0,0.07818040208225963,0.004760106750537214,0.01348890787370988,0.16706832719841927,0.010711472788661745,0.029355858934989657,0.01348674914033297,0.009526179656586168,0.05079848620559442,0.0047657885757967965,0.013099883391514053,0.0023795672999957994,0.004760410063150749,0.05834650621719052,0.0,0.0,0.03927115106693082
0.0,0.026597693569879455,0.00012714453945941227,0.0006843878783482702,0.06206634512636277,0.0017552196401797414,0.0032488311157337405,0.001121415230155192,0.003554562056905477,0.01851464648155934,0.000390359831854916,0.0045001023259309296,2.777906023809676e-05,0.00262917856298535,0.020976747275502933,0.0,6.49459564465564e-05,0.015836083055560033,0.16768024654699026,0.18650798241614588,0.48371619807013505
0.0,0.025789329472738227,0.00022268849046042923,0.001414767188031232,0.06054260500997367,0.00123963246973254,0.004288966115930624,0.0014391483238115413,0.005037872994844653,0.026558445301060333,0.0007985985357009232,0.007779160591585189,0.0002374365923936607,0.0038157379501285956,0.030817056727514308,0.00010686713912876946,0.0006834505809201574,0.020478353934472164,0.19659643839145263,0.2226578805104502,0.3894954092116583
0.0,0.0,0.0,0.0,0.0,0.0,0.0,0.0,0.0,0.0,0.0,0.0,0.0,0.0,0.0,0.0,0.0,0.0,0.0,-0.0278807562669379,-0.0001970057418795367,-0.0011625431548139453,-0.0874819935135465,-0.0011673032201678002,-0.0034716922128421373,-0.001374647604308269,-0.0037823903441752474,-0.020871006331001973,-0.0005855798299276546,-0.007989028103035686,-0.0001374517456136786,-0.004109601212914292,-0.028160744731901347,-0.00011533540135218607,-0.0007758241492931009,-0.01639152644957118,-0.23782094173308657,-0.5565236285375517
0.0,0.0,0.0,0.0,0.0,0.0,0.0,0.0,0.0,0.0,0.0,0.0,0.0,0.0,0.0,0.0,0.0,0.0,0.0,-0.04618222899222123,-0.000550737449971212,-0.00666659562370797,-0.18689253514010531,-0.007435398086798478,-0.020887095025434944,-0.005996904334667399,-0.008376569931580168,-0.05240583692110281,-0.003045490917659009,-0.02492192064718259,-0.0011611725432990139,-0.02596630349276941,-0.07268359416361353,0.0,-0.0007292374559056575,-0.03609711887337636,0.0,-0.07813816075436157,-0.0047730578997505066,-0.013511612034030313,-0.16703259269890763,-0.010731717948247501,-0.029422249135520558,-0.01352503156999203,-0.009509027829629849,-0.05076333589773592,-0.004737737438588165,-0.013066295083649551,-0.0023895505850031746,-0.004771172389215233,-0.05825115141913773,0.0,0.0,-0.03937604691562546
0.0,-0.026654761281902768,-0.00015949837058587782,-0.0006965703869833025,-0.06197264822301955,-0.0017677486305146637,-0.0034052250851983497,-0.0010932901128446056,-0.0033676382710776044,-0.01839305313776293,-0.00038071336469260443,-0.004375227151409438,-2.8046096600600937e-05,-0.0025277674837719307,-0.020538444820216724,0.0,-5.576187768703489e-05,-0.015833459744895684,-0.16669235567854238,-0.1846180896764982,-0.48743892607622313
0.0,-0.02594283787596281,-0.00026538890551090587,-0.0014266266643954014,-0.06052959712639898,-0.0012407776750753567,-0.004402086362312951,-0.0014144346600508608,-0.004863840336627538,-0.026478701740891356,-0.0007731120550225525,-0.007568031401164887,-0.0002363743012374523,-0.003724268095708529,-0.03091094762178979,-0.00010624682605167257,-0.0006339218148513242,-0.02065313289872584,-0.19646523137506794,-0.22197941128507456,-0.39038410110999844
0.0,0.0,0.0,0.0,0.0,0.0,0.0,0.0,0.0,0.0,0.0,0.0,0.0,0.0,0.0,0.0,0.0,0.0,0.0,0.02680130181089805,0.0002153430769326533,0.0019340297626414666,0.08532071259244249,0.001059348619356088,0.004674061358670462,0.0016929970682987522,0.0035899197773030544,0.02063687113253815,0.0005393953070131786,0.008232136002230129,0.00011860261441898559,0.004059924684561723,0.026016313396963527,0.00028186667363372386,0.0007617156868173864,0.01567376510766779,0.2346993992392847,0.5636921280607335
0.0,0.0,0.0,0.0,0.0,0.0,0.0,0.0,0.0,0.0,0.0,0.0,0.0,0.0,0.0,0.0,0.0,0.0,0.0,0.04590641643932914,0.0007049171734990202,0.009006693775149835,0.18571036572361324,0.006604601665136436,0.02480821419139438,0.007176504127640376,0.007653006514653291,0.05360507375441415,0.0027202261983351847,0.02578875817540592,0.001029836071499775,0.02495562096514013,0.06841789456907163,0.00034555959596194847,0.0006520039026534131,0.03491409703632524,0.0,0.07378318847923243,0.0042330049224824345,0.019446700824258752,0.1613478751230402,0.00952542627147088,0.029298697682014426,0.011993305990669912,0.008471649744496183,0.05582017142402511,0.00423837604020734,0.01803715162835228,0.002116042966731242,0.00423329164861011,0.055080986141803366,0.0,0.0,0.0423739209918281
0.0,0.026673584903240774,0.0001512876003873479,0.0009602585790563141,0.06196204238361755,0.0016709500444499093,0.0035567047332326325,0.0011297165760456348,0.0033850662929481674,0.01832256073118187,0.00037168620409996645,0.004315907991467096,2.6444963798312426e-05,0.002627053900003881,0.02018677564007807,0.0,6.188071624093147e-05,0.0160127436001228,0.16673233316292488,0.18509446733727253,0.4867583997980497
0.0,0.025171917068383266,0.00024277977968741258,0.0019921187882959218,0.06009156987040437,0.0011259537359594883,0.0051356827440722985,0.0017502536332004578,0.004675301531513608,0.026103884272857928,0.0007255060347080277,0.007837840127629258,0.00021566958642660865,0.0037037491427655885,0.029076601885269848,0.00022846769204301718,0.0006210476754332576,0.01992389545158948,0.19462907583787153,0.21863432310036568,0.3981142048632606
0.0,0.0,0.0,0.0,0.0,0.0,0.0,0.0,0.0,0.0,0.0,0.0,0.0,0.0,0.0,0.0,0.0,0.0,0.0,0.026695415991809992,0.00020822596700889414,0.0019571920664770886,0.0847541194806403,0.0010246609729664105,0.005008395952006363,0.0016368312520413427,0.0034723188545656564,0.020250625289792688,0.0005217429183662463,0.008288391889364791,0.00011471155210279342,0.003926498546553126,0.025503219636220112,0.00032651601805196823,0.0007368442743216182,0.015299299966903334,0.2329039534811074,0.5673708664388596
0.0,0.0,0.0,0.0,0.0,0.0,0.0,0.0,0.0,0.0,0.0,0.0,0.0,0.0,0.0,0.0,0.0,0.0,0.0,0.04590764654434852,0.0007042780438332653,0.00899701390573365,0.18571533701744358,0.006607999011594797,0.024791984192165994,0.00717160280841838,0.007655946945632299,0.05360023619378392,0.0027216004555769293,0.025785280253922186,0.0010303684598721068,0.024959796823498945,0.06843538181788202,0.00034413729135550266,0.0006523322182155918,0.03491884523590508,0.0,0.07380122395547606,0.004235193547511099,0.019422200147541268,0.1613713977976994,0.009530338011725507,0.029299025049956025,0.011999509355471397,0.008475965687003371,0.05579944933512403,0.004240506279431873,0.018016780624034393,0.0021171422741009882,0.004235477156832082,0.05509428513748879,0.0,0.0,0.042361292859786445
0.0,0.026596937227690888,0.0001508437086893124,0.000986820933313462,0.06187168856170889,0.0016660283760335773,0.0036049866641905013,0.0011263939020368576,0.003375466018259792,0.01829943296740767,0.0003706131082925741,0.004303438850278594,2.6366952052727868e-05,0.002619400551373328,0.020128740001617202,0.0,6.171527469460184e-05,0.0159664633115589,0.16645765954879413,0.18497508321719766,0.4874117837057558
0.0,0.02505686813251835,0.00023802037908950398,0.0020543872628520816,0.06001374803256607,0.0011038625924807092,0.005331384046120319,0.0017153193631500956,0.004583663676089487,0.02588209239675018,0.0007113054667966818,0.007872860195758604,0.00021143981477821918,0.003630858248695643,0.028759141655447167,0.00022380300063174383,0.0006089274404182109,0.019595924751548633,0.1934810747769247,0.21796031108078526,0.40096484854172654
0.0,0.0,0.0,0.0,0.0,0.0,0.0,0.0,0.0,0.0,0.0,0.0,0.0,0.0,0.0,0.0,0.0,0.0,0.0,-0.02506747806323742,-0.0001847053434679734,-0.0024085616080894005,-0.08129010744405624,-0.001448019242380901,-0.006063022470742358,-0.001435582107217449,-0.003626564808407163,-0.020090366238107307,-0.0007416329107822077,-0.008585089134409722,-0.00018275585494435456,-0.003455953450717611,-0.02393001934945145,-0.0004369407258678499,-0.0007281604370898633,-0.014920099167518424,-0.22907946271995647,-0.5763247331781441
0.0,0.0,0.0,0.0,0.0,0.0,0.0,0.0,0.0,0.0,0.0,0.0,0.0,0.0,0.0,0.0,0.0,0.0,0.0,-0.04588293687149788,-0.0007048248200838344,-0.00899966789017832,-0.18569168783805898,-0.006617775898999896,-0.024799211571178682,-0.007178915394494289,-0.007669490199544289,-0.053567934872315204,-0.0027133637419991634,-0.02575680872979763,-0.0010331928359579702,-0.02495995802544351,-0.0684736284791929,-0.0003425874089051456,-0.0006498299303426873,-0.03495719728025748,0.0,-0.07379048157810647,-0.0042469563272251095,-0.01941528748264257,-0.16136272824536196,-0.00955029932378641,-0.029349049613973593,-0.012033998189894804,-0.008468005363703084,-0.05575172135485702,-0.004222283705352479,-0.017970227087914133,-0.0021255888852309917,-0.0042456392297993565,-0.05503996393925416,0.0,0.0,-0.04242678146114568
0.0,-0.025392304110623223,-0.00014162445846223592,-0.001381122680632912,-0.061022862877229495,-0.0024060667542368658,-0.003998842495054083,-0.001028057443186385,-0.003356250660799205,-0.01799183978404325,-0.000469461008100495,-0.004695094526343629,-8.273068372053898e-05,-0.002368462383068489,-0.018999351969570043,-9.782513740745104e-05,-5.1028316061847504e-05,-0.015247264364243495,-0.16359404763323385,-0.18331607905603048,-0.49435908084449526
0.0,-0.023892036247556838,-0.00021314059009443315,-0.0024780004298628282,-0.058428669896633444,-0.0017749265498672709,-0.006292671011621711,-0.0015024174196508087,-0.0047156883102643906,-0.02528485145343158,-0.0009019661976712286,-0.008116685112712081,-0.00025554269174905874,-0.0032008699856543774,-0.02666373120421946,-0.0003293767164448663,-0.0005446903619096416,-0.018592964892245285,-0.1886722316147223,-0.2139110264579675,-0.414227810182327
0.0,0.0,0.0,0.0,0.0,0.0,0.0,0.0,0.0,0.0,0.0,0.0,0.0,0.0,0.0,0.0,0.0,0.0,0.0,-0.025204646782573174,-0.00018187641028206416,-0.002365040196975027,-0.08140815019497605,-0.0014238560245730708,-0.005961757014110389,-0.0014117522336973862,-0.0035625821627762056,-0.020233116145494837,-0.0007286382159988967,-0.008595058882952476,-0.0001802363639783716,-0.00339997851634398,-0.023897496273097334,-0.00042884763829193954,-0.0007120045456969858,-0.014922048772868303,-0.22886219544628672,-0.5765198708416787
0.0,0.0,0.0,0.0,0.0,0.0,0.0,0.0,0.0,0.0,0.0,0.0,0.0,0.0,0.0,0.0,0.0,0.0,0.0,-0.04588037831938438,-0.0007048816654822785,-0.008999946981242676,-0.18568922938820803,-0.006618784845500817,-0.02479996623147241,-0.007179673841366541,-0.007670888837981483,-0.05356459399852019,-0.002712511049463277,-0.025753864716538056,-0.0010334845882696416,-0.024959971135268978,-0.06847757089404073,-0.00034242785660870836,-0.0006495709415862715,-0.034961159141810125,0.0,-0.0737893570962461,-0.004248171416635919,-0.0194145844767282,-0.16136181047429154,-0.009552360557809782,-0.029354221256286835,-0.012037561005280391,-0.00846717938860943,-0.05574679336618167,-0.0042203978200185685,-0.017965422424365073,-0.0021264617156634474,-0.00424668878001963,-0.05503433616961272,0.0,0.0,-0.042433558484995054
0.0,-0.025481068967287565,-0.0001412249763027812,-0.0013718956048677513,-0.061021061062332446,-0.002395447619435301,-0.003993553990557085,-0.0010218515044826942,-0.0033283430073799028,-0.01792552090899934,-0.00046659454638754006,-0.004664807358085581,-8.226760565791358e-05,-0.0023515982619985057,-0.01907186850674566,-9.706361222340133e-05,-5.01092358937713e-05,-0.015341134037212552,-0.16364272573298988,-0.18321851219847612,-0.4943326651636615
0.0,-0.023951768863291152,-0.00021035164611445635,-0.0024395458098129897,-0.058693588131840814,-0.0017491960336483772,-0.0062077195799915994,-0.001478968978086913,-0.0046395444801645164,-0.025438002353413144,-0.0008870855570283497,-0.008093405773083978,-0.0002519367259035996,-0.0031532960554576253,-0.026630158085198495,-0.00032325957241110235,-0.0005340454355404284,-0.018627749824598333,-0.1887114327196556,-0.21384312939037947,-0.414135015484372
0.0,0.0,0.0,0.0,0.0,0.0,0.0,0.0,0.0,0.0,0.0,0.0,0.0,0.0,0.0,0.0,0.0,0.0,0.0,-0.025315399978583057,-0.00017823972134110684,-0.002317694430142283,-0.08148110561083377,-0.001395368746544368,-0.00584247857345586,-0.0013835081792384087,-0.0035729598905784466,-0.020533589704886772,-0.0007140550312052736,-0.008540737794662282,-0.00017663482394111803,-0.003331968990490672,-0.023839101847021607,-0.0004202608612941797,-0.0007719418013084437,-0.014743071567368916,-0.22874699637019696,-0.576694037977666
0.0,0.0,0.0,0.0,0.0,0.0,0.0,0.0,0.0,0.0,0.0,0.0,0.0,0.0,0.0,0.0,0.0,0.0,0.0,-0.045880322943204585,-0.000704882903862867,-0.008999953087099955,-0.18568917683919012,-0.006618806797976743,-0.024799982743833424,-0.007179690353799457,-0.007670919262286529,-0.05356452166051547,-0.0027124925354821933,-0.025753800871468925,-0.0010334909320564903,-0.024959971536549063,-0.06847765687119348,-0.0003424243915789087,-0.0006495653175118453,-0.03496124538512921,0.0,-0.0737893330086183,-0.0042481978369643516,-0.01941456929293711,-0.1613617912864459,-0.009552405387249663,-0.029354333758617335,-0.012037638471496878,-0.008467161481969961,-0.055746686554768804,-0.004220356864668524,-0.01796531811621109,-0.002126480689759115,-0.004246711603635326,-0.055034214150583925,0.0,0.0,-0.04243370592881337
0.0,-0.02542803856262243,-0.00013967481999868758,-0.0013568007566420912,-0.06124955253731344,-0.0023691279375721904,-0.003949759451829399,-0.0010106126801250111,-0.0032916841159925663,-0.018143540924044365,-0.00046146248878334073,-0.004662992463853111,-8.136303386868584e-05,-0.0023257167297019423,-0.018913851719644395,-9.599489308941483e-05,-4.9553943713639594e-05,-0.015308222662230492,-0.16362208069784373,-0.18333565764058413,-0.49420362519122496
0.0,-0.023889066832589307,-0.00020720864702886496,-0.002403046906542998,-0.059074861770956444,-0.0017230401926848333,-0.006114945227171659,-0.0014568405371320771,-0.004622136216768401,-0.025644536229284007,-0.0008738064950968605,-0.008057617757967962,-0.0002481702867662468,-0.0031061352578145955,-0.02640332130476515,-0.00031841513278018025,-0.0005778170306146498,-0.01845481678293944,-0.18849679730879734,-0.21376752520601774,-0.41455909543739977
0.0,0.0,0.0,0.0,0.0,0.0,0.0,0.0,0.0,0.0,0.0,0.0,0.0,0.0,0.0,0.0,0.0,0.0,0.0,0.02568881745073839,0.00017431033563549032,0.002276680425557255,0.0819929403245494,0.0014519013635924502,0.005672358675981235,0.001370116912369629,0.0035359165056269718,0.020913295907826403,0.0006928457430800481,0.008446917081483934,0.0001646155547417987,0.0034042434121993527,0.02391937860771779,0.00041275494068700213,0.0007993687469401066,0.014691538572460057,0.22902349014928508,0.5753683508481556
0.0,0.0,0.0,0.0,0.0,0.0,0.0,0.0,0.0,0.0,0.0,0.0,0.0,0.0,0.0,0.0,0.0,0.0,0.0,0.04644096739835433,0.0006755095477706044,0.008629479498730013,0.18443008586465084,0.007193365146521985,0.023779255986864877,0.0068786687879196,0.007343283999366283,0.05552975185526559,0.0026104043789523627,0.024731895047098634,0.0009882933506550277,0.02479550523721037,0.06970203673053299,0.0003300685348981523,0.0006256779642473562,0.03531554658228361,0.0,0.07350948171875364,0.004062249946843498,0.01862872708272114,0.1609081347935464,0.00914114318272678,0.028102424493973807,0.011509515288356777,0.008129731302949871,0.06305043430963675,0.004067232041801405,0.017280582208177638,0.00203069875947549,0.0040625159057868735,0.05386472926815469,0.0,0.0,0.041652195608417986
0.0,0.02564246719999154,0.00013274564504432544,0.0013110426451412869,0.06188128474824055,0.0023469087062807583,0.003667463945780536,0.000991039417378301,0.0032794404495008265,0.018378059721977515,0.0004453570800653803,0.004551829500270249,7.61353968934014e-05,0.00243976981916774,0.018947950647971577,9.007995208476671e-05,5.426130045550183e-05,0.015326390953311633,0.1642275653581952,0.18366961532424092,0.4925404627113405
0.0,0.02402718227594118,0.00020101186598195223,0.0023413219542367295,0.059480610564623844,0.001763299287364398,0.005854354347952923,0.001448384975635842,0.004572479122103254,0.02613019535454522,0.0008568759060046899,0.007953786187508976,0.00023864774125124678,0.003296141233637994,0.026585701426374283,0.0003160538885954632,0.0005950400824319995,0.0185284414034579,0.18942797356527674,0.21411150822789202,0.4122708414442448
0.0,0.0,0.0,0.0,0.0,0.0,0.0,0.0,0.0,0.0,0.0,0.0,0.0,0.0,0.0,0.0,0.0,0.0,0.0,0.025643935988537942,0.00016769920001336524,0.0021906434860011407,0.08204124652070917,0.0015996183406120548,0.005455943809820994,0.0013547692023549985,0.0034030754523171978,0.02110345690163671,0.0006663989209235113,0.008228252628110676,0.0001581209728927123,0.003356748355604279,0.024507051033589692,0.00039715459454953914,0.0007704039499195412,0.015495896905461428,0.22884754262216572,0.5746118481317041
0.0,0.0,0.0,0.0,0.0,0.0,0.0,0.0,0.0,0.0,0.0,0.0,0.0,0.0,0.0,0.0,0.0,0.0,0.0,0.04643967057300832,0.0006756033569024604,0.008630808907805964,0.18443572291715568,0.0071908212288095295,0.023782923254978078,0.006879571387302662,0.007344074824972953,0.055523321634152994,0.002611080962106831,0.024736801347863817,0.000988369453655972,0.024796131040466487,0.06969599518304541,0.00033016927884928736,0.0006258561307134158,0.035312832612842154,0.0,0.07351084716539644,0.004062558105993929,0.018631979466230162,0.16091040915495405,0.009142033799561782,0.028105504201660348,0.011510353200528758,0.008131302413081198,0.06302388484577422,0.004068449490079365,0.017284815705166583,0.0020307750501465326,0.004062872605476521,0.05387106643436187,0.0,0.0,0.041652902456220164
0.0,0.025512190020054094,0.00012894195389836824,0.0012741811890171896,0.06176055719624937,0.002433629494593076,0.0035595513093007658,0.0009636421328561925,0.0031904136037007613,0.018565052397803688,0.0004328178982134656,0.0044510508487791605,7.391483948786864e-05,0.002450641896599194,0.019270304858144405,8.746109006790323e-05,5.294094398490194e-05,0.015827513695885375,0.1645703416113907,0.1834783330649385,0.4919163623963881
0.0,0.02408353128811315,0.0001942383854329629,0.002262744559890431,0.059420643375408984,0.001928573646071018,0.00565464403742143,0.0014006797340718794,0.004421164069784275,0.02642748389429991,0.0008282903209198778,0.00780002997477567,0.000230540184517537,0.0033223916956186743,0.02722367457369799,0.0003056283721186288,0.0005760573219417991,0.019225154370349613,0.19036979665897888,0.21435571418335161,0.4099688374504334
0.0,0.0,0.0,0.0,0.0,0.0,0.0,0.0,0.0,0.0,0.0,0.0,0.0,0.0,0.0,0.0,0.0,0.0,0.0,-0.024991696330399004,-0.0001566073735341261,-0.002890852754811036,-0.08007139124756764,-0.001848085449438226,-0.005880884152363093,-0.0012521659227447985,-0.0032981557129462004,-0.020864123992182966,-0.0006268121795612023,-0.009001105253877532,-0.00015433485320568747,-0.0031175792202076673,-0.02356095692410561,-0.0003694418477366736,-0.0006834724091134672,-0.014951967286072365,-0.22804835310208119,-0.5782312858567761
0.0,0.0,0.0,0.0,0.0,0.0,0.0,0.0,0.0,0.0,0.0,0.0,0.0,0.0,0.0,0.0,0.0,0.0,0.0,-0.04641283158665513,-0.0006762747099794635,-0.008635184761308106,-0.18441873405386833,-0.007197450835006447,-0.023794854017325156,-0.006888095803181183,-0.00735871311811827,-0.055482349207845484,-0.0026036060112726513,-0.024714196350427108,-0.0009913119369155622,-0.024797001583273977,-0.06972728708371294,-0.00032873697936702004,-0.0006235515588416921,-0.03534885136124895,0.0,-0.07350380626705437,-0.004074801949555763,-0.01862916113649856,-0.16089714228018306,-0.009163264126703223,-0.028159816991659096,-0.011546171742244987,-0.008125207521452247,-0.06294631119901098,-0.004051568234887377,-0.017243200239949432,-0.0020393885991203736,-0.004073561665246359,-0.05382489674419721,0.0,0.0,-0.04172073226058453
0.0,-0.02463246957646235,-0.00012659564838254,-0.0018096816339589772,-0.06098599757784285,-0.0024180828025921366,-0.004050296401245246,-0.0009193564495157355,-0.0030746737844686662,-0.017913606790626407,-0.0004190011700404246,-0.004859046780056261,-7.361251701000839e-05,-0.0023102831583111396,-0.018823799821984382,-8.687850007774525e-05,-4.5705639109681624e-05,-0.015344487644648576,-0.16224282138252988,-0.18186187688077174,-0.4980011369206834
0.0,-0.023280283216581994,-0.00018429196041915247,-0.003069688288902232,-0.058478946645606225,-0.002059945632972121,-0.006222522388870992,-0.0012995143003281708,-0.004244833096431985,-0.025832937540011005,-0.0007781606855942406,-0.008459497493532876,-0.00022049621188775329,-0.0030981592451685067,-0.026039719579876813,-0.0002839735078637259,-0.0005179744616248142,-0.018502554523617237,-0.18731430166721377,-0.21338141100024025,-0.4167301014915121
0.0,0.0,0.0,0.0,0.0,0.0,0.0,0.0,0.0,0.0,0.0,0.0,0.0,0.0,0.0,0.0,0.0,0.0,0.0,-0.025122096358450068,-0.00015463658239133033,-0.002850987590005314,-0.08028598041192397,-0.001825972208235762,-0.005809157550376618,-0.0012347544914457149,-0.0033280753396114976,-0.02081995936031939,-0.0006194923234103842,-0.008890064166394155,-0.0001532369587216747,-0.0030747893332350646,-0.023670809076846298,-0.0003646099053373216,-0.0006703189877742314,-0.014992418151261065,-0.22776983430458414,-0.5783619632454778
0.0,0.0,0.0,0.0,0.0,0.0,0.0,0.0,0.0,0.0,0.0,0.0,0.0,0.0,0.0,0.0,0.0,0.0,0.0,-0.04640969026804888,-0.0006763530920477851,-0.008635694813357285,-0.18441672828780106,-0.007198227161359969,-0.023796244624140334,-0.006889091386279413,-0.007360423640204941,-0.055477557963667504,-0.002602731281169828,-0.024711547735845475,-0.0009916558704904,-0.024797100879417874,-0.06973094433648004,-0.000328569403285859,-0.000623281909908587,-0.03535306195435757,0.0,-0.0735029758948929,-0.004076233087062664,-0.018628827827640214,-0.16089557597267928,-0.009165745244508682,-0.028166163410360958,-0.011550358513196678,-0.008124493096314928,-0.06293725311726132,-0.004049593127749037,-0.017238329789397572,-0.0020403955691787857,-0.004074810967353826,-0.05381948927999548,0.0,0.0,-0.04172865971027062
0.0,-0.024580429921045276,-0.00012469252169135345,-0.001777166279684917,-0.061223605893144,-0.0023819728236223548,-0.003998083413549908,-0.0009022316663755046,-0.003078703185302671,-0.01805989167045888,-0.0004119685118558065,-0.004768803929127559,-7.263467341407115e-05,-0.0022637083585471977,-0.018789245777697364,-8.569705628413004e-05,-4.424388702383991e-05,-0.015366750499050796,-0.16220087745942754,-0.181450137106249,-0.4984184717933674
0.0,-0.023443536354940824,-0.00018242975983353863,-0.003032959593606815,-0.058612091709385146,-0.002041060918317665,-0.006165845397908748,-0.001282655422065181,-0.004324773427495611,-0.02595223924832778,-0.0007693207688095788,-0.008352940086411124,-0.00021849120776331813,-0.003059970521548168,-0.02612020700316879,-0.0002803437713675026,-0.0005091211204928151,-0.01855977716181315,-0.1875925340938283,-0.21337234115277742,-0.41612656365511425
0.0,0.0,0.0,0.0,0.0,0.0,0.0,0.0,0.0,0.0,0.0,0.0,0.0,0.0,0.0,0.0,0.0,0.0,0.0,-0.025360775926898404,-0.00015248787859883112,-0.002811773906126018,-0.0804430305668247,-0.0018011756261073352,-0.005729674945089432,-0.0012173241317689919,-0.0032817864108465817,-0.021106707764571714,-0.0006109782478183448,-0.008766058923563023,-0.00015124722598931084,-0.003031488976898109,-0.023567023067522338,-0.00035951337816189866,-0.0006602524813094874,-0.014835762470896494,-0.22732401421661538,-0.5787880606076229
0.0,0.0,0.0,0.0,0.0,0.0,0.0,0.0,0.0,0.0,0.0,0.0,0.0,0.0,0.0,0.0,0.0,0.0,0.0,-0.04640907474126621,-0.0006763684532008454,-0.008635794787445637,-0.1844163355030762,-0.007198379248803589,-0.023796517194574505,-0.006889286492471057,-0.007360758838239233,-0.055476619057065954,-0.0026025598897415946,-0.024711028836211266,-0.0009917232667952692,-0.02479712036782168,-0.06973166094237637,-0.0003285365684305102,-0.0006232290752384208,-0.035353887012166595,0.0,-0.0735028132669737,-0.004076513528767263,-0.01862876258345781,-0.16089526922636818,-0.009166231444931039,-0.028167407072948125,-0.011551178939785713,-0.008124353135932792,-0.06293547780138943,-0.00404920612591335,-0.017237375500899963,-0.0020405928892529034,-0.004075055778950934,-0.053818429827946095,0.0,0.0,-0.041730213151407236
0.0,-0.024702338420862082,-0.00012406855454334112,-0.0017679312494127653,-0.06117969411853335,-0.0023701157173101712,-0.0039799065056215594,-0.0008971800140849601,-0.0030609069651205984,-0.01837579288467802,-0.0004097877777162002,-0.004742690295289062,-7.229213100179354e-05,-0.002250456310549884,-0.01881189444791339,-8.528847135798959e-05,-4.389662034125743e-05,-0.015303136126278446,-0.16242496919762697,-0.18156717906095554,-0.49782977510600984
0.0,-0.023490716638668294,-0.00018080049468304486,-0.003005945725788784,-0.05880460492603388,-0.0020233758425704904,-0.006112648228759215,-0.0012705855982460324,-0.004285541381095427,-0.02629575506287818,-0.0007622889843394833,-0.008276150532254795,-0.0002165766473380995,-0.0030315077666877165,-0.026076883761020353,-0.00027771470818263794,-0.0005039775332683195,-0.018442258966869848,-0.18769892415607883,-0.21324822043285405,-0.41599470623066204
0.0,0.0,0.0,0.0,0.0,0.0,0.0,0.0,0.0,0.0,0.0,0.0,0.0,0.0,0.0,0.0,0.0,0.0,0.0,0.02568557086773755,0.00014887885406681442,0.0027338442814915428,0.0810418607775729,0.0018421794155541133,0.005528817219894372,0.001202409365568058,0.0032387351414762053,0.021030019090141197,0.0005917426457484887,0.00902676245023014,0.0001405710574152767,0.002988983469232844,0.023434011157014545,0.00035254087893372385,0.0008455471080656081,0.014947924886721798,0.22902113795764917,0.5761983016812382
0.0,0.0,0.0,0.0,0.0,0.0,0.0,0.0,0.0,0.0,0.0,0.0,0.0,0.0,0.0,0.0,0.0,0.0,0.0,0.04643894000428241,0.0006756221318978098,0.008630935183171382,0.1844353088034774,0.007190990149325784,0.023783267776331263,0.006879808212727017,0.007344477381860744,0.05552218339391145,0.002610881268838988,0.024736212995069902,0.0009884499225239016,0.024796160496534426,0.06969682497513655,0.00033013085797370845,0.0006257943987746252,0.035313802878088024,0.0,0.07351067058072366,0.0040628928953884615,0.018631920458686533,0.16091007753600783,0.009142616246425955,0.028106998608020076,0.011511332258945397,0.008131145126660903,0.06302165651611565,0.004067996820343196,0.017283706484033483,0.0020310098112963537,0.004063165357976902,0.05386984757052343,0.0,0.0,0.04165475455877772
0.0,0.02523632932158159,0.00011822895293986669,0.001701246610308945,0.061340262702764034,0.0025937312548021344,0.003696795382836311,0.0008827732931836956,0.0030649623821014994,0.01818490019895322,0.0003966787662477346,0.004832256381927259,6.780510984486056e-05,0.0022442598381102008,0.01883826090482818,8.022486788437905e-05,0.0003623522924221686,0.015503435101802679,0.16330008447290342,0.1820938563759173,0.49546142348069405
0.0,0.023827704029325904,0.00017459243673301463,0.0028963960760628564,0.05885767796639102,0.002192650159710715,0.005805707806007865,0.0012581421398580794,0.004223076317519735,0.025947451057359943,0.0007442866899397814,0.008541210129228134,0.00020727447330920015,0.002984980386342251,0.026099837362567872,0.0002745390292908056,0.0009895540115534547,0.018651387289244207,0.18822667797593684,0.21444215685568846,0.4136545453887875
0.0,0.0,0.0,0.0,0.0,0.0,0.0,0.0,0.0,0.0,0.0,0.0,0.0,0.0,0.0,0.0,0.0,0.0,0.0,0.025698359453072563,0.00014542410571114533,0.002684150456384301,0.08052130196372981,0.0019245878760739447,0.00576228250647659,0.0011744849487602446,0.003192470164559059,0.020915894158741257,0.0005780188936843694,0.009004878646791037,0.000146328912696083,0.0029195766998255583,0.02296264800605196,0.0003443576580502601,0.0008256023787550058,0.014618912530998559,0.22700024891991316,0.5795803116422885
0.0,0.0,0.0,0.0,0.0,0.0,0.0,0.0,0.0,0.0,0.0,0.0,0.0,0.0,0.0,0.0,0.0,0.0,0.0,0.046438817601496055,0.0006756252107795144,0.008630955277320452,0.18443523273608173,0.007191020637883437,0.023783322564569383,0.006879847295920004,0.007344544468667413,0.05552199648080774,0.0026108470506910736,0.02473610962001954,0.0009884634048117939,0.024796164718117193,0.06969696910520967,0.00033012430027261406,0.0006257838480089242,0.035313968230949296,0.0,0.07351063904795367,0.004062948995661052,0.01863190766622315,0.16091001835234403,0.009142713534978805,0.0281072475270078,0.011511496374210598,0.0081311172631053,0.06302130253622633,0.004067919531577539,0.017283515997531928,0.0020310492727503436,0.004063214337548666,0.053869636549605346,0.0,0.0,0.04165506556488096
0.0,0.025177123053009703,0.0001168721637531222,0.0016817005957265496,0.06111963430814032,0.002656102534414174,0.0038872265640026785,0.000872604592435764,0.0030295864991717776,0.01816178665213018,0.00039211805339807714,0.004845785231610438,6.702846476244905e-05,0.002218368470400223,0.01862082728502385,7.93056462923211e-05,0.0003577556935741323,0.01532425975525617,0.16271582989222194,0.18129316995675146,0.497382783062721
0.0,0.02378056799808019,0.00017225042836791873,0.002857553226971001,0.0589388082353543,0.0022142441887256737,0.00591014874134845,0.0012412168594341114,0.004189131282462327,0.025900907297584284,0.0007342900418817484,0.008517239072829046,0.00023308786954757973,0.0029448501205897293,0.025816886064834985,0.00027084645582197564,0.0009754998246700408,0.01844555577708245,0.1876321514261484,0.21360764177902286,0.41561697178389634
0.0,0.0,0.0,0.0,0.0,0.0,0.0,0.0,0.0,0.0,0.0,0.0,0.0,0.0,0.0,0.0,0.0,0.0,0.0,0.025400581292082284,0.00014046809124708612,0.0028787949844879326,0.07929350573274618,0.0021849094578292785,0.006360557845380291,0.0011343850970249238,0.0030835497984256738,0.020202481580777382,0.0005583454974070383,0.008764849966168907,0.00014139814701474374,0.002823314317541604,0.022530564513733167,0.00033261389137360144,0.0007971991364037583,0.014314467501102431,0.22364541391094814,0.5854124468377361
0.0,0.0,0.0,0.0,0.0,0.0,0.0,0.0,0.0,0.0,0.0,0.0,0.0,0.0,0.0,0.0,0.0,0.0,0.0,0.04643865468140701,0.000675629327667875,0.008630982189114962,0.1844351330794726,0.007191061410397642,0.023783395944199755,0.006879899538183183,0.007344634097548479,0.05552174753910748,0.0026108013997648335,0.02473597187809789,0.000988481412346915,0.024796170606955714,0.06969716221609801,0.00033011554980859765,0.0006257697702475182,0.03531418932054819,0.0,0.07351059770647562,0.004063023925134052,0.018631890780093606,0.16090994099325592,0.00914284349838342,0.028107580094892785,0.01151171556843489,0.008131080151317964,0.06302083065467069,0.004067816400818392,0.017283261894838673,0.002031101970386833,0.00406327976164058,0.05386935540962426,0.0,0.0,0.04165548115099894
0.0,0.02479498136669964,0.00011254161260154704,0.001708112968541255,0.06009073623170604,0.0029130889524208313,0.004388127922011126,0.0008401168334357911,0.002916506456379322,0.017485344805939086,0.00037755430131471124,0.004665588269407537,6.455083097962635e-05,0.0021356158286750812,0.018016268888622865,7.637290193572701e-05,0.0003442776908834385,0.014886877380571635,0.1597716010284363,0.1779692911072148,0.5064423200178788
0.0,0.023715718015437197,0.00016875756383141597,0.0029336578910427497,0.058467088041841704,0.0024093869389539275,0.006209032753759626,0.0012158770504292862,0.0041037592127437465,0.02537366767769513,0.0007193555204374586,0.008411288872527489,0.00022841714923363835,0.0028848199881533736,0.025727288842068128,0.0002653194780798922,0.0009554012070789987,0.018310385327111562,0.18649688887932528,0.21216782472360773,0.4192359195946045
0.0,0.0,0.0,0.0,0.0,0.0,0.0,0.0,0.0,0.0,0.0,0.0,0.0,0.0,0.0,0.0,0.0,0.0,0.0,-0.025245090820994173,-0.00013826487937107596,-0.0028822536470123543,-0.07892048850198637,-0.0022044317245777847,-0.006420092231257437,-0.0011039083931382,-0.0030063443028623686,-0.020036714818070463,-0.0005539465982526666,-0.00859275960821504,-0.00014637856482683037,-0.0028110138112294922,-0.02275003262977403,-0.00032599461262949756,-0.0007388330846661273,-0.014168777120553052,-0.22234782528838706,-0.5876060091022769
0.0,0.0,0.0,0.0,0.0,0.0,0.0,0.0,0.0,0.0,0.0,0.0,0.0,0.0,0.0,0.0,0.0,0.0,0.0,-0.04640895840654634,-0.0006763712797382588,-0.008635813006355207,-0.18441625479301305,-0.007198407211611088,-0.023796566856287164,-0.006889322464175108,-0.007360820825621613,-0.05547644224266691,-0.0026025279287657604,-0.02471093136892578,-0.0009917357506332805,-0.02479712295252765,-0.06973179120131628,-0.00032853045250991653,-0.000623219230139862,-0.03535403886560801,0.0,-0.07350277996893252,-0.004076565477163649,-0.018628749679891494,-0.16089520548900785,-0.00916632141993173,-0.028167637024724045,-0.01155133092942762,-0.00812432678557596,-0.06293514522549927,-0.0040491340343742676,-0.017237197430979227,-0.0020406294749610956,-0.004075101105729222,-0.05381823068425596,0.0,0.0,-0.04173050010598705
0.0,-0.02449417456822457,-0.00011277118681474192,-0.0017031971636415782,-0.059867841085859866,-0.002918093120926767,-0.0045412705287121964,-0.0008157765781307956,-0.0027837435060507213,-0.017543983187247328,-0.0003725382801221647,-0.004551827061010241,-6.569803106737196e-05,-0.002118477855939067,-0.01849394861468765,-7.7511325659073e-05,-0.00030765534395123506,-0.014493025668250973,-0.1591234813472159,-0.1768598185686729,-0.5087544863613701
0.0,-0.02356415223707761,-0.00016832695425060546,-0.0029374916171776865,-0.05826466283755399,-0.002426143686847769,-0.006315522283959428,-0.0011832344104214395,-0.004013662371013151,-0.025537185152142,-0.0007097787202397474,-0.008264276845392014,-0.0002300504227529574,-0.0029568878124463208,-0.026196985804300448,-0.0002586176728975978,-0.00089815800400981,-0.01812966079065621,-0.1863768327463701,-0.21185264187789915,-0.419714920884459
0.0,0.0,0.0,0.0,0.0,0.0,0.0,0.0,0.0,0.0,0.0,0.0,0.0,0.0,0.0,0.0,0.0,0.0,0.0,-0.025185884160275642,-0.00013725905230885243,-0.0028584381168533196,-0.07934730197796414,-0.002185244338115282,-0.006364043713587392,-0.0010966269521307508,-0.0029861774995347725,-0.01998447123614335,-0.0005496594264493221,-0.008579778897289364,-0.0001448886051167002,-0.0032993444054723025,-0.022839759057359927,-0.00032370593614169924,-0.0007361668508483612,-0.014065879499538659,-0.2227455462316151,-0.5865690453073064
0.0,0.0,0.0,0.0,0.0,0.0,0.0,0.0,0.0,0.0,0.0,0.0,0.0,0.0,0.0,0.0,0.0,0.0,0.0,-0.04387271740034573,-0.0006004056718287007,-0.007666192858757379,-0.19140129400413947,-0.006389964435610096,-0.02112472198961384,-0.006115438965776918,-0.006533580715291232,-0.05628364053781359,-0.0023109433488895615,-0.02334186265365817,-0.0008802113909198931,-0.0314389732094536,-0.06981060153083503,-0.0002917569443649182,-0.0005534309287696741,-0.031383235420134804,0.0,-0.07226783009139237,-0.0036181300264103797,-0.016538003535780825,-0.1743964779460127,-0.008135958355703857,-0.025002160087836837,-0.010252231184490016,-0.007212861048728107,-0.06464887248649133,-0.0035958461532794666,-0.017936978587993077,-0.0018109713794196415,-0.0036169404474476015,-0.0539239851708833,0.0,0.0,-0.03704172550433276
0.0,-0.02440136222379658,-0.00011201824783395937,-0.0016923004743589756,-0.06004438528968105,-0.0028986851638396717,-0.0045029349892119295,-0.0008117855749798774,-0.0027729074295660995,-0.01747843985508956,-0.00037037424136769306,-0.004548532742691274,-6.52026460011208e-05,-0.0022092023866649995,-0.018458696999604132,-7.693890456716413e-05,-0.00030768662426808123,-0.014427257629788878,-0.15902052087674198,-0.17666630874394657,-0.5091338284544564
0.0,-0.0234384689815465,-0.0001666191129116919,-0.002907039354555842,-0.05865095600770726,-0.0024002134306141485,-0.006244358794281178,-0.0011729480861474315,-0.003977572725733759,-0.02541370334037169,-0.0007030277341953591,-0.008256025466312057,-0.00022758739892975996,-0.0033921104347856405,-0.02616466752388014,-0.00025634428717583285,-0.000892234071937337,-0.017960939934715786,-0.18650674818438157,-0.21173163901755004,-0.41953604978976267
0.0,0.0,0.0,0.0,0.0,0.0,0.0,0.0,0.0,0.0,0.0,0.0,0.0,0.0,0.0,0.0,0.0,0.0,0.0,-0.024786565343186764,-0.00013274222047438073,-0.0028744900402891314,-0.0780934679663874,-0.002235150016561169,-0.006515974161561357,-0.0014239540919656726,-0.002836313868223385,-0.019176054085336486,-0.0005415365974067789,-0.008389897025567295,-0.00015657772448352789,-0.003205525513701039,-0.023245607396965202,-0.0003098475916166188,-0.0006070882701234392,-0.014695854806596553,-0.22105306764986835,-0.5897171050458858
0.0,0.0,0.0,0.0,0.0,0.0,0.0,0.0,0.0,0.0,0.0,0.0,0.0,0.0,0.0,0.0,0.0,0.0,0.0,-0.04467875087230111,-0.0005686149796036991,-0.007251019414129682,-0.19084661791491703,-0.0060505261720068355,-0.019980402329226387,-0.007138472022885028,-0.006254004787229557,-0.05452388911619982,-0.0021663876955638956,-0.02262072972633022,-0.0008379260851445045,-0.03035971105102908,-0.07109565512387522,-0.0002724287494853096,-0.000517677261888504,-0.03483298389198582,0.0,-0.06828074939454908,-0.0034446433469911483,-0.015615318067066421,-0.17624200443462423,-0.0077319403947935465,-0.023736481250896342,-0.009763125846239054,-0.0067997065739362865,-0.061712054099051915,-0.0033593323644274414,-0.01991452222203715,-0.0017296199548098342,-0.003440089194777305,-0.05774810197175367,0.0,0.0,-0.0404781080778481
0.0,-0.023925022686950917,-0.00011307606666555982,-0.0016899977760357339,-0.05914738842310126,-0.002923047459288004,-0.004853220942913285,-0.0010612271980005024,-0.0025128076702552776,-0.016626988971013737,-0.0003614491996168307,-0.004430889881042692,-6.799863311094133e-05,-0.0021095288612421664,-0.018494249828705175,-7.977510280572822e-05,-0.0002304586193389294,-0.014404292497814405,-0.15848164000250803,-0.17473294331187184,-0.5137514638195417
0.0,-0.0233888454944708,-0.0001628703757749956,-0.0028667437316769423,-0.057986286864697145,-0.002397125161264179,-0.006378705473797886,-0.001569986866876639,-0.003810561965363154,-0.024502689540622683,-0.0006697294727034028,-0.008047009809203493,-0.00022747112472029993,-0.0033224791529205093,-0.026656236262736874,-0.00023697190639796942,-0.0007484009380214536,-0.018678809557634284,-0.18871717882260663,-0.2110982230130659,-0.4185305820670171
0.0,0.0,0.0,0.0,0.0,0.0,0.0,0.0,0.0,0.0,0.0,0.0,0.0,0.0,0.0,0.0,0.0,0.0,0.0,-0.02518265159978402,-0.00012996979946655504,-0.0027656880711329885,-0.07913908788998064,-0.0022160359605985923,-0.006352615834458508,-0.0015902416421075803,-0.0028168728288670373,-0.01917697290240144,-0.000569235281206484,-0.008662897676624927,-0.00014394737770749558,-0.0032197930430286487,-0.023003630435985526,-0.0003051996606919317,-0.0006540451835457412,-0.014708911203042716,-0.22290416293714843,-0.5864562940390057
0.0,0.0,0.0,0.0,0.0,0.0,0.0,0.0,0.0,0.0,0.0,0.0,0.0,0.0,0.0,0.0,0.0,0.0,0.0,-0.044771373296985065,-0.000563974328904377,-0.007196925074628529,-0.19088863176487214,-0.006001748764217854,-0.01983149804678248,-0.00721542288223863,-0.0061991370637483265,-0.05441795217881396,-0.0021608931923601487,-0.022573128318121985,-0.0008287151349982964,-0.03031457184056229,-0.07116974594599187,-0.00027233577027958975,-0.0005169939260865763,-0.03507466201215002,0.0,-0.06790294177472368,-0.0034065986985081413,-0.015513693401746702,-0.17658074742255725,-0.0076541388537885785,-0.02351083050538449,-0.009653940776831729,-0.006761366392791814,-0.061552665507056833,-0.0033572378146939394,-0.020166381099334916,-0.0017075221304854045,-0.003403963668743567,-0.05816279255586107,0.0,0.0,-0.040662888939233886
0.0,-0.024370598574334032,-0.0001083022781976504,-0.001628553962707438,-0.05978241579831918,-0.002801274552310424,-0.004496980620654011,-0.0011027407485440662,-0.0025727042906377325,-0.016741860325760777,-0.00035291867047976597,-0.004477959442774349,-6.394691766171154e-05,-0.002168509627279962,-0.01869280223113657,-7.526446574889518e-05,-0.00026413524258984007,-0.01471491372535897,-0.16031673599442642,-0.17633281351312793,-0.5089331689770934
0.0,-0.02355456772019687,-0.00015684480504358817,-0.0027467148259821862,-0.05848670548514787,-0.0023491455257588123,-0.006145513876161867,-0.001717497328299997,-0.0037856927444865894,-0.024285485051189142,-0.000690255151452595,-0.008285808030598522,-0.00021627132066171615,-0.0033273931887577604,-0.02646293744469689,-0.00023577446504093443,-0.0007895707753667156,-0.01865172948824261,-0.18967944715675916,-0.21116621905606556,-0.417264750667572
0.0,0.0,0.0,0.0,0.0,0.0,0.0,0.0,0.0,0.0,0.0,0.0,0.0,0.0,0.0,0.0,0.0,0.0,0.0,-0.025560798507847066,-0.00012806651159864632,-0.0026847626546509322,-0.07979240992924415,-0.0021481330772854506,-0.006144203529864353,-0.0016213731179305258,-0.0028982249280185466,-0.019514243453788726,-0.0005625229292999602,-0.008624749829291642,-0.0001355790000009224,-0.0033094857085698066,-0.02300609918249162,-0.00030194989994113244,-0.000684354443606964,-0.014712209068082155,-0.2237613204520092,-0.5844086758404546
0.0,0.0,0.0,0.0,0.0,0.0,0.0,0.0,0.0,0.0,0.0,0.0,0.0,0.0,0.0,0.0,0.0,0.0,0.0,-0.04518131877002073,-0.0005553289351748308,-0.0070903611612793,-0.19073771137140919,-0.005910191501542492,-0.01953796975599041,-0.00711819660817448,-0.006422535176317097,-0.05535706400967248,-0.0021367829390924135,-0.022286885521444602,-0.0008142564046494425,-0.030272351927670065,-0.07087604923941157,-0.00026973704049723337,-0.0005116886987078162,-0.03492047612258086,0.0,-0.0669857437807936,-0.0033470302511914097,-0.015294976405447335,-0.1792772488495919,-0.00752593170611534,-0.023126802585068103,-0.009484124463039983,-0.006670409050685456,-0.06242567414701111,-0.0033245059614011737,-0.01996354391790015,-0.0016754420592489437,-0.0033458278380773,-0.05747559810821182,0.0,0.0,-0.04007604605985128
0.0,-0.02497193020085682,-0.00010453576343709448,-0.0015788203046332428,-0.06030892251648865,-0.0027049892533492995,-0.0042275519559613495,-0.0011181977665943553,-0.0025986175674265898,-0.017091211320591,-0.00034533570159318795,-0.004448885068938103,-6.089971879555199e-05,-0.00223222025399391,-0.018834716781612106,-7.185033265183819e-05,-0.0002852076162980095,-0.01479406619414096,-0.1618537128245276,-0.17763864465878307,-0.5047290071513436
0.0,-0.023835204571031283,-0.00015325641734315577,-0.0026744888285359114,-0.058874281598215686,-0.0022843179482991047,-0.005922516362585483,-0.0017436566531681312,-0.0038711270585323025,-0.024591707728202093,-0.000684443780349244,-0.008258114993535882,-0.0002094529468898605,-0.003395180535828286,-0.026435191872541196,-0.00023546533722502825,-0.0008177633652675664,-0.018675346842564496,-0.1906252392074086,-0.2115939727367442,-0.4151184714557041
0.0,0.0,0.0,0.0,0.0,0.0,0.0,0.0,0.0,0.0,0.0,0.0,0.0,0.0,0.0,0.0,0.0,0.0,0.0,0.02597410683955519,0.0001258979550211343,0.0025966287791130884,0.08058921723499914,0.0021269751577853635,0.005916238393168112,0.001648889877611575,0.002893142046975773,0.019794190432244976,0.000554008508642205,0.008565877769494969,0.00012670896864197005,0.0033113185864953503,0.023295829837567558,0.000298117719022618,0.0007146531213547315,0.014779234503133442,0.22483067648052382,0.581858131298804
0.0,0.0,0.0,0.0,0.0,0.0,0.0,0.0,0.0,0.0,0.0,0.0,0.0,0.0,0.0,0.0,0.0,0.0,0.0,0.04520690666296252,0.0005539140295153182,0.007076124373374682,0.19078956320611562,0.005895587153617843,0.01949885538542889,0.007107925531577656,0.006409789535514825,0.055412980941184575,0.002140516246307776,0.022288207119604345,0.0008103951172392174,0.03030153905669123,0.07084415233875709,0.00027065422642336655,0.0005130522191502898,0.03487963309928425,0.0,0.06694041723623916,0.0033310226456803706,0.015275450022704112,0.1794645009884906,0.007495686789625514,0.023043831744997405,0.009437739397862762,0.006666333008874705,0.06251024844021952,0.0033351060225935013,0.020007589883803356,0.0016651619934510656,0.0033312406284001887,0.05750727702151387,0.0,0.0,0.03998819041829336
0.0,0.025590751093954638,9.828439627836003e-05,0.0014918472100385277,0.06075509633588522,0.0027983448189895653,0.003852722242457268,0.001109190799363844,0.0025675952558502496,0.018000167299001852,0.00032974080396425717,0.004318559120768632,5.637036771775453e-05,0.002211149790105303,0.019164985400130632,6.669486621256406e-05,0.0003007701437135713,0.015017830693451691,0.16385017791099635,0.17904268120302208,0.49937691242966975
0.0,0.024062048367465956,0.00014877455355416145,0.002586417907079727,0.05904409518894215,0.0023870810575537926,0.005660469427159488,0.001759429031648549,0.003843462558066857,0.02515677260733352,0.0006743523356988624,0.00818121514038876,0.00020136309110661897,0.0033855463054220424,0.026974912429648296,0.00023392043808476585,0.000842434479075284,0.018716431131579832,0.19194910959795938,0.2122773390436429,0.4119146765451371
0.0,0.0,0.0,0.0,0.0,0.0,0.0,0.0,0.0,0.0,0.0,0.0,0.0,0.0,0.0,0.0,0.0,0.0,0.0,-0.024506000703504987,-0.00033851662491108845,-0.002833551048622649,-0.07961203323311877,-0.002378169397723358,-0.006025836247098812,-0.0018574458139560056,-0.0026561963836251984,-0.01976975561837843,-0.0005160904125418594,-0.008878557413833544,-0.00012678965183621885,-0.0033577281897296174,-0.023088413265945837,-0.000556491134097473,-0.0006955999021113604,-0.013837365343407982,-0.22510958430278216,-0.5838546471561612
0.0,0.0,0.0,0.0,0.0,0.0,0.0,0.0,0.0,0.0,0.0,0.0,0.0,0.0,0.0,0.0,0.0,0.0,0.0,-0.0426032310337729,-0.0017635802814083687,-0.008292660183495639,-0.19269711716479238,-0.006944495651177255,-0.018679690388956127,-0.007850990255969408,-0.005718218636257833,-0.05583660492611539,-0.0018965992433804734,-0.024067933192133305,-0.0007246135197950228,-0.028576960622848743,-0.06993013528075384,-0.0016410690069699958,-0.0007419455627871948,-0.0320324783315219,0.0,-0.06431198684621764,-0.005452958352503285,-0.016685685312736467,-0.17958869282762419,-0.006695448909457175,-0.022892639468382957,-0.008440503552768765,-0.005926232010692873,-0.06103069327356471,-0.0029491094069754504,-0.022354977389511442,-0.0014918218925347255,-0.0029770240845667074,-0.06125089392204788,0.0,-0.0023214211491109885,-0.03562823488344042
0.0,-0.024430062927218867,-0.00019349758239432902,-0.0014872285034481295,-0.059964425982152986,-0.0030133974813516115,-0.004188857478500155,-0.0012225112701753293,-0.0023746546436945134,-0.017666516969246572,-0.0003196391330867532,-0.004413126394942065,-5.6998782572391524e-05,-0.0022151253580830754,-0.018502848863632,-0.0001218005225408293,-0.00025390391799158556,-0.014100232951805495,-0.16060010190970478,-0.17661802164623133,-0.5082560637711541
0.0,-0.023043291242470183,-0.0002813283639451862,-0.002720739076141929,-0.05903271928050728,-0.0025642870782996985,-0.005862198767677877,-0.0020192929445809883,-0.0035317722149719394,-0.02498497696484021,-0.0006261218736732815,-0.00830477075523217,-0.00019337458687276947,-0.0034605225345499466,-0.026157771136674658,-0.0004443829106824685,-0.0007549413912346588,-0.017407883518819306,-0.18985003197351327,-0.21076383143458702,-0.4179945924282182
0.0,0.0,0.0,0.0,0.0,0.0,0.0,0.0,0.0,0.0,0.0,0.0,0.0,0.0,0.0,0.0,0.0,0.0,0.0,0.024283025706426417,0.0003060796020524298,0.0028250213576934287,0.07934766866675605,0.0022476620239725484,0.006044699240367835,0.002688266632786718,0.0025592123359361044,0.019988888236473653,0.0004860245841097825,0.009021870848724616,0.00011106883353217957,0.0032054298344047797,0.023397863873157572,0.000599329894574035,0.0007677800976883801,0.01395149196495046,0.22594339312819678,0.5822250534756319
0.0,0.0,0.0,0.0,0.0,0.0,0.0,0.0,0.0,0.0,0.0,0.0,0.0,0.0,0.0,0.0,0.0,0.0,0.0,0.042724905733838504,0.0017151104865391223,0.008230780774833768,0.19269039502092913,0.006887674799527326,0.01867197150940111,0.007811717829251297,0.005723461863633412,0.05586275685926031,0.001911478434658031,0.02400801760947164,0.0007236065008611559,0.028682046041365258,0.06993410964022445,0.0015882481091328777,0.0007348920025640871,0.03209860423117442,0.0,0.06438355819311925,0.005352961336590667,0.016613572786358957,0.17973018878044358,0.006693020364490634,0.02280612670172087,0.008426992004429302,0.005952803001183995,0.061172520695060816,0.0029783140114402556,0.02232704500779359,0.0014867992822032085,0.0029745024418996084,0.06116445558977974,0.0,0.00222977238327664,0.03570714486687454
0.0,0.02436277517770566,0.0001669461810927914,0.0018053477830165072,0.059350253507704925,0.0027263631617469083,0.0040494290987694,0.0018505642081266711,0.002235942623435516,0.018020042667838132,0.00028699917856880717,0.004558383495766285,4.903954622640148e-05,0.002075169133631347,0.019335108330167203,0.00024238396993800176,0.00027583697939273575,0.014260571288422551,0.16439181165799222,0.1788105711190029,0.5011463231396615
0.0,0.022413484447938364,0.00024917517812161167,0.0029595975445481167,0.058736269431864635,0.0023598396685718098,0.0058439887854442145,0.0028768624445008706,0.003275290680443793,0.025018401984917747,0.0005745990923169021,0.008424335403443197,0.00017151183332692272,0.0032063708526196325,0.02652261665266766,0.0005807865531467098,0.0007664151705287702,0.017182775104898268,0.1925853397795757,0.21073063254910204,0.41552154671990454
0.0,0.0,0.0,0.0,0.0,0.0,0.0,0.0,0.0,0.0,0.0,0.0,0.0,0.0,0.0,0.0,0.0,0.0,0.0,0.023966814607279893,0.0002950253118115476,0.0030685660201069426,0.07904556961973108,0.0021661153603182524,0.0063845094876291515,0.0025869448902675765,0.002474947413719682,0.01981238712213319,0.00046827024283768135,0.009156552868847645,0.00010711207423237704,0.0033441844089715004,0.02312162085990415,0.0005773181961407962,0.0008427169017971463,0.013733483961402419,0.22613342858321656,0.5827142784250303
0.0,0.0,0.0,0.0,0.0,0.0,0.0,0.0,0.0,0.0,0.0,0.0,0.0,0.0,0.0,0.0,0.0,0.0,0.0,0.04210202331255876,0.0015840937927039476,0.010174443789469039,0.19299626657823335,0.006360829486357012,0.02098366428704305,0.007213985577416322,0.005285438347755625,0.05491712137498274,0.001765013996730103,0.02523434138431726,0.0006682504830575531,0.028090349817556398,0.06804715993876355,0.0014669528637572342,0.00149360703928024,0.03161625682038339,0.0,0.06423953255046735,0.004943865115644945,0.015342242038313128,0.1832844770745101,0.006180910531399233,0.022428510276645386,0.007782349719256774,0.005496943547214215,0.06036083882609169,0.0027500237244974593,0.0219845122568146,0.0013730986333043893,0.0027469307387778825,0.06126703095052068,0.0,0.004794173697934665,0.03502435920897269
0.0,0.02413045538644942,0.00016358756880563912,0.0018917639303124417,0.058898404374107614,0.0026704711993676697,0.0042723396386450205,0.0018099359254145023,0.002188671724634128,0.0179636808948389,0.00028109638183933586,0.004579658949027929,4.80573903757518e-05,0.0021390391717361007,0.019091448183662,0.00023703686296978874,0.0002864069499398669,0.014040879297816727,0.16324095139957343,0.17863980132487642,0.5034261889705239
0.0,0.02236147581367901,0.00024134921565851486,0.0030647368565099825,0.058557078837783494,0.002285382814266549,0.006031512089011794,0.0027825943004001117,0.0031708034108777826,0.024817097401121903,0.0005563402218536718,0.0085830527165838,0.000166133079368732,0.0033568647345012873,0.02618263692188361,0.0005619676799694859,0.0008435252389800408,0.016852761832213715,0.19146355106132448,0.21058618026889991,0.41753481056728453
